-3.556648641824722290e-02 1.231324858963489532e-02 -1.998067088425159454e-02 9.919336996972560883e-03 3.371337801218032837e-02 3.282405668869614601e-03 3.259731456637382507e-03 1.712529174983501434e-02 -2.338082343339920044e-02 3.101134207099676132e-03 4.350562766194343567e-02 -2.010453306138515472e-02 6.461573764681816101e-03 2.227475307881832123e-02 -3.082671761512756348e-02 6.029998883605003357e-03 -3.177120909094810486e-02 7.788813207298517227e-03 -1.002318505197763443e-02 2.998103201389312744e-02 1.742105372250080109e-02 -9.583869948983192444e-03 -1.665335707366466522e-02 -1.612351159565150738e-03 4.158971458673477173e-02 -1.575936912558972836e-03 -3.093615919351577759e-02 1.266978681087493896e-02 1.829296350479125977e-02 1.056363992393016815e-02 -2.797506190836429596e-02 2.361874096095561981e-03 2.588380128145217896e-03 2.593823149800300598e-02 1.784770935773849487e-02 -3.089402429759502411e-02 -3.076883405447006226e-02 9.192546829581260681e-03 8.574482053518295288e-03 -9.363677352666854858e-03 5.183875188231468201e-02 -2.811967022716999054e-02 5.524776875972747803e-03 3.593756584450602531e-03 -4.446683451533317566e-02 -1.477541122585535049e-02 1.730758510529994965e-02 -6.489834631793200970e-04 -1.842002943158149719e-02 2.965913712978363037e-02 -4.385873675346374512e-03 1.590009965002536774e-02 1.903485879302024841e-02 9.939006529748439789e-03 1.098043750971555710e-02 1.058330107480287552e-02 5.005590501241385937e-04 2.580212429165840149e-02 1.713930070400238037e-02 -6.036179512739181519e-02 1.213925518095493317e-02 4.766934085637331009e-03 1.515455916523933411e-02 -9.128806181252002716e-03 4.927981179207563400e-03 -2.512186206877231598e-02 5.045534577220678329e-03 -7.501634303480386734e-03 -6.860672961920499802e-03 -1.518302224576473236e-02 -5.601362136076204479e-05 8.694488555192947388e-03 -8.668528753332793713e-04 9.565321728587150574e-03 2.334954217076301575e-02 -2.825982309877872467e-02 1.955106854438781738e-03 4.986164346337318420e-02 -3.704971447587013245e-02 -4.274067934602499008e-03 -5.606745369732379913e-03 -2.010741829872131348e-02 2.914969064295291901e-02 4.131881054490804672e-03 1.974811963737010956e-02 8.354871533811092377e-03 3.627147991210222244e-03 1.010390464216470718e-03 -1.911230571568012238e-02 -3.646417055279016495e-03 2.275828644633293152e-02 1.011779159307479858e-02 -3.578534582629799843e-03 1.861368492245674133e-02 1.437004748731851578e-02 5.277343560010194778e-03 1.579616218805313110e-02 -6.160139106214046478e-03 1.335327886044979095e-02 8.101979270577430725e-03 5.362205207347869873e-03 -2.960559353232383728e-02 -7.461994886398315430e-03 1.444076653569936752e-02 -9.888910688459873199e-03 -2.320874482393264771e-03 -2.706874907016754150e-02 -2.980833500623703003e-02 -5.712314974516630173e-03 -5.773448385298252106e-03 3.477982431650161743e-02 7.013868074864149094e-03 2.275495417416095734e-02 -3.323268517851829529e-02 1.141540799289941788e-02 -4.187667276710271835e-03 5.415413179434835911e-04 8.515897206962108612e-03 8.947398513555526733e-03 -1.193240657448768616e-02 -1.036612689495086670e-02 -1.692892797291278839e-02 4.683562368154525757e-02 1.801764778792858124e-02 3.021782450377941132e-02 -2.308058319613337517e-03 -6.545479409396648407e-03 1.721080578863620758e-02
-6.867443677037954330e-03 -2.248370554298162460e-03 9.820390492677688599e-03 -2.922311797738075256e-02 -4.214176535606384277e-02 6.078193429857492447e-03 1.827652379870414734e-02 -1.586973294615745544e-02 5.266853794455528259e-02 6.457787007093429565e-03 -1.966676115989685059e-02 2.284373715519905090e-02 -2.323975553736090660e-03 -1.013523153960704803e-02 6.029652431607246399e-03 4.508745856583118439e-03 9.693119674921035767e-03 -1.180357765406370163e-02 -3.634361084550619125e-03 -6.604699883610010147e-03 -1.195524260401725769e-02 1.469024550169706345e-02 2.264898084104061127e-02 -7.475132588297128677e-03 -6.975186057388782501e-03 -6.088726688176393509e-03 2.809469588100910187e-02 9.821859188377857208e-03 -2.515879459679126740e-02 7.562661077827215195e-03 1.110457908362150192e-02 1.056888885796070099e-02 -6.207718048244714737e-03 1.786921522580087185e-03 -9.726535528898239136e-03 3.407527133822441101e-02 1.937170885503292084e-02 9.422143921256065369e-03 -1.785907149314880371e-02 2.951643802225589752e-02 1.055663917213678360e-02 -3.890838101506233215e-02 -2.244675159454345703e-02 7.627068553119897842e-03 1.844685990363359451e-03 -1.898450218141078949e-02 -1.603109948337078094e-02 -2.556330058723688126e-03 -3.109777905046939850e-02 -5.498231388628482819e-03 4.172457009553909302e-02 -1.309778727591037750e-02 -4.363815486431121826e-02 4.089690744876861572e-02 -1.244445145130157471e-02 1.887860521674156189e-02 -2.688563894480466843e-03 2.754635177552700043e-02 -2.209051325917243958e-02 -3.040905343368649483e-03 1.141184475272893906e-02 -5.366433877497911453e-03 -2.413656190037727356e-02 2.607389120385050774e-03 2.588650956749916077e-02 -1.740533113479614258e-02 -1.753255724906921387e-02 6.298621185123920441e-03 -5.189572647213935852e-02 -1.766226813197135925e-02 2.509543206542730331e-03 -1.755006052553653717e-02 -1.477277465164661407e-02 3.103603236377239227e-02 3.529560193419456482e-02 1.184048317372798920e-02 3.532335534691810608e-02 -2.262872830033302307e-02 2.423376217484474182e-02 -9.800032712519168854e-04 4.537474829703569412e-03 -2.884107269346714020e-02 -4.235699027776718140e-02 -1.044577825814485550e-02 3.863715380430221558e-02 3.712688386440277100e-02 -5.489775910973548889e-03 2.542832866311073303e-02 -6.690338999032974243e-02 4.454762488603591919e-02 1.155200134962797165e-02 -1.427247095853090286e-02 6.101551000028848648e-03 -1.728074625134468079e-02 -2.286989986896514893e-02 -2.271108515560626984e-02 -2.462377026677131653e-02 2.331593073904514313e-02 -1.066722907125949860e-02 1.840672455728054047e-02 4.262849688529968262e-02 -1.855025254189968109e-02 8.919179439544677734e-03 -7.684255484491586685e-03 7.018788903951644897e-02 6.001356989145278931e-03 3.031858615577220917e-02 -4.891448654234409332e-03 1.827154867351055145e-02 -5.489666480571031570e-03 2.679111622273921967e-02 2.075397595763206482e-02 4.673918336629867554e-02 -1.440398674458265305e-02 5.208782851696014404e-03 -1.151649281382560730e-02 4.650849476456642151e-02 1.671015657484531403e-02 -2.478339709341526031e-02 1.583742536604404449e-02 2.538926340639591217e-02 -8.492903783917427063e-03 -2.813584171235561371e-02 9.537946432828903198e-03 1.333701703697443008e-02 2.896020375192165375e-02 -2.617861516773700714e-02 -3.474332857877016068e-03
-6.156093906611204147e-03 4.965192172676324844e-03 8.649472147226333618e-03 -2.048243023455142975e-02 5.205178604228422046e-05 1.021055784076452255e-02 -4.768860060721635818e-03 -1.769977249205112457e-02 -4.815131053328514099e-02 1.473989989608526230e-02 9.461497887969017029e-03 -6.036669481545686722e-03 -3.020784119144082069e-03 5.490219220519065857e-02 1.352815050631761551e-02 -2.150209806859493256e-02 5.746132694184780121e-03 -2.329421462491154671e-03 3.019473748281598091e-03 -2.593290247023105621e-02 1.577054266817867756e-03 -3.726609284058213234e-03 -5.822095088660717010e-03 7.352005341090261936e-04 -9.106049314141273499e-03 2.961533144116401672e-02 1.753817312419414520e-02 -4.386641085147857666e-02 -2.836358733475208282e-02 -2.816711552441120148e-02 -1.309935841709375381e-02 8.271690458059310913e-03 -6.532811559736728668e-03 -1.837991992942988873e-03 2.799256704747676849e-02 2.655354887247085571e-02 2.280670031905174255e-02 1.205943431705236435e-02 -5.704637616872787476e-02 -1.259948872029781342e-02 3.696482256054878235e-02 -4.462767392396926880e-03 1.279860921204090118e-02 1.257450133562088013e-02 -1.405222993344068527e-02 7.700022310018539429e-03 -2.464834041893482208e-02 -3.285025805234909058e-02 2.382931299507617950e-02 5.664134863764047623e-03 -2.116745710372924805e-02 -1.102230511605739594e-02 1.573707722127437592e-02 1.710186898708343506e-02 -2.220666594803333282e-02 4.007570445537567139e-03 1.905634626746177673e-02 -3.435464948415756226e-02 -3.028390370309352875e-02 -1.049671042710542679e-02 -2.753384411334991455e-02 1.288192160427570343e-02 3.380536660552024841e-02 3.168737888336181641e-02 1.520984061062335968e-02 9.621600620448589325e-03 -2.207214012742042542e-03 1.758678257465362549e-02 6.430386565625667572e-03 2.469573402777314186e-03 -7.576843257993459702e-03 3.430016338825225830e-02 3.114550374448299408e-02 2.396865282207727432e-03 -3.603918710723519325e-03 4.720196127891540527e-03 -2.826209738850593567e-02 4.636308923363685608e-02 1.155101973563432693e-02 1.253130612894892693e-03 -1.920865103602409363e-02 1.130740903317928314e-02 8.404917083680629730e-03 -4.570958390831947327e-02 -1.113663148134946823e-02 4.928310867398977280e-03 4.225146770477294922e-02 1.493984926491975784e-02 1.267197914421558380e-02 -1.315181236714124680e-02 2.188793441746383905e-04 -1.191597245633602142e-02 4.381058271974325180e-03 1.554267574101686478e-02 -7.298379205167293549e-03 3.048261441290378571e-02 -1.645052991807460785e-02 8.448855951428413391e-03 -1.773406378924846649e-02 -4.159187432378530502e-03 2.186544239521026611e-02 -3.259043022990226746e-02 -2.308643236756324768e-02 2.561995759606361389e-03 -1.978090777993202209e-02 6.742221768945455551e-03 5.814991891384124756e-03 2.919209189713001251e-02 -1.141120679676532745e-03 -4.911305848509073257e-03 8.569206111133098602e-03 -8.323365822434425354e-03 -4.934593662619590759e-02 3.944420441985130310e-02 -1.453354675322771072e-02 3.342960402369499207e-02 -5.267416592687368393e-03 5.588604509830474854e-02 1.533533446490764618e-02 5.429798737168312073e-02 -3.527253400534391403e-03 -2.113128080964088440e-03 4.475135821849107742e-03 2.562616020441055298e-03 9.747172705829143524e-03 1.343047711998224258e-02 1.256041601300239563e-02 -1.394931506365537643e-02
1.441996637731790543e-02 8.345747366547584534e-03 2.889177016913890839e-02 -4.082771949470043182e-03 2.796491375192999840e-03 -9.019541554152965546e-03 2.748151309788227081e-02 7.654552813619375229e-03 -3.237649425864219666e-02 1.017236243933439255e-02 1.578755117952823639e-02 -2.516120113432407379e-02 1.965576549991965294e-03 1.535501983016729355e-02 -1.656544767320156097e-02 -2.854123897850513458e-02 1.912930049002170563e-02 3.040016256272792816e-02 3.847105428576469421e-02 9.669632650911808014e-03 -1.857781969010829926e-02 -7.227923197206109762e-05 7.959246635437011719e-03 -1.493966300040483475e-02 2.726234309375286102e-02 -2.261255122721195221e-02 -4.418858792632818222e-03 -1.108228694647550583e-02 7.692525628954172134e-03 -2.701975591480731964e-02 -2.168084867298603058e-02 -1.230905205011367798e-02 -1.141052041202783585e-02 1.806640066206455231e-02 1.343536563217639923e-02 -4.338977858424186707e-03 3.455631062388420105e-02 -5.967216566205024719e-03 -3.596262261271476746e-02 -1.266977842897176743e-02 3.677213098853826523e-03 4.735564347356557846e-03 1.168006449006497860e-03 9.509767405688762665e-04 -8.672464638948440552e-03 -1.434251945465803146e-02 1.431266032159328461e-02 5.567224696278572083e-03 -1.807706546969711781e-03 -1.092143449932336807e-02 -1.871789991855621338e-02 1.476914808154106140e-02 -1.702350936830043793e-02 1.711519621312618256e-02 7.798040751367807388e-03 -6.988907232880592346e-03 1.527822948992252350e-02 -1.386506576091051102e-02 2.008262462913990021e-02 1.837562769651412964e-02 1.924436772242188454e-03 -1.232180395163595676e-03 1.339422073215246201e-02 6.874453742057085037e-03 -2.345697581768035889e-02 -7.890448905527591705e-03 1.547760050743818283e-02 6.837134249508380890e-03 3.865466639399528503e-02 -2.223910996690392494e-04 -2.878263220191001892e-02 -4.806284978985786438e-02 4.091257974505424500e-02 -2.126685157418251038e-02 1.321138069033622742e-02 -6.096610799431800842e-03 -3.825096646323800087e-03 -1.431202143430709839e-02 1.991944760084152222e-02 5.996814463287591934e-03 1.474728924222290516e-03 2.364199049770832062e-02 2.361322566866874695e-02 -1.435346901416778564e-02 4.327598493546247482e-03 2.725698286667466164e-03 1.494038850069046021e-02 7.386069279164075851e-03 3.988216165453195572e-03 -2.175643295049667358e-02 1.615855284035205841e-02 8.409779984503984451e-04 -1.271697133779525757e-02 -6.506577134132385254e-03 -4.050311632454395294e-03 -3.001949936151504517e-02 1.665120199322700500e-02 2.431844547390937805e-02 1.360170193947851658e-03 6.966109387576580048e-03 2.353190071880817413e-02 -1.657191896811127663e-03 -1.493477635085582733e-02 1.685878378339111805e-03 -3.610198572278022766e-02 3.199883550405502319e-02 -5.663139279931783676e-03 -4.868070129305124283e-03 -7.363754324615001678e-03 -2.810398861765861511e-02 1.030804030597209930e-02 5.247127730399370193e-03 -3.231313079595565796e-03 -1.771059446036815643e-02 4.879411309957504272e-03 3.344416618347167969e-02 -3.323849290609359741e-03 -8.733096532523632050e-03 2.716050669550895691e-02 -1.904602348804473877e-02 -1.366776227951049805e-02 -1.025763992220163345e-02 2.023295313119888306e-02 -2.558808960020542145e-02 7.984938099980354309e-03 1.725274324417114258e-02 2.465159446001052856e-02 2.834493760019540787e-03
4.060143604874610901e-02 2.914411202073097229e-02 5.091437697410583496e-02 1.381883770227432251e-02 4.720913129858672619e-04 3.294390067458152771e-02 1.225314475595951080e-02 -1.954728737473487854e-02 -5.954849533736705780e-03 -2.466139942407608032e-02 3.339359536767005920e-02 2.460777293890714645e-03 4.632498323917388916e-02 -1.104602310806512833e-02 -2.718114992603659630e-03 1.961521804332733154e-02 -1.985030435025691986e-02 3.473712131381034851e-02 2.332724817097187042e-02 2.210553549230098724e-02 1.879478804767131805e-02 -1.557782664895057678e-02 2.546058734878897667e-03 -3.029931336641311646e-02 5.507346987724304199e-02 -3.347553429193794727e-04 -1.233859546482563019e-02 8.589945733547210693e-03 5.041543394327163696e-03 -5.290116183459758759e-03 2.249129349365830421e-03 3.536013141274452209e-02 -5.780487321317195892e-03 -3.793188370764255524e-03 2.351517044007778168e-02 1.160202734172344208e-02 -1.814910396933555603e-02 -8.025864139199256897e-03 1.217864104546606541e-03 -1.374323200434446335e-02 1.416318677365779877e-02 4.685526341199874878e-02 2.039559744298458099e-02 2.297043800354003906e-03 1.491478458046913147e-02 -3.070643916726112366e-02 -1.787150092422962189e-02 -2.840955276042222977e-03 2.838291041553020477e-02 -7.146515697240829468e-02 -4.811023175716400146e-02 -3.302803263068199158e-02 3.037386201322078705e-02 -3.055095486342906952e-02 -1.923733949661254883e-02 1.891402341425418854e-02 -9.945098310708999634e-03 -2.805009899020660669e-05 -9.564231149852275848e-03 7.404852658510208130e-03 -4.987416788935661316e-03 -2.440662682056427002e-02 -2.708040177822113037e-02 9.192712604999542236e-03 -2.834358485415577888e-03 -3.074778616428375244e-02 6.357801146805286407e-03 1.700648479163646698e-02 1.444500684738159180e-02 6.134836003184318542e-03 3.244105726480484009e-02 -2.628316916525363922e-02 2.140452899038791656e-02 3.545549931004643440e-03 -1.066398993134498596e-02 -4.035482183098793030e-03 -9.534461423754692078e-03 1.990979723632335663e-02 2.782634645700454712e-02 -2.899087220430374146e-02 3.110427968204021454e-02 4.462747648358345032e-02 -5.522480234503746033e-03 -6.728886160999536514e-03 5.240416619926691055e-03 1.907854713499546051e-02 -3.546134382486343384e-02 8.617935702204704285e-03 3.190566319972276688e-03 2.324238978326320648e-02 -3.808808280155062675e-03 -1.362033281475305557e-02 -5.496814846992492676e-03 1.335392892360687256e-02 -3.443850949406623840e-02 1.315823290497064590e-02 1.348342280834913254e-02 -1.219589356333017349e-02 1.033086702227592468e-02 1.670579984784126282e-02 -1.697976514697074890e-02 -3.106419555842876434e-02 2.405974082648754120e-02 1.741636916995048523e-02 -4.203598573803901672e-02 2.023153193295001984e-02 -2.365671098232269287e-02 1.193397678434848785e-02 -2.993317507207393646e-02 -1.700790162431076169e-04 -3.395559266209602356e-02 -1.763858273625373840e-02 -1.824519783258438110e-02 -8.128643967211246490e-03 -1.063339691609144211e-02 3.525690361857414246e-02 -8.349122479557991028e-03 1.211915165185928345e-02 -1.958361640572547913e-02 -3.726846352219581604e-02 1.990716904401779175e-02 1.799864461645483971e-03 2.094747032970190048e-03 -2.641763351857662201e-02 1.219146605581045151e-02 -1.710844412446022034e-02 1.074506063014268875e-02 1.980532892048358917e-03
1.590324938297271729e-02 -1.039423607289791107e-02 3.682231530547142029e-03 -5.023273639380931854e-03 3.415341675281524658e-02 2.742574922740459442e-02 7.278735283762216568e-03 -2.700048126280307770e-02 -7.133644539862871170e-04 3.500306978821754456e-02 -3.843743586912751198e-03 -2.330821735085919499e-04 4.559930413961410522e-02 4.014549404382705688e-02 1.320906565524637699e-03 -1.447591464966535568e-02 -8.520988747477531433e-03 3.105426905676722527e-03 7.529074791818857193e-03 2.131151966750621796e-03 -2.525023417547345161e-03 2.761056087911128998e-02 4.966804757714271545e-03 1.387027651071548462e-02 1.001424621790647507e-02 -2.975233830511569977e-02 1.599905639886856079e-02 1.280233729630708694e-02 4.933896288275718689e-02 -3.303781151771545410e-02 -1.927163638174533844e-02 8.351427968591451645e-04 -2.055507153272628784e-02 5.374868586659431458e-02 2.542212046682834625e-02 2.005017921328544617e-02 -9.981861338019371033e-03 -3.880750015377998352e-02 5.533282645046710968e-03 -2.232704684138298035e-02 2.189585939049720764e-02 3.456418216228485107e-02 -1.396882068365812302e-02 1.506632845848798752e-02 2.632176503539085388e-02 -1.652498170733451843e-02 1.785790547728538513e-02 -6.345250178128480911e-03 -1.355948578566312790e-02 -2.544732019305229187e-02 -8.323492365889251232e-04 1.499596866779029369e-03 2.292772009968757629e-02 -7.384470663964748383e-03 4.743253812193870544e-02 -2.987810224294662476e-02 -2.125820145010948181e-02 -2.317612431943416595e-02 -1.329319085925817490e-02 -1.011778134852647781e-02 -1.185867749154567719e-02 -2.744160220026969910e-02 5.786172579973936081e-03 8.132236078381538391e-03 1.680594496428966522e-02 -8.025752380490303040e-03 -1.971118472283706069e-04 -2.333513088524341583e-02 -7.727586198598146439e-03 6.466763559728860855e-03 2.152453176677227020e-02 -2.667712420225143433e-02 6.722948048263788223e-03 -1.758448407053947449e-02 3.283415455371141434e-03 -2.913122437894344330e-02 2.510054782032966614e-02 3.021451411768794060e-03 3.821715945377945900e-03 -3.590069245547056198e-03 -1.875409856438636780e-02 -9.604574181139469147e-03 3.413302823901176453e-02 9.152324870228767395e-03 -2.257717400789260864e-02 -5.255418829619884491e-03 -1.422398723661899567e-02 1.786212064325809479e-02 2.256256714463233948e-02 -2.083697542548179626e-02 1.015400979667901993e-02 -1.301659364253282547e-02 2.206996269524097443e-02 1.609216257929801941e-02 -3.214991837739944458e-02 -1.456078421324491501e-02 -1.408551936037838459e-03 -3.122328966856002808e-02 1.078652124851942062e-02 -3.239179262891411781e-03 1.632311940193176270e-02 -1.686263270676136017e-02 -1.973782852292060852e-02 7.314755115658044815e-03 2.628407673910260201e-03 -1.476389542222023010e-02 -6.770201027393341064e-03 -1.317980140447616577e-02 1.995515823364257812e-02 2.526798844337463379e-02 -1.694294810295104980e-02 2.469910941726993769e-05 6.938969454495236278e-05 -2.270842343568801880e-02 -1.049235742539167404e-02 -1.803902350366115570e-02 1.911761984229087830e-02 -2.949142456054687500e-02 1.101038232445716858e-02 -1.116951927542686462e-03 7.842238992452621460e-03 3.220839425921440125e-02 -7.143823429942131042e-03 3.106238692998886108e-02 -9.601717814803123474e-03 -4.980816738680005074e-04 -1.552426535636186600e-02 2.898453176021575928e-02
2.608004026114940643e-02 2.716567181050777435e-02 -1.040327455848455429e-02 3.457160666584968567e-02 5.455248523503541946e-03 2.043162845075130463e-02 -1.047349162399768829e-02 1.458649989217519760e-02 -2.057815901935100555e-02 -3.430553944781422615e-03 1.085341814905405045e-02 -1.963121630251407623e-02 1.005770079791545868e-02 2.901629544794559479e-03 -1.432649698108434677e-02 3.637447580695152283e-02 -1.195361837744712830e-02 2.954925224184989929e-02 1.552865561097860336e-02 -4.903343692421913147e-02 -1.579074934124946594e-02 -6.776802986860275269e-02 -2.675126120448112488e-02 3.375907987356185913e-02 -1.025895960628986359e-02 -1.334756985306739807e-02 1.811953261494636536e-02 1.256582699716091156e-02 -1.508659776300191879e-02 -3.576032444834709167e-02 1.556791551411151886e-02 -2.885017916560173035e-02 -3.310793265700340271e-02 -2.209870144724845886e-02 3.757783025503158569e-02 -2.066383371129631996e-03 -3.440573066473007202e-02 2.362034283578395844e-02 1.639652438461780548e-02 3.257207199931144714e-02 -1.342906057834625244e-02 6.654921919107437134e-03 -2.787387464195489883e-03 -1.947057992219924927e-02 -4.798091948032379150e-03 8.114743046462535858e-03 -3.398786531761288643e-03 -9.061898104846477509e-03 -1.159554347395896912e-02 -1.970641873776912689e-02 -1.328568626195192337e-02 -3.689479548484086990e-03 2.129030041396617889e-02 3.344522789120674133e-02 -9.578167460858821869e-03 -1.100601148209534585e-04 2.734802477061748505e-02 -1.190357934683561325e-02 -9.252319112420082092e-03 -2.824446931481361389e-02 -2.099721692502498627e-02 -2.301194146275520325e-02 5.523310508579015732e-03 4.316172748804092407e-02 1.591834239661693573e-02 3.758843615651130676e-02 -1.368927396833896637e-02 -4.691965878009796143e-02 -6.878256797790527344e-03 9.416318498551845551e-03 3.555776178836822510e-02 -5.293123889714479446e-03 -2.338847145438194275e-02 4.105384461581707001e-03 -5.220113694667816162e-02 3.140152245759963989e-02 1.728872209787368774e-02 -1.790506648831069469e-03 -2.601752430200576782e-02 1.559072360396385193e-02 -4.423591773957014084e-03 9.752121753990650177e-03 -1.240338478237390518e-02 -2.027316018939018250e-02 -2.777853223960846663e-04 3.425071481615304947e-03 -1.301567070186138153e-02 -4.482095316052436829e-02 -5.880746059119701385e-03 1.278696395456790924e-02 -5.045753344893455505e-02 1.354537345468997955e-02 -1.156863942742347717e-02 -2.596576884388923645e-02 -1.650848309509456158e-03 -1.537829544395208359e-02 4.024834837764501572e-03 -2.223587967455387115e-02 -2.216260507702827454e-02 -3.531818091869354248e-02 -5.304243881255388260e-03 -1.929507032036781311e-02 1.115916483104228973e-02 -6.836582440882921219e-03 -3.241549059748649597e-02 -3.285749256610870361e-02 3.813884779810905457e-02 3.126744925975799561e-02 -2.028254419565200806e-02 1.102523505687713623e-02 -1.198692433536052704e-02 -1.048431359231472015e-02 2.943909168243408203e-02 1.086495071649551392e-02 -4.336144402623176575e-02 -1.975159905850887299e-02 -2.037478797137737274e-02 6.396506913006305695e-03 2.663220465183258057e-02 1.576358336023986340e-03 -8.196312934160232544e-03 1.957205496728420258e-02 6.228514481335878372e-03 -4.690365120768547058e-02 5.192616488784551620e-03 4.172680154442787170e-02 5.590799264609813690e-03 3.605535253882408142e-02
-2.956530079245567322e-02 1.697788946330547333e-02 3.874266520142555237e-02 3.457188373431563377e-03 1.710686273872852325e-02 -1.697078905999660492e-02 -1.774554513394832611e-02 -1.821750402450561523e-02 -6.020443979650735855e-03 1.367207523435354233e-02 4.229092597961425781e-02 -2.355926111340522766e-02 4.915109369903802872e-03 1.330367196351289749e-02 -1.432511210441589355e-02 5.685319774784147739e-04 3.221497684717178345e-02 -1.268141344189643860e-02 2.562460489571094513e-02 -3.004613565281033516e-03 -3.387326374650001526e-03 4.666442982852458954e-03 5.853476934134960175e-03 -1.219682861119508743e-03 1.650645956397056580e-02 -8.533512242138385773e-03 -2.007723413407802582e-02 5.233053583651781082e-03 5.691000260412693024e-03 -1.657474786043167114e-02 -2.683394122868776321e-03 1.633853651583194733e-03 4.904221743345260620e-03 8.174805901944637299e-03 -1.397844031453132629e-02 -8.662112057209014893e-03 -9.218112565577030182e-03 -2.525237761437892914e-02 -2.709631808102130890e-03 -3.515201061964035034e-02 -1.579352840781211853e-02 1.646438427269458771e-02 9.435768006369471550e-04 -8.059084415435791016e-03 1.790961250662803650e-02 -4.125535488128662109e-02 -1.016689185053110123e-02 -1.607097685337066650e-02 1.901476830244064331e-02 1.606283592991530895e-03 -2.856353670358657837e-02 1.180433109402656555e-02 -1.744372583925724030e-02 -4.763067699968814850e-03 1.789165474474430084e-02 -1.005402766168117523e-02 1.780151762068271637e-02 -1.710836216807365417e-02 -2.997173927724361420e-03 2.688444964587688446e-02 5.765819456428289413e-03 -3.890474885702133179e-02 1.228162273764610291e-02 -3.293918911367654800e-03 3.759724088013172150e-03 4.045061767101287842e-02 2.873655874282121658e-03 -2.311754506081342697e-03 1.680654287338256836e-02 7.877978496253490448e-03 8.611074299551546574e-04 1.016250997781753540e-02 1.733815856277942657e-02 6.659104023128747940e-03 2.332506328821182251e-02 -3.486440749838948250e-03 -1.065569277852773666e-02 -4.765804857015609741e-02 -9.781192056834697723e-03 2.109109796583652496e-02 -1.558156334795057774e-03 1.464528217911720276e-02 4.685633257031440735e-02 -7.771781645715236664e-03 -2.655445784330368042e-02 1.821674057282507420e-03 -2.691028639674186707e-03 -1.938972808420658112e-02 8.797927759587764740e-03 -2.259341068565845490e-02 2.461460884660482407e-03 1.795989461243152618e-02 5.899297539144754410e-03 -1.696153543889522552e-02 -2.798249199986457825e-02 1.464223023504018784e-03 2.078872930724173784e-04 4.194919392466545105e-02 3.228932619094848633e-02 4.030905663967132568e-03 -3.058834990952163935e-04 -4.374260082840919495e-02 7.676804438233375549e-03 1.091080531477928162e-02 -3.417024761438369751e-02 -2.699677646160125732e-02 -5.020995438098907471e-02 -1.301723159849643707e-02 9.954899549484252930e-03 4.034549742937088013e-02 -4.557574167847633362e-03 -9.002472274005413055e-03 -1.445179525762796402e-02 -1.444740034639835358e-02 9.917552582919597626e-03 -4.278968647122383118e-02 -4.236163944005966187e-02 -8.343095891177654266e-03 -3.014177782461047173e-03 6.241350434720516205e-03 2.073654532432556152e-02 -8.439220488071441650e-03 4.143098741769790649e-02 6.363193038851022720e-03 -7.753096288070082664e-04 2.373356930911540985e-02 5.743747204542160034e-02 9.271974675357341766e-03
