1.749217882752418518e-02 3.796171396970748901e-02 2.504527568817138672e-03 -6.200484465807676315e-03 -1.437935419380664825e-02 -2.447976730763912201e-02 4.811037331819534302e-02 -2.653658203780651093e-02 -3.815951570868492126e-02 -4.010926466435194016e-03 3.979521989822387695e-02 1.070324238389730453e-02 -7.025225786492228508e-04 3.068735823035240173e-02 -2.381769940257072449e-03 -1.483676582574844360e-02 -2.893793396651744843e-02 8.322069421410560608e-03 -8.959833532571792603e-03 -3.853490634355694056e-04 -1.763967238366603851e-02 1.416762173175811768e-02 -6.418641656637191772e-03 2.596814185380935669e-03 1.659294031560420990e-02 -1.657997071743011475e-02 1.927199773490428925e-02 -4.100591409951448441e-03 4.567160271108150482e-03 2.173046767711639404e-02 9.080402553081512451e-03 1.821378804743289948e-02 -1.457232888787984848e-02 -1.022445689886808395e-02 8.301246911287307739e-03 9.892141446471214294e-03 -1.316052023321390152e-02 1.618323475122451782e-02 -2.362731844186782837e-02 -8.138580247759819031e-03 -9.468330070376396179e-03 -3.606239915825426579e-04 -1.893589459359645844e-02 1.660211011767387390e-02 2.355933748185634613e-02 -3.246621787548065186e-02 6.682109087705612183e-03 1.245423406362533569e-02 3.633407875895500183e-02 -1.329808868467807770e-02 -1.855680719017982483e-02 -2.329966798424720764e-02 -2.353158593177795410e-02 -1.281039975583553314e-02 -9.613387286663055420e-03 -1.066967844963073730e-02 -2.993190288543701172e-02 -2.386390231549739838e-02 -1.187362056225538254e-02 -7.851068861782550812e-03 -2.275273203849792480e-02 4.208116978406906128e-02 1.063571311533451080e-02 1.011538668535649776e-03 -7.333972491323947906e-03 -3.762900456786155701e-02 7.216050755232572556e-03 8.427751250565052032e-03 1.076222048141062260e-03 -7.351749576628208160e-03 -4.838035441935062408e-03 -5.888614803552627563e-03 -2.467628801241517067e-03 -6.234065070748329163e-02 -5.805143620818853378e-03 -2.914244867861270905e-02 6.688764318823814392e-03 2.639087848365306854e-02 -1.357726752758026123e-02 -5.115686357021331787e-02 -2.882773522287607193e-03 -3.843564912676811218e-02 -9.714990854263305664e-03 -3.541031107306480408e-02 -2.367565408349037170e-02 -1.541851088404655457e-02 -1.100653130561113358e-02 -8.381790481507778168e-03 -5.688248202204704285e-03 3.287701308727264404e-02 -6.240681279450654984e-03 -3.906595706939697266e-02 -1.886003091931343079e-02 9.316660463809967041e-03 9.085216559469699860e-03 2.560498425737023354e-03 4.702669102698564529e-03 1.008017733693122864e-02 1.561899110674858093e-02 -9.106474928557872772e-03 -2.542827464640140533e-02 1.109279505908489227e-02 -1.228148676455020905e-02 -4.628863185644149780e-03 -2.488546818494796753e-02 2.699525468051433563e-02 1.341909635812044144e-02 -3.149333642795681953e-03 -2.408617548644542694e-02 -1.731234416365623474e-02 -2.089381963014602661e-02 -2.633344568312168121e-02 -3.023341856896877289e-02 1.084540388546884060e-03 -4.112421721220016479e-02 3.551406413316726685e-02 -1.580826565623283386e-02 1.457829680293798447e-02 3.782702144235372543e-03 -1.045447774231433868e-02 -2.770294994115829468e-02 -1.552828215062618256e-02 -1.667980849742889404e-02 6.083227228373289108e-03 -2.453065477311611176e-03 -3.222975507378578186e-02 1.321834232658147812e-02 -1.187819521874189377e-02
8.315840736031532288e-03 2.786379307508468628e-02 9.740639477968215942e-03 -1.251831557601690292e-02 -1.269990112632513046e-02 -1.590415649116039276e-02 1.249197777360677719e-02 -2.863522246479988098e-02 -2.261398173868656158e-02 -2.425858005881309509e-02 2.479077782481908798e-03 3.321795957162976265e-03 7.511253934353590012e-03 1.195215433835983276e-02 -1.096294447779655457e-02 4.579079803079366684e-03 5.164483096450567245e-03 2.284916117787361145e-02 1.086614001542329788e-02 1.017204020172357559e-02 3.964684903621673584e-03 -1.038433052599430084e-02 3.922390565276145935e-02 -9.185805916786193848e-03 1.331251487135887146e-02 -1.089359354227781296e-02 9.523978456854820251e-03 -2.428145613521337509e-03 1.460799388587474823e-02 3.392113372683525085e-02 2.439313009381294250e-02 1.918902620673179626e-02 -1.561248209327459335e-02 -3.148703603073954582e-03 1.073900423943996429e-02 1.261631119996309280e-02 1.684849709272384644e-02 2.006774768233299255e-02 3.305844217538833618e-02 1.723834685981273651e-02 1.612272858619689941e-02 2.190986275672912598e-02 1.789368921890854836e-03 -4.204977676272392273e-02 -2.215150743722915649e-03 3.690920071676373482e-03 -2.342355437576770782e-02 -2.494664117693901062e-02 3.839721204712986946e-03 1.050052605569362640e-02 -2.191181480884552002e-02 1.436289679259061813e-02 1.133017800748348236e-02 8.926145732402801514e-03 -1.703885942697525024e-02 -1.845665648579597473e-02 2.990253735333681107e-03 1.045296248048543930e-02 -2.270988887175917625e-03 2.036984451115131378e-02 3.998660482466220856e-03 -1.611172966659069061e-02 -4.013952799141407013e-03 3.301852568984031677e-02 3.343797754496335983e-03 -3.693571081385016441e-03 5.895131733268499374e-03 -1.336882170289754868e-02 -1.067037135362625122e-02 -7.984052412211894989e-03 3.817927092313766479e-02 8.361691609025001526e-03 3.445664420723915100e-02 -1.041760668158531189e-02 2.618629112839698792e-02 5.586222931742668152e-02 -9.431577287614345551e-03 8.816214278340339661e-03 1.925988122820854187e-03 -6.791309919208288193e-03 -1.870265975594520569e-02 3.147988766431808472e-02 3.061225451529026031e-02 -1.571356132626533508e-02 1.415972411632537842e-02 1.954321190714836121e-02 1.521326787769794464e-02 -1.050182152539491653e-02 3.585206344723701477e-02 -9.339940734207630157e-03 2.862061373889446259e-03 1.895286515355110168e-02 1.214414741843938828e-02 -2.755288593471050262e-02 -8.561398833990097046e-03 2.373098582029342651e-02 -2.530372003093361855e-03 -1.506728120148181915e-02 3.137077763676643372e-02 1.774287037551403046e-02 -1.020835060626268387e-02 -1.752370595932006836e-02 1.806612871587276459e-02 5.844010971486568451e-03 -1.781983487308025360e-02 -1.210114103741943836e-03 -4.271116480231285095e-02 -1.989288069307804108e-02 -2.014257758855819702e-02 -2.825511852279305458e-03 2.607188932597637177e-02 5.088308081030845642e-02 1.260920427739620209e-02 -9.948820807039737701e-03 -1.909032929688692093e-03 3.291526436805725098e-02 -2.875455282628536224e-02 -7.388925878331065178e-04 -3.873996809124946594e-02 -2.634343691170215607e-03 1.730103744193911552e-03 -4.859694279730319977e-03 6.716011557728052139e-03 -2.241402678191661835e-02 1.541802007704973221e-02 6.391141563653945923e-02 2.637404762208461761e-02 4.357897210866212845e-03
-7.650947663933038712e-03 -9.405680932104587555e-03 1.178939733654260635e-02 1.876909472048282623e-02 -3.044869378209114075e-02 -1.128536555916070938e-02 -4.523352533578872681e-02 -1.652186550199985504e-02 3.455071523785591125e-02 -1.719189994037151337e-02 1.448410563170909882e-02 2.183175645768642426e-02 5.432764068245887756e-02 -3.542869910597801208e-02 3.306065127253532410e-02 2.722901478409767151e-02 -8.787789265625178814e-04 -1.860886067152023315e-02 -1.992084458470344543e-02 5.415832158178091049e-03 -1.360932737588882446e-02 2.898453734815120697e-03 1.691062003374099731e-02 -1.120193954557180405e-02 -1.696735620498657227e-02 8.545349352061748505e-03 2.350755594670772552e-02 -2.400450035929679871e-02 -2.362661994993686676e-02 -2.894945442676544189e-02 1.265116874128580093e-02 -2.307910285890102386e-02 2.368648536503314972e-02 -1.861145161092281342e-02 -4.039004445075988770e-02 3.725387528538703918e-02 1.262696087360382080e-02 2.467668429017066956e-02 2.501064725220203400e-02 -8.268686011433601379e-03 -6.048327311873435974e-03 1.406544819474220276e-02 -1.932032778859138489e-02 1.773138181306421757e-03 1.907475478947162628e-02 -2.314277179539203644e-02 -3.783141821622848511e-02 -3.129506856203079224e-02 -6.337593309581279755e-03 5.069563630968332291e-03 3.557317703962326050e-02 1.425999682396650314e-02 -3.233211115002632141e-02 -1.531040016561746597e-02 -2.368065994232892990e-03 1.758581958711147308e-02 1.489157322794198990e-02 -2.498563379049301147e-02 5.032348446547985077e-03 -2.896923199295997620e-02 -3.592732921242713928e-02 -4.092688485980033875e-02 -3.088947758078575134e-02 -5.618609953671693802e-03 -1.216967403888702393e-02 1.265075430274009705e-02 -4.119653627276420593e-02 1.602827385067939758e-02 -2.093874663114547729e-02 -1.039510872215032578e-02 -1.103362417779862881e-03 -1.313026621937751770e-02 -1.723919436335563660e-02 3.280481323599815369e-02 3.550932742655277252e-03 -8.008227683603763580e-03 6.655259523540735245e-03 -5.213772412389516830e-03 2.468929160386323929e-03 -2.080310077872127295e-04 1.867786794900894165e-02 -1.370602566748857498e-02 -1.598996925167739391e-03 1.208106428384780884e-02 -2.144364640116691589e-02 4.024253785610198975e-02 -4.370023030787706375e-03 -2.415785379707813263e-02 -2.072884142398834229e-02 4.365468770265579224e-02 7.873405702412128448e-03 1.615626737475395203e-02 -1.718237809836864471e-02 -4.393660463392734528e-03 -5.576371680945158005e-03 -3.608592227101325989e-02 4.026766866445541382e-02 1.107880380004644394e-02 -4.574230685830116272e-02 -2.314036525785923004e-02 -1.529194531030952930e-03 -2.492213388904929161e-03 -1.735824393108487129e-03 -2.098500914871692657e-02 8.242106996476650238e-03 6.435821298509836197e-03 -7.757640909403562546e-03 -3.568212315440177917e-02 2.382384054362773895e-02 -2.469788072630763054e-03 3.195403143763542175e-02 1.998696709051728249e-03 1.838331669569015503e-02 2.106341533362865448e-03 2.001845091581344604e-02 -4.795039817690849304e-02 2.754085883498191833e-02 -3.552655875682830811e-02 1.731269806623458862e-02 -2.934499830007553101e-02 -1.100427750498056412e-02 -4.611507058143615723e-03 -1.000023446977138519e-02 1.124598644673824310e-02 -1.919129863381385803e-02 2.423054538667201996e-02 -1.546167302876710892e-02 -1.294928975403308868e-02
2.353367209434509277e-02 1.085174456238746643e-02 -3.845689818263053894e-02 -3.992118686437606812e-02 -2.535650739446282387e-03 1.851375447586178780e-03 1.629536040127277374e-02 -5.543455015867948532e-03 -1.601798646152019501e-02 4.371278360486030579e-02 -3.072822652757167816e-02 -1.581388339400291443e-02 -1.687458902597427368e-02 -7.008370012044906616e-03 1.031557936221361160e-02 -4.651438444852828979e-03 -3.280896227806806564e-03 2.320587076246738434e-02 4.490581806749105453e-03 -3.799809515476226807e-02 1.657604053616523743e-02 5.330195650458335876e-02 1.562351826578378677e-02 3.715423122048377991e-02 5.011556670069694519e-03 2.104873396456241608e-02 6.082791090011596680e-02 2.354405447840690613e-02 3.793041687458753586e-03 -1.312214136123657227e-02 -3.340347670018672943e-03 2.806858718395233154e-02 -4.295105114579200745e-02 2.594486065208911896e-02 8.426346816122531891e-03 -1.911420375108718872e-02 1.269313227385282516e-02 1.654731109738349915e-02 1.436430844478309155e-03 -3.130878508090972900e-02 4.516280256211757660e-03 -1.085200998932123184e-02 -2.796669257804751396e-03 -4.404453933238983154e-02 -3.495676815509796143e-02 -5.923350807279348373e-03 -1.255355030298233032e-02 -1.809359341859817505e-02 6.167695391923189163e-03 3.063396550714969635e-03 2.388758817687630653e-03 -5.253610666841268539e-03 -1.656275242567062378e-02 2.400251105427742004e-02 8.705328218638896942e-03 1.300788205116987228e-02 -7.249158807098865509e-03 -2.193662151694297791e-02 -1.217361888848245144e-03 -7.897981442511081696e-03 -9.887846186757087708e-03 2.484915778040885925e-02 -3.179610148072242737e-02 -3.873441834002733231e-03 -3.868674114346504211e-02 2.349425293505191803e-02 -5.910429172217845917e-03 -9.399798698723316193e-03 3.133532358333468437e-03 4.321951791644096375e-02 3.008816391229629517e-02 -1.017096173018217087e-02 1.765116490423679352e-02 -2.395541034638881683e-02 -6.344836950302124023e-02 -3.147621825337409973e-02 1.530040986835956573e-02 1.005506701767444611e-02 -1.451944839209318161e-02 1.416013948619365692e-02 5.434580892324447632e-02 1.362270116806030273e-02 -5.584777332842350006e-03 2.129047550261020660e-02 -2.994358353316783905e-02 1.685448735952377319e-02 1.463666930794715881e-02 -2.946311607956886292e-02 -4.024694673717021942e-03 -9.088044054806232452e-03 -2.918461337685585022e-03 1.259802002459764481e-02 5.313009489327669144e-03 7.452941499650478363e-03 3.952366299927234650e-03 9.637799230404198170e-04 1.290245214477181435e-03 -2.479959744960069656e-03 8.793819695711135864e-03 -1.997303683310747147e-03 -6.076482124626636505e-03 -1.547138206660747528e-02 -8.880223147571086884e-03 -1.789294183254241943e-02 -1.525078993290662766e-02 2.342009916901588440e-03 -1.677972450852394104e-02 1.552299968898296356e-02 -6.578139495104551315e-03 2.611230872571468353e-02 -4.585681017488241196e-03 1.605949550867080688e-02 5.842310376465320587e-03 -2.418357320129871368e-02 2.566108014434576035e-03 -1.494626747444272041e-03 -2.575330808758735657e-02 -1.175993029028177261e-02 -1.250144746154546738e-02 -2.643638662993907928e-02 1.612149411812424660e-03 -4.198362305760383606e-02 -1.311766100116074085e-03 -2.633501589298248291e-02 -3.258549422025680542e-02 4.482978023588657379e-03 5.770559888333082199e-03 2.210349589586257935e-02
-7.503567263484001160e-03 -4.781343042850494385e-03 -1.629826612770557404e-02 -2.455582283437252045e-02 2.572174370288848877e-02 6.726656574755907059e-03 -1.067828107625246048e-02 -1.180988736450672150e-02 3.502850886434316635e-03 -4.596102982759475708e-02 2.861284650862216949e-02 8.231148123741149902e-03 7.915576570667326450e-04 2.862870134413242340e-02 -3.330666199326515198e-02 -2.078844048082828522e-02 -4.489932581782341003e-02 2.047497034072875977e-02 1.612287759780883789e-02 -3.779618814587593079e-02 -6.094962824136018753e-03 2.662260830402374268e-02 -2.545957081019878387e-02 2.226996608078479767e-02 -1.899459958076477051e-02 1.229761447757482529e-02 -2.041537873446941376e-02 3.746350482106208801e-02 -1.465062983334064484e-02 1.243545208126306534e-02 -2.299382351338863373e-03 -5.167272407561540604e-03 -5.566216260194778442e-02 2.067957259714603424e-02 -6.278892047703266144e-03 1.211641356348991394e-02 1.207880210131406784e-02 4.044710658490657806e-03 3.307417035102844238e-02 2.182793989777565002e-02 -2.172335423529148102e-02 -3.186957910656929016e-02 1.818772032856941223e-02 2.198927477002143860e-02 -6.471454631537199020e-03 -2.524615451693534851e-02 1.912446343339979649e-03 -1.023743394762277603e-02 3.437995910644531250e-02 1.491960324347019196e-02 1.008533756248652935e-03 3.208316862583160400e-02 -1.467137131839990616e-02 -3.050410188734531403e-03 5.847955471836030483e-04 -1.534173637628555298e-02 -1.307020150125026703e-02 1.808736100792884827e-02 -4.050360247492790222e-02 -1.037517446093261242e-03 -1.447741314768791199e-02 -5.050630308687686920e-03 -4.026353731751441956e-02 -3.227384388446807861e-02 -4.527226090431213379e-02 -3.184152022004127502e-02 2.488462254405021667e-02 -4.027972463518381119e-03 1.392848975956439972e-02 2.107459120452404022e-02 3.620404005050659180e-02 -3.691520541906356812e-02 2.333531714975833893e-02 1.687818765640258789e-02 2.783990092575550079e-02 1.508292555809020996e-02 -8.583425544202327728e-03 1.243707444518804550e-02 -1.880239928141236305e-03 3.764756256714463234e-03 3.341036848723888397e-03 -1.863829977810382843e-02 -2.841144986450672150e-02 1.346733514219522476e-02 1.339413784444332123e-02 -3.325755707919597626e-03 -1.883606053888797760e-02 4.337828722782433033e-04 -9.034429676830768585e-03 -3.152237460017204285e-02 -2.356259524822235107e-02 1.706921495497226715e-02 9.496114216744899750e-03 -3.589882329106330872e-02 -1.386914215981960297e-02 3.311098366975784302e-02 -1.368334796279668808e-02 2.750647999346256256e-02 3.162183240056037903e-02 -1.141938567161560059e-02 -3.584102168679237366e-02 1.021437533199787140e-02 3.973537310957908630e-02 9.768221527338027954e-03 -9.645295795053243637e-04 1.965979859232902527e-02 8.666362613439559937e-03 -1.346327085047960281e-02 3.704852890223264694e-03 4.731252323836088181e-03 2.942804247140884399e-02 -3.274749219417572021e-02 2.389132417738437653e-02 1.207659114152193069e-02 -1.194951683282852173e-02 -1.144443056546151638e-03 -4.623716231435537338e-03 -3.039874508976936340e-02 6.008936557918787003e-03 -2.002580091357231140e-02 -2.648668549954891205e-02 -1.035807747393846512e-02 3.082326985895633698e-02 -1.953402534127235413e-02 7.859545759856700897e-03 1.807310432195663452e-02 2.901533618569374084e-03 2.039690129458904266e-02
-1.486791577190160751e-02 3.182460786774754524e-03 1.045977324247360229e-02 1.766006834805011749e-02 1.991706155240535736e-02 1.060237921774387360e-02 1.011712104082107544e-02 -2.096199616789817810e-02 -1.864017732441425323e-02 -1.383158005774021149e-02 9.805984795093536377e-03 -2.176567725837230682e-02 -4.918457940220832825e-03 4.200448747724294662e-03 -4.710745532065629959e-03 -2.950473502278327942e-02 -2.101714722812175751e-02 -2.340534515678882599e-02 -5.026063881814479828e-03 -5.144454073160886765e-03 -1.135386526584625244e-02 1.096907071769237518e-02 -4.818073287606239319e-02 -4.476266447454690933e-03 -1.250049658119678497e-02 -4.575656726956367493e-02 3.872398659586906433e-02 4.862470668740570545e-04 -3.803406283259391785e-02 -1.780801080167293549e-02 -9.113093838095664978e-03 2.302053011953830719e-02 5.524230655282735825e-03 1.005490124225616455e-02 -8.265488781034946442e-03 2.467381581664085388e-02 1.704028691165149212e-03 -2.270424924790859222e-02 1.126097701489925385e-02 1.121962815523147583e-02 -5.267966538667678833e-03 2.858772128820419312e-02 -1.857046410441398621e-02 -5.606377962976694107e-03 -1.024137996137142181e-02 3.275478258728981018e-02 -8.769353735260665417e-04 9.415867738425731659e-03 2.022978849709033966e-02 -2.031310461461544037e-03 -9.719052352011203766e-03 1.921526528894901276e-02 -3.173874318599700928e-02 1.582064852118492126e-02 6.455017253756523132e-03 -1.433933502994477749e-03 5.369494855403900146e-02 -2.345548383891582489e-02 -2.012115670368075371e-03 1.491251867264509201e-03 -4.506294056773185730e-02 -1.714454591274261475e-02 7.796935387887060642e-04 1.701988838613033295e-02 -2.912320941686630249e-02 4.070135205984115601e-02 2.987882308661937714e-02 -1.471060328185558319e-02 4.988639056682586670e-02 -1.069019734859466553e-02 1.652677915990352631e-02 1.735886745154857635e-02 1.094590313732624054e-02 -5.018497817218303680e-03 -2.579122083261609077e-03 -1.566698029637336731e-02 3.520413069054484367e-03 2.526193298399448395e-02 -2.175260335206985474e-02 3.920916467905044556e-03 3.487033396959304810e-02 1.879280433058738708e-03 -3.590073203667998314e-03 -2.408874221146106720e-02 2.717807516455650330e-02 -4.197622183710336685e-03 1.718293316662311554e-02 1.915989816188812256e-02 1.028353162109851837e-02 -8.677450008690357208e-03 -2.478205598890781403e-02 -2.536668255925178528e-02 -5.725048482418060303e-03 2.580718602985143661e-03 -2.596723847091197968e-02 3.345972299575805664e-02 -9.409213438630104065e-03 -9.457769803702831268e-03 2.943156752735376358e-03 -2.298315800726413727e-02 -8.514492656104266644e-04 1.945776864886283875e-02 2.006280981004238129e-02 -2.308492548763751984e-03 -2.498037926852703094e-02 2.509317360818386078e-02 -4.077158123254776001e-02 2.767646685242652893e-02 -2.129555493593215942e-02 5.643576383590698242e-03 7.222280837595462799e-03 1.128669944591820240e-03 -1.032721810042858124e-02 4.367933422327041626e-02 7.705780677497386932e-03 5.994109902530908585e-03 -2.323283627629280090e-02 3.070830600336194038e-03 -1.756369695067405701e-02 1.432505343109369278e-02 -5.760618485510349274e-03 -3.481641784310340881e-02 5.445029959082603455e-02 -1.827072165906429291e-02 -4.602487199008464813e-03 -8.774899877607822418e-03 1.570309628732502460e-03 1.897788234055042267e-02
1.391642261296510696e-02 -3.563008084893226624e-02 7.161423098295927048e-03 2.254353463649749756e-02 1.877390407025814056e-02 2.401527389883995056e-02 -7.742864545434713364e-03 -1.873986609280109406e-02 -9.479830041527748108e-03 -1.585200987756252289e-02 4.014456272125244141e-02 9.652719832956790924e-03 -6.524242344312369823e-04 2.330063283443450928e-02 -3.179275989532470703e-02 -1.627048477530479431e-02 -1.096538174897432327e-02 2.766530402004718781e-02 -2.288863994181156158e-02 -1.542729325592517853e-02 4.492595326155424118e-03 -2.276251092553138733e-02 -7.431820500642061234e-03 5.249475128948688507e-03 9.976888075470924377e-03 1.124983467161655426e-02 -8.978440018836408854e-05 -3.643279895186424255e-02 -3.351112361997365952e-03 5.945139564573764801e-03 2.083921432495117188e-02 3.010040335357189178e-02 -7.418447174131870270e-03 -3.568559139966964722e-02 4.168746061623096466e-03 -2.813548082485795021e-03 -2.426639199256896973e-03 -7.104348391294479370e-03 2.382872160524129868e-03 2.305561117827892303e-02 -2.332717180252075195e-02 -3.983266185969114304e-03 -2.524114772677421570e-02 2.887279726564884186e-02 -2.515196241438388824e-02 1.199818495661020279e-02 4.562865477055311203e-03 -1.403448451310396194e-02 -1.504127285443246365e-03 -2.768175490200519562e-02 4.557487089186906815e-03 1.710503362119197845e-02 -3.912826068699359894e-03 -8.636991493403911591e-03 -9.730464778840541840e-03 -4.807377979159355164e-02 3.154803067445755005e-02 -2.012301050126552582e-02 1.812485978007316589e-02 -8.488146704621613026e-06 5.765347275882959366e-03 -5.988572258502244949e-03 1.732148043811321259e-02 -1.030870247632265091e-02 1.844832301139831543e-02 1.167026115581393242e-03 3.454750776290893555e-02 -1.578023284673690796e-02 1.585309766232967377e-02 -1.758755370974540710e-02 -7.107504643499851227e-03 1.997262984514236450e-02 -1.270745322108268738e-02 3.755208104848861694e-02 7.508220616728067398e-03 -2.713194349780678749e-03 3.925323113799095154e-02 5.425018724054098129e-03 -2.219867892563343048e-03 -1.493938826024532318e-02 -5.974341183900833130e-02 -1.974631845951080322e-02 1.159113645553588867e-02 -4.021401051431894302e-03 1.774174533784389496e-02 -3.676224034279584885e-03 3.697777539491653442e-02 -4.240560904145240784e-02 2.119968179613351822e-03 5.310409143567085266e-02 -2.527040429413318634e-02 4.599631577730178833e-02 6.470885593444108963e-03 -1.266000885516405106e-02 -1.675879769027233124e-02 2.501502260565757751e-02 1.849490404129028320e-02 -5.032323300838470459e-02 1.255741063505411148e-02 -3.536270931363105774e-02 -7.837362587451934814e-03 -1.598165370523929596e-02 -8.610495366156101227e-03 2.846531515388051048e-06 9.425588883459568024e-03 -1.435126550495624542e-02 -2.532163076102733612e-02 -1.205084659159183502e-02 -6.976147647947072983e-03 -3.162053972482681274e-02 7.702960632741451263e-03 2.533730119466781616e-02 5.782465916126966476e-03 4.229687526822090149e-02 -2.231805212795734406e-02 -3.005667775869369507e-02 -3.521699458360671997e-03 1.189671829342842102e-02 -1.503542624413967133e-02 1.802784763276576996e-02 -1.768425293266773224e-02 1.615279540419578552e-02 1.960397465154528618e-03 1.299086865037679672e-02 -2.586003579199314117e-02 3.218765370547771454e-03 3.509734198451042175e-02 2.095559425652027130e-02
3.074421174824237823e-02 1.315649226307868958e-02 9.823481086641550064e-04 3.347314428538084030e-03 -1.593289896845817566e-02 -1.291681732982397079e-02 2.583323977887630463e-02 2.482632547616958618e-02 -2.922018989920616150e-02 -3.997176885604858398e-02 -1.949939318001270294e-02 2.199871279299259186e-02 -1.285155210644006729e-02 1.473269308917224407e-03 -5.026699230074882507e-02 -2.521750703454017639e-02 9.432914666831493378e-03 9.825132787227630615e-03 9.495342150330543518e-03 -2.103276923298835754e-02 -1.159643195569515228e-02 -4.496073350310325623e-02 -5.378579348325729370e-02 1.171006727963685989e-02 4.047728609293699265e-03 -2.390048233792185783e-03 1.123763713985681534e-02 1.503978855907917023e-02 2.416203543543815613e-02 5.880391690880060196e-03 -1.127794850617647171e-02 1.353110186755657196e-02 -1.073723565787076950e-02 -2.445548959076404572e-02 -3.064254857599735260e-02 -2.522096503525972366e-03 -2.985755354166030884e-02 -3.872845694422721863e-02 4.062082245945930481e-02 -1.334510277956724167e-02 1.011559180915355682e-02 -9.877153672277927399e-03 -3.260533884167671204e-02 1.624879986047744751e-02 1.809765025973320007e-02 5.134575068950653076e-02 -8.203659206628799438e-03 3.829723596572875977e-02 -1.788741350173950195e-02 -6.496586371213197708e-03 -1.049540564417839050e-02 3.609220311045646667e-02 -2.916221134364604950e-02 -1.358290575444698334e-02 8.182832039892673492e-03 8.753691799938678741e-04 -3.302893042564392090e-02 -1.046580262482166290e-02 2.211848087608814240e-02 6.146615487523376942e-04 4.625007137656211853e-02 2.042818628251552582e-02 -1.177077274769544601e-02 1.457988843321800232e-02 -2.442377246916294098e-02 -2.351601421833038330e-02 3.137269988656044006e-02 -1.195359416306018829e-02 4.071462899446487427e-02 -1.214810926467180252e-02 1.592568494379520416e-02 8.342906832695007324e-03 -1.634269021451473236e-02 3.995557315647602081e-03 5.793956574052572250e-03 1.321078184992074966e-02 4.197614267468452454e-02 1.350588817149400711e-02 2.003172226250171661e-02 -2.518685907125473022e-02 -1.358852628618478775e-02 -1.692594960331916809e-02 1.827456615865230560e-02 -2.848707698285579681e-02 2.049132622778415680e-02 2.521966770291328430e-02 -8.767022751271724701e-03 3.864873573184013367e-02 -1.850402541458606720e-02 1.000723708420991898e-02 -2.948899194598197937e-02 1.721771061420440674e-02 -6.188305094838142395e-03 1.505339797586202621e-02 1.252647954970598221e-02 -1.477666385471820831e-02 3.896211087703704834e-02 -3.834525868296623230e-02 1.659683999605476856e-03 -1.025344617664813995e-02 2.808379195630550385e-02 2.289050957188010216e-03 1.888319384306669235e-04 1.249880529940128326e-02 -4.082105681300163269e-02 -1.020807493478059769e-02 2.438579313457012177e-02 -5.064542870968580246e-03 3.027804940938949585e-02 -3.341417759656906128e-02 -2.929942309856414795e-02 4.379224032163619995e-02 4.269428178668022156e-02 -7.207161281257867813e-03 -1.600195094943046570e-02 2.914275228977203369e-02 9.162719361484050751e-03 -2.207235805690288544e-02 1.422464288771152496e-02 -8.069820702075958252e-03 1.713864877820014954e-02 6.507074460387229919e-03 8.778105257079005241e-04 -2.020260319113731384e-02 1.440201792865991592e-02 -1.812660018913447857e-03 1.601731963455677032e-02 4.197088256478309631e-02
