-3.732331842184066772e-02 1.325527299195528030e-02 -2.040371857583522797e-02 1.085814461112022400e-02 3.624057397246360779e-02 1.198456040583550930e-03 3.169894451275467873e-03 1.733991503715515137e-02 -2.095039375126361847e-02 4.626391921192407608e-03 4.328160732984542847e-02 -1.915791071951389313e-02 5.475931800901889801e-03 2.070482261478900909e-02 -3.082575090229511261e-02 6.035073194652795792e-03 -3.166751936078071594e-02 9.526466019451618195e-03 -9.337075054645538330e-03 3.011327423155307770e-02 1.800055988132953644e-02 -1.044592168182134628e-02 -1.497909333556890488e-02 -1.642078859731554985e-03 4.158934578299522400e-02 -8.112812647596001625e-04 -2.990701049566268921e-02 1.466431561857461929e-02 1.860975846648216248e-02 1.070827897638082504e-02 -2.813290059566497803e-02 2.395130228251218796e-03 3.190826857462525368e-03 2.656590379774570465e-02 1.655557751655578613e-02 -3.109968639910221100e-02 -3.216551244258880615e-02 1.002582162618637085e-02 8.223162032663822174e-03 -7.910510525107383728e-03 5.125119909644126892e-02 -2.945775538682937622e-02 5.580408498644828796e-03 4.814278800040483475e-03 -4.449649527668952942e-02 -1.656381227076053619e-02 1.848264038562774658e-02 -3.978383901994675398e-04 -1.843801885843276978e-02 2.767110243439674377e-02 -4.668581299483776093e-03 1.711740717291831970e-02 1.963011361658573151e-02 7.898207753896713257e-03 1.035632379353046417e-02 1.084781065583229065e-02 -1.435122452676296234e-03 2.771819382905960083e-02 1.752734556794166565e-02 -5.991520732641220093e-02 1.186629105359315872e-02 4.865179304033517838e-03 1.561341527849435806e-02 -9.620450437068939209e-03 5.466422997415065765e-03 -2.561094798147678375e-02 4.215183667838573456e-03 -6.648266687989234924e-03 -7.878336124122142792e-03 -1.757816970348358154e-02 1.000015414319932461e-03 9.360337629914283752e-03 5.303742946125566959e-04 1.052548829466104507e-02 2.370614185929298401e-02 -2.790182642638683319e-02 1.320199691690504551e-03 5.160954967141151428e-02 -3.985136747360229492e-02 -4.338473081588745117e-03 -7.061180658638477325e-03 -2.081866934895515442e-02 2.984613552689552307e-02 2.862985711544752121e-03 2.165819332003593445e-02 7.655197754502296448e-03 5.369951948523521423e-03 -2.284608053741976619e-04 -1.992850005626678467e-02 -4.547299817204475403e-03 2.189635671675205231e-02 8.299096487462520599e-03 -2.576421014964580536e-03 1.747233793139457703e-02 1.375328935682773590e-02 4.466686863452196121e-03 1.492262724786996841e-02 -5.430006422102451324e-03 1.200368441641330719e-02 1.025510579347610474e-02 6.190340034663677216e-03 -3.138849511742591858e-02 -8.577668108046054840e-03 1.454470213502645493e-02 -9.578246623277664185e-03 -1.556100323796272278e-03 -2.762242406606674194e-02 -2.992096170783042908e-02 -5.320766475051641464e-03 -7.602958008646965027e-03 3.469114005565643311e-02 7.726867683231830597e-03 2.305321954190731049e-02 -3.309971466660499573e-02 1.219391543418169022e-02 -4.268184769898653030e-03 -5.153574165888130665e-04 1.100474502891302109e-02 7.790129166096448898e-03 -1.163855101913213730e-02 -1.219364162534475327e-02 -1.743618771433830261e-02 4.638620093464851379e-02 1.812543720006942749e-02 3.038346022367477417e-02 -2.318141516298055649e-03 -6.714847404509782791e-03 1.804632507264614105e-02
-6.198168266564607620e-03 -2.763281343504786491e-03 1.069280877709388733e-02 -3.102798387408256531e-02 -4.219213873147964478e-02 6.447319407016038895e-03 1.955364271998405457e-02 -1.781666278839111328e-02 5.294577032327651978e-02 8.345664478838443756e-03 -2.012347616255283356e-02 2.258834801614284515e-02 -2.278137719258666039e-03 -1.071852166205644608e-02 4.609705880284309387e-03 5.408446770161390305e-03 9.445220232009887695e-03 -1.240110211074352264e-02 -3.534265561029314995e-03 -7.108875550329685211e-03 -1.116275507956743240e-02 1.417481992393732071e-02 2.280611172318458557e-02 -8.283162489533424377e-03 -7.082966621965169907e-03 -6.621699780225753784e-03 2.761015109717845917e-02 8.993262425065040588e-03 -2.580435387790203094e-02 8.821050636470317841e-03 1.046965271234512329e-02 1.037156209349632263e-02 -5.943693220615386963e-03 2.951144706457853317e-03 -1.001619733870029449e-02 3.509991243481636047e-02 2.036822028458118439e-02 8.874609135091304779e-03 -1.625674404203891754e-02 2.880628965795040131e-02 1.142164692282676697e-02 -3.783108666539192200e-02 -2.138309180736541748e-02 6.676394492387771606e-03 3.133514197543263435e-03 -1.858983747661113739e-02 -1.471290923655033112e-02 -1.672484679147601128e-03 -3.125027939677238464e-02 -4.773092456161975861e-03 3.974512964487075806e-02 -1.279660034924745560e-02 -4.369309917092323303e-02 4.183316230773925781e-02 -1.142227649688720703e-02 1.899311877787113190e-02 -1.658080029301345348e-03 2.768707647919654846e-02 -2.218755893409252167e-02 -2.280203625559806824e-03 1.194640249013900757e-02 -5.382508505135774612e-03 -2.328686229884624481e-02 3.626956371590495110e-03 2.627999335527420044e-02 -1.858284696936607361e-02 -1.663220115005970001e-02 5.306110717356204987e-03 -5.106296762824058533e-02 -1.752373762428760529e-02 2.228428144007921219e-03 -1.716412045061588287e-02 -1.504038646817207336e-02 3.018763847649097443e-02 3.519692271947860718e-02 1.145861670374870300e-02 3.552813827991485596e-02 -2.207216247916221619e-02 2.467794530093669891e-02 -1.233718707226216793e-03 5.417837295681238174e-03 -2.978217229247093201e-02 -4.354121536016464233e-02 -9.508750401437282562e-03 3.847976401448249817e-02 3.711352497339248657e-02 -5.278877913951873779e-03 2.521607838571071625e-02 -6.690816581249237061e-02 4.383003339171409607e-02 1.248033624142408371e-02 -1.418537460267543793e-02 5.850569810718297958e-03 -1.742081716656684875e-02 -2.241032384335994720e-02 -2.296007424592971802e-02 -2.272899262607097626e-02 2.343587763607501984e-02 -9.304787032306194305e-03 1.863368600606918335e-02 4.261030629277229309e-02 -1.821744814515113831e-02 8.838457055389881134e-03 -6.197490729391574860e-03 7.005363702774047852e-02 5.147404503077268600e-03 2.985635213553905487e-02 -5.084624048322439194e-03 1.644120737910270691e-02 -5.987850949168205261e-03 2.724601887166500092e-02 2.041990868747234344e-02 4.529478028416633606e-02 -1.419411320239305496e-02 4.091282375156879425e-03 -1.187229435890913010e-02 4.601235687732696533e-02 1.488290913403034210e-02 -2.606026455760002136e-02 1.560617331415414810e-02 2.554941736161708832e-02 -7.724648807197809219e-03 -2.845521643757820129e-02 8.044632151722908020e-03 1.409757044166326523e-02 2.882848493754863739e-02 -2.476168051362037659e-02 -2.797699533402919769e-03
-7.269732654094696045e-03 4.776525311172008514e-03 8.722839877009391785e-03 -2.134755998849868774e-02 -2.948850160464644432e-04 9.561613202095031738e-03 -5.773609038442373276e-03 -1.578684337437152863e-02 -4.845084622502326965e-02 1.438693143427371979e-02 9.220374748110771179e-03 -5.916585680097341537e-03 -1.667883596383035183e-03 5.317243561148643494e-02 1.565340161323547363e-02 -2.162732556462287903e-02 7.300538476556539536e-03 4.432749701663851738e-04 4.155184142291545868e-03 -2.475016005337238312e-02 2.573340025264769793e-04 -4.438040312379598618e-03 -5.520150531083345413e-03 2.740171039476990700e-04 -9.040473960340023041e-03 2.960275299847126007e-02 1.819586195051670074e-02 -4.392618313431739807e-02 -2.885184250771999359e-02 -2.780867181718349457e-02 -1.202011480927467346e-02 9.214990772306919098e-03 -7.783781737089157104e-03 -1.358711975626647472e-03 2.831259556114673615e-02 2.649860084056854248e-02 2.328802831470966339e-02 1.234804559499025345e-02 -5.804556980729103088e-02 -1.150066312402486801e-02 3.544162586331367493e-02 -5.441884044557809830e-03 1.416660938411951065e-02 1.194146182388067245e-02 -1.528093777596950531e-02 7.766973227262496948e-03 -2.455870434641838074e-02 -3.294144570827484131e-02 2.271833643317222595e-02 6.366405636072158813e-03 -2.221450768411159515e-02 -1.108436658978462219e-02 1.721659488976001740e-02 1.635976321995258331e-02 -2.348020114004611969e-02 6.169658619910478592e-03 1.948060467839241028e-02 -3.573227673768997192e-02 -3.096294403076171875e-02 -1.128383260220289230e-02 -2.652965486049652100e-02 1.307243108749389648e-02 3.277421370148658752e-02 3.096914291381835938e-02 1.560271903872489929e-02 1.146928593516349792e-02 -2.453557215631008148e-03 1.731992885470390320e-02 6.326609756797552109e-03 9.260748047381639481e-04 -5.942728370428085327e-03 3.316724300384521484e-02 3.111394122242927551e-02 3.042973112314939499e-03 -3.028516657650470734e-03 5.221537780016660690e-03 -2.878654748201370239e-02 4.586532711982727051e-02 1.144331227988004684e-02 7.668506586924195290e-04 -1.867192238569259644e-02 1.098297350108623505e-02 8.213320747017860413e-03 -4.754654690623283386e-02 -1.234093774110078812e-02 1.826084335334599018e-03 4.232812300324440002e-02 1.463048812001943588e-02 1.353601831942796707e-02 -1.409422326833009720e-02 -1.302591059356927872e-03 -1.365662831813097000e-02 4.920744337141513824e-03 1.585206203162670135e-02 -8.359861560165882111e-03 3.071050904691219330e-02 -1.758298836648464203e-02 6.723938509821891785e-03 -1.737711951136589050e-02 -5.615919828414916992e-03 2.361712418496608734e-02 -3.253234922885894775e-02 -2.477233484387397766e-02 1.622812473215162754e-03 -1.826778985559940338e-02 8.629319258034229279e-03 7.266886532306671143e-03 2.770042791962623596e-02 -3.920177186955697834e-05 -4.092689137905836105e-03 7.306735496968030930e-03 -7.976399734616279602e-03 -4.791056364774703979e-02 3.893894702196121216e-02 -1.355099212378263474e-02 3.250658139586448669e-02 -3.483792999759316444e-03 5.921721458435058594e-02 1.352802291512489319e-02 5.411079898476600647e-02 -3.283874364569783211e-03 -2.248452976346015930e-03 3.886406542733311653e-03 3.316865768283605576e-03 8.762839250266551971e-03 1.314890850335359573e-02 1.149455551058053970e-02 -1.362113561481237411e-02
1.668197661638259888e-02 8.827189914882183075e-03 2.833121456205844879e-02 -3.800301812589168549e-03 4.801867529749870300e-03 -8.765315636992454529e-03 2.710872888565063477e-02 7.495698984712362289e-03 -3.200815618038177490e-02 1.139432191848754883e-02 1.573910750448703766e-02 -2.464888803660869598e-02 2.652780152857303619e-03 1.500137243419885635e-02 -1.635561138391494751e-02 -2.900847606360912323e-02 1.876134239137172699e-02 3.194393217563629150e-02 3.940248489379882812e-02 9.990186430513858795e-03 -1.951406896114349365e-02 -4.400516918394714594e-04 4.985442850738763809e-03 -1.664685457944869995e-02 2.844321914017200470e-02 -2.072798460721969604e-02 -3.864035010337829590e-03 -9.558537974953651428e-03 7.315947208553552628e-03 -2.595034241676330566e-02 -2.239820547401905060e-02 -1.194817852228879929e-02 -1.398352906107902527e-02 1.667786575853824615e-02 1.362639665603637695e-02 -5.029578693211078644e-03 3.237419202923774719e-02 -6.196792237460613251e-03 -3.474494814872741699e-02 -1.229777839034795761e-02 4.394275136291980743e-03 5.105236079543828964e-03 2.147164195775985718e-03 -3.365082957316190004e-04 -9.024626575410366058e-03 -1.378871034830808640e-02 1.260777842253446579e-02 4.843773320317268372e-03 3.912404645234346390e-04 -1.160373818129301071e-02 -1.768268644809722900e-02 1.458386052399873734e-02 -1.718391664326190948e-02 1.633555255830287933e-02 9.002923034131526947e-03 -7.699415087699890137e-03 1.434323005378246307e-02 -1.087052654474973679e-02 1.986541599035263062e-02 1.691932603716850281e-02 3.357771551236510277e-03 -1.301555661484599113e-03 1.415340509265661240e-02 6.842205300927162170e-03 -2.344860136508941650e-02 -6.931065581738948822e-03 1.642569340765476227e-02 7.844802923500537872e-03 3.877537697553634644e-02 -1.195982447825372219e-03 -2.864238433539867401e-02 -4.824042320251464844e-02 3.953501954674720764e-02 -2.132461033761501312e-02 1.240394357591867447e-02 -6.105741485953330994e-03 -3.519802121445536613e-03 -1.637611724436283112e-02 1.921300590038299561e-02 7.229176815599203110e-03 1.354878186248242855e-03 2.304380200803279877e-02 2.437090128660202026e-02 -1.612099446356296539e-02 5.215091165155172348e-03 1.276751048862934113e-03 1.551794167608022690e-02 7.813053205609321594e-03 3.511545015498995781e-03 -2.290436998009681702e-02 1.507499814033508301e-02 1.336586195975542068e-03 -1.443531922996044159e-02 -8.498501032590866089e-03 -4.516432993113994598e-03 -2.985392324626445770e-02 1.574114523828029633e-02 2.587916329503059387e-02 1.340539311058819294e-03 7.033723872154951096e-03 2.253748849034309387e-02 -1.165930530987679958e-03 -1.469005737453699112e-02 4.124772269278764725e-03 -3.695221990346908569e-02 3.188110888004302979e-02 -5.754976999014616013e-03 -5.078414920717477798e-03 -6.872090976685285568e-03 -2.642399445176124573e-02 1.117739733308553696e-02 4.296951927244663239e-03 -4.293683916330337524e-03 -1.770319789648056030e-02 4.557627718895673752e-03 3.616778925061225891e-02 -1.897691050544381142e-03 -8.094805292785167694e-03 2.644187398254871368e-02 -1.845029741525650024e-02 -1.479881163686513901e-02 -1.090592145919799805e-02 2.078593708574771881e-02 -2.590375393629074097e-02 9.106745012104511261e-03 1.601453870534896851e-02 2.354666404426097870e-02 2.570619573816657066e-03
4.159703105688095093e-02 2.911481447517871857e-02 4.976408183574676514e-02 1.231439411640167236e-02 -8.125496096909046173e-04 3.346996754407882690e-02 1.289992406964302063e-02 -1.877361908555030823e-02 -6.152729038149118423e-03 -2.521767839789390564e-02 3.388089314103126526e-02 1.972867408767342567e-03 4.625757783651351929e-02 -9.766302071511745453e-03 -3.183126216754317284e-03 1.974731497466564178e-02 -1.968223042786121368e-02 3.570391610264778137e-02 2.310963161289691925e-02 2.249405160546302795e-02 1.924235746264457703e-02 -1.512665860354900360e-02 2.088455250486731529e-03 -3.289182484149932861e-02 5.442552268505096436e-02 -5.692628910765051842e-04 -1.120897009968757629e-02 8.297436870634555817e-03 6.121089216321706772e-03 -4.712856840342283249e-03 1.476716250181198120e-03 3.487365692853927612e-02 -4.007838200777769089e-03 -3.765051020309329033e-03 2.225556224584579468e-02 8.868928067386150360e-03 -1.777327619493007660e-02 -7.117813453078269958e-03 1.283666468225419521e-03 -1.443416438996791840e-02 1.446336787194013596e-02 4.729299619793891907e-02 2.097132988274097443e-02 1.351810293272137642e-03 1.443308126181364059e-02 -3.187959641218185425e-02 -1.795703917741775513e-02 -1.404150156304240227e-03 3.035416826605796814e-02 -7.094732671976089478e-02 -4.706795886158943176e-02 -3.307519853115081787e-02 3.036806732416152954e-02 -3.061611764132976532e-02 -1.992616616189479828e-02 1.887712627649307251e-02 -1.038388255983591080e-02 -1.137800049036741257e-03 -9.105964563786983490e-03 7.262712344527244568e-03 -5.239013116806745529e-03 -2.447275444865226746e-02 -2.759769372642040253e-02 8.376988582313060760e-03 -1.068991725333034992e-03 -3.192861750721931458e-02 7.326137274503707886e-03 1.631564088165760040e-02 1.500462647527456284e-02 6.445608567446470261e-03 3.365360572934150696e-02 -2.489681541919708252e-02 2.116046287119388580e-02 3.320503747090697289e-03 -1.206356566399335861e-02 -4.553101491183042526e-03 -9.328057989478111267e-03 1.894462481141090393e-02 2.989619411528110504e-02 -2.904644981026649475e-02 3.165760263800621033e-02 4.420259222388267517e-02 -5.534454248845577240e-03 -6.999320350587368011e-03 4.648462869226932526e-03 1.897793263196945190e-02 -3.516612201929092407e-02 8.615312166512012482e-03 3.044137731194496155e-03 2.365302294492721558e-02 -3.140476997941732407e-03 -1.472346670925617218e-02 -7.034501992166042328e-03 1.380645669996738434e-02 -3.464066237211227417e-02 1.326934527605772018e-02 1.115365047007799149e-02 -1.164504978805780411e-02 1.176775153726339340e-02 1.686828956007957458e-02 -1.665689051151275635e-02 -3.057945705950260162e-02 2.518720366060733795e-02 1.808396726846694946e-02 -4.360939562320709229e-02 2.027476951479911804e-02 -2.220457047224044800e-02 1.370322611182928085e-02 -2.881987020373344421e-02 -1.123763067880645394e-04 -3.427787870168685913e-02 -1.846807450056076050e-02 -1.917366683483123779e-02 -7.199966814368963242e-03 -1.178906392306089401e-02 3.492562845349311829e-02 -9.238590486347675323e-03 1.141765248030424118e-02 -2.011484652757644653e-02 -3.721970319747924805e-02 2.108200825750827789e-02 1.734847319312393665e-03 1.829501474276185036e-03 -2.691909857094287872e-02 1.291277445852756500e-02 -1.726123131811618805e-02 1.158315036445856094e-02 1.615812070667743683e-03
1.571049168705940247e-02 -9.326362982392311096e-03 4.336351994425058365e-03 -4.753140266984701157e-03 3.227773308753967285e-02 2.876089327037334442e-02 7.695846725255250931e-03 -2.864314615726470947e-02 6.783077260479331017e-04 3.662608191370964050e-02 -3.285428741946816444e-03 -1.838459866121411324e-04 4.550233855843544006e-02 4.160355404019355774e-02 1.078749424777925014e-03 -1.643889397382736206e-02 -1.003069896250963211e-02 4.650779534131288528e-03 8.637983351945877075e-03 3.673743223771452904e-03 -1.594162778928875923e-03 2.878185734152793884e-02 4.611236974596977234e-03 1.282450370490550995e-02 9.957072325050830841e-03 -2.917581610381603241e-02 1.440173294395208359e-02 1.211388409137725830e-02 5.075916275382041931e-02 -3.171101585030555725e-02 -2.147744782269001007e-02 1.049656566465273499e-04 -2.066200785338878632e-02 5.378785356879234314e-02 2.468719147145748138e-02 2.182607911527156830e-02 -8.843276649713516235e-03 -3.667511418461799622e-02 5.232351832091808319e-03 -2.045930363237857819e-02 2.467129938304424286e-02 3.348986804485321045e-02 -1.534488983452320099e-02 1.560142543166875839e-02 2.249530516564846039e-02 -1.842597685754299164e-02 1.574034802615642548e-02 -6.620384287089109421e-03 -1.244837511330842972e-02 -2.505526505410671234e-02 -2.508379286155104637e-03 -9.859593119472265244e-04 1.823890209197998047e-02 -9.876923635601997375e-03 4.622866213321685791e-02 -2.993523702025413513e-02 -2.162572368979454041e-02 -2.209851704537868500e-02 -1.260433904826641083e-02 -9.310961700975894928e-03 -1.207907870411872864e-02 -2.847013622522354126e-02 6.823718082159757614e-03 8.470828644931316376e-03 1.891102455556392670e-02 -9.396243840456008911e-03 -1.509764115326106548e-03 -2.333704195916652679e-02 -7.964549586176872253e-03 6.462541874498128891e-03 1.873288676142692566e-02 -2.626785077154636383e-02 6.588825490325689316e-03 -1.944591477513313293e-02 3.099696245044469833e-03 -2.911708131432533264e-02 2.419168315827846527e-02 2.315517049282789230e-03 2.289936644956469536e-03 -3.158795880153775215e-03 -1.855525560677051544e-02 -8.424416184425354004e-03 3.367056697607040405e-02 9.664617478847503662e-03 -1.992910169064998627e-02 -5.009775049984455109e-03 -1.305501908063888550e-02 1.819437369704246521e-02 2.260681800544261932e-02 -2.232890762388706207e-02 1.190422289073467255e-02 -1.375129353255033493e-02 2.259660139679908752e-02 1.760745234787464142e-02 -3.298917040228843689e-02 -1.354282349348068237e-02 -2.188156358897686005e-03 -3.113527409732341766e-02 1.043557748198509216e-02 -2.341662533581256866e-03 1.633246429264545441e-02 -1.803085207939147949e-02 -2.080777660012245178e-02 6.683876737952232361e-03 2.415534574538469315e-03 -1.347819995135068893e-02 -8.295752108097076416e-03 -1.274696178734302521e-02 2.176469191908836365e-02 2.116295322775840759e-02 -1.541668456047773361e-02 8.599571301601827145e-04 3.751567564904689789e-04 -2.016301080584526062e-02 -1.093826536089181900e-02 -1.707704924046993256e-02 1.952056400477886200e-02 -2.835988625884056091e-02 1.093498989939689636e-02 -8.715182193554937840e-04 7.930459454655647278e-03 3.224205970764160156e-02 -7.422923576086759567e-03 3.071516565978527069e-02 -5.951748695224523544e-03 4.872307763434946537e-04 -1.570412702858448029e-02 2.734501101076602936e-02
2.553455717861652374e-02 2.652094699442386627e-02 -1.196796447038650513e-02 3.534187003970146179e-02 4.983258433640003204e-03 2.104682475328445435e-02 -1.155759021639823914e-02 1.582448370754718781e-02 -2.306373044848442078e-02 -4.682506900280714035e-03 1.114012114703655243e-02 -2.046616561710834503e-02 1.001848746091127396e-02 5.104554817080497742e-03 -1.355639100074768066e-02 3.555631265044212341e-02 -1.148865465074777603e-02 2.887092344462871552e-02 1.332208979874849319e-02 -4.960248991847038269e-02 -1.760385930538177490e-02 -6.858699768781661987e-02 -2.645700611174106598e-02 3.572084009647369385e-02 -9.704982861876487732e-03 -1.461131963878870010e-02 1.774953864514827728e-02 1.268703863024711609e-02 -1.507311873137950897e-02 -3.757822886109352112e-02 1.705049723386764526e-02 -2.754816040396690369e-02 -3.325041010975837708e-02 -2.266159467399120331e-02 3.940794244408607483e-02 -1.703832065686583519e-03 -3.527257218956947327e-02 2.279873192310333252e-02 1.514410600066184998e-02 3.246264532208442688e-02 -1.509546767920255661e-02 7.677230518311262131e-03 -4.086609464138746262e-03 -1.826943643391132355e-02 -3.124001203104853630e-03 9.757041931152343750e-03 -3.222801489755511284e-03 -9.759346023201942444e-03 -1.250118017196655273e-02 -2.137713506817817688e-02 -1.112479902803897858e-02 -3.940833266824483871e-03 2.208150923252105713e-02 3.434792906045913696e-02 -7.623029407113790512e-03 -2.358883619308471680e-03 2.738397568464279175e-02 -1.367709320038557053e-02 -9.813454002141952515e-03 -2.829470857977867126e-02 -2.205298282206058502e-02 -2.210310287773609161e-02 4.556845407932996750e-03 4.272647574543952942e-02 1.373822242021560669e-02 3.935692086815834045e-02 -1.292385626584291458e-02 -4.634366184473037720e-02 -5.938922986388206482e-03 1.142002269625663757e-02 3.673060610890388489e-02 -4.930957686156034470e-03 -2.270219847559928894e-02 6.023805122822523117e-03 -5.147941410541534424e-02 3.151638805866241455e-02 1.740803755819797516e-02 -2.594776451587677002e-03 -2.530234307050704956e-02 1.587994024157524109e-02 -4.990433808416128159e-03 1.185621134936809540e-02 -1.097283978015184402e-02 -2.014492265880107880e-02 -2.071606460958719254e-03 3.587166313081979752e-03 -1.696861721575260162e-02 -4.418702796101570129e-02 -6.053942721337080002e-03 1.373328175395727158e-02 -5.197488516569137573e-02 1.537090260535478592e-02 -1.203760970383882523e-02 -2.410621009767055511e-02 -7.419238681904971600e-04 -1.490766089409589767e-02 4.730892833322286606e-03 -2.342461794614791870e-02 -2.331260405480861664e-02 -3.608744218945503235e-02 -5.432459525763988495e-03 -1.860314980149269104e-02 1.099588349461555481e-02 -8.801167830824851990e-03 -3.228762745857238770e-02 -3.341050073504447937e-02 3.865859657526016235e-02 3.189250826835632324e-02 -1.997760683298110962e-02 1.432943064719438553e-02 -1.370740216225385666e-02 -1.091803703457117081e-02 2.994472905993461609e-02 9.315500035881996155e-03 -4.306306689977645874e-02 -1.838164590299129486e-02 -1.968398131430149078e-02 6.220723036676645279e-03 2.893285267055034637e-02 1.518845674581825733e-03 -9.641208685934543610e-03 2.035037428140640259e-02 9.185099974274635315e-03 -4.522683843970298767e-02 3.602798562496900558e-03 4.168515652418136597e-02 4.570258315652608871e-03 3.594440221786499023e-02
-2.919242717325687408e-02 1.782767102122306824e-02 3.977938741445541382e-02 4.429681226611137390e-03 1.750994846224784851e-02 -1.795560866594314575e-02 -1.713026501238346100e-02 -1.674191839993000031e-02 -6.997142918407917023e-03 1.217280142009258270e-02 4.178243130445480347e-02 -2.255747467279434204e-02 4.239204339683055878e-03 1.283376850187778473e-02 -1.363453641533851624e-02 8.803349337540566921e-04 3.150262311100959778e-02 -1.412078831344842911e-02 2.499932236969470978e-02 -3.790831193327903748e-03 -3.233232768252491951e-03 6.032462231814861298e-03 6.650121882557868958e-03 -1.607157406397163868e-03 1.626564562320709229e-02 -7.487649098038673401e-03 -1.963388174772262573e-02 5.229025613516569138e-03 5.739985499531030655e-03 -1.818070001900196075e-02 -1.426473027095198631e-03 1.519974204711616039e-03 4.305105656385421753e-03 7.502879481762647629e-03 -1.397384051233530045e-02 -1.014062669128179550e-02 -9.349434636533260345e-03 -2.472943626344203949e-02 -3.204062813892960548e-03 -3.611962497234344482e-02 -1.517820730805397034e-02 1.381956040859222412e-02 1.583307981491088867e-03 -9.019668214023113251e-03 1.791630126535892487e-02 -4.242974147200584412e-02 -1.138778310269117355e-02 -1.588332653045654297e-02 1.859420537948608398e-02 2.871258417144417763e-03 -2.769584208726882935e-02 1.181704457849264145e-02 -1.682071574032306671e-02 -3.452655160799622536e-03 1.753049902617931366e-02 -9.053776040673255920e-03 1.818905398249626160e-02 -1.740366779267787933e-02 -3.765403758734464645e-03 2.641379646956920624e-02 6.079651881009340286e-03 -4.053766280412673950e-02 1.322326622903347015e-02 -5.360667128115892410e-03 3.611517138779163361e-03 4.059528186917304993e-02 3.473671618849039078e-03 -1.017078102449886501e-04 1.658597588539123535e-02 8.133895695209503174e-03 1.857458264566957951e-03 9.230263531208038330e-03 1.604033075273036957e-02 7.683813571929931641e-03 2.384773269295692444e-02 -3.648240119218826294e-03 -1.049193926155567169e-02 -4.691853746771812439e-02 -1.136687397956848145e-02 2.075156010687351227e-02 -4.885912130703218281e-05 1.423606183379888535e-02 4.563928768038749695e-02 -7.704769261181354523e-03 -2.781726233661174774e-02 2.495316788554191589e-03 -2.881201682612299919e-03 -1.782881654798984528e-02 9.669927880167961121e-03 -1.880090311169624329e-02 3.808746114373207092e-03 1.833993755280971527e-02 5.524950101971626282e-03 -1.773327030241489410e-02 -2.773094363510608673e-02 2.422659890726208687e-03 2.343697997275739908e-04 4.255178198218345642e-02 3.189537674188613892e-02 3.492872463539242744e-03 -9.525758214294910431e-04 -4.270325228571891785e-02 8.098490536212921143e-03 9.986576624214649200e-03 -3.501607105135917664e-02 -2.714576199650764465e-02 -5.124158784747123718e-02 -1.308904029428958893e-02 9.033898822963237762e-03 4.182047769427299500e-02 -4.816020838916301727e-03 -8.919748477637767792e-03 -1.384803000837564468e-02 -1.546071097254753113e-02 1.227543596178293228e-02 -4.471856355667114258e-02 -4.195278137922286987e-02 -9.409519843757152557e-03 -2.152926987037062645e-03 5.994588136672973633e-03 2.091815695166587830e-02 -9.274784475564956665e-03 4.002157971262931824e-02 7.309544365853071213e-03 -2.876497572287917137e-03 2.313880622386932373e-02 5.748214572668075562e-02 9.974899701774120331e-03
