-4.897480458021163940e-02 1.139955036342144012e-02 -2.335967682301998138e-02 1.623488776385784149e-02 5.447138100862503052e-02 -1.531539391726255417e-02 6.651889998465776443e-04 1.700762845575809479e-02 -1.824180223047733307e-02 1.807127892971038818e-02 4.152935370802879333e-02 -2.158998139202594757e-02 8.139603771269321442e-03 7.715803105384111404e-03 -2.646474353969097137e-02 7.466251030564308167e-03 -4.036772623658180237e-02 2.085596695542335510e-02 -1.046821847558021545e-02 3.558529168367385864e-02 2.265355177223682404e-02 -1.846927590668201447e-02 -3.692316357046365738e-03 -1.375990733504295349e-02 4.895785078406333923e-02 -8.077820762991905212e-03 -2.790517173707485199e-02 3.264354914426803589e-02 1.236846577376127243e-02 1.540082972496747971e-03 -2.682520262897014618e-02 -1.064425706863403320e-02 2.424607751891016960e-03 2.885118871927261353e-02 7.879190146923065186e-03 -3.080060146749019623e-02 -3.732708096504211426e-02 1.616124063730239868e-02 3.121362999081611633e-02 -2.215615287423133850e-02 6.904606521129608154e-02 -3.988530859351158142e-02 2.130779623985290527e-02 1.277564186602830887e-02 -5.876813828945159912e-02 -2.279702574014663696e-02 1.332431659102439880e-02 2.954694442451000214e-03 -3.059252724051475525e-02 3.157381340861320496e-02 -1.477397233247756958e-02 1.680180616676807404e-02 1.780669577419757843e-02 8.445243351161479950e-03 -4.928935086354613304e-04 1.865510456264019012e-02 -1.830145157873630524e-02 3.150294348597526550e-02 2.021552436053752899e-02 -7.300272583961486816e-02 2.293539233505725861e-02 1.471515931189060211e-02 2.158114314079284668e-02 -3.504144400358200073e-02 6.799344904720783234e-03 -4.164058342576026917e-02 2.488108584657311440e-04 -4.884767811745405197e-03 -2.733752876520156860e-02 -2.094897814095020294e-02 -1.036583911627531052e-02 -5.176638951525092125e-04 -9.177230822388082743e-05 1.357670873403549194e-02 4.290826618671417236e-02 -4.763937741518020630e-02 7.464024703949689865e-03 6.681741029024124146e-02 -5.979068949818611145e-02 -1.515702810138463974e-02 -1.376516185700893402e-02 -2.178934402763843536e-02 4.478141292929649353e-02 -5.607153754681348801e-03 2.683907374739646912e-02 7.319630589336156845e-03 1.881260052323341370e-02 -2.008539886446669698e-04 -2.554335258901119232e-02 -1.822350732982158661e-02 2.698778174817562103e-02 1.102488301694393158e-02 -1.637531444430351257e-03 3.487979993224143982e-02 1.891745999455451965e-02 3.183439373970031738e-03 1.197980623692274094e-02 6.247029639780521393e-03 9.120879694819450378e-03 2.143855765461921692e-02 8.597657084465026855e-03 -2.900317125022411346e-02 -1.680061966180801392e-02 3.289412334561347961e-02 -5.927249323576688766e-03 2.598877064883708954e-03 -2.750437334179878235e-02 -3.460616245865821838e-02 -6.431729532778263092e-03 -2.288537472486495972e-02 4.689731076359748840e-02 1.498046331107616425e-02 3.067322261631488800e-02 -3.330005705356597900e-02 1.651478745043277740e-02 2.353963500354439020e-04 -3.715966013260185719e-04 2.993239089846611023e-02 -4.677143413573503494e-03 -1.852690801024436951e-02 -3.314424771815538406e-03 -1.704294607043266296e-02 4.348730295896530151e-02 3.126868233084678650e-02 4.652889445424079895e-02 -5.731211858801543713e-04 -1.717232540249824524e-02 3.216565027832984924e-02
-5.160151515156030655e-03 -3.802759747486561537e-04 1.775706186890602112e-02 -4.199526831507682800e-02 -4.047318547964096069e-02 -8.194375550374388695e-04 1.185418386012315750e-02 -1.365058310329914093e-02 6.431970745325088501e-02 1.802662573754787445e-02 -2.042124792933464050e-02 2.438697218894958496e-02 -8.219900773838162422e-04 -1.958346925675868988e-02 6.762858945876359940e-03 1.518795359879732132e-02 1.276688557118177414e-02 -1.085532922297716141e-02 3.190568881109356880e-03 4.902780055999755859e-03 -1.681755483150482178e-02 1.143505051732063293e-02 2.985715493559837341e-02 -1.633074507117271423e-02 -1.727727800607681274e-02 -3.851319896057248116e-03 2.561341784894466400e-02 1.298687513917684555e-02 -2.698701620101928711e-02 1.748857670463621616e-03 9.029321372509002686e-03 5.134560633450746536e-03 -3.380462527275085449e-03 -8.607355877757072449e-03 -1.864437758922576904e-02 4.861437901854515076e-02 2.678135968744754791e-02 1.329159736633300781e-02 -2.766270423308014870e-03 4.418609663844108582e-02 2.065236680209636688e-03 -4.468302056193351746e-02 -1.857870258390903473e-02 5.212060641497373581e-03 4.566746298223733902e-03 -2.171719074249267578e-02 -1.402461994439363480e-02 -4.636552184820175171e-03 -1.972293294966220856e-02 -4.376546014100313187e-03 3.823301941156387329e-02 -1.781426556408405304e-02 -5.036980286240577698e-02 3.311787918210029602e-02 -3.803408937528729439e-03 2.375983633100986481e-02 -1.057384721934795380e-02 3.517350554466247559e-02 -2.375801466405391693e-02 -1.521228929050266743e-03 8.810474537312984467e-03 -1.170812919735908508e-02 -2.316551096737384796e-02 -8.376246318221092224e-03 3.938116505742073059e-02 -3.331767767667770386e-02 -1.335106231272220612e-02 1.070705614984035492e-02 -5.308518558740615845e-02 -2.485950663685798645e-02 2.621687948703765869e-03 -1.144225150346755981e-02 -2.013435401022434235e-02 2.616907469928264618e-02 3.902874886989593506e-02 2.722818963229656219e-02 3.446614742279052734e-02 -1.214433740824460983e-02 1.103095710277557373e-02 -1.738838106393814087e-02 -5.873600952327251434e-03 -3.576323017477989197e-02 -5.564123764634132385e-02 -1.246706489473581314e-02 4.729733988642692566e-02 3.703743964433670044e-02 -5.834572017192840576e-03 1.336509920656681061e-02 -6.379116326570510864e-02 4.177320376038551331e-02 1.175260450690984726e-02 -9.483837522566318512e-03 -1.260649994947016239e-03 -1.658642105758190155e-02 -1.173269655555486679e-02 -2.621273323893547058e-02 -2.475893311202526093e-02 2.758097648620605469e-02 -2.643406763672828674e-02 2.279306948184967041e-02 4.107472673058509827e-02 -1.687392406165599823e-02 7.136555854231119156e-03 -3.319146344438195229e-03 6.836541742086410522e-02 1.770882308483123779e-02 2.031081356108188629e-02 -7.037793751806020737e-03 2.156033366918563843e-02 -1.202547270804643631e-02 3.505287319421768188e-02 1.703808084130287170e-02 5.318772047758102417e-02 -1.166142337024211884e-02 3.226936096325516701e-03 -1.418646704405546188e-02 5.729478225111961365e-02 1.483633089810609818e-02 -3.280354663729667664e-02 1.661230809986591339e-02 2.960991673171520233e-02 -9.390316903591156006e-03 -3.153054788708686829e-02 7.603378966450691223e-03 3.063591383397579193e-02 2.477939799427986145e-02 -2.199956215918064117e-02 -1.072658109478652477e-03
-8.677756413817405701e-03 -7.216154132038354874e-03 -3.509788541123270988e-03 -1.809825003147125244e-02 -5.540669895708560944e-03 1.892169378697872162e-02 -4.695678653661161661e-04 -1.881877146661281586e-02 -3.828115388751029968e-02 5.262736696749925613e-03 1.318799331784248352e-02 -1.380522549152374268e-02 -1.020764373242855072e-02 6.873091310262680054e-02 1.460327487438917160e-02 -3.296954557299613953e-02 1.354226656258106232e-02 -2.256168052554130554e-03 -7.768482435494661331e-03 -3.100367821753025055e-02 1.058316323906183243e-02 -2.910780895035713911e-04 -9.374052286148071289e-03 -4.370560869574546814e-03 -1.403166260570287704e-02 2.582394704222679138e-02 2.775847166776657104e-02 -5.615104734897613525e-02 -3.537176549434661865e-02 -1.947507634758949280e-02 -6.042698398232460022e-03 1.727432385087013245e-02 -2.191703021526336670e-02 1.459586154669523239e-02 3.836837783455848694e-02 3.105939179658889771e-02 1.507224980741739273e-02 1.970253884792327881e-02 -7.029487192630767822e-02 -2.260707132518291473e-02 4.523363709449768066e-02 -1.655542105436325073e-02 1.344430819153785706e-02 2.017929218709468842e-02 -1.894826442003250122e-02 9.527307935059070587e-03 -2.573345601558685303e-02 -2.008373849093914032e-02 3.295539319515228271e-02 -2.302462467923760414e-03 -3.862026706337928772e-02 -2.539014816284179688e-02 2.225533314049243927e-02 2.043541520833969116e-02 -3.170176967978477478e-02 -4.509489517658948898e-03 1.039182301610708237e-02 -4.907346144318580627e-02 -2.817787975072860718e-02 -4.759211093187332153e-03 -3.327696397900581360e-02 7.870534434914588928e-03 4.579908028244972229e-02 3.921868279576301575e-02 6.711487658321857452e-03 1.019568089395761490e-02 -1.201083697378635406e-02 5.269204732030630112e-03 2.072386816143989563e-02 1.596547663211822510e-02 -1.486722938716411591e-02 4.901743680238723755e-02 4.572051763534545898e-02 8.471110835671424866e-03 -1.536629348993301392e-02 -6.787573918700218201e-03 -2.106933295726776123e-02 5.611804500222206116e-02 1.224473863840103149e-02 6.602477747946977615e-03 -1.839228160679340363e-02 2.066219784319400787e-02 1.513931248337030411e-02 -6.581404060125350952e-02 -1.274244580417871475e-02 1.149694202467799187e-03 5.112709477543830872e-02 3.489485383033752441e-02 9.293613955378532410e-03 -9.188283234834671021e-03 1.042728219181299210e-02 -2.927575446665287018e-02 -2.145766513422131538e-03 1.107808947563171387e-02 -1.666321791708469391e-02 4.351846501231193542e-02 -2.599505893886089325e-02 6.783097051084041595e-03 -7.936165668070316315e-03 -8.885653689503669739e-03 1.100013591349124908e-02 -2.586222812533378601e-02 -1.550223492085933685e-02 1.885002478957176208e-02 -1.386496145278215408e-02 6.696394179016351700e-03 7.379019167274236679e-03 4.083465412259101868e-02 -7.846768014132976532e-03 -1.044507510960102081e-02 5.519208032637834549e-03 -6.952145602554082870e-03 -6.316709518432617188e-02 5.115915089845657349e-02 -9.268791414797306061e-03 3.149961680173873901e-02 -1.240211538970470428e-02 6.947039067745208740e-02 2.039111405611038208e-02 6.106225028634071350e-02 -4.174801986664533615e-03 -7.025100756436586380e-03 1.450890395790338516e-02 -6.115999072790145874e-03 6.540666334331035614e-03 1.347174681723117828e-02 7.655946537852287292e-03 -1.419989671558141708e-02
7.283305749297142029e-03 1.137069799005985260e-02 2.914353273808956146e-02 1.230365014635026455e-03 6.535823922604322433e-03 -6.178245414048433304e-03 3.114460781216621399e-02 5.871695932000875473e-03 -2.894986234605312347e-02 1.131766475737094879e-02 2.255171909928321838e-02 -2.308813855051994324e-02 3.183530177921056747e-03 1.253828592598438263e-02 -2.392384782433509827e-02 -3.368812426924705505e-02 2.483570761978626251e-02 3.332832828164100647e-02 3.832584992051124573e-02 6.065492518246173859e-03 -2.430065535008907318e-02 -4.682433325797319412e-03 3.501254366710782051e-03 -1.055014785379171371e-02 2.384243905544281006e-02 -2.679947577416896820e-02 -1.063797157257795334e-02 -6.233282038010656834e-04 1.274893805384635925e-02 -3.087443672120571136e-02 -2.332283370196819305e-02 -5.705952178686857224e-03 -4.200910683721303940e-03 1.518428139388561249e-02 1.608598791062831879e-02 -9.734975174069404602e-03 3.556965291500091553e-02 -7.960267364978790283e-03 -3.874209150671958923e-02 -5.068772472441196442e-03 1.376424077898263931e-02 1.229498907923698425e-02 1.594582339748740196e-03 -3.467447357252240181e-03 -1.603199169039726257e-02 -2.334062941372394562e-02 1.312770601361989975e-02 9.222458116710186005e-03 -4.441099241375923157e-03 -1.235162746161222458e-02 -3.027970157563686371e-02 1.481198240071535110e-02 -1.385109126567840576e-02 1.047416869550943375e-02 1.311644725501537323e-02 -5.213203374296426773e-03 1.224082149565219879e-02 -1.546427607536315918e-02 1.496859546750783920e-02 2.393078617751598358e-02 5.290138069540262222e-03 2.272712299600243568e-03 1.199685502797365189e-02 -5.172405391931533813e-03 -1.692812144756317139e-02 -1.042521558701992035e-02 1.484366599470376968e-02 1.430367957800626755e-02 4.011850804090499878e-02 -2.164321718737483025e-03 -3.586919978260993958e-02 -4.284671321511268616e-02 4.233743250370025635e-02 -2.353046834468841553e-02 4.458096344023942947e-03 -5.078906659036874771e-03 -9.327657520771026611e-03 -1.934292353689670563e-02 2.500816993415355682e-02 8.883502334356307983e-03 1.374540664255619049e-02 1.777319982647895813e-02 2.540382184088230133e-02 -2.399307303130626678e-02 4.595047794282436371e-03 9.452154044993221760e-04 1.349356584250926971e-02 3.144661430269479752e-03 5.519035737961530685e-03 -1.839775964617729187e-02 1.556296646595001221e-02 -3.819420468062162399e-03 -1.463844161480665207e-02 -1.133922487497329712e-02 -8.023897185921669006e-03 -2.547779493033885956e-02 1.963380351662635803e-02 2.368815802037715912e-02 -5.747116636484861374e-03 7.685975637286901474e-03 3.083975054323673248e-02 -4.495091270655393600e-03 -1.781443506479263306e-02 2.570667071267962456e-03 -4.303586110472679138e-02 3.193333745002746582e-02 -3.862306242808699608e-03 2.552337478846311569e-03 -1.869562827050685883e-02 -2.387488819658756256e-02 7.763518951833248138e-03 6.374657619744539261e-03 -4.515394102782011032e-03 -2.292805537581443787e-02 2.053467184305191040e-02 3.107452765107154846e-02 5.920506664551794529e-04 -7.850677706301212311e-03 2.136969752609729767e-02 -1.204719487577676773e-02 -7.689182180911302567e-03 -5.779226776212453842e-03 1.750873774290084839e-02 -2.431374974548816681e-02 3.906670492142438889e-03 1.540872268378734589e-02 2.925869449973106384e-02 1.123221963644027710e-02
4.602960124611854553e-02 2.296612970530986786e-02 4.714140668511390686e-02 5.165377631783485413e-03 -6.626795511692762375e-03 3.779855370521545410e-02 3.933676704764366150e-02 -2.872018143534660339e-02 -1.142089162021875381e-02 -2.426018565893173218e-02 4.373949393630027771e-02 -5.908006336539983749e-03 5.116585269570350647e-02 -4.523516166955232620e-03 -1.828947337344288826e-03 2.864966355264186859e-02 -1.720304228365421295e-02 4.910187050700187683e-02 3.537639603018760681e-02 3.359553962945938110e-02 1.922491565346717834e-02 -5.216512363404035568e-03 2.603099681437015533e-03 -4.177185148000717163e-02 5.571237951517105103e-02 1.867803046479821205e-03 -2.162877283990383148e-02 1.198513992130756378e-02 6.728035397827625275e-03 -3.396457759663462639e-03 5.117447115480899811e-03 5.027010291814804077e-02 3.688129130750894547e-03 -1.166709978133440018e-02 2.484262362122535706e-02 1.871750131249427795e-02 -1.198290754109621048e-02 2.457785885781049728e-04 9.203999303281307220e-03 -2.261939831078052521e-02 1.347707957029342651e-02 4.721476882696151733e-02 2.590100280940532684e-02 -1.775970158632844687e-04 1.668723672628402710e-02 -3.876863792538642883e-02 -1.972703635692596436e-02 -7.503883913159370422e-03 3.226567059755325317e-02 -8.525875210762023926e-02 -4.407032579183578491e-02 -3.902230411767959595e-02 2.837225049734115601e-02 -3.690470010042190552e-02 -2.550128288567066193e-02 1.168648432940244675e-02 -1.167811080813407898e-02 2.197259105741977692e-03 -1.795100048184394836e-02 1.061146706342697144e-02 -1.270560547709465027e-03 -1.636399142444133759e-02 -2.516534551978111267e-02 4.652524366974830627e-03 -2.954205032438039780e-03 -3.568050265312194824e-02 2.519958652555942535e-02 2.520664595067501068e-02 1.943585462868213654e-02 2.217843430116772652e-03 3.547325357794761658e-02 -2.164022438228130341e-02 1.306673977524042130e-02 -4.501491319388151169e-03 -1.018184516578912735e-02 -1.837965450249612331e-03 -2.474477142095565796e-02 9.435788728296756744e-03 1.568094827234745026e-02 -3.330067917704582214e-02 3.662386909127235413e-02 4.258839040994644165e-02 1.991324097616598010e-04 -1.792922802269458771e-02 -3.052711253985762596e-03 1.968479529023170471e-02 -4.360711574554443359e-02 9.704247117042541504e-03 8.048327639698982239e-03 3.748624771833419800e-02 -4.303744062781333923e-03 -1.009215507656335831e-02 -2.335332892835140228e-02 5.430599208921194077e-03 -2.634243853390216827e-02 2.660133503377437592e-02 1.595802046358585358e-02 -9.926343336701393127e-03 5.294919013977050781e-03 1.148990355432033539e-02 -2.225554734468460083e-02 -3.509943559765815735e-02 1.747495867311954498e-02 2.034394443035125732e-02 -5.764956772327423096e-02 1.519801188260316849e-02 -1.465999148786067963e-02 1.644760929048061371e-02 -1.846119947731494904e-02 1.271706307306885719e-03 -2.310324087738990784e-02 -2.114451676607131958e-02 -2.667286805808544159e-02 -1.229905243963003159e-02 -1.491885632276535034e-02 3.851101174950599670e-02 -1.404552161693572998e-02 1.475245319306850433e-02 -2.964303642511367798e-02 -4.443975165486335754e-02 7.244705688208341599e-03 8.497459813952445984e-03 4.103585146367549896e-03 -3.754075989127159119e-02 1.587950438261032104e-02 -1.308846473693847656e-02 2.378259971737861633e-02 -9.854133240878582001e-03
1.523223519325256348e-02 -1.475237496197223663e-02 1.436814665794372559e-02 -1.240931823849678040e-02 2.030169405043125153e-02 3.368885815143585205e-02 1.638171076774597168e-02 -2.956340648233890533e-02 -1.059041265398263931e-02 2.665490284562110901e-02 -3.836241317912936211e-03 9.885760955512523651e-03 5.956977978348731995e-02 4.929705709218978882e-02 -5.098156165331602097e-03 -2.784945815801620483e-02 -2.344120852649211884e-02 -8.553714491426944733e-03 1.562564447522163391e-02 9.069128893315792084e-03 -1.813084632158279419e-02 3.391508385539054871e-02 2.827551914379000664e-03 1.959510706365108490e-02 2.203663997352123260e-02 -1.950537599623203278e-02 2.317911386489868164e-02 1.282965671271085739e-02 7.253042608499526978e-02 -2.388447336852550507e-02 -3.563721477985382080e-02 1.303810067474842072e-02 -2.149597182869911194e-02 7.297461479902267456e-02 1.771934516727924347e-02 1.711280643939971924e-02 -1.927795633673667908e-02 -5.673788115382194519e-02 -1.227404549717903137e-02 -2.610711939632892609e-02 2.464353106915950775e-02 5.582797154784202576e-02 -2.386516332626342773e-02 1.003174018114805222e-02 2.322997152805328369e-02 -1.318986434489488602e-02 1.113811135292053223e-02 6.692930473946034908e-04 -1.458731759339570999e-02 -2.643646486103534698e-02 1.082663238048553467e-02 5.816203542053699493e-03 1.737846992909908295e-02 -4.173960071057081223e-03 4.732330515980720520e-02 -3.712355345487594604e-02 -9.474925696849822998e-03 -1.806038431823253632e-02 -6.079653743654489517e-03 -3.167157992720603943e-04 -1.626654900610446930e-02 -3.763664141297340393e-02 1.604705117642879486e-03 2.939858287572860718e-02 3.233389556407928467e-02 6.417441181838512421e-03 4.845755174756050110e-03 -1.774181611835956573e-02 -1.482107676565647125e-02 2.316635946044698358e-04 2.274139225482940674e-02 -3.576315194368362427e-02 -9.781615808606147766e-04 -2.335236780345439911e-02 1.378800370730459690e-03 -2.976636588573455811e-02 1.162664219737052917e-02 -4.866714123636484146e-03 2.703327313065528870e-02 -3.201358485966920853e-03 -7.485924754291772842e-03 -2.368926815688610077e-02 3.362221643328666687e-02 2.179194800555706024e-02 -2.375721186399459839e-02 -3.626571735367178917e-03 -2.643395774066448212e-02 2.472911588847637177e-02 2.706488408148288727e-02 -1.613902673125267029e-02 2.418612875044345856e-02 -1.566442102193832397e-02 4.016318917274475098e-02 2.958982810378074646e-02 -6.248706579208374023e-02 -1.134511921554803848e-02 -1.167996414005756378e-02 -3.563266247510910034e-02 3.620270267128944397e-02 2.637296216562390327e-03 1.890585757791996002e-02 -1.854708790779113770e-02 -2.669154666364192963e-02 -6.590893026441335678e-03 1.223804987967014313e-02 -1.073378231376409531e-02 -1.445198338478803635e-02 -3.445079550147056580e-02 2.828877232968807220e-02 3.743155673146247864e-02 -2.697468549013137817e-02 1.140423584729433060e-03 -4.875344689935445786e-03 -2.701326087117195129e-02 -2.154207043349742889e-02 -1.612728461623191833e-02 1.345734205096960068e-02 -4.609909281134605408e-02 1.484699547290802002e-02 3.282099030911922455e-03 -9.100778843276202679e-04 2.730505540966987610e-02 -2.159462496638298035e-02 3.686339408159255981e-02 -1.688931137323379517e-02 -5.883716978132724762e-03 -1.640833355486392975e-02 2.144376374781131744e-02
3.288303315639495850e-02 3.132764995098114014e-02 -1.734180375933647156e-02 4.826731234788894653e-02 1.882914686575531960e-03 2.220090851187705994e-02 -1.918327249586582184e-02 1.783400960266590118e-02 -3.089854307472705841e-02 -1.155327074229717255e-02 3.642922500148415565e-03 -1.691499724984169006e-02 -1.604250515811145306e-03 4.631455522030591965e-03 -9.978773072361946106e-03 3.941224887967109680e-02 -6.022535730153322220e-03 2.272726595401763916e-02 2.325111767277121544e-03 -6.467944383621215820e-02 -1.144376397132873535e-02 -6.865397840738296509e-02 -3.198434039950370789e-02 4.699744656682014465e-02 -7.021060679107904434e-03 -1.385124679654836655e-02 1.053700968623161316e-02 4.701632075011730194e-03 -2.556429430842399597e-02 -3.766154870390892029e-02 2.474223822355270386e-02 -3.644695878028869629e-02 -3.142780438065528870e-02 -2.865617722272872925e-02 5.430333688855171204e-02 -1.521497219800949097e-02 -2.655984275043010712e-02 2.250374481081962585e-02 8.176069706678390503e-03 3.548166528344154358e-02 -2.310409024357795715e-02 1.464289799332618713e-02 -1.190083939582109451e-02 -1.919821463525295258e-02 6.869359407573938370e-03 1.857496984302997589e-02 5.169870564714074135e-04 -2.040104940533638000e-02 -2.025697007775306702e-02 -1.444935891777276993e-02 -2.909979782998561859e-03 6.725833751261234283e-03 2.667894028127193451e-02 3.638787195086479187e-02 -2.216821303591132164e-03 1.075308187864720821e-03 4.516841843724250793e-02 -1.897798106074333191e-02 -9.495614096522331238e-03 -3.634769842028617859e-02 -2.156392112374305725e-02 -8.349894545972347260e-03 -7.282902020961046219e-03 5.085000395774841309e-02 -1.807523658499121666e-03 5.141468718647956848e-02 -2.649950981140136719e-02 -5.620824918150901794e-02 1.899334718473255634e-03 1.982012949883937836e-02 4.314685240387916565e-02 -9.881501086056232452e-03 -2.203089371323585510e-02 1.107192318886518478e-02 -5.732902884483337402e-02 3.159882128238677979e-02 2.943337522447109222e-02 -1.532183028757572174e-02 -1.864466443657875061e-02 2.977033518254756927e-02 -4.077171441167593002e-03 2.768199890851974487e-02 -1.322310976684093475e-02 -5.639649927616119385e-03 -1.022963505238294601e-02 6.435924675315618515e-03 -1.590974442660808563e-02 -5.690459161996841431e-02 -1.092311739921569824e-02 1.624117419123649597e-02 -7.104372233152389526e-02 1.202544476836919785e-02 -1.074069179594516754e-02 -3.629068285226821899e-02 9.321851655840873718e-03 -2.526788786053657532e-02 1.919998042285442352e-02 -2.938948944211006165e-02 -2.646444551646709442e-02 -4.550648853182792664e-02 4.917596932500600815e-03 -1.912021078169345856e-02 2.259958349168300629e-02 -2.403985150158405304e-02 -3.625306114554405212e-02 -4.361688345670700073e-02 5.280455574393272400e-02 4.601712897419929504e-02 -2.519145980477333069e-02 1.883009821176528931e-02 -2.123234793543815613e-02 -1.163274701684713364e-02 3.790071234107017517e-02 2.842713613063097000e-03 -4.151228442788124084e-02 -1.982884667813777924e-02 -2.301876060664653778e-02 1.726236310787498951e-03 3.856206685304641724e-02 1.072899787686765194e-03 -7.744671776890754700e-03 2.182162553071975708e-02 1.600681804120540619e-02 -4.908391833305358887e-02 -8.155429735779762268e-03 4.949387162923812866e-02 6.265330594033002853e-04 3.305105492472648621e-02
-3.230998292565345764e-02 2.633079513907432556e-02 4.467972368001937866e-02 3.338334208820015192e-04 2.282245270907878876e-02 -1.642797514796257019e-02 -2.540951780974864960e-02 -1.658183336257934570e-02 -9.068351238965988159e-03 1.860822550952434540e-02 4.217021539807319641e-02 -2.477343007922172546e-02 -4.116599739063531160e-04 1.476240344345569611e-02 -1.279903110116720200e-02 -3.114333376288414001e-04 3.797603026032447815e-02 -9.648346342146396637e-03 2.066965028643608093e-02 6.753043271601200104e-04 5.723263602703809738e-03 3.604490309953689575e-03 5.126942880451679230e-03 5.277630407363176346e-03 6.087945774197578430e-03 -1.241886056959629059e-02 -1.786730624735355377e-02 1.477527432143688202e-03 3.193884622305631638e-03 -1.973557472229003906e-02 -1.380482339300215244e-03 1.103109447285532951e-03 3.389306366443634033e-03 5.805327673442661762e-04 -2.722335234284400940e-02 -1.150733139365911484e-02 -1.341254170984029770e-02 -3.429198265075683594e-02 -1.292822882533073425e-03 -4.662271961569786072e-02 -1.637426018714904785e-02 4.291112418286502361e-04 1.137358509004116058e-02 -1.060845144093036652e-02 1.316969469189643860e-02 -5.108655244112014771e-02 -6.986560765653848648e-03 -9.306307882070541382e-03 2.125039510428905487e-02 2.828905824571847916e-03 -3.195405006408691406e-02 2.890527015551924706e-03 -1.687707938253879547e-02 4.741686861962080002e-03 1.190395839512348175e-02 -6.523859687149524689e-03 1.088641490787267685e-02 -1.253057178109884262e-02 -4.111747723072767258e-03 3.465140610933303833e-02 4.304138943552970886e-03 -5.779194086790084839e-02 2.118178270757198334e-02 -6.443532649427652359e-03 -4.365571774542331696e-03 3.699387982487678528e-02 8.709412999451160431e-03 1.009309664368629456e-02 1.636174134910106659e-02 5.744624417275190353e-03 1.475037424825131893e-03 1.547182630747556686e-02 1.943509653210639954e-02 1.357292570173740387e-02 3.272696956992149353e-02 1.129396259784698486e-03 -1.173956505954265594e-02 -5.049730092287063599e-02 -7.950685918331146240e-03 3.166295960545539856e-02 -4.008887335658073425e-03 1.184831093996763229e-02 5.161388590931892395e-02 -8.585426956415176392e-03 -2.635874040424823761e-02 -3.227744717150926590e-03 6.310642231255769730e-03 -1.352127827703952789e-02 1.494073122739791870e-02 -2.214360050857067108e-02 5.918131675571203232e-03 2.426967956125736237e-02 1.050842832773923874e-02 -2.108650468289852142e-02 -1.393484044820070267e-02 1.036357250995934010e-03 -4.401239566504955292e-03 5.231715366244316101e-02 2.920999377965927124e-02 2.284325892105698586e-03 -7.759577129036188126e-03 -4.575196281075477600e-02 5.993161350488662720e-03 1.635704189538955688e-02 -2.967152744531631470e-02 -2.813213318586349487e-02 -6.939956545829772949e-02 -1.646096631884574890e-02 1.594499126076698303e-02 4.429856315255165100e-02 -6.029400043189525604e-03 -6.454632617533206940e-03 -1.360322907567024231e-02 -1.649742200970649719e-02 1.460668537765741348e-02 -4.813255369663238525e-02 -3.657215461134910583e-02 -1.568757183849811554e-02 -5.835125688463449478e-03 -2.465469879098236561e-04 2.223127335309982300e-02 -8.728965185582637787e-03 4.466795921325683594e-02 2.836969913914799690e-03 -3.036811482161283493e-03 2.305686846375465393e-02 6.654634326696395874e-02 6.251434795558452606e-03
