3.768889233469963074e-02 7.060207426548004150e-02 -2.329713851213455200e-02 1.710424432530999184e-03 -2.860221825540065765e-02 -1.095263753086328506e-02 9.802188724279403687e-02 -7.256336510181427002e-02 -4.446736350655555725e-02 9.577434509992599487e-03 4.162285849452018738e-02 -6.100534461438655853e-03 -2.836262620985507965e-02 3.230830654501914978e-02 3.457923419773578644e-03 -4.336830228567123413e-03 -4.161619767546653748e-02 2.839173376560211182e-02 -3.147972375154495239e-02 9.921740740537643433e-03 2.394624985754489899e-03 5.793302133679389954e-02 1.047289744019508362e-02 1.952729071490466595e-03 7.846694439649581909e-03 -3.453341871500015259e-02 4.767671693116426468e-03 -2.369173429906368256e-02 1.171091385185718536e-02 2.732561714947223663e-02 4.579071700572967529e-02 4.680211097002029419e-02 8.002323447726666927e-04 -3.895267844200134277e-02 3.006394393742084503e-02 3.021569550037384033e-02 -1.889814250171184540e-02 3.804831951856613159e-02 -3.072888031601905823e-02 -3.977068513631820679e-02 -3.346322849392890930e-02 -2.138390205800533295e-02 -2.947969362139701843e-02 4.894804209470748901e-02 4.770242795348167419e-02 -4.295641183853149414e-02 2.556497231125831604e-02 2.291329950094223022e-02 6.371855735778808594e-02 -4.535466805100440979e-02 -8.038627915084362030e-03 -6.647205352783203125e-02 -1.450852397829294205e-02 1.289829704910516739e-02 -4.985931515693664551e-02 -4.869430139660835266e-02 -6.162696704268455505e-02 -4.118217527866363525e-02 -2.364566177129745483e-02 8.947710506618022919e-03 -1.725909300148487091e-02 3.445365652441978455e-02 4.437734931707382202e-02 -1.910170889459550381e-03 -2.103151939809322357e-02 -1.825025677680969238e-02 1.577601581811904907e-02 -5.465825553983449936e-03 8.769880048930644989e-03 -1.691806502640247345e-02 -1.702068373560905457e-02 2.134392783045768738e-02 1.132916565984487534e-02 -7.084567844867706299e-02 1.324014621786773205e-03 -3.972173109650611877e-02 -2.190763503313064575e-02 4.574028775095939636e-02 -1.232167053967714310e-02 -4.966155439615249634e-02 -2.337238378822803497e-02 -1.288102567195892334e-02 -4.521452356129884720e-03 -6.642272323369979858e-02 -3.757975250482559204e-02 -5.324368923902511597e-02 -5.526315886527299881e-03 1.029320620000362396e-02 5.502545274794101715e-03 5.238444730639457703e-02 2.603744715452194214e-02 -4.810595512390136719e-02 -2.761797979474067688e-02 3.520868718624114990e-02 -2.742364769801497459e-03 4.180726036429405212e-02 -1.826774701476097107e-02 1.915284618735313416e-02 2.891592867672443390e-02 -3.231344372034072876e-02 -2.239745669066905975e-02 -1.300710812211036682e-02 1.063319668173789978e-02 1.503281202167272568e-02 -3.397512063384056091e-02 5.148008093237876892e-02 3.616204112768173218e-02 5.876118317246437073e-03 -4.723897669464349747e-03 -1.516286190599203110e-02 -3.952158614993095398e-02 -3.684588521718978882e-02 -5.100198090076446533e-02 2.488038130104541779e-02 -6.012691184878349304e-02 6.132174283266067505e-02 -3.757632151246070862e-02 2.567837387323379517e-02 1.786620542407035828e-02 -3.331762552261352539e-02 -3.446722775697708130e-02 -4.286614712327718735e-03 -2.987989597022533417e-02 -1.211918611079454422e-02 1.362155377864837646e-02 -6.395017355680465698e-02 2.137063629925251007e-02 -5.891257897019386292e-02
5.872433073818683624e-03 8.408430963754653931e-02 6.080187484622001648e-02 -1.478865463286638260e-02 -4.302273690700531006e-02 -5.335151404142379761e-02 -3.166314214468002319e-02 -3.016522526741027832e-02 -6.016852706670761108e-02 -1.929905079305171967e-02 3.944377880543470383e-03 1.469419058412313461e-02 2.771678566932678223e-02 7.698198314756155014e-04 -3.111610561609268188e-02 7.108686491847038269e-03 3.256909549236297607e-02 9.757759049534797668e-03 4.664397239685058594e-02 -2.528239274397492409e-03 -1.760862767696380615e-02 -9.960853494703769684e-03 8.677005767822265625e-02 -3.891617432236671448e-02 5.335304141044616699e-02 -1.557115651667118073e-02 2.465806435793638229e-03 -1.808667927980422974e-02 1.383075211197137833e-02 4.059582203626632690e-02 3.116376511752605438e-02 -7.938408292829990387e-03 -9.741082787513732910e-03 1.983941905200481415e-02 2.129151113331317902e-02 1.156280655413866043e-02 2.403552457690238953e-02 1.468285545706748962e-02 2.809404209256172180e-02 4.140742123126983643e-02 3.761152923107147217e-02 5.866730213165283203e-02 7.481160573661327362e-03 -1.023863404989242554e-01 1.886753947474062443e-03 5.662406794726848602e-03 -3.540534526109695435e-02 -4.333203285932540894e-02 -4.732948262244462967e-03 1.061039604246616364e-02 -9.789094328880310059e-03 -6.252998951822519302e-03 5.714488029479980469e-02 1.009396463632583618e-02 -1.260781567543745041e-02 -4.073880985379219055e-02 3.941175527870655060e-03 2.231587655842304230e-02 3.977373242378234863e-03 5.267488770186901093e-03 -5.662105977535247803e-03 -3.900426626205444336e-02 -3.229692578315734863e-03 8.386788517236709595e-02 3.463682532310485840e-02 -1.501004560850560665e-03 -4.323886334896087646e-02 -3.837153315544128418e-02 -5.335767939686775208e-02 -2.852278761565685272e-02 2.634031325578689575e-02 -1.705823466181755066e-02 5.400317907333374023e-02 -1.440661400556564331e-02 5.112289637327194214e-02 1.063266322016716003e-01 -3.713119775056838989e-02 7.004566956311464310e-03 -3.192307054996490479e-02 -6.114210002124309540e-03 -5.604849662631750107e-03 4.681152105331420898e-02 4.306083917617797852e-02 -5.572493188083171844e-03 5.473247915506362915e-02 1.433346420526504517e-02 6.204201281070709229e-02 -4.202307015657424927e-02 7.225535064935684204e-02 -2.666792832314968109e-02 -9.703125106170773506e-04 1.437674555927515030e-02 1.315846573561429977e-02 -4.124549776315689087e-02 -9.584970539435744286e-04 -1.371560990810394287e-02 2.532268874347209930e-02 -1.399368513375520706e-02 3.829163685441017151e-02 1.769056357443332672e-02 -2.469504810869693756e-02 -8.801314048469066620e-03 3.285693749785423279e-02 1.695994287729263306e-02 -2.050362154841423035e-02 1.100843655876815319e-03 -7.741934061050415039e-02 -3.711004927754402161e-02 -3.908751532435417175e-02 5.179503466933965683e-03 1.975172385573387146e-02 1.136424914002418518e-01 2.830113656818866730e-02 -6.315618753433227539e-02 2.355125179747119546e-04 4.486604034900665283e-02 -5.874028801918029785e-02 -9.801705367863178253e-03 -9.937267750501632690e-02 -1.508478447794914246e-02 2.681938232854008675e-03 1.394452154636383057e-02 2.580806985497474670e-02 -9.210309013724327087e-03 4.211593884974718094e-03 1.108645871281623840e-01 5.603648256510496140e-03 1.368422899395227432e-02
-1.360758859664201736e-02 -2.494079992175102234e-02 4.424682632088661194e-02 2.087938785552978516e-02 -4.978468269109725952e-02 1.105734705924987793e-02 -5.221888795495033264e-02 -5.377358570694923401e-02 3.774408251047134399e-02 -1.010931190103292465e-02 2.817873843014240265e-02 4.047111421823501587e-02 6.868305802345275879e-02 -2.151862159371376038e-02 4.101879894733428955e-02 2.350517921149730682e-02 -1.402642857283353806e-02 -6.586039904505014420e-03 -3.259388729929924011e-02 4.214961826801300049e-02 -4.160480201244354248e-02 -1.434075925499200821e-02 1.843665353953838348e-02 -1.616578362882137299e-02 -1.269070804119110107e-02 4.494758788496255875e-03 5.506848916411399841e-02 -1.547223981469869614e-02 -8.215382695198059082e-03 -2.321781590580940247e-02 -5.557879339903593063e-03 -1.548837288282811642e-03 5.451444163918495178e-02 -2.367321960628032684e-02 -5.479170009493827820e-02 4.616576060652732849e-02 2.575111947953701019e-02 4.143640398979187012e-02 -3.898747963830828667e-03 -1.004252210259437561e-02 2.255103178322315216e-02 8.174060843884944916e-03 -3.108827769756317139e-02 -2.321634814143180847e-02 2.892660722136497498e-02 -3.019272163510322571e-02 -4.677741602063179016e-02 -3.913508728146553040e-02 2.083786949515342712e-02 -1.448885537683963776e-03 8.471880108118057251e-03 -2.302554808557033539e-02 -2.706501260399818420e-02 -2.683372981846332550e-02 -8.833450265228748322e-03 4.650473222136497498e-02 2.569639496505260468e-02 -4.673531278967857361e-02 -2.216381579637527466e-02 1.504689862485975027e-04 -4.360445961356163025e-02 -4.471026360988616943e-02 -9.216747712343931198e-04 5.684148054569959641e-03 -1.514470577239990234e-02 7.471119519323110580e-03 -6.556014064699411392e-03 3.648349642753601074e-02 -6.645176094025373459e-03 -3.329708799719810486e-02 8.039670996367931366e-03 -1.895350054837763309e-03 -3.958633169531822205e-02 3.178507462143898010e-02 -8.367132395505905151e-04 4.736775532364845276e-03 1.132499147206544876e-02 -3.643028438091278076e-03 1.249347697012126446e-03 -7.545788306742906570e-03 3.009860403835773468e-02 -3.442604839801788330e-02 -1.430888287723064423e-02 -4.168293904513120651e-03 -3.594331070780754089e-02 3.972470760345458984e-02 -2.400367893278598785e-02 -6.817486602813005447e-03 -3.003108873963356018e-02 9.614724665880203247e-02 3.226334601640701294e-02 3.432562202215194702e-02 -3.923800960183143616e-02 -1.509975548833608627e-02 -2.953121624886989594e-02 -6.214323453605175018e-03 3.167137131094932556e-02 -3.894933499395847321e-03 -4.268527776002883911e-02 9.313524700701236725e-03 -7.643582299351692200e-03 -5.907974671572446823e-03 -1.851005852222442627e-02 -1.540104672312736511e-02 -7.873797789216041565e-03 2.110213972628116608e-02 -2.035300806164741516e-02 -3.660268336534500122e-02 2.870983816683292389e-02 -1.853357255458831787e-02 1.307368557900190353e-02 -2.532030642032623291e-02 -1.589070819318294525e-02 1.146094501018524170e-02 5.210039764642715454e-02 -4.231239110231399536e-02 2.032538875937461853e-02 -3.545513749122619629e-02 3.025259077548980713e-02 -3.332296386361122131e-02 -2.663643285632133484e-02 -1.879466511309146881e-02 -2.009645663201808929e-02 -3.880597883835434914e-03 -8.792907930910587311e-03 2.128826454281806946e-02 -1.198093034327030182e-02 -2.745480276644229889e-02
4.272112250328063965e-02 2.137119881808757782e-02 -5.984378978610038757e-02 -5.162782222032546997e-02 1.761554367840290070e-02 3.149427846074104309e-02 1.840456575155258179e-02 5.558561533689498901e-04 -2.376680634915828705e-02 8.411690592765808105e-02 -8.225300908088684082e-02 -5.206005647778511047e-02 -4.528675973415374756e-02 -1.837490126490592957e-02 4.351244494318962097e-02 -8.966788649559020996e-03 -9.097367525100708008e-03 1.864575408399105072e-02 3.279074328020215034e-03 -5.073681473731994629e-02 5.321567505598068237e-02 8.991829305887222290e-02 3.519078716635704041e-02 4.359180852770805359e-02 2.035310864448547363e-02 4.899086803197860718e-02 1.085535213351249695e-01 2.152106910943984985e-02 4.372566472738981247e-03 -2.914104796946048737e-02 -1.078895106911659241e-02 2.770981751382350922e-02 -5.961896106600761414e-02 5.164640396833419800e-02 -1.108131720684468746e-03 -4.179232940077781677e-02 1.187976635992527008e-02 1.543308515101671219e-02 -2.692810026928782463e-03 -6.585103273391723633e-02 -2.056123223155736923e-03 2.050559036433696747e-02 2.059758640825748444e-02 -8.540617674589157104e-02 -5.607586726546287537e-02 -1.094762422144412994e-02 -1.181030832231044769e-02 -4.390687495470046997e-02 -2.768532931804656982e-02 -1.181083614937961102e-03 5.661714356392621994e-03 -7.962891831994056702e-03 -1.336515787988901138e-02 5.754888057708740234e-02 -2.159179560840129852e-02 3.423789143562316895e-02 2.200279943645000458e-02 -3.590290248394012451e-02 1.738785021007061005e-02 -1.907325908541679382e-02 -9.796814993023872375e-03 4.556985944509506226e-02 -3.958038985729217529e-02 -1.697310805320739746e-02 -4.493913426995277405e-02 5.392913892865180969e-02 -2.183956280350685120e-02 1.407868042588233948e-02 -9.601206518709659576e-03 9.158074110746383667e-02 4.363162443041801453e-02 9.769605472683906555e-03 -1.253282069228589535e-03 -2.468254789710044861e-02 -9.374216198921203613e-02 -6.972749531269073486e-02 2.025746740400791168e-02 -1.054086908698081970e-02 -3.839132562279701233e-02 4.316543787717819214e-02 9.771792590618133545e-02 2.145298942923545837e-02 2.869185060262680054e-03 4.719956591725349426e-02 -4.268852993845939636e-02 5.948647391051054001e-03 2.089911513030529022e-02 -4.905239492654800415e-02 -8.466323837637901306e-03 6.767366547137498856e-03 2.218081615865230560e-02 2.050499245524406433e-02 7.286156993359327316e-03 3.277841582894325256e-02 1.632417179644107819e-02 -7.069396320730447769e-03 6.711133290082216263e-03 5.170709919184446335e-03 4.718553740531206131e-03 -3.003363125026226044e-02 -1.319271419197320938e-02 -5.162438377737998962e-02 -4.400260746479034424e-02 -5.436009913682937622e-02 -1.873895712196826935e-02 7.802812848240137100e-03 -3.083006292581558228e-02 1.000851858407258987e-02 -2.442201785743236542e-02 7.070863991975784302e-02 1.836577989161014557e-02 3.188194334506988525e-02 1.864670403301715851e-02 -4.724085703492164612e-02 -1.070650480687618256e-02 2.644837647676467896e-02 -1.659250631928443909e-02 -2.359699225053191185e-03 -3.062588348984718323e-02 -3.327211737632751465e-02 3.504599258303642273e-02 -8.126355707645416260e-02 -2.423466648906469345e-03 -5.035099387168884277e-02 -8.266852796077728271e-02 9.679963812232017517e-03 -1.483214553445577621e-02 4.409498721361160278e-02
-2.410790696740150452e-02 -1.569488085806369781e-02 -2.892819605767726898e-02 -4.838879406452178955e-02 6.148716062307357788e-02 -1.164298504590988159e-02 -2.580932155251502991e-02 -1.395529368892312050e-03 4.538378119468688965e-02 -7.889936864376068115e-02 5.107360333204269409e-02 2.875647507607936859e-02 2.983082272112369537e-02 3.623655438423156738e-02 -4.920752719044685364e-02 -4.440140910446643829e-03 -3.754409030079841614e-02 3.496286645531654358e-02 8.781010285019874573e-03 -7.174921035766601562e-02 -1.495568361133337021e-02 5.316284671425819397e-02 -2.922819927334785461e-02 4.397401213645935059e-02 -6.606325507164001465e-02 6.477362476289272308e-03 -7.005151361227035522e-02 8.048476278781890869e-02 -5.016326531767845154e-02 -6.280824309214949608e-04 -1.728481240570545197e-02 -3.691655769944190979e-02 -1.075105294585227966e-01 3.261179104447364807e-02 -9.596230462193489075e-03 3.674000874161720276e-02 2.409201301634311676e-02 9.356032125651836395e-03 6.779575347900390625e-02 6.048435345292091370e-02 -4.588894918560981750e-02 -6.286931037902832031e-02 7.053341716527938843e-02 4.856105148792266846e-02 -5.052133463323116302e-03 -4.443919658660888672e-02 -3.980982117354869843e-03 -5.686045065522193909e-02 4.926436021924018860e-02 4.131670668721199036e-02 3.688389435410499573e-02 7.717011123895645142e-02 -4.518327116966247559e-02 -1.558666769415140152e-02 3.143513947725296021e-02 -1.398586947470903397e-02 -2.926439233124256134e-02 6.165612861514091492e-02 -8.687753975391387939e-02 -1.187498867511749268e-02 -4.589626938104629517e-02 -3.917986154556274414e-02 -9.317304939031600952e-02 -6.946427375078201294e-02 -7.002754509449005127e-02 -5.965250730514526367e-02 3.172716870903968811e-02 4.586847033351659775e-03 2.594979666173458099e-02 5.511276051402091980e-02 5.012479797005653381e-02 -8.036866039037704468e-02 4.876824468374252319e-02 2.372693829238414764e-02 6.575054675340652466e-02 4.552999511361122131e-02 -3.964291512966156006e-02 3.429982066154479980e-02 1.628810167312622070e-02 2.702447213232517242e-02 -1.241960912011563778e-03 -1.780512556433677673e-02 -6.739980727434158325e-02 5.578713491559028625e-02 3.197844373062252998e-03 1.958442106842994690e-02 -4.663412272930145264e-02 -8.188949897885322571e-03 3.647104895208030939e-04 -8.121447265148162842e-02 -2.418140508234500885e-02 1.352424640208482742e-02 6.040828675031661987e-02 -6.864176690578460693e-02 -2.198710292577743530e-02 3.563344106078147888e-02 -4.995689168572425842e-02 7.180091738700866699e-02 3.926856070756912231e-02 -1.869361102581024170e-02 -4.178987815976142883e-02 1.926180720329284668e-02 8.666345477104187012e-02 -8.785360842011868954e-04 5.910737439990043640e-02 1.698308810591697693e-02 1.705527491867542267e-02 -1.400263048708438873e-02 1.640472188591957092e-02 2.772243507206439972e-02 6.983683258295059204e-02 -7.283739745616912842e-02 3.150297328829765320e-02 1.454560179263353348e-02 -2.814343012869358063e-02 -1.475258916616439819e-02 6.286826916038990021e-03 -5.374804139137268066e-02 2.632820419967174530e-02 -3.845245763659477234e-02 -6.036173552274703979e-02 -2.906685136258602142e-02 5.602876842021942139e-02 7.806416135281324387e-03 -4.810740239918231964e-03 1.416221540421247482e-02 -4.613066557794809341e-03 2.166679594665765762e-03
-3.966864943504333496e-02 1.610430888831615448e-03 -7.043794612400233746e-04 1.944299228489398956e-02 2.250296063721179962e-02 1.470470707863569260e-02 4.911409225314855576e-03 -1.060080993920564651e-02 -4.083853960037231445e-02 -5.127742420881986618e-03 3.321605175733566284e-02 -1.997034251689910889e-02 5.089534912258386612e-03 1.306486432440578938e-03 -1.235712412744760513e-02 -3.117159754037857056e-02 -2.775712311267852783e-02 -2.862069196999073029e-02 -1.151368487626314163e-03 -9.271281771361827850e-03 -2.294473536312580109e-02 1.394357066601514816e-03 -5.165686458349227905e-02 -3.398253396153450012e-02 -1.366282720118761063e-02 -6.217955797910690308e-02 3.520956262946128845e-02 -7.825001142919063568e-03 -4.456677660346031189e-02 -1.076365355402231216e-02 -2.299248427152633667e-02 3.144429251551628113e-02 5.925298202782869339e-03 1.958438754081726074e-02 6.237455527298152447e-04 4.821790382266044617e-02 1.227567438036203384e-02 -1.830884627997875214e-02 -8.183405734598636627e-03 5.975288804620504379e-03 2.737586759030818939e-02 4.924495518207550049e-02 -1.838423870503902435e-02 1.319472357863560319e-04 -2.054811641573905945e-02 2.392996102571487427e-02 3.430283104535192251e-04 1.171572692692279816e-02 7.301561534404754639e-03 9.905116166919469833e-04 -1.132394187152385712e-02 3.012390062212944031e-02 -2.216979116201400757e-02 1.273745391517877579e-02 3.593551740050315857e-02 -1.271826913580298424e-04 6.781024485826492310e-02 -3.894018381834030151e-02 5.698614288121461868e-03 -1.819472946226596832e-02 -5.529795959591865540e-02 -1.621640473604202271e-02 2.953823423013091087e-03 6.849550642073154449e-03 -3.287717700004577637e-02 5.696978792548179626e-02 2.094210498034954071e-02 3.696050494909286499e-03 6.152205541729927063e-02 -4.458189010620117188e-03 2.259732596576213837e-02 4.000394418835639954e-02 7.552152033895254135e-03 -3.841357305645942688e-02 -2.354168705642223358e-02 -2.517956309020519257e-02 1.443082280457019806e-02 9.542067535221576691e-03 -1.946384459733963013e-02 1.033586077392101288e-02 5.541897565126419067e-02 1.004220545291900635e-02 -2.578227780759334564e-03 -2.358364313840866089e-02 3.353049978613853455e-02 -1.228505629114806652e-03 1.474743336439132690e-02 3.696542978286743164e-02 6.096740253269672394e-03 -2.883328869938850403e-02 -3.515904769301414490e-02 -2.331589721143245697e-02 -2.149944938719272614e-02 -1.078360248357057571e-02 -2.426815405488014221e-02 2.847437933087348938e-02 -1.093883533030748367e-02 -4.994766786694526672e-03 1.348777022212743759e-02 -8.828276768326759338e-03 5.674283020198345184e-03 4.477511346340179443e-02 3.077237308025360107e-02 -1.389327808283269405e-03 -5.350786074995994568e-02 1.374713703989982605e-02 -4.664698988199234009e-02 4.165859892964363098e-02 -4.506756365299224854e-02 1.681166514754295349e-02 4.628266207873821259e-03 -7.478531450033187866e-03 -2.315285615622997284e-02 5.244280397891998291e-02 -5.906424019485712051e-03 -1.707813516259193420e-02 -2.855266258120536804e-02 8.298759348690509796e-03 -9.695278480648994446e-03 3.270676359534263611e-02 -1.078092027455568314e-02 -3.011571988463401794e-02 6.596171110868453979e-02 -1.667716912925243378e-02 -9.270631708204746246e-03 6.149702705442905426e-03 1.465813070535659790e-02 3.366428986191749573e-02
-2.171861566603183746e-02 -9.318123012781143188e-02 1.125541981309652328e-02 1.702135428786277771e-02 5.424288287758827209e-02 4.463311284780502319e-02 -6.275565829128026962e-03 -2.724699303507804871e-02 -3.051821549888700247e-04 -1.007735077291727066e-02 6.641758233308792114e-02 1.020572893321514130e-02 -9.798546321690082550e-03 1.301255077123641968e-02 -4.114105552434921265e-02 -2.906924113631248474e-02 -2.914098149631172419e-04 2.013085223734378815e-02 -1.860653050243854523e-02 -4.040071740746498108e-02 4.641067609190940857e-02 -5.175387859344482422e-02 -2.849942771717905998e-03 5.753714125603437424e-03 1.834236830472946167e-02 2.270507626235485077e-02 2.398239076137542725e-02 -7.166639715433120728e-02 1.341418549418449402e-02 8.294267579913139343e-03 2.915392816066741943e-02 5.065688118338584900e-02 -7.781431078910827637e-03 -8.504427224397659302e-02 3.516779979690909386e-03 -4.082508757710456848e-02 -5.465655121952295303e-03 2.880675951018929482e-03 -2.024942822754383087e-02 4.298492148518562317e-02 -5.280357971787452698e-02 -1.442407723516225815e-03 -4.500059783458709717e-02 5.251461640000343323e-02 -6.674876064062118530e-02 1.831938698887825012e-02 3.559288010001182556e-02 -1.479403022676706314e-02 -2.391465008258819580e-02 -2.726155146956443787e-02 2.821438759565353394e-02 -7.563939318060874939e-03 9.137859567999839783e-03 2.382022794336080551e-03 -3.055476397275924683e-02 -5.908387526869773865e-02 9.396921098232269287e-02 -2.738199254963546991e-04 7.712614536285400391e-02 -1.956260763108730316e-02 -7.152531296014785767e-03 -2.136515267193317413e-02 2.273269183933734894e-02 1.907311961986124516e-03 7.226425409317016602e-02 5.070483777672052383e-03 4.805090650916099548e-02 -2.268937975168228149e-02 2.479910152032971382e-03 -5.227980017662048340e-02 -4.177922010421752930e-02 2.084607072174549103e-02 -1.584630832076072693e-02 8.352707326412200928e-02 -4.822605478693731129e-05 8.143465383909642696e-04 5.473590642213821411e-02 1.590715162456035614e-02 1.256529428064823151e-02 -2.178589068353176117e-02 -1.021160110831260681e-01 -3.928735852241516113e-02 1.817927323281764984e-02 -1.244870945811271667e-03 3.856563568115234375e-02 -2.186188474297523499e-02 7.348711043596267700e-02 -9.672737866640090942e-02 1.600714959204196930e-02 8.985608816146850586e-02 -6.039791554212570190e-02 6.974366307258605957e-02 1.452549081295728683e-02 -3.656372055411338806e-02 -8.653445169329643250e-03 2.110023237764835358e-02 8.785643614828586578e-03 -7.420101761817932129e-02 1.089435815811157227e-02 -4.318137466907501221e-02 -2.588006295263767242e-02 -4.473683424293994904e-03 3.314083907753229141e-03 -2.531355433166027069e-02 6.620204076170921326e-03 -3.390441462397575378e-02 -6.056713312864303589e-02 -1.741190627217292786e-02 -5.129639804363250732e-02 -4.430003091692924500e-02 3.696221485733985901e-02 3.296228870749473572e-02 3.500501811504364014e-02 1.023460328578948975e-01 -7.708092220127582550e-03 -8.003660291433334351e-02 1.730683818459510803e-02 1.975764334201812744e-02 -2.231335081160068512e-02 7.792111486196517944e-02 -3.896171972155570984e-02 2.907314710319042206e-02 -1.176153682172298431e-02 5.649875849485397339e-02 -2.122449129819869995e-02 -2.323367819190025330e-02 2.909843064844608307e-02 5.354307219386100769e-02
4.608013853430747986e-02 -4.108750727027654648e-03 -1.299344730796292424e-04 2.648652158677577972e-02 -5.114208534359931946e-02 -3.528638929128646851e-02 3.030403517186641693e-02 7.292658090591430664e-02 -2.845378778874874115e-02 -6.324297189712524414e-02 -3.964824974536895752e-02 1.810274459421634674e-02 -1.323481369763612747e-02 -6.820831913501024246e-03 -4.986873269081115723e-02 -2.850427851080894470e-02 1.548922900110483170e-02 -1.512825489044189453e-02 2.149290964007377625e-02 -2.593968296423554420e-03 -2.806024253368377686e-02 -1.145766302943229675e-01 -1.110239624977111816e-01 1.677548326551914215e-02 1.615229994058609009e-02 1.004562340676784515e-02 8.454099297523498535e-03 2.773756906390190125e-02 3.878515586256980896e-02 3.366057761013507843e-03 -2.232108265161514282e-02 1.056855265051126480e-02 1.372613199055194855e-02 -2.061906084418296814e-02 -5.098773166537284851e-02 -6.109370384365320206e-03 -5.535304173827171326e-02 -8.887755870819091797e-02 6.128906458616256714e-02 -1.864139735698699951e-02 1.898440904915332794e-02 -9.593127295374870300e-03 -7.160955667495727539e-02 2.394280396401882172e-02 2.393796294927597046e-02 8.756253868341445923e-02 -2.143590711057186127e-02 1.054939553141593933e-01 -3.316991403698921204e-02 -6.636040750890970230e-03 -4.071735218167304993e-02 8.173818886280059814e-02 -5.238251015543937683e-02 -3.246978297829627991e-02 2.768131345510482788e-02 1.106795482337474823e-02 -6.470348685979843140e-02 -4.699706099927425385e-03 4.040582478046417236e-02 1.120843924582004547e-02 1.002578735351562500e-01 6.733693927526473999e-02 -1.583096385002136230e-02 2.532778307795524597e-02 -3.085579164326190948e-02 -3.672407194972038269e-02 2.365768700838088989e-02 -2.601134032011032104e-02 3.932701423764228821e-02 -2.239857241511344910e-02 1.145059894770383835e-02 1.349181216210126877e-02 -3.116354346275329590e-02 1.122285379096865654e-03 -3.309034742414951324e-03 -2.047304622828960419e-02 8.890227228403091431e-02 -9.944854304194450378e-03 3.593018278479576111e-02 -6.692080199718475342e-02 -2.451994456350803375e-02 -3.697936609387397766e-02 4.415778070688247681e-02 -3.380344063043594360e-02 1.953874342143535614e-02 5.926784500479698181e-02 -2.783747203648090363e-02 5.983961746096611023e-02 -5.079592391848564148e-02 -7.459750864654779434e-03 -7.202697545289993286e-02 -3.006862243637442589e-03 -2.202490903437137604e-02 5.010889098048210144e-02 3.722506761550903320e-02 -4.376017302274703979e-02 9.291118383407592773e-02 -6.315179169178009033e-02 -2.783428132534027100e-02 4.169708583503961563e-03 5.654310062527656555e-02 2.050269022583961487e-02 -4.021044820547103882e-02 2.585611119866371155e-02 -4.998859763145446777e-02 -2.731876075267791748e-02 6.146143749356269836e-02 -6.392792332917451859e-03 6.000585481524467468e-02 -7.726435363292694092e-02 -6.281080842018127441e-02 5.827322229743003845e-02 7.125801593065261841e-02 -3.100608475506305695e-02 -1.628089882433414459e-02 3.550381213426589966e-02 2.908183075487613678e-02 -2.299194037914276123e-02 2.167440019547939301e-02 -8.579907007515430450e-04 5.899516865611076355e-02 3.209808841347694397e-02 -1.534568518400192261e-02 -3.592722490429878235e-02 4.463619366288185120e-02 6.733844522386789322e-03 3.174753859639167786e-02 5.319018661975860596e-02
