3.084727190434932709e-02 6.375608593225479126e-02 -1.590165309607982635e-02 1.449599862098693848e-03 -1.945928670465946198e-02 -1.649326831102371216e-02 8.389444649219512939e-02 -6.372788548469543457e-02 -4.813275113701820374e-02 1.390503905713558197e-02 4.788990318775177002e-02 -5.446263588964939117e-03 -1.523527130484580994e-02 3.393720090389251709e-02 4.200239200145006180e-03 -6.310484837740659714e-03 -3.512712568044662476e-02 2.572599984705448151e-02 -2.189310453832149506e-02 9.135355241596698761e-03 -6.081781815737485886e-03 4.310530051589012146e-02 1.490267226472496986e-03 5.280164070427417755e-03 1.028779428452253342e-02 -2.994437515735626221e-02 1.814300077967345715e-03 -1.506591401994228363e-02 5.412768106907606125e-03 2.646447718143463135e-02 2.867555432021617889e-02 4.670174047350883484e-02 -3.621928335633128881e-04 -3.140209615230560303e-02 2.882504463195800781e-02 2.220775373280048370e-02 -1.542299892753362656e-02 3.235945105552673340e-02 -2.998603135347366333e-02 -3.364833816885948181e-02 -2.513477578759193420e-02 -7.689983583986759186e-03 -2.531251125037670135e-02 4.292513057589530945e-02 3.792857006192207336e-02 -3.846421837806701660e-02 2.371319569647312164e-02 1.664219796657562256e-02 5.280106514692306519e-02 -4.709915816783905029e-02 -5.566942505538463593e-03 -5.554880946874618530e-02 -1.630959846079349518e-02 4.759243223816156387e-03 -2.566010691225528717e-02 -3.622961789369583130e-02 -4.703130200505256653e-02 -4.232229292392730713e-02 -1.297592185437679291e-02 9.314938448369503021e-03 -1.626238599419593811e-02 3.717273101210594177e-02 3.110006451606750488e-02 -6.722989492118358612e-03 -2.352962642908096313e-02 -2.441868372261524200e-02 1.583204045891761780e-02 -1.858151750639081001e-03 8.295696228742599487e-03 -1.698157377541065216e-02 -8.403263986110687256e-03 2.329053543508052826e-02 5.605502985417842865e-03 -7.118500024080276489e-02 -4.280076827853918076e-03 -3.715578466653823853e-02 -1.921559683978557587e-02 5.039659142494201660e-02 -1.280907727777957916e-02 -5.873467400670051575e-02 -1.844378188252449036e-02 -1.950476132333278656e-02 -1.831746660172939301e-03 -5.857690423727035522e-02 -3.820839151740074158e-02 -4.612947255373001099e-02 -8.006696589291095734e-03 5.082297138869762421e-03 4.509294405579566956e-03 5.118961259722709656e-02 1.354270800948143005e-02 -4.132040962576866150e-02 -1.752156205475330353e-02 2.430022694170475006e-02 9.091125801205635071e-03 2.341510169208049774e-02 -1.054021716117858887e-02 1.748048141598701477e-02 1.916418597102165222e-02 -2.634834498167037964e-02 -2.423034980893135071e-02 -2.633960917592048645e-03 5.991276120766997337e-04 1.141739916056394577e-02 -2.759088017046451569e-02 3.944262117147445679e-02 3.161961212754249573e-02 1.218308228999376297e-02 -1.780576072633266449e-02 -1.564875803887844086e-02 -4.023100435733795166e-02 -3.855216503143310547e-02 -4.166229814291000366e-02 1.521669328212738037e-02 -6.282375007867813110e-02 5.122654512524604797e-02 -3.455396741628646851e-02 2.569571696221828461e-02 1.134820003062486649e-02 -2.800238505005836487e-02 -3.502993285655975342e-02 -1.655947417020797729e-02 -2.434702031314373016e-02 -1.167024392634630203e-02 6.162963341921567917e-03 -6.003057584166526794e-02 1.645514369010925293e-02 -4.181757941842079163e-02
2.329875482246279716e-03 4.750833660364151001e-02 3.602546826004981995e-02 -1.390538830310106277e-02 -2.521824836730957031e-02 -3.351456671953201294e-02 -7.930032908916473389e-03 -2.512153796851634979e-02 -3.777707740664482117e-02 -2.098730951547622681e-02 4.637257196009159088e-03 7.783660665154457092e-03 1.336126495152711868e-02 3.784992499276995659e-03 -2.088890969753265381e-02 7.465486414730548859e-03 2.042034640908241272e-02 1.116112060844898224e-02 3.100847639143466949e-02 -4.150893364567309618e-04 -9.531160816550254822e-03 -1.335702370852231979e-02 6.254296749830245972e-02 -2.454765513539314270e-02 3.086562268435955048e-02 -1.529547106474637985e-02 8.306360803544521332e-03 -1.309935376048088074e-02 1.534509472548961639e-02 3.813060000538825989e-02 2.447306364774703979e-02 3.353913547471165657e-03 -2.106153778731822968e-02 1.374861318618059158e-02 8.026343770325183868e-03 7.971441373229026794e-03 2.059778198599815369e-02 1.054937578737735748e-02 3.358792513608932495e-02 2.740516699850559235e-02 2.058513835072517395e-02 3.633624315261840820e-02 4.592493642121553421e-03 -6.542414426803588867e-02 -1.056280685588717461e-03 8.899124339222908020e-03 -2.759194746613502502e-02 -3.338844329118728638e-02 -1.597658963873982430e-03 1.483169943094253540e-02 -1.274448540061712265e-02 6.060686428099870682e-03 2.929805964231491089e-02 8.794655092060565948e-03 -1.656524650752544403e-02 -2.297432906925678253e-02 3.614884801208972931e-03 1.451660227030515671e-02 7.308935280889272690e-03 1.372226886451244354e-02 -4.490240011364221573e-03 -2.842667885124683380e-02 -6.733775604516267776e-03 6.092893332242965698e-02 2.187433280050754547e-02 -1.750188966980203986e-04 -1.940819993615150452e-02 -2.572123520076274872e-02 -2.974910847842693329e-02 -1.624090783298015594e-02 3.071722202003002167e-02 -6.236955989152193069e-03 4.442627355456352234e-02 -5.892395041882991791e-03 3.793800249695777893e-02 7.938069850206375122e-02 -1.878183707594871521e-02 1.792392111383378506e-03 -1.897743716835975647e-02 -5.546737927943468094e-03 -7.666972465813159943e-03 2.681803889572620392e-02 3.836422041058540344e-02 -7.910012267529964447e-03 3.216571733355522156e-02 1.986256614327430725e-02 3.750378265976905823e-02 -2.567625604569911957e-02 4.790611937642097473e-02 -1.761381700634956360e-02 -3.891529515385627747e-03 1.793997921049594879e-02 1.244533993303775787e-02 -3.689293563365936279e-02 -1.245046150870621204e-03 -1.348146353848278522e-03 1.137394178658723831e-02 -1.351560838520526886e-02 3.366439417004585266e-02 2.190232649445533752e-02 -1.572873629629611969e-02 -1.140373758971691132e-02 2.251739613711833954e-02 1.216547377407550812e-02 -1.006665639579296112e-02 -2.117822179570794106e-03 -6.032609567046165466e-02 -2.584268897771835327e-02 -2.681568823754787445e-02 3.245651489123702049e-03 2.782314643263816833e-02 7.887069880962371826e-02 2.332216314971446991e-02 -3.536982834339141846e-02 2.718147588893771172e-03 3.578678891062736511e-02 -3.255812823772430420e-02 -5.717990919947624207e-03 -7.110353559255599976e-02 -1.992087345570325851e-03 5.360585171729326248e-03 5.111614707857370377e-03 1.676222123205661774e-02 -1.024715602397918701e-02 7.477493491023778915e-03 8.572813123464584351e-02 1.536673866212368011e-02 9.098756127059459686e-03
-8.972035720944404602e-03 -1.184282079339027405e-02 2.458065561950206757e-02 1.774222403764724731e-02 -3.990838304162025452e-02 4.851422272622585297e-03 -4.282608628273010254e-02 -3.983772173523902893e-02 2.710504271090030670e-02 -1.652371697127819061e-02 2.254011668264865875e-02 2.893955074250698090e-02 5.117210745811462402e-02 -1.838577724993228912e-02 3.117248229682445526e-02 1.656332053244113922e-02 -1.086779683828353882e-02 -4.639105405658483505e-03 -2.029874734580516815e-02 2.488362416625022888e-02 -2.765553817152976990e-02 -2.557313418947160244e-04 1.573080569505691528e-02 -1.314306631684303284e-02 -9.316585958003997803e-03 7.158379536122083664e-03 3.545052930712699890e-02 -2.206142060458660126e-02 -1.676085963845252991e-02 -1.526663359254598618e-02 3.793380223214626312e-03 1.449699047952890396e-03 3.668735176324844360e-02 -1.393922604620456696e-02 -3.841412812471389771e-02 3.925786167383193970e-02 1.536720525473356247e-02 2.900113165378570557e-02 5.908656865358352661e-03 -2.067865571007132530e-03 1.348439045250415802e-02 1.612079702317714691e-02 -2.625321596860885620e-02 -1.352204568684101105e-02 2.574845775961875916e-02 -2.866210974752902985e-02 -3.599340096116065979e-02 -3.310272842645645142e-02 9.839521721005439758e-03 -1.242786925286054611e-02 1.500902604311704636e-02 -1.127422973513603210e-02 -3.589693456888198853e-02 -2.588872797787189484e-02 -9.638947434723377228e-03 2.597673237323760986e-02 2.303394861519336700e-02 -3.384920209646224976e-02 -1.131527498364448547e-02 -3.423986025154590607e-03 -3.704940155148506165e-02 -3.093904629349708557e-02 -3.392194164916872978e-03 -1.634808955714106560e-03 -1.413455698639154434e-02 4.407209344208240509e-03 -1.228627096861600876e-02 2.318574674427509308e-02 -5.445996765047311783e-03 -1.941334828734397888e-02 1.087303273379802704e-02 1.195717341033741832e-04 -3.547117486596107483e-02 2.333744429051876068e-02 -2.846975577995181084e-03 -6.857782136648893356e-04 2.569854259490966797e-03 -5.257346667349338531e-03 3.558434778824448586e-03 -1.609601429663598537e-03 3.131406754255294800e-02 -2.304997481405735016e-02 -1.785370707511901855e-02 3.426094190217554569e-04 -3.116459026932716370e-02 3.531728684902191162e-02 -9.227880276739597321e-03 -1.089342590421438217e-02 -2.373672835528850555e-02 7.484481483697891235e-02 1.616695895791053772e-02 2.478768862783908844e-02 -3.364490717649459839e-02 -1.239339914172887802e-02 -2.235347032546997070e-02 -1.054992154240608215e-02 4.211605712771415710e-02 -4.680034238845109940e-03 -3.319532796740531921e-02 -5.601640325039625168e-03 -7.053741253912448883e-03 -7.955061271786689758e-03 -9.756109677255153656e-03 -1.793140731751918793e-02 -1.035868469625711441e-02 1.365980505943298340e-02 -1.603260077536106110e-02 -3.261882066726684570e-02 1.974731124937534332e-02 -8.360400795936584473e-03 1.915623806416988373e-02 -1.401327364146709442e-02 -1.512471772730350494e-02 8.505071513354778290e-03 3.575744852423667908e-02 -3.746793419122695923e-02 1.551414653658866882e-02 -3.956094756722450256e-02 1.859685778617858887e-02 -2.772111073136329651e-02 -2.750176750123500824e-02 -1.387082226574420929e-02 -1.428578700870275497e-02 9.562896448187530041e-04 -1.345684286206960678e-02 2.111678570508956909e-02 -3.966120537370443344e-03 -1.122611854225397110e-02
3.634074702858924866e-02 1.761301606893539429e-02 -4.953085258603096008e-02 -4.345095530152320862e-02 4.526057746261358261e-03 1.473852805793285370e-02 1.540807820856571198e-02 -1.294635352678596973e-03 -1.559344399720430374e-02 5.911383032798767090e-02 -5.758894607424736023e-02 -2.992429398000240326e-02 -2.563899382948875427e-02 -1.180864218622446060e-02 2.300314605236053467e-02 -1.227568648755550385e-02 -7.728257216513156891e-03 1.886798627674579620e-02 4.022983834147453308e-03 -3.555612266063690186e-02 3.464054688811302185e-02 6.698222458362579346e-02 2.787710353732109070e-02 3.946852684020996094e-02 1.324727572500705719e-02 3.061601705849170685e-02 8.189157396554946899e-02 1.328995637595653534e-02 1.008869707584381104e-02 -2.265014126896858215e-02 -4.359680227935314178e-03 2.003348059952259064e-02 -4.686446487903594971e-02 3.885405883193016052e-02 -3.441501467023044825e-04 -2.644954621791839600e-02 7.547616958618164062e-03 1.210309751331806183e-02 -5.345962708815932274e-04 -4.523949325084686279e-02 2.291202545166015625e-03 5.358196794986724854e-04 1.157832425087690353e-02 -6.425344198942184448e-02 -4.465210065245628357e-02 -8.927240967750549316e-03 -1.449427939951419830e-02 -2.636863850057125092e-02 -1.291597262024879456e-02 4.753224551677703857e-03 4.421357996761798859e-03 -5.306880921125411987e-03 -1.451418641954660416e-02 3.933836147189140320e-02 -6.808225531131029129e-03 1.851495914161205292e-02 4.553044214844703674e-03 -2.424718625843524933e-02 6.148392334580421448e-03 -1.678442209959030151e-02 -6.108743604272603989e-03 3.004945814609527588e-02 -3.262678161263465881e-02 -1.300641614943742752e-02 -3.782633319497108459e-02 3.591667860746383667e-02 -1.439195871353149414e-02 3.904101671651005745e-03 -6.142588797956705093e-03 6.842087954282760620e-02 2.994181215763092041e-02 3.169189731124788523e-04 5.590157583355903625e-03 -1.879888400435447693e-02 -7.028862088918685913e-02 -4.460703209042549133e-02 2.422374673187732697e-02 3.780146653298288584e-05 -2.633625641465187073e-02 2.531549520790576935e-02 6.845272332429885864e-02 2.305016852915287018e-02 -4.627183545380830765e-03 3.218224272131919861e-02 -3.601999580860137939e-02 1.270953100174665451e-02 1.887245103716850281e-02 -3.874125704169273376e-02 -5.836832337081432343e-03 3.026907332241535187e-03 4.902116023004055023e-03 1.478182338178157806e-02 4.006468690931797028e-03 1.724777556955814362e-02 9.892251342535018921e-03 1.986834220588207245e-03 4.604254383593797684e-03 -1.733591780066490173e-03 6.521359086036682129e-03 -1.979688182473182678e-02 -1.152071263641119003e-02 -3.632302582263946533e-02 -2.481601200997829437e-02 -2.953485958278179169e-02 -1.849101856350898743e-02 1.074331812560558319e-02 -2.862132340669631958e-02 3.256643423810601234e-03 -1.242698915302753448e-02 4.252109676599502563e-02 9.234441444277763367e-03 2.128973416984081268e-02 1.145172677934169769e-02 -3.668807446956634521e-02 -2.471840940415859222e-03 1.233046315610408783e-02 -1.664058491587638855e-02 -7.719988934695720673e-03 -2.172279357910156250e-02 -3.308858349919319153e-02 1.822531782090663910e-02 -6.240250542759895325e-02 2.599396742880344391e-03 -3.367458283901214600e-02 -5.467254668474197388e-02 1.461219601333141327e-02 -7.765012793242931366e-03 3.065804205834865570e-02
-1.754042319953441620e-02 -1.232537813484668732e-02 -2.106267213821411133e-02 -4.013026505708694458e-02 4.707999899983406067e-02 -2.797348191961646080e-03 -2.218311652541160583e-02 2.615938137751072645e-04 2.829145267605781555e-02 -6.359076499938964844e-02 3.866396099328994751e-02 1.747007109224796295e-02 1.422000396996736526e-02 2.740000374615192413e-02 -4.084599763154983521e-02 -8.343578316271305084e-03 -3.764316439628601074e-02 2.681661956012248993e-02 4.051828756928443909e-03 -6.229390949010848999e-02 -9.882049635052680969e-03 3.536418825387954712e-02 -2.435450255870819092e-02 3.098991326987743378e-02 -4.972711578011512756e-02 1.083396375179290771e-02 -3.769470006227493286e-02 6.491828709840774536e-02 -3.632257133722305298e-02 -4.786205012351274490e-03 -1.329877972602844238e-02 -2.960134670138359070e-02 -9.057917445898056030e-02 2.185934782028198242e-02 -1.205417234450578690e-02 2.837094850838184357e-02 2.234375849366188049e-02 4.270656500011682510e-03 4.716791957616806030e-02 4.225223138928413391e-02 -4.418077319860458374e-02 -5.050471797585487366e-02 4.602479934692382812e-02 3.616990521550178528e-02 -1.222845446318387985e-02 -3.250125050544738770e-02 -9.790439158678054810e-03 -3.498423472046852112e-02 3.350119292736053467e-02 3.702148422598838806e-02 2.835845202207565308e-02 6.434966623783111572e-02 -2.627411298453807831e-02 -6.878409069031476974e-03 1.933079026639461517e-02 -1.075046416372060776e-02 -2.270962670445442200e-02 4.790724441409111023e-02 -6.105349585413932800e-02 -1.735935918986797333e-02 -3.550932556390762329e-02 -3.659508004784584045e-02 -7.021953165531158447e-02 -4.219010472297668457e-02 -5.234430730342864990e-02 -3.362082690000534058e-02 1.936615072190761566e-02 3.214134485460817814e-04 1.374188531190156937e-02 3.819625824689865112e-02 3.863441571593284607e-02 -6.551419943571090698e-02 3.903308138251304626e-02 2.514237724244594574e-02 4.614966362714767456e-02 3.472880274057388306e-02 -1.845797337591648102e-02 2.249299734830856323e-02 1.093863882124423981e-02 2.486461028456687927e-02 -4.290182143449783325e-03 -1.906537078320980072e-02 -4.421109333634376526e-02 4.996659606695175171e-02 1.032223273068666458e-02 1.626445911824703217e-02 -3.075387142598628998e-02 -1.398033089935779572e-02 1.710677403025329113e-03 -6.895465403795242310e-02 -2.029699459671974182e-02 1.684096083045005798e-02 3.879878669977188110e-02 -5.103504657745361328e-02 -2.334784530103206635e-02 2.945485152304172516e-02 -3.495792672038078308e-02 5.507125705480575562e-02 3.464716672897338867e-02 -1.323640253394842148e-02 -3.715645894408226013e-02 1.827797107398509979e-02 6.749071180820465088e-02 -7.131766993552446365e-03 3.719756379723548889e-02 6.768112070858478546e-03 1.242277212440967560e-02 -2.147547155618667603e-02 1.179897319525480270e-02 2.199081517755985260e-02 5.539998039603233337e-02 -3.996222466230392456e-02 3.901363536715507507e-02 1.631672307848930359e-02 -1.884482428431510925e-02 -1.277647633105516434e-02 5.926239769905805588e-03 -4.459562897682189941e-02 2.442651614546775818e-02 -3.025997243821620941e-02 -4.189770296216011047e-02 -1.985237561166286469e-02 3.645858168601989746e-02 -4.581537505146116018e-04 -2.398640848696231842e-03 1.774742081761360168e-02 -5.594387184828519821e-03 1.137717999517917633e-02
-2.426157891750335693e-02 -3.601036733016371727e-03 5.898425821214914322e-03 1.377144176512956619e-02 1.708168350160121918e-02 1.396740600466728210e-02 6.616534199565649033e-03 -1.968792267143726349e-02 -2.863581478595733643e-02 -1.332967355847358704e-02 2.029949985444545746e-02 -1.560658402740955353e-02 7.042350247502326965e-03 3.470012685284018517e-03 -4.943908192217350006e-03 -3.050014004111289978e-02 -2.791385725140571594e-02 -1.951156370341777802e-02 3.211059840396046638e-03 -6.953176110982894897e-03 -1.377224549651145935e-02 6.581262685358524323e-03 -4.510789364576339722e-02 -2.097925916314125061e-02 -1.118012890219688416e-02 -5.228185653686523438e-02 3.945043310523033142e-02 -5.282006692141294479e-03 -3.790307790040969849e-02 -1.149961818009614944e-02 -1.567205414175987244e-02 3.429015725851058960e-02 -2.553032943978905678e-03 1.309969369322061539e-02 -1.829774933867156506e-03 3.202631697058677673e-02 4.192116204649209976e-03 -2.008139528334140778e-02 4.769013263285160065e-03 1.325361151248216629e-02 1.732263714075088501e-02 3.442258760333061218e-02 -1.581369899213314056e-02 -4.117074888199567795e-03 -1.708507351577281952e-02 2.757839299738407135e-02 3.392023965716362000e-03 3.852884983643889427e-03 1.274622417986392975e-02 -4.765178542584180832e-03 -1.270209997892379761e-02 2.361417189240455627e-02 -2.332119643688201904e-02 9.771452285349369049e-03 1.852704398334026337e-02 3.926388453692197800e-04 5.863977596163749695e-02 -2.995630539953708649e-02 4.888865165412425995e-03 -7.563920225948095322e-03 -4.555125907063484192e-02 -1.246188953518867493e-02 -1.647286582738161087e-03 1.746945083141326904e-02 -3.116939775645732880e-02 4.063558205962181091e-02 2.198300510644912720e-02 -5.519063677638769150e-03 5.263555049896240234e-02 -1.218751259148120880e-02 1.684515178203582764e-02 2.206253819167613983e-02 8.804643526673316956e-03 -1.892311312258243561e-02 -8.867849595844745636e-03 -2.074265293776988983e-02 1.082484237849712372e-02 1.401667017489671707e-02 -2.530979178845882416e-02 7.599601522088050842e-03 4.791335016489028931e-02 3.785338252782821655e-03 -2.378964563831686974e-03 -2.325547486543655396e-02 2.686122804880142212e-02 -9.060683078132569790e-04 1.438737288117408752e-02 2.724622748792171478e-02 6.007605232298374176e-03 -1.563899405300617218e-02 -2.936302870512008667e-02 -1.763827539980411530e-02 -1.577467098832130432e-02 -7.208459544926881790e-03 -2.323402650654315948e-02 3.767981380224227905e-02 -5.434349179267883301e-03 -4.661561921238899231e-03 1.175057515501976013e-02 -1.114293280988931656e-02 1.386120333336293697e-03 2.247571945190429688e-02 2.127685584127902985e-02 -2.761185867711901665e-03 -3.932822123169898987e-02 2.098741568624973297e-02 -4.394217208027839661e-02 3.226472809910774231e-02 -2.771393209695816040e-02 7.117324043065309525e-03 1.264031138271093369e-02 -1.626775017939507961e-03 -1.898014359176158905e-02 4.258367791771888733e-02 -1.732765347696840763e-03 -5.164086353033781052e-03 -2.064765803515911102e-02 5.065740551799535751e-03 -1.589770801365375519e-02 2.366853319108486176e-02 -1.158326864242553711e-02 -3.052208572626113892e-02 5.418829247355461121e-02 -1.964531838893890381e-02 -1.294236164540052414e-02 1.189622096717357635e-03 1.088330987840890884e-02 2.192164957523345947e-02
-6.430007051676511765e-03 -5.836843326687812805e-02 1.126675307750701904e-02 1.106055267155170441e-02 3.354122117161750793e-02 3.307083249092102051e-02 -7.989304140210151672e-03 -2.029966004192829132e-02 -3.083024173974990845e-03 -7.892956957221031189e-03 4.788420721888542175e-02 1.203414611518383026e-02 -4.656542092561721802e-03 1.669197157025337219e-02 -3.799599036574363708e-02 -1.660963147878646851e-02 -4.639665130525827408e-03 1.797073334455490112e-02 -1.524565648287534714e-02 -3.192912042140960693e-02 2.389583177864551544e-02 -3.322914615273475647e-02 -4.415746079757809639e-04 2.110530622303485870e-03 1.382204983383417130e-02 2.067998237907886505e-02 1.520571298897266388e-02 -5.188519135117530823e-02 4.669736605137586594e-03 6.272140890359878540e-03 2.391932345926761627e-02 3.388264775276184082e-02 -9.745552204549312592e-03 -5.696475878357887268e-02 1.278000301681458950e-03 -1.789131015539169312e-02 -1.754023600369691849e-03 4.057372570969164371e-04 -4.460739437490701675e-03 3.019863367080688477e-02 -3.006324730813503265e-02 4.060125211253762245e-04 -3.454476967453956604e-02 3.395625948905944824e-02 -4.139687865972518921e-02 1.467342954128980637e-02 1.620619557797908783e-02 -1.070480886846780777e-02 -1.257762406021356583e-02 -2.333158440887928009e-02 1.473627891391515732e-02 2.180578419938683510e-03 2.350987342651933432e-04 -1.339846989139914513e-03 -2.059175632894039154e-02 -4.631260037422180176e-02 5.752045661211013794e-02 -4.141349345445632935e-03 4.781024530529975891e-02 -1.029883325099945068e-02 -3.536048345267772675e-03 -1.558299176394939423e-02 8.121919818222522736e-03 2.377985278144478798e-03 4.311147332191467285e-02 -1.280591008253395557e-03 3.520894795656204224e-02 -2.072939276695251465e-02 2.880766754969954491e-03 -3.200901672244071960e-02 -2.600151300430297852e-02 1.662620902061462402e-02 -9.639475494623184204e-03 5.660096555948257446e-02 8.309318218380212784e-04 -1.494995318353176117e-03 4.447241872549057007e-02 8.715979754924774170e-03 1.015288848429918289e-02 -1.021404657512903214e-02 -7.539403438568115234e-02 -2.573343366384506226e-02 1.341371051967144012e-02 -4.322437103837728500e-03 2.727793157100677490e-02 -1.342094130814075470e-02 4.975387081503868103e-02 -7.119548320770263672e-02 6.019182503223419189e-03 6.662237644195556641e-02 -4.223775491118431091e-02 5.488573014736175537e-02 7.407570723444223404e-03 -2.525342255830764771e-02 -9.161085821688175201e-03 1.926976069808006287e-02 1.217466127127408981e-02 -5.423330888152122498e-02 7.324202917516231537e-03 -4.069472104310989380e-02 -1.952553540468215942e-02 -7.438706699758768082e-03 7.159994915127754211e-03 -1.726363599300384521e-02 8.761319331824779510e-03 -1.852724142372608185e-02 -4.417664185166358948e-02 -1.382056251168251038e-02 -2.631124667823314667e-02 -4.020175337791442871e-02 2.562205865979194641e-02 2.944154478609561920e-02 2.336992882192134857e-02 6.866081804037094116e-02 -9.979791939258575439e-03 -5.591927096247673035e-02 4.848406650125980377e-03 9.302066639065742493e-03 -1.798485964536666870e-02 4.538077116012573242e-02 -2.744999341666698456e-02 2.115748263895511627e-02 1.470117247663438320e-03 3.792868927121162415e-02 -1.942994818091392517e-02 -7.680942770093679428e-03 2.633133344352245331e-02 3.858724236488342285e-02
3.376778960227966309e-02 -1.759618637152016163e-03 2.799590351060032845e-03 2.154108509421348572e-02 -3.242014348506927490e-02 -3.097449056804180145e-02 2.296456694602966309e-02 5.388202518224716187e-02 -2.321824803948402405e-02 -5.494499951601028442e-02 -3.485218808054924011e-02 2.128151245415210724e-02 -9.982568211853504181e-03 -1.142850704491138458e-02 -4.643481224775314331e-02 -2.465032413601875305e-02 1.676485128700733185e-02 -1.036724820733070374e-02 9.993528015911579132e-03 -1.654981262981891632e-02 -1.513149682432413101e-02 -8.285461366176605225e-02 -8.774973452091217041e-02 1.729887910187244415e-02 1.303098257631063461e-02 6.322519388049840927e-03 1.399633195251226425e-02 2.430240623652935028e-02 3.132888674736022949e-02 1.405642600730061531e-03 -1.133739389479160309e-02 8.444218896329402924e-03 1.197872683405876160e-02 -2.521205320954322815e-02 -4.835137724876403809e-02 -7.596001960337162018e-03 -4.024791345000267029e-02 -6.141462549567222595e-02 5.536815896630287170e-02 -1.527063734829425812e-02 1.059192977845668793e-02 -6.572131533175706863e-03 -5.305763334035873413e-02 1.915252394974231720e-02 1.756553910672664642e-02 7.025271654129028320e-02 -1.426586322486400604e-02 7.215873897075653076e-02 -2.318156696856021881e-02 3.872812085319310427e-04 -2.575091645121574402e-02 6.247526407241821289e-02 -3.733726590871810913e-02 -1.560511812567710876e-02 1.579611189663410187e-02 6.081913132220506668e-03 -4.113282635807991028e-02 -7.579360157251358032e-03 3.069566935300827026e-02 -9.951208485290408134e-04 7.014568150043487549e-02 4.796530678868293762e-02 -1.964027807116508484e-02 1.220332551747560501e-02 -2.545798011124134064e-02 -2.875768393278121948e-02 2.506996318697929382e-02 -1.386923901736736298e-02 3.800614550709724426e-02 -1.837409101426601410e-02 1.227729022502899170e-02 7.072615902870893478e-03 -1.983643695712089539e-02 6.753391120582818985e-03 2.753049135208129883e-03 -1.130424998700618744e-02 6.789024174213409424e-02 -2.191924024373292923e-03 2.575945295393466949e-02 -5.311034247279167175e-02 -2.281048521399497986e-02 -3.125030919909477234e-02 3.294984251260757446e-02 -2.930788323283195496e-02 3.164015710353851318e-02 4.485315456986427307e-02 -1.849716715514659882e-02 4.455496370792388916e-02 -3.775981068611145020e-02 -7.544601685367524624e-04 -5.048025399446487427e-02 3.683872986584901810e-03 -8.926144801080226898e-03 4.056774079799652100e-02 2.484492026269435883e-02 -4.118420183658599854e-02 6.178411841392517090e-02 -5.015424266457557678e-02 -1.880410872399806976e-02 -8.102756924927234650e-03 4.517773911356925964e-02 1.594075746834278107e-02 -2.486677467823028564e-02 1.784020476043224335e-02 -4.281155765056610107e-02 -1.465287804603576660e-02 4.094293341040611267e-02 -8.683700114488601685e-03 4.488987848162651062e-02 -5.242598801851272583e-02 -4.687863960862159729e-02 5.406576395034790039e-02 6.609463691711425781e-02 -2.243610471487045288e-02 -1.837673224508762360e-02 3.163179382681846619e-02 1.773638278245925903e-02 -1.769441366195678711e-02 1.550182141363620758e-02 -1.565253012813627720e-03 4.892981797456741333e-02 2.608180418610572815e-02 -5.828272551298141479e-03 -2.795054763555526733e-02 2.843881025910377502e-02 6.314984057098627090e-03 2.285330556333065033e-02 4.567256942391395569e-02
