-6.454292684793472290e-02 8.709857240319252014e-03 -3.018030896782875061e-02 2.421640790998935699e-02 8.269505202770233154e-02 -3.489945828914642334e-02 7.658729446120560169e-04 2.493041194975376129e-02 -2.371827885508537292e-02 3.056142292916774750e-02 5.304411053657531738e-02 -2.462904900312423706e-02 6.777983158826828003e-03 -2.675702562555670738e-04 -2.591964416205883026e-02 5.005808081477880478e-03 -6.401716917753219604e-02 1.230101007968187332e-02 -1.429725252091884613e-02 5.875591933727264404e-02 3.736964240670204163e-02 -2.254768647253513336e-02 -1.576077425852417946e-03 -2.689833007752895355e-02 6.862350553274154663e-02 -8.719544857740402222e-03 -3.877571597695350647e-02 4.600135609507560730e-02 1.229589898139238358e-02 9.988357312977313995e-03 -3.384852781891822815e-02 -1.690375804901123047e-02 3.173785225953906775e-04 3.860564157366752625e-02 -2.714046859182417393e-04 -2.922773174941539764e-02 -5.535117536783218384e-02 2.634410187602043152e-02 6.268861144781112671e-02 -3.328710049390792847e-02 1.036867946386337280e-01 -5.901617929339408875e-02 4.109628871083259583e-02 2.257279306650161743e-02 -8.172072470188140869e-02 -3.621352836489677429e-02 1.130505930632352829e-02 1.497074682265520096e-02 -6.050039455294609070e-02 3.004781343042850494e-02 -1.035429351031780243e-02 2.603207528591156006e-02 2.540213242173194885e-02 1.663592830300331116e-02 3.596214344725012779e-03 2.380577661097049713e-02 -4.558815062046051025e-02 4.647842794656753540e-02 2.852319926023483276e-02 -1.063869819045066833e-01 3.160554915666580200e-02 2.638182044029235840e-02 2.812871336936950684e-02 -7.418647408485412598e-02 8.978933095932006836e-03 -6.448169797658920288e-02 1.067302748560905457e-02 -2.661889884620904922e-03 -4.593439027667045593e-02 -3.541868925094604492e-02 -2.930148318409919739e-02 -1.060567889362573624e-02 -1.831770502030849457e-02 1.764876209199428558e-02 6.890901923179626465e-02 -6.540657579898834229e-02 1.150463055819272995e-02 9.820612519979476929e-02 -9.249874204397201538e-02 -3.317552432417869568e-02 -2.204342558979988098e-02 -3.930710628628730774e-02 7.413757592439651489e-02 -1.340231671929359436e-02 4.142118990421295166e-02 1.705912128090858459e-02 2.670493349432945251e-02 -3.565386286936700344e-04 -3.520970046520233154e-02 -3.129269927740097046e-02 4.516616836190223694e-02 1.077121682465076447e-02 7.672172039747238159e-03 6.819324940443038940e-02 2.669132314622402191e-02 5.542997736483812332e-03 1.136095821857452393e-02 2.361494349315762520e-03 1.095117069780826569e-02 4.397383704781532288e-02 -2.681461162865161896e-03 -2.271432429552078247e-02 -2.481685578823089600e-02 5.351183563470840454e-02 -3.829453140497207642e-03 -4.959336481988430023e-03 -3.986748307943344116e-02 -5.469358712434768677e-02 -3.368166042491793633e-03 -3.964511677622795105e-02 7.034166902303695679e-02 1.362565718591213226e-02 4.116840288043022156e-02 -3.617727383971214294e-02 2.350242249667644501e-02 -3.705706680193543434e-03 1.965291565284132957e-03 4.909148067235946655e-02 -2.548728138208389282e-02 -3.689818084239959717e-02 -3.920328337699174881e-03 -1.559882797300815582e-02 6.349461525678634644e-02 4.667393490672111511e-02 6.771259754896163940e-02 -1.342287007719278336e-02 -3.851206973195075989e-02 4.064112156629562378e-02
-3.265893086791038513e-03 -6.216429639607667923e-03 2.658981271088123322e-02 -5.980579555034637451e-02 -5.994510650634765625e-02 -1.671770121902227402e-03 1.313395611941814423e-02 -1.368032768368721008e-02 7.677502185106277466e-02 1.909565553069114685e-02 -3.208084031939506531e-02 1.934264972805976868e-02 -5.034994333982467651e-03 -3.591778129339218140e-02 9.482662193477153778e-03 2.064826712012290955e-02 2.436517551541328430e-02 -2.567802555859088898e-03 3.133580554276704788e-03 1.516234595328569412e-02 -1.712230406701564789e-02 3.125738725066184998e-02 4.592420160770416260e-02 -3.062719106674194336e-02 -3.028616681694984436e-02 -2.049081085715442896e-04 1.439717784523963928e-02 -2.993434667587280273e-03 -3.328732773661613464e-02 -9.709911420941352844e-03 1.493808999657630920e-02 -9.479158325120806694e-04 -1.849976135417819023e-03 -2.106313779950141907e-02 -2.912435866892337799e-02 6.082210689783096313e-02 3.911487385630607605e-02 2.220849506556987762e-02 4.952353425323963165e-03 5.094750970602035522e-02 -1.805064268410205841e-02 -6.011461839079856873e-02 -2.167271263897418976e-02 8.269472047686576843e-03 6.186611484736204147e-03 -1.688086427748203278e-02 -1.914138533174991608e-02 1.036814879626035690e-03 -8.009510114789009094e-03 -6.371431518346071243e-03 4.373282194137573242e-02 -1.805483177304267883e-02 -6.327582895755767822e-02 3.212082386016845703e-02 -1.150409597903490067e-02 4.177654162049293518e-02 -1.611378788948059082e-02 4.252694174647331238e-02 -2.057191915810108185e-02 -3.430862561799585819e-04 2.634955570101737976e-03 -1.752337440848350525e-02 -3.407609090209007263e-02 -1.901305839419364929e-02 4.584079980850219727e-02 -5.821023881435394287e-02 -1.112678647041320801e-02 1.543557085096836090e-02 -5.938562750816345215e-02 -2.781895920634269714e-02 -5.259606055915355682e-03 -4.749348852783441544e-03 -2.463017217814922333e-02 2.873525395989418030e-02 4.914112761616706848e-02 3.723968565464019775e-02 4.063623398542404175e-02 -1.545612514019012451e-02 1.077308598905801773e-02 -2.522579580545425415e-02 -1.267647650092840195e-02 -2.658233046531677246e-02 -6.935578584671020508e-02 -9.025906212627887726e-03 6.163478642702102661e-02 4.012171179056167603e-02 2.875433769077062607e-03 -3.975872532464563847e-04 -7.496316730976104736e-02 5.168999731540679932e-02 3.573443507775664330e-03 -1.777353882789611816e-02 -2.354022348299622536e-03 -2.072481811046600342e-02 -1.182661764323711395e-02 -2.109589800238609314e-02 -4.049882292747497559e-02 4.809042066335678101e-02 -3.274134919047355652e-02 1.983925700187683105e-02 5.971862748265266418e-02 -1.336166169494390488e-02 1.848159730434417725e-02 -4.955380689352750778e-03 7.805745303630828857e-02 3.903891146183013916e-02 1.603478938341140747e-02 -8.528752950951457024e-04 4.277923703193664551e-02 -2.054509334266185760e-02 4.104659333825111389e-02 1.814425736665725708e-02 5.694177746772766113e-02 -1.434800494462251663e-02 -3.683490678668022156e-03 -2.417595125734806061e-02 7.232686132192611694e-02 2.851598523557186127e-02 -3.405323252081871033e-02 1.112572290003299713e-02 3.597801923751831055e-02 -2.314319089055061340e-02 -4.079241305589675903e-02 7.413008250296115875e-03 4.206395149230957031e-02 3.870426118373870850e-02 -1.633132435381412506e-02 -1.261658780276775360e-02
-1.452691107988357544e-02 -6.665263790637254715e-03 -6.763885729014873505e-03 -2.507750503718852997e-02 3.877265844494104385e-03 7.818516343832015991e-03 -1.347046461887657642e-03 -1.585868000984191895e-02 -3.863983228802680969e-02 5.891353357583284378e-03 1.200266089290380478e-02 -1.378758344799280167e-02 -2.414374612271785736e-02 8.305884152650833130e-02 7.349710911512374878e-03 -3.139267861843109131e-02 2.983364649116992950e-02 -1.086576469242572784e-02 -2.174281701445579529e-02 -4.071003943681716919e-02 1.603775657713413239e-02 -3.435131395235657692e-03 -1.735481992363929749e-02 -4.765308462083339691e-03 -1.452041231095790863e-02 2.823380380868911743e-02 2.888429537415504456e-02 -5.802318081259727478e-02 -3.643919900059700012e-02 -2.395455911755561829e-02 -9.517132304608821869e-03 2.758125402033329010e-02 -1.870685815811157227e-02 1.255910564213991165e-02 3.736739978194236755e-02 4.183072596788406372e-02 2.535881660878658295e-02 2.575463056564331055e-02 -8.424040675163269043e-02 -2.908974699676036835e-02 4.889289289712905884e-02 -2.311505191028118134e-02 1.945214346051216125e-02 2.414027974009513855e-02 -1.220378838479518890e-02 2.053675800561904907e-02 -2.304184995591640472e-02 -3.067165613174438477e-02 5.023864656686782837e-02 -1.379455905407667160e-03 -4.670890048146247864e-02 -4.820846393704414368e-02 2.305428497493267059e-02 2.054233476519584656e-02 -4.017055779695510864e-02 -9.666482917964458466e-03 1.402838248759508133e-02 -7.193948328495025635e-02 -3.523957356810569763e-02 -6.183377932757139206e-03 -3.902894258499145508e-02 1.537870615720748901e-02 5.066429078578948975e-02 4.107156768441200256e-02 -3.932967316359281540e-03 8.661373518407344818e-03 -3.364034369587898254e-02 7.006223313510417938e-03 2.479847893118858337e-02 1.882899180054664612e-02 -1.598609052598476410e-02 7.653111964464187622e-02 5.806838721036911011e-02 1.458607334643602371e-02 -1.372495107352733612e-02 5.463436245918273926e-04 -2.139986492693424225e-02 6.858678162097930908e-02 9.138660505414009094e-03 4.321241285651922226e-03 -2.568515948951244354e-02 3.236616775393486023e-02 1.516300626099109650e-02 -8.054955303668975830e-02 -1.405091676861047745e-02 -1.134151499718427658e-02 6.368839740753173828e-02 4.644124209880828857e-02 1.195569336414337158e-02 -1.937408186495304108e-02 1.404020562767982483e-02 -3.597805649042129517e-02 -2.060687355697154999e-02 8.228732272982597351e-03 -2.098132669925689697e-02 5.549539253115653992e-02 -3.145411983132362366e-02 1.314920932054519653e-02 -2.125016041100025177e-02 -1.211649831384420395e-02 3.273902228102087975e-03 -3.605248779058456421e-02 -8.885333314538002014e-03 2.451852336525917053e-02 -1.990588009357452393e-02 3.142305184155702591e-03 1.475216634571552277e-02 6.379625201225280762e-02 -1.283694640733301640e-03 -9.900275617837905884e-03 1.385453436523675919e-02 1.587200560607016087e-03 -7.649091631174087524e-02 6.180663779377937317e-02 4.344739718362689018e-04 2.711908146739006042e-02 -1.270742621272802353e-02 7.688679546117782593e-02 2.058113366365432739e-02 7.326493412256240845e-02 -2.058571670204401016e-03 -1.638024672865867615e-02 1.416413392871618271e-02 -5.564710590988397598e-03 1.835727691650390625e-02 1.872086711227893829e-02 1.338085625320672989e-02 -2.232792973518371582e-02
2.366892294958233833e-03 2.073251642286777496e-02 3.485762327909469604e-02 7.292504888027906418e-03 7.413017563521862030e-03 -3.708979813382029533e-03 4.219847917556762695e-02 1.598725654184818268e-02 -3.766147047281265259e-02 7.306900806725025177e-03 3.570851683616638184e-02 -4.110725596547126770e-02 6.919251289218664169e-03 -1.715458696708083153e-03 -3.725352883338928223e-02 -4.296760261058807373e-02 3.497464582324028015e-02 5.750508233904838562e-02 4.962138086557388306e-02 -9.550563059747219086e-03 -3.315542265772819519e-02 -1.818189583718776703e-02 4.977553151547908783e-03 -2.074006944894790649e-02 7.081916555762290955e-03 -4.840118810534477234e-02 -2.758275158703327179e-02 1.529958378523588181e-02 2.494382485747337341e-02 -3.702207282185554504e-02 -3.035763464868068695e-02 -5.834295414388179779e-03 1.908304542303085327e-02 1.348515041172504425e-02 1.630264893174171448e-02 -1.540653221309185028e-02 3.852054476737976074e-02 -7.665783166885375977e-03 -4.102855548262596130e-02 -6.285345647484064102e-03 1.421865914016962051e-02 2.016267180442810059e-02 -7.834856398403644562e-03 -1.336268242448568344e-02 -1.100916601717472076e-02 -3.328186646103858948e-02 2.708290331065654755e-02 1.514369435608386993e-02 1.798431389033794403e-03 -6.144044920802116394e-03 -5.080217123031616211e-02 2.186970040202140808e-02 -1.214945316314697266e-02 -9.529555216431617737e-03 1.565641909837722778e-02 9.492219425737857819e-03 1.343650650233030319e-02 -3.114571981132030487e-02 1.586640253663063049e-02 4.600352048873901367e-02 1.271977275609970093e-02 5.789872258901596069e-03 9.071517735719680786e-03 -1.059650070965290070e-02 -2.209446951746940613e-02 -1.989051327109336853e-02 1.885072328150272369e-02 3.498056530952453613e-02 6.849988549947738647e-02 -3.732808167114853859e-03 -5.768781527876853943e-02 -4.962678998708724976e-02 7.075440883636474609e-02 -2.625873498618602753e-02 -4.561881534755229950e-03 -5.149153061211109161e-03 -2.976966463029384613e-02 -2.513217367231845856e-02 3.970490768551826477e-02 6.483242847025394440e-03 4.221060872077941895e-02 2.341883815824985504e-02 4.531307891011238098e-02 -2.369101904332637787e-02 1.032204926013946533e-02 -1.881837844848632812e-02 1.688495650887489319e-02 1.173161994665861130e-02 1.418370008468627930e-02 -2.468718215823173523e-02 7.926748134195804596e-03 -9.294343180954456329e-03 -2.382408268749713898e-02 -8.848706260323524475e-03 -9.077650494873523712e-03 -3.794999793171882629e-02 4.033406823873519897e-02 3.831676766276359558e-02 -1.963632367551326752e-02 2.068337518721818924e-03 4.647313803434371948e-02 -1.169994100928306580e-02 -2.066858112812042236e-02 1.033595670014619827e-02 -6.613732129335403442e-02 3.285001218318939209e-02 7.422220427542924881e-03 7.462136447429656982e-03 -2.970615029335021973e-02 -4.157931730151176453e-02 2.003758586943149567e-02 1.035179011523723602e-02 -7.678340189158916473e-03 -4.086851701140403748e-02 4.880136251449584961e-02 3.608735650777816772e-02 -4.812022671103477478e-03 1.618742593564093113e-03 2.394470572471618652e-02 -2.038714289665222168e-02 1.297940500080585480e-02 -4.665943328291177750e-03 1.457833219319581985e-02 -3.951037302613258362e-02 1.076572760939598083e-02 3.229325637221336365e-03 3.225099667906761169e-02 2.608189592137932777e-03
4.763517901301383972e-02 3.119322471320629120e-02 3.780893608927726746e-02 7.211993914097547531e-03 -7.912647910416126251e-03 4.481411352753639221e-02 6.400549411773681641e-02 -2.274011075496673584e-02 -9.034869261085987091e-03 -2.785060741007328033e-02 5.210427939891815186e-02 -1.810727827250957489e-02 4.581246152520179749e-02 -1.746766734868288040e-03 2.713576657697558403e-03 3.617734834551811218e-02 -1.902808807790279388e-02 6.476181000471115112e-02 4.724289104342460632e-02 3.397778794169425964e-02 2.266160398721694946e-02 -1.470560394227504730e-02 -1.471653115004301071e-02 -5.862406641244888306e-02 5.981548503041267395e-02 -3.806638298556208611e-03 -2.203580178320407867e-02 2.232788503170013428e-02 1.819488033652305603e-02 -4.021948203444480896e-03 1.958994939923286438e-02 5.721522495150566101e-02 -4.628552123904228210e-03 -2.795217372477054596e-02 3.401314467191696167e-02 2.199355326592922211e-02 -2.013585716485977173e-02 1.088994834572076797e-02 1.385075412690639496e-02 -3.222226724028587341e-02 -9.515382698737084866e-04 4.865360632538795471e-02 3.679655864834785461e-02 2.332635922357439995e-03 2.726219780743122101e-02 -2.780649252235889435e-02 -3.016765788197517395e-02 -1.164207234978675842e-02 4.752270504832267761e-02 -1.036812886595726013e-01 -4.439716413617134094e-02 -4.400516301393508911e-02 2.796206437051296234e-02 -5.137582868337631226e-02 -3.285758942365646362e-02 4.796922206878662109e-03 -1.872987486422061920e-02 -8.187001571059226990e-03 -1.773188449442386627e-02 9.574691765010356903e-03 1.231955247931182384e-04 -5.127691663801670074e-03 -2.793349325656890869e-02 8.855241350829601288e-03 -2.538344124332070351e-03 -3.410338237881660461e-02 3.903202340006828308e-02 2.620746381580829620e-02 2.859023213386535645e-02 1.247185654938220978e-02 4.891271889209747314e-02 -2.954945713281631470e-02 2.447447553277015686e-02 -1.467839814722537994e-02 -1.761176995933055878e-02 -1.385424379259347916e-02 -3.031703270971775055e-02 9.774222038686275482e-03 1.774981617927551270e-02 -3.785052150487899780e-02 5.382608994841575623e-02 5.466660857200622559e-02 5.306035745888948441e-03 -2.002499811351299286e-02 -9.624284692108631134e-03 1.254584360867738724e-02 -5.141003802418708801e-02 1.672492735087871552e-02 1.252496894448995590e-02 2.921308763325214386e-02 -1.482301019132137299e-02 1.448974013328552246e-02 -3.632849827408790588e-02 -7.519823964685201645e-03 -1.784230023622512817e-02 3.549385070800781250e-02 2.027397602796554565e-02 -1.449330989271402359e-02 -1.419552427250891924e-04 -2.611281117424368858e-03 -2.881106920540332794e-02 -3.800181671977043152e-02 1.233257632702589035e-02 2.607166022062301636e-02 -6.514713168144226074e-02 2.133813221007585526e-03 -4.957991186529397964e-04 3.009376674890518188e-02 -2.326280996203422546e-02 4.247151446179486811e-05 -2.498303726315498352e-02 -2.581701241433620453e-02 -2.931999787688255310e-02 -1.605979353189468384e-02 -2.243902906775474548e-02 4.936381429433822632e-02 -2.605375275015830994e-02 2.185055427253246307e-02 -4.033342003822326660e-02 -5.200794339179992676e-02 -4.239062312990427017e-03 1.442189514636993408e-02 1.115609891712665558e-02 -4.607287794351577759e-02 2.388204820454120636e-02 -1.594579778611660004e-02 2.736435271799564362e-02 -1.581246592104434967e-02
8.485657162964344025e-03 -2.506006136536598206e-02 1.641579344868659973e-02 -1.566814817488193512e-02 1.489767525345087051e-02 4.718307405710220337e-02 2.148302830755710602e-02 -3.887279704213142395e-02 -5.633926019072532654e-03 2.637444436550140381e-02 -8.681744337081909180e-03 1.378964073956012726e-02 7.727587968111038208e-02 7.436998933553695679e-02 -1.363425049930810928e-02 -3.658948093652725220e-02 -3.370483964681625366e-02 -1.500792894512414932e-02 2.130095474421977997e-02 1.109880954027175903e-02 -3.019742108881473541e-02 3.058969229459762573e-02 -1.473111798986792564e-03 1.765564829111099243e-02 3.868237882852554321e-02 -1.709184236824512482e-02 3.639237210154533386e-02 1.619138196110725403e-02 8.894293755292892456e-02 -1.516109146177768707e-02 -5.752284824848175049e-02 2.814145945012569427e-02 -2.220328524708747864e-02 9.233055263757705688e-02 2.017230726778507233e-02 2.248558029532432556e-02 -2.697958610951900482e-02 -7.237667590379714966e-02 -3.531115502119064331e-02 -2.661298215389251709e-02 3.363326191902160645e-02 7.517508417367935181e-02 -3.818695619702339172e-02 8.774859830737113953e-03 3.451965376734733582e-02 -2.673193253576755524e-02 9.410878643393516541e-03 -5.792080424726009369e-03 -6.343855056911706924e-03 -3.658125922083854675e-02 1.300518983043730259e-03 -3.066087141633033752e-03 1.510951761156320572e-02 -6.368908099830150604e-03 5.556528642773628235e-02 -5.171590670943260193e-02 5.401943810284137726e-03 -1.637186110019683838e-02 -8.322252891957759857e-03 2.106140553951263428e-02 -2.048767730593681335e-02 -4.059264063835144043e-02 8.785894140601158142e-03 5.045025423169136047e-02 3.613962978124618530e-02 2.669341303408145905e-02 5.532732233405113220e-03 -2.273135446012020111e-02 -1.342430710792541504e-02 4.982373138773255050e-05 2.592301741242408752e-02 -4.875860735774040222e-02 1.006137536023743451e-04 -4.165617749094963074e-02 -1.223743427544832230e-02 -2.938516624271869659e-02 -2.804766641929745674e-03 -1.169926486909389496e-02 3.772223740816116333e-02 -7.147760596126317978e-03 -2.219600602984428406e-03 -3.423609584569931030e-02 2.628599107265472412e-02 2.000436373054981232e-02 -3.108249232172966003e-02 5.142427515238523483e-03 -4.259378090500831604e-02 3.916347771883010864e-02 4.628419503569602966e-02 -8.501812815666198730e-03 4.455082118511199951e-02 -1.849666051566600800e-02 4.341286793351173401e-02 3.394983708858489990e-02 -7.640563696622848511e-02 -1.676429994404315948e-02 -5.882158409804105759e-03 -4.655188322067260742e-02 4.991006478667259216e-02 9.321562945842742920e-03 1.818947494029998779e-02 -1.219553314149379730e-02 -3.935329616069793701e-02 -1.991974748671054840e-02 8.382644504308700562e-03 -5.692486185580492020e-03 -2.015043981373310089e-02 -5.214315652847290039e-02 2.069959230720996857e-02 5.308713763952255249e-02 -4.261793196201324463e-02 5.382380448281764984e-03 -1.196303963661193848e-02 -2.295748703181743622e-02 -2.355089783668518066e-02 3.010601736605167389e-03 1.132938358932733536e-02 -6.846180558204650879e-02 3.471496701240539551e-02 1.819751597940921783e-02 -1.934740575961768627e-03 4.384564608335494995e-02 -3.425774723291397095e-02 4.709438234567642212e-02 -3.604214638471603394e-02 -1.681868359446525574e-02 -5.931293591856956482e-03 2.457183972001075745e-02
5.731792747974395752e-02 4.151907190680503845e-02 -2.869449742138385773e-02 6.975612789392471313e-02 -1.603071205317974091e-02 2.610687166452407837e-02 -2.920182235538959503e-02 1.695101335644721985e-02 -4.278632998466491699e-02 -1.965165883302688599e-02 -6.445235572755336761e-03 -1.426113740308210254e-04 -2.636719029396772385e-03 -4.488249775022268295e-03 2.156918402761220932e-03 4.967965558171272278e-02 -2.589988289400935173e-03 1.766352355480194092e-02 -4.334726370871067047e-03 -7.975623756647109985e-02 -1.903711445629596710e-02 -7.256622612476348877e-02 -3.038115799427032471e-02 7.474677264690399170e-02 -2.176835201680660248e-02 -6.482685916125774384e-03 1.398692093789577484e-02 -5.313369445502758026e-03 -3.809014335274696350e-02 -3.862125426530838013e-02 4.515254870057106018e-02 -4.760605469346046448e-02 -3.608258068561553955e-02 -2.930022031068801880e-02 7.389204949140548706e-02 -3.330403566360473633e-02 -7.617884315550327301e-03 3.006829135119915009e-02 2.788643585518002510e-03 5.539136379957199097e-02 -3.044514730572700500e-02 2.338908240199089050e-02 -1.957030408084392548e-02 -2.387841790914535522e-02 -5.198533763177692890e-04 3.297360986471176147e-02 2.485987963154911995e-03 -2.321997284889221191e-02 -3.055975027382373810e-02 -3.672293853014707565e-03 1.177854742854833603e-02 1.686526648700237274e-02 3.256263211369514465e-02 4.953287541866302490e-02 5.208497401326894760e-03 2.016196725890040398e-03 5.731910467147827148e-02 -2.321104705333709717e-02 -1.028565224260091782e-02 -4.269961267709732056e-02 -1.700108870863914490e-02 -1.169331930577754974e-02 -1.469238288700580597e-02 6.380377709865570068e-02 2.682077465578913689e-03 6.477583944797515869e-02 -3.283004462718963623e-02 -7.179212570190429688e-02 -1.727957976981997490e-03 2.672360278666019440e-02 6.139687076210975647e-02 -7.553476840257644653e-03 -3.554712235927581787e-02 1.065430603921413422e-02 -7.266782969236373901e-02 3.300512954592704773e-02 4.196947067975997925e-02 -2.291143313050270081e-02 -8.191012777388095856e-03 4.301426559686660767e-02 -7.775516714900732040e-03 3.438556566834449768e-02 -3.306234627962112427e-02 3.938113804906606674e-03 -2.768379077315330505e-02 6.869172211736440659e-03 -1.565521210432052612e-02 -6.916430592536926270e-02 -1.981795392930507660e-02 2.989165484905242920e-02 -9.388471394777297974e-02 1.008788496255874634e-02 -8.709224872291088104e-03 -5.262945964932441711e-02 1.754270307719707489e-02 -3.146935254335403442e-02 2.497046068310737610e-02 -4.541313275694847107e-02 -3.180136159062385559e-02 -6.519375741481781006e-02 3.652546554803848267e-03 -2.006157673895359039e-02 3.612478077411651611e-02 -3.183143213391304016e-02 -2.964698337018489838e-02 -4.629889130592346191e-02 6.592538952827453613e-02 6.458445638418197632e-02 -3.382989391684532166e-02 2.144212834537029266e-02 -3.668005019426345825e-02 -1.339242700487375259e-02 4.315441846847534180e-02 4.352333489805459976e-03 -5.072793364524841309e-02 -2.462492510676383972e-02 -3.023448027670383453e-02 -1.688321470282971859e-03 4.244180023670196533e-02 7.052032276988029480e-03 -1.301380619406700134e-02 1.843356154859066010e-02 1.331215351819992065e-02 -5.912923440337181091e-02 -1.895255595445632935e-02 5.856067314743995667e-02 -1.396439783275127411e-02 3.779984265565872192e-02
-3.972057998180389404e-02 3.512451425194740295e-02 6.274892389774322510e-02 -2.245398238301277161e-02 4.388587921857833862e-02 -1.259732618927955627e-02 -3.708805888891220093e-02 -2.236894704401493073e-02 -2.725309226661920547e-03 2.057073824107646942e-02 6.368173658847808838e-02 -3.558218479156494141e-02 -1.003266777843236923e-02 2.357947826385498047e-02 -1.198009680956602097e-02 -7.561867590993642807e-03 4.640154540538787842e-02 -1.369284815154969692e-03 2.918673306703567505e-02 -2.349881397094577551e-04 2.191757969558238983e-02 1.306550297886133194e-02 -8.132815710268914700e-04 8.396433666348457336e-03 3.565713297575712204e-03 -2.279440499842166901e-02 -6.662062834948301315e-03 4.148255567997694016e-03 -8.494297042489051819e-03 -1.882828399538993835e-02 7.552603259682655334e-03 2.209579106420278549e-03 2.577969571575522423e-03 -2.370648086071014404e-02 -4.239188134670257568e-02 -1.313500106334686279e-02 -3.095173835754394531e-02 -5.983567982912063599e-02 5.504888948053121567e-03 -6.937754899263381958e-02 -3.171440213918685913e-02 1.110375160351395607e-04 2.065508440136909485e-02 -2.027312107384204865e-02 2.668084017932415009e-02 -5.676715821027755737e-02 7.293503731489181519e-04 -1.296599023044109344e-02 2.759177237749099731e-02 1.060051377862691879e-02 -4.106051847338676453e-02 2.370351227000355721e-03 -1.679539307951927185e-02 -9.143212810158729553e-03 -3.610124811530113220e-03 -2.136116847395896912e-02 4.871944896876811981e-03 -2.800235757604241371e-03 -1.158217992633581161e-02 5.605111271142959595e-02 2.463231561705470085e-03 -7.299209386110305786e-02 2.940761670470237732e-02 -1.037447899580001831e-02 -2.494250424206256866e-02 4.052547365427017212e-02 1.035553682595491409e-02 2.383018098771572113e-02 4.079531505703926086e-02 1.265644002705812454e-02 8.348874747753143311e-03 3.179218992590904236e-02 3.620410710573196411e-02 3.831087425351142883e-02 5.166075751185417175e-02 6.083866581320762634e-03 -1.006889622658491135e-02 -7.288124412298202515e-02 -7.153165061026811600e-03 5.850600451231002808e-02 -1.043753582052886486e-03 2.182839252054691315e-02 6.169131025671958923e-02 -3.479315200820565224e-03 -3.091019950807094574e-02 -1.594972237944602966e-02 5.969956517219543457e-03 -1.739060692489147186e-02 1.731437072157859802e-02 -3.605367615818977356e-02 1.503324485383927822e-03 4.315270856022834778e-02 1.677932962775230408e-02 -3.828883916139602661e-02 -7.039804942905902863e-03 5.587502382695674896e-03 -7.123006973415613174e-03 6.455673277378082275e-02 4.549452662467956543e-02 1.115298829972743988e-02 -1.973710022866725922e-02 -5.854552984237670898e-02 -4.463238641619682312e-03 1.655813865363597870e-02 -3.235301747918128967e-02 -4.570635780692100525e-02 -8.230742812156677246e-02 -1.654337346553802490e-02 1.336176693439483643e-02 5.508569255471229553e-02 -6.894850521348416805e-04 -2.062059193849563599e-02 -1.572074741125106812e-02 -1.653028093278408051e-02 1.306358259171247482e-02 -6.133049726486206055e-02 -4.054011777043342590e-02 -2.888213284313678741e-02 -1.863796077668666840e-02 -1.116564404219388962e-02 1.513119041919708252e-02 -1.035922486335039139e-02 6.124342232942581177e-02 -1.322275027632713318e-02 -9.175350889563560486e-03 2.659879066050052643e-02 9.384628385305404663e-02 1.420602202415466309e-02
