-6.611961126327514648e-02 9.429688565433025360e-03 -3.074862807989120483e-02 2.526751346886157990e-02 8.629124611616134644e-02 -3.763653337955474854e-02 4.693031951319426298e-04 2.421718463301658630e-02 -2.437104098498821259e-02 3.227327391505241394e-02 5.345768108963966370e-02 -2.456568926572799683e-02 6.573844701051712036e-03 -4.450146807357668877e-04 -2.547590062022209167e-02 6.244476884603500366e-03 -6.601624190807342529e-02 9.395250119268894196e-03 -1.639336906373500824e-02 6.175636127591133118e-02 3.942807391285896301e-02 -2.166006155312061310e-02 -8.064552675932645798e-04 -2.768337354063987732e-02 7.033070176839828491e-02 -8.287561126053333282e-03 -4.077295586466789246e-02 4.725797101855278015e-02 1.174898166209459305e-02 1.075058337301015854e-02 -3.471769019961357117e-02 -1.779481209814548492e-02 -2.605183108244091272e-04 4.055284336209297180e-02 -1.532970461994409561e-03 -2.950443513691425323e-02 -5.667098239064216614e-02 2.716893516480922699e-02 6.634239852428436279e-02 -3.413085266947746277e-02 1.084275096654891968e-01 -6.170354038476943970e-02 4.361588880419731140e-02 2.274766191840171814e-02 -8.351955562829971313e-02 -3.710520640015602112e-02 1.081219222396612167e-02 1.794152520596981049e-02 -6.392866373062133789e-02 2.987404912710189819e-02 -1.049021910876035690e-02 2.678791806101799011e-02 2.547700144350528717e-02 1.806909218430519104e-02 3.773307427763938904e-03 2.451602555811405182e-02 -4.975783452391624451e-02 4.762758687138557434e-02 3.007737919688224792e-02 -1.088208109140396118e-01 3.123421408236026764e-02 2.721040882170200348e-02 3.012173250317573547e-02 -7.931353896856307983e-02 9.081020019948482513e-03 -6.807813793420791626e-02 1.031079702079296112e-02 -2.256890758872032166e-03 -4.750845208764076233e-02 -3.649506345391273499e-02 -3.086321614682674408e-02 -1.097858138382434845e-02 -2.070084773004055023e-02 1.756861805915832520e-02 7.238084822893142700e-02 -6.688273698091506958e-02 1.233848836272954941e-02 1.024734526872634888e-01 -9.618534147739410400e-02 -3.354666754603385925e-02 -2.476684004068374634e-02 -4.046160727739334106e-02 7.706747204065322876e-02 -1.576115749776363373e-02 4.179568588733673096e-02 1.857078075408935547e-02 2.820327691733837128e-02 -8.370067807845771313e-04 -3.655246645212173462e-02 -3.227570280432701111e-02 4.766705259680747986e-02 1.072778180241584778e-02 8.948142640292644501e-03 7.094266265630722046e-02 2.874545007944107056e-02 5.683279130607843399e-03 1.128618232905864716e-02 1.086187199689447880e-03 1.074841152876615524e-02 4.550154507160186768e-02 -3.016705857589840889e-03 -2.105461806058883667e-02 -2.562429569661617279e-02 5.623431876301765442e-02 -3.279154654592275620e-03 -5.789835471659898758e-03 -4.106466844677925110e-02 -5.579786375164985657e-02 -2.283098874613642693e-03 -4.209167882800102234e-02 7.358771562576293945e-02 1.290260627865791321e-02 4.145349562168121338e-02 -3.597224503755569458e-02 2.516240440309047699e-02 -4.715893417596817017e-03 2.254698658362030983e-03 4.953383281826972961e-02 -2.931799925863742828e-02 -3.907506167888641357e-02 -4.099513869732618332e-03 -1.490507647395133972e-02 6.566204875707626343e-02 4.857021197676658630e-02 7.054051011800765991e-02 -1.541468594223260880e-02 -4.092425107955932617e-02 4.011781513690948486e-02
-3.467380767688155174e-03 -7.564730942249298096e-03 2.737965248525142670e-02 -6.152083352208137512e-02 -6.281706690788269043e-02 -1.651841681450605392e-03 1.311725191771984100e-02 -1.257629320025444031e-02 7.931391149759292603e-02 1.931356824934482574e-02 -3.361126035451889038e-02 1.861741393804550171e-02 -5.686256568878889084e-03 -3.734126314520835876e-02 1.040638238191604614e-02 2.121730893850326538e-02 2.579088136553764343e-02 -1.960400724783539772e-03 3.540722187608480453e-03 1.665454916656017303e-02 -1.850484497845172882e-02 3.343255072832107544e-02 4.761586338281631470e-02 -3.350983560085296631e-02 -3.155698999762535095e-02 8.710341062396764755e-04 1.398635189980268478e-02 -4.148784559220075607e-03 -3.391707316040992737e-02 -1.139462366700172424e-02 1.488266140222549438e-02 -1.967264106497168541e-03 -1.800218597054481506e-03 -2.246757037937641144e-02 -3.117213211953639984e-02 6.269829720258712769e-02 4.222875460982322693e-02 2.355027571320533752e-02 4.739351570606231689e-03 5.261663347482681274e-02 -1.973675936460494995e-02 -6.138006970286369324e-02 -2.251174114644527435e-02 9.680297225713729858e-03 5.702704656869173050e-03 -1.652887091040611267e-02 -1.894364878535270691e-02 2.411263994872570038e-03 -7.425113115459680557e-03 -6.390721071511507034e-03 4.400607571005821228e-02 -1.850092038512229919e-02 -6.594800204038619995e-02 3.208062425255775452e-02 -1.175196189433336258e-02 4.267893731594085693e-02 -1.646138168871402740e-02 4.462085291743278503e-02 -1.996742002665996552e-02 -5.404618568718433380e-04 2.994683803990483284e-03 -1.908540725708007812e-02 -3.489617258310317993e-02 -1.968860439956188202e-02 4.796632751822471619e-02 -6.097118556499481201e-02 -1.036225445568561554e-02 1.580006256699562073e-02 -6.000452861189842224e-02 -2.854397520422935486e-02 -7.739120628684759140e-03 -4.378483165055513382e-03 -2.615135163068771362e-02 2.851622179150581360e-02 4.931795969605445862e-02 3.948618844151496887e-02 4.071203246712684631e-02 -1.697678677737712860e-02 1.082642190158367157e-02 -2.655314095318317413e-02 -1.268257014453411102e-02 -2.758364565670490265e-02 -7.237728685140609741e-02 -8.620509877800941467e-03 6.372840702533721924e-02 4.172216728329658508e-02 3.927138168364763260e-03 -2.224514726549386978e-03 -7.695782929658889771e-02 5.329193547368049622e-02 3.348802682012319565e-03 -1.882512867450714111e-02 -1.993897138163447380e-03 -1.989802904427051544e-02 -1.291730534285306931e-02 -2.049670927226543427e-02 -4.363088309764862061e-02 5.181632190942764282e-02 -3.232333064079284668e-02 2.042097598314285278e-02 6.141168251633644104e-02 -1.212959643453359604e-02 1.952120102941989899e-02 -6.436280440539121628e-03 7.928933203220367432e-02 4.264560714364051819e-02 1.584642939269542694e-02 -1.704245689325034618e-03 4.410074651241302490e-02 -2.166544087231159210e-02 4.128962010145187378e-02 1.926130987703800201e-02 5.654903501272201538e-02 -1.527294237166643143e-02 -4.159818869084119797e-03 -2.444732934236526489e-02 7.392927259206771851e-02 3.023994900286197662e-02 -3.379105776548385620e-02 1.084735896438360214e-02 3.714754804968833923e-02 -2.518643811345100403e-02 -4.241521283984184265e-02 8.059274405241012573e-03 4.334278777241706848e-02 4.012593254446983337e-02 -1.532363053411245346e-02 -1.461425516754388809e-02
-1.630453392863273621e-02 -7.172606419771909714e-03 -7.272955030202865601e-03 -2.656248398125171661e-02 4.274282138794660568e-03 6.805207114666700363e-03 -9.490152006037533283e-04 -1.541434507817029953e-02 -3.852960467338562012e-02 5.553508177399635315e-03 1.295304205268621445e-02 -1.466638408601284027e-02 -2.607124298810958862e-02 8.452048152685165405e-02 7.775289472192525864e-03 -3.221600130200386047e-02 3.200361505150794983e-02 -1.081189606338739395e-02 -2.268742397427558899e-02 -4.161434248089790344e-02 1.621796190738677979e-02 -4.468814004212617874e-03 -1.854125969111919403e-02 -4.836004693061113358e-03 -1.517189294099807739e-02 2.820559032261371613e-02 2.949434891343116760e-02 -5.809459835290908813e-02 -3.661751747131347656e-02 -2.467636018991470337e-02 -1.041513681411743164e-02 2.938239276409149170e-02 -1.832162775099277496e-02 1.201146561652421951e-02 3.738048300147056580e-02 4.319950938224792480e-02 2.561055496335029602e-02 2.749036997556686401e-02 -8.724059164524078369e-02 -2.923347428441047668e-02 4.878726601600646973e-02 -2.412603795528411865e-02 2.041715756058692932e-02 2.368802390992641449e-02 -1.080167107284069061e-02 2.240786515176296234e-02 -2.341735549271106720e-02 -3.210236877202987671e-02 5.183221399784088135e-02 -1.149821793660521507e-03 -4.715677350759506226e-02 -5.135424435138702393e-02 2.369135059416294098e-02 2.057358995079994202e-02 -4.194092750549316406e-02 -9.507697075605392456e-03 1.436588820070028305e-02 -7.443167269229888916e-02 -3.604927659034729004e-02 -7.577080745249986649e-03 -3.969985619187355042e-02 1.708719693124294281e-02 5.012801289558410645e-02 4.221524670720100403e-02 -5.478297825902700424e-03 8.508148603141307831e-03 -3.556668385863304138e-02 6.871321704238653183e-03 2.555830217897891998e-02 1.979547739028930664e-02 -1.733454130589962006e-02 7.923871278762817383e-02 5.984047800302505493e-02 1.553025562316179276e-02 -1.384475827217102051e-02 9.677839698269963264e-04 -2.194954082369804382e-02 7.072392106056213379e-02 9.733055718243122101e-03 3.449998097494244576e-03 -2.563484013080596924e-02 3.348111361265182495e-02 1.598668843507766724e-02 -8.170749247074127197e-02 -1.392589509487152100e-02 -1.252283342182636261e-02 6.522223353385925293e-02 4.739772155880928040e-02 1.259826309978961945e-02 -2.050772123038768768e-02 1.440395414829254150e-02 -3.628930822014808655e-02 -2.357495203614234924e-02 8.020493201911449432e-03 -2.178214862942695618e-02 5.588610842823982239e-02 -3.195647895336151123e-02 1.422506105154752731e-02 -2.207811921834945679e-02 -1.336892787367105484e-02 2.771804574877023697e-03 -3.678501024842262268e-02 -8.423201739788055420e-03 2.430916391313076019e-02 -2.113846316933631897e-02 2.097873715683817863e-03 1.559461187571287155e-02 6.585270166397094727e-02 -1.543459249660372734e-03 -9.367831982672214508e-03 1.448136847466230392e-02 2.094912109896540642e-03 -7.818490266799926758e-02 6.397475302219390869e-02 1.674799277679994702e-04 2.728647179901599884e-02 -1.250009983777999878e-02 7.749278843402862549e-02 2.214041724801063538e-02 7.591619342565536499e-02 -1.116625266149640083e-03 -1.681117154657840729e-02 1.395649276673793793e-02 -5.585191771388053894e-03 1.916099712252616882e-02 2.021212689578533173e-02 1.430585794150829315e-02 -2.252942137420177460e-02
1.562149147503077984e-03 2.110863290727138519e-02 3.596995025873184204e-02 7.877911441028118134e-03 6.654465105384588242e-03 -3.013178706169128418e-03 4.527138546109199524e-02 1.714063622057437897e-02 -3.940422832965850830e-02 6.252900231629610062e-03 3.700992092490196228e-02 -4.238507524132728577e-02 7.339434698224067688e-03 -5.706152413040399551e-03 -3.849568963050842285e-02 -4.476077109575271606e-02 3.628125041723251343e-02 6.057005003094673157e-02 5.151986330747604370e-02 -1.102339010685682297e-02 -3.458488360047340393e-02 -2.014480344951152802e-02 5.827554035931825638e-03 -2.153259888291358948e-02 5.730516277253627777e-03 -4.952581226825714111e-02 -2.897119708359241486e-02 1.808002218604087830e-02 2.670585364103317261e-02 -3.869769722223281860e-02 -3.169420734047889709e-02 -6.545535754412412643e-03 2.189511619508266449e-02 1.295803859829902649e-02 1.629529334604740143e-02 -1.508463732898235321e-02 3.877345100045204163e-02 -8.971200324594974518e-03 -4.274179786443710327e-02 -7.762310095131397247e-03 1.412240602076053619e-02 2.343819104135036469e-02 -8.759438991546630859e-03 -1.379057858139276505e-02 -1.035033166408538818e-02 -3.501540049910545349e-02 2.935337461531162262e-02 1.551059260964393616e-02 2.585931215435266495e-03 -5.139370448887348175e-03 -5.367637798190116882e-02 2.216398343443870544e-02 -1.329783536493778229e-02 -1.182841043919324875e-02 1.606434956192970276e-02 1.169875264167785645e-02 1.557792723178863525e-02 -3.288182243704795837e-02 1.493661664426326752e-02 4.947134107351303101e-02 1.326313428580760956e-02 7.600652985274791718e-03 9.623841382563114166e-03 -1.065018679946660995e-02 -2.288351207971572876e-02 -2.091699838638305664e-02 1.989758200943470001e-02 3.833453729748725891e-02 7.219483703374862671e-02 -3.690018784254789352e-03 -5.998377501964569092e-02 -5.127735808491706848e-02 7.418910413980484009e-02 -2.727100998163223267e-02 -5.545974243432283401e-03 -6.090727169066667557e-03 -3.146618604660034180e-02 -2.705755084753036499e-02 4.252759367227554321e-02 6.715982221066951752e-03 4.633858427405357361e-02 2.289838530123233795e-02 4.709681868553161621e-02 -2.294096723198890686e-02 1.207525189965963364e-02 -2.125089988112449646e-02 1.715876720845699310e-02 1.247053779661655426e-02 1.478854939341545105e-02 -2.580513991415500641e-02 8.025637827813625336e-03 -1.031245756894350052e-02 -2.458829060196876526e-02 -9.055327624082565308e-03 -9.439067915081977844e-03 -3.984048217535018921e-02 4.240084439516067505e-02 3.982104733586311340e-02 -2.079311758279800415e-02 1.316145644523203373e-03 4.837176948785781860e-02 -1.315351016819477081e-02 -2.176915109157562256e-02 1.052326057106256485e-02 -6.925349682569503784e-02 3.467513248324394226e-02 8.578620851039886475e-03 9.408719837665557861e-03 -3.248251974582672119e-02 -4.397170245647430420e-02 2.138407342135906219e-02 1.102499943226575851e-02 -8.054479956626892090e-03 -4.390788823366165161e-02 5.220120772719383240e-02 3.744968399405479431e-02 -5.915058776736259460e-03 2.992142224684357643e-03 2.446274831891059875e-02 -2.036937512457370758e-02 1.433499716222286224e-02 -4.521679133176803589e-03 1.402873080223798752e-02 -4.125028103590011597e-02 1.036802120506763458e-02 2.209326950833201408e-03 3.295045346021652222e-02 1.847998937591910362e-03
4.855848476290702820e-02 3.396825864911079407e-02 3.706475347280502319e-02 8.104102686047554016e-03 -7.157601881772279739e-03 4.592068865895271301e-02 6.518302857875823975e-02 -2.259728685021400452e-02 -8.641883730888366699e-03 -2.847078256309032440e-02 5.405850708484649658e-02 -1.939835585653781891e-02 4.531122744083404541e-02 -2.975036622956395149e-03 2.881549065932631493e-03 3.752036020159721375e-02 -1.904090493917465210e-02 6.542333960533142090e-02 4.853313043713569641e-02 3.385170176625251770e-02 2.280011959373950958e-02 -1.671577058732509613e-02 -1.630728133022785187e-02 -6.005484610795974731e-02 5.916711315512657166e-02 -5.168107803910970688e-03 -2.325461991131305695e-02 2.397907897830009460e-02 2.011274546384811401e-02 -5.235051270574331284e-03 2.171790972352027893e-02 5.661520361900329590e-02 -5.459522828459739685e-03 -3.014460951089859009e-02 3.653866425156593323e-02 2.131347358226776123e-02 -2.116756327450275421e-02 1.179759297519922256e-02 1.447408273816108704e-02 -3.383834660053253174e-02 -2.353502670302987099e-03 4.839462786912918091e-02 3.896703198552131653e-02 2.191749867051839828e-03 2.833207324147224426e-02 -2.649669721722602844e-02 -3.194089978933334351e-02 -1.241290848702192307e-02 4.941658303141593933e-02 -1.060526445508003235e-01 -4.393298923969268799e-02 -4.354981333017349243e-02 2.970751002430915833e-02 -5.504343286156654358e-02 -3.299061208963394165e-02 4.888116847723722458e-03 -1.934611797332763672e-02 -9.403130970895290375e-03 -1.678745634853839874e-02 8.793927729129791260e-03 -2.534339146222919226e-04 -3.857050556689500809e-03 -2.949369139969348907e-02 9.098365902900695801e-03 -3.539075609296560287e-03 -3.332989290356636047e-02 3.944494947791099548e-02 2.720778062939643860e-02 2.901870384812355042e-02 1.472814753651618958e-02 5.064048990607261658e-02 -2.980109117925167084e-02 2.614912204444408417e-02 -1.549437269568443298e-02 -1.926785893738269806e-02 -1.575171761214733124e-02 -3.095398470759391785e-02 1.004860643297433853e-02 1.741415821015834808e-02 -3.873944655060768127e-02 5.676809698343276978e-02 5.684540420770645142e-02 6.221396382898092270e-03 -2.011992782354354858e-02 -1.042548846453428268e-02 1.161842886358499527e-02 -5.295040085911750793e-02 1.763854175806045532e-02 1.211452670395374298e-02 2.717437967658042908e-02 -1.656707562506198883e-02 1.815876923501491547e-02 -3.803370147943496704e-02 -9.604694321751594543e-03 -1.628152467310428619e-02 3.589295968413352966e-02 2.079901471734046936e-02 -1.440184377133846283e-02 -2.000726060941815376e-03 -3.569911932572722435e-03 -2.958425879478454590e-02 -3.872457146644592285e-02 1.122569013386964798e-02 2.734606899321079254e-02 -6.538383662700653076e-02 1.789037138223648071e-03 1.310341176576912403e-03 3.162220120429992676e-02 -2.343585900962352753e-02 1.052399864420294762e-03 -2.646635286509990692e-02 -2.630215883255004883e-02 -2.754737623035907745e-02 -1.740483567118644714e-02 -2.286385186016559601e-02 5.118503049015998840e-02 -2.809068374335765839e-02 2.343352138996124268e-02 -4.085275903344154358e-02 -5.338656157255172729e-02 -4.444912075996398926e-03 1.432946231216192245e-02 1.252027601003646851e-02 -4.727087542414665222e-02 2.521254494786262512e-02 -1.505944598466157913e-02 2.740147896111011505e-02 -1.582355611026287079e-02
8.395536802709102631e-03 -2.646663412451744080e-02 1.716027967631816864e-02 -1.621069386601448059e-02 1.515588536858558655e-02 4.921629279851913452e-02 2.169062197208404541e-02 -4.030543565750122070e-02 -4.716563969850540161e-03 2.592614479362964630e-02 -8.131325244903564453e-03 1.365677826106548309e-02 8.060223609209060669e-02 7.720692455768585205e-02 -1.543703209608793259e-02 -3.851667419075965881e-02 -3.660778328776359558e-02 -1.437649875879287720e-02 2.266432717442512512e-02 1.065606065094470978e-02 -3.093859553337097168e-02 2.929659746587276459e-02 -2.502968069165945053e-03 1.810254529118537903e-02 4.099758341908454895e-02 -1.889056153595447540e-02 3.787591680884361267e-02 1.649533212184906006e-02 9.126597642898559570e-02 -1.432907115668058395e-02 -5.942837521433830261e-02 3.055546432733535767e-02 -2.221519313752651215e-02 9.426914900541305542e-02 2.043782733380794525e-02 2.301587350666522980e-02 -2.979047037661075592e-02 -7.347933202981948853e-02 -3.624767065048217773e-02 -2.775156870484352112e-02 3.534533455967903137e-02 7.683098316192626953e-02 -3.961836546659469604e-02 8.563994430005550385e-03 3.458312526345252991e-02 -2.813212014734745026e-02 8.637111634016036987e-03 -8.518679067492485046e-03 -5.711306352168321609e-03 -3.807679191231727600e-02 -3.811377973761409521e-04 -4.193717613816261292e-03 1.552766375243663788e-02 -7.233633194118738174e-03 5.580459162592887878e-02 -5.333830416202545166e-02 7.549555972218513489e-03 -1.698829047381877899e-02 -9.058292023837566376e-03 2.228317968547344208e-02 -2.010934054851531982e-02 -3.950741887092590332e-02 9.369444102048873901e-03 5.320165306329727173e-02 3.692649677395820618e-02 2.973764576017856598e-02 5.446675233542919159e-03 -2.281680144369602203e-02 -1.341093610972166061e-02 8.782087825238704681e-04 2.737593278288841248e-02 -5.018835514783859253e-02 1.267646555788815022e-03 -4.465269669890403748e-02 -1.265329774469137192e-02 -3.049545921385288239e-02 -3.642515512183308601e-03 -1.174119487404823303e-02 3.882742300629615784e-02 -8.624777197837829590e-03 -1.530925743281841278e-03 -3.558612614870071411e-02 2.634385041892528534e-02 2.059785276651382446e-02 -3.259627893567085266e-02 4.602380562573671341e-03 -4.411315172910690308e-02 4.241546243429183960e-02 4.941740259528160095e-02 -8.332793600857257843e-03 4.587156325578689575e-02 -1.819333992898464203e-02 4.384614527225494385e-02 3.413041308522224426e-02 -7.860530167818069458e-02 -1.760081388056278229e-02 -4.513334482908248901e-03 -5.048291385173797607e-02 5.258949846029281616e-02 1.010476425290107727e-02 1.737870089709758759e-02 -1.213616225868463516e-02 -4.024408385157585144e-02 -2.103501185774803162e-02 8.467500098049640656e-03 -5.458791274577379227e-03 -2.042522281408309937e-02 -5.472755804657936096e-02 1.989188790321350098e-02 5.484275892376899719e-02 -4.426418244838714600e-02 4.653911571949720383e-03 -1.247986126691102982e-02 -2.099730633199214935e-02 -2.462777309119701385e-02 4.888052120804786682e-03 1.068341080099344254e-02 -7.007747143507003784e-02 3.748247027397155762e-02 2.004963904619216919e-02 -2.637946046888828278e-03 4.690394550561904907e-02 -3.561225906014442444e-02 4.782955721020698547e-02 -3.733504936099052429e-02 -1.809439063072204590e-02 -4.572156816720962524e-03 2.591115236282348633e-02
6.037717685103416443e-02 4.199425131082534790e-02 -3.017851151525974274e-02 7.216576486825942993e-02 -1.805290952324867249e-02 2.645073458552360535e-02 -2.991055697202682495e-02 1.754066720604896545e-02 -4.528298601508140564e-02 -2.028611861169338226e-02 -8.893276564776897430e-03 2.484874101355671883e-03 -2.859523287042975426e-03 -4.558717831969261169e-03 2.861422952264547348e-03 5.080492049455642700e-02 -2.213872736319899559e-03 1.730914413928985596e-02 -5.384209100157022476e-03 -8.145661652088165283e-02 -1.970704644918441772e-02 -7.226401567459106445e-02 -3.005437739193439484e-02 7.761262357234954834e-02 -2.245465107262134552e-02 -4.534828010946512222e-03 1.427942235022783279e-02 -7.829193957149982452e-03 -3.923017159104347229e-02 -3.776224330067634583e-02 4.770899191498756409e-02 -4.797540605068206787e-02 -3.661949187517166138e-02 -2.886624634265899658e-02 7.679849863052368164e-02 -3.560647740960121155e-02 -5.214412696659564972e-03 3.018609434366226196e-02 2.558921696618199348e-03 5.860694497823715210e-02 -3.247579187154769897e-02 2.406591735780239105e-02 -2.112242579460144043e-02 -2.395602874457836151e-02 -4.799894813913851976e-04 3.384336829185485840e-02 2.566627459600567818e-03 -2.333096973598003387e-02 -3.076019138097763062e-02 -2.952003851532936096e-03 1.459011156111955643e-02 1.859149709343910217e-02 3.324163705110549927e-02 5.202751979231834412e-02 6.533295381814241409e-03 2.514151157811284065e-03 5.783181264996528625e-02 -2.385769784450531006e-02 -1.041000057011842728e-02 -4.298888146877288818e-02 -1.724553667008876801e-02 -1.264244224876165390e-02 -1.609087362885475159e-02 6.490699201822280884e-02 3.103834111243486404e-03 6.643673032522201538e-02 -3.279088065028190613e-02 -7.493632286787033081e-02 -3.106673946604132652e-03 2.558248117566108704e-02 6.293906271457672119e-02 -8.050207048654556274e-03 -3.745359554886817932e-02 1.171945780515670776e-02 -7.508838176727294922e-02 3.330595418810844421e-02 4.344687610864639282e-02 -2.358172833919525146e-02 -7.038565818220376968e-03 4.459609091281890869e-02 -8.753919973969459534e-03 3.618671000003814697e-02 -3.512480482459068298e-02 4.604242742061614990e-03 -2.873723022639751434e-02 6.940938532352447510e-03 -1.591115631163120270e-02 -7.100723683834075928e-02 -2.080032974481582642e-02 3.185971453785896301e-02 -9.591777622699737549e-02 9.253615513443946838e-03 -8.611313998699188232e-03 -5.345247313380241394e-02 1.854679919779300690e-02 -3.142323717474937439e-02 2.645512856543064117e-02 -4.710117727518081665e-02 -3.368932008743286133e-02 -6.717430055141448975e-02 3.830652916803956032e-03 -2.018609456717967987e-02 3.859599307179450989e-02 -3.242889046669006348e-02 -2.915046550333499908e-02 -4.782535508275032043e-02 6.695938110351562500e-02 6.724833697080612183e-02 -3.314338997006416321e-02 2.152737602591514587e-02 -3.815647587180137634e-02 -1.297757681459188461e-02 4.408347606658935547e-02 3.648539772257208824e-03 -5.142152681946754456e-02 -2.560762129724025726e-02 -3.030036017298698425e-02 -2.295786980539560318e-03 4.280804842710494995e-02 6.429728120565414429e-03 -1.379585731774568558e-02 1.729782670736312866e-02 1.287599839270114899e-02 -5.965565145015716553e-02 -2.029833197593688965e-02 5.902335792779922485e-02 -1.660515740513801575e-02 3.837620839476585388e-02
-4.130648821592330933e-02 3.706652671098709106e-02 6.388327479362487793e-02 -2.531439624726772308e-02 4.552780836820602417e-02 -1.246312446892261505e-02 -3.846999257802963257e-02 -2.316266298294067383e-02 -1.783522893674671650e-03 2.143223211169242859e-02 6.649316847324371338e-02 -3.707547485828399658e-02 -1.211850997060537338e-02 2.473940514028072357e-02 -1.197752729058265686e-02 -7.460287306457757950e-03 4.819115623831748962e-02 -5.722406203858554363e-04 3.053105622529983521e-02 -4.507764824666082859e-04 2.431658282876014709e-02 1.375124417245388031e-02 -1.984589733183383942e-03 8.302862755954265594e-03 2.760648727416992188e-03 -2.411809936165809631e-02 -5.372199229896068573e-03 5.494408309459686279e-03 -1.064064353704452515e-02 -1.751798018813133240e-02 7.985253818333148956e-03 1.440607709810137749e-03 2.650362905114889145e-03 -2.707137726247310638e-02 -4.424035921692848206e-02 -1.271752547472715378e-02 -3.290788829326629639e-02 -6.243830546736717224e-02 5.903149023652076721e-03 -7.280951738357543945e-02 -3.337638452649116516e-02 1.085762400180101395e-03 2.164743468165397644e-02 -2.170788124203681946e-02 2.818781323730945587e-02 -5.731084197759628296e-02 2.355993725359439850e-03 -1.367247011512517929e-02 2.859475649893283844e-02 1.189777534455060959e-02 -4.234744608402252197e-02 2.125582657754421234e-03 -1.596203818917274475e-02 -1.113137230277061462e-02 -5.428477190434932709e-03 -2.421859279274940491e-02 5.361761432141065598e-03 -1.287745777517557144e-03 -1.262373384088277817e-02 5.901531502604484558e-02 2.833911683410406113e-03 -7.529954612255096436e-02 3.076641820371150970e-02 -1.093615405261516571e-02 -2.822353132069110870e-02 4.066461324691772461e-02 1.080337911844253540e-02 2.559665590524673462e-02 4.402414336800575256e-02 1.391032058745622635e-02 1.113094948232173920e-02 3.486513718962669373e-02 3.834613040089607239e-02 4.138602316379547119e-02 5.495744943618774414e-02 7.256064098328351974e-03 -1.120266970247030258e-02 -7.666057348251342773e-02 -7.761138491332530975e-03 6.151666864752769470e-02 -2.342272637179121375e-04 2.319782786071300507e-02 6.239524111151695251e-02 -2.434257650747895241e-03 -3.180487081408500671e-02 -1.670749299228191376e-02 4.902237560600042343e-03 -1.760937646031379700e-02 1.842817477881908417e-02 -3.734695911407470703e-02 1.320871378993615508e-04 4.498123005032539368e-02 1.738097891211509705e-02 -4.142643511295318604e-02 -5.490065086632966995e-03 6.922869477421045303e-03 -7.932022213935852051e-03 6.797990202903747559e-02 4.708679020404815674e-02 1.262914389371871948e-02 -2.193151786923408508e-02 -6.092222779989242554e-02 -7.232257630676031113e-03 1.736859790980815887e-02 -3.327785432338714600e-02 -4.760627448558807373e-02 -8.448638767004013062e-02 -1.669696532189846039e-02 1.200548559427261353e-02 5.747422203421592712e-02 -5.155735416337847710e-04 -2.140348218381404877e-02 -1.606555841863155365e-02 -1.657889783382415771e-02 1.221775449812412262e-02 -6.299898773431777954e-02 -4.088605567812919617e-02 -3.038843534886837006e-02 -2.075788006186485291e-02 -1.208473928272724152e-02 1.442081015557050705e-02 -1.096263155341148376e-02 6.390031427145004272e-02 -1.609154604375362396e-02 -1.124125905334949493e-02 2.703894302248954773e-02 9.805330634117126465e-02 1.545067504048347473e-02
