-5.007879808545112610e-02 1.091662235558032990e-02 -2.436962909996509552e-02 1.684768125414848328e-02 5.631969869136810303e-02 -1.754452101886272430e-02 1.104381168261170387e-03 1.783965900540351868e-02 -1.788310520350933075e-02 1.978152059018611908e-02 4.339693114161491394e-02 -2.213306352496147156e-02 8.167852647602558136e-03 7.279486395418643951e-03 -2.650614269077777863e-02 5.868509411811828613e-03 -4.202067106962203979e-02 2.115839347243309021e-02 -1.094259321689605713e-02 3.736862540245056152e-02 2.264952659606933594e-02 -1.905823685228824615e-02 -3.573439782485365868e-03 -1.310405135154724121e-02 5.056883767247200012e-02 -8.130401372909545898e-03 -2.854189090430736542e-02 3.356055542826652527e-02 1.194357406347990036e-02 1.189566450193524361e-03 -2.680916711688041687e-02 -1.041242014616727829e-02 2.478254260495305061e-03 2.931855991482734680e-02 6.834263913333415985e-03 -3.112774156033992767e-02 -3.842463716864585876e-02 1.703614927828311920e-02 3.328224271535873413e-02 -2.333316951990127563e-02 7.051456719636917114e-02 -4.099290445446968079e-02 2.253082767128944397e-02 1.412161625921726227e-02 -6.101899594068527222e-02 -2.430960536003112793e-02 1.277431193739175797e-02 2.985609229654073715e-03 -3.366560116410255432e-02 3.144092112779617310e-02 -1.428421586751937866e-02 1.761750690639019012e-02 1.799519360065460205e-02 8.664696477353572845e-03 3.189563576597720385e-04 1.964926160871982574e-02 -1.975392922759056091e-02 3.237535059452056885e-02 1.981962285935878754e-02 -7.541191577911376953e-02 2.417250722646713257e-02 1.527080312371253967e-02 2.199922688305377960e-02 -3.820996358990669250e-02 8.201995864510536194e-03 -4.312452673912048340e-02 1.014411100186407566e-03 -4.426260478794574738e-03 -2.927318774163722992e-02 -2.216849662363529205e-02 -1.211217325180768967e-02 -2.203810028731822968e-03 -3.968662349507212639e-04 1.405561529099941254e-02 4.460760951042175293e-02 -4.920371994376182556e-02 6.733930669724941254e-03 6.816663593053817749e-02 -6.187820434570312500e-02 -1.641190424561500549e-02 -1.388591993600130081e-02 -2.368321456015110016e-02 4.636738821864128113e-02 -6.301867775619029999e-03 2.823449671268463135e-02 7.495228201150894165e-03 1.944062300026416779e-02 -7.947012782096862793e-04 -2.688780985772609711e-02 -1.950827054679393768e-02 2.856650017201900482e-02 1.179866585880517960e-02 -8.986865286715328693e-04 3.700875118374824524e-02 1.896216720342636108e-02 2.834991086274385452e-03 1.163624413311481476e-02 6.167915649712085724e-03 8.978410623967647552e-03 2.349079214036464691e-02 7.819154299795627594e-03 -2.949417755007743835e-02 -1.745089888572692871e-02 3.533879294991493225e-02 -5.181585438549518585e-03 2.894280944019556046e-03 -2.867076173424720764e-02 -3.648360073566436768e-02 -4.871197510510683060e-03 -2.366196364164352417e-02 4.860000684857368469e-02 1.548052392899990082e-02 3.143803402781486511e-02 -3.354511037468910217e-02 1.750862039625644684e-02 -3.082796320086345077e-05 -2.127979969372972846e-04 3.061243146657943726e-02 -5.466318223625421524e-03 -1.903287507593631744e-02 -2.954631811007857323e-03 -1.736334338784217834e-02 4.438162595033645630e-02 3.380956500768661499e-02 4.868509620428085327e-02 2.663563645910471678e-05 -1.787930913269519806e-02 3.295829892158508301e-02
-4.279067739844322205e-03 7.103687385097146034e-04 1.626218669116497040e-02 -4.363560304045677185e-02 -4.086092114448547363e-02 -1.566543825902044773e-03 1.186066213995218277e-02 -1.432729512453079224e-02 6.365050375461578369e-02 1.871294900774955750e-02 -2.124870009720325470e-02 2.315709739923477173e-02 -1.366541138850152493e-03 -2.034895680844783783e-02 6.588790565729141235e-03 1.723973639309406281e-02 1.311435457319021225e-02 -9.604006074368953705e-03 2.182175638154149055e-03 5.118004977703094482e-03 -1.451715547591447830e-02 1.269976887851953506e-02 3.140166774392127991e-02 -1.680309511721134186e-02 -1.895065046846866608e-02 -5.492780357599258423e-03 2.337539754807949066e-02 1.237248349934816360e-02 -2.751527540385723114e-02 7.707533077336847782e-04 1.109205186367034912e-02 4.214388318359851837e-03 -3.511242102831602097e-03 -1.026706025004386902e-02 -1.810546219348907471e-02 4.911605641245841980e-02 2.642043679952621460e-02 1.387290842831134796e-02 -6.939636659808456898e-04 4.449108242988586426e-02 -1.063841991708613932e-04 -4.647152498364448547e-02 -1.870297640562057495e-02 4.649464506655931473e-03 6.383301690220832825e-03 -2.070665545761585236e-02 -1.256650779396295547e-02 -5.123476963490247726e-03 -1.859020628035068512e-02 -4.397287499159574509e-03 3.895574063062667847e-02 -1.917113177478313446e-02 -5.112785845994949341e-02 3.122802264988422394e-02 -4.051738418638706207e-03 2.499730512499809265e-02 -1.197348535060882568e-02 3.382870927453041077e-02 -2.274915762245655060e-02 -1.567290979437530041e-03 7.945075631141662598e-03 -1.010463107377290726e-02 -2.400225773453712463e-02 -9.380262345075607300e-03 3.918873891234397888e-02 -3.473178669810295105e-02 -1.409807242453098297e-02 1.058755721896886826e-02 -5.356239899992942810e-02 -2.484242059290409088e-02 2.928998088464140892e-03 -1.044038776308298111e-02 -1.956423185765743256e-02 2.696831710636615753e-02 4.064549133181571960e-02 2.736192382872104645e-02 3.557053580880165100e-02 -1.188917923718690872e-02 1.001562364399433136e-02 -1.972524635493755341e-02 -6.140632089227437973e-03 -3.219531849026679993e-02 -5.439368262887001038e-02 -1.202191039919853210e-02 4.649083316326141357e-02 3.620270639657974243e-02 -4.329632967710494995e-03 1.211192552000284195e-02 -6.240712106227874756e-02 4.250532761216163635e-02 9.573074989020824432e-03 -1.001395750790834427e-02 -3.401722991839051247e-03 -1.831240206956863403e-02 -8.559763431549072266e-03 -2.546867355704307556e-02 -2.406795509159564972e-02 2.919038012623786926e-02 -2.843915298581123352e-02 2.031427249312400818e-02 4.217592626810073853e-02 -1.712097600102424622e-02 7.797743659466505051e-03 -3.598869545385241508e-03 6.816454231739044189e-02 1.749547384679317474e-02 2.179528400301933289e-02 -4.127133637666702271e-03 2.233822271227836609e-02 -1.251426246017217636e-02 3.609367832541465759e-02 1.614391803741455078e-02 5.574181675910949707e-02 -1.152680721133947372e-02 1.567381084896624088e-03 -1.502518728375434875e-02 5.837845802307128906e-02 1.690985448658466339e-02 -3.405126184225082397e-02 1.452865824103355408e-02 3.070817701518535614e-02 -9.236508980393409729e-03 -3.052927739918231964e-02 5.559028126299381256e-03 3.162212297320365906e-02 2.565646916627883911e-02 -2.217505872249603271e-02 -1.636383356526494026e-03
-8.988657034933567047e-03 -6.999685894697904587e-03 -3.920386079698801041e-03 -1.872935332357883453e-02 -4.584451206028461456e-03 1.793309114873409271e-02 -7.592437323182821274e-04 -1.898626238107681274e-02 -3.776551410555839539e-02 5.565802101045846939e-03 1.267961133271455765e-02 -1.389217656105756760e-02 -1.034093368798494339e-02 6.951660662889480591e-02 1.365388650447130203e-02 -3.265401721000671387e-02 1.476672664284706116e-02 -3.070884384214878082e-03 -8.462467230856418610e-03 -3.139953687787055969e-02 1.125375181436538696e-02 -3.638639464043080807e-04 -9.329286403954029083e-03 -5.398043897002935410e-03 -1.423427928239107132e-02 2.580312639474868774e-02 2.770740538835525513e-02 -5.604335293173789978e-02 -3.535373881459236145e-02 -1.943443529307842255e-02 -5.772273521870374680e-03 1.769174262881278992e-02 -2.217540517449378967e-02 1.495377533137798309e-02 3.847435116767883301e-02 3.223983570933341980e-02 1.523843407630920410e-02 2.041475474834442139e-02 -7.025979459285736084e-02 -2.303910627961158752e-02 4.650109261274337769e-02 -1.743043772876262665e-02 1.423102430999279022e-02 2.059127204120159149e-02 -1.867432147264480591e-02 8.975552394986152649e-03 -2.569028548896312714e-02 -2.060109935700893402e-02 3.509113192558288574e-02 -2.353453077375888824e-03 -3.960818052291870117e-02 -2.731045335531234741e-02 2.264175377786159515e-02 2.039935626089572906e-02 -3.274800255894660950e-02 -4.985146224498748779e-03 1.050409488379955292e-02 -5.052685365080833435e-02 -2.842052653431892395e-02 -4.687960725277662277e-03 -3.355580568313598633e-02 7.372471503913402557e-03 4.642345383763313293e-02 3.917656466364860535e-02 5.686498247087001801e-03 9.365288540720939636e-03 -1.322930958122014999e-02 5.215040873736143112e-03 2.194304205477237701e-02 1.655717939138412476e-02 -1.496850699186325073e-02 5.107008665800094604e-02 4.644999653100967407e-02 8.879879489541053772e-03 -1.558031700551509857e-02 -7.343419827520847321e-03 -2.050603739917278290e-02 5.687967687845230103e-02 1.102031581103801727e-02 5.660368129611015320e-03 -1.872670836746692657e-02 2.077344991266727448e-02 1.506875455379486084e-02 -6.594061106443405151e-02 -1.302390918135643005e-02 6.834226078353822231e-04 5.206548422574996948e-02 3.567328676581382751e-02 1.028410624712705612e-02 -1.031776703894138336e-02 1.092507876455783844e-02 -3.016647137701511383e-02 -2.807168522849678993e-03 1.128474250435829163e-02 -1.714008115231990814e-02 4.494290798902511597e-02 -2.617067843675613403e-02 8.194838650524616241e-03 -9.575622156262397766e-03 -9.270538575947284698e-03 1.053355541080236435e-02 -2.538343705236911774e-02 -1.511181984096765518e-02 1.992985978722572327e-02 -1.438225433230400085e-02 5.574231036007404327e-03 7.137491833418607712e-03 4.253002256155014038e-02 -8.426970802247524261e-03 -1.062291115522384644e-02 6.325882393866777420e-03 -6.271649152040481567e-03 -6.352428346872329712e-02 5.126358196139335632e-02 -8.551591075956821442e-03 3.115762770175933838e-02 -1.370484754443168640e-02 7.046930491924285889e-02 2.019679360091686249e-02 6.189126148819923401e-02 -4.506972152739763260e-03 -7.417168933898210526e-03 1.537214126437902451e-02 -6.201182957738637924e-03 7.777308579534292221e-03 1.277516689151525497e-02 8.040443994104862213e-03 -1.440391689538955688e-02
6.964049302041530609e-03 1.233802735805511475e-02 2.881478518247604370e-02 1.935045234858989716e-03 7.609820924699306488e-03 -6.114570423960685730e-03 3.194732964038848877e-02 6.839341949671506882e-03 -2.822560817003250122e-02 1.186603121459484100e-02 2.306884527206420898e-02 -2.479457482695579529e-02 4.120347555726766586e-03 1.262523885816335678e-02 -2.449571527540683746e-02 -3.360529243946075439e-02 2.555933967232704163e-02 3.458311036229133606e-02 3.766189888119697571e-02 5.664241500198841095e-03 -2.487453632056713104e-02 -5.575206596404314041e-03 4.794211592525243759e-03 -1.092333346605300903e-02 2.249477058649063110e-02 -2.819948829710483551e-02 -1.187283918261528015e-02 -4.725581966340541840e-04 1.251035835593938828e-02 -3.122950531542301178e-02 -2.315361611545085907e-02 -5.596645642071962357e-03 -2.546365605667233467e-03 1.376326102763414383e-02 1.599313132464885712e-02 -1.064099650830030441e-02 3.495068475604057312e-02 -7.656425703316926956e-03 -3.925138711929321289e-02 -5.108826793730258942e-03 1.441530417650938034e-02 1.150960475206375122e-02 1.467038760893046856e-03 -3.507613670080900192e-03 -1.541025564074516296e-02 -2.424662932753562927e-02 1.414394192397594452e-02 9.981503710150718689e-03 -4.117069300264120102e-03 -1.090025622397661209e-02 -3.135002404451370239e-02 1.546477992087602615e-02 -1.367475464940071106e-02 8.413586765527725220e-03 1.348071079701185226e-02 -3.926423378288745880e-03 1.192898117005825043e-02 -1.615564711391925812e-02 1.644625701010227203e-02 2.439233288168907166e-02 6.389523856341838837e-03 1.576789189130067825e-03 1.134581025689840317e-02 -6.561767309904098511e-03 -1.787065714597702026e-02 -1.077329646795988083e-02 1.502476539462804794e-02 1.573719084262847900e-02 4.119583591818809509e-02 -2.235386054962873459e-03 -3.876327723264694214e-02 -4.251242056488990784e-02 4.460046812891960144e-02 -2.393057569861412048e-02 2.630995819345116615e-03 -5.650617647916078568e-03 -1.123742945492267609e-02 -1.918916963040828705e-02 2.592348679900169373e-02 8.984806947410106659e-03 1.516253873705863953e-02 1.773738674819469452e-02 2.677306160330772400e-02 -2.480772137641906738e-02 3.803210100159049034e-03 -2.475409746693912894e-05 1.429513096809387207e-02 3.514786250889301300e-03 6.022077053785324097e-03 -1.847410947084426880e-02 1.452878955751657486e-02 -4.410658497363328934e-03 -1.512464601546525955e-02 -1.092836074531078339e-02 -7.138262502849102020e-03 -2.620501071214675903e-02 2.047540619969367981e-02 2.504935488104820251e-02 -6.931187584996223450e-03 6.967262364923954010e-03 3.158691152930259705e-02 -4.716503899544477463e-03 -1.881851628422737122e-02 2.766494872048497200e-03 -4.384759813547134399e-02 3.069523535668849945e-02 -3.402488306164741516e-03 2.852270379662513733e-03 -1.955511607229709625e-02 -2.505914308130741119e-02 8.526987396180629730e-03 7.222694344818592072e-03 -4.165440332144498825e-03 -2.354125119745731354e-02 2.238223329186439514e-02 3.185366094112396240e-02 -5.586773477261886001e-05 -7.307357620447874069e-03 2.129085361957550049e-02 -1.284540724009275436e-02 -5.157618783414363861e-03 -5.359969101846218109e-03 1.694524101912975311e-02 -2.567040175199508667e-02 4.393514711409807205e-03 1.472583226859569550e-02 2.951789461076259613e-02 1.050573214888572693e-02
4.559341818094253540e-02 2.251967228949069977e-02 4.641324654221534729e-02 5.363536998629570007e-03 -7.049947511404752731e-03 3.866335004568099976e-02 4.202050715684890747e-02 -2.810127288103103638e-02 -1.155499741435050964e-02 -2.524451166391372681e-02 4.401306435465812683e-02 -6.491048727184534073e-03 5.070611461997032166e-02 -3.674609353765845299e-03 -7.326597115024924278e-04 2.999645099043846130e-02 -1.879876479506492615e-02 5.071720108389854431e-02 3.628770634531974792e-02 3.347979858517646790e-02 1.996958442032337189e-02 -5.905265919864177704e-03 1.233888440765440464e-03 -4.336412250995635986e-02 5.599391832947731018e-02 1.293851295486092567e-03 -2.125837653875350952e-02 1.237940881401300430e-02 7.242951076477766037e-03 -3.203776897862553596e-03 5.115680396556854248e-03 5.116266757249832153e-02 2.999118063598871231e-03 -1.273184362798929214e-02 2.494134940207004547e-02 1.899860426783561707e-02 -1.275388337671756744e-02 8.340991334989666939e-04 9.517265483736991882e-03 -2.360927313566207886e-02 1.195714622735977173e-02 4.697977751493453979e-02 2.609304524958133698e-02 6.917061982676386833e-04 1.680823229253292084e-02 -3.776074573397636414e-02 -2.022494934499263763e-02 -7.139002438634634018e-03 3.367154300212860107e-02 -8.629839867353439331e-02 -4.428298026323318481e-02 -3.986268490552902222e-02 2.855562046170234680e-02 -3.741056099534034729e-02 -2.688290551304817200e-02 1.095369271934032440e-02 -1.204749941825866699e-02 1.572287292219698429e-03 -1.813356950879096985e-02 1.073905825614929199e-02 -1.199966063722968102e-03 -1.618247851729393005e-02 -2.513484843075275421e-02 5.225831177085638046e-03 -3.163948189467191696e-03 -3.620457649230957031e-02 2.691871114075183868e-02 2.583572268486022949e-02 1.962400041520595551e-02 2.191071864217519760e-03 3.706763684749603271e-02 -2.254642359912395477e-02 1.319081895053386688e-02 -5.314859095960855484e-03 -1.002282649278640747e-02 -2.133212750777602196e-03 -2.493864670395851135e-02 9.163484908640384674e-03 1.588440686464309692e-02 -3.301294147968292236e-02 3.788147866725921631e-02 4.292039573192596436e-02 -1.511995360488072038e-04 -1.864919625222682953e-02 -3.280069911852478981e-03 2.074835821986198425e-02 -4.412287101149559021e-02 1.022560428828001022e-02 9.279565885663032532e-03 3.718553483486175537e-02 -4.482119344174861908e-03 -8.721457794308662415e-03 -2.401335537433624268e-02 4.546100739389657974e-03 -2.620286494493484497e-02 2.776649035513401031e-02 1.573507487773895264e-02 -1.061209011822938919e-02 5.547028034925460815e-03 1.083949767053127289e-02 -2.311720512807369232e-02 -3.406127169728279114e-02 1.780696213245391846e-02 2.134626917541027069e-02 -5.795849859714508057e-02 1.524762716144323349e-02 -1.324270665645599365e-02 1.676604710519313812e-02 -1.932113431394100189e-02 1.659483183175325394e-03 -2.163987234234809875e-02 -2.148634195327758789e-02 -2.795389667153358459e-02 -1.186030358076095581e-02 -1.634785160422325134e-02 3.887838870286941528e-02 -1.459181960672140121e-02 1.470959652215242386e-02 -3.013860061764717102e-02 -4.376684129238128662e-02 5.834461189806461334e-03 9.064894169569015503e-03 4.174103960394859314e-03 -3.742352500557899475e-02 1.587434485554695129e-02 -1.418475992977619171e-02 2.420247718691825867e-02 -1.029149536043405533e-02
1.400811318308115005e-02 -1.624599844217300415e-02 1.650760509073734283e-02 -1.223476510494947433e-02 1.850879937410354614e-02 3.561883047223091125e-02 1.796189136803150177e-02 -2.926588989794254303e-02 -1.054605003446340561e-02 2.516943961381912231e-02 -4.426101688295602798e-03 1.133464090526103973e-02 6.014632433652877808e-02 5.051597580313682556e-02 -5.294312257319688797e-03 -2.922305837273597717e-02 -2.354380488395690918e-02 -9.899275377392768860e-03 1.661956124007701874e-02 9.798134677112102509e-03 -2.102463692426681519e-02 3.477516025304794312e-02 2.234976273030042648e-03 1.850674301385879517e-02 2.351870201528072357e-02 -1.751729100942611694e-02 2.579374425113201141e-02 1.228133961558341980e-02 7.418782263994216919e-02 -2.252052538096904755e-02 -3.745244815945625305e-02 1.450072042644023895e-02 -2.104818262159824371e-02 7.487605512142181396e-02 1.673673465847969055e-02 1.801654882729053497e-02 -1.841698400676250458e-02 -6.009779497981071472e-02 -1.606426015496253967e-02 -2.512963302433490753e-02 2.520178444683551788e-02 5.889050289988517761e-02 -2.497287280857563019e-02 9.211469441652297974e-03 2.257288806140422821e-02 -1.350934617221355438e-02 1.021102070808410645e-02 1.277338014915585518e-03 -1.382990926504135132e-02 -2.783184498548507690e-02 1.009806059300899506e-02 5.209287628531455994e-03 1.606409437954425812e-02 -2.708248794078826904e-03 4.784553870558738708e-02 -3.868457674980163574e-02 -7.911714725196361542e-03 -1.573792845010757446e-02 -6.999969482421875000e-03 2.631019800901412964e-03 -1.714081130921840668e-02 -3.828333318233489990e-02 2.841227687895298004e-03 3.145710378885269165e-02 3.276905044913291931e-02 7.453812286257743835e-03 5.689412821084260941e-03 -1.705913804471492767e-02 -1.456762757152318954e-02 4.194299253867939115e-05 2.244233712553977966e-02 -3.676056489348411560e-02 -2.981443190947175026e-03 -2.491915971040725708e-02 8.846252603689208627e-05 -2.823306061327457428e-02 9.942824020981788635e-03 -5.684081465005874634e-03 2.946580387651920319e-02 -2.085455693304538727e-03 -6.824163254350423813e-03 -2.575037628412246704e-02 3.136532381176948547e-02 2.205485664308071136e-02 -2.250507846474647522e-02 -2.492965199053287506e-03 -2.838964015245437622e-02 2.654972299933433533e-02 2.774836868047714233e-02 -1.527574099600315094e-02 2.699891291558742523e-02 -1.622756756842136383e-02 4.188047349452972412e-02 3.035644814372062683e-02 -6.554657965898513794e-02 -1.169798150658607483e-02 -1.272893510758876801e-02 -3.603091090917587280e-02 3.936680033802986145e-02 4.281242378056049347e-03 1.923564821481704712e-02 -1.711495220661163330e-02 -2.909506671130657196e-02 -8.143888786435127258e-03 1.167461089789867401e-02 -8.998214267194271088e-03 -1.600294932723045349e-02 -3.683653846383094788e-02 2.688109502196311951e-02 3.872565925121307373e-02 -2.802002243697643280e-02 8.909702301025390625e-04 -7.458980195224285126e-03 -2.670686505734920502e-02 -2.124382741749286652e-02 -1.514206174761056900e-02 1.323702652007341385e-02 -4.817958176136016846e-02 1.625802554190158844e-02 6.242527626454830170e-03 -1.760199549607932568e-03 2.648745663464069366e-02 -2.468886598944664001e-02 3.765906020998954773e-02 -1.815680041909217834e-02 -7.576165720820426941e-03 -1.531184837222099304e-02 2.155850082635879517e-02
3.414095938205718994e-02 3.189868852496147156e-02 -1.769629493355751038e-02 4.937443509697914124e-02 1.382571295835077763e-03 2.253452315926551819e-02 -2.146145328879356384e-02 1.752711646258831024e-02 -3.115592151880264282e-02 -1.186203956604003906e-02 3.415864892303943634e-03 -1.564475521445274353e-02 -1.825943123549222946e-03 3.929574973881244659e-03 -9.429492056369781494e-03 3.999448567628860474e-02 -5.179760046303272247e-03 2.155777998268604279e-02 2.606597729027271271e-03 -6.636781990528106689e-02 -1.142022572457790375e-02 -6.961692124605178833e-02 -3.276733309030532837e-02 4.902658611536026001e-02 -7.472628261893987656e-03 -1.377106737345457077e-02 9.825747460126876831e-03 4.668778274208307266e-03 -2.636815607547760010e-02 -3.783103823661804199e-02 2.463311329483985901e-02 -3.783925995230674744e-02 -3.150677308440208435e-02 -2.915059775114059448e-02 5.561114475131034851e-02 -1.648850552737712860e-02 -2.554210647940635681e-02 2.473315782845020294e-02 8.039436303079128265e-03 3.597863391041755676e-02 -2.335193753242492676e-02 1.531905960291624069e-02 -1.236459333449602127e-02 -1.916557364165782928e-02 7.345306221395730972e-03 1.957637630403041840e-02 6.793252541683614254e-04 -2.043074928224086761e-02 -2.078504301607608795e-02 -1.294507738202810287e-02 -2.114836592227220535e-03 8.680112659931182861e-03 2.858908660709857941e-02 3.669537603855133057e-02 -1.796566997654736042e-03 9.391769417561590672e-04 4.641860723495483398e-02 -1.967167109251022339e-02 -9.258613921701908112e-03 -3.749153390526771545e-02 -2.085342258214950562e-02 -8.505845442414283752e-03 -8.470753207802772522e-03 5.194251611828804016e-02 -1.935527310706675053e-03 5.293839797377586365e-02 -2.756822481751441956e-02 -5.761221051216125488e-02 2.611271338537335396e-03 2.102272585034370422e-02 4.477990791201591492e-02 -9.338175877928733826e-03 -2.181425690650939941e-02 1.080347690731287003e-02 -5.851195007562637329e-02 3.163802623748779297e-02 3.074655309319496155e-02 -1.586492545902729034e-02 -1.877390220761299133e-02 3.094089031219482422e-02 -4.678512457758188248e-03 2.838893793523311615e-02 -1.418870128691196442e-02 -5.289888475090265274e-03 -1.165692601352930069e-02 6.151911336928606033e-03 -1.610951498150825500e-02 -5.793287605047225952e-02 -1.275468990206718445e-02 1.685725525021553040e-02 -7.293532043695449829e-02 1.193196699023246765e-02 -1.103571429848670959e-02 -3.688789159059524536e-02 9.933680295944213867e-03 -2.615205757319927216e-02 2.010010369122028351e-02 -3.101342357695102692e-02 -2.730469591915607452e-02 -4.641883447766304016e-02 4.821658600121736526e-03 -1.969229616224765778e-02 2.483087964355945587e-02 -2.527638711035251617e-02 -3.561527281999588013e-02 -4.404984042048454285e-02 5.397938191890716553e-02 4.688433557748794556e-02 -2.521087229251861572e-02 1.876560412347316742e-02 -2.338927611708641052e-02 -1.098370086401700974e-02 3.849145397543907166e-02 2.599061233922839165e-03 -4.143486917018890381e-02 -1.933040097355842590e-02 -2.308258414268493652e-02 1.522300881333649158e-03 3.883862495422363281e-02 1.648285688133910298e-04 -8.056659251451492310e-03 2.239598892629146576e-02 1.688167639076709747e-02 -4.971183091402053833e-02 -9.803087450563907623e-03 5.051367357373237610e-02 -5.817257333546876907e-04 3.302514925599098206e-02
-3.127464652061462402e-02 2.694707736372947693e-02 4.639855399727821350e-02 -6.739929667674005032e-04 2.386407554149627686e-02 -1.570837385952472687e-02 -2.608151547610759735e-02 -1.770509220659732819e-02 -8.689786307513713837e-03 1.864887960255146027e-02 4.231514036655426025e-02 -2.619550190865993500e-02 -2.733251603785902262e-04 1.441846042871475220e-02 -1.260398421436548233e-02 -8.856671629473567009e-04 3.800528869032859802e-02 -7.656284607946872711e-03 2.093450352549552917e-02 8.514372166246175766e-04 6.624489091336727142e-03 4.199982620775699615e-03 5.520653445273637772e-03 5.290878005325794220e-03 5.160280037671327591e-03 -1.259252615272998810e-02 -1.660943590104579926e-02 1.507054665125906467e-03 2.680548699572682381e-03 -1.984943822026252747e-02 -1.045165001414716244e-03 1.306542661041021347e-03 2.442623721435666084e-03 7.798906299285590649e-04 -2.715929225087165833e-02 -1.148722972720861435e-02 -1.436721719801425934e-02 -3.567752614617347717e-02 -3.258274518884718418e-04 -4.759518429636955261e-02 -1.628443785011768341e-02 -8.045056601986289024e-04 1.201353874057531357e-02 -1.110747270286083221e-02 1.385770831257104874e-02 -5.168386921286582947e-02 -7.155405823141336441e-03 -1.005319040268659592e-02 2.140988036990165710e-02 2.562708919867873192e-03 -3.277180343866348267e-02 2.269520424306392670e-03 -1.782031916081905365e-02 5.418810527771711349e-03 1.077385526150465012e-02 -6.743776611983776093e-03 9.445088915526866913e-03 -1.214335951954126358e-02 -4.425540566444396973e-03 3.523826226592063904e-02 3.842979203909635544e-03 -5.897040292620658875e-02 2.172177098691463470e-02 -6.979926023632287979e-03 -5.744323134422302246e-03 3.679847344756126404e-02 9.386101737618446350e-03 9.906686842441558838e-03 1.695525832474231720e-02 5.080379545688629150e-03 1.242039143107831478e-03 1.623432338237762451e-02 1.977897062897682190e-02 1.562093663960695267e-02 3.392257168889045715e-02 9.967053774744272232e-04 -1.101766526699066162e-02 -5.095843598246574402e-02 -7.565882056951522827e-03 3.316360339522361755e-02 -4.502248484641313553e-03 1.287271082401275635e-02 5.307878181338310242e-02 -8.571815676987171173e-03 -2.647298946976661682e-02 -3.454062389209866524e-03 6.725332234054803848e-03 -1.363009586930274963e-02 1.513384189456701279e-02 -2.279643155634403229e-02 5.380735732614994049e-03 2.549152635037899017e-02 1.122193317860364914e-02 -2.201973274350166321e-02 -1.320341229438781738e-02 1.525143510662019253e-03 -4.999944940209388733e-03 5.250144377350807190e-02 2.962377667427062988e-02 2.502489136531949043e-03 -8.199291303753852844e-03 -4.738138988614082336e-02 6.023833993822336197e-03 1.710761897265911102e-02 -2.942013926804065704e-02 -2.905238792300224304e-02 -7.058259844779968262e-02 -1.623359881341457367e-02 1.654807291924953461e-02 4.411169886589050293e-02 -5.641890224069356918e-03 -7.448099553585052490e-03 -1.386906206607818604e-02 -1.658272556960582733e-02 1.418320555239915848e-02 -4.979021102190017700e-02 -3.635720536112785339e-02 -1.666809059679508209e-02 -5.841637495905160904e-03 -9.312186739407479763e-04 2.195799350738525391e-02 -8.063055574893951416e-03 4.583204537630081177e-02 2.146600512787699699e-03 -3.018555929884314537e-03 2.362189814448356628e-02 6.761191040277481079e-02 6.698639597743749619e-03
