-5.836641788482666016e-02 7.388995960354804993e-03 -2.774847857654094696e-02 2.133590728044509888e-02 6.797075271606445312e-02 -2.710841409862041473e-02 1.769206020981073380e-03 2.231408096849918365e-02 -2.061652019619941711e-02 2.324034273624420166e-02 4.910970851778984070e-02 -2.241712622344493866e-02 8.945774286985397339e-03 4.868246149271726608e-03 -2.413392998278141022e-02 4.895888268947601318e-03 -5.426999181509017944e-02 1.873295567929744720e-02 -1.059242524206638336e-02 4.712485894560813904e-02 2.696106582880020142e-02 -2.311719395220279694e-02 -2.509116660803556442e-03 -1.931235380470752716e-02 6.208670139312744141e-02 -9.182837791740894318e-03 -2.954238094389438629e-02 4.049913585186004639e-02 1.089200098067522049e-02 5.955772940069437027e-03 -3.148462250828742981e-02 -1.297979895025491714e-02 1.072779530659317970e-03 3.352292254567146301e-02 1.569363404996693134e-03 -2.954289130866527557e-02 -4.730669781565666199e-02 2.310346439480781555e-02 4.735067859292030334e-02 -2.742136828601360321e-02 8.555459976196289062e-02 -4.992725700139999390e-02 3.032430820167064667e-02 2.079348452389240265e-02 -7.476770877838134766e-02 -3.028403222560882568e-02 1.315701287239789963e-02 6.230887025594711304e-03 -4.956489801406860352e-02 3.240518271923065186e-02 -1.086777076125144958e-02 2.329329028725624084e-02 2.017967216670513153e-02 1.123960874974727631e-02 3.460174892097711563e-03 2.278327755630016327e-02 -3.093309141695499420e-02 3.940155357122421265e-02 2.304815687239170074e-02 -9.276145696640014648e-02 3.061521612107753754e-02 2.088635601103305817e-02 2.414954453706741333e-02 -5.523898825049400330e-02 9.212785400450229645e-03 -5.167312920093536377e-02 5.797668825834989548e-03 -2.646901179105043411e-03 -3.815944492816925049e-02 -2.865509316325187683e-02 -2.015055716037750244e-02 -8.274872787296772003e-03 -8.663366548717021942e-03 1.658594422042369843e-02 5.566923692822456360e-02 -5.761895328760147095e-02 5.961600225418806076e-03 8.106939494609832764e-02 -7.681896537542343140e-02 -2.657615020871162415e-02 -1.294424198567867279e-02 -3.468091785907745361e-02 5.953983217477798462e-02 -8.771448396146297455e-03 3.770125284790992737e-02 1.342014130204916000e-02 2.290944382548332214e-02 -2.660321071743965149e-03 -3.113020956516265869e-02 -2.746600285172462463e-02 3.698929771780967712e-02 1.257086638361215591e-02 3.178708488121628761e-03 5.429637432098388672e-02 2.012271247804164886e-02 2.887002890929579735e-03 1.027797255665063858e-02 4.693071357905864716e-03 1.037512812763452530e-02 3.426931425929069519e-02 1.727806054987013340e-03 -2.784739248454570770e-02 -2.096344158053398132e-02 4.392455518245697021e-02 -3.408754477277398109e-03 2.150029409676790237e-03 -3.557606041431427002e-02 -4.811077192425727844e-02 -5.119465291500091553e-03 -3.090583346784114838e-02 5.855400115251541138e-02 1.410400494933128357e-02 3.722204640507698059e-02 -3.702133893966674805e-02 1.793327555060386658e-02 -1.348905730992555618e-03 1.135414931923151016e-03 4.192040488123893738e-02 -1.061426009982824326e-02 -2.689858153462409973e-02 -2.320839092135429382e-03 -1.653715781867504120e-02 5.313454568386077881e-02 4.215448349714279175e-02 5.663284286856651306e-02 -3.966311458498239517e-03 -2.751378901302814484e-02 4.035617038607597351e-02
-2.753746928647160530e-03 9.951483225449919701e-04 1.747133769094944000e-02 -5.207688733935356140e-02 -4.732850193977355957e-02 -8.774572634138166904e-04 1.296229567378759384e-02 -1.555154100060462952e-02 6.638529896736145020e-02 1.983046159148216248e-02 -2.459952607750892639e-02 1.979699917137622833e-02 -1.416495535522699356e-03 -2.722953818738460541e-02 5.153263919055461884e-03 2.124429866671562195e-02 1.820262894034385681e-02 -4.597295541316270828e-03 6.601638160645961761e-04 7.715755142271518707e-03 -1.212503015995025635e-02 2.123060077428817749e-02 3.869555518031120300e-02 -2.175134047865867615e-02 -2.484615705907344818e-02 -5.225684959441423416e-03 1.423502620309591293e-02 5.354542750865221024e-03 -2.814002148807048798e-02 -6.475221831351518631e-03 1.711460389196872711e-02 1.875849207863211632e-03 -1.863792072981595993e-03 -1.756148599088191986e-02 -1.992128230631351471e-02 5.443348363041877747e-02 2.882926911115646362e-02 1.803090795874595642e-02 4.904884845018386841e-03 4.373395815491676331e-02 -1.032560225576162338e-02 -5.565054714679718018e-02 -2.057350613176822662e-02 5.154237616807222366e-03 1.204858347773551941e-02 -1.896621100604534149e-02 -1.472869236022233963e-02 -5.382646806538105011e-03 -1.011343114078044891e-02 -6.592468824237585068e-03 4.077273607254028320e-02 -1.930167898535728455e-02 -5.425219237804412842e-02 2.805818431079387665e-02 -7.953142747282981873e-03 3.185763582587242126e-02 -1.419614348560571671e-02 3.350064158439636230e-02 -2.355843223631381989e-02 3.105289579252712429e-05 5.235203076153993607e-03 -1.152657717466354370e-02 -3.016978688538074493e-02 -1.596909761428833008e-02 3.741767629981040955e-02 -4.603066667914390564e-02 -1.392089948058128357e-02 1.147031597793102264e-02 -5.360136181116104126e-02 -2.456622943282127380e-02 1.083414419554173946e-03 -5.275158677250146866e-03 -1.846025511622428894e-02 2.991730906069278717e-02 4.663280025124549866e-02 2.791554108262062073e-02 4.041448608040809631e-02 -1.066703069955110550e-02 8.476445451378822327e-03 -2.300701849162578583e-02 -9.130052290856838226e-03 -2.207290008664131165e-02 -5.787536874413490295e-02 -9.372739121317863464e-03 5.050763860344886780e-02 3.471764549612998962e-02 6.494331173598766327e-04 6.787622347474098206e-03 -6.514088809490203857e-02 4.704942554235458374e-02 2.896397840231657028e-03 -1.364573743194341660e-02 -5.338121671229600906e-03 -2.209112234413623810e-02 -3.593840869143605232e-03 -2.363841608166694641e-02 -2.807709388434886932e-02 3.707007691264152527e-02 -3.493277728557586670e-02 1.584305986762046814e-02 5.080699920654296875e-02 -1.647921465337276459e-02 1.388874463737010956e-02 -4.093590658158063889e-03 7.082233577966690063e-02 2.432212606072425842e-02 2.185893058776855469e-02 3.598638577386736870e-03 3.486962243914604187e-02 -1.700820401310920715e-02 3.934315592050552368e-02 1.565280929207801819e-02 5.874963849782943726e-02 -1.527926046401262283e-02 -2.071108669042587280e-03 -1.896927691996097565e-02 6.241510063409805298e-02 2.406492829322814941e-02 -3.489485010504722595e-02 9.049523621797561646e-03 3.338856250047683716e-02 -1.329592056572437286e-02 -3.153753653168678284e-02 2.087567700073122978e-03 3.743881732225418091e-02 3.158739209175109863e-02 -2.025977708399295807e-02 -4.595023114234209061e-03
-1.066609658300876617e-02 -6.268617697060108185e-03 -5.075431428849697113e-03 -2.212421037256717682e-02 -8.161645382642745972e-05 1.307221874594688416e-02 -2.128590829670429230e-03 -1.791820302605628967e-02 -3.839740902185440063e-02 5.493172444403171539e-03 1.179650146514177322e-02 -1.255219336599111557e-02 -1.551745738834142685e-02 7.446275651454925537e-02 9.266901761293411255e-03 -3.172785043716430664e-02 2.118986658751964569e-02 -7.153094280511140823e-03 -1.538178976625204086e-02 -3.621679916977882385e-02 1.250360067933797836e-02 -2.058077370747923851e-03 -1.373025868088006973e-02 -3.692488884553313255e-03 -1.439589168876409531e-02 2.821930311620235443e-02 2.799388021230697632e-02 -5.733371898531913757e-02 -3.649878874421119690e-02 -2.210939675569534302e-02 -7.206317037343978882e-03 2.064087241888046265e-02 -1.972763985395431519e-02 1.392287015914916992e-02 3.856185451149940491e-02 3.523130714893341064e-02 1.933896914124488831e-02 2.241297066211700439e-02 -7.514215260744094849e-02 -2.555618993937969208e-02 4.897576943039894104e-02 -2.033202350139617920e-02 1.577090099453926086e-02 2.215764671564102173e-02 -1.671723835170269012e-02 1.333106122910976410e-02 -2.386184409260749817e-02 -2.362200431525707245e-02 4.279919713735580444e-02 -1.284829224459826946e-03 -4.177200794219970703e-02 -3.611324727535247803e-02 2.398799732327461243e-02 1.914676092565059662e-02 -3.603420406579971313e-02 -7.772741839289665222e-03 1.293600816279649734e-02 -5.911526456475257874e-02 -3.270828723907470703e-02 -3.707445226609706879e-03 -3.508806228637695312e-02 1.022133324295282364e-02 4.987598210573196411e-02 3.843615949153900146e-02 8.936667582020163536e-04 9.197528474032878876e-03 -2.188457734882831573e-02 5.621032789349555969e-03 2.367263101041316986e-02 1.753735169768333435e-02 -1.367196906358003616e-02 6.194561719894409180e-02 5.131961405277252197e-02 1.091322675347328186e-02 -1.448006182909011841e-02 -2.551801502704620361e-03 -1.927172020077705383e-02 6.063146889209747314e-02 9.813534095883369446e-03 7.309054024517536163e-03 -2.478531934320926666e-02 2.555715478956699371e-02 1.398556679487228394e-02 -7.364603877067565918e-02 -1.222049351781606674e-02 -4.877152852714061737e-03 5.786123126745223999e-02 4.015909880399703979e-02 1.204013358801603317e-02 -1.581398211419582367e-02 1.098631508648395538e-02 -3.503337129950523376e-02 -1.130092982202768326e-02 8.495712652802467346e-03 -1.815816946327686310e-02 5.109165236353874207e-02 -2.784187532961368561e-02 1.084253098815679550e-02 -1.437779143452644348e-02 -1.128348335623741150e-02 7.234110031276941299e-03 -2.837721817195415497e-02 -1.296035293489694595e-02 2.459873817861080170e-02 -1.557857263833284378e-02 5.836781580001115799e-03 9.019288234412670135e-03 5.172824114561080933e-02 -6.113777402788400650e-03 -1.015903241932392120e-02 9.590834379196166992e-03 -2.112268935889005661e-03 -6.921835243701934814e-02 5.618839710950851440e-02 -2.194861182942986488e-03 2.864116057753562927e-02 -1.342233084142208099e-02 7.568122446537017822e-02 2.065143920481204987e-02 6.762716174125671387e-02 -7.294027600437402725e-03 -1.259971037507057190e-02 1.509458757936954498e-02 -3.885802347213029861e-03 1.294987555593252182e-02 1.415666099637746811e-02 1.052926201373338699e-02 -1.964557357132434845e-02
5.997029598802328110e-03 1.439430564641952515e-02 3.140223398804664612e-02 4.712486639618873596e-03 1.137116923928260803e-02 -5.981549154967069626e-03 3.323728218674659729e-02 1.106349099427461624e-02 -3.118128143250942230e-02 1.033023744821548462e-02 2.719892188906669617e-02 -3.425568342208862305e-02 7.474843878298997879e-03 7.719527930021286011e-03 -2.837260812520980835e-02 -3.917443752288818359e-02 2.835896611213684082e-02 4.421944543719291687e-02 4.545034840703010559e-02 -1.344348187558352947e-03 -2.685458026826381683e-02 -1.177574321627616882e-02 3.459777683019638062e-03 -1.575601845979690552e-02 1.615441590547561646e-02 -3.825010731816291809e-02 -1.891897618770599365e-02 5.750592797994613647e-03 1.863919384777545929e-02 -3.184183686971664429e-02 -2.571063116192817688e-02 -5.497506819665431976e-03 7.169489748775959015e-03 1.474174950271844864e-02 1.535515859723091125e-02 -1.276054605841636658e-02 3.496510908007621765e-02 -8.845932781696319580e-03 -3.710238263010978699e-02 -5.242107901722192764e-03 1.511879824101924896e-02 1.289164647459983826e-02 -3.600316587835550308e-03 -1.043542381376028061e-02 -1.319127157330513000e-02 -2.678829059004783630e-02 1.859991066157817841e-02 1.362835895270109177e-02 -6.498630973510444164e-04 -8.918210864067077637e-03 -3.946930915117263794e-02 1.934142410755157471e-02 -1.189691107720136642e-02 1.452823518775403500e-03 1.454985048621892929e-02 -1.583344186656177044e-03 1.189307216554880142e-02 -2.083285711705684662e-02 1.640073582530021667e-02 3.190439566969871521e-02 1.130536664277315140e-02 3.437324659898877144e-03 1.017744373530149460e-02 -1.014555245637893677e-02 -1.799680851399898529e-02 -1.666101068258285522e-02 1.543788239359855652e-02 2.558346465229988098e-02 5.305766314268112183e-02 -2.296451479196548462e-03 -4.982198029756546021e-02 -4.269811511039733887e-02 5.492793023586273193e-02 -2.632713131606578827e-02 -9.612643043510615826e-04 -6.597202736884355545e-03 -2.135615609586238861e-02 -2.421927638351917267e-02 3.349338844418525696e-02 6.707338150590658188e-03 2.613153867423534393e-02 2.242365293204784393e-02 3.646177425980567932e-02 -2.409813925623893738e-02 7.856367155909538269e-03 -9.297538548707962036e-03 1.413674093782901764e-02 8.786908350884914398e-03 1.031119655817747116e-02 -2.009209245443344116e-02 1.017905771732330322e-02 -7.874665781855583191e-03 -1.918201521039009094e-02 -9.575979784131050110e-03 -8.334756828844547272e-03 -3.277188539505004883e-02 3.128814324736595154e-02 3.016660176217556000e-02 -1.142264064401388168e-02 6.400123238563537598e-03 3.811230883002281189e-02 -7.653464097529649734e-03 -2.025138400495052338e-02 5.032178014516830444e-03 -5.287531390786170959e-02 2.963657304644584656e-02 1.997029467020183802e-04 5.165520589798688889e-03 -2.244389988481998444e-02 -3.297317400574684143e-02 1.358028035610914230e-02 8.723062463104724884e-03 -5.268571898341178894e-03 -2.777419053018093109e-02 3.281584009528160095e-02 3.242108598351478577e-02 -2.017380204051733017e-03 -1.476338482461869717e-03 1.959743723273277283e-02 -1.741880550980567932e-02 2.907061250880360603e-03 -2.803066978231072426e-03 1.614060439169406891e-02 -3.166383504867553711e-02 9.518870152533054352e-03 9.925429709255695343e-03 3.077038563787937164e-02 5.674030631780624390e-03
4.688363149762153625e-02 2.314023114740848541e-02 4.175441712141036987e-02 6.411070935428142548e-03 -9.670995175838470459e-03 4.278448969125747681e-02 5.616563186049461365e-02 -2.656526304781436920e-02 -1.102653983980417252e-02 -2.791731059551239014e-02 4.728531092405319214e-02 -1.168621331453323364e-02 4.879811778664588928e-02 1.291902590310201049e-04 1.246934058144688606e-03 3.234656527638435364e-02 -1.913857273757457733e-02 5.904495343565940857e-02 4.224634543061256409e-02 3.223453834652900696e-02 2.189872041344642639e-02 -8.978248573839664459e-03 -6.028899922966957092e-03 -5.132104456424713135e-02 5.696268752217292786e-02 2.252171980217099190e-04 -2.104178629815578461e-02 1.481988560408353806e-02 1.274851057678461075e-02 -2.425646176561713219e-03 1.286437362432479858e-02 5.713296309113502502e-02 4.316625127103179693e-04 -2.070244401693344116e-02 2.809659950435161591e-02 2.079616300761699677e-02 -1.656714454293251038e-02 7.193749304860830307e-03 9.607406333088874817e-03 -2.912171743810176849e-02 6.581922993063926697e-03 4.930727183818817139e-02 3.073094598948955536e-02 3.128713462501764297e-03 2.257563173770904541e-02 -3.370257467031478882e-02 -2.225232683122158051e-02 -5.914580076932907104e-03 3.990182280540466309e-02 -9.481930732727050781e-02 -4.499428719282150269e-02 -4.351180419325828552e-02 2.794452011585235596e-02 -4.198062047362327576e-02 -3.257722035050392151e-02 5.365879740566015244e-03 -1.332369446754455566e-02 -3.932120278477668762e-03 -1.877201162278652191e-02 1.178938895463943481e-02 -1.048053847625851631e-03 -1.205929834395647049e-02 -2.537658065557479858e-02 8.953790180385112762e-03 -2.901509637013077736e-03 -3.439098596572875977e-02 3.412697836756706238e-02 2.374763414263725281e-02 2.562352269887924194e-02 5.960047710686922073e-03 4.358237236738204956e-02 -2.731143310666084290e-02 1.821709424257278442e-02 -9.204267524182796478e-03 -1.224054209887981415e-02 -4.310181364417076111e-03 -2.909782715141773224e-02 7.971348240971565247e-03 1.557421684265136719e-02 -3.414190188050270081e-02 4.403930157423019409e-02 4.885075986385345459e-02 1.815023599192500114e-03 -1.863422803580760956e-02 -8.630694821476936340e-03 1.700269617140293121e-02 -4.701548442244529724e-02 1.410001050680875778e-02 1.164046954363584518e-02 3.307912126183509827e-02 -8.709126152098178864e-03 1.994735794141888618e-03 -2.953971736133098602e-02 -1.141547574661672115e-03 -2.474180236458778381e-02 3.298458829522132874e-02 1.731142960488796234e-02 -1.540608145296573639e-02 4.242338240146636963e-03 2.672270406037569046e-03 -2.755940146744251251e-02 -3.611587360501289368e-02 1.555784419178962708e-02 2.293694391846656799e-02 -6.195771321654319763e-02 5.471454933285713196e-03 -5.098458845168352127e-03 2.060485631227493286e-02 -2.353700250387191772e-02 3.428934141993522644e-04 -1.978502422571182251e-02 -2.278826013207435608e-02 -3.020915947854518890e-02 -1.384321507066488266e-02 -1.920588873326778412e-02 4.334205016493797302e-02 -2.108274959027767181e-02 1.869946718215942383e-02 -3.335078805685043335e-02 -4.477158188819885254e-02 -2.773493295535445213e-03 1.102893985807895660e-02 8.890426717698574066e-03 -3.917748481035232544e-02 1.879304274916648865e-02 -1.662828214466571808e-02 2.482191473245620728e-02 -1.489502750337123871e-02
9.384316392242908478e-03 -2.141113765537738800e-02 1.963088288903236389e-02 -1.430029887706041336e-02 1.596776396036148071e-02 4.015730693936347961e-02 2.039399743080139160e-02 -3.186770528554916382e-02 -6.424799561500549316e-03 2.679940871894359589e-02 -8.218605071306228638e-03 1.398416422307491302e-02 6.425078958272933960e-02 6.033227220177650452e-02 -8.789284154772758484e-03 -3.366856649518013000e-02 -2.636552788317203522e-02 -1.429886370897293091e-02 1.801247149705886841e-02 1.333629246801137924e-02 -2.606494165956974030e-02 3.503465652465820312e-02 -1.940301735885441303e-04 1.659323088824748993e-02 3.018464706838130951e-02 -1.411191001534461975e-02 3.157592937350273132e-02 1.539385132491588593e-02 7.916436344385147095e-02 -1.736417785286903381e-02 -4.782871529459953308e-02 2.006467990577220917e-02 -2.268932573497295380e-02 8.570060878992080688e-02 1.840395666658878326e-02 1.930903829634189606e-02 -1.949283853173255920e-02 -6.849002093076705933e-02 -2.964762784540653229e-02 -2.451619878411293030e-02 2.966075018048286438e-02 6.879807263612747192e-02 -3.003416396677494049e-02 9.343237616121768951e-03 2.744776941835880280e-02 -1.976972259581089020e-02 7.901520468294620514e-03 1.358790672384202480e-03 -1.013909932225942612e-02 -3.108994290232658386e-02 5.150874145328998566e-03 -4.689232446253299713e-04 1.470806170254945755e-02 -2.164431847631931305e-03 5.278037115931510925e-02 -4.441815987229347229e-02 -3.038715803995728493e-03 -1.421031728386878967e-02 -5.736816208809614182e-03 1.339060626924037933e-02 -2.091827057301998138e-02 -4.172626510262489319e-02 7.002150174230337143e-03 4.095609858632087708e-02 3.493702039122581482e-02 1.720145344734191895e-02 6.065904628485441208e-03 -2.023900113999843597e-02 -1.543598994612693787e-02 -1.150710042566061020e-03 2.263848297297954559e-02 -4.276189953088760376e-02 -3.319255774840712547e-03 -3.122484683990478516e-02 -6.048484705388545990e-03 -2.743212692439556122e-02 2.540579997003078461e-03 -1.002479344606399536e-02 3.474236652255058289e-02 -3.766724606975913048e-03 -5.751561839133501053e-03 -3.038940764963626862e-02 2.708815596997737885e-02 2.146580256521701813e-02 -2.568504400551319122e-02 2.101961756125092506e-03 -3.643551468849182129e-02 3.211538121104240417e-02 3.445894271135330200e-02 -1.151745487004518509e-02 3.839344903826713562e-02 -1.668335497379302979e-02 4.373471438884735107e-02 3.196633607149124146e-02 -7.287859171628952026e-02 -1.402100920677185059e-02 -9.434446692466735840e-03 -3.845635429024696350e-02 4.530360549688339233e-02 8.507041260600090027e-03 2.041970752179622650e-02 -1.387749146670103073e-02 -3.629937767982482910e-02 -1.372305490076541901e-02 9.776229038834571838e-03 -6.915167439728975296e-03 -2.027806267142295837e-02 -4.387786239385604858e-02 2.105494402348995209e-02 4.572489485144615173e-02 -3.457438573241233826e-02 3.878614865243434906e-03 -1.106461696326732635e-02 -2.495594508945941925e-02 -2.163815870881080627e-02 -7.210001815110445023e-03 1.341417059302330017e-02 -6.019930914044380188e-02 2.310095727443695068e-02 1.285783015191555023e-02 1.444560592062771320e-03 3.212462738156318665e-02 -2.914882451295852661e-02 4.297884181141853333e-02 -2.665710076689720154e-02 -1.393738016486167908e-02 -1.080398540943861008e-02 2.139949239790439606e-02
4.586848616600036621e-02 3.726809471845626831e-02 -2.285691164433956146e-02 5.995830520987510681e-02 -7.003554143011569977e-03 2.557619661092758179e-02 -2.695267274975776672e-02 1.631502993404865265e-02 -3.574104234576225281e-02 -1.594303920865058899e-02 4.144353442825376987e-04 -9.051700122654438019e-03 -3.173875389620661736e-03 -8.782845688983798027e-04 -3.263905877247452736e-03 4.446016624569892883e-02 -2.389385132119059563e-03 1.894855685532093048e-02 2.725074009504169226e-04 -7.316441088914871216e-02 -1.583251357078552246e-02 -7.211709767580032349e-02 -3.105399012565612793e-02 6.137195229530334473e-02 -1.626812480390071869e-02 -1.190394815057516098e-02 1.166026853024959564e-02 3.314112545922398567e-04 -3.213979676365852356e-02 -3.912473097443580627e-02 3.318696096539497375e-02 -4.361920431256294250e-02 -3.213116899132728577e-02 -3.058873489499092102e-02 6.181947886943817139e-02 -2.427880465984344482e-02 -1.666490733623504639e-02 2.752243168652057648e-02 5.795047618448734283e-03 4.600106179714202881e-02 -2.714768797159194946e-02 2.005479484796524048e-02 -1.514000538736581802e-02 -2.256226167082786560e-02 2.057222649455070496e-03 2.638524211943149567e-02 1.995539758354425430e-03 -2.188220433890819550e-02 -2.654707245528697968e-02 -9.101782925426959991e-03 3.838111646473407745e-03 1.370833069086074829e-02 2.966757491230964661e-02 4.262519255280494690e-02 6.093263509683310986e-04 2.484950469806790352e-03 5.213947966694831848e-02 -2.041675522923469543e-02 -9.035550057888031006e-03 -4.044347256422042847e-02 -1.887105964124202728e-02 -9.628136642277240753e-03 -1.260017789900302887e-02 5.869225040078163147e-02 2.305876696482300758e-03 5.749379470944404602e-02 -3.051560372114181519e-02 -6.182057037949562073e-02 1.329430844634771347e-03 2.522921934723854065e-02 5.293517559766769409e-02 -8.281894959509372711e-03 -2.835148386657238007e-02 8.592509664595127106e-03 -6.601811945438385010e-02 3.384687379002571106e-02 3.702970594167709351e-02 -1.867517642676830292e-02 -1.343317888677120209e-02 3.731537982821464539e-02 -5.874253343790769577e-03 2.845478802919387817e-02 -2.408543601632118225e-02 -2.162604592740535736e-03 -2.036255784332752228e-02 7.497302722185850143e-03 -1.625621691346168518e-02 -6.348907202482223511e-02 -1.743534021079540253e-02 2.418853715062141418e-02 -8.301294595003128052e-02 1.166776753962039948e-02 -9.267740882933139801e-03 -4.425967112183570862e-02 1.367001794278621674e-02 -2.804761938750743866e-02 1.997111737728118896e-02 -3.674830868840217590e-02 -2.710425294935703278e-02 -5.383190885186195374e-02 3.212245879694819450e-03 -2.090027555823326111e-02 3.141162171959877014e-02 -2.844848297536373138e-02 -3.232351318001747131e-02 -4.412175342440605164e-02 6.071213260293006897e-02 5.193993449211120605e-02 -2.795481495559215546e-02 2.162222191691398621e-02 -3.218857198953628540e-02 -1.172761432826519012e-02 4.077505692839622498e-02 5.415258929133415222e-03 -4.493137449026107788e-02 -2.104533277451992035e-02 -2.623612247407436371e-02 -1.231642905622720718e-03 3.990517184138298035e-02 5.563704296946525574e-03 -1.064770761877298355e-02 2.107152156531810760e-02 1.230901665985584259e-02 -5.573646351695060730e-02 -1.606435887515544891e-02 5.678905174136161804e-02 -6.067565642297267914e-03 3.451173752546310425e-02
-3.382134065032005310e-02 3.213345259428024292e-02 5.543333664536476135e-02 -1.066601369529962540e-02 3.167879953980445862e-02 -1.507820840924978256e-02 -3.072506375610828400e-02 -1.942606084048748016e-02 -5.474761128425598145e-03 1.951412297785282135e-02 5.012560263276100159e-02 -3.070686012506484985e-02 -3.697514766827225685e-03 1.668294891715049744e-02 -1.222827192395925522e-02 -4.398168530315160751e-03 4.077846184372901917e-02 -4.682096187025308609e-03 2.344946004450321198e-02 1.037684036418795586e-03 1.402550935745239258e-02 1.083655003458261490e-02 3.317268565297126770e-03 6.074896547943353653e-03 4.913771990686655045e-03 -1.798672974109649658e-02 -1.088208053261041641e-02 2.681665355339646339e-04 -1.027875230647623539e-03 -1.949402131140232086e-02 2.227593678981065750e-03 3.251153277233242989e-03 1.972957834368571639e-04 -1.011114474385976791e-02 -3.205326199531555176e-02 -1.107043214142322540e-02 -1.951717957854270935e-02 -4.542511701583862305e-02 4.381756298243999481e-03 -5.704560130834579468e-02 -2.316063456237316132e-02 -1.938999863341450691e-03 1.701104268431663513e-02 -1.571971736848354340e-02 2.110235579311847687e-02 -5.334758386015892029e-02 -4.176047630608081818e-03 -1.273036189377307892e-02 2.436060272157192230e-02 6.047787610441446304e-03 -3.665860369801521301e-02 2.342100720852613449e-03 -1.728066802024841309e-02 1.509241177700459957e-03 3.385927528142929077e-03 -1.090995594859123230e-02 5.158897023648023605e-03 -7.967561483383178711e-03 -7.483751978725194931e-03 4.361362755298614502e-02 1.400574110448360443e-03 -6.454561650753021240e-02 2.640593983232975006e-02 -8.570191450417041779e-03 -1.393141224980354309e-02 3.750292956829071045e-02 1.051873341202735901e-02 1.574164070188999176e-02 2.607474103569984436e-02 5.951378494501113892e-03 1.429955940693616867e-03 2.230091579258441925e-02 2.652966231107711792e-02 2.516180276870727539e-02 4.032469913363456726e-02 3.911210224032402039e-03 -8.193776942789554596e-03 -5.789984017610549927e-02 -7.276267278939485550e-03 4.589619114995002747e-02 -4.991374444216489792e-03 1.728318259119987488e-02 5.846418440341949463e-02 -7.208494003862142563e-03 -2.815872989594936371e-02 -1.038158964365720749e-02 8.168741129338741302e-03 -1.421327702701091766e-02 1.545980013906955719e-02 -2.887563034892082214e-02 4.700207151472568512e-03 3.210610151290893555e-02 1.454758085310459137e-02 -2.829793654382228851e-02 -1.128053758293390274e-02 2.948635723441839218e-03 -7.493403274565935135e-03 5.558108910918235779e-02 3.372887521982192993e-02 5.317336879670619965e-03 -1.156451925635337830e-02 -5.035427212715148926e-02 2.415620023384690285e-03 1.609504967927932739e-02 -3.090882115066051483e-02 -3.696098178625106812e-02 -7.471443712711334229e-02 -1.317828334867954254e-02 1.629745587706565857e-02 4.585966467857360840e-02 -8.301158086396753788e-04 -1.440185587853193283e-02 -1.694099791347980499e-02 -1.621916145086288452e-02 1.671607047319412231e-02 -5.573652312159538269e-02 -3.600713238120079041e-02 -2.459503151476383209e-02 -1.213567517697811127e-02 -7.423368748277425766e-03 1.778564974665641785e-02 -1.031272672116756439e-02 5.054922401905059814e-02 -3.525958396494388580e-03 -2.494307234883308411e-03 2.324168570339679718e-02 7.867313921451568604e-02 9.060839191079139709e-03
