3.159784153103828430e-02 6.437189131975173950e-02 -1.648149080574512482e-02 1.967031508684158325e-03 -1.984526216983795166e-02 -1.678106375038623810e-02 8.432592451572418213e-02 -6.471942365169525146e-02 -4.738244414329528809e-02 1.329466141760349274e-02 4.750474914908409119e-02 -5.834149662405252457e-03 -1.630134135484695435e-02 3.367992490530014038e-02 4.694242030382156372e-03 -6.809251382946968079e-03 -3.585388883948326111e-02 2.591143362224102020e-02 -2.280922047793865204e-02 9.244768880307674408e-03 -5.782983731478452682e-03 4.490392655134201050e-02 3.674308769404888153e-03 4.797427449375391006e-03 9.557764977216720581e-03 -3.023411519825458527e-02 2.290012314915657043e-03 -1.623118482530117035e-02 5.011332686990499496e-03 2.693952247500419617e-02 3.017438948154449463e-02 4.678289964795112610e-02 -6.101518520154058933e-04 -3.158241137862205505e-02 2.882290445268154144e-02 2.167028002440929413e-02 -1.548690907657146454e-02 3.328982740640640259e-02 -2.847676537930965424e-02 -3.370191901922225952e-02 -2.664304152131080627e-02 -9.356352500617504120e-03 -2.523211948573589325e-02 4.400506243109703064e-02 3.852572664618492126e-02 -3.840184211730957031e-02 2.402381412684917450e-02 1.774670556187629700e-02 5.320343002676963806e-02 -4.706201329827308655e-02 -5.822454113513231277e-03 -5.629724264144897461e-02 -1.654395833611488342e-02 5.300325341522693634e-03 -2.674281410872936249e-02 -3.701439499855041504e-02 -4.850273206830024719e-02 -4.265828058123588562e-02 -1.299575529992580414e-02 8.521524257957935333e-03 -1.681579276919364929e-02 3.609238937497138977e-02 3.199424967169761658e-02 -6.148161832243204117e-03 -2.350635267794132233e-02 -2.310125529766082764e-02 1.490941643714904785e-02 -1.867120969109237194e-03 7.951198145747184753e-03 -1.725852675735950470e-02 -9.225075133144855499e-03 2.323751710355281830e-02 6.268888711929321289e-03 -7.037884742021560669e-02 -4.749030340462923050e-03 -3.708812966942787170e-02 -1.916527561843395233e-02 5.016957595944404602e-02 -1.293860469013452530e-02 -5.727972462773323059e-02 -1.961144804954528809e-02 -1.898054406046867371e-02 -2.183148870244622231e-03 -5.941142886877059937e-02 -3.838182985782623291e-02 -4.765817895531654358e-02 -8.121371269226074219e-03 5.519703961908817291e-03 3.950240556150674820e-03 5.149075761437416077e-02 1.521716918796300888e-02 -4.170988500118255615e-02 -1.756045036017894745e-02 2.531647309660911560e-02 8.520073257386684418e-03 2.418161183595657349e-02 -1.163262128829956055e-02 1.859747618436813354e-02 1.900567300617694855e-02 -2.726997993886470795e-02 -2.395801804959774017e-02 -3.077238332480192184e-03 2.133290981873869896e-03 1.174221653491258621e-02 -2.793316356837749481e-02 4.055421799421310425e-02 3.185236826539039612e-02 1.188850495964288712e-02 -1.685493253171443939e-02 -1.516656298190355301e-02 -4.048626124858856201e-02 -3.763085231184959412e-02 -4.181004315614700317e-02 1.604666747152805328e-02 -6.244281679391860962e-02 5.158577486872673035e-02 -3.473235294222831726e-02 2.598755061626434326e-02 1.234242226928472519e-02 -2.808344177901744843e-02 -3.408557549118995667e-02 -1.686130277812480927e-02 -2.402255684137344360e-02 -1.116851624101400375e-02 6.521087139844894409e-03 -6.005648151040077209e-02 1.547810062766075134e-02 -4.404507204890251160e-02
2.348544076085090637e-03 4.996473342180252075e-02 3.769803047180175781e-02 -1.353336870670318604e-02 -2.630840800702571869e-02 -3.491048887372016907e-02 -9.300745092332363129e-03 -2.563126944005489349e-02 -3.963080793619155884e-02 -2.050254493951797485e-02 5.145461764186620712e-03 8.081076666712760925e-03 1.392315234988927841e-02 3.411375451833009720e-03 -2.232108823955059052e-02 7.426146883517503738e-03 2.120714634656906128e-02 9.633120149374008179e-03 3.160576149821281433e-02 -1.642796327359974384e-03 -1.026295218616724014e-02 -1.344563812017440796e-02 6.450320780277252197e-02 -2.589839883148670197e-02 3.253002464771270752e-02 -1.573603786528110504e-02 8.509341627359390259e-03 -1.259802561253309250e-02 1.570999249815940857e-02 3.856229782104492188e-02 2.496411465108394623e-02 2.759755356237292290e-03 -2.136021107435226440e-02 1.529113203287124634e-02 9.276333265006542206e-03 8.140267804265022278e-03 2.012846618890762329e-02 1.046018302440643311e-02 3.332106769084930420e-02 2.733375877141952515e-02 2.171526104211807251e-02 3.739466890692710876e-02 5.285564810037612915e-03 -6.690228730440139771e-02 -1.244637765921652317e-03 8.856208994984626770e-03 -2.779689803719520569e-02 -3.410258144140243530e-02 -7.742682937532663345e-04 1.435905415564775467e-02 -1.174825057387351990e-02 4.848901182413101196e-03 3.055639937520027161e-02 8.710924535989761353e-03 -1.618135534226894379e-02 -2.386337146162986755e-02 4.088168963789939880e-03 1.457480154931545258e-02 6.753193680197000504e-03 1.396396942436695099e-02 -4.444194026291370392e-03 -2.898863516747951508e-02 -7.059296593070030212e-03 6.288866698741912842e-02 2.341025881469249725e-02 1.724154572002589703e-05 -2.127823606133460999e-02 -2.762753888964653015e-02 -3.097228892147541046e-02 -1.706531085073947906e-02 2.973902598023414612e-02 -6.280362140387296677e-03 4.391052201390266418e-02 -5.805935710668563843e-03 3.945410996675491333e-02 8.057051151990890503e-02 -1.920814067125320435e-02 1.867066835984587669e-03 -1.987653411924839020e-02 -5.432545673102140427e-03 -8.060829713940620422e-03 2.794910967350006104e-02 3.941299766302108765e-02 -7.379453629255294800e-03 3.350366279482841492e-02 1.965151727199554443e-02 3.914984315633773804e-02 -2.706208266317844391e-02 4.968374595046043396e-02 -1.784844510257244110e-02 -4.615243989974260330e-03 1.767526194453239441e-02 1.283061783760786057e-02 -3.709839284420013428e-02 -6.481983000412583351e-04 -1.226510503329336643e-03 1.326607633382081985e-02 -1.340055745095014572e-02 3.385196253657341003e-02 2.119906805455684662e-02 -1.691727526485919952e-02 -1.206476613879203796e-02 2.310338243842124939e-02 1.228876970708370209e-02 -1.040981896221637726e-02 -3.178488928824663162e-03 -6.231738254427909851e-02 -2.589523978531360626e-02 -2.670377492904663086e-02 3.520503873005509377e-03 2.658487670123577118e-02 8.075612783432006836e-02 2.378115430474281311e-02 -3.654549270868301392e-02 2.054299227893352509e-03 3.576131910085678101e-02 -3.359773010015487671e-02 -5.386343691498041153e-03 -7.277401536703109741e-02 -2.575664315372705460e-03 5.155182443559169769e-03 5.442922934889793396e-03 1.738098822534084320e-02 -9.615311399102210999e-03 6.359046325087547302e-03 8.712435513734817505e-02 1.482652965933084488e-02 9.794190526008605957e-03
-9.109338745474815369e-03 -1.200583763420581818e-02 2.549714036285877228e-02 1.794688031077384949e-02 -4.026613757014274597e-02 5.395818036049604416e-03 -4.309043288230895996e-02 -4.130455106496810913e-02 2.775798179209232330e-02 -1.659750565886497498e-02 2.236001007258892059e-02 2.922703512012958527e-02 5.196740105748176575e-02 -1.839290559291839600e-02 3.162669390439987183e-02 1.708563789725303650e-02 -1.057902909815311432e-02 -4.759868141263723373e-03 -2.097323350608348846e-02 2.612716890871524811e-02 -2.830152586102485657e-02 -1.700193155556917191e-03 1.551829837262630463e-02 -1.292346976697444916e-02 -9.420528076589107513e-03 7.330340798944234848e-03 3.678569197654724121e-02 -2.132396586239337921e-02 -1.652223058044910431e-02 -1.542664784938097000e-02 3.245217958465218544e-03 2.028358634561300278e-03 3.713113442063331604e-02 -1.545530464500188828e-02 -3.970834612846374512e-02 3.923462331295013428e-02 1.589649356901645660e-02 2.976561151444911957e-02 5.245053209364414215e-03 -2.325997222214937210e-03 1.444113906472921371e-02 1.541624404489994049e-02 -2.648765221238136292e-02 -1.385659724473953247e-02 2.616206184029579163e-02 -2.803795784711837769e-02 -3.659493848681449890e-02 -3.338663652539253235e-02 1.020146068185567856e-02 -1.148702111095190048e-02 1.481525879353284836e-02 -1.259065605700016022e-02 -3.503981977701187134e-02 -2.561471424996852875e-02 -1.009205915033817291e-02 2.749129571020603180e-02 2.279643714427947998e-02 -3.461933135986328125e-02 -1.142789702862501144e-02 -3.017515409737825394e-03 -3.657186403870582581e-02 -3.181943669915199280e-02 -3.070085775107145309e-03 -8.659004233777523041e-04 -1.421292498707771301e-02 4.459902178496122360e-03 -1.177814416587352753e-02 2.391119487583637238e-02 -5.168801173567771912e-03 -1.976730301976203918e-02 1.151815708726644516e-02 3.284223203081637621e-04 -3.564210981130599976e-02 2.364811673760414124e-02 -3.288822015747427940e-03 -1.978121435968205333e-04 2.935691969469189644e-03 -5.571831017732620239e-03 3.332777647301554680e-03 -1.774152275174856186e-03 3.176743164658546448e-02 -2.358521521091461182e-02 -1.802046224474906921e-02 -5.343124503269791603e-04 -3.098573349416255951e-02 3.635159507393836975e-02 -9.479857981204986572e-03 -1.134121697396039963e-02 -2.440850995481014252e-02 7.619380950927734375e-02 1.675481535494327545e-02 2.526102587580680847e-02 -3.361137956380844116e-02 -1.304666604846715927e-02 -2.261500060558319092e-02 -1.028580032289028168e-02 4.114518687129020691e-02 -4.779049195349216461e-03 -3.433777019381523132e-02 -5.180888343602418900e-03 -7.189484313130378723e-03 -7.645321544259786606e-03 -9.859846904873847961e-03 -1.799419522285461426e-02 -1.102867070585489273e-02 1.398199610412120819e-02 -1.590503007173538208e-02 -3.257057070732116699e-02 1.996666379272937775e-02 -8.820216171443462372e-03 1.855679787695407867e-02 -1.544930599629878998e-02 -1.528479717671871185e-02 8.978153578937053680e-03 3.708728030323982239e-02 -3.779652714729309082e-02 1.527812611311674118e-02 -3.983925655484199524e-02 1.956309378147125244e-02 -2.890371531248092651e-02 -2.710903435945510864e-02 -1.414370257407426834e-02 -1.451980229467153549e-02 2.216038701590150595e-04 -1.331216469407081604e-02 2.138185314834117889e-02 -3.804845502600073814e-03 -1.223229616880416870e-02
3.610987216234207153e-02 1.818797923624515533e-02 -4.952595010399818420e-02 -4.435182362794876099e-02 5.197219550609588623e-03 1.588734239339828491e-02 1.571725681424140930e-02 -1.358196139335632324e-03 -1.710608042776584625e-02 6.063284724950790405e-02 -5.841193720698356628e-02 -3.147980943322181702e-02 -2.649085782468318939e-02 -1.192447450011968613e-02 2.438407018780708313e-02 -1.276680640876293182e-02 -7.553332019597291946e-03 1.939265057444572449e-02 4.531017970293760300e-03 -3.517445921897888184e-02 3.639864549040794373e-02 6.807910650968551636e-02 2.742701210081577301e-02 3.918186947703361511e-02 1.394112221896648407e-02 3.121869452297687531e-02 8.209444582462310791e-02 1.388102304190397263e-02 1.009307429194450378e-02 -2.275066822767257690e-02 -5.305133759975433350e-03 2.063229493796825409e-02 -4.702973365783691406e-02 3.979223966598510742e-02 6.804982549510896206e-04 -2.659334242343902588e-02 7.313773501664400101e-03 1.259930059313774109e-02 -1.544374157674610615e-03 -4.756758734583854675e-02 2.183324890211224556e-03 2.358059631660580635e-03 1.190462242811918259e-02 -6.563422083854675293e-02 -4.517870768904685974e-02 -9.107602760195732117e-03 -1.433319691568613052e-02 -2.749016694724559784e-02 -1.388743333518505096e-02 3.885944141075015068e-03 5.047213751822710037e-03 -5.387946963310241699e-03 -1.452824939042329788e-02 3.995561227202415466e-02 -8.281548507511615753e-03 1.910293102264404297e-02 5.657356232404708862e-03 -2.511226013302803040e-02 6.039327010512351990e-03 -1.623148284852504730e-02 -5.942181684076786041e-03 3.068351186811923981e-02 -3.314539417624473572e-02 -1.289309933781623840e-02 -3.809404373168945312e-02 3.642296791076660156e-02 -1.425070594996213913e-02 3.615576773881912231e-03 -6.372721400111913681e-03 6.969209015369415283e-02 3.119540028274059296e-02 1.277292380109429359e-03 5.031563341617584229e-03 -1.890128664672374725e-02 -7.047092169523239136e-02 -4.718378558754920959e-02 2.428358979523181915e-02 -5.616020062007009983e-04 -2.703589014708995819e-02 2.575292252004146576e-02 7.034647464752197266e-02 2.314230427145957947e-02 -4.102669190615415573e-03 3.322660550475120544e-02 -3.632491081953048706e-02 1.181119401007890701e-02 1.861816272139549255e-02 -3.862320631742477417e-02 -5.306599196046590805e-03 3.806978696957230568e-03 6.226582918316125870e-03 1.533563621342182159e-02 3.842173377051949501e-03 1.786156743764877319e-02 1.018728688359260559e-02 1.222096034325659275e-03 4.965101368725299835e-03 -9.375302470289170742e-04 6.755547598004341125e-03 -2.009534090757369995e-02 -1.153269968926906586e-02 -3.724958747625350952e-02 -2.634149603545665741e-02 -3.151967003941535950e-02 -1.799584552645683289e-02 1.043928880244493484e-02 -2.831616252660751343e-02 4.129347857087850571e-03 -1.357358414679765701e-02 4.433633759617805481e-02 1.049954257905483246e-02 2.194767817854881287e-02 1.130721438676118851e-02 -3.721519559621810913e-02 -3.113096579909324646e-03 1.345382072031497955e-02 -1.708718016743659973e-02 -6.880596280097961426e-03 -2.305113151669502258e-02 -3.311767801642417908e-02 1.895996928215026855e-02 -6.373037397861480713e-02 1.670609228312969208e-03 -3.457451984286308289e-02 -5.627825483679771423e-02 1.339216157793998718e-02 -8.027201518416404724e-03 3.216804191470146179e-02
-1.828179322183132172e-02 -1.289282273501157761e-02 -2.208051085472106934e-02 -4.079016298055648804e-02 4.730134829878807068e-02 -3.379687899723649025e-03 -2.254477143287658691e-02 2.993787056766450405e-04 2.945891395211219788e-02 -6.435751914978027344e-02 3.975131362676620483e-02 1.863118447363376617e-02 1.520294137299060822e-02 2.805092930793762207e-02 -4.152050614356994629e-02 -7.432376034557819366e-03 -3.696733713150024414e-02 2.744122222065925598e-02 3.629619488492608070e-03 -6.387917697429656982e-02 -1.004235167056322098e-02 3.675221651792526245e-02 -2.467862330377101898e-02 3.214120492339134216e-02 -5.155774205923080444e-02 1.055294647812843323e-02 -3.912093862891197205e-02 6.573631614446640015e-02 -3.759209439158439636e-02 -4.991916008293628693e-03 -1.391419116407632828e-02 -2.981626801192760468e-02 -9.257756173610687256e-02 2.220412716269493103e-02 -1.157387439161539078e-02 2.986053377389907837e-02 2.345711551606655121e-02 4.769064020365476608e-03 4.897939786314964294e-02 4.398747906088829041e-02 -4.469408094882965088e-02 -5.171152949333190918e-02 4.761774092912673950e-02 3.649465367197990417e-02 -1.182767096906900406e-02 -3.330541774630546570e-02 -9.482175111770629883e-03 -3.687778487801551819e-02 3.421447053551673889e-02 3.701334819197654724e-02 2.850312925875186920e-02 6.593470275402069092e-02 -2.733428403735160828e-02 -7.642162498086690903e-03 2.086352370679378510e-02 -1.075945328921079636e-02 -2.343786507844924927e-02 4.880851879715919495e-02 -6.235137954354286194e-02 -1.795488782227039337e-02 -3.724409639835357666e-02 -3.716567158699035645e-02 -7.109886407852172852e-02 -4.386898502707481384e-02 -5.325198546051979065e-02 -3.499408811330795288e-02 1.986874639987945557e-02 1.700255670584738255e-04 1.474811695516109467e-02 3.948700428009033203e-02 3.921432048082351685e-02 -6.700646132230758667e-02 4.065569490194320679e-02 2.495650015771389008e-02 4.751880094408988953e-02 3.646339103579521179e-02 -2.002475224435329437e-02 2.339989133179187775e-02 1.157461758702993393e-02 2.492121420800685883e-02 -4.067603964358568192e-03 -1.939548552036285400e-02 -4.499573633074760437e-02 5.126357823610305786e-02 9.339973330497741699e-03 1.709917560219764709e-02 -3.214051946997642517e-02 -1.364890579134225845e-02 1.614924171008169651e-03 -7.038655132055282593e-02 -1.939210295677185059e-02 1.659776456654071808e-02 4.068113863468170166e-02 -5.290736258029937744e-02 -2.338667586445808411e-02 3.039680980145931244e-02 -3.610808029770851135e-02 5.594487860798835754e-02 3.507441654801368713e-02 -1.289711706340312958e-02 -3.696075826883316040e-02 1.777889952063560486e-02 6.903401762247085571e-02 -7.286890875548124313e-03 3.910552337765693665e-02 7.039156276732683182e-03 1.228689029812812805e-02 -2.093877084553241730e-02 1.215878501534461975e-02 2.209238335490226746e-02 5.743561685085296631e-02 -4.151704162359237671e-02 3.818481042981147766e-02 1.631840318441390991e-02 -1.925508864223957062e-02 -1.255145855247974396e-02 5.953623447567224503e-03 -4.591910913586616516e-02 2.471794746816158295e-02 -3.085391409695148468e-02 -4.331566765904426575e-02 -2.059789933264255524e-02 3.732239454984664917e-02 -4.335107223596423864e-05 -2.824139781296253204e-03 1.778287440538406372e-02 -5.861097481101751328e-03 1.087237801402807236e-02
-2.483277209103107452e-02 -3.897919552400708199e-03 5.854800809174776077e-03 1.378531288355588913e-02 1.758868992328643799e-02 1.485782396048307419e-02 6.192301865667104721e-03 -1.905521377921104431e-02 -2.945847250521183014e-02 -1.183811761438846588e-02 2.069936320185661316e-02 -1.582468487322330475e-02 7.145835086703300476e-03 3.144861198961734772e-03 -5.548119079321622849e-03 -3.055475465953350067e-02 -2.814003452658653259e-02 -1.939624734222888947e-02 3.465235931798815727e-03 -6.921778898686170578e-03 -1.378516852855682373e-02 5.989001132547855377e-03 -4.564546421170234680e-02 -2.173494361340999603e-02 -1.038230396807193756e-02 -5.240514501929283142e-02 3.944168612360954285e-02 -5.376433953642845154e-03 -3.781104460358619690e-02 -1.158754900097846985e-02 -1.616962812840938568e-02 3.416388854384422302e-02 -1.015133806504309177e-03 1.355765480548143387e-02 -2.122448757290840149e-03 3.267536684870719910e-02 4.587897099554538727e-03 -2.018016017973423004e-02 3.912022802978754044e-03 1.234585791826248169e-02 1.845038123428821564e-02 3.520189970731735229e-02 -1.590378023684024811e-02 -3.842392237856984138e-03 -1.774417608976364136e-02 2.660509198904037476e-02 3.185390029102563858e-03 3.302135504782199860e-03 1.230867765843868256e-02 -4.530459642410278320e-03 -1.258735731244087219e-02 2.355403080582618713e-02 -2.257991395890712738e-02 9.926398284733295441e-03 1.961723715066909790e-02 5.210798699408769608e-04 5.897784978151321411e-02 -3.008459508419036865e-02 4.999738186597824097e-03 -7.884552702307701111e-03 -4.580882936716079712e-02 -1.183991413563489914e-02 -7.717979024164378643e-04 1.609794609248638153e-02 -3.164901211857795715e-02 4.129290208220481873e-02 2.208496443927288055e-02 -3.929710015654563904e-03 5.306651070713996887e-02 -1.195849943906068802e-02 1.710450649261474609e-02 2.312374860048294067e-02 7.893637754023075104e-03 -1.973927393555641174e-02 -9.068899787962436676e-03 -2.082932926714420319e-02 1.061697769910097122e-02 1.371244713664054871e-02 -2.496721222996711731e-02 7.643552031368017197e-03 4.882865771651268005e-02 4.104028921574354172e-03 -2.453990047797560692e-03 -2.310655266046524048e-02 2.735793776810169220e-02 -6.241398514248430729e-04 1.510797999799251556e-02 2.739110589027404785e-02 6.502425763756036758e-03 -1.647340692579746246e-02 -3.054991737008094788e-02 -1.750734634697437286e-02 -1.651042141020298004e-02 -7.146995980292558670e-03 -2.353001758456230164e-02 3.700325265526771545e-02 -5.213772412389516830e-03 -5.164260044693946838e-03 1.252235472202301025e-02 -1.111157052218914032e-02 1.532151596620678902e-03 2.375006116926670074e-02 2.093295566737651825e-02 -2.550062956288456917e-03 -4.039276763796806335e-02 2.046805806457996368e-02 -4.424941167235374451e-02 3.243254497647285461e-02 -3.002435341477394104e-02 7.417679298669099808e-03 1.144572626799345016e-02 -2.821728819981217384e-03 -1.895189844071865082e-02 4.255915060639381409e-02 -2.240046625956892967e-03 -6.030085030943155289e-03 -2.015257999300956726e-02 5.309294909238815308e-03 -1.645318791270256042e-02 2.371063642203807831e-02 -1.183323934674263000e-02 -2.994788996875286102e-02 5.414423719048500061e-02 -1.933738589286804199e-02 -1.242908276617527008e-02 1.662165508605539799e-03 1.148628443479537964e-02 2.277247048914432526e-02
-7.290164008736610413e-03 -6.005387753248214722e-02 1.156051736325025558e-02 1.154008507728576660e-02 3.518635407090187073e-02 3.375982493162155151e-02 -7.494593970477581024e-03 -2.090748399496078491e-02 -2.717387396842241287e-03 -8.204513229429721832e-03 4.966787621378898621e-02 1.170576177537441254e-02 -4.695971962064504623e-03 1.566068083047866821e-02 -3.830471262335777283e-02 -1.727705635130405426e-02 -4.621522501111030579e-03 1.859143190085887909e-02 -1.447796728461980820e-02 -3.251836448907852173e-02 2.566381357610225677e-02 -3.372378647327423096e-02 4.569673910737037659e-04 2.012305427342653275e-03 1.456504128873348236e-02 2.084928750991821289e-02 1.558325439691543579e-02 -5.266821384429931641e-02 5.925644189119338989e-03 6.428168620914220810e-03 2.359082363545894623e-02 3.480503708124160767e-02 -8.960581384599208832e-03 -5.855452269315719604e-02 7.786599453538656235e-04 -1.945415511727333069e-02 -2.197886817157268524e-03 5.069471662864089012e-04 -5.882286000996828079e-03 3.121425211429595947e-02 -3.109671175479888916e-02 7.305034087039530277e-04 -3.509718552231788635e-02 3.444821760058403015e-02 -4.320584982633590698e-02 1.450535189360380173e-02 1.696296781301498413e-02 -1.177301444113254547e-02 -1.288349926471710205e-02 -2.339348383247852325e-02 1.516497787088155746e-02 1.507968176156282425e-03 9.961929172277450562e-04 -8.429353474639356136e-04 -2.176804281771183014e-02 -4.703483730554580688e-02 5.959754809737205505e-02 -2.765552606433629990e-03 4.926335066556930542e-02 -1.072989497333765030e-02 -3.516007680445909500e-03 -1.529540028423070908e-02 8.159843273460865021e-03 1.815138617530465126e-03 4.510853812098503113e-02 -1.299146097153425217e-03 3.670412674546241760e-02 -2.108631283044815063e-02 3.029157407581806183e-03 -3.346932679414749146e-02 -2.808673307299613953e-02 1.673961989581584930e-02 -1.000748109072446823e-02 5.735037475824356079e-02 7.951601874083280563e-04 -6.746919243596494198e-04 4.463513568043708801e-02 9.129399433732032776e-03 9.788504801690578461e-03 -1.034369599074125290e-02 -7.670932263135910034e-02 -2.605647966265678406e-02 1.245077047497034073e-02 -4.120173398405313492e-03 2.825428731739521027e-02 -1.475004665553569794e-02 5.126087367534637451e-02 -7.285962998867034912e-02 6.985686253756284714e-03 6.772545725107192993e-02 -4.400882497429847717e-02 5.501797422766685486e-02 7.534093689173460007e-03 -2.625149674713611603e-02 -8.843488991260528564e-03 1.994753442704677582e-02 1.196736190468072891e-02 -5.606464296579360962e-02 8.238759823143482208e-03 -4.061241820454597473e-02 -2.038502506911754608e-02 -7.065570913255214691e-03 6.982888095080852509e-03 -1.824161596596240997e-02 8.353599347174167633e-03 -1.930345594882965088e-02 -4.536443203687667847e-02 -1.416141726076602936e-02 -2.759553678333759308e-02 -3.987359628081321716e-02 2.680432610213756561e-02 2.946254983544349670e-02 2.438513748347759247e-02 7.044377177953720093e-02 -9.902598336338996887e-03 -5.731833726167678833e-02 5.970017984509468079e-03 9.209717623889446259e-03 -1.852862909436225891e-02 4.731816798448562622e-02 -2.901609428226947784e-02 2.232049591839313507e-02 1.189554459415376186e-03 3.907530009746551514e-02 -1.794597133994102478e-02 -9.147831238806247711e-03 2.583155222237110138e-02 3.886976465582847595e-02
3.483751043677330017e-02 -2.408324740827083588e-03 2.606927882879972458e-03 2.177299000322818756e-02 -3.331318870186805725e-02 -3.119277395308017731e-02 2.357156574726104736e-02 5.593433231115341187e-02 -2.329173870384693146e-02 -5.558425560593605042e-02 -3.614187985658645630e-02 2.147621661424636841e-02 -1.022619474679231644e-02 -1.078532915562391281e-02 -4.638944193720817566e-02 -2.477275580167770386e-02 1.618826948106288910e-02 -1.106847170740365982e-02 1.063779927790164948e-02 -1.538227126002311707e-02 -1.662162318825721741e-02 -8.544453978538513184e-02 -9.032913297414779663e-02 1.758627779781818390e-02 1.350661553442478180e-02 6.654415279626846313e-03 1.335232704877853394e-02 2.409889176487922668e-02 3.195841982960700989e-02 1.140022766776382923e-03 -1.124384999275207520e-02 7.672458887100219727e-03 1.307664997875690460e-02 -2.516354806721210480e-02 -4.878324642777442932e-02 -7.985288277268409729e-03 -4.137780889868736267e-02 -6.382656842470169067e-02 5.488570779561996460e-02 -1.501425076276063919e-02 1.120447833091020584e-02 -5.680580157786607742e-03 -5.481005460023880005e-02 1.918497495353221893e-02 1.818610541522502899e-02 7.118826359510421753e-02 -1.466563902795314789e-02 7.513324171304702759e-02 -2.385239861905574799e-02 5.005630664527416229e-04 -2.685166895389556885e-02 6.371285021305084229e-02 -3.822544217109680176e-02 -1.626526936888694763e-02 1.647979207336902618e-02 5.967706907540559769e-03 -4.135370254516601562e-02 -7.588907144963741302e-03 3.135312721133232117e-02 -3.713146725203841925e-05 7.227130234241485596e-02 4.979372024536132812e-02 -1.939854584634304047e-02 1.267876289784908295e-02 -2.608520351350307465e-02 -2.942194230854511261e-02 2.513441815972328186e-02 -1.361507643014192581e-02 3.768499568104743958e-02 -1.864702999591827393e-02 1.269600261002779007e-02 7.312585599720478058e-03 -2.061261050403118134e-02 6.118881516158580780e-03 1.576020033098757267e-03 -1.294423732906579971e-02 6.927627325057983398e-02 -2.428262028843164444e-03 2.654862217605113983e-02 -5.458614602684974670e-02 -2.305980958044528961e-02 -3.187727555632591248e-02 3.396473452448844910e-02 -3.002562932670116425e-02 3.112770803272724152e-02 4.606232792139053345e-02 -1.880421675741672516e-02 4.556826129555702209e-02 -3.870715573430061340e-02 -1.005842001177370548e-03 -5.234876647591590881e-02 3.487440524622797966e-03 -1.064018346369266510e-02 4.225773364305496216e-02 2.519616298377513885e-02 -4.226261004805564880e-02 6.361160427331924438e-02 -5.142461135983467102e-02 -1.928408630192279816e-02 -7.292842958122491837e-03 4.590168222784996033e-02 1.685929484665393829e-02 -2.645880915224552155e-02 1.954852417111396790e-02 -4.351261258125305176e-02 -1.461355667561292648e-02 4.262943938374519348e-02 -9.277840144932270050e-03 4.592475667595863342e-02 -5.444651469588279724e-02 -4.864276945590972900e-02 5.478321388363838196e-02 6.642340868711471558e-02 -2.340117283165454865e-02 -1.837010867893695831e-02 3.200832754373550415e-02 1.801592297852039337e-02 -1.749845221638679504e-02 1.599511131644248962e-02 -8.442490943707525730e-04 4.978446662425994873e-02 2.715603262186050415e-02 -6.219564937055110931e-03 -2.888116054236888885e-02 2.913540601730346680e-02 6.673404946923255920e-03 2.412188053131103516e-02 4.675729572772979736e-02
