-6.801172345876693726e-02 9.735340252518653870e-03 -3.165045753121376038e-02 2.681743726134300232e-02 9.210768342018127441e-02 -3.927401453256607056e-02 -5.187892238609492779e-04 2.370998449623584747e-02 -2.425752952694892883e-02 3.423628956079483032e-02 5.506292730569839478e-02 -2.544256113469600677e-02 6.256811786442995071e-03 -8.164344471879303455e-04 -2.536322735249996185e-02 7.818326354026794434e-03 -6.950403749942779541e-02 4.896493628621101379e-03 -1.887664571404457092e-02 6.545998901128768921e-02 4.270411282777786255e-02 -2.152494713664054871e-02 1.315679633989930153e-03 -2.926950156688690186e-02 7.273638248443603516e-02 -7.628181483596563339e-03 -4.332887753844261169e-02 4.834526404738426208e-02 1.161740534007549286e-02 1.201130822300910950e-02 -3.574658557772636414e-02 -1.814244128763675690e-02 -1.443320419639348984e-03 4.308370873332023621e-02 -3.007828490808606148e-03 -2.908611856400966644e-02 -5.792019143700599670e-02 2.862924151122570038e-02 7.122400403022766113e-02 -3.493383526802062988e-02 1.155944690108299255e-01 -6.557677686214447021e-02 4.678881168365478516e-02 2.290647663176059723e-02 -8.519327640533447266e-02 -3.979201614856719971e-02 9.317356161773204803e-03 2.155570499598979950e-02 -6.751876324415206909e-02 2.963713370263576508e-02 -1.094387378543615341e-02 2.652103640139102936e-02 2.722634188830852509e-02 1.965494640171527863e-02 1.937786466442048550e-03 2.479765005409717560e-02 -5.615969002246856689e-02 5.005551129579544067e-02 3.214190527796745300e-02 -1.128598377108573914e-01 3.078508190810680389e-02 2.861170470714569092e-02 3.263957053422927856e-02 -8.633658289909362793e-02 8.083700202405452728e-03 -7.282844185829162598e-02 1.040879637002944946e-02 -2.747568069025874138e-03 -5.035987123847007751e-02 -3.911545127630233765e-02 -3.243062272667884827e-02 -1.103479508310556412e-02 -2.518360875546932220e-02 1.763887144625186920e-02 7.694822549819946289e-02 -6.876266002655029297e-02 1.439618505537509918e-02 1.083719208836555481e-01 -1.019617915153503418e-01 -3.530406579375267029e-02 -2.916746027767658234e-02 -4.148620367050170898e-02 8.144218474626541138e-02 -1.934736780822277069e-02 4.177916422486305237e-02 2.120299823582172394e-02 3.029873780906200409e-02 -6.041530868969857693e-04 -3.929002583026885986e-02 -3.303864970803260803e-02 5.180590972304344177e-02 1.041016355156898499e-02 9.967596270143985748e-03 7.579658925533294678e-02 3.113428317010402679e-02 7.129133213311433792e-03 1.058106310665607452e-02 7.522139640059322119e-06 1.103943493217229843e-02 4.791471362113952637e-02 -3.198986873030662537e-03 -1.859722472727298737e-02 -2.676437236368656158e-02 6.031909212470054626e-02 -3.409945173189043999e-03 -7.658884860575199127e-03 -4.203962162137031555e-02 -5.751480907201766968e-02 -8.712761919014155865e-04 -4.607198759913444519e-02 7.827006280422210693e-02 1.075985375791788101e-02 4.212876781821250916e-02 -3.559984266757965088e-02 2.783177420496940613e-02 -6.102602928876876831e-03 2.798115136101841927e-03 4.932265728712081909e-02 -3.390322998166084290e-02 -4.299756512045860291e-02 -4.476125817745923996e-03 -1.483300514519214630e-02 6.892018765211105347e-02 5.217424407601356506e-02 7.631545513868331909e-02 -1.795228943228721619e-02 -4.401229321956634521e-02 3.919466957449913025e-02
-3.644502488896250725e-03 -1.003998238593339920e-02 3.001146577298641205e-02 -6.521368026733398438e-02 -6.887807697057723999e-02 -2.427682979032397270e-03 1.340821012854576111e-02 -1.230677124112844467e-02 8.353233337402343750e-02 1.934249512851238251e-02 -3.618444874882698059e-02 1.804426312446594238e-02 -5.749484989792108536e-03 -4.133225232362747192e-02 1.226113829761743546e-02 2.077602781355381012e-02 2.761386148631572723e-02 -4.854898143094033003e-04 3.987142816185951233e-03 1.937350630760192871e-02 -1.978589035570621490e-02 3.672993928194046021e-02 5.086178705096244812e-02 -3.805914148688316345e-02 -3.313770145177841187e-02 1.895847264677286148e-03 1.318427082151174545e-02 -6.196216214448213577e-03 -3.649513795971870422e-02 -1.333677861839532852e-02 1.563873700797557831e-02 -3.750800387933850288e-03 -2.364566083997488022e-03 -2.395048364996910095e-02 -3.376112878322601318e-02 6.567084789276123047e-02 4.733182489871978760e-02 2.536878176033496857e-02 4.452823195606470108e-03 5.504190549254417419e-02 -2.283056080341339111e-02 -6.324332207441329956e-02 -2.317583374679088593e-02 1.132469996809959412e-02 3.863019868731498718e-03 -1.580335758626461029e-02 -1.904105022549629211e-02 4.337050486356019974e-03 -6.939472164958715439e-03 -6.347334012389183044e-03 4.473363980650901794e-02 -1.931445673108100891e-02 -7.047332078218460083e-02 3.228007629513740540e-02 -1.160131953656673431e-02 4.392333328723907471e-02 -1.697614043951034546e-02 4.775855317711830139e-02 -1.977322809398174286e-02 -2.410860732197761536e-03 3.484225831925868988e-03 -2.156754955649375916e-02 -3.692372888326644897e-02 -2.009890042245388031e-02 5.101383104920387268e-02 -6.532271951436996460e-02 -9.192623198032379150e-03 1.725487969815731049e-02 -6.304494291543960571e-02 -2.936308830976486206e-02 -1.065852027386426926e-02 -4.636721219867467880e-03 -2.777831070125102997e-02 2.837802469730377197e-02 5.044802278280258179e-02 4.316474124789237976e-02 4.102816805243492126e-02 -1.908441632986068726e-02 1.127170026302337646e-02 -2.773662097752094269e-02 -1.328074745833873749e-02 -2.956832945346832275e-02 -7.619705796241760254e-02 -7.723375223577022552e-03 6.797259300947189331e-02 4.296100884675979614e-02 5.402848590165376663e-03 -4.592249635607004166e-03 -7.917531579732894897e-02 5.559592321515083313e-02 3.689603880047798157e-03 -2.120252512395381927e-02 -7.406750228255987167e-06 -1.959079131484031677e-02 -1.463119499385356903e-02 -1.982690952718257904e-02 -4.871806129813194275e-02 5.664643645286560059e-02 -3.172715380787849426e-02 2.257979661226272583e-02 6.363573670387268066e-02 -1.129154395312070847e-02 2.052013017237186432e-02 -7.697070948779582977e-03 8.158605545759201050e-02 4.930936172604560852e-02 1.468450576066970825e-02 -3.468249458819627762e-03 4.589859023690223694e-02 -2.270801924169063568e-02 4.207271710038185120e-02 2.208669111132621765e-02 5.662474781274795532e-02 -1.557552441954612732e-02 -4.983579274266958237e-03 -2.488655969500541687e-02 7.724153995513916016e-02 3.345258533954620361e-02 -3.374297544360160828e-02 1.230533141642808914e-02 3.821508958935737610e-02 -2.903311327099800110e-02 -4.539843648672103882e-02 9.206305257976055145e-03 4.456906393170356750e-02 4.295631870627403259e-02 -1.429354306310415268e-02 -1.643730700016021729e-02
-1.873140037059783936e-02 -8.000206202268600464e-03 -8.471432141959667206e-03 -2.847227454185485840e-02 4.585556220263242722e-03 4.641236271709203720e-03 7.017776952125132084e-04 -1.399767678231000900e-02 -3.883524984121322632e-02 5.553894210606813431e-03 1.439770776778459549e-02 -1.623495295643806458e-02 -2.900920249521732330e-02 8.693566918373107910e-02 7.551793474704027176e-03 -3.238443657755851746e-02 3.584692254662513733e-02 -1.130688749253749847e-02 -2.393805235624313354e-02 -4.378024116158485413e-02 1.671165414154529572e-02 -5.366635043174028397e-03 -2.045702002942562103e-02 -5.460024345666170120e-03 -1.611019670963287354e-02 2.787628583610057831e-02 3.103233687579631805e-02 -5.851905792951583862e-02 -3.727983310818672180e-02 -2.528727054595947266e-02 -1.176706422120332718e-02 3.220767155289649963e-02 -1.675213500857353210e-02 9.800111874938011169e-03 3.707174956798553467e-02 4.527718201279640198e-02 2.665552683174610138e-02 2.898669056594371796e-02 -9.123082458972930908e-02 -3.020741790533065796e-02 4.940824210643768311e-02 -2.550849132239818573e-02 2.142795361578464508e-02 2.248069085180759430e-02 -8.740252815186977386e-03 2.498086355626583099e-02 -2.405221015214920044e-02 -3.463805466890335083e-02 5.356461554765701294e-02 -2.536691958084702492e-03 -4.813404753804206848e-02 -5.487260594964027405e-02 2.374534122645854950e-02 2.017382718622684479e-02 -4.378072917461395264e-02 -9.980152361094951630e-03 1.585696265101432800e-02 -7.946899533271789551e-02 -3.680747374892234802e-02 -7.779275532811880112e-03 -4.087014123797416687e-02 2.026238106191158295e-02 5.005908384919166565e-02 4.331072419881820679e-02 -6.892365869134664536e-03 8.521788753569126129e-03 -3.917319327592849731e-02 8.107490837574005127e-03 2.746813185513019562e-02 2.099935710430145264e-02 -1.842931285500526428e-02 8.431047946214675903e-02 6.194294244050979614e-02 1.619317755103111267e-02 -1.353708468377590179e-02 1.141399727202951908e-03 -2.327094785869121552e-02 7.442359626293182373e-02 1.035879831761121750e-02 2.409594831988215446e-03 -2.551186084747314453e-02 3.462959080934524536e-02 1.771279610693454742e-02 -8.332578837871551514e-02 -1.515194214880466461e-02 -1.497840322554111481e-02 6.811689585447311401e-02 5.006342381238937378e-02 1.298456639051437378e-02 -2.196113392710685730e-02 1.548237912356853485e-02 -3.690616413950920105e-02 -2.675784006714820862e-02 8.059997111558914185e-03 -2.282171696424484253e-02 5.690873414278030396e-02 -3.211772814393043518e-02 1.461373083293437958e-02 -2.445008791983127594e-02 -1.572200842201709747e-02 1.475798664614558220e-03 -3.816298022866249084e-02 -6.944150198251008987e-03 2.364822104573249817e-02 -2.251725085079669952e-02 4.782570758834481239e-04 1.740742661058902740e-02 7.011703401803970337e-02 -1.412982237525284290e-03 -8.977882564067840576e-03 1.485239807516336441e-02 2.693566726520657539e-03 -8.194047212600708008e-02 6.787237524986267090e-02 -3.442156012170016766e-04 2.782687172293663025e-02 -1.221001613885164261e-02 7.813125848770141602e-02 2.347843721508979797e-02 7.952555269002914429e-02 1.300119765801355243e-04 -1.693443208932876587e-02 1.375079434365034103e-02 -5.317180417478084564e-03 2.002200670540332794e-02 2.306746318936347961e-02 1.560566015541553497e-02 -2.344407886266708374e-02
7.239781552925705910e-04 2.359701879322528839e-02 3.683396428823471069e-02 9.194021113216876984e-03 6.851425860077142715e-03 -2.434047637507319450e-03 4.960688203573226929e-02 2.032664045691490173e-02 -4.145096242427825928e-02 4.629490897059440613e-03 4.123055934906005859e-02 -4.611490294337272644e-02 7.276263553649187088e-03 -9.843499399721622467e-03 -4.251290485262870789e-02 -4.808321967720985413e-02 3.903166204690933228e-02 6.616130471229553223e-02 5.416164919734001160e-02 -1.294740568846464157e-02 -3.622980043292045593e-02 -2.262597344815731049e-02 4.812087398022413254e-03 -2.198991551995277405e-02 1.065787160769104958e-03 -5.213107541203498840e-02 -3.193583339452743530e-02 2.210133336484432220e-02 3.032366745173931122e-02 -4.200649634003639221e-02 -3.431624546647071838e-02 -7.842388935387134552e-03 2.585429884493350983e-02 1.147197280079126358e-02 1.811237819492816925e-02 -1.705245487391948700e-02 3.907173499464988708e-02 -9.604890830814838409e-03 -4.542785882949829102e-02 -9.053409099578857422e-03 1.385519467294216156e-02 2.692697383463382721e-02 -1.045207958668470383e-02 -1.439115777611732483e-02 -1.149276923388242722e-02 -3.664976730942726135e-02 3.276909142732620239e-02 1.654785126447677612e-02 2.658965298905968666e-03 -3.050454659387469292e-03 -5.786673724651336670e-02 2.335818298161029816e-02 -1.340749207884073257e-02 -1.602639444172382355e-02 1.654855161905288696e-02 1.597723737359046936e-02 1.767519488930702209e-02 -3.574716299772262573e-02 1.428027916699647903e-02 5.481835454702377319e-02 1.514495164155960083e-02 1.007557567209005356e-02 9.424204006791114807e-03 -1.244054920971393585e-02 -2.425419166684150696e-02 -2.158597856760025024e-02 2.131180092692375183e-02 4.316110908985137939e-02 7.725519686937332153e-02 -3.610410960391163826e-03 -6.389593333005905151e-02 -5.281149968504905701e-02 8.035773038864135742e-02 -2.878485620021820068e-02 -7.168564945459365845e-03 -6.925546564161777496e-03 -3.416758403182029724e-02 -2.854957245290279388e-02 4.623987898230552673e-02 6.759651936590671539e-03 5.273178592324256897e-02 2.335901185870170593e-02 4.973174631595611572e-02 -2.106824330985546112e-02 1.278029568493366241e-02 -2.461910620331764221e-02 1.794734038412570953e-02 1.448352076113224030e-02 1.659640111029148102e-02 -2.801588736474514008e-02 7.367836311459541321e-03 -1.070903614163398743e-02 -2.743118442595005035e-02 -1.036235317587852478e-02 -8.786935359239578247e-03 -4.293323680758476257e-02 4.522524401545524597e-02 4.276066273450851440e-02 -2.508015185594558716e-02 2.960835408885031939e-04 5.242916569113731384e-02 -1.475373841822147369e-02 -2.364411018788814545e-02 1.161807589232921600e-02 -7.377817481756210327e-02 3.729250282049179077e-02 1.077605690807104111e-02 1.044615823775529861e-02 -3.680340573191642761e-02 -4.765532165765762329e-02 2.428108826279640198e-02 1.149717345833778381e-02 -8.409973233938217163e-03 -4.822978004813194275e-02 5.798884853720664978e-02 4.044345021247863770e-02 -6.523066665977239609e-03 3.825020510703325272e-03 2.721573226153850555e-02 -2.146278135478496552e-02 1.665565930306911469e-02 -3.661463269963860512e-03 1.192100159823894501e-02 -4.520001262426376343e-02 1.100003160536289215e-02 8.262351620942354202e-04 3.331581503152847290e-02 7.655899971723556519e-04
5.070980638265609741e-02 3.635797649621963501e-02 3.636596724390983582e-02 8.008090779185295105e-03 -4.373923875391483307e-03 4.682091996073722839e-02 6.701507419347763062e-02 -2.114196680486202240e-02 -8.282393217086791992e-03 -2.979393117129802704e-02 5.632882192730903625e-02 -2.146603912115097046e-02 4.429894685745239258e-02 -4.664520733058452606e-03 2.681370591744780540e-03 3.930797427892684937e-02 -2.042506262660026550e-02 6.683848798274993896e-02 4.918531328439712524e-02 3.269795700907707214e-02 2.284915745258331299e-02 -1.986365951597690582e-02 -1.931975223124027252e-02 -6.131885945796966553e-02 5.914610624313354492e-02 -6.975740194320678711e-03 -2.462277561426162720e-02 2.614700607955455780e-02 2.207807451486587524e-02 -7.094725035130977631e-03 2.477560937404632568e-02 5.653154477477073669e-02 -7.107688579708337784e-03 -3.338634967803955078e-02 3.868781775236129761e-02 2.071568556129932404e-02 -2.291006594896316528e-02 1.432272698730230331e-02 1.550881005823612213e-02 -3.499860689043998718e-02 -5.597171839326620102e-03 4.790746793150901794e-02 4.256095737218856812e-02 2.178243128582835197e-03 2.984054386615753174e-02 -2.385773323476314545e-02 -3.477374091744422913e-02 -1.397560909390449524e-02 5.171637237071990967e-02 -1.111363843083381653e-01 -4.430261999368667603e-02 -4.422095045447349548e-02 3.133435174822807312e-02 -5.966810882091522217e-02 -3.252894431352615356e-02 7.036310154944658279e-03 -2.148010954260826111e-02 -1.156246382743120193e-02 -1.652567274868488312e-02 6.773641332983970642e-03 3.475105331744998693e-04 -2.543817681726068258e-04 -3.096544742584228516e-02 9.280026890337467194e-03 -4.974053241312503815e-03 -3.270217776298522949e-02 3.895030170679092407e-02 2.820900268852710724e-02 2.943620085716247559e-02 1.839652657508850098e-02 5.451566725969314575e-02 -2.911582030355930328e-02 2.917396090924739838e-02 -1.737760379910469055e-02 -2.171607874333858490e-02 -1.772230118513107300e-02 -3.187353536486625671e-02 1.159837283194065094e-02 1.791518181562423706e-02 -3.841749578714370728e-02 6.080924347043037415e-02 5.961886420845985413e-02 8.457258343696594238e-03 -1.999683305621147156e-02 -9.111099876463413239e-03 9.832332842051982880e-03 -5.460008978843688965e-02 1.830019243061542511e-02 1.187194418162107468e-02 2.432341128587722778e-02 -1.977588050067424774e-02 2.401918359100818634e-02 -4.084749519824981689e-02 -1.038049533963203430e-02 -1.414460502564907074e-02 3.590149804949760437e-02 2.188501134514808655e-02 -1.319449488073587418e-02 -5.076297093182802200e-03 -5.215579178184270859e-03 -2.888130396604537964e-02 -4.038484394550323486e-02 1.000002678483724594e-02 2.925080060958862305e-02 -6.701380014419555664e-02 4.711554211098700762e-04 3.697995329275727272e-03 3.348040953278541565e-02 -2.291201055049896240e-02 3.416473511606454849e-03 -2.921027690172195435e-02 -2.622692659497261047e-02 -2.608366683125495911e-02 -1.889681629836559296e-02 -2.429904974997043610e-02 5.353561788797378540e-02 -3.036789223551750183e-02 2.511306852102279663e-02 -4.165408760309219360e-02 -5.498242750763893127e-02 -4.344108048826456070e-03 1.523726433515548706e-02 1.304493937641382217e-02 -4.984505474567413330e-02 2.620458416640758514e-02 -1.395442802459001541e-02 2.783933281898498535e-02 -1.530210860073566437e-02
8.225118741393089294e-03 -2.920071035623550415e-02 1.682413369417190552e-02 -1.612078584730625153e-02 1.582250371575355530e-02 5.223405733704566956e-02 2.155222184956073761e-02 -4.268527776002883911e-02 -5.121890921145677567e-03 2.490095980465412140e-02 -8.430331014096736908e-03 1.411452703177928925e-02 8.711655437946319580e-02 8.050884306430816650e-02 -1.795957237482070923e-02 -4.118757322430610657e-02 -4.082429036498069763e-02 -1.339272037148475647e-02 2.467705123126506805e-02 9.402656927704811096e-03 -3.197814896702766418e-02 2.750026062130928040e-02 -4.264341201633214951e-03 1.848953589797019958e-02 4.480949044227600098e-02 -2.050969749689102173e-02 4.049281030893325806e-02 1.812262274324893951e-02 9.565649926662445068e-02 -1.371486764401197433e-02 -6.233259662985801697e-02 3.353773057460784912e-02 -2.155285514891147614e-02 9.650083631277084351e-02 2.083438262343406677e-02 2.403950504958629608e-02 -3.466261550784111023e-02 -7.487074285745620728e-02 -3.734776750206947327e-02 -2.947467193007469177e-02 3.713715821504592896e-02 7.987058162689208984e-02 -4.192148149013519287e-02 7.989391684532165527e-03 3.480518609285354614e-02 -3.064984828233718872e-02 8.398526348173618317e-03 -1.249747350811958313e-02 -3.996599465608596802e-03 -3.984847664833068848e-02 -1.842405996285378933e-03 -5.117808934301137924e-03 1.699073985219001770e-02 -8.475608192384243011e-03 5.630568787455558777e-02 -5.493155494332313538e-02 1.152194757014513016e-02 -1.614105701446533203e-02 -1.102376915514469147e-02 2.419588528573513031e-02 -1.969338208436965942e-02 -3.853000700473785400e-02 9.814672172069549561e-03 5.669825896620750427e-02 3.805451467633247375e-02 3.510016947984695435e-02 6.963848602026700974e-03 -2.314316481351852417e-02 -1.292376313358545303e-02 1.384122879244387150e-03 2.921749837696552277e-02 -5.287442728877067566e-02 3.051736392080783844e-03 -4.934431612491607666e-02 -1.515045762062072754e-02 -3.104934282600879669e-02 -5.740910302847623825e-03 -1.104057859629392624e-02 4.043260589241981506e-02 -1.086774747818708420e-02 -3.609906707424670458e-04 -3.825952485203742981e-02 2.592105977237224579e-02 2.138966321945190430e-02 -3.346170485019683838e-02 4.062538500875234604e-03 -4.664125293493270874e-02 4.641287401318550110e-02 5.400349572300910950e-02 -8.090138435363769531e-03 4.705818742513656616e-02 -1.796426065266132355e-02 4.418734461069107056e-02 3.470074012875556946e-02 -8.142055571079254150e-02 -1.767240650951862335e-02 -3.425898263230919838e-03 -5.508276447653770447e-02 5.745952203869819641e-02 1.043060887604951859e-02 1.627495698630809784e-02 -1.223901100456714630e-02 -4.089631140232086182e-02 -2.345777302980422974e-02 8.397998288273811340e-03 -4.921142011880874634e-03 -2.061800472438335419e-02 -5.852556228637695312e-02 1.922211982309818268e-02 5.736825987696647644e-02 -4.740351811051368713e-02 3.992618992924690247e-03 -1.299185585230588913e-02 -1.904781349003314972e-02 -2.653218805789947510e-02 7.542979903519153595e-03 8.833502419292926788e-03 -7.257619500160217285e-02 4.136573523283004761e-02 2.226244099438190460e-02 -4.132790956646203995e-03 5.160234868526458740e-02 -3.787712007761001587e-02 4.932224005460739136e-02 -4.034567251801490784e-02 -1.975144445896148682e-02 -2.895389217883348465e-03 2.767420560121536255e-02
6.419742107391357422e-02 4.449010640382766724e-02 -3.225426748394966125e-02 7.588521391153335571e-02 -2.187516167759895325e-02 2.596370317041873932e-02 -3.046884946525096893e-02 1.812255382537841797e-02 -4.851682856678962708e-02 -2.004795894026756287e-02 -1.305873319506645203e-02 6.467138882726430893e-03 -5.418736487627029419e-03 -3.269814653322100639e-03 5.066143814474344254e-03 5.380289256572723389e-02 -1.271068584173917770e-03 1.607873104512691498e-02 -7.685697171837091446e-03 -8.222661167383193970e-02 -2.159238606691360474e-02 -7.102587074041366577e-02 -2.914208173751831055e-02 8.171785622835159302e-02 -2.390001714229583740e-02 -1.823484199121594429e-03 1.444307994097471237e-02 -1.165729761123657227e-02 -4.095800593495368958e-02 -3.593179211020469666e-02 5.016065016388893127e-02 -4.925350472331047058e-02 -3.752506896853446960e-02 -2.741087414324283600e-02 8.030498027801513672e-02 -3.841012343764305115e-02 -1.549831475131213665e-03 3.000113926827907562e-02 1.966072013601660728e-03 6.344407796859741211e-02 -3.364377096295356750e-02 2.435370534658432007e-02 -2.319327928125858307e-02 -2.345916070044040680e-02 7.099032518453896046e-04 3.592785447835922241e-02 2.881932770833373070e-03 -2.277840487658977509e-02 -3.260511159896850586e-02 -1.877297414466738701e-03 1.835098303854465485e-02 2.027017623186111450e-02 3.302504494786262512e-02 5.605811253190040588e-02 8.846741169691085815e-03 3.223556559532880783e-03 5.808270722627639771e-02 -2.564589306712150574e-02 -9.674958884716033936e-03 -4.295994713902473450e-02 -1.864000409841537476e-02 -1.421990059316158295e-02 -1.594552956521511078e-02 6.763927638530731201e-02 4.383733496069908142e-03 6.789031624794006348e-02 -3.390867263078689575e-02 -8.014315366744995117e-02 -3.799909027293324471e-03 2.496951259672641754e-02 6.368821859359741211e-02 -9.165982715785503387e-03 -4.024935141205787659e-02 1.340020727366209030e-02 -7.753474265336990356e-02 3.327571600675582886e-02 4.612152278423309326e-02 -2.560693025588989258e-02 -5.352535285055637360e-03 4.680569842457771301e-02 -9.647175669670104980e-03 3.967976197600364685e-02 -3.959988057613372803e-02 5.239525344222784042e-03 -3.174266964197158813e-02 8.293838240206241608e-03 -1.603449508547782898e-02 -7.406311482191085815e-02 -2.214067615568637848e-02 3.507475182414054871e-02 -9.867160767316818237e-02 7.780565880239009857e-03 -8.726407773792743683e-03 -5.513909459114074707e-02 1.961185969412326813e-02 -3.242696449160575867e-02 2.891721390187740326e-02 -5.046454817056655884e-02 -3.660646453499794006e-02 -7.029800862073898315e-02 3.485600464046001434e-03 -2.019643597304821014e-02 4.162056744098663330e-02 -3.321648016571998596e-02 -2.760888077318668365e-02 -4.996813088655471802e-02 6.875668466091156006e-02 7.231190800666809082e-02 -3.280245140194892883e-02 2.120967395603656769e-02 -3.980653733015060425e-02 -1.264180522412061691e-02 4.494017735123634338e-02 2.169027458876371384e-03 -5.216614529490470886e-02 -2.733440697193145752e-02 -3.052247315645217896e-02 -2.793944440782070160e-03 4.289576038718223572e-02 5.609161686152219772e-03 -1.496598590165376663e-02 1.574516855180263519e-02 1.334433723241090775e-02 -6.094722822308540344e-02 -2.192089706659317017e-02 5.833967402577400208e-02 -1.988815702497959137e-02 3.860745951533317566e-02
-4.405967146158218384e-02 3.877498582005500793e-02 6.612928211688995361e-02 -2.943716011941432953e-02 4.905686900019645691e-02 -1.165294367820024490e-02 -4.127243533730506897e-02 -2.499535679817199707e-02 -6.617574254050850868e-04 2.195821516215801239e-02 7.121179252862930298e-02 -3.837856277823448181e-02 -1.384806819260120392e-02 2.723327092826366425e-02 -1.204586029052734375e-02 -8.260228671133518219e-03 5.049619823694229126e-02 7.574023911729454994e-04 3.407456353306770325e-02 -1.605143188498914242e-03 2.713573910295963287e-02 1.415916066616773605e-02 -4.518511239439249039e-03 9.652748703956604004e-03 3.002590732648968697e-03 -2.571154944598674774e-02 -3.959090448915958405e-03 7.750032935291528702e-03 -1.339025795459747314e-02 -1.650132611393928528e-02 9.798267856240272522e-03 1.368804019875824451e-03 2.839130815118551254e-03 -3.050425648689270020e-02 -4.702313989400863647e-02 -1.369285397231578827e-02 -3.686329722404479980e-02 -6.655699759721755981e-02 6.482058204710483551e-03 -7.875844091176986694e-02 -3.693119436502456665e-02 3.573904279619455338e-03 2.311503887176513672e-02 -2.314146421849727631e-02 2.965581603348255157e-02 -5.827214941382408142e-02 4.512356128543615341e-03 -1.491461321711540222e-02 3.150712326169013977e-02 1.444782316684722900e-02 -4.394660890102386475e-02 3.900872776284813881e-03 -1.540373172610998154e-02 -1.347932498902082443e-02 -7.528511341661214828e-03 -2.982868626713752747e-02 6.981668993830680847e-03 6.481050513684749603e-05 -1.334565505385398865e-02 6.402607262134552002e-02 4.082002677023410797e-03 -7.866526395082473755e-02 3.035907074809074402e-02 -1.227471418678760529e-02 -3.253474459052085876e-02 4.144439101219177246e-02 1.144414208829402924e-02 2.867970615625381470e-02 4.916184395551681519e-02 1.594984531402587891e-02 1.496732514351606369e-02 3.914330154657363892e-02 4.124942421913146973e-02 4.619985818862915039e-02 5.956762656569480896e-02 6.450646091252565384e-03 -1.345193386077880859e-02 -8.315325528383255005e-02 -8.539661765098571777e-03 6.571660935878753662e-02 9.156010346487164497e-04 2.419077977538108826e-02 6.447017192840576172e-02 -1.081057358533143997e-03 -3.261026740074157715e-02 -1.868352293968200684e-02 2.225592033937573433e-03 -1.891561783850193024e-02 1.966026239097118378e-02 -4.038146138191223145e-02 -2.073771320283412933e-03 4.896515235304832458e-02 1.873759552836418152e-02 -4.613443091511726379e-02 -3.613568609580397606e-03 7.717010565102100372e-03 -7.230946328490972519e-03 7.186838984489440918e-02 5.115031823515892029e-02 1.489792577922344208e-02 -2.581515163183212280e-02 -6.249003857374191284e-02 -1.082448195666074753e-02 1.782185025513172150e-02 -3.475233539938926697e-02 -5.143218860030174255e-02 -8.935331553220748901e-02 -1.774817518889904022e-02 1.043234393000602722e-02 6.155480444431304932e-02 -8.542549330741167068e-04 -2.280515246093273163e-02 -1.593215949833393097e-02 -1.686071977019309998e-02 1.050535030663013458e-02 -6.555581837892532349e-02 -4.243677854537963867e-02 -3.183645382523536682e-02 -2.371042594313621521e-02 -1.329343207180500031e-02 1.480384264141321182e-02 -1.089287176728248596e-02 6.839019060134887695e-02 -2.037712559103965759e-02 -1.451307628303766251e-02 2.775126136839389801e-02 1.039530634880065918e-01 1.765247248113155365e-02
