3.750824555754661560e-02 6.838954240083694458e-02 -2.185344509780406952e-02 2.179123228415846825e-03 -2.620265446603298187e-02 -1.219659950584173203e-02 9.442850202322006226e-02 -7.180582731962203979e-02 -4.421586543321609497e-02 9.980286471545696259e-03 4.274206608533859253e-02 -6.702119484543800354e-03 -2.634856104850769043e-02 3.211347013711929321e-02 4.351363517343997955e-03 -5.109621211886405945e-03 -4.028055071830749512e-02 2.795983850955963135e-02 -2.968068048357963562e-02 9.766402654349803925e-03 2.683340426301583648e-05 5.563524737954139709e-02 1.091174222528934479e-02 2.621127059683203697e-03 7.824119180440902710e-03 -3.308334574103355408e-02 5.379815585911273956e-03 -2.181890420615673065e-02 9.552514180541038513e-03 2.769991755485534668e-02 4.248745366930961609e-02 4.741246625781059265e-02 -1.151327043771743774e-03 -3.655039519071578979e-02 2.928894571959972382e-02 2.783465385437011719e-02 -1.798925548791885376e-02 3.793317079544067383e-02 -2.868625707924365997e-02 -3.822274506092071533e-02 -3.407926857471466064e-02 -2.021549642086029053e-02 -2.757386118173599243e-02 4.842843860387802124e-02 4.558357223868370056e-02 -4.082900658249855042e-02 2.580692991614341736e-02 2.189124003052711487e-02 6.146362423896789551e-02 -4.595096036791801453e-02 -8.080988191068172455e-03 -6.423739343881607056e-02 -1.533167064189910889e-02 1.084483321756124496e-02 -4.575768485665321350e-02 -4.606488347053527832e-02 -6.030406802892684937e-02 -4.150298237800598145e-02 -2.097630687057971954e-02 8.034545928239822388e-03 -1.833983696997165680e-02 3.415236622095108032e-02 4.204082861542701721e-02 -1.980462577193975449e-03 -2.085768803954124451e-02 -1.751174777746200562e-02 1.383670885115861893e-02 -4.288035910576581955e-03 7.852199487388134003e-03 -1.696232892572879791e-02 -1.553024165332317352e-02 2.055202424526214600e-02 9.765605442225933075e-03 -6.902910023927688599e-02 -1.534533570520579815e-03 -3.874123468995094299e-02 -2.052200026810169220e-02 4.614976048469543457e-02 -1.293725054711103439e-02 -5.026293173432350159e-02 -2.219581417739391327e-02 -1.438329461961984634e-02 -4.626366309821605682e-03 -6.551750749349594116e-02 -3.761000186204910278e-02 -5.294366180896759033e-02 -5.602132063359022141e-03 9.176361374557018280e-03 4.850070923566818237e-03 5.183036625385284424e-02 2.521743811666965485e-02 -4.787843301892280579e-02 -2.438585460186004639e-02 3.442063555121421814e-02 -7.543052779510617256e-04 3.864691779017448425e-02 -1.682381704449653625e-02 1.992882043123245239e-02 2.612295374274253845e-02 -3.185861185193061829e-02 -2.205046825110912323e-02 -1.070444751530885696e-02 9.937834925949573517e-03 1.407622639089822769e-02 -3.322691842913627625e-02 4.986119642853736877e-02 3.529088944196701050e-02 6.423497572541236877e-03 -5.678281188011169434e-03 -1.532034296542406082e-02 -3.960213065147399902e-02 -3.532652184367179871e-02 -4.869382083415985107e-02 2.314748801290988922e-02 -5.936564505100250244e-02 5.845175310969352722e-02 -3.583401069045066833e-02 2.611462771892547607e-02 1.710833981633186340e-02 -3.212792426347732544e-02 -3.444875031709671021e-02 -8.101571351289749146e-03 -2.908511646091938019e-02 -1.090562343597412109e-02 1.275776699185371399e-02 -6.224980577826499939e-02 1.871354319155216217e-02 -5.712906643748283386e-02
4.672359209507703781e-03 7.696636021137237549e-02 5.705470591783523560e-02 -1.421907823532819748e-02 -4.061603918671607971e-02 -4.978659003973007202e-02 -2.852467633783817291e-02 -2.833632752299308777e-02 -5.667053908109664917e-02 -1.880613528192043304e-02 6.065992638468742371e-03 1.363382302224636078e-02 2.516067214310169220e-02 7.218680111691355705e-04 -2.938383817672729492e-02 6.974355317652225494e-03 3.120473027229309082e-02 9.256714954972267151e-03 4.421285167336463928e-02 -3.740425454452633858e-03 -1.564164459705352783e-02 -9.675339795649051666e-03 8.231246471405029297e-02 -3.742339089512825012e-02 4.929066449403762817e-02 -1.546969730406999588e-02 2.816263120621442795e-03 -1.758833043277263641e-02 1.363345980644226074e-02 4.005787149071693420e-02 2.999899908900260925e-02 -6.269687321037054062e-03 -1.177313178777694702e-02 1.828196458518505096e-02 1.957379281520843506e-02 1.064970344305038452e-02 2.345111779868602753e-02 1.339398697018623352e-02 2.838433347642421722e-02 3.741255775094032288e-02 3.568191453814506531e-02 5.440581589937210083e-02 6.877097301185131073e-03 -9.616837650537490845e-02 1.550042070448398590e-03 5.908822175115346909e-03 -3.391430154442787170e-02 -4.141665250062942505e-02 -3.700742963701486588e-03 1.023424323648214340e-02 -8.922602050006389618e-03 -4.650886170566082001e-03 5.209008604288101196e-02 9.436571039259433746e-03 -1.311543863266706467e-02 -3.814887627959251404e-02 4.751101136207580566e-03 1.981838792562484741e-02 4.728926345705986023e-03 6.230523344129323959e-03 -5.298025906085968018e-03 -3.607783466577529907e-02 -4.732502624392509460e-03 7.960838824510574341e-02 3.319451212882995605e-02 -1.757556921802461147e-03 -3.910401836037635803e-02 -3.726157546043395996e-02 -4.921111837029457092e-02 -2.596477605402469635e-02 2.670894190669059753e-02 -1.476120576262474060e-02 5.318415910005569458e-02 -1.237504836171865463e-02 4.986187815666198730e-02 1.001659408211708069e-01 -3.279808163642883301e-02 5.284635350108146667e-03 -3.008318133652210236e-02 -5.535314325243234634e-03 -5.601908080279827118e-03 4.229405894875526428e-02 4.336003586649894714e-02 -5.559122655540704727e-03 5.130011960864067078e-02 1.525742746889591217e-02 5.719946697354316711e-02 -3.911716490983963013e-02 6.731864809989929199e-02 -2.475128136575222015e-02 -2.039425773546099663e-03 1.496566552668809891e-02 1.395993307232856750e-02 -4.137442633509635925e-02 3.097187436651438475e-04 -1.082739699631929398e-02 2.353687398135662079e-02 -1.274615805596113205e-02 3.720450401306152344e-02 1.801339909434318542e-02 -2.249478176236152649e-02 -9.955077432096004486e-03 3.050638921558856964e-02 1.669805869460105896e-02 -1.878652907907962799e-02 4.887161194346845150e-04 -7.414697110652923584e-02 -3.461448848247528076e-02 -3.541933000087738037e-02 5.163248628377914429e-03 2.123395726084709167e-02 1.078203693032264709e-01 2.769549563527107239e-02 -5.802226439118385315e-02 2.708880056161433458e-04 4.264831170439720154e-02 -5.376027897000312805e-02 -8.785815909504890442e-03 -9.454796463251113892e-02 -1.336102094501256943e-02 2.511479193344712257e-03 1.173924840986728668e-02 2.574738673865795135e-02 -9.001498110592365265e-03 4.914630670100450516e-03 1.060572564601898193e-01 7.254249881953001022e-03 1.297080703079700470e-02
-1.301097683608531952e-02 -2.203263156116008759e-02 4.029081389307975769e-02 2.116958238184452057e-02 -4.675476998090744019e-02 1.057335268706083298e-02 -4.958381503820419312e-02 -5.131706595420837402e-02 3.499937057495117188e-02 -1.165693905204534531e-02 2.584814652800559998e-02 3.718218952417373657e-02 6.372318416833877563e-02 -2.130473405122756958e-02 3.819275274872779846e-02 2.216127514839172363e-02 -1.322037354111671448e-02 -5.925576202571392059e-03 -3.019862063229084015e-02 3.894887119531631470e-02 -3.828979656100273132e-02 -1.360057201236486435e-02 1.719822362065315247e-02 -1.538226287811994553e-02 -1.201522070914506912e-02 4.901024512946605682e-03 5.186145007610321045e-02 -1.573945023119449615e-02 -9.464124217629432678e-03 -2.193129807710647583e-02 -3.711504628881812096e-03 4.031391581520438194e-04 4.965128749608993530e-02 -2.166027761995792389e-02 -5.120705068111419678e-02 4.479710012674331665e-02 2.369571849703788757e-02 3.906374424695968628e-02 -2.124498598277568817e-03 -7.669406943023204803e-03 2.089993655681610107e-02 9.044208563864231110e-03 -2.998139522969722748e-02 -2.103483304381370544e-02 2.848951891064643860e-02 -2.940822578966617584e-02 -4.468191042542457581e-02 -3.785580769181251526e-02 1.803173311054706573e-02 -3.044402226805686951e-03 9.465933777391910553e-03 -2.093794569373130798e-02 -2.716122008860111237e-02 -2.614051662385463715e-02 -1.007468998432159424e-02 4.237912595272064209e-02 2.449388243257999420e-02 -4.337684810161590576e-02 -1.847207732498645782e-02 -6.151731940917670727e-04 -4.183358326554298401e-02 -4.209638386964797974e-02 -8.691268740221858025e-04 4.047113936394453049e-03 -1.454377640038728714e-02 6.464131642132997513e-03 -7.686207536607980728e-03 3.391396254301071167e-02 -6.581419147551059723e-03 -2.997921034693717957e-02 9.209285490214824677e-03 -1.433950499631464481e-03 -3.876932710409164429e-02 3.029203601181507111e-02 -1.247188542038202286e-03 3.924749791622161865e-03 9.368406608700752258e-03 -4.000889603048563004e-03 1.657536486163735390e-03 -6.283907219767570496e-03 3.061966970562934875e-02 -3.174680098891258240e-02 -1.495426706969738007e-02 -4.523978102952241898e-03 -3.521964326500892639e-02 3.812125697731971741e-02 -2.090353891253471375e-02 -8.218850940465927124e-03 -2.812116593122482300e-02 9.152354300022125244e-02 2.800099179148674011e-02 3.366489335894584656e-02 -3.690571337938308716e-02 -1.479600649327039719e-02 -2.730266749858856201e-02 -6.745361257344484329e-03 3.374011069536209106e-02 -4.260795656591653824e-03 -4.149191454052925110e-02 5.442244466394186020e-03 -8.324883878231048584e-03 -6.121149752289056778e-03 -1.622943207621574402e-02 -1.591224409639835358e-02 -1.039512641727924347e-02 1.913057640194892883e-02 -1.930371113121509552e-02 -3.481740504503250122e-02 2.621256001293659210e-02 -1.590295322239398956e-02 1.362879667431116104e-02 -2.317502163350582123e-02 -1.576229371130466461e-02 1.079872809350490570e-02 4.840855300426483154e-02 -4.146333783864974976e-02 1.887074857950210571e-02 -3.565386310219764709e-02 2.723895385861396790e-02 -3.223602846264839172e-02 -2.634785138070583344e-02 -1.740969531238079071e-02 -1.785072870552539825e-02 -3.407633164897561073e-03 -9.222534485161304474e-03 2.120794728398323059e-02 -1.022199727594852448e-02 -2.418468333780765533e-02
4.102942347526550293e-02 2.113656513392925262e-02 -5.769395828247070312e-02 -5.027202516794204712e-02 1.553356088697910309e-02 2.809355966746807098e-02 1.804185099899768829e-02 -2.017324150074273348e-04 -2.305073291063308716e-02 7.917076349258422852e-02 -7.741415500640869141e-02 -4.764108359813690186e-02 -4.110663384199142456e-02 -1.731532998383045197e-02 4.009284824132919312e-02 -1.004496403038501740e-02 -9.205278940498828888e-03 1.823655888438224792e-02 3.533875104039907455e-03 -4.689787700772285461e-02 5.076561868190765381e-02 8.622531592845916748e-02 3.396483510732650757e-02 4.217839613556861877e-02 1.889295503497123718e-02 4.516134038567543030e-02 1.029804572463035583e-01 2.059063501656055450e-02 5.169851705431938171e-03 -2.751617133617401123e-02 -1.065821480005979538e-02 2.702327631413936615e-02 -5.640264600515365601e-02 4.994195699691772461e-02 -3.785546869039535522e-04 -3.809737786650657654e-02 9.970805607736110687e-03 1.407592277973890305e-02 -2.880692016333341599e-03 -6.352899968624114990e-02 -5.760153871960937977e-04 1.783179864287376404e-02 1.875494234263896942e-02 -8.085707575082778931e-02 -5.418102443218231201e-02 -1.021924708038568497e-02 -1.229659002274274826e-02 -4.081301391124725342e-02 -2.546819858253002167e-02 -9.644021629355847836e-04 5.258935969322919846e-03 -7.794860284775495529e-03 -1.353775896131992340e-02 5.419026687741279602e-02 -1.909746415913105011e-02 3.220856934785842896e-02 1.953566260635852814e-02 -3.444484248757362366e-02 1.604344882071018219e-02 -1.827589608728885651e-02 -8.329593576490879059e-03 4.222604259848594666e-02 -3.820701688528060913e-02 -1.580291613936424255e-02 -4.348009079694747925e-02 4.990814626216888428e-02 -1.927848532795906067e-02 1.170430518686771393e-02 -8.810039609670639038e-03 8.697580546140670776e-02 4.218728840351104736e-02 8.090844377875328064e-03 -3.446080954745411873e-04 -2.410068735480308533e-02 -8.884920179843902588e-02 -6.518126279115676880e-02 2.013315446674823761e-02 -9.502850472927093506e-03 -3.603151440620422363e-02 3.917882964015007019e-02 9.120851755142211914e-02 2.190513163805007935e-02 2.095088828355073929e-03 4.437089711427688599e-02 -4.098045453429222107e-02 7.471601478755474091e-03 2.045916207134723663e-02 -4.635194689035415649e-02 -7.886159233748912811e-03 6.011322140693664551e-03 1.839029230177402496e-02 1.973536424338817596e-02 6.301608402281999588e-03 3.047369234263896942e-02 1.563899405300617218e-02 -5.755474790930747986e-03 6.211514584720134735e-03 2.713377820327877998e-03 5.922350101172924042e-03 -2.857478894293308258e-02 -1.341503113508224487e-02 -4.810808598995208740e-02 -3.984149172902107239e-02 -5.071324855089187622e-02 -1.805702224373817444e-02 7.651469204574823380e-03 -3.007007762789726257e-02 9.328753687441349030e-03 -2.244863845407962799e-02 6.536325067281723022e-02 1.683944463729858398e-02 2.909213677048683167e-02 1.769111864268779755e-02 -4.493162781000137329e-02 -9.434521198272705078e-03 2.412638068199157715e-02 -1.761444099247455597e-02 -2.488436643034219742e-03 -2.906593494117259979e-02 -3.359784558415412903e-02 3.254315257072448730e-02 -7.681889086961746216e-02 -1.943925395607948303e-03 -4.746464639902114868e-02 -7.867942750453948975e-02 1.019534748047590256e-02 -1.370547432452440262e-02 4.147682711482048035e-02
-2.370304428040981293e-02 -1.445314474403858185e-02 -2.785846032202243805e-02 -4.844840615987777710e-02 5.880618840456008911e-02 -1.014737598598003387e-02 -2.479406632483005524e-02 -1.491721952334046364e-03 4.255783557891845703e-02 -7.572461664676666260e-02 4.911118000745773315e-02 2.716488763689994812e-02 2.761857211589813232e-02 3.482802584767341614e-02 -4.797813668847084045e-02 -3.987933974713087082e-03 -3.776874020695686340e-02 3.370534256100654602e-02 6.750550121068954468e-03 -7.138869166374206543e-02 -1.448267325758934021e-02 5.121358111500740051e-02 -2.919661812484264374e-02 4.151583835482597351e-02 -6.342054158449172974e-02 6.399781908839941025e-03 -6.462197005748748779e-02 7.735749334096908569e-02 -4.777045920491218567e-02 -1.601229072548449039e-03 -1.633340865373611450e-02 -3.647918626666069031e-02 -1.043986380100250244e-01 3.055289201438426971e-02 -1.038443017750978470e-02 3.581880778074264526e-02 2.454270049929618835e-02 9.238450787961483002e-03 6.470801681280136108e-02 5.839495360851287842e-02 -4.584671556949615479e-02 -5.969830974936485291e-02 6.577949970960617065e-02 4.580903798341751099e-02 -6.515457760542631149e-03 -4.223832115530967712e-02 -4.963989369571208954e-03 -5.304707959294319153e-02 4.661595076322555542e-02 4.132845625281333923e-02 3.600781783461570740e-02 7.517579942941665649e-02 -4.136361181735992432e-02 -1.379526965320110321e-02 3.082180395722389221e-02 -1.410446222871541977e-02 -2.789714187383651733e-02 5.912817642092704773e-02 -8.330696076154708862e-02 -1.300991699099540710e-02 -4.510649293661117554e-02 -3.926001861691474915e-02 -8.885040879249572754e-02 -6.489045172929763794e-02 -6.778565049171447754e-02 -5.414032936096191406e-02 2.968372963368892670e-02 3.459798172116279602e-03 2.443735674023628235e-02 5.285248532891273499e-02 4.866480827331542969e-02 -7.781814783811569214e-02 4.779437929391860962e-02 2.371287345886230469e-02 6.240215152502059937e-02 4.382900148630142212e-02 -3.748778253793716431e-02 3.288026154041290283e-02 1.564623974263668060e-02 2.583158388733863831e-02 -2.162380842491984367e-03 -1.818588562309741974e-02 -6.342293322086334229e-02 5.578821897506713867e-02 4.272697959095239639e-03 1.962652243673801422e-02 -4.388884827494621277e-02 -9.068158455193042755e-03 1.357771456241607666e-03 -7.876682281494140625e-02 -2.195566333830356598e-02 1.394464261829853058e-02 5.642366409301757812e-02 -6.566838175058364868e-02 -2.292739786207675934e-02 3.488108515739440918e-02 -4.764358326792716980e-02 6.938341259956359863e-02 3.857938572764396667e-02 -1.749161444604396820e-02 -4.029574990272521973e-02 1.889350078999996185e-02 8.308318257331848145e-02 -2.019696170464158058e-03 5.642637237906455994e-02 1.595856435596942902e-02 1.553696207702159882e-02 -1.513811945915222168e-02 1.577466353774070740e-02 2.622174844145774841e-02 6.840213388204574585e-02 -6.740031391382217407e-02 3.169315308332443237e-02 1.509502250701189041e-02 -2.680508233606815338e-02 -1.429473888128995895e-02 5.525988060981035233e-03 -5.217456072568893433e-02 2.666525729000568390e-02 -3.651510551571846008e-02 -5.792254954576492310e-02 -2.739483304321765900e-02 5.172279477119445801e-02 5.487328395247459412e-03 -5.648145452141761780e-03 1.424284186214208603e-02 -4.907177761197090149e-03 3.082728944718837738e-03
-3.598655015230178833e-02 4.565316485241055489e-04 1.899296621559187770e-04 1.738335750997066498e-02 2.128770574927330017e-02 1.635852456092834473e-02 4.960820544511079788e-03 -1.183221861720085144e-02 -3.844629973173141479e-02 -5.213967524468898773e-03 3.015368059277534485e-02 -1.877261325716972351e-02 5.017317365854978561e-03 3.670618170872330666e-03 -1.073466613888740540e-02 -3.117923811078071594e-02 -2.661086246371269226e-02 -2.534848637878894806e-02 5.912557244300842285e-04 -7.801344152539968491e-03 -2.046360075473785400e-02 2.206089440733194351e-03 -5.051461979746818542e-02 -3.077226504683494568e-02 -1.222746167331933975e-02 -5.928298085927963257e-02 3.550533205270767212e-02 -8.095377124845981598e-03 -4.177815839648246765e-02 -9.889331646263599396e-03 -2.055063657462596893e-02 3.245622664690017700e-02 5.071079824119806290e-03 1.716544665396213531e-02 -2.717672614380717278e-04 4.437881708145141602e-02 1.028312556445598602e-02 -1.823731325566768646e-02 -7.249747868627309799e-03 6.874883081763982773e-03 2.559507824480533600e-02 4.556194320321083069e-02 -1.745934784412384033e-02 -8.785389945842325687e-04 -2.005358971655368805e-02 2.333173155784606934e-02 -9.365011646877974272e-05 9.105647914111614227e-03 8.102964609861373901e-03 -1.016255351714789867e-03 -1.115645654499530792e-02 2.881084568798542023e-02 -2.219190262258052826e-02 1.214125938713550568e-02 3.321818262338638306e-02 -8.203210891224443913e-04 6.579706072807312012e-02 -3.700340539216995239e-02 5.860958714038133621e-03 -1.493683457374572754e-02 -5.311952158808708191e-02 -1.529535744339227676e-02 2.286362694576382637e-03 8.128783665597438812e-03 -3.312837332487106323e-02 5.254455283284187317e-02 2.059463784098625183e-02 2.723493846133351326e-03 5.952121689915657043e-02 -6.331510841846466064e-03 2.028933353722095490e-02 3.625424206256866455e-02 7.217346690595149994e-03 -3.546112030744552612e-02 -1.966848969459533691e-02 -2.403120324015617371e-02 1.360496040433645248e-02 1.022425014525651932e-02 -2.061366848647594452e-02 9.858611971139907837e-03 5.389890447258949280e-02 8.269269019365310669e-03 -2.315850462764501572e-03 -2.309498749673366547e-02 3.119123354554176331e-02 -1.093038474209606647e-03 1.493950001895427704e-02 3.415127843618392944e-02 6.712359376251697540e-03 -2.545260637998580933e-02 -3.435616940259933472e-02 -2.045106329023838043e-02 -2.093929424881935120e-02 -1.006224937736988068e-02 -2.318773046135902405e-02 3.063183650374412537e-02 -8.601646870374679565e-03 -5.750348325818777084e-03 1.345575600862503052e-02 -9.472669102251529694e-03 3.445447189733386040e-03 3.989218920469284058e-02 2.789651229977607727e-02 -2.131959889084100723e-03 -5.058550834655761719e-02 1.521114632487297058e-02 -4.582036659121513367e-02 3.983050957322120667e-02 -4.270946606993675232e-02 1.484621595591306686e-02 6.178088951855897903e-03 -7.486817426979541779e-03 -2.211903966963291168e-02 4.927252233028411865e-02 -5.435822997242212296e-03 -1.425902266055345535e-02 -2.698494680225849152e-02 7.148553617298603058e-03 -1.239026058465242386e-02 2.946361340582370758e-02 -1.109848264604806900e-02 -2.988260239362716675e-02 6.250939518213272095e-02 -1.802383549511432648e-02 -9.078524075448513031e-03 5.207675974816083908e-03 1.502825878560543060e-02 3.205944597721099854e-02
-1.846663467586040497e-02 -8.599995821714401245e-02 1.121774036437273026e-02 1.609102636575698853e-02 5.077826976776123047e-02 4.212371259927749634e-02 -6.454455200582742691e-03 -2.554181218147277832e-02 -9.467384661547839642e-04 -9.305579587817192078e-03 6.306935101747512817e-02 1.067015901207923889e-02 -8.789072744548320770e-03 1.266765687614679337e-02 -4.036260023713111877e-02 -2.643514424562454224e-02 -6.565809599123895168e-04 1.936957426369190216e-02 -1.732913404703140259e-02 -3.880463913083076477e-02 4.240454360842704773e-02 -4.799889028072357178e-02 -1.922443392686545849e-03 4.804660100489854813e-03 1.753146946430206299e-02 2.195696718990802765e-02 2.291965484619140625e-02 -6.810176372528076172e-02 1.202765665948390961e-02 7.232488133013248444e-03 2.788567729294300079e-02 4.758716374635696411e-02 -7.935700006783008575e-03 -8.021428436040878296e-02 2.832812722772359848e-03 -3.763981163501739502e-02 -3.843665821477770805e-03 2.484973985701799393e-03 -1.870078220963478088e-02 4.073135554790496826e-02 -4.970140382647514343e-02 -4.569279844872653484e-04 -4.312509298324584961e-02 4.913584887981414795e-02 -6.206410378217697144e-02 1.706485264003276825e-02 3.207108378410339355e-02 -1.515850145369768143e-02 -2.161764167249202728e-02 -2.549745142459869385e-02 2.616198733448982239e-02 -6.357879377901554108e-03 7.415867876261472702e-03 2.654787851497530937e-03 -2.943924255669116974e-02 -5.652188137173652649e-02 8.788994699716567993e-02 -1.904779492178931832e-04 7.127936184406280518e-02 -1.798652857542037964e-02 -5.720000714063644409e-03 -2.084130793809890747e-02 1.993580162525177002e-02 1.938358647748827934e-03 6.692564487457275391e-02 4.184462595731019974e-03 4.567702859640121460e-02 -2.215842716395854950e-02 2.294364152476191521e-03 -4.942869395017623901e-02 -3.958636522293090820e-02 2.051008492708206177e-02 -1.466546952724456787e-02 7.833669334650039673e-02 -1.117268984671682119e-04 1.625537173822522163e-03 5.297636985778808594e-02 1.481521036475896835e-02 1.152021624147891998e-02 -1.885536126792430878e-02 -9.694141894578933716e-02 -3.616818785667419434e-02 1.703834906220436096e-02 -1.369622419588267803e-03 3.651898726820945740e-02 -2.112147025763988495e-02 6.971532106399536133e-02 -9.254591912031173706e-02 1.376593485474586487e-02 8.523780852556228638e-02 -5.774914473295211792e-02 6.585887074470520020e-02 1.275636442005634308e-02 -3.489078953862190247e-02 -9.799510240554809570e-03 2.109923027455806732e-02 9.124298579990863800e-03 -7.065304368734359741e-02 1.036302745342254639e-02 -4.238742217421531677e-02 -2.467540465295314789e-02 -4.637962672859430313e-03 4.665039479732513428e-03 -2.487922459840774536e-02 6.779905874282121658e-03 -3.137294948101043701e-02 -5.745451897382736206e-02 -1.714075915515422821e-02 -4.800281301140785217e-02 -4.231823608279228210e-02 3.395514190196990967e-02 3.206594660878181458e-02 3.357506915926933289e-02 9.695301204919815063e-02 -7.865518331527709961e-03 -7.519081979990005493e-02 1.594394631683826447e-02 1.658624783158302307e-02 -2.149349078536033630e-02 7.284341007471084595e-02 -3.694223240017890930e-02 2.737188525497913361e-02 -9.413447231054306030e-03 5.464412644505500793e-02 -1.998241432011127472e-02 -2.097311615943908691e-02 2.771037444472312927e-02 5.135245621204376221e-02
4.386112093925476074e-02 -3.599141957238316536e-03 7.630623877048492432e-04 2.620554156601428986e-02 -4.872797429561614990e-02 -3.459082916378974915e-02 2.932535484433174133e-02 6.983472406864166260e-02 -2.718024142086505890e-02 -6.253693997859954834e-02 -3.939453884959220886e-02 1.897137239575386047e-02 -1.213944423943758011e-02 -7.058089599013328552e-03 -4.926241934299468994e-02 -2.832442708313465118e-02 1.464908011257648468e-02 -1.444147340953350067e-02 1.928354054689407349e-02 -4.428215790539979935e-03 -2.611136063933372498e-02 -1.107274666428565979e-01 -1.074234619736671448e-01 1.769281364977359772e-02 1.626495830714702606e-02 9.799272753298282623e-03 9.394800290465354919e-03 2.638662420213222504e-02 3.787086904048919678e-02 2.463141689077019691e-03 -1.975336857140064240e-02 9.238051250576972961e-03 1.509408000856637955e-02 -2.208496257662773132e-02 -5.027151107788085938e-02 -6.249503698199987411e-03 -5.321879312396049500e-02 -8.495859056711196899e-02 6.012717261910438538e-02 -1.768569462001323700e-02 1.852631568908691406e-02 -8.477345108985900879e-03 -6.895641237497329712e-02 2.246056869626045227e-02 2.285963296890258789e-02 8.400893211364746094e-02 -2.031807415187358856e-02 1.003811210393905640e-01 -3.100412525236606598e-02 -5.290955770760774612e-03 -3.916051611304283142e-02 7.843460887670516968e-02 -5.011474713683128357e-02 -2.945775538682937622e-02 2.491904422640800476e-02 1.068500801920890808e-02 -5.960133671760559082e-02 -5.231728311628103256e-03 3.796387836337089539e-02 9.280232712626457214e-03 9.536863118410110474e-02 6.532202661037445068e-02 -1.635807566344738007e-02 2.308350987732410431e-02 -3.001643531024456024e-02 -3.568988665938377380e-02 2.489728666841983795e-02 -2.337899245321750641e-02 3.939012810587882996e-02 -2.239840850234031677e-02 1.091697532683610916e-02 1.312199514359235764e-02 -2.955055981874465942e-02 2.051882678642868996e-03 -2.600533422082662582e-03 -1.980480551719665527e-02 8.603420108556747437e-02 -7.795913610607385635e-03 3.470048308372497559e-02 -6.510125845670700073e-02 -2.414956688880920410e-02 -3.589867800474166870e-02 4.234632849693298340e-02 -3.293328732252120972e-02 2.192035876214504242e-02 5.765715613961219788e-02 -2.632598206400871277e-02 5.690868943929672241e-02 -4.873791337013244629e-02 -5.695926956832408905e-03 -6.866370886564254761e-02 -1.594095490872859955e-03 -2.149057388305664062e-02 4.809968918561935425e-02 3.442488238215446472e-02 -4.453124478459358215e-02 8.666543662548065186e-02 -6.174937635660171509e-02 -2.576410397887229919e-02 3.607609076425433159e-03 5.438099056482315063e-02 1.940226927399635315e-02 -3.897147998213768005e-02 2.581044845283031464e-02 -4.864325001835823059e-02 -2.525235526263713837e-02 5.711593106389045715e-02 -7.265287451446056366e-03 5.655480548739433289e-02 -7.351350039243698120e-02 -6.011780351400375366e-02 5.821790546178817749e-02 7.031553238630294800e-02 -2.989191934466362000e-02 -1.656922884285449982e-02 3.529831767082214355e-02 2.676732093095779419e-02 -2.232555672526359558e-02 2.076910994946956635e-02 -5.729722906835377216e-04 5.765707790851593018e-02 3.153023868799209595e-02 -1.375756599009037018e-02 -3.526895865797996521e-02 4.172399640083312988e-02 7.304418366402387619e-03 3.132676705718040466e-02 5.321118235588073730e-02
