3.187147527933120728e-02 5.268549546599388123e-02 -1.418032310903072357e-02 -4.149181302636861801e-03 -2.453862503170967102e-02 -1.645368523895740509e-02 7.324462383985519409e-02 -4.987603425979614258e-02 -4.342421144247055054e-02 1.483896397985517979e-03 4.458124563097953796e-02 -1.960451249033212662e-03 -8.898750878870487213e-03 4.058262333273887634e-02 5.202224478125572205e-03 -7.517930585891008377e-03 -3.273702412843704224e-02 2.070904709398746490e-02 -2.017769590020179749e-02 2.950447378680109978e-03 -3.614641493186354637e-03 3.474407270550727844e-02 -5.555243697017431259e-03 7.627652958035469055e-03 1.471851114183664322e-02 -2.628303691744804382e-02 8.287298493087291718e-03 -1.832325942814350128e-02 3.439671359956264496e-03 2.560440637171268463e-02 2.605501003563404083e-02 4.405456036329269409e-02 -6.063001230359077454e-03 -2.600883692502975464e-02 2.529968880116939545e-02 2.007869631052017212e-02 -1.705663464963436127e-02 2.974206209182739258e-02 -3.854504600167274475e-02 -2.737279795110225677e-02 -1.822392456233501434e-02 -3.517105709761381149e-03 -2.832131460309028625e-02 3.471194952726364136e-02 2.404700219631195068e-02 -3.543293476104736328e-02 2.240082249045372009e-02 1.793258823454380035e-02 4.827366396784782410e-02 -4.369741678237915039e-02 -7.357179187238216400e-03 -4.552317038178443909e-02 -1.819817535579204559e-02 2.948322333395481110e-03 -2.687430568039417267e-02 -3.008835576474666595e-02 -4.198675230145454407e-02 -3.879082575440406799e-02 -1.142916548997163773e-02 9.468574076890945435e-03 -2.006613649427890778e-02 4.176987335085868835e-02 2.194843627512454987e-02 2.183451782912015915e-03 -2.037123404443264008e-02 -3.110867738723754883e-02 1.487332675606012344e-02 -1.909009763039648533e-03 1.387535687536001205e-02 -2.061581984162330627e-02 -8.827777579426765442e-03 1.899593137204647064e-02 5.059437360614538193e-03 -6.828885525465011597e-02 -5.721158348023891449e-03 -3.854789584875106812e-02 -1.477943640202283859e-02 4.042242839932441711e-02 -1.078009232878684998e-02 -5.597444623708724976e-02 -1.520864106714725494e-02 -2.107776328921318054e-02 -1.295249327085912228e-03 -5.282076448202133179e-02 -3.569838404655456543e-02 -3.184481710195541382e-02 -7.470935583114624023e-03 4.353864118456840515e-03 2.289177617058157921e-03 5.174677819013595581e-02 3.005128353834152222e-03 -4.618472978472709656e-02 -1.621382869780063629e-02 2.044829539954662323e-02 9.173181839287281036e-03 2.303085662424564362e-02 -1.082310639321804047e-02 1.127993315458297729e-02 2.403141371905803680e-02 -2.136925980448722839e-02 -3.439443185925483704e-02 2.806975273415446281e-03 -2.366523724049329758e-03 1.009365636855363846e-02 -2.454801648855209351e-02 3.911726176738739014e-02 2.263777889311313629e-02 1.163853518664836884e-02 -1.729090698063373566e-02 -1.506500784307718277e-02 -3.319928422570228577e-02 -3.882420063018798828e-02 -4.402440413832664490e-02 1.315096765756607056e-02 -5.629868060350418091e-02 4.942234233021736145e-02 -2.948077768087387085e-02 2.599635906517505646e-02 9.079359471797943115e-03 -2.069661393761634827e-02 -2.815692313015460968e-02 -1.401658356189727783e-02 -1.364060770720243454e-02 -9.152462705969810486e-03 -6.168641149997711182e-03 -5.411552637815475464e-02 1.624917984008789062e-02 -2.823335677385330200e-02
4.035530146211385727e-03 3.012125939130783081e-02 2.271615713834762573e-02 -3.755721962079405785e-03 -1.685527712106704712e-02 -2.250924706459045410e-02 5.975948646664619446e-03 -2.268074639141559601e-02 -2.691962756216526031e-02 -2.895824983716011047e-02 1.118362997658550739e-03 8.103566244244575500e-03 1.034200564026832581e-02 1.143430173397064209e-02 -1.432762015610933304e-02 4.587001167237758636e-03 1.202730275690555573e-02 1.387699320912361145e-02 1.475491933524608612e-02 8.396018296480178833e-03 -9.119338355958461761e-04 -1.894571445882320404e-02 5.054379999637603760e-02 -1.449337042868137360e-02 1.446993742138147354e-02 -1.362170837819576263e-02 1.095998473465442657e-02 -1.097597926855087280e-02 1.568687520921230316e-02 3.244136646389961243e-02 2.375639975070953369e-02 1.366333197802305222e-02 -1.865889690816402435e-02 4.242605064064264297e-03 7.794201839715242386e-03 8.440150879323482513e-03 2.306839637458324432e-02 1.661005429923534393e-02 3.578926995396614075e-02 2.404648624360561371e-02 1.645132340490818024e-02 3.159025683999061584e-02 7.424575160257518291e-04 -4.870757088065147400e-02 -9.037977084517478943e-03 6.440119352191686630e-03 -2.807811647653579712e-02 -3.169593960046768188e-02 -2.834552899003028870e-03 1.751859486103057861e-02 -2.249350585043430328e-02 1.224185526371002197e-02 2.638397924602031708e-02 1.538676302880048752e-02 -1.795377954840660095e-02 -1.887728460133075714e-02 7.802661042660474777e-03 1.566022634506225586e-02 1.534952549263834953e-03 1.314233802258968353e-02 -1.823602011427283287e-03 -2.918490208685398102e-02 -8.225572295486927032e-03 5.068841949105262756e-02 1.330397836863994598e-02 -5.525698070414364338e-04 -3.186587418895214796e-04 -1.431158557534217834e-02 -2.529438771307468414e-02 -8.570623584091663361e-03 3.145857900381088257e-02 3.781828796491026878e-03 3.478010743856430054e-02 -1.226042513735592365e-03 2.613657340407371521e-02 7.485283166170120239e-02 -1.582766696810722351e-02 9.235085919499397278e-03 -3.273550246376544237e-04 -1.157219754531979561e-03 -1.541018299758434296e-02 2.726145274937152863e-02 3.337102010846138000e-02 -7.650601677596569061e-03 2.401678636670112610e-02 1.709292270243167877e-02 2.996546402573585510e-02 -1.885633356869220734e-02 3.821756318211555481e-02 -1.527007110416889191e-02 6.043770117685198784e-04 2.209096215665340424e-02 1.556301489472389221e-02 -3.339989483356475830e-02 -1.234355941414833069e-02 9.583601728081703186e-03 -6.010192912071943283e-03 -1.675742492079734802e-02 3.296762704849243164e-02 1.800229214131832123e-02 -1.254184078425168991e-02 -1.257915981113910675e-02 2.550206705927848816e-02 3.293743066024035215e-04 -1.120957080274820328e-02 2.647672779858112335e-03 -5.079031363129615784e-02 -3.064783476293087006e-02 -2.829766646027565002e-02 6.859065615572035313e-04 2.247578278183937073e-02 5.807034298777580261e-02 2.523145079612731934e-02 -1.972447335720062256e-02 3.416353836655616760e-03 3.035164251923561096e-02 -2.586778067052364349e-02 -4.146459512412548065e-03 -4.571153968572616577e-02 2.181168878450989723e-03 -2.356268232688307762e-03 -6.706706248223781586e-03 8.586182259023189545e-03 -1.305927056819200516e-02 5.291942972689867020e-03 7.763172686100006104e-02 2.410193532705307007e-02 3.760094754397869110e-03
-1.306198886595666409e-03 -8.985505439341068268e-03 1.645561680197715759e-02 1.797855831682682037e-02 -2.963661588728427887e-02 1.612105872482061386e-03 -4.209362342953681946e-02 -2.813413180410861969e-02 2.997144497931003571e-02 -1.400400791317224503e-02 2.150098234415054321e-02 2.280064299702644348e-02 5.131967365741729736e-02 -2.224067598581314087e-02 3.236074745655059814e-02 1.845525391399860382e-02 -7.541959173977375031e-03 -8.406838402152061462e-03 -1.828372851014137268e-02 1.399132050573825836e-02 -1.818097755312919617e-02 9.271338582038879395e-03 2.129122428596019745e-02 -7.446320261806249619e-03 -1.214577816426753998e-02 8.455074392259120941e-03 2.882373705506324768e-02 -2.002225257456302643e-02 -2.073491550981998444e-02 -2.604846470057964325e-02 9.096545167267322540e-03 -1.138701383024454117e-02 2.669527381658554077e-02 -1.437124889343976974e-02 -3.644825890660285950e-02 3.607655316591262817e-02 1.500369794666767120e-02 2.629823982715606689e-02 2.071427181363105774e-02 -4.610507283359766006e-03 5.483005661517381668e-03 1.411205623298883438e-02 -2.219494245946407318e-02 -3.164412220939993858e-03 2.437091618776321411e-02 -2.713590860366821289e-02 -3.639558702707290649e-02 -3.185551613569259644e-02 6.890540244057774544e-04 -1.215097215026617050e-02 2.081676758825778961e-02 -1.383760711178183556e-03 -3.696151822805404663e-02 -1.973331905901432037e-02 -4.822792951017618179e-03 2.266619727015495300e-02 1.733113825321197510e-02 -2.891525626182556152e-02 -4.903765395283699036e-03 -1.438622083514928818e-02 -3.836094960570335388e-02 -2.981679886579513550e-02 -1.705988496541976929e-02 -1.050127018243074417e-02 -1.372715272009372711e-02 4.276751074939966202e-03 -2.637421339750289917e-02 1.673309132456779480e-02 -6.676362827420234680e-03 -1.570074073970317841e-02 6.815643049776554108e-03 -5.742948967963457108e-03 -2.726175636053085327e-02 2.040980756282806396e-02 1.198290032334625721e-03 -2.120519988238811493e-03 3.822828643023967743e-03 -4.200225695967674255e-03 -2.736043184995651245e-03 2.244284842163324356e-03 2.672194316983222961e-02 -1.545716915279626846e-02 -1.413747202605009079e-02 5.523447412997484207e-03 -2.702353335916996002e-02 3.578494861721992493e-02 -7.034403388388454914e-04 -2.020473219454288483e-02 -2.413372136652469635e-02 5.699451640248298645e-02 7.454792037606239319e-03 1.633834838867187500e-02 -3.006487339735031128e-02 -8.590852841734886169e-03 -1.829103007912635803e-02 -1.268404349684715271e-02 4.366174712777137756e-02 -1.230933121405541897e-03 -3.189693763852119446e-02 -1.743481680750846863e-02 -5.021128803491592407e-03 -3.162316046655178070e-03 -7.134807296097278595e-03 -1.393027789890766144e-02 -4.264863207936286926e-03 8.052994497120380402e-03 -1.313452422618865967e-02 -3.244812414050102234e-02 2.199514023959636688e-02 -3.300166921690106392e-03 2.284277975559234619e-02 -1.059768814593553543e-02 -6.977286655455827713e-03 7.379132322967052460e-03 2.888601459562778473e-02 -4.353035241365432739e-02 1.989755779504776001e-02 -3.269142284989356995e-02 1.590889319777488708e-02 -2.778692729771137238e-02 -2.634714171290397644e-02 -1.030430290848016739e-02 -1.062481570988893509e-02 2.112564630806446075e-03 -1.303545013070106506e-02 2.284993045032024384e-02 -7.906088605523109436e-03 -1.039147377014160156e-02
2.668024413287639618e-02 8.589111268520355225e-03 -4.047938063740730286e-02 -4.768103733658790588e-02 -5.534079391509294510e-04 7.342657539993524551e-03 1.453763153403997421e-02 -4.460169933736324310e-03 -1.304278802126646042e-02 5.062833055853843689e-02 -4.045127332210540771e-02 -1.743560284376144409e-02 -1.741370745003223419e-02 -1.091154385358095169e-02 1.418517064303159714e-02 -3.513670992106199265e-03 -2.278092317283153534e-03 2.141742780804634094e-02 7.210660725831985474e-03 -3.808331117033958435e-02 2.142788283526897430e-02 5.508333817124366760e-02 2.345248311758041382e-02 3.841796517372131348e-02 1.252302713692188263e-02 2.144742943346500397e-02 7.302840054035186768e-02 1.637136004865169525e-02 3.129897406324744225e-03 -1.636241003870964050e-02 -7.384703028947114944e-03 2.527527883648872375e-02 -4.628928750753402710e-02 2.952488511800765991e-02 3.998624626547098160e-03 -2.019089832901954651e-02 8.208801969885826111e-03 1.008247584104537964e-02 3.901645308360457420e-03 -3.229486942291259766e-02 2.949376590549945831e-03 -7.951333187520503998e-03 5.418695975095033646e-03 -5.455105006694793701e-02 -3.954675048589706421e-02 -6.500585936009883881e-03 -1.386240776628255844e-02 -2.224539406597614288e-02 1.505345688201487064e-03 4.391885828226804733e-03 1.679621753282845020e-03 -4.564448725432157516e-03 -2.016133256256580353e-02 3.134364634752273560e-02 5.944972392171621323e-03 1.561566535383462906e-02 9.823094296734780073e-05 -2.248004823923110962e-02 5.524643696844577789e-03 -1.774456165730953217e-02 -5.123222246766090393e-03 2.277852781116962433e-02 -3.368086740374565125e-02 -1.158151868730783463e-02 -3.965727612376213074e-02 3.012771718204021454e-02 -1.187846437096595764e-02 -1.171287749457405880e-06 1.836961833760142326e-03 5.449498444795608521e-02 2.877593226730823517e-02 -9.610754437744617462e-03 1.006377022713422775e-02 -1.770094968378543854e-02 -6.683496385812759399e-02 -3.339583054184913635e-02 2.170535176992416382e-02 3.386525437235832214e-03 -1.254127174615859985e-02 2.184380404651165009e-02 5.922448635101318359e-02 1.322042569518089294e-02 -4.554809071123600006e-03 3.141374513506889343e-02 -3.234075754880905151e-02 1.882008463144302368e-02 1.661258004605770111e-02 -3.297866135835647583e-02 -2.910537878051400185e-03 -1.056936848908662796e-02 5.101248156279325485e-03 1.409093569964170456e-02 4.929207265377044678e-03 1.026150304824113846e-02 5.545589141547679901e-03 -1.678442466072738171e-03 4.488067701458930969e-03 4.211522173136472702e-03 6.265113595873117447e-03 -1.052323542535305023e-02 -6.725573446601629257e-03 -2.582888491451740265e-02 -1.919490657746791840e-02 -2.616594359278678894e-02 -1.285448949784040451e-02 1.927815726958215237e-03 -2.600709348917007446e-02 4.280239809304475784e-03 -8.650996722280979156e-03 2.885934710502624512e-02 9.402588009834289551e-03 2.249059639871120453e-02 1.275587920099496841e-02 -3.169419243931770325e-02 4.869223630521446466e-04 3.861472010612487793e-03 -2.347614988684654236e-02 -1.826053112745285034e-02 -1.648676767945289612e-02 -3.120308555662631989e-02 1.104555837810039520e-02 -4.986850544810295105e-02 1.685065217316150665e-03 -2.550855278968811035e-02 -4.175105690956115723e-02 1.040956843644380569e-02 2.704918151721358299e-03 2.517403662204742432e-02
-1.299232617020606995e-02 -4.994539543986320496e-03 -2.124684303998947144e-02 -3.176013752818107605e-02 3.244189172983169556e-02 2.516186796128749847e-03 -1.583967171609401703e-02 -4.672941751778125763e-03 1.649978384375572205e-02 -5.444661527872085571e-02 2.716089412569999695e-02 1.114059332758188248e-02 3.618393559008836746e-03 2.634594403207302094e-02 -3.734260424971580505e-02 -1.440792903304100037e-02 -4.610292240977287292e-02 2.261822298169136047e-02 1.366958301514387131e-02 -5.270421132445335388e-02 -9.469610638916492462e-03 2.883528918027877808e-02 -2.669871598482131958e-02 2.203673869371414185e-02 -3.424515947699546814e-02 1.310382224619388580e-02 -3.111195564270019531e-02 4.995462298393249512e-02 -2.634462341666221619e-02 -1.698108389973640442e-04 -2.303125336766242981e-03 -2.069525048136711121e-02 -7.084830850362777710e-02 1.987492479383945465e-02 -8.539904840290546417e-03 1.474740728735923767e-02 1.684801466763019562e-02 5.436349660158157349e-03 3.607714548707008362e-02 2.914449013769626617e-02 -3.492156788706779480e-02 -3.910795599222183228e-02 3.688965737819671631e-02 2.849925868213176727e-02 -8.310453966259956360e-03 -2.725898101925849915e-02 -8.158840239048004150e-03 -2.205968648195266724e-02 3.564593568444252014e-02 3.108625859022140503e-02 1.695460639894008636e-02 5.165326222777366638e-02 -2.283097058534622192e-02 -7.610597182065248489e-03 8.886843919754028320e-03 -9.922932833433151245e-03 -1.917687244713306427e-02 3.616655617952346802e-02 -4.421245306730270386e-02 -1.567607931792736053e-02 -2.453742362558841705e-02 -2.117944136261940002e-02 -5.365199223160743713e-02 -3.141710162162780762e-02 -4.248509183526039124e-02 -2.751388214528560638e-02 2.168992348015308380e-02 -8.513506501913070679e-03 8.736153831705451012e-04 3.578146919608116150e-02 3.946191444993019104e-02 -4.814632982015609741e-02 3.587929531931877136e-02 2.591089159250259399e-02 3.758772835135459900e-02 1.970212161540985107e-02 -8.745444007217884064e-03 1.468722335994243622e-02 6.809211336076259613e-04 1.615143194794654846e-02 1.039031660184264183e-03 -2.072834409773349762e-02 -3.644785657525062561e-02 2.876067347824573517e-02 1.306952536106109619e-02 9.879459626972675323e-03 -2.684273757040500641e-02 -1.056788489222526550e-02 -3.915282897651195526e-03 -5.252179503440856934e-02 -1.895545423030853271e-02 1.421124953776597977e-02 2.353988401591777802e-02 -4.200667887926101685e-02 -1.569903269410133362e-02 2.405435778200626373e-02 -2.071683481335639954e-02 4.582340270280838013e-02 2.986515313386917114e-02 -1.295113936066627502e-02 -3.361044451594352722e-02 1.162684895098209381e-02 5.282451584935188293e-02 1.338801928795874119e-03 1.787064038217067719e-02 1.004428975284099579e-02 1.306767202913761139e-02 -1.897209323942661285e-02 8.398748934268951416e-03 2.200631424784660339e-02 4.699635878205299377e-02 -3.069842047989368439e-02 3.665662556886672974e-02 1.501528732478618622e-02 -2.001440152525901794e-02 -5.965076852589845657e-03 3.244304796680808067e-03 -4.338218644261360168e-02 1.418890804052352905e-02 -2.449931390583515167e-02 -3.106445260345935822e-02 -1.339789573103189468e-02 3.072551451623439789e-02 -7.981710135936737061e-03 9.247899870388209820e-04 1.738918386399745941e-02 -1.198334270156919956e-03 1.952167600393295288e-02
-2.008150890469551086e-02 -7.601378951221704483e-03 1.157566346228122711e-02 1.866223104298114777e-02 1.694452762603759766e-02 1.116134878247976303e-02 7.061936426907777786e-03 -1.844291388988494873e-02 -2.586034312844276428e-02 -1.513234991580247879e-02 1.355462241917848587e-02 -1.726303435862064362e-02 4.230079241096973419e-03 -4.059023223817348480e-03 -6.792063359171152115e-03 -3.120924159884452820e-02 -2.263052947819232941e-02 -2.165286242961883545e-02 -1.098491266020573676e-04 -3.820642363280057907e-03 -1.417905930429697037e-02 5.039065610617399216e-03 -4.606701061129570007e-02 -9.623862802982330322e-03 -8.136642165482044220e-03 -4.406751692295074463e-02 3.741129487752914429e-02 -1.210622940561734140e-04 -3.409045189619064331e-02 -1.736852154135704041e-02 -1.320467330515384674e-02 2.400334924459457397e-02 2.971843117848038673e-03 1.449146959930658340e-02 -9.900447912514209747e-03 2.039228752255439758e-02 3.050080966204404831e-03 -2.164083346724510193e-02 9.558175690472126007e-03 1.792873628437519073e-02 1.116607245057821274e-02 3.207882866263389587e-02 -1.669155247509479523e-02 -1.042785681784152985e-02 -8.748848922550678253e-03 2.715029940009117126e-02 -5.291256122291088104e-03 6.509765982627868652e-03 1.457706000655889511e-02 -2.235568361356854439e-03 -1.492108590900897980e-02 2.508272044360637665e-02 -3.186669573187828064e-02 8.553345687687397003e-03 1.393919717520475388e-02 2.482698764652013779e-03 6.060661748051643372e-02 -2.041159383952617645e-02 -2.421653596684336662e-03 -6.763223558664321899e-03 -4.368219524621963501e-02 -1.245052646845579147e-02 -2.468713792040944099e-03 1.694036461412906647e-02 -2.609602548182010651e-02 3.943197429180145264e-02 2.962394803762435913e-02 -1.373699307441711426e-02 5.044866353273391724e-02 -1.169121917337179184e-02 1.392738334834575653e-02 1.252133399248123169e-02 8.203735575079917908e-03 -8.474593050777912140e-03 -4.515857901424169540e-03 -1.344398502260446548e-02 1.137892995029687881e-02 1.446294039487838745e-02 -2.296709641814231873e-02 7.242664229124784470e-03 4.222375154495239258e-02 -7.330788648687303066e-04 -5.348298233002424240e-03 -2.099212445318698883e-02 3.381733223795890808e-02 4.099886398762464523e-03 1.522342767566442490e-02 2.075884491205215454e-02 1.031973585486412048e-02 -1.042939256876707077e-02 -2.529876679182052612e-02 -1.897939108312129974e-02 -1.070530619472265244e-02 -2.316268393769860268e-03 -2.418665401637554169e-02 3.292116895318031311e-02 -2.819254528731107712e-03 -9.287620894610881805e-03 1.055946480482816696e-02 -1.337558031082153320e-02 3.181913867592811584e-03 2.360195852816104889e-02 1.583175547420978546e-02 -5.437562707811594009e-03 -3.535230830311775208e-02 2.385504171252250671e-02 -4.621355980634689331e-02 2.778338454663753510e-02 -2.558332495391368866e-02 7.075666915625333786e-03 1.390947122126817703e-02 7.501297630369663239e-03 -1.370840426534414291e-02 4.005149751901626587e-02 8.141086436808109283e-03 -3.697537817060947418e-03 -2.139261923730373383e-02 6.388036417774856091e-04 -1.676717400550842285e-02 1.825438439846038818e-02 -8.913910947740077972e-03 -3.287199139595031738e-02 5.335793271660804749e-02 -1.576543226838111877e-02 -1.431786268949508667e-02 -1.074738567695021629e-03 2.613995457068085670e-03 1.751770265400409698e-02
1.870294916443526745e-03 -4.790223389863967896e-02 9.155306033790111542e-03 1.381258666515350342e-02 2.780188433825969696e-02 2.434389851987361908e-02 -1.454281713813543320e-02 -2.168510854244232178e-02 -9.389853104948997498e-03 -7.953479886054992676e-03 4.554535821080207825e-02 8.090976625680923462e-03 -2.742253011092543602e-03 1.831092499196529388e-02 -3.371032699942588806e-02 -1.525221858173608780e-02 -9.968560189008712769e-03 2.176736108958721161e-02 -1.924561150372028351e-02 -2.536913380026817322e-02 1.282293722033500671e-02 -3.066732548177242279e-02 -3.572626737877726555e-03 5.121346097439527512e-03 1.482704840600490570e-02 1.322220731526613235e-02 7.407085038721561432e-03 -3.990874439477920532e-02 6.635530153289437294e-04 4.508572164922952652e-03 1.655774749815464020e-02 2.834525331854820251e-02 -1.188467256724834442e-02 -3.835409879684448242e-02 -3.917090944014489651e-04 -6.482918281108140945e-03 -3.636349458247423172e-03 -5.205159541219472885e-03 4.810075333807617426e-04 2.579263038933277130e-02 -2.373822405934333801e-02 -2.028974704444408417e-03 -3.019262291491031647e-02 3.524170443415641785e-02 -3.265141323208808899e-02 1.343278493732213974e-02 1.356380432844161987e-02 -1.648795045912265778e-02 -8.076319471001625061e-03 -2.316945791244506836e-02 1.151671726256608963e-02 1.204293314367532730e-02 -2.818197011947631836e-03 -7.137912791222333908e-03 -6.060965359210968018e-03 -4.119426757097244263e-02 4.329818859696388245e-02 -6.959142629057168961e-03 3.423185274004936218e-02 -5.625186022371053696e-03 -4.393410403281450272e-03 -1.276559289544820786e-02 1.339573413133621216e-02 -1.906850258819758892e-03 3.069437295198440552e-02 -3.296721959486603737e-03 3.075863607227802277e-02 -7.676985580474138260e-03 6.480130366981029510e-03 -2.313720248639583588e-02 -1.332760415971279144e-02 2.025215886533260345e-02 -1.207839231938123703e-02 4.764249548316001892e-02 5.486363079398870468e-03 2.458944451063871384e-03 4.391948878765106201e-02 1.015142537653446198e-02 6.663621403276920319e-03 -1.411752589046955109e-02 -6.221843883395195007e-02 -2.742607332766056061e-02 7.399709429591894150e-03 -1.880416879430413246e-03 2.203957736492156982e-02 -8.659016340970993042e-03 3.777953982353210449e-02 -5.916399881243705750e-02 1.341744093224406242e-03 5.980941280722618103e-02 -3.146181628108024597e-02 5.358004942536354065e-02 7.339776027947664261e-03 -2.243739739060401917e-02 -1.827254891395568848e-02 2.054548263549804688e-02 1.954066753387451172e-02 -4.360843449831008911e-02 6.212725304067134857e-03 -3.668444603681564331e-02 -1.112997345626354218e-02 -1.331833843141794205e-02 1.375168445520102978e-03 -4.374015610665082932e-03 1.007137447595596313e-02 -1.727020740509033203e-02 -3.582974523305892944e-02 -1.591644249856472015e-02 -1.733440533280372620e-02 -3.873627632856369019e-02 1.799592562019824982e-02 3.429650142788887024e-02 1.691052690148353577e-02 4.575129225850105286e-02 -1.353857852518558502e-02 -4.320632666349411011e-02 -1.117474748753011227e-03 3.775704884901642799e-03 -1.434906851500272751e-02 3.499623388051986694e-02 -2.048387192189693451e-02 1.525477133691310883e-02 2.180017763748764992e-03 2.455592155456542969e-02 -2.543470822274684906e-02 1.410471741110086441e-03 2.904457412660121918e-02 2.730198018252849579e-02
2.361612394452095032e-02 7.479944266378879547e-03 5.403874907642602921e-03 9.085203520953655243e-03 -2.182949148118495941e-02 -2.960749901831150055e-02 2.073444053530693054e-02 4.216823726892471313e-02 -2.244660258293151855e-02 -4.958897456526756287e-02 -2.886085212230682373e-02 2.499522082507610321e-02 -1.178515888750553131e-02 -1.256651710718870163e-02 -4.858430847525596619e-02 -2.463490143418312073e-02 1.933418028056621552e-02 -4.204520955681800842e-03 7.032731547951698303e-03 -1.956071332097053528e-02 -1.849685236811637878e-02 -6.328763812780380249e-02 -7.257729023694992065e-02 9.558887220919132233e-03 1.712061697617173195e-03 1.699289074167609215e-03 1.506917737424373627e-02 2.531456202268600464e-02 2.719537355005741119e-02 1.152770780026912689e-02 -1.589041203260421753e-02 1.051365211606025696e-02 -4.944950924254953861e-04 -2.462771534919738770e-02 -4.309104382991790771e-02 3.517191216815263033e-04 -3.278807550668716431e-02 -5.251199752092361450e-02 4.946944490075111389e-02 -1.284966245293617249e-02 5.093844607472419739e-03 -8.436626754701137543e-03 -4.308230429887771606e-02 1.484751421958208084e-02 1.790298521518707275e-02 6.484708935022354126e-02 -9.566387161612510681e-03 5.441180989146232605e-02 -2.582985535264015198e-02 3.126018447801470757e-03 -8.056771010160446167e-03 5.153910070657730103e-02 -2.995880693197250366e-02 -1.589834317564964294e-02 1.191760972142219543e-02 -7.248425390571355820e-04 -3.779187053442001343e-02 -1.340318378061056137e-02 2.750349976122379303e-02 -9.879992576315999031e-04 5.891221016645431519e-02 2.713926695287227631e-02 -1.962019689381122589e-02 1.287718210369348526e-02 -2.607484161853790283e-02 -2.134537138044834137e-02 2.177733369171619415e-02 -9.353342466056346893e-03 3.924620896577835083e-02 -1.766830496490001678e-02 1.269442029297351837e-02 1.034517190419137478e-03 -1.712532714009284973e-02 9.883329272270202637e-03 5.294957198202610016e-03 -4.145434591919183731e-03 5.490209907293319702e-02 4.648937843739986420e-03 2.254087291657924652e-02 -4.470564052462577820e-02 -2.116228640079498291e-02 -2.449300140142440796e-02 3.127946704626083374e-02 -2.105507999658584595e-02 2.594658732414245605e-02 3.574231639504432678e-02 -2.049284055829048157e-02 4.386675730347633362e-02 -2.472738921642303467e-02 4.830955527722835541e-03 -4.181370511651039124e-02 1.466802414506673813e-02 8.993457886390388012e-04 3.044329583644866943e-02 2.414738945662975311e-02 -3.657958656549453735e-02 5.039158463478088379e-02 -4.139789938926696777e-02 -1.637879014015197754e-02 -4.887002985924482346e-03 3.842259570956230164e-02 9.881512261927127838e-03 -7.235284429043531418e-03 6.267123389989137650e-03 -3.485563024878501892e-02 -1.143271103501319885e-02 3.396340832114219666e-02 -5.394437350332736969e-03 3.769228607416152954e-02 -4.456165060400962830e-02 -3.551768511533737183e-02 5.110074579715728760e-02 6.279645860195159912e-02 -1.647043041884899139e-02 -1.880436576902866364e-02 2.976372092962265015e-02 1.729447580873966217e-02 -1.504145376384258270e-02 1.460862625390291214e-02 -7.052392233163118362e-03 3.914442658424377441e-02 1.775242201983928680e-02 -5.766312591731548309e-03 -1.696505770087242126e-02 2.528008073568344116e-02 3.158259205520153046e-03 1.091010123491287231e-02 4.301303625106811523e-02
