-3.248140215873718262e-02 1.308846473693847656e-02 -2.143515087664127350e-02 1.004960667341947556e-02 3.137173876166343689e-02 2.844720147550106049e-03 2.786734839901328087e-03 1.657393760979175568e-02 -2.337640337646007538e-02 1.895997324027121067e-03 4.312977939844131470e-02 -1.828361675143241882e-02 6.626951042562723160e-03 2.270236797630786896e-02 -3.022258728742599487e-02 8.200806565582752228e-03 -2.965771220624446869e-02 6.395260337740182877e-03 -1.146664377301931381e-02 2.910236828029155731e-02 1.618416048586368561e-02 -9.445812553167343140e-03 -1.690476201474666595e-02 9.460057481192052364e-04 3.794724121689796448e-02 -2.934560179710388184e-03 -3.241250663995742798e-02 1.241063978523015976e-02 2.101157233119010925e-02 1.048678439110517502e-02 -2.519234642386436462e-02 2.020492684096097946e-03 5.085552576929330826e-03 2.641686797142028809e-02 1.810237020254135132e-02 -3.234320133924484253e-02 -2.916559390723705292e-02 7.936367765069007874e-03 8.084535598754882812e-03 -6.975459866225719452e-03 5.141523107886314392e-02 -2.907473780214786530e-02 5.829467903822660446e-03 2.528215991333127022e-03 -4.039942845702171326e-02 -1.224230788648128510e-02 1.830495707690715790e-02 -1.588237239047884941e-03 -2.176112495362758636e-02 2.929541282355785370e-02 -2.169737825170159340e-03 1.677647046744823456e-02 1.751701161265373230e-02 9.331276640295982361e-03 1.396207604557275772e-02 1.036577951163053513e-02 2.811461687088012695e-03 2.329587377607822418e-02 1.787412352859973907e-02 -5.747539922595024109e-02 1.208484917879104614e-02 4.086224362254142761e-03 1.261840295046567917e-02 -5.011461209505796432e-03 4.614762961864471436e-03 -2.284188941121101379e-02 4.728895146399736404e-03 -7.917692884802818298e-03 -6.046314723789691925e-03 -1.446685940027236938e-02 3.697878215461969376e-03 7.724980823695659637e-03 7.308518979698419571e-04 1.125039905309677124e-02 2.203096263110637665e-02 -2.759756334125995636e-02 1.920500420965254307e-03 4.763536900281906128e-02 -3.583188727498054504e-02 -3.676119027659296989e-03 -4.991729278117418289e-03 -1.652929931879043579e-02 2.997351996600627899e-02 3.541245358064770699e-03 2.056070417165756226e-02 9.929370135068893433e-03 -4.141950921621173620e-04 1.107120915548875928e-04 -2.274808660149574280e-02 -6.733307382091879845e-04 2.117587253451347351e-02 8.592913858592510223e-03 -4.942385014146566391e-03 1.302947849035263062e-02 1.525053661316633224e-02 3.988040145486593246e-03 1.803726702928543091e-02 -7.687188684940338135e-03 1.188093796372413635e-02 5.658392794430255890e-03 5.057366099208593369e-03 -3.173695504665374756e-02 -5.030198488384485245e-03 1.106762699782848358e-02 -9.842909872531890869e-03 -3.441615728661417961e-03 -2.534588426351547241e-02 -2.882226556539535522e-02 -5.527268163859844208e-03 -4.748683888465166092e-03 3.207322582602500916e-02 7.247719913721084595e-03 2.407295815646648407e-02 -3.432893007993698120e-02 1.200913544744253159e-02 -5.891384091228246689e-03 -1.030700514093041420e-04 5.389533471316099167e-03 1.099233794957399368e-02 -1.070755347609519958e-02 -1.051926705986261368e-02 -1.544330175966024399e-02 4.598596692085266113e-02 1.720093004405498505e-02 2.854259684681892395e-02 -3.114985884167253971e-04 -7.157513871788978577e-03 1.608061417937278748e-02
-4.324055742472410202e-03 -2.353517338633537292e-03 6.161059252917766571e-03 -2.757259272038936615e-02 -4.504096135497093201e-02 6.566917058080434799e-03 1.884481683373451233e-02 -1.422623172402381897e-02 4.753575474023818970e-02 5.835348856635391712e-04 -1.897240243852138519e-02 2.158404700458049774e-02 -3.221055725589394569e-03 -7.070341613143682480e-03 6.449397653341293335e-03 3.180687315762042999e-03 9.801135398447513580e-03 -1.357152219861745834e-02 -8.460417389869689941e-03 -1.371604017913341522e-02 -1.040568668395280838e-02 1.558843441307544708e-02 2.135784737765789032e-02 -4.134689457714557648e-03 -6.468373816460371017e-03 -6.373195908963680267e-03 2.759843505918979645e-02 6.249328143894672394e-03 -2.467188797891139984e-02 1.145668234676122665e-02 1.519092079252004623e-02 1.350633800029754639e-02 -5.453328136354684830e-03 6.956777651794254780e-04 -4.981442820280790329e-03 2.930959314107894897e-02 1.827195845544338226e-02 9.273306466639041901e-03 -2.145409584045410156e-02 2.704831026494503021e-02 7.109698373824357986e-03 -3.558629751205444336e-02 -2.568778395652770996e-02 5.770724266767501831e-03 3.017991781234741211e-03 -1.579826511442661285e-02 -1.426586788147687912e-02 -4.828291479498147964e-03 -3.295899927616119385e-02 -5.447524599730968475e-03 4.422171041369438171e-02 -8.037497289478778839e-03 -4.215387627482414246e-02 4.053404927253723145e-02 -1.182901393622159958e-02 1.814540103077888489e-02 2.840585308149456978e-03 2.436740137636661530e-02 -2.187767624855041504e-02 -3.245349973440170288e-03 1.270320359617471695e-02 -1.153525197878479958e-03 -2.777966111898422241e-02 6.807080004364252090e-03 2.167385630309581757e-02 -1.141382381319999695e-02 -1.850594580173492432e-02 1.795400399714708328e-03 -4.878327250480651855e-02 -1.272535417228937149e-02 3.816536860540509224e-03 -1.808776147663593292e-02 -1.046097744256258011e-02 3.469828888773918152e-02 3.152652829885482788e-02 9.223753586411476135e-03 3.775434941053390503e-02 -2.698761969804763794e-02 2.868507616221904755e-02 2.524551237002015114e-03 9.162288159132003784e-03 -2.587948180735111237e-02 -4.166931658983230591e-02 -7.199367042630910873e-03 3.412967920303344727e-02 3.596277162432670593e-02 -9.018834680318832397e-03 2.527798525989055634e-02 -6.594095379114151001e-02 4.555475339293479919e-02 7.309368345886468887e-03 -1.426964066922664642e-02 5.618630908429622650e-03 -1.883770152926445007e-02 -2.071150392293930054e-02 -2.264192514121532440e-02 -1.885889656841754913e-02 2.195926010608673096e-02 -7.295719347894191742e-03 1.278124283999204636e-02 4.304182901978492737e-02 -1.941718347370624542e-02 1.243907492607831955e-02 -1.258853171020746231e-02 6.871113926172256470e-02 1.176951336674392223e-03 3.261446207761764526e-02 -2.060387778328731656e-04 1.635743305087089539e-02 -7.094082538969814777e-04 2.364503592252731323e-02 2.016828209161758423e-02 4.718181490898132324e-02 -1.791660860180854797e-02 3.591247368603944778e-03 -1.032033562660217285e-02 4.273774474859237671e-02 1.675223559141159058e-02 -2.146585471928119659e-02 1.334834098815917969e-02 2.523662336170673370e-02 -8.813574910163879395e-03 -2.478874661028385162e-02 8.503559976816177368e-03 5.904495250433683395e-03 3.245184198021888733e-02 -2.646289207041263580e-02 -5.019228439778089523e-03
-6.031574681401252747e-03 6.184404250234365463e-03 1.096777431666851044e-02 -2.401831932365894318e-02 1.198060577735304832e-03 5.424850154668092728e-03 -7.619900163263082504e-03 -1.543424837291240692e-02 -4.923244193196296692e-02 1.667079702019691467e-02 7.562795188277959824e-03 -2.261298708617687225e-03 5.986014148220419884e-04 5.195936560630798340e-02 1.504553481936454773e-02 -1.786255836486816406e-02 7.543432991951704025e-03 -1.270133187063038349e-03 3.192480886355042458e-03 -2.468072250485420227e-02 -3.106767078861594200e-03 -9.089850820600986481e-03 -8.340409025549888611e-03 1.989038661122322083e-03 -8.634077385067939758e-03 3.337456285953521729e-02 1.605789177119731903e-02 -4.046845436096191406e-02 -2.823507227003574371e-02 -3.208824619650840759e-02 -1.380209811031818390e-02 5.046928767114877701e-03 -4.803003743290901184e-03 -4.542271606624126434e-03 2.607631683349609375e-02 2.796652168035507202e-02 2.703587152063846588e-02 9.477216750383377075e-03 -5.524777621030807495e-02 -8.689199574291706085e-03 3.343670070171356201e-02 -3.853138536214828491e-03 1.626807264983654022e-02 1.017878577113151550e-02 -1.286555919796228409e-02 7.126968353986740112e-03 -2.640549652278423309e-02 -3.288930281996726990e-02 2.414684183895587921e-02 1.110915932804346085e-02 -1.754574291408061981e-02 -6.309270858764648438e-03 1.395485270768404007e-02 1.622962020337581635e-02 -2.035472728312015533e-02 5.860510282218456268e-03 1.979748904705047607e-02 -3.045650571584701538e-02 -3.120157867670059204e-02 -1.214696094393730164e-02 -2.651990018784999847e-02 1.218177564442157745e-02 3.111489489674568176e-02 2.673199959099292755e-02 2.059499360620975494e-02 9.823284111917018890e-03 -3.162900451570749283e-03 1.980999298393726349e-02 3.943737130612134933e-03 5.740366177633404732e-04 -5.403190851211547852e-03 3.320339694619178772e-02 2.711964212357997894e-02 1.444674213416874409e-03 -7.068921113386750221e-04 9.415448643267154694e-03 -2.924265339970588684e-02 4.353841766715049744e-02 9.854997508227825165e-03 3.019184805452823639e-03 -2.127379365265369415e-02 1.051994971930980682e-02 8.057489059865474701e-03 -4.286665096879005432e-02 -1.051014475524425507e-02 4.685419145971536636e-03 3.897759690880775452e-02 8.934466168284416199e-03 1.314162742346525192e-02 -1.454270817339420319e-02 -4.564745351672172546e-03 -1.079030428081750870e-02 5.591869354248046875e-03 1.366631500422954559e-02 -3.222696483135223389e-03 2.575354464352130890e-02 -1.564359478652477264e-02 1.082710642367601395e-02 -2.091146819293498993e-02 -6.181976292282342911e-03 2.556879818439483643e-02 -3.532075881958007812e-02 -2.592744305729866028e-02 -2.594428136944770813e-03 -1.956363953649997711e-02 5.639983341097831726e-03 9.080889634788036346e-03 2.634950168430805206e-02 2.442801604047417641e-03 -2.264154609292745590e-03 9.243740700185298920e-03 -6.900640204548835754e-03 -4.305212199687957764e-02 3.472917526960372925e-02 -1.206970494240522385e-02 3.161982446908950806e-02 -2.695150207728147507e-03 5.522680655121803284e-02 1.463458500802516937e-02 5.498084425926208496e-02 6.817145185777917504e-05 -1.426012022420763969e-03 2.482611918821930885e-03 5.175801459699869156e-03 1.263231411576271057e-02 1.523749437183141708e-02 1.118344999849796295e-02 -1.597347296774387360e-02
1.459806505590677261e-02 8.547915145754814148e-03 2.736527845263481140e-02 -3.810779191553592682e-03 4.371017217636108398e-03 -1.078103296458721161e-02 2.605565264821052551e-02 9.382282383739948273e-03 -3.115905076265335083e-02 8.996190503239631653e-03 1.583459600806236267e-02 -2.529580146074295044e-02 2.462143311277031898e-03 1.398951467126607895e-02 -1.673673279583454132e-02 -2.972664311528205872e-02 2.015927992761135101e-02 3.194190189242362976e-02 3.946379199624061584e-02 9.103641845285892487e-03 -1.796571724116802216e-02 -1.734438003040850163e-03 3.398209111765027046e-03 -1.475960668176412582e-02 2.568410150706768036e-02 -2.105834335088729858e-02 -4.373565316200256348e-03 -1.015425473451614380e-02 7.459506858140230179e-03 -2.725333161652088165e-02 -2.177291736006736755e-02 -1.500055287033319473e-02 -1.492901332676410675e-02 1.775052025914192200e-02 1.491838600486516953e-02 -4.054318647831678391e-03 3.474659100174903870e-02 -5.969758145511150360e-03 -3.351075947284698486e-02 -1.231060735881328583e-02 6.621622596867382526e-04 1.755058299750089645e-03 3.827599284704774618e-04 7.359012961387634277e-04 -1.005105115473270416e-02 -1.147434953600168228e-02 1.219346653670072556e-02 6.386097054928541183e-03 -1.227187924087047577e-03 -8.542848750948905945e-03 -1.802941225469112396e-02 1.620311848819255829e-02 -1.852631568908691406e-02 1.708436571061611176e-02 9.165135212242603302e-03 -4.956235643476247787e-03 1.399799436330795288e-02 -1.456880010664463043e-02 2.294076792895793915e-02 1.646282896399497986e-02 4.189625382423400879e-03 -2.245635027065873146e-03 1.198296714574098587e-02 8.790945634245872498e-03 -2.196737751364707947e-02 -6.587678566575050354e-03 1.457889564335346222e-02 5.625218152999877930e-03 3.863330557942390442e-02 -5.521634593605995178e-04 -3.180186823010444641e-02 -4.882187768816947937e-02 4.232690483331680298e-02 -1.909241266548633575e-02 1.172241475433111191e-02 -6.027883384376764297e-03 -3.200288163498044014e-03 -1.496167480945587158e-02 2.055629342794418335e-02 9.846682660281658173e-03 -7.455327431671321392e-05 2.497258409857749939e-02 2.601787261664867401e-02 -1.223745942115783691e-02 5.471034906804561615e-03 2.077412791550159454e-03 1.646240241825580597e-02 6.439557764679193497e-03 2.876104088500142097e-03 -2.295246906578540802e-02 1.680782996118068695e-02 7.721722940914332867e-04 -1.315750833600759506e-02 -9.740997105836868286e-03 -1.592249376699328423e-03 -3.283049538731575012e-02 1.510333642363548279e-02 2.424789406359195709e-02 -1.046263205353170633e-04 5.626688711345195770e-03 2.448514290153980255e-02 -1.934928121045231819e-03 -1.323289796710014343e-02 1.695330021902918816e-03 -3.356252983212471008e-02 3.272628411650657654e-02 -3.399925073608756065e-03 -6.148590240627527237e-03 -6.457637995481491089e-03 -2.810694836080074310e-02 1.316333375871181488e-02 5.116678774356842041e-03 -1.624972908757627010e-03 -1.633026264607906342e-02 3.214049618691205978e-03 3.256024420261383057e-02 -1.841781078837811947e-03 -9.901949204504489899e-03 2.909847162663936615e-02 -1.806535944342613220e-02 -1.180777978152036667e-02 -9.311974048614501953e-03 1.964483037590980530e-02 -2.553126960992813110e-02 8.372963406145572662e-03 1.794803515076637268e-02 2.196783199906349182e-02 1.448112307116389275e-03
3.921481221914291382e-02 3.073415160179138184e-02 4.966725036501884460e-02 1.110337954014539719e-02 2.440523356199264526e-03 3.327715769410133362e-02 9.907962754368782043e-03 -1.687519997358322144e-02 -5.141356494277715683e-03 -2.525054477155208588e-02 3.299153596162796021e-02 -2.697815070860087872e-04 4.901369661092758179e-02 -1.056862156838178635e-02 -4.811577033251523972e-03 2.346090599894523621e-02 -2.103546634316444397e-02 3.201800957322120667e-02 2.173261158168315887e-02 2.098237164318561554e-02 2.370932698249816895e-02 -1.975017599761486053e-02 6.151291891001164913e-04 -3.198554366827011108e-02 5.449845641851425171e-02 -4.542829934507608414e-03 -1.084403321146965027e-02 1.015594135969877243e-02 4.133705981075763702e-03 -5.063262768089771271e-03 5.029303021728992462e-03 3.474247455596923828e-02 -8.972105570137500763e-03 -8.483008481562137604e-03 2.553339861333370209e-02 1.165530830621719360e-02 -2.123378030955791473e-02 -3.515917109325528145e-03 2.521819202229380608e-03 -1.446458790451288223e-02 1.274385396391153336e-02 4.374126344919204712e-02 2.118160203099250793e-02 1.433561672456562519e-03 1.739375852048397064e-02 -2.684042975306510925e-02 -1.761858537793159485e-02 -2.633351599797606468e-03 2.878392487764358521e-02 -6.939793378114700317e-02 -4.810664057731628418e-02 -3.219586238265037537e-02 3.299406170845031738e-02 -3.007405996322631836e-02 -2.234848216176033020e-02 1.799121126532554626e-02 -1.303503010421991348e-02 -3.005083417519927025e-03 -8.778087794780731201e-03 4.733802285045385361e-03 -4.617702215909957886e-03 -2.627397142350673676e-02 -2.918273769319057465e-02 1.093384902924299240e-02 -5.491319112479686737e-03 -3.148109093308448792e-02 5.371687933802604675e-03 1.595262996852397919e-02 1.350571215152740479e-02 1.019535213708877563e-02 3.478072583675384521e-02 -2.541781589388847351e-02 2.499691396951675415e-02 4.580312874168157578e-03 -1.059262640774250031e-02 -6.093665026128292084e-03 -1.052164286375045776e-02 2.313572540879249573e-02 2.704647928476333618e-02 -3.091808781027793884e-02 3.099002502858638763e-02 4.797752574086189270e-02 -1.068266225047409534e-03 -6.032900419086217880e-03 4.738674499094486237e-03 1.729465648531913757e-02 -3.507011011242866516e-02 9.411344304680824280e-03 3.595182439312338829e-03 1.846071705222129822e-02 -4.369685426354408264e-03 -9.141410700976848602e-03 -3.608558792620897293e-03 1.088772714138031006e-02 -3.073697350919246674e-02 1.083567738533020020e-02 1.192713622003793716e-02 -1.406942680478096008e-02 8.303883485496044159e-03 1.468970440328121185e-02 -1.961187273263931274e-02 -3.161031380295753479e-02 2.527601085603237152e-02 1.838318258523941040e-02 -3.979829326272010803e-02 1.640008762478828430e-02 -2.026741579174995422e-02 1.372816227376461029e-02 -3.099409118294715881e-02 -1.900654751807451248e-03 -3.295062854886054993e-02 -1.966275088489055634e-02 -1.783850230276584625e-02 -6.150283850729465485e-03 -1.136698760092258453e-02 3.570657595992088318e-02 -1.118398923426866531e-02 1.292107719928026199e-02 -1.805794052779674530e-02 -3.820063918828964233e-02 2.624897286295890808e-02 2.883565612137317657e-03 5.978950299322605133e-03 -2.657009661197662354e-02 1.158763747662305832e-02 -1.625251024961471558e-02 8.232004009187221527e-03 2.725457539781928062e-03
1.351405866444110870e-02 -1.404309272766113281e-02 3.831431036815047264e-03 -3.856909461319446564e-03 3.773718327283859253e-02 2.698428742587566376e-02 5.746091250330209732e-03 -2.541036345064640045e-02 4.080895334482192993e-03 3.720371052622795105e-02 -6.743559148162603378e-03 -2.176925074309110641e-03 4.425038769841194153e-02 3.934357315301895142e-02 1.903168158605694771e-03 -1.329476479440927505e-02 -8.168209344148635864e-03 2.525141928344964981e-03 4.394320771098136902e-03 5.614202003926038742e-03 1.009664265438914299e-03 2.517714165151119232e-02 2.409967826679348946e-03 1.328754052519798279e-02 8.233891800045967102e-03 -2.907091565430164337e-02 1.427481602877378464e-02 1.300716586410999298e-02 4.759841039776802063e-02 -3.588642179965972900e-02 -1.901948638260364532e-02 -1.486387569457292557e-03 -2.100637927651405334e-02 5.314289778470993042e-02 2.641170844435691833e-02 2.649952284991741180e-02 -8.647095412015914917e-03 -3.741522505879402161e-02 9.241905994713306427e-03 -2.138014510273933411e-02 2.072679065167903900e-02 3.346931189298629761e-02 -1.303840056061744690e-02 1.544264238327741623e-02 2.534215152263641357e-02 -1.518427673727273941e-02 1.586726307868957520e-02 -5.422745365649461746e-03 -1.491705887019634247e-02 -2.368941716849803925e-02 -1.384858740493655205e-03 7.199278334155678749e-04 2.339667454361915588e-02 -3.963196184486150742e-03 4.649331420660018921e-02 -2.871442027390003204e-02 -2.765073440968990326e-02 -2.137216553092002869e-02 -1.100532617419958115e-02 -1.186507660895586014e-02 -1.307255774736404419e-02 -2.774851210415363312e-02 5.025150254368782043e-03 4.637931473553180695e-03 1.683960109949111938e-02 -8.384435437619686127e-03 -3.214607946574687958e-03 -2.221061475574970245e-02 -1.056381128728389740e-02 9.533548727631568909e-03 2.004491165280342102e-02 -3.128595650196075439e-02 4.781472496688365936e-03 -1.475741527974605560e-02 5.463933572173118591e-03 -2.661224640905857086e-02 2.643352560698986053e-02 2.129710977897047997e-03 3.234273055568337440e-03 -1.721908105537295341e-03 -2.128275856375694275e-02 -1.100451685488224030e-02 3.625673428177833557e-02 9.196428582072257996e-03 -2.116485312581062317e-02 -5.677039269357919693e-03 -1.577050611376762390e-02 1.581739261746406555e-02 2.461884357035160065e-02 -2.323306165635585785e-02 1.107854675501585007e-02 -1.183358766138553619e-02 2.226304821670055389e-02 1.495695579797029495e-02 -2.908825688064098358e-02 -1.747089624404907227e-02 -2.268743119202554226e-04 -3.360706567764282227e-02 6.635809782892465591e-03 -5.457756575196981430e-03 1.797053962945938110e-02 -1.413148920983076096e-02 -1.875604875385761261e-02 8.372792974114418030e-03 2.409137319773435593e-03 -1.696757785975933075e-02 -3.177095670253038406e-03 -1.335400622338056564e-02 2.245503477752208710e-02 2.336494997143745422e-02 -1.676210202276706696e-02 1.210273825563490391e-03 2.828565193340182304e-03 -2.377181872725486755e-02 -9.253527969121932983e-03 -1.901798695325851440e-02 2.065660990774631500e-02 -2.965028956532478333e-02 1.365800015628337860e-02 -2.174133202061057091e-03 9.650848805904388428e-03 3.561318665742874146e-02 -8.753958158195018768e-03 3.352266550064086914e-02 -5.136238876730203629e-03 3.572937566787004471e-04 -1.789701171219348907e-02 3.052023611962795258e-02
2.138011157512664795e-02 2.660648152232170105e-02 -4.126728978008031845e-03 3.221875801682472229e-02 7.522251922637224197e-03 2.175522036850452423e-02 -8.318583481013774872e-03 1.054788194596767426e-02 -1.550482679158449173e-02 3.594959853217005730e-03 9.920504875481128693e-03 -1.669483073055744171e-02 8.803703822195529938e-03 -9.023534366860985756e-04 -1.482111681252717972e-02 3.262173384428024292e-02 -1.281507126986980438e-02 3.226421773433685303e-02 2.169094234704971313e-02 -4.227860644459724426e-02 -2.065512910485267639e-02 -6.471681594848632812e-02 -1.989637315273284912e-02 2.876025997102260590e-02 -8.067270740866661072e-03 -1.152471639215946198e-02 2.013055235147476196e-02 1.414916757494211197e-02 -1.680766418576240540e-02 -3.632178157567977905e-02 8.550773374736309052e-03 -2.913011051714420319e-02 -3.383253887295722961e-02 -1.802768930792808533e-02 2.966266497969627380e-02 2.818136243149638176e-03 -3.382759168744087219e-02 2.375876344740390778e-02 1.745813339948654175e-02 3.407806158065795898e-02 -6.588136311620473862e-03 3.468440845608711243e-03 -1.125028473325073719e-03 -1.525897160172462463e-02 -9.993316605687141418e-03 1.659858971834182739e-03 -5.277495365589857101e-03 -3.914579749107360840e-03 -7.849023677408695221e-03 -2.354986965656280518e-02 -1.853539794683456421e-02 -1.198658812791109085e-02 1.781991496682167053e-02 3.283512592315673828e-02 -9.527559392154216766e-03 -4.513011954259127378e-04 2.217720635235309601e-02 -5.910697858780622482e-03 -1.230525784194469452e-02 -2.721279114484786987e-02 -2.467833086848258972e-02 -2.754628658294677734e-02 1.347082108259201050e-02 3.758129477500915527e-02 2.031073532998561859e-02 2.968952246010303497e-02 -1.026114355772733688e-02 -4.047830030322074890e-02 -8.930338546633720398e-03 1.173716969788074493e-03 3.041726909577846527e-02 -1.557242125272750854e-03 -2.902107872068881989e-02 2.886267029680311680e-04 -4.867681860923767090e-02 3.318280726671218872e-02 1.374822389334440231e-02 4.498709458857774734e-03 -3.021182864904403687e-02 1.098023261874914169e-02 -8.360669948160648346e-03 3.214307595044374466e-03 -1.648339070379734039e-02 -2.773773856461048126e-02 4.863142035901546478e-03 4.706507548689842224e-03 -6.227105390280485153e-03 -4.057519882917404175e-02 -6.406069733202457428e-03 1.175330299884080887e-02 -4.233962297439575195e-02 1.022937241941690445e-02 -9.946594946086406708e-03 -1.735810376703739166e-02 -8.215393871068954468e-03 -8.944258093833923340e-03 -5.285303108394145966e-03 -1.891449280083179474e-02 -2.197376638650894165e-02 -2.625923231244087219e-02 -6.034901831299066544e-03 -1.592402718961238861e-02 6.540229078382253647e-03 1.747491653077304363e-03 -2.996119484305381775e-02 -2.324783243238925934e-02 3.150490298867225647e-02 2.504597604274749756e-02 -1.940878480672836304e-02 4.914652556180953979e-03 -8.975639939308166504e-03 -8.005435578525066376e-03 2.371221967041492462e-02 1.659919880330562592e-02 -4.168737307190895081e-02 -1.883883774280548096e-02 -1.622506603598594666e-02 7.403378840535879135e-03 2.061634324491024017e-02 4.469485022127628326e-03 -1.199803408235311508e-02 1.578418165445327759e-02 2.482590731233358383e-03 -4.683596640825271606e-02 1.169108599424362183e-02 3.533289209008216858e-02 9.669208899140357971e-03 3.695565089583396912e-02
-3.014699928462505341e-02 1.745677925646305084e-02 3.784564509987831116e-02 4.634599201381206512e-03 1.760825514793395996e-02 -1.882995478808879852e-02 -1.991733163595199585e-02 -1.632533967494964600e-02 -4.143488593399524689e-03 1.215054653584957123e-02 4.274402186274528503e-02 -2.308921329677104950e-02 3.882816527038812637e-03 1.214477140456438065e-02 -1.450524199753999710e-02 3.667737124487757683e-03 3.253313153982162476e-02 -1.400475203990936279e-02 2.641340345144271851e-02 -3.892004955559968948e-03 -3.424448193982243538e-03 3.686629235744476318e-03 5.392036400735378265e-03 -2.533555962145328522e-03 1.544380653649568558e-02 -1.045677904039621353e-02 -1.991351321339607239e-02 6.239573005586862564e-03 4.593732301145792007e-03 -1.949856616556644440e-02 -2.013174584135413170e-03 -1.303745550103485584e-03 3.553692251443862915e-03 8.727112784981727600e-03 -1.356266252696514130e-02 -1.025110948830842972e-02 -8.469619788229465485e-03 -2.420799247920513153e-02 -1.168287708424031734e-03 -3.583826497197151184e-02 -1.676214486360549927e-02 1.582670211791992188e-02 5.599932046607136726e-04 -7.118262816220521927e-03 1.963801123201847076e-02 -4.052344709634780884e-02 -1.209191326051950455e-02 -1.714412681758403778e-02 1.819058693945407867e-02 4.114399198442697525e-03 -2.719420194625854492e-02 1.465542986989021301e-02 -1.720308139920234680e-02 -4.555183928459882736e-03 1.872684992849826813e-02 -8.776218630373477936e-03 1.801464520394802094e-02 -1.813833974301815033e-02 -1.301629818044602871e-03 2.498231828212738037e-02 5.956752225756645203e-03 -3.991379216313362122e-02 1.003757771104574203e-02 -3.808605950325727463e-03 5.351966712623834610e-03 4.241688176989555359e-02 7.239053375087678432e-04 -3.658453235402703285e-03 1.572267152369022369e-02 7.587581407278776169e-03 3.212781390175223351e-03 9.111641906201839447e-03 1.761512458324432373e-02 6.059583276510238647e-03 2.433709613978862762e-02 -4.562829621136188507e-03 -8.815332315862178802e-03 -4.704220220446586609e-02 -1.186385937035083771e-02 1.886670850217342377e-02 -1.423215609975159168e-03 1.673681102693080902e-02 4.722862318158149719e-02 -6.084181834012269974e-03 -2.670182846486568451e-02 3.207067726179957390e-03 -3.231883747503161430e-03 -2.057722955942153931e-02 8.323818445205688477e-03 -2.250666171312332153e-02 1.558594172820448875e-03 2.025295980274677277e-02 6.276713684201240540e-03 -1.685621030628681183e-02 -2.808719314634799957e-02 -8.313644793815910816e-04 1.263898680917918682e-03 4.440949857234954834e-02 3.205927088856697083e-02 5.341770593076944351e-03 1.134396879933774471e-04 -4.428645595908164978e-02 6.582310423254966736e-03 9.933641180396080017e-03 -3.364854678511619568e-02 -2.921671420335769653e-02 -4.934849217534065247e-02 -1.330016087740659714e-02 9.830230847001075745e-03 4.125769436359405518e-02 -4.673983901739120483e-03 -8.752930909395217896e-03 -1.224706042557954788e-02 -1.384227443486452103e-02 1.152508798986673355e-02 -4.509142413735389709e-02 -4.173368588089942932e-02 -7.563769351691007614e-03 -1.522988895885646343e-03 5.819701589643955231e-03 2.274905703961849213e-02 -7.918457500636577606e-03 4.145926982164382935e-02 8.111751638352870941e-03 -1.397169660776853561e-03 2.396601438522338867e-02 5.483319237828254700e-02 1.037422660738229752e-02
