3.441500291228294373e-02 5.481498315930366516e-02 -1.535024307668209076e-02 -2.531629987061023712e-03 -2.374159917235374451e-02 -1.511282380670309067e-02 7.504378259181976318e-02 -5.261532962322235107e-02 -4.490170255303382874e-02 4.457705654203891754e-03 4.658827558159828186e-02 -2.727623796090483665e-03 -1.009607873857021332e-02 3.996929526329040527e-02 5.353302694857120514e-03 -5.676977336406707764e-03 -3.400669619441032410e-02 2.127361483871936798e-02 -2.161208540201187134e-02 5.013908259570598602e-03 -2.091139787808060646e-03 3.760062158107757568e-02 -5.787290632724761963e-03 8.598855696618556976e-03 1.476810686290264130e-02 -2.688418887555599213e-02 6.307524628937244415e-03 -1.888268068432807922e-02 4.174338653683662415e-03 2.467165328562259674e-02 2.781752869486808777e-02 4.410217702388763428e-02 -4.941394086927175522e-03 -2.780600264668464661e-02 2.748673781752586365e-02 2.369416318833827972e-02 -1.646391674876213074e-02 3.060555271804332733e-02 -3.925111144781112671e-02 -2.938393130898475647e-02 -1.906078867614269257e-02 -3.491087118163704872e-03 -2.945467084646224976e-02 3.706293925642967224e-02 2.536507137119770050e-02 -3.705436736345291138e-02 2.295044437050819397e-02 1.781420782208442688e-02 4.890204221010208130e-02 -4.469625651836395264e-02 -7.632427848875522614e-03 -4.696789011359214783e-02 -1.746265590190887451e-02 4.873578436672687531e-03 -2.771740965545177460e-02 -3.274476900696754456e-02 -4.409398883581161499e-02 -4.012438282370567322e-02 -1.201416552066802979e-02 9.744685143232345581e-03 -1.806908659636974335e-02 4.210514575242996216e-02 2.405701205134391785e-02 6.935384590178728104e-04 -2.248468995094299316e-02 -2.936971932649612427e-02 1.362026575952768326e-02 -2.594278659671545029e-03 1.247611828148365021e-02 -2.080924250185489655e-02 -1.066353637725114822e-02 1.968578062951564789e-02 5.572193302214145660e-03 -7.023290544748306274e-02 -4.146677441895008087e-03 -4.019569233059883118e-02 -1.741751469671726227e-02 4.438687860965728760e-02 -9.745459072291851044e-03 -5.670134350657463074e-02 -1.784926280379295349e-02 -1.926705241203308105e-02 -2.633864060044288635e-04 -5.502499267458915710e-02 -3.690382465720176697e-02 -3.490016236901283264e-02 -8.018507622182369232e-03 5.641274154186248779e-03 4.184653982520103455e-03 5.197079479694366455e-02 4.130369517952203751e-03 -4.694549366831779480e-02 -1.621817611157894135e-02 2.188890241086483002e-02 9.164580143988132477e-03 2.525143511593341827e-02 -1.136782579123973846e-02 1.056039519608020782e-02 2.455289661884307861e-02 -2.186830900609493256e-02 -3.426393121480941772e-02 3.201812272891402245e-03 -2.185421297326683998e-03 1.211178395897150040e-02 -2.516752481460571289e-02 3.991706296801567078e-02 2.401976659893989563e-02 1.243409607559442520e-02 -1.876338198781013489e-02 -1.551977638155221939e-02 -3.474691882729530334e-02 -4.062568023800849915e-02 -4.425305873155593872e-02 1.382573321461677551e-02 -5.736523866653442383e-02 5.065253749489784241e-02 -3.033716976642608643e-02 2.690766006708145142e-02 9.559705853462219238e-03 -2.090582996606826782e-02 -3.019811958074569702e-02 -1.399880647659301758e-02 -1.585074327886104584e-02 -1.000249851495027542e-02 -4.029628820717334747e-03 -5.736447498202323914e-02 1.825151965022087097e-02 -3.054377809166908264e-02
3.243214450776576996e-03 3.129412233829498291e-02 2.446195296943187714e-02 -3.961943555623292923e-03 -1.701886765658855438e-02 -2.396855130791664124e-02 4.561426118016242981e-03 -2.244217880070209503e-02 -2.692195214331150055e-02 -2.924892306327819824e-02 5.255007417872548103e-04 8.619701489806175232e-03 1.043618284165859222e-02 1.037413440644741058e-02 -1.401362754404544830e-02 4.289373289793729782e-03 1.278329081833362579e-02 1.243412028998136520e-02 1.558799855411052704e-02 7.451807148754596710e-03 -6.636124453507363796e-04 -1.969977095723152161e-02 5.269978195428848267e-02 -1.504675485193729401e-02 1.553668547421693802e-02 -1.392350345849990845e-02 1.092436071485280991e-02 -1.057874504476785660e-02 1.453947182744741440e-02 3.313439711928367615e-02 2.347910962998867035e-02 1.264871843159198761e-02 -1.910648122429847717e-02 7.033134344965219498e-03 7.242550142109394073e-03 7.921411655843257904e-03 2.301394566893577576e-02 1.555857155472040176e-02 3.750809282064437866e-02 2.505030669271945953e-02 1.725868321955204010e-02 3.156112506985664368e-02 1.123060937970876694e-03 -5.042915418744087219e-02 -9.416696615517139435e-03 6.789346691220998764e-03 -2.880015037953853607e-02 -3.209028765559196472e-02 -2.710205037146806717e-03 1.785031519830226898e-02 -2.213448286056518555e-02 1.123810652643442154e-02 2.759791351854801178e-02 1.611263491213321686e-02 -1.767830364406108856e-02 -1.886826939880847931e-02 6.945507135242223740e-03 1.584934070706367493e-02 2.641175407916307449e-03 1.262619253247976303e-02 -1.933073275722563267e-03 -3.041855245828628540e-02 -8.092396892607212067e-03 5.134605616331100464e-02 1.432393305003643036e-02 -6.340235122479498386e-04 -1.715670921839773655e-03 -1.494584325700998306e-02 -2.704765088856220245e-02 -8.839484304189682007e-03 3.151986002922058105e-02 3.053656546398997307e-03 3.562809526920318604e-02 -6.032722885720431805e-04 2.750990912318229675e-02 7.677420228719711304e-02 -1.579264178872108459e-02 8.326664566993713379e-03 -1.028246711939573288e-03 -4.101720987819135189e-04 -1.527086086571216583e-02 2.662059105932712555e-02 3.401124104857444763e-02 -6.493679247796535492e-03 2.609011903405189514e-02 1.738007366657257080e-02 3.168272599577903748e-02 -2.040655910968780518e-02 3.880911692976951599e-02 -1.708647981286048889e-02 6.394953234121203423e-04 2.219352498650550842e-02 1.478291768580675125e-02 -3.400073200464248657e-02 -1.151791121810674667e-02 8.289394900202751160e-03 -6.022954825311899185e-03 -1.601996459066867828e-02 3.290368244051933289e-02 1.768668368458747864e-02 -1.254618540406227112e-02 -1.312881615012884140e-02 2.601540461182594299e-02 8.786375401541590691e-04 -1.105250883847475052e-02 2.754693385213613510e-03 -5.200156569480895996e-02 -3.154155611991882324e-02 -2.870997972786426544e-02 5.201395833864808083e-04 2.305884286761283875e-02 5.897389352321624756e-02 2.564247697591781616e-02 -2.153442986309528351e-02 3.942896146327257156e-03 3.029399923980236053e-02 -2.661013975739479065e-02 -4.556988831609487534e-03 -4.693901538848876953e-02 2.577650127932429314e-03 -1.166910864412784576e-03 -6.285448092967271805e-03 9.008635766804218292e-03 -1.304605323821306229e-02 4.888781346380710602e-03 7.930257916450500488e-02 2.263017185032367706e-02 3.788061439990997314e-03
-1.493897172622382641e-03 -1.041067857295274734e-02 1.805919408798217773e-02 1.867538876831531525e-02 -3.235156089067459106e-02 2.862450433894991875e-03 -4.215384274721145630e-02 -2.874321304261684418e-02 2.921335957944393158e-02 -1.613513566553592682e-02 2.151802740991115570e-02 2.422488108277320862e-02 5.199131369590759277e-02 -2.141360752284526825e-02 3.154670447111129761e-02 1.591396331787109375e-02 -7.963685318827629089e-03 -8.315484970808029175e-03 -1.851377822458744049e-02 1.465581264346837997e-02 -2.030098624527454376e-02 1.039194129407405853e-02 2.191244624555110931e-02 -6.891661323606967926e-03 -1.158545166254043579e-02 9.404690936207771301e-03 3.060610406100749969e-02 -2.079656347632408142e-02 -2.041796036064624786e-02 -2.460366301238536835e-02 8.779143914580345154e-03 -9.739846922457218170e-03 2.896192483603954315e-02 -1.385418605059385300e-02 -3.685570508241653442e-02 3.623480722308158875e-02 1.659660600125789642e-02 2.580371312797069550e-02 1.818596757948398590e-02 -2.992963884025812149e-03 5.914416164159774780e-03 1.463643088936805725e-02 -2.328258939087390900e-02 -4.881312604993581772e-03 2.309216558933258057e-02 -2.739742025732994080e-02 -3.685234114527702332e-02 -3.233645111322402954e-02 5.461880937218666077e-04 -1.283599622547626495e-02 2.008527517318725586e-02 -2.221268834546208382e-03 -3.849973902106285095e-02 -1.873839832842350006e-02 -5.274391267448663712e-03 2.380048856139183044e-02 1.928592100739479065e-02 -2.668734826147556305e-02 -6.778305396437644958e-03 -1.218940876424312592e-02 -3.902076557278633118e-02 -3.041401319205760956e-02 -1.648408174514770508e-02 -8.828926831483840942e-03 -1.260395161807537079e-02 3.978491295129060745e-03 -2.296076901257038116e-02 1.688829995691776276e-02 -5.622806958854198456e-03 -1.595705933868885040e-02 6.129629909992218018e-03 -5.338076502084732056e-03 -2.876564674079418182e-02 1.973813399672508240e-02 2.775905704766046256e-05 -3.796881937887519598e-04 3.054388333112001419e-03 -5.807084497064352036e-03 -1.595347421243786812e-03 3.360981587320566177e-03 2.755633927881717682e-02 -1.706681773066520691e-02 -1.695219799876213074e-02 6.230346392840147018e-03 -2.719095535576343536e-02 3.722812980413436890e-02 -2.012432320043444633e-03 -1.952917687594890594e-02 -2.460465580224990845e-02 6.042629480361938477e-02 8.645955473184585571e-03 1.608728617429733276e-02 -2.986494451761245728e-02 -8.777190931141376495e-03 -2.146291173994541168e-02 -1.127529423683881760e-02 4.234678670763969421e-02 -3.061941126361489296e-03 -3.065524436533451080e-02 -1.561703532934188843e-02 -5.230836570262908936e-03 -3.246398409828543663e-03 -6.731568370014429092e-03 -1.548861339688301086e-02 -5.247125867754220963e-03 9.633739478886127472e-03 -1.454675570130348206e-02 -3.397030010819435120e-02 2.131450176239013672e-02 -2.115601208060979843e-03 2.226711623370647430e-02 -1.194607466459274292e-02 -8.138114586472511292e-03 7.146247662603855133e-03 3.031823039054870605e-02 -4.273015260696411133e-02 1.935244724154472351e-02 -3.351106494665145874e-02 1.669021695852279663e-02 -2.665153332054615021e-02 -2.721847221255302429e-02 -1.211854442954063416e-02 -1.280263531953096390e-02 2.604391658678650856e-03 -1.345811784267425537e-02 2.329631336033344269e-02 -6.908561568707227707e-03 -1.141862012445926666e-02
2.770549431443214417e-02 9.356567636132240295e-03 -4.153612628579139709e-02 -4.753238335251808167e-02 6.539639434777200222e-04 8.227805607020854950e-03 1.532772835344076157e-02 -3.111122408881783485e-03 -1.309934444725513458e-02 5.186441913247108459e-02 -4.253483563661575317e-02 -1.833138801157474518e-02 -1.793705858290195465e-02 -1.020572241395711899e-02 1.563554257154464722e-02 -2.358054043725132942e-03 -4.049167968332767487e-03 2.211440354585647583e-02 6.580153945833444595e-03 -3.896550461649894714e-02 2.333644963800907135e-02 5.598478391766548157e-02 2.406727895140647888e-02 3.867416083812713623e-02 1.354241743683815002e-02 2.257150970399379730e-02 7.366684079170227051e-02 1.579778082668781281e-02 3.461605869233608246e-03 -1.785895414650440216e-02 -6.334675010293722153e-03 2.434673346579074860e-02 -4.728645458817481995e-02 2.945525385439395905e-02 4.899183753877878189e-03 -2.134772762656211853e-02 7.876788266003131866e-03 1.068030577152967453e-02 2.973865251988172531e-03 -3.379875048995018005e-02 2.204431453719735146e-03 -7.244028616696596146e-03 6.007245741784572601e-03 -5.489783361554145813e-02 -3.945650905370712280e-02 -5.954310297966003418e-03 -1.435050182044506073e-02 -2.302026562392711639e-02 1.144119654782116413e-03 4.385555163025856018e-03 1.383719849400222301e-03 -5.177934654057025909e-03 -1.927641406655311584e-02 3.223682567477226257e-02 3.886716440320014954e-03 1.551910117268562317e-02 8.480642572976648808e-04 -2.460417337715625763e-02 5.833254661411046982e-03 -1.847523450851440430e-02 -4.772843327373266220e-03 2.277911826968193054e-02 -3.486904874444007874e-02 -1.227144338190555573e-02 -4.060706868767738342e-02 3.104593046009540558e-02 -1.184710394591093063e-02 2.727313258219510317e-04 2.538357162848114967e-03 5.711722373962402344e-02 2.908590435981750488e-02 -9.341072291135787964e-03 9.326017461717128754e-03 -1.731491088867187500e-02 -6.799598783254623413e-02 -3.450705483555793762e-02 2.198625914752483368e-02 2.867236267775297165e-03 -1.474528945982456207e-02 2.267417125403881073e-02 6.019663438200950623e-02 1.468626130372285843e-02 -4.113365430384874344e-03 3.156265616416931152e-02 -3.301864489912986755e-02 1.812206022441387177e-02 1.696845889091491699e-02 -3.294647485017776489e-02 -3.402110654860734940e-03 -9.418892674148082733e-03 4.814566113054752350e-03 1.397732365876436234e-02 3.527248976752161980e-03 1.075326465070247650e-02 6.342624314129352570e-03 -9.939082665368914604e-04 3.636263543739914894e-03 4.369902424514293671e-03 5.832603201270103455e-03 -1.335131935775279999e-02 -6.508629303425550461e-03 -2.688577398657798767e-02 -1.997867040336132050e-02 -2.650113403797149658e-02 -1.350527349859476089e-02 2.343472326174378395e-03 -2.483359351754188538e-02 3.727912902832031250e-03 -8.129641413688659668e-03 3.084499575197696686e-02 9.021149948239326477e-03 2.305414527654647827e-02 1.407405268400907516e-02 -3.203396871685981750e-02 -6.928013172000646591e-04 4.998183343559503555e-03 -2.252485789358615875e-02 -1.730746403336524963e-02 -1.657408848404884338e-02 -3.244950249791145325e-02 1.158727891743183136e-02 -5.012101680040359497e-02 2.246999181807041168e-03 -2.636911720037460327e-02 -4.351448640227317810e-02 1.125015411525964737e-02 9.777062805369496346e-04 2.573411911725997925e-02
-1.379423774778842926e-02 -5.382445640861988068e-03 -2.247812598943710327e-02 -3.300422802567481995e-02 3.311011940240859985e-02 2.162512158975005150e-03 -1.675028540194034576e-02 -4.107759334146976471e-03 1.772109419107437134e-02 -5.493452399969100952e-02 2.692420221865177155e-02 1.132692117244005203e-02 4.287179093807935715e-03 2.809364721179008484e-02 -3.835562244057655334e-02 -1.404033321887254715e-02 -4.437368735671043396e-02 2.292186021804809570e-02 1.356545742601156235e-02 -5.370546504855155945e-02 -9.213658049702644348e-03 2.928277291357517242e-02 -2.710366994142532349e-02 2.246778644621372223e-02 -3.569087386131286621e-02 1.336754858493804932e-02 -3.238169848918914795e-02 5.109978839755058289e-02 -2.758668363094329834e-02 -1.306085730902850628e-03 -3.345874138176441193e-03 -2.230521477758884430e-02 -7.229699939489364624e-02 1.978707127273082733e-02 -8.629789575934410095e-03 1.455992553383111954e-02 1.674863323569297791e-02 6.184438709169626236e-03 3.788914903998374939e-02 3.050711378455162048e-02 -3.558820113539695740e-02 -3.992860764265060425e-02 3.901227191090583801e-02 2.875522896647453308e-02 -8.383038453757762909e-03 -2.804153040051460266e-02 -7.939193397760391235e-03 -2.369453944265842438e-02 3.668363019824028015e-02 3.208285570144653320e-02 1.838777773082256317e-02 5.390566959977149963e-02 -2.354480512440204620e-02 -9.254249744117259979e-03 9.442711248993873596e-03 -9.902686811983585358e-03 -2.018490433692932129e-02 3.783767670392990112e-02 -4.544403776526451111e-02 -1.681653782725334167e-02 -2.603820711374282837e-02 -2.222697064280509949e-02 -5.508986115455627441e-02 -3.184860944747924805e-02 -4.260985180735588074e-02 -2.781452424824237823e-02 2.171949483454227448e-02 -9.275279007852077484e-03 1.356542110443115234e-03 3.652785345911979675e-02 3.998795524239540100e-02 -4.819778725504875183e-02 3.689190000295639038e-02 2.570231445133686066e-02 3.787758946418762207e-02 2.020118199288845062e-02 -8.524746634066104889e-03 1.540818437933921814e-02 8.569773490307852626e-05 1.737463660538196564e-02 1.484456821344792843e-03 -2.121984399855136871e-02 -3.649147227406501770e-02 2.912957780063152313e-02 1.320126000791788101e-02 1.042480673640966415e-02 -2.598892711102962494e-02 -1.158143393695354462e-02 -3.779785241931676865e-03 -5.491805076599121094e-02 -1.911688409745693207e-02 1.424773689359426498e-02 2.465305663645267487e-02 -4.300618544220924377e-02 -1.500419713556766510e-02 2.428819425404071808e-02 -2.090764977037906647e-02 4.760760441422462463e-02 3.048002906143665314e-02 -1.398232113569974899e-02 -3.476396948099136353e-02 1.165276113897562027e-02 5.380063503980636597e-02 9.270880254916846752e-04 1.983347721397876740e-02 9.212234988808631897e-03 1.350238267332315445e-02 -1.841786131262779236e-02 8.764004334807395935e-03 2.225464023649692535e-02 4.921233281493186951e-02 -3.000626899302005768e-02 3.628788143396377563e-02 1.640509627759456635e-02 -2.060600183904170990e-02 -7.029291708022356033e-03 3.582144854590296745e-03 -4.394073411822319031e-02 1.383493747562170029e-02 -2.664071507751941681e-02 -3.166246041655540466e-02 -1.331771817058324814e-02 3.233397752046585083e-02 -7.566523738205432892e-03 -3.990206460002809763e-04 1.760460622608661652e-02 -9.653990273363888264e-04 2.025239355862140656e-02
-2.094038575887680054e-02 -7.944718934595584869e-03 1.104359328746795654e-02 1.810550503432750702e-02 1.649555377662181854e-02 1.119089592248201370e-02 6.645614746958017349e-03 -1.754999160766601562e-02 -2.623149566352367401e-02 -1.618355885148048401e-02 1.411655545234680176e-02 -1.700235530734062195e-02 4.755956586450338364e-03 -4.036174155771732330e-03 -6.930681876838207245e-03 -3.095318935811519623e-02 -2.220557257533073425e-02 -2.180129289627075195e-02 -6.856050458736717701e-05 -5.267220083624124527e-03 -1.497648842632770538e-02 4.790878389030694962e-03 -4.530915990471839905e-02 -1.131438463926315308e-02 -8.476585149765014648e-03 -4.491373524069786072e-02 3.827957808971405029e-02 -1.067273784428834915e-03 -3.490216657519340515e-02 -1.671199128031730652e-02 -1.375419739633798599e-02 2.447053790092468262e-02 2.453813329339027405e-03 1.465340331196784973e-02 -9.757688269019126892e-03 2.194518595933914185e-02 4.162789788097143173e-03 -2.145917899906635284e-02 9.561428800225257874e-03 1.836022920906543732e-02 1.138758752495050430e-02 3.250009194016456604e-02 -1.752373762428760529e-02 -1.007567159831523895e-02 -9.493610821664333344e-03 2.725683711469173431e-02 -4.387957975268363953e-03 7.099922280758619308e-03 1.423631887882947922e-02 -1.978779677301645279e-03 -1.365563925355672836e-02 2.658700570464134216e-02 -3.158432617783546448e-02 8.238278329372406006e-03 1.489078812301158905e-02 2.540528308600187302e-03 6.119740754365921021e-02 -2.076214924454689026e-02 -1.987667288631200790e-03 -8.019053377211093903e-03 -4.477816075086593628e-02 -1.231101248413324356e-02 -2.432020148262381554e-03 1.685669459402561188e-02 -2.586944960057735443e-02 3.931354358792304993e-02 2.953259460628032684e-02 -1.358063146471977234e-02 5.087810382246971130e-02 -1.213264930993318558e-02 1.432300917804241180e-02 1.286471076309680939e-02 8.474615402519702911e-03 -8.845614269375801086e-03 -5.567069631069898605e-03 -1.394000649452209473e-02 1.215805485844612122e-02 1.278130430728197098e-02 -2.295639924705028534e-02 7.243624888360500336e-03 4.325187951326370239e-02 -1.003001700155436993e-03 -4.787574056535959244e-03 -2.028140984475612640e-02 3.362365067005157471e-02 4.735047463327646255e-03 1.488627213984727859e-02 2.125933766365051270e-02 9.696238674223423004e-03 -1.045190822333097458e-02 -2.525072358548641205e-02 -1.901824772357940674e-02 -1.100550498813390732e-02 -2.640340477228164673e-03 -2.384422719478607178e-02 3.228407725691795349e-02 -3.021702403202652931e-03 -9.260191582143306732e-03 1.002968568354845047e-02 -1.276927534490823746e-02 3.135395003482699394e-03 2.344718389213085175e-02 1.676747761666774750e-02 -6.232423242181539536e-03 -3.570690378546714783e-02 2.333813719451427460e-02 -4.681161046028137207e-02 2.875715680420398712e-02 -2.582692541182041168e-02 7.353947963565587997e-03 1.417075563222169876e-02 7.932766340672969818e-03 -1.447644736617803574e-02 4.015502333641052246e-02 8.779131807386875153e-03 -5.122320260852575302e-03 -2.163045294582843781e-02 9.406199678778648376e-04 -1.633251644670963287e-02 1.961096934974193573e-02 -8.081292733550071716e-03 -3.257435560226440430e-02 5.409990251064300537e-02 -1.513052545487880707e-02 -1.399060245603322983e-02 2.241558249806985259e-04 3.264479571953415871e-03 1.633903384208679199e-02
6.095351418480277061e-04 -4.972853511571884155e-02 9.427762590348720551e-03 1.287435647100210190e-02 2.942976728081703186e-02 2.384990267455577850e-02 -1.460930705070495605e-02 -2.102274820208549500e-02 -9.987104684114456177e-03 -7.440240588039159775e-03 4.562120512127876282e-02 8.066345937550067902e-03 -2.477818168699741364e-03 1.722040586173534393e-02 -3.463667631149291992e-02 -1.582916639745235443e-02 -9.112388826906681061e-03 2.096664160490036011e-02 -1.895114220678806305e-02 -2.676825784146785736e-02 1.344637293368577957e-02 -3.144709765911102295e-02 -2.535880543291568756e-03 4.670679569244384766e-03 1.426637917757034302e-02 1.303054951131343842e-02 8.978944271802902222e-03 -4.004527255892753601e-02 9.624591912142932415e-04 4.827980883419513702e-03 1.554400660097599030e-02 2.923949435353279114e-02 -1.210458669811487198e-02 -3.947827592492103577e-02 9.036911069415509701e-05 -7.677824236452579498e-03 -3.558236639946699142e-03 -4.203097894787788391e-03 -1.022727592498995364e-04 2.554034627974033356e-02 -2.360833063721656799e-02 -1.497391960583627224e-03 -3.078061528503894806e-02 3.559796139597892761e-02 -3.388689085841178894e-02 1.314496248960494995e-02 1.427781116217374802e-02 -1.608077064156532288e-02 -8.252445608377456665e-03 -2.276658639311790466e-02 1.175953727215528488e-02 1.099336799234151840e-02 -2.598770195618271828e-03 -6.710145156830549240e-03 -5.752247758209705353e-03 -4.022836312651634216e-02 4.469112306833267212e-02 -6.374823395162820816e-03 3.609881550073623657e-02 -6.684973370283842087e-03 -5.454757250845432281e-03 -1.352981291711330414e-02 1.403364911675453186e-02 -1.332252053543925285e-03 3.227928280830383301e-02 -3.870113752782344818e-03 3.029729612171649933e-02 -7.301472127437591553e-03 5.427079740911722183e-03 -2.384904399514198303e-02 -1.517114974558353424e-02 1.992980949580669403e-02 -1.208763103932142258e-02 4.910689219832420349e-02 6.131843663752079010e-03 2.559866989031434059e-03 4.501603916287422180e-02 9.659963659942150116e-03 6.776326801627874374e-03 -1.350312586873769760e-02 -6.279534846544265747e-02 -2.851359546184539795e-02 7.780110929161310196e-03 -2.592862816527485847e-03 2.327889949083328247e-02 -8.717555552721023560e-03 3.870086744427680969e-02 -6.096739321947097778e-02 1.561456359922885895e-03 6.093585491180419922e-02 -3.205121308565139771e-02 5.476460605859756470e-02 7.766688242554664612e-03 -2.373166196048259735e-02 -1.783316768705844879e-02 2.019608393311500549e-02 2.014110796153545380e-02 -4.387761652469635010e-02 5.715885665267705917e-03 -3.786376863718032837e-02 -1.148172467947006226e-02 -1.289558131247758865e-02 1.447288668714463711e-03 -5.558149889111518860e-03 1.052726246416568756e-02 -1.713574118912220001e-02 -3.760103136301040649e-02 -1.642316766083240509e-02 -1.791634410619735718e-02 -3.909437730908393860e-02 1.896507479250431061e-02 3.505085781216621399e-02 1.747285760939121246e-02 4.714154079556465149e-02 -1.272950693964958191e-02 -4.437846690416336060e-02 -4.590054741129279137e-04 2.927961293607950211e-03 -1.498491130769252777e-02 3.674947842955589294e-02 -2.091044560074806213e-02 1.583634503185749054e-02 2.809545956552028656e-03 2.672068215906620026e-02 -2.472345344722270966e-02 1.692243851721286774e-03 2.714116498827934265e-02 2.855366095900535583e-02
2.268995344638824463e-02 6.563995499163866043e-03 5.747149232774972916e-03 9.127135388553142548e-03 -2.202119678258895874e-02 -3.045957535505294800e-02 2.046304382383823395e-02 4.271069169044494629e-02 -2.118218317627906799e-02 -4.917185753583908081e-02 -2.832932770252227783e-02 2.426547557115554810e-02 -1.217683311551809311e-02 -1.370153017342090607e-02 -4.754998907446861267e-02 -2.433805540204048157e-02 1.928083598613739014e-02 -4.213810898363590240e-03 8.484204299747943878e-03 -1.865057274699211121e-02 -1.881118118762969971e-02 -6.679867953062057495e-02 -7.497635483741760254e-02 9.043919853866100311e-03 1.856787595897912979e-03 1.004008227027952671e-03 1.491395104676485062e-02 2.661803737282752991e-02 2.822365611791610718e-02 1.193758100271224976e-02 -1.646632142364978790e-02 1.070459093898534775e-02 -7.943895761854946613e-04 -2.434528991580009460e-02 -4.525299742817878723e-02 -2.793824241962283850e-04 -3.484619781374931335e-02 -5.401618033647537231e-02 5.040728673338890076e-02 -1.308889407664537430e-02 5.652964115142822266e-03 -9.198294952511787415e-03 -4.329023510217666626e-02 1.522492803633213043e-02 1.900651864707469940e-02 6.675282865762710571e-02 -9.556378237903118134e-03 5.627387017011642456e-02 -2.679855749011039734e-02 2.940514357760548592e-03 -8.997906930744647980e-03 5.228092148900032043e-02 -2.999182045459747314e-02 -1.775233075022697449e-02 1.308897137641906738e-02 6.380751437973231077e-05 -3.804387524724006653e-02 -1.408661436289548874e-02 2.859519794583320618e-02 -7.068437407724559307e-04 6.008715927600860596e-02 2.937210910022258759e-02 -1.970953494310379028e-02 1.250018924474716187e-02 -2.636083401739597321e-02 -2.205358073115348816e-02 2.015635743737220764e-02 -8.319288492202758789e-03 3.969860076904296875e-02 -1.875567249953746796e-02 1.446397975087165833e-02 6.503191543743014336e-04 -1.744729094207286835e-02 1.085307635366916656e-02 5.344014149159193039e-03 -5.412688944488763809e-03 5.639816448092460632e-02 4.740496166050434113e-03 2.289128676056861877e-02 -4.766902700066566467e-02 -2.122743986546993256e-02 -2.462584339082241058e-02 3.126560151576995850e-02 -1.990073733031749725e-02 2.555882185697555542e-02 3.664056956768035889e-02 -2.107472531497478485e-02 4.407874494791030884e-02 -2.534788474440574646e-02 3.617620794102549553e-03 -4.337463900446891785e-02 1.496378984302282333e-02 9.334761998616158962e-04 3.130313381552696228e-02 2.505446970462799072e-02 -3.831364959478378296e-02 5.258494243025779724e-02 -4.120446741580963135e-02 -1.759801991283893585e-02 -3.337362781167030334e-03 3.949354588985443115e-02 1.039296574890613556e-02 -8.753831498324871063e-03 7.025776430964469910e-03 -3.493485227227210999e-02 -1.301989704370498657e-02 3.476679697632789612e-02 -4.547839984297752380e-03 3.926239907741546631e-02 -4.689565673470497131e-02 -3.640525415539741516e-02 5.134932696819305420e-02 6.362296640872955322e-02 -1.751913316547870636e-02 -1.917224749922752380e-02 2.963777258992195129e-02 1.795204170048236847e-02 -1.494545210152864456e-02 1.460288092494010925e-02 -6.928498856723308563e-03 4.036906734108924866e-02 1.882079429924488068e-02 -5.138376262038946152e-03 -1.795179769396781921e-02 2.645334601402282715e-02 3.298940835520625114e-03 1.063184998929500580e-02 4.422071576118469238e-02
