-5.156655609607696533e-02 1.292959693819284439e-02 -2.710577845573425293e-02 1.063811592757701874e-02 5.832205712795257568e-02 -1.731251925230026245e-02 -4.470080137252807617e-03 1.849396899342536926e-02 -1.384504232555627823e-02 2.343510650098323822e-02 4.189929366111755371e-02 -2.518145926296710968e-02 5.335676483809947968e-03 8.530396036803722382e-03 -2.513767220079898834e-02 6.905611371621489525e-04 -4.551748186349868774e-02 2.242799103260040283e-02 -1.210404466837644577e-02 4.040240868926048279e-02 2.355537936091423035e-02 -1.852600090205669403e-02 -1.308650942519307137e-03 -1.705445349216461182e-02 4.858606681227684021e-02 -6.173924077302217484e-03 -3.177501633763313293e-02 2.675156295299530029e-02 1.362767443060874939e-02 3.982055000960826874e-03 -2.371669188141822815e-02 -8.878177963197231293e-03 -5.452209152281284332e-03 3.818031400442123413e-02 7.479266263544559479e-03 -2.749596722424030304e-02 -3.750099614262580872e-02 2.236919477581977844e-02 3.495460003614425659e-02 -2.430555224418640137e-02 7.476530969142913818e-02 -4.603055119514465332e-02 2.306762896478176117e-02 1.387545838952064514e-02 -5.752739682793617249e-02 -2.880771085619926453e-02 1.445045229047536850e-02 2.468478400260210037e-03 -3.601285815238952637e-02 3.384467586874961853e-02 -6.804856471717357635e-03 1.907111331820487976e-02 1.506460551172494888e-02 9.394224733114242554e-03 5.358434747904539108e-03 1.981452479958534241e-02 -1.917779259383678436e-02 3.276067227125167847e-02 2.308771759271621704e-02 -7.883533835411071777e-02 2.043223008513450623e-02 1.393705978989601135e-02 2.333799935877323151e-02 -3.778371587395668030e-02 7.812978699803352356e-03 -3.883323445916175842e-02 6.313407211564481258e-04 -1.765293185599148273e-03 -2.772431261837482452e-02 -2.132998406887054443e-02 -1.282779965549707413e-02 -4.577910993248224258e-03 -8.055547368712723255e-04 2.191608212888240814e-02 4.573726281523704529e-02 -5.155692994594573975e-02 9.846086613833904266e-03 6.171761825680732727e-02 -6.028486043214797974e-02 -1.522052939981222153e-02 -1.768023893237113953e-02 -2.246569655835628510e-02 4.584587365388870239e-02 -8.820678107440471649e-03 2.842773310840129852e-02 4.464099649339914322e-03 1.736524142324924469e-02 3.330020117573440075e-04 -2.877172268927097321e-02 -2.026578225195407867e-02 2.465722337365150452e-02 8.220499381422996521e-03 -1.833660295233130455e-03 4.063170403242111206e-02 2.365656197071075439e-02 5.771193653345108032e-03 1.534953247755765915e-02 2.287703333422541618e-03 2.931548980996012688e-03 2.313808165490627289e-02 7.710447534918785095e-03 -2.570342272520065308e-02 -1.850172318518161774e-02 3.785195574164390564e-02 -6.663154810667037964e-03 -2.745846053585410118e-03 -3.240275755524635315e-02 -3.408583626151084900e-02 -4.583024885505437851e-03 -2.544957585632801056e-02 5.240502953529357910e-02 1.147581171244382858e-02 3.198052942752838135e-02 -3.246261924505233765e-02 1.385730225592851639e-02 3.634541295468807220e-03 2.251249738037586212e-03 2.535609342157840729e-02 -5.510134156793355942e-03 -2.042044512927532196e-02 -3.997125895693898201e-05 -1.307803951203823090e-02 4.938918352127075195e-02 3.389285877346992493e-02 4.290037974715232849e-02 -2.663950435817241669e-03 -2.216252870857715607e-02 3.435903415083885193e-02
-5.665796808898448944e-03 3.602731507271528244e-03 2.170475758612155914e-02 -4.358607530593872070e-02 -4.147276654839515686e-02 -5.001743789762258530e-03 1.114106737077236176e-02 -1.481952983886003494e-02 6.489165872335433960e-02 1.597130298614501953e-02 -2.244647033512592316e-02 2.510358765721321106e-02 -7.302116719074547291e-04 -2.399505488574504852e-02 8.290658704936504364e-03 1.949855126440525055e-02 1.024386007338762283e-02 -6.160554010421037674e-03 2.827221760526299477e-03 -7.798502920195460320e-04 -1.486004982143640518e-02 1.237280666828155518e-02 2.986889518797397614e-02 -1.532023865729570389e-02 -1.789380609989166260e-02 -7.018952164798974991e-03 2.643661014735698700e-02 1.724651828408241272e-02 -2.620512805879116058e-02 -4.710419103503227234e-03 9.754389524459838867e-03 2.944513224065303802e-03 -4.086101893335580826e-03 -1.035712566226720810e-02 -2.099776454269886017e-02 4.603665322065353394e-02 2.448090538382530212e-02 1.262069307267665863e-02 -3.575373208150267601e-03 4.465505480766296387e-02 -4.793618805706501007e-03 -4.744445532560348511e-02 -1.878324337303638458e-02 6.668593268841505051e-03 5.669129081070423126e-03 -2.092649415135383606e-02 -1.634186506271362305e-02 -2.219478599727153778e-03 -1.671000942587852478e-02 -2.028455724939703941e-03 4.033948108553886414e-02 -1.924959942698478699e-02 -5.215876176953315735e-02 3.789724409580230713e-02 -4.406365100294351578e-03 2.922187931835651398e-02 -1.222186628729104996e-02 3.788273409008979797e-02 -2.496116049587726593e-02 -1.975434832274913788e-03 7.764391135424375534e-03 -1.102825347334146500e-02 -2.877520024776458740e-02 -9.476206265389919281e-03 4.108854010701179504e-02 -3.371920809149742126e-02 -1.590094715356826782e-02 1.475794427096843719e-02 -5.625868961215019226e-02 -2.619639411568641663e-02 -7.496761390939354897e-04 -1.124304346740245819e-02 -1.535073947161436081e-02 2.444146387279033661e-02 3.953612223267555237e-02 3.094005770981311798e-02 3.767859190702438354e-02 -1.517958566546440125e-02 1.065813004970550537e-02 -1.876685209572315216e-02 -6.557163316756486893e-03 -3.236958384513854980e-02 -5.402180179953575134e-02 -1.234345976263284683e-02 4.803479835391044617e-02 3.748160228133201599e-02 -5.458652973175048828e-03 1.129847764968872070e-02 -6.105973199009895325e-02 4.180868342518806458e-02 9.852228686213493347e-03 -7.574874442070722580e-03 -1.440681866370141506e-03 -2.125993184745311737e-02 -9.010182693600654602e-03 -3.005121648311614990e-02 -2.910689637064933777e-02 3.026367537677288055e-02 -2.842966839671134949e-02 2.037537470459938049e-02 4.763290658593177795e-02 -1.783405244350433350e-02 7.044720929116010666e-03 -3.369717393070459366e-03 7.227955013513565063e-02 1.419056020677089691e-02 1.983986981213092804e-02 -1.503048697486519814e-03 2.498428337275981903e-02 -1.310628838837146759e-02 3.767471387982368469e-02 2.068591862916946411e-02 5.887134373188018799e-02 -1.184921246021986008e-02 9.126584627665579319e-04 -1.861820556223392487e-02 5.707616731524467468e-02 1.481933519244194031e-02 -3.408500924706459045e-02 1.573676243424415588e-02 3.033136762678623199e-02 -8.789930492639541626e-03 -3.368113189935684204e-02 7.712373510003089905e-03 3.594580665230751038e-02 2.648933418095111847e-02 -2.187095396220684052e-02 -3.891287837177515030e-03
-7.143901661038398743e-03 -6.830824539065361023e-03 -1.000161562114953995e-02 -1.841227896511554718e-02 -9.172220714390277863e-03 1.750016771256923676e-02 1.471058465540409088e-03 -1.648005470633506775e-02 -4.456454887986183167e-02 6.150535773485898972e-03 1.196442358195781708e-02 -1.509392913430929184e-02 -1.055143866688013077e-02 7.107736915349960327e-02 1.604898832738399506e-02 -3.326722607016563416e-02 2.000135928392410278e-02 4.137216019444167614e-04 -9.883305989205837250e-03 -3.103434853255748749e-02 1.129840686917304993e-02 3.954954445362091064e-04 -6.611634045839309692e-03 -3.270773682743310928e-03 -1.381842885166406631e-02 2.594196610152721405e-02 2.696075476706027985e-02 -5.461472645401954651e-02 -3.645345568656921387e-02 -1.781107857823371887e-02 -9.466506890021264553e-04 1.930997520685195923e-02 -2.225342392921447754e-02 1.486864872276782990e-02 3.756841272115707397e-02 3.002609312534332275e-02 1.602142490446567535e-02 2.139661088585853577e-02 -6.920359283685684204e-02 -2.421796135604381561e-02 4.887294396758079529e-02 -1.658136583864688873e-02 1.481049042195081711e-02 2.152712270617485046e-02 -1.885079406201839447e-02 1.212048530578613281e-02 -2.273752354085445404e-02 -2.471279725432395935e-02 2.915583178400993347e-02 -6.395497824996709824e-03 -4.132303968071937561e-02 -2.753975987434387207e-02 2.112375758588314056e-02 1.998782716691493988e-02 -3.432014212012290955e-02 -7.303347345441579819e-03 9.992449544370174408e-03 -5.325660854578018188e-02 -2.942383289337158203e-02 -3.155611688271164894e-03 -3.442927449941635132e-02 5.578387528657913208e-03 4.516760632395744324e-02 3.957977518439292908e-02 6.719083175994455814e-04 8.534344844520092010e-03 -1.134382747113704681e-02 4.996998235583305359e-03 2.314200624823570251e-02 1.709051243960857391e-02 -9.125130251049995422e-03 5.208027362823486328e-02 4.464983940124511719e-02 9.554487653076648712e-03 -1.553953438997268677e-02 -9.583489969372749329e-03 -2.153226546943187714e-02 5.604757368564605713e-02 1.446133852005004883e-02 9.425407275557518005e-03 -2.284293994307518005e-02 2.400386705994606018e-02 1.352110225707292557e-02 -6.507744640111923218e-02 -1.280751638114452362e-02 1.377495238557457924e-03 4.856420680880546570e-02 3.545321524143218994e-02 9.036266244947910309e-03 -9.887175634503364563e-03 1.142762787640094757e-02 -2.599962241947650909e-02 -1.755598234012722969e-03 1.466284040361642838e-02 -2.046964131295681000e-02 4.773089662194252014e-02 -2.598791569471359253e-02 1.130600110627710819e-03 -5.051150452345609665e-03 -9.982083924114704132e-03 9.713173843920230865e-03 -2.049112133681774139e-02 -2.101164683699607849e-02 1.795325614511966705e-02 -1.462223567068576813e-02 6.865078583359718323e-03 5.275733303278684616e-03 3.827390074729919434e-02 -6.092751864343881607e-03 -1.216244604438543320e-02 5.280813667923212051e-03 -9.030055254697799683e-03 -6.558401137590408325e-02 5.108762532472610474e-02 -6.990642752498388290e-03 3.390523791313171387e-02 -8.208509534597396851e-03 7.126331329345703125e-02 2.103750035166740417e-02 6.508240103721618652e-02 -2.671015681698918343e-03 -7.813169620931148529e-03 1.799265295267105103e-02 -4.641771782189607620e-03 8.229515515267848969e-03 1.490394026041030884e-02 9.163976646959781647e-03 -1.820177212357521057e-02
8.155454881489276886e-03 9.666955098509788513e-03 3.008959069848060608e-02 1.905938377603888512e-03 3.373556071892380714e-03 -1.066596806049346924e-02 2.967027574777603149e-02 1.036088168621063232e-02 -2.570411190390586853e-02 1.568766497075557709e-02 2.138319052755832672e-02 -2.203152514994144440e-02 -8.986616740003228188e-04 1.013005059212446213e-02 -2.450406178832054138e-02 -3.599159792065620422e-02 2.593711018562316895e-02 3.937410190701484680e-02 4.393282905220985413e-02 9.231286123394966125e-03 -1.913871988654136658e-02 -9.447406046092510223e-03 3.516487777233123779e-03 -1.684562303125858307e-02 2.489385567605495453e-02 -2.389145828783512115e-02 -1.446997839957475662e-02 -1.952964928932487965e-03 1.343373768031597137e-02 -3.461624309420585632e-02 -2.205868810415267944e-02 -1.030685100704431534e-02 -3.584546269848942757e-03 1.837157085537910461e-02 1.619719341397285461e-02 -1.108063943684101105e-02 3.189749643206596375e-02 -6.371736992150545120e-03 -3.596711158752441406e-02 -1.033408287912607193e-02 9.944867342710494995e-03 7.709810510277748108e-03 1.586909522302448750e-03 -3.878278890624642372e-03 -1.255019847303628922e-02 -2.866532281041145325e-02 1.070661470293998718e-02 1.240067370235919952e-02 -1.959797693416476250e-03 -7.995057851076126099e-03 -3.291325271129608154e-02 1.956090144813060760e-02 -1.911295950412750244e-02 1.032613450661301613e-03 1.346675306558609009e-02 -6.304061971604824066e-03 8.568724617362022400e-03 -1.576861739158630371e-02 1.674435287714004517e-02 1.754763536155223846e-02 1.014316827058792114e-02 5.474421777762472630e-04 1.221487391740083694e-02 -8.150906302034854889e-03 -1.611349731683731079e-02 -7.316485047340393066e-03 1.307364180684089661e-02 1.212162431329488754e-02 3.930371999740600586e-02 -1.948979683220386505e-03 -3.624577447772026062e-02 -4.289420321583747864e-02 4.768059775233268738e-02 -2.881584130227565765e-02 3.540397854521870613e-03 -7.921548560261726379e-03 -1.141255442053079605e-02 -1.941164955496788025e-02 2.168486267328262329e-02 6.237008608877658844e-03 1.840509101748466492e-02 2.272363007068634033e-02 3.130665048956871033e-02 -2.253666892647743225e-02 4.686085972934961319e-03 6.243917625397443771e-03 1.909207925200462341e-02 9.067421779036521912e-03 5.333519075065851212e-03 -1.669228635728359222e-02 1.651525311172008514e-02 -7.142217364162206650e-03 -1.584067381918430328e-02 -1.107263751327991486e-02 -8.686242625117301941e-03 -2.717656269669532776e-02 2.130147442221641541e-02 2.400713227689266205e-02 -5.758673883974552155e-03 3.204710083082318306e-03 3.287250548601150513e-02 -6.636996287852525711e-03 -1.862253248691558838e-02 -4.591493925545364618e-04 -4.102272167801856995e-02 3.187933564186096191e-02 2.558297477662563324e-03 -3.198514692485332489e-03 -1.633093506097793579e-02 -2.741276100277900696e-02 5.749593023210763931e-03 8.974938653409481049e-03 -4.491029772907495499e-03 -2.143809944391250610e-02 2.581562101840972900e-02 3.476644307374954224e-02 2.274953760206699371e-03 -4.337726626545190811e-03 2.261299453675746918e-02 -8.491608314216136932e-03 -1.052820496261119843e-02 -4.458578303456306458e-03 1.757830940186977386e-02 -2.201075851917266846e-02 4.507631063461303711e-03 1.576750725507736206e-02 3.066095896065235138e-02 1.451212819665670395e-02
4.245070368051528931e-02 2.391347289085388184e-02 4.663795232772827148e-02 5.438267719000577927e-03 -8.480519987642765045e-03 4.098078608512878418e-02 4.134787619113922119e-02 -3.081485256552696228e-02 -8.502596057951450348e-03 -2.390034310519695282e-02 4.349425435066223145e-02 -5.487604066729545593e-03 4.928525909781455994e-02 -1.324407872743904591e-03 3.587064798921346664e-03 3.234896808862686157e-02 -2.104267477989196777e-02 4.836727678775787354e-02 3.482815623283386230e-02 3.151509538292884827e-02 2.119216509163379669e-02 -9.216578677296638489e-03 1.743448665365576744e-03 -4.670265316963195801e-02 5.515922978520393372e-02 9.721913374960422516e-04 -1.965792104601860046e-02 9.244525805115699768e-03 8.094706572592258453e-03 7.795029669068753719e-04 1.532814640086144209e-04 5.029549077153205872e-02 6.610840093344449997e-03 -1.101369969546794891e-02 2.576911263167858124e-02 2.450160868465900421e-02 -1.124466396868228912e-02 5.849513690918684006e-04 5.510234739631414413e-03 -2.581815794110298157e-02 1.093326136469841003e-02 4.624745622277259827e-02 2.388864941895008087e-02 -1.472413307055830956e-03 1.710421033203601837e-02 -3.523948043584823608e-02 -1.484872587025165558e-02 -6.427203188650310040e-04 3.577547892928123474e-02 -8.932268619537353516e-02 -4.152706637978553772e-02 -3.959547355771064758e-02 2.601221390068531036e-02 -3.802036494016647339e-02 -2.592999674379825592e-02 9.994973428547382355e-03 -1.457616314291954041e-02 6.586353993043303490e-04 -1.973801106214523315e-02 1.415977813303470612e-02 -6.238326895982027054e-03 -1.905766502022743225e-02 -2.410935238003730774e-02 3.187839174643158913e-03 -2.203274983912706375e-03 -3.980174660682678223e-02 2.925478480756282806e-02 2.222698926925659180e-02 2.412551455199718475e-02 -1.918553374707698822e-03 3.198875114321708679e-02 -2.216652408242225647e-02 1.737878285348415375e-02 -1.074424758553504944e-02 -1.033726986497640610e-02 -4.161238670349121094e-03 -2.295588701963424683e-02 1.429391372948884964e-02 1.777511090040206909e-02 -3.669093549251556396e-02 3.492526337504386902e-02 4.354019463062286377e-02 -1.330589991994202137e-03 -1.628602668642997742e-02 -8.256101980805397034e-03 2.445200458168983459e-02 -3.990298137068748474e-02 1.091651059687137604e-02 9.808317758142948151e-03 3.822353482246398926e-02 -2.214306732639670372e-03 -6.086949724704027176e-03 -2.225682139396667480e-02 5.580198019742965698e-03 -2.859956584870815277e-02 2.968345582485198975e-02 1.376549340784549713e-02 -1.559816394001245499e-02 5.977808032184839249e-03 1.298260688781738281e-02 -2.333295531570911407e-02 -3.633034974336624146e-02 1.536773983389139175e-02 2.378015965223312378e-02 -5.542515218257904053e-02 1.560615003108978271e-02 -1.847285218536853790e-02 1.950317993760108948e-02 -1.962919346988201141e-02 -3.073928644880652428e-03 -2.030808106064796448e-02 -2.264171838760375977e-02 -3.007651306688785553e-02 -9.440870024263858795e-03 -1.672389544546604156e-02 3.863625973463058472e-02 -1.803193613886833191e-02 1.593414880335330963e-02 -3.426333144307136536e-02 -4.838066920638084412e-02 7.992966100573539734e-03 9.757466614246368408e-03 7.746739313006401062e-03 -3.603871166706085205e-02 2.074487321078777313e-02 -1.446730829775333405e-02 2.431882172822952271e-02 -2.849786076694726944e-03
1.668954454362392426e-02 -2.728645689785480499e-02 1.575358211994171143e-02 -9.932866320013999939e-03 1.829104870557785034e-02 4.184053093194961548e-02 1.861731149256229401e-02 -2.849819511175155640e-02 -1.071912236511707306e-02 2.566392719745635986e-02 -3.490806091576814651e-03 9.893026202917098999e-03 5.686606094241142273e-02 4.965036362409591675e-02 -9.171059355139732361e-03 -3.069587424397468567e-02 -1.792053692042827606e-02 -9.077431634068489075e-03 1.525805052369832993e-02 8.597123436629772186e-03 -2.579354122281074524e-02 3.501456975936889648e-02 3.263407154008746147e-03 2.277997508645057678e-02 2.395122870802879333e-02 -1.728535257279872894e-02 2.014796063303947449e-02 7.458551786839962006e-03 7.245726138353347778e-02 -1.876245811581611633e-02 -3.926225751638412476e-02 1.431993395090103149e-02 -1.247879490256309509e-02 6.860829889774322510e-02 1.790922321379184723e-02 1.698230393230915070e-02 -1.617977581918239594e-02 -5.935751646757125854e-02 -1.759382337331771851e-02 -2.476804889738559723e-02 3.035216778516769409e-02 6.269259005784988403e-02 -2.272807061672210693e-02 8.547809906303882599e-03 2.297436818480491638e-02 -1.106459740549325943e-02 7.820234633982181549e-03 -1.275762333534657955e-03 -1.179115194827318192e-02 -2.851703949272632599e-02 2.980555873364210129e-03 6.633081473410129547e-03 2.088882215321063995e-02 -5.607835482805967331e-03 4.839920625090599060e-02 -3.544738516211509705e-02 -4.968096036463975906e-03 -1.458896510303020477e-02 -6.546901538968086243e-03 3.123072907328605652e-03 -1.895670220255851746e-02 -3.697538003325462341e-02 5.507106892764568329e-03 3.544768691062927246e-02 3.235014528036117554e-02 4.408377688378095627e-03 8.537488058209419250e-03 -1.944511570036411285e-02 -1.371447369456291199e-02 -4.311728116590529680e-04 2.405957505106925964e-02 -3.552772104740142822e-02 -7.549192290753126144e-03 -2.419894561171531677e-02 -1.758029684424400330e-03 -2.386937662959098816e-02 8.130524307489395142e-03 -5.090234335511922836e-03 2.725552208721637726e-02 -9.203526424244046211e-04 -4.995927680283784866e-03 -3.258256614208221436e-02 3.196575120091438293e-02 2.626732178032398224e-02 -2.193998731672763824e-02 2.100610872730612755e-03 -2.717961184680461884e-02 2.615465782582759857e-02 2.723202109336853027e-02 -1.684075593948364258e-02 2.654025331139564514e-02 -1.817880198359489441e-02 4.305099695920944214e-02 2.992599457502365112e-02 -6.627147644758224487e-02 -1.321423798799514771e-02 -9.721673093736171722e-03 -3.485624119639396667e-02 4.390987381339073181e-02 5.321493837982416153e-03 1.646663621068000793e-02 -1.628204062581062317e-02 -2.574222348630428314e-02 -9.199483320116996765e-03 1.068599987775087357e-02 1.829338871175423265e-04 -1.433840580284595490e-02 -3.957993909716606140e-02 2.211582101881504059e-02 4.067092761397361755e-02 -3.038647212088108063e-02 -1.346075208857655525e-03 -1.044482272118330002e-02 -2.954866178333759308e-02 -2.088943496346473694e-02 -1.414629444479942322e-02 1.388024166226387024e-02 -4.311164468526840210e-02 1.523602567613124847e-02 7.226190529763698578e-03 -4.539675544947385788e-03 2.107186615467071533e-02 -2.780568040907382965e-02 3.907515108585357666e-02 -2.341605722904205322e-02 -9.401952847838401794e-03 -1.286459434777498245e-02 1.953854411840438843e-02
3.406180441379547119e-02 3.668666630983352661e-02 -1.876834407448768616e-02 4.856023564934730530e-02 2.818865468725562096e-03 2.287012524902820587e-02 -2.073815651237964630e-02 1.760590262711048126e-02 -3.102187439799308777e-02 -1.312919333577156067e-02 2.908774418756365776e-03 -1.501119509339332581e-02 1.677184132859110832e-03 5.439531523734331131e-03 -1.031924132257699966e-02 4.297718033194541931e-02 -5.647159181535243988e-03 1.595489867031574249e-02 3.143404610455036163e-03 -6.485339999198913574e-02 -1.296737231314182281e-02 -7.013837993144989014e-02 -3.241004049777984619e-02 4.993728920817375183e-02 -9.220033884048461914e-03 -1.298246718943119049e-02 1.167747005820274353e-02 4.041217733174562454e-03 -2.525461651384830475e-02 -3.852365165948867798e-02 2.498163096606731415e-02 -3.651516139507293701e-02 -3.209385648369789124e-02 -3.050239011645317078e-02 5.498377233743667603e-02 -1.461214199662208557e-02 -2.523117139935493469e-02 2.693364396691322327e-02 1.264584902673959732e-02 3.787792846560478210e-02 -2.428971417248249054e-02 1.478503271937370300e-02 -1.508969254791736603e-02 -2.040519937872886658e-02 5.723816342651844025e-03 1.914490759372711182e-02 2.492876723408699036e-03 -1.918607577681541443e-02 -2.140747755765914917e-02 -1.201067958027124405e-02 -1.252413960173726082e-03 8.216814137995243073e-03 2.788722887635231018e-02 3.671737760305404663e-02 -2.865704707801342010e-03 -2.554554725065827370e-03 4.596682637929916382e-02 -2.277962863445281982e-02 -9.561531245708465576e-03 -3.657268732786178589e-02 -1.743951439857482910e-02 -7.119711022824048996e-03 -7.057335227727890015e-03 4.776543006300926208e-02 -2.354812342673540115e-03 5.330149084329605103e-02 -3.091415576636791229e-02 -5.927966907620429993e-02 2.879669889807701111e-03 2.110118605196475983e-02 4.596341773867607117e-02 -7.667824625968933105e-03 -2.333419583737850189e-02 1.185701414942741394e-02 -5.915437638759613037e-02 3.081289120018482208e-02 3.023870289325714111e-02 -1.252595428377389908e-02 -1.766518503427505493e-02 2.912761457264423370e-02 -4.475472029298543930e-03 2.690245956182479858e-02 -1.544351503252983093e-02 -9.801521897315979004e-03 -8.366351015865802765e-03 1.925122807733714581e-03 -1.778293587267398834e-02 -5.664349347352981567e-02 -1.347255706787109375e-02 1.885918341577053070e-02 -7.229205220937728882e-02 9.340172633528709412e-03 -1.420963276177644730e-02 -3.634550049901008606e-02 1.257490552961826324e-02 -2.450841665267944336e-02 2.184382639825344086e-02 -2.896630205214023590e-02 -3.022566996514797211e-02 -4.716331139206886292e-02 5.470484495162963867e-03 -2.425893023610115051e-02 2.903203479945659637e-02 -2.579621970653533936e-02 -3.858064860105514526e-02 -4.397459328174591064e-02 5.798924341797828674e-02 4.926849156618118286e-02 -2.504717931151390076e-02 2.021957002580165863e-02 -2.743142843246459961e-02 -9.197281673550605774e-03 3.979520872235298157e-02 2.716541057452559471e-03 -4.008054733276367188e-02 -2.180138602852821350e-02 -2.498253993690013885e-02 -7.826574728824198246e-04 3.944493457674980164e-02 -2.636262914165854454e-03 -4.002617672085762024e-03 2.396643348038196564e-02 1.396363973617553711e-02 -5.338575318455696106e-02 -1.070065051317214966e-02 5.270046740770339966e-02 -2.675749128684401512e-03 3.381658717989921570e-02
-2.818400226533412933e-02 2.721745893359184265e-02 4.749431833624839783e-02 -7.925420650281012058e-04 2.736191824078559875e-02 -1.900204643607139587e-02 -2.413414604961872101e-02 -2.287773229181766510e-02 -1.022165641188621521e-02 2.213370241224765778e-02 4.842023178935050964e-02 -2.437836304306983948e-02 2.276036655530333519e-03 7.452277932316064835e-03 -1.637715287506580353e-02 -1.229310175403952599e-03 3.567439317703247070e-02 -1.185162272304296494e-02 1.953940652310848236e-02 2.772377803921699524e-03 1.191377453505992889e-02 1.031353697180747986e-02 4.659767262637615204e-03 -7.777653518132865429e-04 3.928091842681169510e-03 -1.348683983087539673e-02 -1.822225190699100494e-02 3.775872755795717239e-03 -1.785536878742277622e-03 -2.413016930222511292e-02 -1.974168699234724045e-03 -2.273432677611708641e-03 2.962820930406451225e-03 -6.785981240682303905e-04 -2.231701649725437164e-02 -1.482228003442287445e-02 -1.368735544383525848e-02 -3.951979056000709534e-02 -2.960294252261519432e-03 -4.795349016785621643e-02 -1.876119710505008698e-02 -1.783211133442819118e-03 1.223127823323011398e-02 -1.324392296373844147e-02 1.056091487407684326e-02 -4.573228582739830017e-02 -9.253369644284248352e-03 -1.259395480155944824e-02 2.096964605152606964e-02 3.549964167177677155e-03 -3.147321939468383789e-02 1.150560099631547928e-03 -1.647789776325225830e-02 -2.813362050801515579e-03 1.258403528481721878e-02 -7.476151455193758011e-03 1.154204271733760834e-02 -1.233029831200838089e-02 -3.892757231369614601e-03 3.759500011801719666e-02 9.366709738969802856e-03 -6.047276780009269714e-02 2.477475069463253021e-02 -5.731246434152126312e-03 -2.781619783490896225e-03 3.550499305129051208e-02 8.021524176001548767e-03 1.469093468040227890e-02 1.382796745747327805e-02 7.994019426405429840e-03 -1.739315339364111423e-04 1.540412008762359619e-02 1.971493102610111237e-02 1.635723747313022614e-02 3.439173474907875061e-02 3.499577986076474190e-03 -9.671198204159736633e-03 -4.833210259675979614e-02 -9.551815688610076904e-03 3.659794479608535767e-02 1.028803410008549690e-03 2.172377891838550568e-02 5.562453344464302063e-02 -7.087678648531436920e-03 -3.498014435172080994e-02 -3.542768070474267006e-03 7.960090413689613342e-03 -1.586216874420642853e-02 1.612357608973979950e-02 -2.767476439476013184e-02 4.234584979712963104e-03 2.840288542211055756e-02 1.117377541959285736e-02 -2.481438778340816498e-02 -1.498758979141712189e-02 -5.641684983856976032e-04 -8.775290101766586304e-03 5.922917649149894714e-02 3.000250272452831268e-02 1.783928717486560345e-03 -1.114166434854269028e-02 -4.372217506170272827e-02 3.786865156143903732e-03 1.800024695694446564e-02 -3.023072704672813416e-02 -3.412476554512977600e-02 -7.222190499305725098e-02 -1.776148006319999695e-02 1.465412601828575134e-02 4.123853892087936401e-02 -9.203252848237752914e-04 -4.313294775784015656e-03 -1.089152041822671890e-02 -1.466333400458097458e-02 1.301782391965389252e-02 -4.853346571326255798e-02 -3.952717408537864685e-02 -1.691283099353313446e-02 -1.454041572287678719e-03 -9.267126442864537239e-04 2.049221284687519073e-02 -7.691185455769300461e-03 4.298051819205284119e-02 2.046527806669473648e-03 1.249498804099857807e-03 2.650546655058860779e-02 6.980166584253311157e-02 8.885417133569717407e-03
