-3.971980139613151550e-02 1.102936174720525742e-02 -1.825911365449428558e-02 9.958528913557529449e-03 3.793009370565414429e-02 -3.235880751162767410e-03 1.183144515380263329e-03 1.617403887212276459e-02 -1.998433843255043030e-02 5.386620294302701950e-03 3.990320116281509399e-02 -1.802223920822143555e-02 6.616723723709583282e-03 1.529856864362955093e-02 -2.673357911407947540e-02 5.665713921189308167e-03 -3.395734354853630066e-02 1.245225500315427780e-02 -1.017254870384931564e-02 3.267320618033409119e-02 1.433151587843894958e-02 -1.333572249859571457e-02 -8.001539856195449829e-03 -5.975713487714529037e-03 4.224313423037528992e-02 -7.927932310849428177e-04 -2.932473458349704742e-02 1.601395756006240845e-02 1.905193738639354706e-02 1.216469984501600266e-02 -2.525279484689235687e-02 -1.181842642836272717e-03 2.659324323758482933e-03 3.225029632449150085e-02 1.256339717656373978e-02 -2.949913218617439270e-02 -3.008330613374710083e-02 1.041670795530080795e-02 1.231872010976076126e-02 -1.163254957646131516e-02 5.823142081499099731e-02 -3.030040673911571503e-02 8.924221619963645935e-03 8.725364692509174347e-03 -4.512981325387954712e-02 -1.651144772768020630e-02 1.395161263644695282e-02 4.499900620430707932e-03 -1.836032234132289886e-02 2.828058041632175446e-02 -6.704383529722690582e-03 1.662434265017509460e-02 1.448870263993740082e-02 1.181142032146453857e-02 7.217513862997293472e-03 1.343546807765960693e-02 -5.041026044636964798e-03 2.742858976125717163e-02 1.933676935732364655e-02 -5.941836908459663391e-02 1.426846347749233246e-02 5.556254647672176361e-03 2.053528651595115662e-02 -1.425389479845762253e-02 7.289629429578781128e-03 -2.880553901195526123e-02 3.784568747505545616e-03 -3.529977053403854370e-03 -1.151484251022338867e-02 -1.716822758316993713e-02 -5.236061755567789078e-03 5.676461849361658096e-03 -7.880628691054880619e-04 1.076864358037710190e-02 2.710809931159019470e-02 -3.281451761722564697e-02 5.308566614985466003e-03 5.326884984970092773e-02 -4.247853904962539673e-02 -4.872592631727457047e-03 -1.328201685100793839e-02 -2.244398742914199829e-02 3.071014955639839172e-02 6.873852689750492573e-04 2.301502786576747894e-02 5.758219398558139801e-03 6.228239741176366806e-03 4.935678443871438503e-04 -2.346831746399402618e-02 -7.893917150795459747e-03 2.025279030203819275e-02 5.765202920883893967e-03 -1.495750970207154751e-03 2.746284939348697662e-02 1.297433767467737198e-02 5.082688294351100922e-03 1.268453430384397507e-02 -2.831366611644625664e-03 1.355466805398464203e-02 1.483231037855148315e-02 8.639022707939147949e-03 -2.605990320444107056e-02 -1.180783566087484360e-02 2.091979049146175385e-02 -9.600788354873657227e-03 -5.605353508144617081e-04 -3.020328655838966370e-02 -3.247847035527229309e-02 -7.231549825519323349e-03 -1.137411780655384064e-02 3.355780616402626038e-02 9.765340015292167664e-03 2.410704083740711212e-02 -3.156728297472000122e-02 9.239355102181434631e-03 -1.930329948663711548e-03 3.361288458108901978e-03 1.226154807955026627e-02 4.744912963360548019e-03 -1.127317547798156738e-02 -9.462413378059864044e-03 -1.901627704501152039e-02 4.215794429183006287e-02 2.263364940881729126e-02 2.914902009069919586e-02 -1.034284825436770916e-03 -9.664637967944145203e-03 2.181071601808071136e-02
-8.895272389054298401e-03 -4.588089650496840477e-04 1.561340503394603729e-02 -3.451302647590637207e-02 -3.382133692502975464e-02 4.048383794724941254e-03 1.555638201534748077e-02 -1.860692910850048065e-02 6.159887462854385376e-02 1.529297791421413422e-02 -1.940833777189254761e-02 2.305936813354492188e-02 1.898069167509675026e-03 -1.410464104264974594e-02 3.484920598566532135e-03 7.504792883992195129e-03 9.000553749501705170e-03 -7.089511957019567490e-03 2.605845220386981964e-03 -6.010765209794044495e-03 -1.533384714275598526e-02 9.974027983844280243e-03 2.295108139514923096e-02 -1.407652813941240311e-02 -9.416064247488975525e-03 -8.303825743496417999e-03 2.889863401651382446e-02 1.633799076080322266e-02 -2.600294724106788635e-02 1.357536646537482738e-03 3.796041244640946388e-03 7.642444223165512085e-03 -9.905368089675903320e-03 -3.238673787564039230e-03 -1.498588174581527710e-02 4.263326525688171387e-02 2.093647234141826630e-02 1.206164341419935226e-02 -9.099368937313556671e-03 3.583049029111862183e-02 1.125195529311895370e-02 -4.195142537355422974e-02 -1.541196368634700775e-02 6.884336937218904495e-03 2.606914611533284187e-03 -2.342065609991550446e-02 -1.645573973655700684e-02 -1.047795871272683144e-03 -2.513748034834861755e-02 -3.002391662448644638e-03 3.639151155948638916e-02 -1.591679826378822327e-02 -4.459599778056144714e-02 4.048057273030281067e-02 -1.107197254896163940e-02 1.847171410918235779e-02 -9.049344807863235474e-03 3.472263738512992859e-02 -2.658450976014137268e-02 -3.795628901571035385e-03 9.020487777888774872e-03 -1.045109331607818604e-02 -1.890319399535655975e-02 -2.845399547368288040e-03 3.292787075042724609e-02 -2.517463080585002899e-02 -1.317292079329490662e-02 1.004420779645442963e-02 -5.382000282406806946e-02 -2.228990569710731506e-02 -5.269205430522561073e-04 -1.479144115000963211e-02 -1.698121987283229828e-02 2.663587406277656555e-02 3.867609053850173950e-02 1.573668420314788818e-02 2.990804985165596008e-02 -1.329965051263570786e-02 1.575957052409648895e-02 -8.731196634471416473e-03 2.798565896227955818e-03 -3.520563989877700806e-02 -4.530746117234230042e-02 -1.421275828033685684e-02 4.353964328765869141e-02 3.562405332922935486e-02 -1.821706420741975307e-03 2.102573774755001068e-02 -6.448192149400711060e-02 4.005571454763412476e-02 1.428485475480556488e-02 -8.662123233079910278e-03 5.380983930081129074e-03 -1.697424799203872681e-02 -2.150421589612960815e-02 -2.438299730420112610e-02 -2.578752115368843079e-02 2.283479645848274231e-02 -1.469402387738227844e-02 2.460896782577037811e-02 4.067919030785560608e-02 -1.781584136188030243e-02 1.814828719943761826e-03 -9.187154355458915234e-04 7.211777567863464355e-02 8.984915912151336670e-03 2.604579180479049683e-02 -8.396480232477188110e-03 1.837932132184505463e-02 -1.244096830487251282e-02 3.645806387066841125e-02 1.987729221582412720e-02 4.679064452648162842e-02 -1.036611106246709824e-02 6.521151866763830185e-03 -1.334435213357210159e-02 4.946514219045639038e-02 1.521203108131885529e-02 -3.025381639599800110e-02 1.483314577490091324e-02 2.652615681290626526e-02 -5.998719017952680588e-03 -2.867499180138111115e-02 1.055889390408992767e-02 2.666577324271202087e-02 2.307745255529880524e-02 -2.173807658255100250e-02 -3.895378613378852606e-04
-3.172853961586952209e-03 -3.459272440522909164e-03 1.732495380565524101e-03 -1.750935427844524384e-02 -6.990891881287097931e-03 1.450133044272661209e-02 -4.446771461516618729e-03 -1.534860394895076752e-02 -4.838436096906661987e-02 8.958151564002037048e-03 1.310712564736604691e-02 -7.882056757807731628e-03 -4.584631882607936859e-03 5.886821076273918152e-02 1.665177568793296814e-02 -2.512215450406074524e-02 8.809298276901245117e-03 -2.221433212980628014e-03 -1.672357902862131596e-03 -2.548436261713504791e-02 2.996429102495312691e-03 -2.774635562673211098e-03 -4.402993712574243546e-03 6.632057484239339828e-04 -9.160150773823261261e-03 3.041385859251022339e-02 2.104162611067295074e-02 -4.760364815592765808e-02 -2.931660413742065430e-02 -2.385548129677772522e-02 -6.134878844022750854e-03 1.412053219974040985e-02 -1.353680249303579330e-02 6.163360085338354111e-03 3.163803741335868835e-02 2.108477987349033356e-02 1.800702884793281555e-02 1.633989252150058746e-02 -6.343679130077362061e-02 -1.849726401269435883e-02 3.799741715192794800e-02 -8.684469386935234070e-03 9.758868254721164703e-03 1.300866436213254929e-02 -2.002588845789432526e-02 9.804790839552879333e-03 -2.475898712873458862e-02 -2.860410138964653015e-02 2.188633009791374207e-02 2.118993783369660378e-03 -2.654001116752624512e-02 -1.330061815679073334e-02 1.380364038050174713e-02 1.904178969562053680e-02 -2.515980228781700134e-02 4.128065891563892365e-03 1.752302050590515137e-02 -4.045326262712478638e-02 -2.675520256161689758e-02 -8.586649782955646515e-03 -2.766401134431362152e-02 1.219889614731073380e-02 3.393628075718879700e-02 3.684522956609725952e-02 1.065353583544492722e-02 1.196784898638725281e-02 -4.608999937772750854e-03 1.238997559994459152e-02 1.249888166785240173e-02 5.344459787011146545e-03 -7.826174609363079071e-03 3.488173708319664001e-02 3.224360942840576172e-02 7.525211665779352188e-03 -1.004675868898630142e-02 1.448689581593498588e-04 -2.131212316453456879e-02 4.564456269145011902e-02 1.598528027534484863e-02 5.314256530255079269e-03 -1.803161762654781342e-02 1.750222593545913696e-02 7.254711817950010300e-03 -5.079693347215652466e-02 -1.081880927085876465e-02 3.935006912797689438e-03 4.005192965269088745e-02 2.056009322404861450e-02 1.070446614176034927e-02 -5.755880381911993027e-03 3.602163167670369148e-03 -2.177441120147705078e-02 2.793744672089815140e-03 1.462599821388721466e-02 -1.206677686423063278e-02 3.644192591309547424e-02 -1.846399158239364624e-02 3.996300976723432541e-03 -9.118708781898021698e-03 -6.703252438455820084e-03 1.904256269335746765e-02 -2.707291394472122192e-02 -2.274460345506668091e-02 4.157138057053089142e-03 -1.847769692540168762e-02 7.432336919009685516e-03 5.773629993200302124e-03 3.000297956168651581e-02 -4.007670097053050995e-03 -5.707544740289449692e-03 3.108397824689745903e-03 -9.075061418116092682e-03 -5.241121724247932434e-02 4.045764356851577759e-02 -7.718852721154689789e-03 3.240795060992240906e-02 -5.019363481551408768e-03 6.064791604876518250e-02 1.770997047424316406e-02 5.916354805231094360e-02 -3.500051330775022507e-03 -4.516206216067075729e-03 7.748870179057121277e-03 -1.659450586885213852e-03 4.958080593496561050e-03 1.710601150989532471e-02 9.509343653917312622e-03 -1.284727547317743301e-02
1.102386228740215302e-02 4.636456724256277084e-03 3.362126275897026062e-02 -4.636834841221570969e-03 2.795604523271322250e-03 -7.853135466575622559e-03 2.880548685789108276e-02 5.924883764237165451e-03 -3.048021346330642700e-02 1.253901328891515732e-02 1.618139259517192841e-02 -2.206425368785858154e-02 1.577351358719170094e-03 1.396499108523130417e-02 -1.714790426194667816e-02 -2.982035093009471893e-02 2.252307347953319550e-02 3.004842996597290039e-02 3.974829614162445068e-02 9.626103565096855164e-03 -1.912469789385795593e-02 -2.939628669992089272e-03 7.151341997087001801e-03 -1.371582318097352982e-02 3.021892532706260681e-02 -2.062504179775714874e-02 -4.881494212895631790e-03 -1.007384620606899261e-02 8.625391870737075806e-03 -2.687401697039604187e-02 -2.214858867228031158e-02 -8.889771066606044769e-03 -1.127129793167114258e-02 1.712930202484130859e-02 1.483119651675224304e-02 -6.581559311598539352e-03 3.155240416526794434e-02 -7.311195600777864456e-03 -3.532307595014572144e-02 -1.262437272816896439e-02 6.717949174344539642e-03 7.384469732642173767e-03 3.161336993798613548e-03 2.774643944576382637e-04 -1.047596894204616547e-02 -1.545558311045169830e-02 1.298832707107067108e-02 4.915848840028047562e-03 -2.186942612752318382e-03 -1.239602360874414444e-02 -1.876562274992465973e-02 1.285911072045564651e-02 -1.790330745279788971e-02 1.530291605740785599e-02 1.164383720606565475e-02 -6.664796266704797745e-03 1.393380388617515564e-02 -1.140955369919538498e-02 1.830558665096759796e-02 1.693530939519405365e-02 4.403516650199890137e-03 -1.192410243675112724e-03 1.405089069157838821e-02 4.389297217130661011e-03 -1.824927888810634613e-02 -5.534590687602758408e-03 1.516688242554664612e-02 8.214466273784637451e-03 3.715139627456665039e-02 -8.783100638538599014e-04 -2.722288295626640320e-02 -4.612031951546669006e-02 3.780484944581985474e-02 -2.164767682552337646e-02 9.049977175891399384e-03 -5.812372080981731415e-03 -4.040840547531843185e-03 -1.675433479249477386e-02 2.092705108225345612e-02 4.318599589169025421e-03 7.591436617076396942e-03 2.158725634217262268e-02 2.407337538897991180e-02 -1.805045641958713531e-02 6.162751931697130203e-03 4.784231539815664291e-03 1.406520605087280273e-02 8.564991876482963562e-03 2.646712353453040123e-03 -1.722803153097629547e-02 1.972492411732673645e-02 2.431582688586786389e-04 -1.466758362948894501e-02 -9.445831179618835449e-03 -9.730998426675796509e-03 -2.704692073166370392e-02 1.399602089077234268e-02 2.304256893694400787e-02 4.826354270335286856e-04 7.693938445299863815e-03 2.251036837697029114e-02 -1.642570714466273785e-03 -1.308466587215662003e-02 1.786375185474753380e-03 -3.799648210406303406e-02 3.330625221133232117e-02 -4.989369306713342667e-03 -3.286649705842137337e-03 -1.307302340865135193e-02 -2.472625486552715302e-02 6.030980031937360764e-03 5.735295359045267105e-03 -5.640925839543342590e-03 -1.761921867728233337e-02 7.473488338291645050e-03 3.532296791672706604e-02 -6.011380464769899845e-04 -9.704426862299442291e-03 2.455976419150829315e-02 -1.393936015665531158e-02 -1.502533629536628723e-02 -9.475066326558589935e-03 1.866286434233188629e-02 -2.386328764259815216e-02 2.070428803563117981e-03 1.752891018986701965e-02 2.480148896574974060e-02 6.604975555092096329e-03
3.849973902106285095e-02 2.751854434609413147e-02 5.208891257643699646e-02 1.187391020357608795e-02 -9.232716984115540981e-04 3.337924554944038391e-02 1.936152763664722443e-02 -2.353665791451931000e-02 -6.411232985556125641e-03 -2.156027033925056458e-02 3.636073693633079529e-02 3.434696467593312263e-03 4.496343806385993958e-02 -1.081142947077751160e-02 -4.516369663178920746e-03 1.811252348124980927e-02 -2.087178267538547516e-02 3.730691969394683838e-02 2.456170320510864258e-02 2.355751208961009979e-02 1.573984138667583466e-02 -1.338209956884384155e-02 1.832095324061810970e-03 -3.317684307694435120e-02 5.495514348149299622e-02 3.450215095654129982e-03 -1.190870814025402069e-02 1.063124369829893112e-02 5.901528522372245789e-03 -4.558868706226348877e-03 -2.480129944160580635e-03 3.719945996999740601e-02 1.214264266309328377e-04 -2.414692426100373268e-03 2.056064642965793610e-02 1.190918032079935074e-02 -1.713519543409347534e-02 -9.992835111916065216e-03 2.351392060518264771e-03 -1.604973711073398590e-02 1.584999635815620422e-02 4.969180002808570862e-02 1.913357339799404144e-02 2.655112184584140778e-03 1.215483155101537704e-02 -3.507305681705474854e-02 -1.782794296741485596e-02 -1.693013007752597332e-03 2.855558134615421295e-02 -7.401181012392044067e-02 -4.548709094524383545e-02 -3.425533324480056763e-02 2.833445370197296143e-02 -3.199486434459686279e-02 -1.762243546545505524e-02 1.954360678791999817e-02 -1.012766826897859573e-02 2.020844491198658943e-03 -1.103362441062927246e-02 9.794658049941062927e-03 -5.101561080664396286e-03 -2.404287829995155334e-02 -2.417011372745037079e-02 5.391023121774196625e-03 1.936550135724246502e-03 -3.328316658735275269e-02 1.011687237769365311e-02 1.990367285907268524e-02 1.508175488561391830e-02 7.193468627519905567e-04 2.953017875552177429e-02 -2.486203052103519440e-02 1.892848685383796692e-02 1.377731212414801121e-03 -1.018322352319955826e-02 -3.101174253970384598e-03 -1.253444235771894455e-02 1.647048071026802063e-02 2.813276462256908417e-02 -3.223754093050956726e-02 2.931123413145542145e-02 4.217781499028205872e-02 -7.599606644362211227e-03 -5.955721717327833176e-03 1.729994080960750580e-03 1.996694318950176239e-02 -3.420219197869300842e-02 6.827672477811574936e-03 3.149759955704212189e-03 2.816679701209068298e-02 -1.837569754570722580e-03 -1.501888968050479889e-02 -9.141403250396251678e-03 1.455292012542486191e-02 -3.742489218711853027e-02 1.645428314805030823e-02 1.332943327724933624e-02 -1.163620222359895706e-02 1.200891286134719849e-02 1.964956149458885193e-02 -1.437718793749809265e-02 -3.022401966154575348e-02 2.594616077840328217e-02 1.719371043145656586e-02 -4.428345337510108948e-02 2.320086956024169922e-02 -2.453605271875858307e-02 1.210446376353502274e-02 -2.789600938558578491e-02 -1.014931593090295792e-03 -3.241014108061790466e-02 -1.621490530669689178e-02 -1.942553184926509857e-02 -1.005952525883913040e-02 -1.104349922388792038e-02 3.477972373366355896e-02 -8.568904362618923187e-03 9.909714572131633759e-03 -2.200467884540557861e-02 -3.578009456396102905e-02 1.706233061850070953e-02 1.593268825672566891e-03 2.241242211312055588e-03 -2.659966051578521729e-02 1.435620523989200592e-02 -1.713533140718936920e-02 1.533085294067859650e-02 2.456392627209424973e-03
1.848462969064712524e-02 -1.203517150133848190e-02 4.278128966689109802e-03 -9.428174234926700592e-03 2.698009274899959564e-02 2.933521568775177002e-02 7.390070240944623947e-03 -2.760954387485980988e-02 -1.812561764381825924e-03 3.726476430892944336e-02 -6.511906161904335022e-03 2.851146273314952850e-03 4.411803185939788818e-02 4.224495217204093933e-02 -2.711954060941934586e-03 -1.658949442207813263e-02 -9.303762577474117279e-03 -3.038302762433886528e-03 5.920587573200464249e-03 4.294233862310647964e-03 -6.205253768712282181e-03 3.420083224773406982e-02 8.819852024316787720e-03 1.755566522479057312e-02 1.020338665693998337e-02 -2.539049461483955383e-02 1.201375573873519897e-02 5.768412258476018906e-03 5.271076411008834839e-02 -3.218308836221694946e-02 -2.062205411493778229e-02 -7.246396271511912346e-04 -1.656036823987960815e-02 5.393063277006149292e-02 2.616010420024394989e-02 1.764714717864990234e-02 -8.793959394097328186e-03 -4.043909162282943726e-02 5.523904692381620407e-03 -2.619063854217529297e-02 2.135479450225830078e-02 3.812452778220176697e-02 -1.423731632530689240e-02 1.279424410313367844e-02 2.593579515814781189e-02 -1.420351117849349976e-02 1.634503528475761414e-02 -3.504208987578749657e-03 -1.562933251261711121e-02 -2.150773443281650543e-02 4.390602465718984604e-03 5.136859603226184845e-03 1.951617561280727386e-02 -1.097540184855461121e-02 4.700350388884544373e-02 -3.076033666729927063e-02 -1.811583712697029114e-02 -2.278427593410015106e-02 -1.053346972912549973e-02 -1.002394966781139374e-02 -1.570304296910762787e-02 -3.101387061178684235e-02 1.789933652617037296e-03 1.493361406028270721e-02 2.175631001591682434e-02 -3.620066214352846146e-03 -4.139688797295093536e-03 -2.105489559471607208e-02 -9.624761529266834259e-03 5.142002832144498825e-03 2.112845145165920258e-02 -2.906285040080547333e-02 5.347773432731628418e-03 -1.521382294595241547e-02 2.787102945148944855e-03 -2.720826305449008942e-02 2.527302689850330353e-02 3.362075076438486576e-04 8.992277085781097412e-03 -1.646028365939855576e-03 -1.721661165356636047e-02 -1.154303923249244690e-02 4.000975564122200012e-02 1.355199702084064484e-02 -2.527449466288089752e-02 -2.835813676938414574e-03 -1.614362187683582306e-02 1.828096993267536163e-02 2.179788798093795776e-02 -1.979445479810237885e-02 1.534400507807731628e-02 -1.721177063882350922e-02 2.815781161189079285e-02 2.147354558110237122e-02 -3.473029285669326782e-02 -1.358378585427999496e-02 -6.866606883704662323e-03 -2.655456773936748505e-02 1.106710638850927353e-02 -8.367651142179965973e-03 1.891722716391086578e-02 -1.885092817246913910e-02 -1.971050351858139038e-02 2.489289967343211174e-03 6.583056878298521042e-03 -1.034729648381471634e-02 -6.797514390200376511e-03 -1.625966094434261322e-02 2.662233635783195496e-02 2.682326920330524445e-02 -2.012568525969982147e-02 -3.482307656668126583e-04 3.791574272327125072e-04 -2.541139721870422363e-02 -1.295584812760353088e-02 -1.890682242810726166e-02 1.594971492886543274e-02 -3.081101924180984497e-02 1.279415749013423920e-02 -4.048887174576520920e-03 6.271613761782646179e-03 2.884445525705814362e-02 -9.127371013164520264e-03 3.070646896958351135e-02 -9.782334789633750916e-03 2.292535267770290375e-03 -1.846816390752792358e-02 2.555802278220653534e-02
2.748526632785797119e-02 2.854407578706741333e-02 -1.570430956780910492e-02 4.020201787352561951e-02 1.951380283571779728e-03 1.980138942599296570e-02 -1.112131122499704361e-02 1.874840073287487030e-02 -2.835530228912830353e-02 -1.247131824493408203e-02 9.812674485146999359e-03 -2.159200981259346008e-02 6.260395515710115433e-03 7.019994314759969711e-03 -1.195314340293407440e-02 3.747447952628135681e-02 -9.814679622650146484e-03 2.486092783510684967e-02 9.461391717195510864e-03 -5.379028618335723877e-02 -1.218489557504653931e-02 -6.828048080205917358e-02 -3.107817843556404114e-02 4.097511991858482361e-02 -9.339922107756137848e-03 -1.472075004130601883e-02 1.565943844616413116e-02 8.575900457799434662e-03 -1.755912788212299347e-02 -3.222053498029708862e-02 2.137143537402153015e-02 -2.596133574843406677e-02 -3.016199544072151184e-02 -2.267737314105033875e-02 4.441355913877487183e-02 -5.643544252961874008e-03 -3.429470956325531006e-02 2.160500548779964447e-02 9.002843871712684631e-03 3.339215740561485291e-02 -1.831628009676933289e-02 1.079198811203241348e-02 -1.200577523559331894e-02 -1.933897845447063446e-02 -8.173755486495792866e-04 1.435586530715227127e-02 -1.988719450309872627e-03 -1.592337526381015778e-02 -1.750360429286956787e-02 -1.965242065489292145e-02 -7.218775339424610138e-03 6.879125721752643585e-04 2.436617389321327209e-02 3.447403758764266968e-02 -6.576281506568193436e-03 -1.099268323741853237e-03 3.629975020885467529e-02 -1.800852082669734955e-02 -7.057740818709135056e-03 -2.991537749767303467e-02 -1.991851069033145905e-02 -1.502624992281198502e-02 -2.405602019280195236e-03 4.640878364443778992e-02 5.418815184384584427e-03 4.470510035753250122e-02 -1.882061362266540527e-02 -5.307989194989204407e-02 -3.958285320550203323e-03 1.508101355284452438e-02 4.068027064204216003e-02 -7.422411348670721054e-03 -1.917180232703685760e-02 7.883173413574695587e-03 -5.430221185088157654e-02 3.027937561273574829e-02 2.130412124097347260e-02 -1.008947659283876419e-02 -1.924045756459236145e-02 2.146151103079319000e-02 -1.596728223375976086e-03 1.597248017787933350e-02 -1.008726749569177628e-02 -1.360214501619338989e-02 -3.685286268591880798e-03 5.418209824711084366e-03 -1.811401173472404480e-02 -4.612948745489120483e-02 -7.263291627168655396e-03 1.247601304203271866e-02 -5.993992462754249573e-02 1.404979266226291656e-02 -1.097746007144451141e-02 -2.937576174736022949e-02 4.576520528644323349e-03 -1.935836113989353180e-02 1.247297972440719604e-02 -2.432488836348056793e-02 -2.310382016003131866e-02 -3.981823101639747620e-02 -1.633478095754981041e-03 -2.268826216459274292e-02 2.014214359223842621e-02 -1.724979095160961151e-02 -3.483017906546592712e-02 -3.824676945805549622e-02 4.541053622961044312e-02 3.698785230517387390e-02 -2.090634033083915710e-02 1.890263147652149200e-02 -1.829736493527889252e-02 -9.330807253718376160e-03 3.371123224496841431e-02 5.218407604843378067e-03 -4.409946873784065247e-02 -1.985621079802513123e-02 -2.461563050746917725e-02 4.166429862380027771e-03 3.324441984295845032e-02 5.346532561816275120e-04 -5.527630914002656937e-03 2.060643024742603302e-02 8.494690060615539551e-03 -4.670036584138870239e-02 -3.778835991397500038e-03 4.430350288748741150e-02 2.318565733730792999e-03 3.071194700896739960e-02
-2.883321791887283325e-02 2.025554329156875610e-02 4.033641889691352844e-02 2.600851235911250114e-03 1.582563482224941254e-02 -1.662383042275905609e-02 -1.638638041913509369e-02 -1.834782958030700684e-02 -1.045377552509307861e-02 1.607556268572807312e-02 4.193319380283355713e-02 -1.911080442368984222e-02 5.843137856572866440e-03 1.116391271352767944e-02 -1.388921309262514114e-02 -2.605199813842773438e-03 3.096733242273330688e-02 -1.551092974841594696e-02 2.384512685239315033e-02 1.436928752809762955e-03 7.502280641347169876e-04 9.508248418569564819e-03 6.836775690317153931e-03 -2.533414633944630623e-03 1.617065072059631348e-02 -8.009994402527809143e-03 -1.837421394884586334e-02 3.813299816101789474e-03 7.103843148797750473e-03 -2.126728370785713196e-02 -6.151541136205196381e-03 -4.333173856139183044e-04 5.392651073634624481e-03 6.775483954697847366e-03 -1.846324466168880463e-02 -9.670861996710300446e-03 -6.889813113957643509e-03 -2.943608351051807404e-02 -4.345701541751623154e-03 -4.061275720596313477e-02 -1.384928636252880096e-02 1.254829857498407364e-02 4.538993816822767258e-03 -1.007255166769027710e-02 1.221069041639566422e-02 -4.517072439193725586e-02 -1.126827672123908997e-02 -1.232408266514539719e-02 2.059872820973396301e-02 5.305152735672891140e-04 -2.987788431346416473e-02 6.414262577891349792e-03 -1.512407138943672180e-02 -3.836553310975432396e-03 1.510708313435316086e-02 -7.139917463064193726e-03 1.690753363072872162e-02 -1.452989410609006882e-02 -4.615507554262876511e-03 2.849596180021762848e-02 7.229710929095745087e-03 -4.684560373425483704e-02 1.805683411657810211e-02 -4.981898237019777298e-03 5.987374112010002136e-03 3.653810173273086548e-02 7.375335320830345154e-03 4.350875969976186752e-03 1.260494813323020935e-02 7.612118031829595566e-03 -4.435305600054562092e-04 1.101350970566272736e-02 1.469157449901103973e-02 8.731797337532043457e-03 2.685899659991264343e-02 2.690516179427504539e-03 -1.598699949681758881e-02 -4.630489647388458252e-02 -8.462101221084594727e-03 2.413264475762844086e-02 -2.358735946472734213e-04 1.468048989772796631e-02 4.596231505274772644e-02 -9.024770930409431458e-03 -2.806320972740650177e-02 2.031551674008369446e-03 4.779244191013276577e-04 -1.444160006940364838e-02 1.525382231920957565e-02 -1.840938627719879150e-02 7.286130450665950775e-03 1.938533224165439606e-02 5.539390724152326584e-03 -1.666936464607715607e-02 -2.791554108262062073e-02 1.855244860053062439e-03 -3.019286319613456726e-03 4.546707123517990112e-02 3.288100659847259521e-02 4.243794828653335571e-03 -6.043434608727693558e-03 -4.146960377693176270e-02 7.275981828570365906e-03 1.315169315785169601e-02 -3.166943043470382690e-02 -2.690553292632102966e-02 -5.974562466144561768e-02 -1.536289602518081665e-02 1.184856705367565155e-02 3.917657211422920227e-02 -4.498726688325405121e-03 -7.757127285003662109e-03 -1.522436644881963730e-02 -1.624421216547489166e-02 1.157307717949151993e-02 -3.984416648745536804e-02 -3.827169165015220642e-02 -9.013974107801914215e-03 -3.677685512229800224e-03 4.490694031119346619e-03 1.748198829591274261e-02 -1.055334042757749557e-02 3.834275156259536743e-02 5.727222654968500137e-03 -6.700976518914103508e-04 2.532589063048362732e-02 6.118644401431083679e-02 7.268291898071765900e-03
