-3.317078948020935059e-02 1.406269799917936325e-02 -2.024191990494728088e-02 9.679515846073627472e-03 3.309484198689460754e-02 2.585347043350338936e-03 3.983139526098966599e-03 1.629300229251384735e-02 -2.356268838047981262e-02 2.678787801414728165e-03 4.338623210787773132e-02 -1.874608173966407776e-02 7.669722195714712143e-03 2.203118987381458282e-02 -3.104600869119167328e-02 7.794008590281009674e-03 -3.049439005553722382e-02 7.438680622726678848e-03 -1.038211118429899216e-02 2.960487082600593567e-02 1.569384336471557617e-02 -1.020190492272377014e-02 -1.504988688975572586e-02 -9.701877715997397900e-04 4.065589979290962219e-02 -3.746579634025692940e-03 -3.129342943429946899e-02 1.289379224181175232e-02 2.095049433410167694e-02 1.173080597072839737e-02 -2.675052545964717865e-02 3.384718904271721840e-03 3.752355230972170830e-03 2.759268134832382202e-02 1.693809963762760162e-02 -3.214978799223899841e-02 -3.031551651656627655e-02 8.944681845605373383e-03 7.799502927809953690e-03 -9.306857362389564514e-03 5.210604146122932434e-02 -2.909045107662677765e-02 5.781082902103662491e-03 4.369921516627073288e-03 -4.092144966125488281e-02 -1.421091146767139435e-02 1.734903268516063690e-02 -3.348402970004826784e-04 -1.871368475258350372e-02 2.804398909211158752e-02 -3.325741272419691086e-03 1.578603684902191162e-02 1.701227389276027679e-02 8.551608771085739136e-03 1.225352380424737930e-02 1.025074627250432968e-02 6.308024749159812927e-04 2.397748455405235291e-02 1.747149042785167694e-02 -5.818080529570579529e-02 1.233511418104171753e-02 4.903006833046674728e-03 1.486740261316299438e-02 -6.365697365254163742e-03 3.975454717874526978e-03 -2.417686581611633301e-02 6.014780141413211823e-03 -6.697915028780698776e-03 -5.570340435951948166e-03 -1.571433246135711670e-02 1.910681952722370625e-03 8.971642702817916870e-03 -1.213483861647546291e-03 1.024274062365293503e-02 2.206357941031455994e-02 -2.907786145806312561e-02 1.635326421819627285e-03 4.847156628966331482e-02 -3.743821382522583008e-02 -4.866863600909709930e-03 -4.548580385744571686e-03 -1.774515211582183838e-02 2.874193340539932251e-02 3.892278997227549553e-03 2.104887180030345917e-02 8.530244231224060059e-03 2.055130898952484131e-03 6.342749111354351044e-04 -2.104292251169681549e-02 -2.303746528923511505e-03 2.029338106513023376e-02 8.646240457892417908e-03 -5.043517332524061203e-03 1.591668091714382172e-02 1.484707649797201157e-02 5.824951920658349991e-03 1.744073256850242615e-02 -6.369195412844419479e-03 1.234624441713094711e-02 8.208926767110824585e-03 5.871365778148174286e-03 -2.965205907821655273e-02 -6.603274960070848465e-03 1.294918078929185867e-02 -1.121300272643566132e-02 -1.390582066960632801e-03 -2.775626257061958313e-02 -2.981231734156608582e-02 -6.892308592796325684e-03 -4.999741911888122559e-03 3.220958262681961060e-02 7.126321550458669662e-03 2.256460301578044891e-02 -3.328358754515647888e-02 1.114535704255104065e-02 -3.906181547790765762e-03 -1.355075219180434942e-04 5.875211209058761597e-03 9.750168770551681519e-03 -1.133883837610483170e-02 -1.135468948632478714e-02 -1.696023717522621155e-02 4.688665270805358887e-02 1.636260002851486206e-02 2.728905342519283295e-02 -1.210340997204184532e-03 -6.013090722262859344e-03 1.782931014895439148e-02
-7.745617069303989410e-03 -3.557970514521002769e-03 9.933518245816230774e-03 -2.880656532943248749e-02 -4.127039387822151184e-02 4.743597470223903656e-03 1.807551272213459015e-02 -1.569462753832340240e-02 5.304099246859550476e-02 5.390728823840618134e-03 -2.078098803758621216e-02 2.306939102709293365e-02 -3.891549073159694672e-03 -1.097274664789438248e-02 6.436907220631837845e-03 2.511193044483661652e-03 9.342385455965995789e-03 -1.282615866512060165e-02 -5.524813663214445114e-03 -1.045064907521009445e-02 -1.121195405721664429e-02 1.489330548793077469e-02 2.313765510916709900e-02 -8.040841668844223022e-03 -8.720298297703266144e-03 -6.087419576942920685e-03 2.838074043393135071e-02 9.446995332837104797e-03 -2.632723562419414520e-02 7.831058464944362640e-03 1.108319964259862900e-02 9.775953367352485657e-03 -6.993670482188463211e-03 2.569401171058416367e-03 -9.534333832561969757e-03 3.401578217744827271e-02 2.006155624985694885e-02 9.646902792155742645e-03 -1.672649569809436798e-02 2.969979867339134216e-02 9.575489908456802368e-03 -3.943436965346336365e-02 -2.239049598574638367e-02 7.307543884962797165e-03 9.259346406906843185e-04 -1.959390379488468170e-02 -1.513439975678920746e-02 -2.282942878082394600e-03 -3.248529508709907532e-02 -3.665477968752384186e-03 4.145497828722000122e-02 -1.037747692316770554e-02 -4.430431872606277466e-02 4.073024168610572815e-02 -1.135616656392812729e-02 1.890050061047077179e-02 -2.095809672027826309e-03 2.904278039932250977e-02 -2.155287563800811768e-02 -4.030415788292884827e-03 1.129404734820127487e-02 -5.104643758386373520e-03 -2.446426637470722198e-02 2.389268251135945320e-03 2.601386047899723053e-02 -1.646482199430465698e-02 -1.891408488154411316e-02 4.693084396421909332e-03 -5.193054676055908203e-02 -1.619715802371501923e-02 1.682213041931390762e-03 -1.835950277745723724e-02 -1.155571453273296356e-02 3.329936042428016663e-02 3.538566455245018005e-02 1.103657949715852737e-02 3.653373941779136658e-02 -2.330508828163146973e-02 2.488351240754127502e-02 6.222855299711227417e-04 5.743452347815036774e-03 -2.972485125064849854e-02 -4.218789935111999512e-02 -1.074175536632537842e-02 3.846178948879241943e-02 3.643530979752540588e-02 -5.636830348521471024e-03 2.447123639285564423e-02 -6.679955869913101196e-02 4.397516325116157532e-02 1.158726681023836136e-02 -1.426912471652030945e-02 6.783618126064538956e-03 -1.715643890202045441e-02 -2.218629233539104462e-02 -2.374817058444023132e-02 -2.340664714574813843e-02 2.386599779129028320e-02 -8.989401161670684814e-03 1.779258809983730316e-02 4.285412654280662537e-02 -1.814267225563526154e-02 9.692911989986896515e-03 -8.450346998870372772e-03 7.086890935897827148e-02 4.080245271325111389e-03 3.011391684412956238e-02 -4.269480705261230469e-03 1.825952529907226562e-02 -5.172975827008485794e-03 2.785510942339897156e-02 2.260015346109867096e-02 4.727519303560256958e-02 -1.479878090322017670e-02 4.470134153962135315e-03 -1.254360191524028778e-02 4.638127237558364868e-02 1.760360784828662872e-02 -2.470217458903789520e-02 1.608422212302684784e-02 2.618966624140739441e-02 -8.677626959979534149e-03 -2.839015424251556396e-02 1.025720406323671341e-02 1.343502569943666458e-02 3.024364076554775238e-02 -2.653992921113967896e-02 -3.679159795865416527e-03
-6.103099789470434189e-03 5.506759975105524063e-03 6.230725906789302826e-03 -2.142808958888053894e-02 -8.133125375024974346e-04 1.001385413110256195e-02 -6.493462715297937393e-03 -1.540705654770135880e-02 -4.909579455852508545e-02 1.417827885597944260e-02 9.385173209011554718e-03 -4.742954857647418976e-03 -9.242412052117288113e-04 5.543586239218711853e-02 1.622220501303672791e-02 -1.903454028069972992e-02 8.684302680194377899e-03 -1.970503479242324829e-03 1.640703994780778885e-03 -2.600607462227344513e-02 5.292023415677249432e-04 -5.778284743428230286e-03 -5.932990927249193192e-03 6.753907655365765095e-04 -9.335633367300033569e-03 3.077265806496143341e-02 1.846021972596645355e-02 -4.391155019402503967e-02 -2.980248443782329559e-02 -2.788147702813148499e-02 -1.071166340261697769e-02 7.975179702043533325e-03 -7.664229255169630051e-03 -2.172235632315278053e-03 2.880605310201644897e-02 2.522744238376617432e-02 2.563318982720375061e-02 1.302767638117074966e-02 -5.869707465171813965e-02 -1.119015086442232132e-02 3.445350006222724915e-02 -6.075316108763217926e-03 1.356975734233856201e-02 1.153011061251163483e-02 -1.463738922029733658e-02 9.248421527445316315e-03 -2.552575245499610901e-02 -3.120327927172183990e-02 2.512076869606971741e-02 7.540709804743528366e-03 -2.090532146394252777e-02 -7.874907925724983215e-03 1.449709292501211166e-02 1.800049468874931335e-02 -2.283579111099243164e-02 4.630242940038442612e-03 1.839981228113174438e-02 -3.582327067852020264e-02 -3.074862249195575714e-02 -1.095361914485692978e-02 -2.838336862623691559e-02 1.144745294004678726e-02 3.308332711458206177e-02 3.245276957750320435e-02 1.747810095548629761e-02 1.121122948825359344e-02 -2.751702675595879555e-03 1.705978065729141235e-02 7.034083362668752670e-03 1.745910994941368699e-04 -5.794506520032882690e-03 3.379441052675247192e-02 2.941343188285827637e-02 2.238451037555932999e-03 -3.808857407420873642e-03 5.203392356634140015e-03 -2.827644534409046173e-02 4.605723917484283447e-02 1.117163896560668945e-02 1.756180427037179470e-03 -2.047175168991088867e-02 1.316527090966701508e-02 8.030475117266178131e-03 -4.583167657256126404e-02 -1.188999228179454803e-02 4.943299107253551483e-03 4.034813120961189270e-02 1.402115821838378906e-02 1.228809729218482971e-02 -1.423055306077003479e-02 -2.559160580858588219e-03 -1.117951516062021255e-02 5.502379965037107468e-03 1.633948460221290588e-02 -6.301148328930139542e-03 3.012580052018165588e-02 -1.615387946367263794e-02 8.034755475819110870e-03 -1.716710627079010010e-02 -5.933812819421291351e-03 2.210785076022148132e-02 -3.304015100002288818e-02 -2.484452724456787109e-02 1.272432506084442139e-03 -1.878607273101806641e-02 6.877336651086807251e-03 8.148489519953727722e-03 2.803109399974346161e-02 1.226903696078807116e-04 -5.210461560636758804e-03 8.427768945693969727e-03 -9.335344657301902771e-03 -4.823860526084899902e-02 3.724955767393112183e-02 -1.340111345052719116e-02 3.311005607247352600e-02 -3.978144377470016479e-03 5.665851011872291565e-02 1.572790741920471191e-02 5.448749288916587830e-02 -1.554684247821569443e-03 -3.208159934729337692e-03 6.557838059961795807e-03 2.902702428400516510e-03 1.018243748694658279e-02 1.436822768300771713e-02 1.139337383210659027e-02 -1.400031894445419312e-02
1.331423595547676086e-02 7.427541539072990417e-03 2.938165515661239624e-02 -4.167385865002870560e-03 4.120422527194023132e-03 -9.107154794037342072e-03 2.674748376011848450e-02 7.749342825263738632e-03 -3.228731453418731689e-02 9.887030348181724548e-03 1.555974502116441727e-02 -2.496180683374404907e-02 2.494841348379850388e-03 1.488036382943391800e-02 -1.699227094650268555e-02 -2.903083153069019318e-02 2.058807574212551117e-02 3.177103027701377869e-02 3.959384933114051819e-02 9.890175424516201019e-03 -1.834694109857082367e-02 -1.840282115153968334e-03 4.065621644258499146e-03 -1.450140774250030518e-02 2.716678194701671600e-02 -2.090448886156082153e-02 -4.640457220375537872e-03 -1.100494712591171265e-02 8.554091677069664001e-03 -2.641622908413410187e-02 -2.101723104715347290e-02 -1.311052218079566956e-02 -1.457148790359497070e-02 1.651071570813655853e-02 1.438004523515701294e-02 -4.095622338354587555e-03 3.376509994268417358e-02 -5.994341801851987839e-03 -3.395470604300498962e-02 -1.336998958140611649e-02 2.172978129237890244e-03 3.909631632268428802e-03 1.270996290259063244e-03 -4.895285819657146931e-04 -9.491968899965286255e-03 -1.240142527967691422e-02 1.226611249148845673e-02 4.986595362424850464e-03 -1.469072070904076099e-03 -1.052793953567743301e-02 -1.854347251355648041e-02 1.503406837582588196e-02 -1.764625683426856995e-02 1.689925976097583771e-02 9.352335706353187561e-03 -5.491918884217739105e-03 1.466041989624500275e-02 -1.409320253878831863e-02 2.060378529131412506e-02 1.749562844634056091e-02 4.351673182100057602e-03 -9.796200320124626160e-04 1.331034861505031586e-02 8.571755141019821167e-03 -2.159162983298301697e-02 -7.344813551753759384e-03 1.593872159719467163e-02 6.543338298797607422e-03 3.879956156015396118e-02 -3.447958151809871197e-04 -3.011336736381053925e-02 -4.788082838058471680e-02 4.016490653157234192e-02 -2.073932997882366180e-02 1.211740542203187943e-02 -6.589550524950027466e-03 -3.289154032245278358e-03 -1.453534699976444244e-02 2.011011168360710144e-02 7.935217581689357758e-03 1.483751460909843445e-03 2.436395362019538879e-02 2.587044611573219299e-02 -1.395272370427846909e-02 5.218313075602054596e-03 1.696974155493080616e-03 1.538806408643722534e-02 7.420992013067007065e-03 3.406226402148604393e-03 -2.101372368633747101e-02 1.719727367162704468e-02 1.696222578175365925e-03 -1.388870179653167725e-02 -9.422142989933490753e-03 -3.174251876771450043e-03 -3.067419491708278656e-02 1.583808660507202148e-02 2.380486577749252319e-02 4.933396703563630581e-04 6.323528476059436798e-03 2.285422198474407196e-02 -2.305311150848865509e-03 -1.321072224527597427e-02 2.333960030227899551e-03 -3.528407961130142212e-02 3.349905461072921753e-02 -5.623161327093839645e-03 -4.750998225063085556e-03 -7.113917265087366104e-03 -2.724396251142024994e-02 1.091048866510391235e-02 4.638487007468938828e-03 -3.078118665143847466e-03 -1.618215627968311310e-02 4.046708811074495316e-03 3.400593623518943787e-02 -1.685015507973730564e-03 -9.976473636925220490e-03 2.758366242051124573e-02 -1.808599568903446198e-02 -1.262936834245920181e-02 -9.989804588258266449e-03 2.008176967501640320e-02 -2.630847133696079254e-02 7.459745276719331741e-03 1.718918234109878540e-02 2.341035008430480957e-02 2.230823971331119537e-03
4.001422226428985596e-02 3.029254823923110962e-02 5.127660930156707764e-02 1.277300436049699783e-02 1.101859030313789845e-03 3.289260342717170715e-02 1.244242396205663681e-02 -1.773406751453876495e-02 -6.431349087506532669e-03 -2.402397431433200836e-02 3.255674988031387329e-02 1.894990797154605389e-03 4.675313457846641541e-02 -1.082445029169321060e-02 -3.666833974421024323e-03 2.119189128279685974e-02 -2.108866348862648010e-02 3.359415009617805481e-02 2.368404716253280640e-02 2.215360850095748901e-02 1.958805695176124573e-02 -1.679268106818199158e-02 1.550735672935843468e-03 -3.124552778899669647e-02 5.644976720213890076e-02 -6.804009317420423031e-04 -1.187533605843782425e-02 9.473618119955062866e-03 6.880180444568395615e-03 -4.720169585198163986e-03 1.901629497297108173e-03 3.493302315473556519e-02 -7.084848359227180481e-03 -5.283412523567676544e-03 2.363180927932262421e-02 1.094008143991231918e-02 -2.013836987316608429e-02 -6.966432556509971619e-03 1.608494669198989868e-03 -1.449352689087390900e-02 1.375599578022956848e-02 4.661225527524948120e-02 2.076811529695987701e-02 1.689387019723653793e-03 1.552683580666780472e-02 -2.953608520328998566e-02 -1.803415268659591675e-02 -3.086497075855731964e-03 2.945816330611705780e-02 -7.129219919443130493e-02 -4.791228845715522766e-02 -3.299061954021453857e-02 3.089040704071521759e-02 -3.126994147896766663e-02 -1.928424462676048279e-02 1.817334257066249847e-02 -1.084281690418720245e-02 -6.223752861842513084e-04 -9.057717397809028625e-03 6.937049329280853271e-03 -3.946304786950349808e-03 -2.434281259775161743e-02 -2.716306596994400024e-02 8.286179043352603912e-03 -2.855855040252208710e-03 -3.223723173141479492e-02 6.612495519220829010e-03 1.602748967707157135e-02 1.380495447665452957e-02 7.257961202412843704e-03 3.227102383971214294e-02 -2.552844956517219543e-02 2.169382572174072266e-02 3.587799612432718277e-03 -1.048089563846588135e-02 -4.949403926730155945e-03 -9.805383160710334778e-03 1.930049248039722443e-02 2.846961095929145813e-02 -2.994345873594284058e-02 2.947193384170532227e-02 4.590255394577980042e-02 -4.983576945960521698e-03 -6.639151368290185928e-03 3.838176839053630829e-03 1.788802258670330048e-02 -3.475740179419517517e-02 8.462063968181610107e-03 3.215480828657746315e-03 2.036368846893310547e-02 -3.393220482394099236e-03 -1.261119917035102844e-02 -5.634591449052095413e-03 1.275316439568996429e-02 -3.361047431826591492e-02 1.305711921304464340e-02 1.238157786428928375e-02 -1.233614236116409302e-02 1.038358360528945923e-02 1.638824865221977234e-02 -1.737684756517410278e-02 -3.090219758450984955e-02 2.482987754046916962e-02 1.745761558413505554e-02 -4.244711995124816895e-02 1.904176175594329834e-02 -2.260216325521469116e-02 1.380649954080581665e-02 -3.006069175899028778e-02 -1.010583830066025257e-03 -3.358486294746398926e-02 -1.787468045949935913e-02 -1.841193996369838715e-02 -7.452629972249269485e-03 -1.173591986298561096e-02 3.540676832199096680e-02 -9.486994706094264984e-03 1.149872224777936935e-02 -1.913915015757083893e-02 -3.705028444528579712e-02 2.249101176857948303e-02 1.589789288118481636e-03 2.758303890004754066e-03 -2.626512572169303894e-02 1.124229282140731812e-02 -1.669779606163501740e-02 1.067675091326236725e-02 1.971974270418286324e-03
1.504730992019176483e-02 -1.325642876327037811e-02 3.849814878776669502e-03 -4.895587451756000519e-03 3.497081995010375977e-02 2.638507634401321411e-02 6.571791134774684906e-03 -2.549393475055694580e-02 1.120100845582783222e-03 3.651978075504302979e-02 -4.936226643621921539e-03 -7.515809265896677971e-04 4.476157203316688538e-02 4.001284763216972351e-02 1.436016289517283440e-03 -1.468720007687807083e-02 -7.960001006722450256e-03 2.761710900813341141e-03 5.038430914282798767e-03 5.070874467492103577e-03 -1.742253196425735950e-03 2.722646482288837433e-02 4.269088618457317352e-03 1.453904248774051666e-02 9.893433190882205963e-03 -2.790681272745132446e-02 1.383537240326404572e-02 1.045822259038686752e-02 4.871055111289024353e-02 -3.288405016064643860e-02 -2.010946720838546753e-02 3.534805437084287405e-04 -1.941164582967758179e-02 5.259851366281509399e-02 2.678343281149864197e-02 2.383648231625556946e-02 -9.300346486270427704e-03 -3.807350248098373413e-02 8.007084019482135773e-03 -2.058469504117965698e-02 2.110022492706775665e-02 3.559317812323570251e-02 -1.373406592756509781e-02 1.487842947244644165e-02 2.453815937042236328e-02 -1.605358161032199860e-02 1.683900319039821625e-02 -5.338883493095636368e-03 -1.453684177249670029e-02 -2.414377406239509583e-02 -1.148558076238259673e-04 1.813627197407186031e-03 2.218052744865417480e-02 -6.189295556396245956e-03 4.717065021395683289e-02 -2.927303686738014221e-02 -2.512403763830661774e-02 -2.155289798974990845e-02 -1.133041083812713623e-02 -1.169447414577007294e-02 -1.358622964471578598e-02 -2.885386161506175995e-02 4.679271951317787170e-03 6.881548557430505753e-03 1.684864424169063568e-02 -7.420971058309078217e-03 -2.043001819401979446e-03 -2.253289707005023956e-02 -9.180924855172634125e-03 7.541887927800416946e-03 1.958286948502063751e-02 -3.032738529145717621e-02 5.800287704914808273e-03 -1.550062745809555054e-02 4.437933675944805145e-03 -2.712033130228519440e-02 2.562145702540874481e-02 1.644263975322246552e-03 4.771833308041095734e-03 -2.231449121609330177e-03 -2.033481933176517487e-02 -1.040737703442573547e-02 3.601631149649620056e-02 1.005986146628856659e-02 -2.162720076739788055e-02 -4.098081029951572418e-03 -1.555967796593904495e-02 1.738289371132850647e-02 2.427372522652149200e-02 -2.261386811733245850e-02 1.171450875699520111e-02 -1.405119616538286209e-02 2.367608994245529175e-02 1.685572043061256409e-02 -3.107606247067451477e-02 -1.522846985608339310e-02 -6.493128021247684956e-04 -3.128625079989433289e-02 7.821796461939811707e-03 -5.460551939904689789e-03 1.695211604237556458e-02 -1.562061998993158340e-02 -1.932928338646888733e-02 7.096062880009412766e-03 2.934914780780673027e-03 -1.494863443076610565e-02 -5.261768586933612823e-03 -1.294815260916948318e-02 2.217504009604454041e-02 2.416150830686092377e-02 -1.769253797829151154e-02 8.974466472864151001e-04 7.119841757230460644e-04 -2.395101264119148254e-02 -1.033969502896070480e-02 -1.806771196424961090e-02 1.959387585520744324e-02 -3.071483224630355835e-02 1.284751668572425842e-02 -3.180298022925853729e-03 8.058385923504829407e-03 3.317744284868240356e-02 -8.844139985740184784e-03 3.433816507458686829e-02 -7.368679624050855637e-03 -2.778868365567177534e-04 -1.674513705074787140e-02 2.745355665683746338e-02
2.518212981522083282e-02 2.775339037179946899e-02 -9.532666765153408051e-03 3.377249836921691895e-02 4.831781145185232162e-03 2.157321386039257050e-02 -1.117934007197618484e-02 1.343455631285905838e-02 -1.953644677996635437e-02 -2.347926609218120575e-03 1.076157297939062119e-02 -1.956974156200885773e-02 9.609913453459739685e-03 2.604611450806260109e-03 -1.469913218170404434e-02 3.616006672382354736e-02 -1.181911583989858627e-02 2.987292222678661346e-02 1.672256924211978912e-02 -4.694372415542602539e-02 -1.758774183690547943e-02 -6.752024590969085693e-02 -2.500261738896369934e-02 3.397060185670852661e-02 -9.322914294898509979e-03 -1.299759000539779663e-02 1.790996827185153961e-02 1.334845367819070816e-02 -1.588137261569499969e-02 -3.661143407225608826e-02 1.480018999427556992e-02 -2.826350182294845581e-02 -3.218979761004447937e-02 -2.224852889776229858e-02 3.578754141926765442e-02 -7.652742788195610046e-04 -3.518043830990791321e-02 2.343695238232612610e-02 1.475706417113542557e-02 3.299294039607048035e-02 -1.139635406434535980e-02 6.679741665720939636e-03 -4.295890219509601593e-03 -1.798487082123756409e-02 -4.975248128175735474e-03 8.179089054465293884e-03 -4.399106372147798538e-03 -8.463389240205287933e-03 -1.154100056737661362e-02 -2.102377079427242279e-02 -1.377634983509778976e-02 -7.230936549603939056e-03 2.160435169935226440e-02 3.387272357940673828e-02 -9.371920488774776459e-03 -4.242051218170672655e-04 2.760315127670764923e-02 -1.134292874485254288e-02 -1.073481887578964233e-02 -2.780796214938163757e-02 -2.250199951231479645e-02 -2.372815087437629700e-02 6.462444551289081573e-03 4.193775355815887451e-02 1.550860982388257980e-02 3.598094359040260315e-02 -1.289379596710205078e-02 -4.455603659152984619e-02 -7.741321809589862823e-03 7.752254139631986618e-03 3.494452685117721558e-02 -3.114884719252586365e-03 -2.561501972377300262e-02 3.825014922767877579e-03 -5.218007043004035950e-02 3.298409283161163330e-02 1.600946672260761261e-02 1.231448095495579764e-05 -2.635732665657997131e-02 1.470124255865812302e-02 -5.174940917640924454e-03 8.671824820339679718e-03 -1.283555384725332260e-02 -2.165652811527252197e-02 6.402912549674510956e-04 4.721171222627162933e-03 -1.224955078214406967e-02 -4.320959374308586121e-02 -6.421007681638002396e-03 1.273203827440738678e-02 -4.892772436141967773e-02 1.322163641452789307e-02 -1.103731710463762283e-02 -2.329724468290805817e-02 -2.225077245384454727e-03 -1.365308742970228195e-02 1.456846948713064194e-03 -2.220100164413452148e-02 -2.314337715506553650e-02 -3.313830494880676270e-02 -4.301175009459257126e-03 -1.921251043677330017e-02 1.097404025495052338e-02 -5.738466512411832809e-03 -3.101386688649654388e-02 -2.985998615622520447e-02 3.761146217584609985e-02 2.978480421006679535e-02 -1.983922533690929413e-02 1.068315841257572174e-02 -1.284069940447807312e-02 -1.008590497076511383e-02 2.882500179111957550e-02 1.141552161425352097e-02 -4.120614007115364075e-02 -1.956978626549243927e-02 -2.049613371491432190e-02 6.517472676932811737e-03 2.603746764361858368e-02 1.405275892466306686e-03 -8.892122656106948853e-03 1.939024403691291809e-02 5.860068369656801224e-03 -4.768409207463264465e-02 5.921003408730030060e-03 3.929602727293968201e-02 6.485638208687305450e-03 3.496132045984268188e-02
-2.947986871004104614e-02 1.788437552750110626e-02 3.884317725896835327e-02 3.660071641206741333e-03 1.628024876117706299e-02 -1.759142987430095673e-02 -1.842177659273147583e-02 -1.686915755271911621e-02 -5.413927137851715088e-03 1.360179111361503601e-02 4.250078648328781128e-02 -2.179558947682380676e-02 5.103319883346557617e-03 1.274713035672903061e-02 -1.470133848488330841e-02 1.509652240201830864e-03 3.147856146097183228e-02 -1.348801143467426300e-02 2.635729126632213593e-02 -1.613209140487015247e-03 -3.846668871119618416e-03 5.327629856765270233e-03 5.925966426730155945e-03 -2.430351916700601578e-03 1.672535575926303864e-02 -9.246370755136013031e-03 -1.896484009921550751e-02 5.438206717371940613e-03 5.161853972822427750e-03 -1.901338994503021240e-02 -3.622815245762467384e-03 -4.377609002403914928e-04 4.202479962259531021e-03 8.586908690631389618e-03 -1.380385365337133408e-02 -1.006757281720638275e-02 -7.577904965728521347e-03 -2.489212155342102051e-02 -2.548323944211006165e-03 -3.654006496071815491e-02 -1.536270976066589355e-02 1.636160351336002350e-02 1.063482835888862610e-03 -8.144438266754150391e-03 1.827634125947952271e-02 -4.192741215229034424e-02 -1.193779706954956055e-02 -1.642142608761787415e-02 1.903631351888179779e-02 2.365222200751304626e-03 -2.777870744466781616e-02 1.285673119127750397e-02 -1.656275615096092224e-02 -4.542499314993619919e-03 1.735370047390460968e-02 -8.853542618453502655e-03 1.890290156006813049e-02 -1.761134155094623566e-02 -3.039156552404165268e-03 2.657678723335266113e-02 6.698663346469402313e-03 -3.940911591053009033e-02 1.250663492828607559e-02 -4.006745293736457825e-03 5.611621774733066559e-03 4.044125601649284363e-02 1.992590026929974556e-03 -2.713639521971344948e-03 1.625070534646511078e-02 7.492776960134506226e-03 1.801797305233776569e-03 9.303215891122817993e-03 1.620208658277988434e-02 5.579211749136447906e-03 2.438853681087493896e-02 -3.457070561125874519e-03 -1.040733791887760162e-02 -4.632448405027389526e-02 -1.094073150306940079e-02 1.935570128262042999e-02 -1.214530318975448608e-03 1.576817035675048828e-02 4.694896936416625977e-02 -6.874536164104938507e-03 -2.780958451330661774e-02 1.803858671337366104e-03 -2.170837018638849258e-03 -1.966363564133644104e-02 9.678523056209087372e-03 -2.121859788894653320e-02 2.855614526197314262e-03 1.863377913832664490e-02 5.913130939006805420e-03 -1.639821007847785950e-02 -2.887400425970554352e-02 3.797176468651741743e-04 5.590330110862851143e-04 4.309541359543800354e-02 3.233101218938827515e-02 5.106630269438028336e-03 -1.024314900860190392e-03 -4.363781213760375977e-02 6.932838354259729385e-03 1.077669207006692886e-02 -3.409508615732192993e-02 -2.803817391395568848e-02 -5.183672159910202026e-02 -1.347846537828445435e-02 9.356801398098468781e-03 3.970274701714515686e-02 -4.647870082408189774e-03 -9.418019093573093414e-03 -1.364461053162813187e-02 -1.410778425633907318e-02 1.117622479796409607e-02 -4.341975226998329163e-02 -4.139821976423263550e-02 -7.722243200987577438e-03 -2.038216451182961464e-03 5.668431986123323441e-03 2.097682841122150421e-02 -8.483040146529674530e-03 4.069219902157783508e-02 7.726035546511411667e-03 -1.334417960606515408e-03 2.453697100281715393e-02 5.643150582909584045e-02 1.041486114263534546e-02
