-3.992594406008720398e-02 9.823344647884368896e-03 -1.874918676912784576e-02 1.091279927641153336e-02 3.895027935504913330e-02 -1.431848737411201000e-03 1.935197273269295692e-03 1.836292631924152374e-02 -1.916886307299137115e-02 5.050691775977611542e-03 4.265902936458587646e-02 -1.756813004612922668e-02 6.244940217584371567e-03 1.465529575943946838e-02 -2.676351927220821381e-02 4.414169583469629288e-03 -3.449006378650665283e-02 1.052982266992330551e-02 -1.203148812055587769e-02 3.131995722651481628e-02 1.726267114281654358e-02 -1.383881270885467529e-02 -1.168131548911333084e-02 -4.342959728091955185e-03 4.271587729454040527e-02 -1.145830960012972355e-03 -2.923859097063541412e-02 1.713412627577781677e-02 1.615846902132034302e-02 1.169444993138313293e-02 -2.688712999224662781e-02 -1.863196841441094875e-03 1.005553524009883404e-03 2.924874052405357361e-02 1.346800569444894791e-02 -3.031163476407527924e-02 -2.952497825026512146e-02 9.412883780896663666e-03 1.098115276545286179e-02 -8.917387574911117554e-03 5.526126921176910400e-02 -3.154930099844932556e-02 6.962048821151256561e-03 1.046931277960538864e-02 -4.816325381398200989e-02 -1.833496987819671631e-02 1.590971276164054871e-02 3.354809014126658440e-03 -1.898769848048686981e-02 2.872627973556518555e-02 -8.322228677570819855e-03 1.630260050296783447e-02 1.691542007029056549e-02 1.112206652760505676e-02 8.380495011806488037e-03 1.281824149191379547e-02 -5.521094892174005508e-03 2.885270304977893829e-02 2.086819149553775787e-02 -6.184188276529312134e-02 1.372262928634881973e-02 7.187855429947376251e-03 1.924492605030536652e-02 -1.407557632774114609e-02 6.927901413291692734e-03 -2.920105122029781342e-02 3.440893255174160004e-03 -6.370377726852893829e-03 -1.150388363748788834e-02 -1.747488230466842651e-02 -4.356052726507186890e-03 6.825138814747333527e-03 5.717878229916095734e-04 1.160917710512876511e-02 2.668821625411510468e-02 -3.078182600438594818e-02 3.755632322281599045e-03 5.602069571614265442e-02 -3.955297917127609253e-02 -5.019848700612783432e-03 -1.203325949609279633e-02 -2.370502240955829620e-02 3.145895898342132568e-02 1.273619825951755047e-03 2.459816820919513702e-02 8.027918636798858643e-03 7.512854877859354019e-03 5.707707605324685574e-04 -2.157867886126041412e-02 -1.102174073457717896e-02 1.968525536358356476e-02 7.861021906137466431e-03 -5.224057822488248348e-04 2.634675987064838409e-02 1.280838251113891602e-02 2.973284805193543434e-03 1.097122486680746078e-02 -3.172593889757990837e-03 1.300233416259288788e-02 1.287749782204627991e-02 7.858820259571075439e-03 -2.705805562436580658e-02 -1.029987260699272156e-02 1.990504190325737000e-02 -8.967353962361812592e-03 2.268177689984440804e-03 -3.016703203320503235e-02 -3.378277271986007690e-02 -5.116964690387248993e-03 -1.198213826864957809e-02 3.509761020541191101e-02 9.174124337732791901e-03 2.325021289288997650e-02 -3.139731660485267639e-02 1.118985656648874283e-02 -3.324995748698711395e-03 2.816249383613467216e-03 1.270963624119758606e-02 6.449175067245960236e-03 -9.308204986155033112e-03 -8.179239928722381592e-03 -2.050519548356533051e-02 4.317837953567504883e-02 2.169688791036605835e-02 3.149128705263137817e-02 -4.254683386534452438e-03 -9.326292201876640320e-03 2.086467668414115906e-02
-8.171953260898590088e-03 -7.795084966346621513e-04 1.337411906570196152e-02 -3.466840088367462158e-02 -3.711627051234245300e-02 7.561625447124242783e-03 1.788573153316974640e-02 -1.831889152526855469e-02 5.769244581460952759e-02 1.309319213032722473e-02 -1.832951605319976807e-02 2.201005071401596069e-02 1.566984807141125202e-03 -1.098678540438413620e-02 3.284540725871920586e-03 7.791694253683090210e-03 9.485826827585697174e-03 -8.838892914354801178e-03 2.232036786153912544e-03 -4.420952405780553818e-03 -1.439003366976976395e-02 1.313688978552818298e-02 2.205722779035568237e-02 -1.231898088008165359e-02 -7.657541427761316299e-03 -8.439523167908191681e-03 2.886407263576984406e-02 1.392824482172727585e-02 -2.505638822913169861e-02 3.199209459125995636e-03 6.173234432935714722e-03 1.001133024692535400e-02 -6.689684931188821793e-03 -8.885569986887276173e-04 -1.329475548118352890e-02 4.055187851190567017e-02 2.118576504290103912e-02 1.138802152127027512e-02 -1.324089430272579193e-02 3.295702859759330750e-02 1.185286324471235275e-02 -3.867016732692718506e-02 -1.700269989669322968e-02 5.309827625751495361e-03 4.227653145790100098e-03 -2.089186012744903564e-02 -1.597800478339195251e-02 -2.666443819180130959e-03 -2.654133550822734833e-02 -5.133581347763538361e-03 3.602037951350212097e-02 -1.630497351288795471e-02 -4.370089620351791382e-02 4.088252410292625427e-02 -1.078035309910774231e-02 1.827703788876533508e-02 -6.778107956051826477e-03 3.119775466620922089e-02 -2.748832851648330688e-02 -1.385682495310902596e-03 1.028438936918973923e-02 -7.686921861022710800e-03 -2.038882300257682800e-02 -9.398704860359430313e-04 2.962278388440608978e-02 -2.242386341094970703e-02 -1.239029690623283386e-02 8.896552957594394684e-03 -5.004764720797538757e-02 -1.987051963806152344e-02 1.581147895194590092e-03 -1.493926718831062317e-02 -1.767529733479022980e-02 2.642475627362728119e-02 3.732139244675636292e-02 1.501316018402576447e-02 3.200557455420494080e-02 -1.676305569708347321e-02 1.834229938685894012e-02 -4.848403856158256531e-03 2.402066485956311226e-03 -3.306882455945014954e-02 -4.707343876361846924e-02 -1.259797066450119019e-02 4.029342532157897949e-02 3.637604787945747375e-02 -4.460567142814397812e-03 2.392089180648326874e-02 -6.576906889677047729e-02 4.357067868113517761e-02 1.401101052761077881e-02 -1.150540634989738464e-02 3.666928736492991447e-03 -1.767840422689914703e-02 -2.252824045717716217e-02 -2.132271230220794678e-02 -2.392724715173244476e-02 2.027367427945137024e-02 -1.388338953256607056e-02 2.106700465083122253e-02 4.003533348441123962e-02 -2.000003680586814880e-02 3.432117169722914696e-03 -2.812480786815285683e-03 7.056907564401626587e-02 5.509620532393455505e-03 2.830956690013408661e-02 -5.918160080909729004e-03 1.727934181690216064e-02 -9.643672965466976166e-03 3.207128867506980896e-02 1.721391081809997559e-02 4.608475416898727417e-02 -1.258630305528640747e-02 5.332189146429300308e-03 -1.163866836577653885e-02 4.718070849776268005e-02 1.664593257009983063e-02 -2.974393032491207123e-02 1.502400729805231094e-02 2.447178028523921967e-02 -6.165958475321531296e-03 -2.669977769255638123e-02 7.037381175905466080e-03 2.328239567577838898e-02 2.593037486076354980e-02 -2.282273210585117340e-02 -1.054461463354527950e-03
-5.844985134899616241e-03 9.942695032805204391e-04 4.031700547784566879e-03 -1.719455048441886902e-02 -3.709243377670645714e-03 1.149149797856807709e-02 -3.994862549006938934e-03 -1.565388031303882599e-02 -4.681860283017158508e-02 9.969155304133892059e-03 1.188169512897729874e-02 -7.328264880925416946e-03 -2.599606988951563835e-03 5.673505365848541260e-02 1.409760676324367523e-02 -2.333829551935195923e-02 7.688823621720075607e-03 8.548980258638039231e-05 1.690255827270448208e-03 -2.467813529074192047e-02 2.902260981500148773e-03 -4.397717770189046860e-03 -6.500300485640764236e-03 5.508101894520223141e-04 -8.949220180511474609e-03 3.039508126676082611e-02 1.820239983499050140e-02 -4.635332152247428894e-02 -2.824224717915058136e-02 -2.483277767896652222e-02 -9.440882131457328796e-03 1.119866408407688141e-02 -1.265971362590789795e-02 3.134294878691434860e-03 3.092060796916484833e-02 2.369023673236370087e-02 2.043940685689449310e-02 1.489340420812368393e-02 -6.017289310693740845e-02 -1.630658470094203949e-02 3.734348341822624207e-02 -6.363422609865665436e-03 1.200122851878404617e-02 1.253605075180530548e-02 -1.591214910149574280e-02 7.483415305614471436e-03 -2.588295191526412964e-02 -2.943598851561546326e-02 2.094350568950176239e-02 3.372348146513104439e-03 -2.554637193679809570e-02 -1.297805272042751312e-02 1.537273637950420380e-02 1.686671376228332520e-02 -2.580473013222217560e-02 5.290199536830186844e-03 1.856741122901439667e-02 -3.849469125270843506e-02 -2.723100222647190094e-02 -1.075919158756732941e-02 -2.696670591831207275e-02 1.230270881205797195e-02 3.353669866919517517e-02 3.422446548938751221e-02 1.168803032487630844e-02 1.193240005522966385e-02 -2.904430497437715530e-03 1.345118600875139236e-02 8.943011984229087830e-03 5.664910655468702316e-03 -8.463190868496894836e-03 3.535767272114753723e-02 3.151049464941024780e-02 5.639410112053155899e-03 -7.814295589923858643e-03 2.408286323770880699e-03 -2.209164574742317200e-02 4.532580450177192688e-02 1.376548781991004944e-02 3.858913900330662727e-03 -1.660147495567798615e-02 1.595274358987808228e-02 8.079866878688335419e-03 -5.073776468634605408e-02 -1.104924082756042480e-02 3.192354226484894753e-03 4.116797074675559998e-02 1.867089420557022095e-02 1.203174702823162079e-02 -6.474232301115989685e-03 3.128483192995190620e-03 -1.833038404583930969e-02 2.890140516683459282e-03 1.337250508368015289e-02 -1.029221434146165848e-02 3.429630026221275330e-02 -1.675305701792240143e-02 5.023582372814416885e-03 -1.333956699818372726e-02 -5.069629754871129990e-03 2.055798284709453583e-02 -2.981455810368061066e-02 -2.134775929152965546e-02 4.495053552091121674e-03 -2.083374373614788055e-02 5.598974414169788361e-03 6.772547494620084763e-03 2.955535240471363068e-02 -5.145304836332798004e-03 -2.987129148095846176e-03 4.357502795755863190e-03 -8.335985243320465088e-03 -5.091845989227294922e-02 3.921126946806907654e-02 -1.014978531748056412e-02 3.183903172612190247e-02 -3.613821230828762054e-03 6.116813793778419495e-02 1.694723591208457947e-02 5.526171997189521790e-02 -5.780887324362993240e-03 -3.135999897494912148e-03 4.662428516894578934e-03 2.643885090947151184e-03 3.699006512761116028e-03 1.627426594495773315e-02 1.139676384627819061e-02 -1.293406076729297638e-02
1.326803583651781082e-02 6.961029488593339920e-03 3.141728788614273071e-02 -3.009214997291564941e-03 2.739251358434557915e-03 -7.765196263790130615e-03 2.776535972952842712e-02 6.189326755702495575e-03 -3.095754049718379974e-02 1.094133872538805008e-02 1.526181027293205261e-02 -2.272688783705234528e-02 1.574277062900364399e-03 1.519428007304668427e-02 -1.566700078547000885e-02 -2.872768789529800415e-02 2.285655401647090912e-02 3.081692755222320557e-02 4.083452746272087097e-02 7.695132866501808167e-03 -1.960809342563152313e-02 1.113777580030728132e-05 7.914954796433448792e-03 -1.410562172532081604e-02 2.814386412501335144e-02 -2.121668122708797455e-02 -4.449415020644664764e-03 -8.400680497288703918e-03 6.585849449038505554e-03 -2.754534967243671417e-02 -2.169120311737060547e-02 -9.611231274902820587e-03 -1.203366555273532867e-02 1.631057262420654297e-02 1.343084964901208878e-02 -6.116056349128484726e-03 3.314893320202827454e-02 -4.296496510505676270e-03 -3.591958433389663696e-02 -1.158900372684001923e-02 5.810698028653860092e-03 5.694227293133735657e-03 1.425519119948148727e-03 1.053276238963007927e-03 -8.175272494554519653e-03 -1.327941659837961197e-02 1.340424548834562302e-02 5.119246430695056915e-03 -1.934004365466535091e-03 -1.314032450318336487e-02 -2.121741697192192078e-02 1.099011581391096115e-02 -1.647303067147731781e-02 1.591475121676921844e-02 9.101424366235733032e-03 -8.571509271860122681e-03 1.432618778198957443e-02 -1.109612919390201569e-02 1.956302486360073090e-02 1.632892526686191559e-02 2.902086125686764717e-03 -6.530500832013785839e-04 1.516931131482124329e-02 4.211114719510078430e-03 -1.915930025279521942e-02 -6.002748850733041763e-03 1.472909562289714813e-02 9.875270538032054901e-03 3.587450459599494934e-02 -1.159495674073696136e-03 -2.861108817160129547e-02 -4.667013138532638550e-02 3.912895545363426208e-02 -2.367853000760078430e-02 1.181022636592388153e-02 -4.644399508833885193e-03 -5.624915007501840591e-03 -1.762994937598705292e-02 1.850219443440437317e-02 6.688043009489774704e-03 4.721100442111492157e-03 2.315745688974857330e-02 2.367910183966159821e-02 -1.747101731598377228e-02 5.368630401790142059e-03 1.339837210252881050e-03 1.362395286560058594e-02 6.926067173480987549e-03 5.196702666580677032e-03 -1.842669025063514709e-02 1.899103820323944092e-02 1.761652529239654541e-03 -1.402804814279079437e-02 -6.612764205783605576e-03 -9.006773121654987335e-03 -2.745383977890014648e-02 1.705286465585231781e-02 2.493195421993732452e-02 -2.942456048913300037e-04 4.572678357362747192e-03 2.395079843699932098e-02 -7.964479736983776093e-04 -1.559843774884939194e-02 3.313562483526766300e-04 -3.869868442416191101e-02 3.093764558434486389e-02 -5.132893566042184830e-03 -3.159885760396718979e-03 -1.046988833695650101e-02 -2.624180912971496582e-02 8.379908278584480286e-03 8.416620083153247833e-03 -5.533097311854362488e-03 -1.806793920695781708e-02 6.654334720224142075e-03 3.548087924718856812e-02 -1.551404246129095554e-03 -8.722796104848384857e-03 2.603128366172313690e-02 -1.788024976849555969e-02 -1.175708696246147156e-02 -1.117832679301500320e-02 1.847339607775211334e-02 -2.383321151137351990e-02 4.818232730031013489e-03 1.604212075471878052e-02 2.530715428292751312e-02 5.556148011237382889e-03
3.928635641932487488e-02 2.788398787379264832e-02 5.467519909143447876e-02 1.075977552682161331e-02 -1.615816960111260414e-03 3.359213098883628845e-02 1.696733571588993073e-02 -2.227399498224258423e-02 -5.747211631387472153e-03 -2.303980663418769836e-02 3.503836318850517273e-02 2.619490493088960648e-03 4.734598472714424133e-02 -1.036229543387889862e-02 -2.363778185099363327e-03 1.840375922620296478e-02 -2.032763324677944183e-02 3.857610374689102173e-02 2.309671975672245026e-02 2.337962016463279724e-02 1.537925098091363907e-02 -1.435591094195842743e-02 4.007894545793533325e-03 -3.124493733048439026e-02 5.422707274556159973e-02 1.665726304054260254e-03 -1.279041077941656113e-02 9.873208589851856232e-03 5.141864996403455734e-03 -4.298789426684379578e-03 3.062348696403205395e-04 3.612706810235977173e-02 -2.145229140296578407e-03 -3.780722152441740036e-03 2.070277929306030273e-02 1.057525910437107086e-02 -1.665068231523036957e-02 -8.538552559912204742e-03 2.416719216853380203e-03 -1.586097478866577148e-02 1.647928170859813690e-02 4.839619249105453491e-02 2.121656388044357300e-02 2.327577909454703331e-03 1.320799440145492554e-02 -3.397134318947792053e-02 -1.749971322715282440e-02 -2.743595279753208160e-03 2.899461425840854645e-02 -7.363139837980270386e-02 -4.599379003047943115e-02 -3.513832017779350281e-02 2.971761487424373627e-02 -3.124329261481761932e-02 -1.816650666296482086e-02 1.984501630067825317e-02 -8.654269389808177948e-03 2.578988205641508102e-03 -1.020225603133440018e-02 8.465263992547988892e-03 -5.548293236643075943e-03 -2.431139908730983734e-02 -2.461911365389823914e-02 6.617186591029167175e-03 1.065987162292003632e-03 -3.294164314866065979e-02 1.046707108616828918e-02 1.993970386683940887e-02 1.605179533362388611e-02 3.914593253284692764e-03 3.269697725772857666e-02 -2.341279573738574982e-02 1.903692446649074554e-02 4.059398488607257605e-04 -1.105713006108999252e-02 -3.396981162950396538e-03 -1.183081977069377899e-02 1.745328865945339203e-02 2.606457099318504333e-02 -3.075189515948295593e-02 3.000114858150482178e-02 4.110721126198768616e-02 -6.379231810569763184e-03 -6.513739004731178284e-03 3.363766940310597420e-03 1.875192858278751373e-02 -3.495056554675102234e-02 7.367125246673822403e-03 2.699335571378469467e-03 2.552844956517219543e-02 -4.499211907386779785e-03 -1.576797291636466980e-02 -1.084132585674524307e-02 1.510276831686496735e-02 -3.615279495716094971e-02 1.461174804717302322e-02 1.302139554172754288e-02 -1.185142155736684799e-02 1.129703968763351440e-02 1.981184259057044983e-02 -1.660291478037834167e-02 -3.134825080633163452e-02 2.173737436532974243e-02 1.733041927218437195e-02 -4.433689266443252563e-02 2.212288789451122284e-02 -2.334302291274070740e-02 1.186571177095174789e-02 -2.450867369771003723e-02 2.453383931424468756e-04 -3.354028984904289246e-02 -1.617606915533542633e-02 -1.806481927633285522e-02 -9.137621149420738220e-03 -1.203437801450490952e-02 3.540102019906044006e-02 -7.767315488308668137e-03 1.080391183495521545e-02 -2.252823859453201294e-02 -3.678358718752861023e-02 1.909239590167999268e-02 1.274597714655101299e-03 1.650913851335644722e-03 -2.747341059148311615e-02 1.379863731563091278e-02 -1.541754137724637985e-02 1.411810796707868576e-02 1.888971193693578243e-03
1.724649779498577118e-02 -9.964837692677974701e-03 4.332532174885272980e-03 -6.699316669255495071e-03 2.765001729130744934e-02 2.829798869788646698e-02 7.373665925115346909e-03 -2.972738817334175110e-02 -1.288423081859946251e-03 3.350282832980155945e-02 -5.089093931019306183e-03 5.206515081226825714e-03 4.534891620278358459e-02 4.188977181911468506e-02 -1.267755404114723206e-03 -1.810258999466896057e-02 -8.762056007981300354e-03 -1.905477955006062984e-03 7.678250782191753387e-03 2.537736669182777405e-03 -5.608828272670507431e-03 3.081732802093029022e-02 6.888693198561668396e-03 1.726371794939041138e-02 7.941622287034988403e-03 -2.703045122325420380e-02 1.576602458953857422e-02 8.429390378296375275e-03 5.093388631939888000e-02 -3.256149590015411377e-02 -2.037954889237880707e-02 9.414043743163347244e-04 -2.013089135289192200e-02 5.394065007567405701e-02 2.438783273100852966e-02 1.968741044402122498e-02 -1.084598433226346970e-02 -4.251207411289215088e-02 6.774694193154573441e-03 -2.386885322630405426e-02 2.222091890871524811e-02 3.726390376687049866e-02 -1.743770577013492584e-02 1.593538746237754822e-02 2.520132437348365784e-02 -1.959078386425971985e-02 1.534360740333795547e-02 -3.258785465732216835e-03 -1.337760128080844879e-02 -2.171334810554981232e-02 4.046362824738025665e-03 3.814747557044029236e-03 1.870403997600078583e-02 -1.254717260599136353e-02 4.810070991516113281e-02 -3.123624250292778015e-02 -1.818547956645488739e-02 -2.377321198582649231e-02 -1.191053725779056549e-02 -9.583788923919200897e-03 -1.290747337043285370e-02 -3.150045499205589294e-02 3.205930581316351891e-03 1.105220522731542587e-02 2.148623764514923096e-02 -5.934535525739192963e-03 -4.460710100829601288e-03 -2.374405972659587860e-02 -8.182034827768802643e-03 4.404558800160884857e-03 2.027007192373275757e-02 -2.740447036921977997e-02 8.067862130701541901e-03 -1.640010811388492584e-02 3.402852918952703476e-03 -2.989511936902999878e-02 2.548681572079658508e-02 -1.502538798376917839e-04 7.132319733500480652e-03 -4.026804585009813309e-03 -1.695656217634677887e-02 -1.017293613404035568e-02 3.759930655360221863e-02 9.886328130960464478e-03 -2.181226387619972229e-02 -4.804427735507488251e-03 -1.343067083507776260e-02 1.826299540698528290e-02 1.978796720504760742e-02 -2.030368521809577942e-02 1.409887988120317459e-02 -1.537714898586273193e-02 2.788781188428401947e-02 2.252283506095409393e-02 -3.356736898422241211e-02 -1.369909476488828659e-02 -5.681201349943876266e-03 -2.738881483674049377e-02 1.179371122270822525e-02 -6.099550519138574600e-03 1.800065115094184875e-02 -1.647659204900264740e-02 -2.038768120110034943e-02 3.493924159556627274e-03 6.375927478075027466e-03 -8.763667196035385132e-03 -1.012497488409280777e-02 -1.610601693391799927e-02 2.400630339980125427e-02 2.616548351943492889e-02 -1.735356077551841736e-02 5.285967490635812283e-04 2.032318589044734836e-04 -2.168287895619869232e-02 -1.345003768801689148e-02 -1.916099525988101959e-02 1.899568550288677216e-02 -2.994116768240928650e-02 1.180796884000301361e-02 -1.918552326969802380e-03 5.740799941122531891e-03 3.099195659160614014e-02 -7.373829837888479233e-03 3.120487555861473083e-02 -7.818687707185745239e-03 2.441472839564085007e-03 -1.802586764097213745e-02 2.671142481267452240e-02
2.839851938188076019e-02 2.673339098691940308e-02 -1.490626577287912369e-02 3.975807130336761475e-02 2.665955573320388794e-03 1.859805919229984283e-02 -1.059581246227025986e-02 1.700602658092975616e-02 -2.770519629120826721e-02 -9.349841624498367310e-03 8.954587392508983612e-03 -2.264540456235408783e-02 5.143900401890277863e-03 5.183245055377483368e-03 -1.330129988491535187e-02 3.589760512113571167e-02 -1.119111943989992142e-02 2.751596458256244659e-02 9.075898677110671997e-03 -5.407530814409255981e-02 -1.301030814647674561e-02 -6.912057101726531982e-02 -2.897028438746929169e-02 3.947864845395088196e-02 -9.817962534725666046e-03 -1.341082900762557983e-02 1.552401855587959290e-02 9.557492099702358246e-03 -1.498466171324253082e-02 -3.332515060901641846e-02 2.059032395482063293e-02 -2.731717005372047424e-02 -3.112706914544105530e-02 -2.151141501963138580e-02 4.451923817396163940e-02 -6.399458274245262146e-03 -3.434785082936286926e-02 2.139845676720142365e-02 1.043290831148624420e-02 3.221646696329116821e-02 -1.667989790439605713e-02 1.067954581230878830e-02 -8.739745244383811951e-03 -2.015258558094501495e-02 -1.569863641634583473e-03 1.332422625273466110e-02 -2.021443331614136696e-03 -1.423249952495098114e-02 -1.590185798704624176e-02 -2.008175291121006012e-02 -6.248606834560632706e-03 1.517674885690212250e-03 2.327189221978187561e-02 3.432263061404228210e-02 -7.063202559947967529e-03 -7.364657940343022346e-04 3.407388180494308472e-02 -1.653383485972881317e-02 -6.966243498027324677e-03 -2.896678075194358826e-02 -2.110248059034347534e-02 -1.762467995285987854e-02 -2.902704873122274876e-04 4.735456407070159912e-02 9.393308311700820923e-03 4.289996996521949768e-02 -1.684995368123054504e-02 -4.972105100750923157e-02 -5.407469347119331360e-03 1.315005682408809662e-02 4.094089940190315247e-02 -6.996223237365484238e-03 -2.157045714557170868e-02 7.563834544271230698e-03 -5.419995635747909546e-02 2.929691597819328308e-02 1.958918757736682892e-02 -9.250692091882228851e-03 -2.035863883793354034e-02 1.813632808625698090e-02 -2.558759180828928947e-03 1.515682321041822433e-02 -1.059923879802227020e-02 -1.399521529674530029e-02 -4.354137927293777466e-03 4.006959963589906693e-03 -1.687477715313434601e-02 -4.663519188761711121e-02 -7.830110378563404083e-03 1.376463007181882858e-02 -5.769128352403640747e-02 1.473759859800338745e-02 -1.091302279382944107e-02 -3.015918284654617310e-02 2.497253939509391785e-03 -1.862942986190319061e-02 9.334190748631954193e-03 -2.245666272938251495e-02 -2.022555656731128693e-02 -3.924335539340972900e-02 -1.063559786416590214e-03 -1.982394978404045105e-02 1.763515733182430267e-02 -1.447914913296699524e-02 -3.369622677564620972e-02 -3.633489459753036499e-02 4.354984313249588013e-02 3.545361384749412537e-02 -2.176896296441555023e-02 1.731375604867935181e-02 -1.590445823967456818e-02 -1.058625336736440659e-02 3.209431841969490051e-02 8.171116933226585388e-03 -4.355908185243606567e-02 -1.907102949917316437e-02 -2.298531122505664825e-02 3.920744638890028000e-03 3.236864507198333740e-02 3.913879627361893654e-04 -7.445826195180416107e-03 2.001330815255641937e-02 9.045470505952835083e-03 -4.548113048076629639e-02 -3.299881936982274055e-03 4.210520163178443909e-02 3.187077119946479797e-03 3.280016779899597168e-02
-2.960799448192119598e-02 1.784535683691501617e-02 3.926282003521919250e-02 2.531060948967933655e-03 1.623939536511898041e-02 -1.766645908355712891e-02 -1.741783507168292999e-02 -1.722432486712932587e-02 -8.174887858331203461e-03 1.536485087126493454e-02 4.098825156688690186e-02 -2.036049589514732361e-02 4.026151262223720551e-03 1.278309337794780731e-02 -1.261904183775186539e-02 7.821281906217336655e-04 3.261780366301536560e-02 -1.517747342586517334e-02 2.419324778020381927e-02 -2.932410920038819313e-03 -1.230173627845942974e-03 8.315535262227058411e-03 6.189191713929176331e-03 -1.667466247454285622e-03 1.688540540635585785e-02 -7.616714574396610260e-03 -1.762966066598892212e-02 2.352863084524869919e-03 5.748230963945388794e-03 -1.752753928303718567e-02 -5.493014585226774216e-03 9.412169456481933594e-04 4.308274947106838226e-03 7.652470376342535019e-03 -1.613434962928295135e-02 -1.012659724801778793e-02 -1.052703522145748138e-02 -2.752239257097244263e-02 -5.162453278899192810e-03 -3.801181912422180176e-02 -1.719874888658523560e-02 1.094290334731340408e-02 4.566976334899663925e-03 -1.022424735128879547e-02 1.387561112642288208e-02 -4.073718190193176270e-02 -1.068376377224922180e-02 -1.299738511443138123e-02 1.831951923668384552e-02 1.505593885667622089e-03 -2.841482125222682953e-02 9.381619282066822052e-03 -1.722433231770992279e-02 -1.583385863341391087e-03 1.881401427090167999e-02 -7.985203526914119720e-03 1.728215441107749939e-02 -1.669708639383316040e-02 -2.760953502729535103e-03 2.791944518685340881e-02 5.997654050588607788e-03 -4.409115761518478394e-02 1.550949458032846451e-02 -4.773767199367284775e-03 1.300196978263556957e-03 3.783928230404853821e-02 6.316071376204490662e-03 6.358103710226714611e-04 1.382134296000003815e-02 8.087639696896076202e-03 -1.265456667169928551e-03 9.836542420089244843e-03 1.946035772562026978e-02 7.933909073472023010e-03 2.498709410429000854e-02 7.174873608164489269e-04 -1.398973260074853897e-02 -4.659812524914741516e-02 -9.848037734627723694e-03 2.250011824071407318e-02 7.880632183514535427e-04 1.325736381113529205e-02 4.837927594780921936e-02 -6.494836416095495224e-03 -2.880128100514411926e-02 3.678810317069292068e-03 -1.028869650326669216e-03 -1.735638082027435303e-02 1.286292262375354767e-02 -2.153655700385570526e-02 6.188527215272188187e-03 1.864424906671047211e-02 6.465545855462551117e-03 -1.609782315790653229e-02 -2.708952873945236206e-02 1.527980668470263481e-03 -2.361396094784140587e-03 4.459490999579429626e-02 3.235433623194694519e-02 4.877426661550998688e-03 -4.096872638911008835e-03 -4.303137212991714478e-02 8.353580720722675323e-03 1.198486424982547760e-02 -3.039712831377983093e-02 -2.576431445777416229e-02 -5.358309298753738403e-02 -1.556123886257410049e-02 1.192374527454376221e-02 4.135356098413467407e-02 -5.442470777779817581e-03 -6.576715968549251556e-03 -1.427308470010757446e-02 -1.673677563667297363e-02 1.180585287511348724e-02 -4.210680350661277771e-02 -4.126477241516113281e-02 -1.024597324430942535e-02 -4.615634679794311523e-03 5.842481739819049835e-03 1.937150768935680389e-02 -9.205471724271774292e-03 3.806931897997856140e-02 6.780248135328292847e-03 -1.465116045437753201e-03 2.537692524492740631e-02 6.054889410734176636e-02 7.269483990967273712e-03
