-4.793187975883483887e-02 7.060495554469525814e-04 -5.662396084517240524e-03 -1.658071577548980713e-02 9.475768543779850006e-03 2.289600484073162079e-02 3.244118764996528625e-02 8.629629388451576233e-03 -7.850225083529949188e-03 2.230976708233356476e-02 9.696036577224731445e-03 -1.578887179493904114e-02 3.905657678842544556e-02 1.668732240796089172e-02 -1.119404844939708710e-02 -5.988678708672523499e-02 -2.796734683215618134e-03 3.652345156297087669e-03 2.287195250391960144e-02 1.718909665942192078e-02 -3.351801261305809021e-02 1.686266437172889709e-02 -2.242451533675193787e-02 3.681908920407295227e-02 -4.702670034021139145e-03 -3.505186736583709717e-02 -2.866884227842092514e-03 -3.115074476227164268e-03 -1.235803775489330292e-02 -2.411211095750331879e-02 3.750326856970787048e-02 -9.963834658265113831e-03 -6.852605845779180527e-03 -3.619270771741867065e-02 -7.006899453699588776e-03 -1.635433360934257507e-02 -1.287584193050861359e-02 -2.650930546224117279e-02 -1.970373652875423431e-02 -1.443030126392841339e-02 -1.917347311973571777e-03 -3.497910872101783752e-02 -1.194837782531976700e-02 -1.527452748268842697e-02 -2.956331707537174225e-02 1.282631605863571167e-02 -4.607472568750381470e-03 -2.790876105427742004e-02 -8.149086497724056244e-03 8.121824823319911957e-03 4.303161427378654480e-02 -7.047773804515600204e-03 -8.692216128110885620e-03 1.153098046779632568e-02 -1.056358683854341507e-02 -4.197662323713302612e-02 -1.701402850449085236e-02 6.901740562170743942e-03 -6.851783022284507751e-03 7.416101638227701187e-03 -2.691337466239929199e-02 -4.412618279457092285e-02 1.194972544908523560e-02 -1.500121783465147018e-02 -6.600622087717056274e-03 3.540885075926780701e-02 1.251453068107366562e-02 -2.864530542865395546e-03 1.618186570703983307e-02 -1.773754879832267761e-02 1.077175047248601913e-02 1.111792214214801788e-02 1.136858831159770489e-03 -1.211290899664163589e-02 -2.922822907567024231e-02 1.145728398114442825e-02 -7.901563309133052826e-03 4.245969653129577637e-02 -8.445145562291145325e-03 3.168471530079841614e-02 -6.027020281180739403e-04 -4.714315012097358704e-02 9.833439253270626068e-03 7.151998113840818405e-03 3.596555034164339304e-04 2.193340286612510681e-02 -4.796165227890014648e-02 -1.597705646418035030e-03 1.645782962441444397e-02 -2.883713878691196442e-02 -3.593982011079788208e-02 9.394898079335689545e-03 -2.490576356649398804e-02 1.314760651439428329e-02 -1.286562718451023102e-02 1.941179111599922180e-02 -4.663576185703277588e-02 -9.414683096110820770e-03 1.424560230225324631e-02 7.694954052567481995e-03 3.170609846711158752e-02 3.915588837116956711e-03 -1.558281760662794113e-02 -3.075936250388622284e-02 -2.122121676802635193e-02 -3.954693675041198730e-02 -7.935361936688423157e-03 7.693501189351081848e-03 -3.777371346950531006e-02 -3.880804870277643204e-03 2.035895921289920807e-02 3.278544405475258827e-03 -8.738364093005657196e-03 -4.108889773488044739e-02 -1.571992598474025726e-02 4.485831037163734436e-02 1.785993389785289764e-02 1.125903148204088211e-02 3.128810599446296692e-02 -2.740529365837574005e-02 -8.410872891545295715e-03 -1.609236001968383789e-02 -1.745710521936416626e-02 -1.738557405769824982e-02 3.934367001056671143e-02 1.924814656376838684e-02 -1.669520512223243713e-02 -4.234273452311754227e-03 1.517754700034856796e-02 7.886573672294616699e-03 -2.199825085699558258e-02 -1.070343051105737686e-02 2.122703567147254944e-02 -8.339566178619861603e-03 -8.851248770952224731e-03 -1.752752624452114105e-02 3.167607635259628296e-02 2.297837473452091217e-02 1.056240871548652649e-02 -5.888220854103565216e-03 -1.551300194114446640e-02 -1.982312090694904327e-02 2.318391762673854828e-02 -4.372283816337585449e-02 -1.621744595468044281e-02 9.992456762120127678e-04 3.760144859552383423e-02 -1.937354728579521179e-02 1.385303772985935211e-02 -4.149046260863542557e-03 -6.765602156519889832e-03 2.906276844441890717e-02 -8.690188638865947723e-03 2.128302119672298431e-02 3.189402446150779724e-02 9.500356391072273254e-03 1.950830337591469288e-03 1.943684183061122894e-02 1.988932304084300995e-02 2.467512339353561401e-02 -2.081512100994586945e-02 1.518077589571475983e-02 2.117012441158294678e-02 1.428053900599479675e-02 1.242200192064046860e-02 -2.482950687408447266e-02 -1.124739553779363632e-02 -1.953752897679805756e-02 -2.546497061848640442e-02 -2.160807885229587555e-02 -1.533915783511474729e-04 -1.511983014643192291e-02 -1.885614171624183655e-02 -2.400685660541057587e-02 -1.234518270939588547e-02 -9.712842293083667755e-03 7.780646905303001404e-03 -2.842403203248977661e-02 -1.681205444037914276e-02 -1.118559297174215317e-02 7.765685208141803741e-03 4.303240776062011719e-02 3.162932768464088440e-02 -1.298094540834426880e-02 3.741077706217765808e-02 -1.814754121005535126e-02 -1.529296301305294037e-02 1.590962288901209831e-03 1.433590427041053772e-02 2.648225426673889160e-02 1.092900615185499191e-02 -3.070256672799587250e-02 -2.000091597437858582e-02 5.603233352303504944e-03 2.101584523916244507e-02 -1.716151135042309761e-03 1.019527390599250793e-01 5.635411478579044342e-03 6.222044583410024643e-03 5.572012811899185181e-02 -5.437566433101892471e-03 4.261707514524459839e-02 3.768932074308395386e-02 7.363856304436922073e-03 3.924213349819183350e-03 -3.602496907114982605e-02 -3.576989751309156418e-03 1.026139874011278152e-02 3.087253682315349579e-02 -1.988940499722957611e-02 -2.668613567948341370e-02 -5.151905864477157593e-02 -1.627138233743607998e-03 -5.938806571066379547e-03 -3.021692857146263123e-02 4.181899130344390869e-02 -2.898764237761497498e-02 -2.027180045843124390e-02 2.900247089564800262e-02 3.766535967588424683e-02 9.491271339356899261e-03 1.617005560547113419e-03 2.739925868809223175e-02 3.039787709712982178e-02 4.896144941449165344e-02 -1.769249327480792999e-02 1.614630594849586487e-02 5.152188241481781006e-02 -3.021908178925514221e-02 -2.248364128172397614e-02 1.437531691044569016e-02 8.708419278264045715e-03 8.993295021355152130e-03 -2.889302000403404236e-02 -1.891058310866355896e-02 2.979457564651966095e-02 -1.213977579027414322e-02 8.505704812705516815e-03 -2.603186853229999542e-02 -1.379165984690189362e-02 1.229764707386493683e-02 1.763926073908805847e-02 4.398661851882934570e-02 1.508819404989480972e-02 -3.413778170943260193e-02 -1.720195077359676361e-02 3.872474282979965210e-02 -6.271942052990198135e-03 4.923535976558923721e-03 1.134995650500059128e-02 2.134332060813903809e-02 -4.242775321472436190e-05 -1.374859455972909927e-02 4.753414075821638107e-03 -3.620869666337966919e-02 -1.942829042673110962e-02 4.247476346790790558e-03 -2.638783678412437439e-02 6.765653379261493683e-03 -7.116035558283329010e-03 -4.239155910909175873e-03 -4.512295499444007874e-02 -8.594773709774017334e-03 -5.583149567246437073e-02 8.800576440989971161e-03 9.887165389955043793e-03 -6.250326987355947495e-03 -2.453526295721530914e-02 -2.382341213524341583e-02 8.548673242330551147e-03 -1.748207607306540012e-03 4.046364128589630127e-02 -4.165504872798919678e-02 -9.433773346245288849e-03 1.089519704692065716e-03 1.108962297439575195e-02 8.159887976944446564e-03 -2.024003863334655762e-02 -8.812029846012592316e-03 -2.841693535447120667e-02 -1.326464768499135971e-02 -3.817346319556236267e-02 4.538507759571075439e-02 -2.695807628333568573e-02 -1.298250537365674973e-02 -9.045106358826160431e-03 -3.274103254079818726e-02 -4.931502789258956909e-02 1.804522797465324402e-02 7.394381798803806305e-03 1.595046371221542358e-02 1.784287951886653900e-02 5.119728390127420425e-03 1.392567157745361328e-02 -5.321536958217620850e-02 6.376166129484772682e-04 -2.565864473581314087e-02 -2.113976329565048218e-02 -1.560078933835029602e-02 -7.503895554691553116e-03 3.690990060567855835e-02 3.868779540061950684e-02 1.822944916784763336e-02 -2.447669580578804016e-02 2.072663046419620514e-02 -3.358902782201766968e-02 -8.530968800187110901e-03 -1.158557273447513580e-02 3.034629672765731812e-02 2.863450907170772552e-03 3.200878202915191650e-02 4.400996956974267960e-03 1.117818336933851242e-02 -5.569617729634046555e-03 -2.190653979778289795e-02 -3.263064473867416382e-02 5.910961423069238663e-03 -1.030426193028688431e-02 9.351664222776889801e-03 1.457479130476713181e-02 -5.082755349576473236e-03 -2.420972334221005440e-03 -1.339568942785263062e-02 -3.656143695116043091e-02 -3.446390852332115173e-02 4.802446812391281128e-03 -1.901297084987163544e-02 -2.545879408717155457e-02 9.270481765270233154e-02 8.845120668411254883e-03 8.399884216487407684e-03 -1.473168656229972839e-02 -2.241352386772632599e-02 1.462771743535995483e-02 1.408256590366363525e-02 -4.894862323999404907e-02 2.611175365746021271e-02 -1.197590399533510208e-02 3.194953873753547668e-02 1.344441715627908707e-02 -2.556558698415756226e-02 7.733670994639396667e-03 1.244514249265193939e-02 -1.816743612289428711e-02 -2.384248422458767891e-03 8.971979841589927673e-03 -9.886581450700759888e-03 -4.884554073214530945e-02 6.197878159582614899e-03 7.736396510154008865e-03 7.816555909812450409e-03 5.854387953877449036e-02 5.777095630764961243e-02 -2.186080254614353180e-02 2.344601973891258240e-02 1.248623616993427277e-02 -2.182763069868087769e-03 -4.722457751631736755e-02 4.788564145565032959e-02 5.178566277027130127e-02 -3.628721460700035095e-02 1.752683334052562714e-02 -1.936340937390923500e-03 -2.051284164190292358e-02 -6.063428241759538651e-03 -4.503019899129867554e-02 2.312946878373622894e-02 6.115432828664779663e-03 -1.622340828180313110e-02 -2.434246940538287163e-03 -8.921339176595211029e-03 3.774417936801910400e-02 8.368736132979393005e-03 3.252377733588218689e-02 -2.585199289023876190e-02 -3.347227466292679310e-04 -1.414799131453037262e-03 2.988840639591217041e-02 -9.542742744088172913e-03 3.092339076101779938e-02 2.368888631463050842e-02 -2.128733135759830475e-02 4.737872222904115915e-04 -7.887903600931167603e-03 6.549464166164398193e-02 3.330894187092781067e-02 -2.023292938247323036e-03 7.333770394325256348e-03 -1.631389372050762177e-02 -3.296121023595333099e-03 2.184705063700675964e-02 3.441365435719490051e-02 -2.103485725820064545e-02 2.996199298650026321e-03 2.139273472130298615e-02 -7.894795387983322144e-03 -4.678420722484588623e-02 2.949583902955055237e-02 2.135078050196170807e-02 -3.056524693965911865e-02 9.669690392911434174e-03 5.323697254061698914e-02 -8.333843201398849487e-03 2.895649150013923645e-02 -1.338115427643060684e-02 1.946734450757503510e-02 1.730425655841827393e-02 -3.855117596685886383e-03 7.452836725860834122e-03 1.450663339346647263e-02 -5.818641744554042816e-03 2.595307305455207825e-02 -1.251916494220495224e-02 8.031133562326431274e-03 2.337660174816846848e-03 -1.816420070827007294e-02 -8.084342116490006447e-04 -9.546942077577114105e-03 -9.251167066395282745e-04 2.041633240878582001e-02 -5.704917013645172119e-03 -2.594373421743512154e-03 -1.320616435259580612e-02 5.270187184214591980e-02 5.175494775176048279e-02 2.652645669877529144e-02 -1.731084100902080536e-02 -8.553294464945793152e-03 -2.291729860007762909e-02 2.736146934330463409e-02 -3.773018717765808105e-02 -1.247044280171394348e-02 7.870071567595005035e-03 -5.895070731639862061e-02 4.342324566096067429e-03 -2.134143142029643059e-03 9.852698072791099548e-03 8.225463330745697021e-03 -1.487941574305295944e-02 -5.094188824295997620e-02 2.724255248904228210e-02 4.375114664435386658e-02 2.168301120400428772e-02 3.675728291273117065e-02 -1.551845110952854156e-02 2.575306221842765808e-02 2.565011940896511078e-02 -3.687267750501632690e-02 -2.862176392227411270e-03 2.031068317592144012e-02 1.289323344826698303e-02 2.140332572162151337e-02 -4.727435763925313950e-03 3.684870200231671333e-03 2.426318265497684479e-02 -2.176069095730781555e-02 1.174240093678236008e-02 9.522861801087856293e-03 1.010213419795036316e-02 -2.762172371149063110e-02 -1.703744987025856972e-03 1.468859240412712097e-02 7.038840558379888535e-03 4.833288118243217468e-02 -6.172423250973224640e-03 4.539857432246208191e-02 -2.152999490499496460e-02 -2.823364688083529472e-03 -5.495738703757524490e-03 -4.376681987196207047e-03 -2.836165763437747955e-02 -5.259072408080101013e-03 -1.751606725156307220e-02 7.655988633632659912e-02 -3.637131303548812866e-02 2.733761817216873169e-02 1.229741796851158142e-02 -1.499662455171346664e-02 1.620838791131973267e-02 6.150335539132356644e-03 -1.103842630982398987e-02 2.091614902019500732e-02 4.936758195981383324e-04 -1.575815677642822266e-02 4.421455413103103638e-02 1.118021458387374878e-02 -1.848747953772544861e-02 3.225238621234893799e-02 -6.879322696477174759e-03 -2.669537998735904694e-02 -3.546704351902008057e-02 -3.252856805920600891e-02 2.037799544632434845e-02 -2.458431571722030640e-02 -3.791988268494606018e-02 1.058064680546522141e-02 -2.580710686743259430e-02 -4.565949738025665283e-02 -6.717240903526544571e-04 3.373627085238695145e-03 9.879590943455696106e-04 1.554227340966463089e-02 3.655933961272239685e-02 1.679070666432380676e-02 -5.325444415211677551e-02 -1.913074962794780731e-02 -1.741538196802139282e-02 -1.469897571951150894e-02 -2.559841796755790710e-02 4.091947525739669800e-02 2.294933237135410309e-02 2.414609864354133606e-02
-5.740121379494667053e-02 -5.613590590655803680e-03 3.502510115504264832e-02 -3.189811483025550842e-02 4.654072690755128860e-03 1.131337601691484451e-02 1.526381727308034897e-02 -1.473874505609273911e-02 -1.613967306911945343e-02 2.703869901597499847e-02 2.894227206707000732e-02 -3.675666451454162598e-02 -3.339512646198272705e-02 -2.343264594674110413e-02 1.428221445530653000e-02 2.364692278206348419e-02 -7.372226100414991379e-03 1.193486433476209641e-02 6.272128783166408539e-03 8.354238234460353851e-03 -3.733729198575019836e-02 3.981943055987358093e-02 -3.381773829460144043e-02 -5.878284107893705368e-03 2.058580890297889709e-02 -4.019018262624740601e-02 -3.498983383178710938e-02 -5.994343757629394531e-02 -3.322487324476242065e-02 -2.020458132028579712e-02 -1.626084186136722565e-02 1.952943950891494751e-02 9.108142927289009094e-03 1.088803634047508240e-02 -5.670177284628152847e-03 -4.622073844075202942e-02 -4.369335994124412537e-02 -2.284546010196208954e-02 -2.004229091107845306e-02 3.293553739786148071e-02 -2.144868858158588409e-02 -1.966910203918814659e-03 2.505223033949732780e-03 -1.255774218589067459e-02 3.873427957296371460e-02 -1.635661907494068146e-02 4.709630087018013000e-02 1.668250001966953278e-02 2.844562940299510956e-02 3.327406570315361023e-02 -1.339087635278701782e-02 2.894758945330977440e-04 2.606471255421638489e-02 -5.095112603157758713e-03 -3.703647525981068611e-03 1.478242338635027409e-03 -5.384904146194458008e-02 -1.412317622452974319e-02 3.234851639717817307e-03 -1.543800998479127884e-02 3.282232955098152161e-02 -2.949670702219009399e-02 1.558676920831203461e-02 5.082811694592237473e-04 -1.127747166901826859e-02 3.782871738076210022e-02 1.313749607652425766e-02 4.811247065663337708e-02 -1.042665913701057434e-02 -3.791303560137748718e-02 -5.098879802972078323e-03 -3.063098900020122528e-02 -4.137889295816421509e-02 -2.887018956243991852e-02 -2.085363678634166718e-02 2.159513765946030617e-03 3.563082963228225708e-02 9.531700983643531799e-03 4.978261888027191162e-03 -3.493985906243324280e-02 -4.079059883952140808e-02 -1.375255268067121506e-02 -5.639225989580154419e-02 4.191296547651290894e-02 -4.671365022659301758e-02 -4.339801520109176636e-02 6.728945882059633732e-04 3.495164215564727783e-02 -8.531628176569938660e-03 2.938546799123287201e-02 4.062331840395927429e-02 -4.699997976422309875e-02 1.312363520264625549e-02 2.029871568083763123e-02 -1.360906660556793213e-02 1.060325186699628830e-02 3.271880000829696655e-02 6.984829157590866089e-02 -2.812718227505683899e-02 -2.742862142622470856e-02 1.560216210782527924e-02 2.600298263132572174e-02 -2.466259151697158813e-02 -2.375770546495914459e-02 1.388178300112485886e-02 -1.301386207342147827e-02 3.063378483057022095e-02 -2.572136931121349335e-03 1.691407896578311920e-02 1.970366761088371277e-02 -6.394554860889911652e-03 1.191876013763248920e-03 1.198751851916313171e-02 -3.457488724961876869e-03 -2.530148252844810486e-02 -3.677145019173622131e-02 2.197404392063617706e-02 -1.779633201658725739e-02 -9.883577004075050354e-03 3.598640859127044678e-02 -3.498905524611473083e-02 3.586428239941596985e-02 4.264409467577934265e-02 1.992226764559745789e-02 -1.018900144845247269e-02 3.818933665752410889e-02 2.437341772019863129e-02 -1.728130131959915161e-02 2.170417271554470062e-02 -5.283681303262710571e-02 -7.682014722377061844e-03 -1.368774194270372391e-02 1.061406545341014862e-02 4.824355244636535645e-02 2.668851613998413086e-02 1.927370205521583557e-02 -1.756246085278689861e-03 2.472001686692237854e-02 2.749855164438486099e-03 -7.896539755165576935e-03 -7.270787842571735382e-03 1.885770633816719055e-02 4.445114172995090485e-03 2.713155746459960938e-02 -1.462878100574016571e-02 1.938255131244659424e-02 -2.008280344307422638e-02 -3.403133526444435120e-02 -9.712709113955497742e-03 -2.068691886961460114e-02 3.676481544971466064e-02 -1.858575968071818352e-03 -2.749118255451321602e-03 2.900665625929832458e-02 -9.279707446694374084e-03 -6.118167191743850708e-03 3.535353764891624451e-02 -4.266069456934928894e-02 4.971259459853172302e-02 -6.303814053535461426e-02 -6.940849591046571732e-03 -6.992951501160860062e-03 1.973063312470912933e-02 3.946367278695106506e-02 2.181980572640895844e-02 -2.108870819211006165e-02 1.794592291116714478e-02 -1.751968450844287872e-02 -2.810060395859181881e-04 6.976423319429159164e-03 -3.202540427446365356e-02 -1.296746172010898590e-02 5.288378894329071045e-02 1.674260199069976807e-02 5.661241337656974792e-02 -5.887685809284448624e-03 -1.599176600575447083e-02 2.165299095213413239e-02 -2.212890610098838806e-02 1.790928095579147339e-02 3.884106129407882690e-02 3.866866976022720337e-02 1.682590506970882416e-02 -1.187310740351676941e-02 -2.025407738983631134e-02 -1.100521441549062729e-02 5.363606289029121399e-02 6.461928598582744598e-03 -1.329718437045812607e-02 -8.511655963957309723e-03 -1.030648199957795441e-04 1.004431303590536118e-02 1.477604173123836517e-02 -1.813261583447456360e-02 1.048350241035223007e-03 4.245096072554588318e-02 -1.520388666540384293e-02 -1.109857764095067978e-02 1.376463845372200012e-02 2.492375439032912254e-03 3.865218255668878555e-03 9.799893014132976532e-03 -6.758027244359254837e-03 2.377478033304214478e-02 8.307352662086486816e-03 1.518714521080255508e-02 -2.548778802156448364e-02 2.456916123628616333e-02 -5.616349633783102036e-03 1.711448654532432556e-02 -5.031659733504056931e-03 3.575875610113143921e-02 8.098324760794639587e-03 4.301727563142776489e-02 -2.575335791334509850e-03 1.165276300162076950e-02 3.227701783180236816e-02 4.597527533769607544e-02 1.047157129505649209e-04 -1.067108940333127975e-02 3.096939809620380402e-02 -2.298597618937492371e-02 1.040629018098115921e-02 1.297642011195421219e-02 2.263432554900646210e-02 -1.886090822517871857e-02 -2.672118134796619415e-02 1.358021236956119537e-02 2.613049000501632690e-03 -1.756918430328369141e-02 1.110845245420932770e-03 -4.856026545166969299e-02 5.397025495767593384e-03 -3.793479874730110168e-03 -2.567089162766933441e-02 5.627286806702613831e-02 -2.372118644416332245e-02 -3.873744979500770569e-03 1.978578604757785797e-02 9.766369126737117767e-03 -8.335455320775508881e-03 -2.139706723392009735e-02 -2.626889571547508240e-02 -3.453632351011037827e-03 -1.275687851011753082e-02 7.985652424395084381e-03 6.662014871835708618e-03 2.847178280353546143e-02 1.109347399324178696e-02 2.607504837214946747e-02 1.769066415727138519e-02 1.335895154625177383e-02 7.270052097737789154e-03 5.537458136677742004e-02 9.019694291055202484e-03 1.465418189764022827e-02 6.620536744594573975e-02 2.304675802588462830e-02 -7.666366640478372574e-03 3.101377049461007118e-03 1.675092428922653198e-02 1.106542907655239105e-02 -2.682858146727085114e-02 3.577089635655283928e-03 -7.952343672513961792e-03 -3.557684365659952164e-03 -1.996904425323009491e-02 -1.800348423421382904e-02 -3.261517360806465149e-02 2.524886652827262878e-02 8.046365529298782349e-02 -2.315400354564189911e-02 6.030762195587158203e-02 2.080177702009677887e-02 -1.016536261886358261e-02 2.689996734261512756e-02 -1.284204889088869095e-02 -2.778430096805095673e-02 -1.348725147545337677e-02 -1.553672645241022110e-02 -4.020861163735389709e-02 2.544263750314712524e-02 -3.625600039958953857e-02 -2.365127904340624809e-03 -6.904975324869155884e-02 -3.776694461703300476e-02 -1.186365261673927307e-02 1.609500148333609104e-03 -1.805378124117851257e-02 -5.568698979914188385e-03 -2.383776754140853882e-02 1.605199417099356651e-03 4.544702460407279432e-05 -1.424962468445301056e-02 6.123750004917383194e-03 3.964016679674386978e-03 -5.780965089797973633e-03 -2.103225700557231903e-02 -2.373850904405117035e-02 1.387230679392814636e-02 -2.637822180986404419e-02 2.850794978439807892e-02 -1.168930996209383011e-02 -4.447563365101814270e-02 -3.746438771486282349e-03 1.228687260299921036e-02 -2.471424452960491180e-02 6.171475630253553391e-03 6.255829241126775742e-03 -2.310995385050773621e-02 -1.605840772390365601e-02 -1.221984066069126129e-02 -5.027556419372558594e-02 1.832452975213527679e-02 4.872656986117362976e-02 -1.613950938917696476e-03 -3.982513025403022766e-02 2.278682589530944824e-02 7.066093850880861282e-03 -2.101508341729640961e-02 7.754503190517425537e-02 1.798503799363970757e-03 3.342954069375991821e-02 7.334618270397186279e-02 1.934080501087009907e-03 -2.859424427151679993e-02 -1.060477830469608307e-02 1.673483476042747498e-02 -2.377895265817642212e-02 9.867663495242595673e-03 -3.517790138721466064e-02 -1.805128157138824463e-02 -2.212119847536087036e-02 -2.285055071115493774e-02 -4.914347827434539795e-02 1.321616396307945251e-02 -3.804600238800048828e-02 -2.472304739058017731e-02 1.988266780972480774e-02 4.282498732209205627e-03 2.076291479170322418e-02 2.508391812443733215e-02 2.770930528640747070e-02 5.439122393727302551e-02 2.548190206289291382e-02 -2.107637561857700348e-02 -3.869240405037999153e-03 1.148638315498828888e-02 1.881985552608966827e-02 1.994221098721027374e-02 -3.554249554872512817e-02 1.066922582685947418e-02 -9.835275821387767792e-03 1.299671642482280731e-02 -4.007051885128021240e-02 -2.272426709532737732e-02 -7.138548244256526232e-05 2.811685763299465179e-02 -3.388815000653266907e-02 -7.762340363115072250e-03 2.206116728484630585e-02 -2.251603268086910248e-02 -3.101069293916225433e-02 -1.004921086132526398e-02 -4.921211302280426025e-02 2.572900615632534027e-03 -9.919744916260242462e-03 -6.642458029091358185e-04 -9.073515539057552814e-04 2.750119008123874664e-02 -2.259946987032890320e-02 1.379486266523599625e-02 2.192633226513862610e-02 -3.963695466518402100e-02 -1.447985693812370300e-02 -6.097730994224548340e-02 -8.288820274174213409e-03 -2.711626887321472168e-02 2.125516347587108612e-02 4.009729251265525818e-02 4.202833026647567749e-02 2.513891644775867462e-02 -2.414147928357124329e-02 4.729215987026691437e-03 -3.105950308963656425e-03 3.857233002781867981e-02 1.936399494297802448e-03 1.832219026982784271e-02 -1.882690750062465668e-02 5.281094834208488464e-02 5.308883264660835266e-02 3.549843281507492065e-02 4.663909971714019775e-02 1.279936055652797222e-03 1.155558228492736816e-02 -4.158019647002220154e-02 -4.692120943218469620e-03 8.138676173985004425e-03 -1.606104336678981781e-02 2.425689809024333954e-02 -5.973448604345321655e-02 -4.196580499410629272e-02 2.320699207484722137e-02 -3.169875591993331909e-02 -3.491764515638351440e-02 1.730344817042350769e-02 2.696560323238372803e-02 -1.256278622895479202e-02 -1.047330442816019058e-04 1.317308377474546432e-02 2.083198912441730499e-02 -4.760576039552688599e-02 4.277279600501060486e-02 -2.587884478271007538e-02 1.229754742234945297e-02 1.128848455846309662e-02 -7.013244926929473877e-02 -3.577324375510215759e-02 -1.556884404271841049e-02 -4.850812628865242004e-02 2.926515182480216026e-03 -2.269492298364639282e-02 -1.966453343629837036e-02 -1.828355342149734497e-02 -1.199264544993638992e-02 1.374342385679483414e-02 -1.767876371741294861e-02 -1.803060993552207947e-02 -2.698107564356178045e-04 -2.113541960716247559e-02 2.277479507029056549e-03 5.453561991453170776e-02 7.654403895139694214e-02 -6.187455728650093079e-03 -3.885551914572715759e-02 -3.331717848777770996e-02 -2.758347988128662109e-02 1.116392575204372406e-02 2.465297840535640717e-02 -5.244578234851360321e-03 1.635890221223235130e-03 5.593242123723030090e-03 -1.494872663170099258e-02 1.033692900091409683e-02 1.750686950981616974e-02 -3.159879893064498901e-02 -4.273927211761474609e-02 -4.060290753841400146e-02 1.112891454249620438e-02 3.834529081359505653e-03 3.485092520713806152e-02 -2.031826041638851166e-02 -3.451255336403846741e-02 -3.705471009016036987e-02 6.053330376744270325e-03 -1.640604063868522644e-02 2.724354155361652374e-02 4.236364364624023438e-02 -1.687012612819671631e-02 -1.992797292768955231e-02 -5.321519821882247925e-02 5.360821727663278580e-03 1.235608011484146118e-02 -1.443311292678117752e-02 6.791441887617111206e-02 2.938714064657688141e-02 1.408600062131881714e-02 -1.354061439633369446e-02 2.644392661750316620e-02 1.857310533523559570e-02 -5.085517093539237976e-02 -8.593061938881874084e-03 -2.047944068908691406e-02 6.214340217411518097e-03 -8.000628440640866756e-04 2.751414431259036064e-03 -1.754617132246494293e-02 2.106483280658721924e-02 7.659798488020896912e-03 -3.911408595740795135e-03 1.780450344085693359e-02 -3.082742542028427124e-02 -3.381692618131637573e-02 3.911181539297103882e-02 -8.453595452010631561e-03 -8.509096805937588215e-04 -1.938368007540702820e-02 -3.882388770580291748e-02 -8.082658983767032623e-03 1.803401298820972443e-02 -3.371639177203178406e-02 6.578620057553052902e-03 -2.578785270452499390e-02 -7.142758928239345551e-03 3.636359050869941711e-02 -1.423533353954553604e-02 -8.422397077083587646e-03 -8.518349379301071167e-03 7.512134499847888947e-03 -3.596046194434165955e-02 -2.545149810612201691e-02 -7.120454218238592148e-03 -1.010773796588182449e-02 1.479104813188314438e-02 -3.281636163592338562e-03 -7.341893855482339859e-03 2.400076948106288910e-03 1.980329118669033051e-02 5.868948251008987427e-02 2.753011882305145264e-02 1.681453548371791840e-02 3.815073892474174500e-02
8.793013170361518860e-03 -9.942100383341312408e-03 -2.051823027431964874e-02 -2.458250522613525391e-02 2.492288872599601746e-02 4.256597906351089478e-02 -7.101115304976701736e-03 2.316699549555778503e-02 1.765747554600238800e-02 -1.103580556809902191e-02 -9.625662118196487427e-03 -4.660447128117084503e-03 -1.996759884059429169e-02 1.458538603037595749e-02 3.738427907228469849e-02 5.808080732822418213e-02 -1.699484698474407196e-02 9.212631732225418091e-03 -1.591508835554122925e-02 -5.621986836194992065e-02 3.783403895795345306e-03 1.102178916335105896e-02 4.070334136486053467e-02 1.367073133587837219e-02 4.496505483984947205e-03 -1.476474013179540634e-02 -4.980888962745666504e-02 -8.416252210736274719e-03 -1.294610463082790375e-02 2.493238262832164764e-02 7.891781628131866455e-03 1.807613298296928406e-02 6.263039074838161469e-03 -3.121737623587250710e-03 5.127353593707084656e-02 -9.234853787347674370e-04 -3.130832314491271973e-02 -7.812453433871269226e-03 -3.133118152618408203e-02 -3.467226400971412659e-03 -8.902296423912048340e-03 3.524134680628776550e-02 -2.370728738605976105e-02 -2.035798691213130951e-02 -1.606901176273822784e-02 8.272210136055946350e-03 1.569820567965507507e-02 7.737237028777599335e-03 5.595919117331504822e-02 -3.859763219952583313e-02 -6.452885270118713379e-02 -3.074046224355697632e-02 -5.547139793634414673e-03 4.300940781831741333e-02 -2.003198955208063126e-03 1.304799690842628479e-02 3.269322216510772705e-02 -9.369966574013233185e-04 -2.601941302418708801e-02 -2.382229268550872803e-02 3.810892254114151001e-02 6.295158527791500092e-03 -4.298079293221235275e-03 4.830764979124069214e-02 3.010865673422813416e-02 2.028457634150981903e-02 3.879183903336524963e-02 1.827570423483848572e-02 1.545137632638216019e-02 6.304162740707397461e-02 -4.178791493177413940e-02 1.638897694647312164e-02 4.326321650296449661e-03 6.039240863174200058e-03 -2.226598188281059265e-02 -4.954835772514343262e-02 3.519226610660552979e-02 -1.741281524300575256e-02 2.213657647371292114e-02 3.164304420351982117e-02 -1.424148585647344589e-02 -4.889220371842384338e-02 -1.669605448842048645e-02 -2.054404839873313904e-02 -2.281478955410420895e-04 1.819889061152935028e-02 1.564197614789009094e-02 3.851718967780470848e-03 -3.193492069840431213e-03 5.411199852824211121e-02 -7.330678869038820267e-03 6.770038604736328125e-02 -1.554642431437969208e-02 -3.886616230010986328e-02 1.097690034657716751e-02 -3.797922655940055847e-02 6.410186644643545151e-03 3.946210443973541260e-02 -1.194001734256744385e-02 -3.705427423119544983e-02 -6.834191299276426435e-05 -3.829290857538580894e-03 2.500411495566368103e-02 -1.065959967672824860e-02 1.376123633235692978e-02 4.036070406436920166e-02 -1.729990169405937195e-02 -1.613248023204505444e-03 1.387500576674938202e-02 3.271327167749404907e-02 -2.820521593093872070e-02 5.693385004997253418e-02 -2.718330174684524536e-02 3.120579756796360016e-03 1.744524575769901276e-02 -2.590527385473251343e-02 -2.199125848710536957e-02 -4.039442865177989006e-04 3.269192576408386230e-02 -3.957195207476615906e-02 1.878372952342033386e-02 1.809714548289775848e-02 -6.207541096955537796e-03 -1.034872047603130341e-02 -5.001962650567293167e-03 -4.215350747108459473e-02 -3.221360221505165100e-02 6.468214094638824463e-02 -6.308334320783615112e-02 -3.000197233632206917e-03 4.974405094981193542e-02 3.756314516067504883e-02 -1.789421029388904572e-02 3.253588452935218811e-03 -2.223277464509010315e-02 3.106113895773887634e-02 -6.025279685854911804e-02 -1.506592519581317902e-02 -1.456652209162712097e-02 -4.554874449968338013e-02 -2.491055242717266083e-02 5.939435213804244995e-02 -3.797259926795959473e-02 1.341795898042619228e-03 1.423733774572610855e-02 1.033358392305672169e-03 2.762944810092449188e-02 -1.648550294339656830e-02 -1.199738308787345886e-02 1.685302890837192535e-02 1.603660406544804573e-03 -3.293915838003158569e-02 5.485004186630249023e-02 -1.690395176410675049e-02 -2.220909856259822845e-02 -4.830194520764052868e-04 9.548689238727092743e-03 3.316437825560569763e-02 -5.466470122337341309e-02 -7.746098563075065613e-03 3.588318824768066406e-02 -1.162614673376083374e-02 -1.029985304921865463e-02 -4.150658473372459412e-02 -5.308717023581266403e-03 1.792661286890506744e-02 3.949755802750587463e-02 3.406376391649246216e-02 6.288065575063228607e-03 6.164065562188625336e-03 2.618823945522308350e-02 2.480359934270381927e-02 1.194664835929870605e-02 2.803983353078365326e-02 -3.523127734661102295e-02 5.463716387748718262e-02 3.144212067127227783e-02 4.354158043861389160e-02 2.840544842183589935e-02 7.313089445233345032e-03 3.008308261632919312e-02 4.633677750825881958e-02 -7.707084994763135910e-03 7.450883276760578156e-03 -3.245984902605414391e-03 1.294783968478441238e-02 -2.626308426260948181e-02 -3.133020130917429924e-03 -2.439809404313564301e-02 3.469073912128806114e-03 -6.597640458494424820e-03 -3.717064112424850464e-02 -6.696001626551151276e-03 -1.677281921729445457e-03 -5.641920026391744614e-03 4.814413562417030334e-02 -3.820068761706352234e-02 -1.953777112066745758e-02 -4.311259370297193527e-03 1.622414775192737579e-02 -2.221783436834812164e-02 4.029151424765586853e-02 1.453894004225730896e-02 3.037727624177932739e-02 -2.158733643591403961e-02 -2.325571700930595398e-02 5.864450708031654358e-03 -4.020658507943153381e-02 5.981840658932924271e-03 3.237824421375989914e-03 -7.699497509747743607e-03 5.531821027398109436e-02 8.696931414306163788e-03 -2.092393487691879272e-02 7.147842552512884140e-04 -6.688748300075531006e-02 1.195732504129409790e-02 8.975957520306110382e-03 1.515445113182067871e-02 9.711167775094509125e-03 -2.261518500745296478e-02 -5.420838296413421631e-02 -2.532751485705375671e-02 2.577323652803897858e-02 -2.288685925304889679e-02 1.588327810168266296e-02 1.687865518033504486e-02 -1.724162697792053223e-02 -1.695981621742248535e-02 5.398980155587196350e-02 1.429534610360860825e-02 -1.160660665482282639e-02 1.909909956157207489e-02 -1.717802137136459351e-02 1.641149818897247314e-02 -4.643545544240623713e-04 -2.922469004988670349e-02 -4.455279186367988586e-02 4.194170981645584106e-02 2.900758385658264160e-02 -1.112151611596345901e-02 5.868075881153345108e-03 9.306323714554309845e-03 -9.044546633958816528e-03 1.472987327724695206e-02 2.701366785913705826e-03 4.065750911831855774e-02 -2.220278792083263397e-02 2.272725291550159454e-02 -1.365064736455678940e-02 -3.631672298070043325e-04 -4.390437155961990356e-03 -5.972376675345003605e-04 -3.035791032016277313e-02 -5.032461136579513550e-03 -2.194472216069698334e-02 3.552999719977378845e-02 -3.538100048899650574e-02 -3.213015198707580566e-02 1.806736551225185394e-02 -4.970414564013481140e-02 1.728010922670364380e-02 4.045158624649047852e-03 2.827133052051067352e-03 -3.566811559721827507e-03 -2.541326358914375305e-02 -2.353621087968349457e-02 -1.634941622614860535e-02 -6.313560530543327332e-03 4.689062759280204773e-02 -8.312986232340335846e-03 -1.854265853762626648e-02 1.261976361274719238e-02 2.761560678482055664e-02 -1.582181453704833984e-02 1.326523022726178169e-03 9.375958470627665520e-04 1.550882589071989059e-02 2.629585191607475281e-02 5.951112136244773865e-03 -9.363872930407524109e-03 -2.923937886953353882e-02 -1.620085909962654114e-02 1.036576740443706512e-02 -2.954672090709209442e-02 3.210149705410003662e-03 4.210648685693740845e-02 1.205397583544254303e-02 1.267038751393556595e-03 -6.121207959949970245e-03 2.590712904930114746e-02 1.312606688588857651e-02 1.422564126551151276e-02 1.135896891355514526e-02 2.105204184772446752e-04 2.229216694831848145e-02 -3.437584266066551208e-03 -3.756072372198104858e-03 1.251101773232221603e-02 -1.594439521431922913e-02 4.081977158784866333e-02 1.213330402970314026e-02 1.206450909376144409e-02 -3.076976910233497620e-02 2.393931336700916290e-02 9.523794986307621002e-03 -1.165564637631177902e-02 -1.449185330420732498e-02 6.325112655758857727e-03 5.495873838663101196e-02 3.267242759466171265e-02 5.219804588705301285e-03 1.671899110078811646e-02 3.436954692006111145e-02 -1.340839080512523651e-02 -3.355331718921661377e-02 9.415829554200172424e-03 -3.470455110073089600e-02 -3.628716617822647095e-02 5.114956200122833252e-02 2.995020896196365356e-02 -3.120226413011550903e-02 4.439439997076988220e-02 1.738339290022850037e-02 2.657821401953697205e-03 1.876715011894702911e-02 -1.769687747582793236e-03 -9.078288450837135315e-03 -4.429358989000320435e-03 -3.398647159337997437e-02 -1.400397717952728271e-02 4.647304769605398178e-03 -1.406021323055028915e-02 3.974692523479461670e-02 2.844428271055221558e-02 2.002989873290061951e-02 -3.016467671841382980e-04 5.926810670644044876e-03 -2.178288251161575317e-02 4.651921987533569336e-02 -3.268820792436599731e-02 -6.341731641441583633e-03 1.209454610943794250e-03 1.730496250092983246e-02 4.838849883526563644e-03 -4.338792990893125534e-03 -2.012651599943637848e-02 -4.580475017428398132e-02 -4.748001322150230408e-02 -1.109061669558286667e-02 9.327678941190242767e-03 -3.502384200692176819e-02 -9.412806481122970581e-03 8.349029347300529480e-03 1.540529076009988785e-02 5.985787604004144669e-03 3.874571062624454498e-03 3.375351056456565857e-02 -4.541181772947311401e-02 8.030075579881668091e-03 -3.715201094746589661e-02 3.123966977000236511e-02 3.924565017223358154e-02 -1.428158581256866455e-02 2.642823010683059692e-02 6.752377748489379883e-02 6.177119910717010498e-02 -2.080046199262142181e-02 2.141145989298820496e-02 -4.588259849697351456e-03 -1.329945120960474014e-02 -1.534508354961872101e-02 8.535245433449745178e-03 2.950057759881019592e-02 -7.164212409406900406e-03 -7.927127182483673096e-03 1.273936778306961060e-02 -2.601420506834983826e-02 -4.781311750411987305e-02 5.752629949711263180e-04 -7.583696860820055008e-03 3.738282714039087296e-03 -3.907005768269300461e-03 3.085696836933493614e-03 -1.573617197573184967e-02 2.792570972815155983e-03 1.975035294890403748e-03 -2.228563837707042694e-02 1.273674331605434418e-02 -4.970822855830192566e-02 -2.583242766559123993e-02 -6.650937721133232117e-04 -5.332960933446884155e-02 3.803439438343048096e-02 -1.953420974314212799e-02 1.714886724948883057e-02 -1.103435270488262177e-02 -1.036921399645507336e-03 1.760764233767986298e-02 3.773611038923263550e-02 -1.813979633152484894e-02 -5.916409939527511597e-02 -2.615405805408954620e-02 -8.287167176604270935e-03 -1.848671771585941315e-02 1.278776116669178009e-02 -2.659025974571704865e-02 2.188489772379398346e-03 -4.851185157895088196e-02 3.555070981383323669e-02 2.325898222625255585e-02 2.634017355740070343e-02 1.506939716637134552e-02 4.648787155747413635e-02 4.887690767645835876e-02 1.772318966686725616e-02 1.076969597488641739e-02 -4.079826921224594116e-02 -4.050498537253588438e-04 4.088224470615386963e-02 4.572027921676635742e-02 -6.108190398663282394e-03 -6.989627145230770111e-03 -3.583911061286926270e-02 -1.009005121886730194e-02 -3.704572096467018127e-02 -2.111962437629699707e-02 -3.458937630057334900e-02 2.710968442261219025e-02 1.840301975607872009e-02 -2.685074135661125183e-02 8.772225119173526764e-03 -2.123083546757698059e-02 1.777576468884944916e-02 9.530921815894544125e-04 -6.472392380237579346e-02 3.082884475588798523e-02 -2.818199619650840759e-02 3.381404653191566467e-02 3.047965653240680695e-02 -9.686345234513282776e-03 2.173908799886703491e-02 -2.533476054668426514e-02 -1.595273800194263458e-02 2.245920011773705482e-03 -7.262764964252710342e-03 2.528302744030952454e-02 5.614094063639640808e-02 4.210646729916334152e-03 1.121434476226568222e-02 -3.934052586555480957e-02 -1.074380613863468170e-02 -9.751664474606513977e-03 -2.367005124688148499e-02 1.868455298244953156e-02 5.923679098486900330e-02 2.995414845645427704e-02 -1.118207536637783051e-02 -2.421592175960540771e-02 -4.630233626812696457e-03 4.104904457926750183e-02 -1.146397669799625874e-03 3.042234852910041809e-02 -1.543571986258029938e-02 -3.775252029299736023e-02 -1.734616048634052277e-02 1.665051095187664032e-02 4.089088737964630127e-02 -2.257326059043407440e-02 2.110057696700096130e-02 1.443338487297296524e-02 6.700254045426845551e-03 6.532643456012010574e-04 -1.194028742611408234e-02 2.070824801921844482e-02 -5.246973596513271332e-03 -1.363698672503232956e-02 -1.791581860743463039e-03 -1.199311763048171997e-02 2.553494460880756378e-02 1.758022978901863098e-02 -3.343154117465019226e-02 -5.401219427585601807e-02 -1.425275858491659164e-02 -2.284170128405094147e-02 5.052407830953598022e-02 4.358397424221038818e-02 6.231870502233505249e-02 -2.383897081017494202e-02 1.784329861402511597e-02 -2.838095836341381073e-02 -6.948412954807281494e-02 7.586068939417600632e-03 -1.432261988520622253e-02 1.515502016991376877e-02 -1.922481693327426910e-02 -1.035977806895971298e-02 -1.912947371602058411e-02 -1.793482713401317596e-02 4.850906133651733398e-02 5.083000287413597107e-02 -9.321309626102447510e-03 -1.619797549210488796e-03 -3.224020451307296753e-02 -1.854123175144195557e-02 1.280027627944946289e-02 -1.665760762989521027e-02 -3.318152949213981628e-02 -3.033430315554141998e-02 5.127866752445697784e-03 -1.377864647656679153e-02 4.543070390354841948e-04
-6.739746313542127609e-03 -2.777304500341415405e-02 7.867084816098213196e-03 -1.607975736260414124e-02 -3.241817280650138855e-02 2.724416740238666534e-02 1.597824320197105408e-02 1.484656333923339844e-02 -8.951794356107711792e-03 -5.675400048494338989e-02 3.488322719931602478e-02 3.069344721734523773e-02 -6.572762131690979004e-02 4.987676814198493958e-02 -1.324992254376411438e-02 1.251413393765687943e-02 2.570099011063575745e-02 2.055159024894237518e-02 3.406940773129463196e-02 2.173644304275512695e-02 3.625981137156486511e-02 -4.842409864068031311e-02 -3.030597604811191559e-02 -1.504123862832784653e-02 4.352770745754241943e-02 2.739838510751724243e-02 -4.739138297736644745e-03 -2.712464146316051483e-02 7.932114414870738983e-03 2.711826562881469727e-02 1.217995863407850266e-02 3.967118263244628906e-02 1.104031596332788467e-02 3.275579074397683144e-03 -1.819201186299324036e-02 -6.982033140957355499e-03 2.354783378541469574e-02 1.808664016425609589e-02 2.028066664934158325e-02 7.771849166601896286e-03 -3.352782875299453735e-02 -2.356503717601299286e-02 -3.594196215271949768e-02 -1.123088505119085312e-02 -5.261210259050130844e-03 -2.412506192922592163e-02 -6.402448564767837524e-02 3.130050748586654663e-02 2.264804951846599579e-02 1.328335516154766083e-02 -1.004624180495738983e-02 -1.655684225261211395e-02 -1.014035660773515701e-02 -1.158528588712215424e-02 7.684729993343353271e-02 -2.670934423804283142e-03 -1.164192426949739456e-02 1.191786304116249084e-02 1.327589433640241623e-02 1.792235858738422394e-02 3.665305674076080322e-02 1.172156631946563721e-02 -5.762206390500068665e-03 2.107941731810569763e-02 1.914582960307598114e-02 -1.188465021550655365e-02 -1.278150919824838638e-02 -4.155539348721504211e-02 1.729348115622997284e-02 6.092490255832672119e-02 -7.779531646519899368e-03 2.505473792552947998e-02 -1.905629411339759827e-02 8.582957088947296143e-03 7.376041030511260033e-04 -4.901535063982009888e-02 -9.348099119961261749e-03 -2.466322109103202820e-02 1.066699903458356857e-02 -5.837440863251686096e-02 -1.782335527241230011e-02 -2.854817779734730721e-03 -1.871634647250175476e-02 1.571320183575153351e-02 8.122205734252929688e-03 -9.979185415431857109e-04 1.797593012452125549e-02 1.667414978146553040e-02 -9.339430369436740875e-03 2.792597375810146332e-02 -1.650751940906047821e-02 -3.711044043302536011e-02 3.962473943829536438e-03 1.301216427236795425e-02 2.305699884891510010e-02 -4.025247413665056229e-03 1.390222087502479553e-02 3.607286512851715088e-02 -2.401357330381870270e-02 1.446391735225915909e-02 -1.714342460036277771e-02 1.155888102948665619e-02 -5.558759346604347229e-02 -2.593841403722763062e-02 7.186202798038721085e-03 1.803447143174707890e-03 4.885959438979625702e-03 6.182009354233741760e-03 1.606493629515171051e-02 2.882196009159088135e-02 -2.193298377096652985e-02 -2.171267755329608917e-03 1.116718072444200516e-02 -3.009957633912563324e-02 -1.377103198319673538e-02 8.293184451758861542e-03 2.984503842890262604e-02 -2.697026822715997696e-03 -8.323702961206436157e-03 1.197609864175319672e-02 8.611651137471199036e-03 -5.877301096916198730e-03 -1.287877745926380157e-02 -1.328522153198719025e-02 2.442036382853984833e-02 -2.740843966603279114e-02 5.526413396000862122e-02 -1.500030700117349625e-02 -2.218726277351379395e-02 3.456705063581466675e-02 2.248146198689937592e-02 3.732936084270477295e-02 -3.384969010949134827e-02 5.336313974112272263e-03 2.051989734172821045e-02 1.423536054790019989e-02 1.989310421049594879e-02 -4.565147683024406433e-02 -3.469505580142140388e-03 2.262010052800178528e-02 3.045699559152126312e-02 -1.025270391255617142e-02 -1.254907227121293545e-03 2.796076610684394836e-02 2.074828930199146271e-02 -2.284789830446243286e-02 2.947814762592315674e-02 2.758509479463100433e-02 2.938168309628963470e-02 6.139909237390384078e-05 -4.837545566260814667e-03 2.904176525771617889e-02 1.378745364490896463e-04 -2.377002686262130737e-02 1.418075407855212688e-03 3.050295636057853699e-02 3.011245047673583031e-03 -6.015374325215816498e-03 2.027405425906181335e-02 1.822102814912796021e-02 1.051837019622325897e-02 3.158089239150285721e-03 2.351493760943412781e-02 -4.095156211405992508e-03 -1.589617319405078888e-02 -5.501656606793403625e-02 -1.122936699539422989e-02 -2.302812971174716949e-02 9.362750686705112457e-03 -5.440776422619819641e-02 2.353362552821636200e-02 3.299356997013092041e-02 -1.935818418860435486e-02 -1.586768031120300293e-02 1.484271883964538574e-02 -2.837781235575675964e-02 3.366415202617645264e-02 2.073457650840282440e-02 -6.438578129746019840e-04 2.020106185227632523e-03 -5.133643373847007751e-02 3.988677170127630234e-03 -1.368372235447168350e-02 6.657464057207107544e-02 -3.572756424546241760e-02 -1.519067678600549698e-02 -1.168552134186029434e-02 1.260893605649471283e-02 -2.437181584537029266e-02 -1.743177697062492371e-02 -2.368732355535030365e-02 -3.786865621805191040e-02 3.497773408889770508e-02 -3.763677552342414856e-02 2.180179581046104431e-02 -1.809004694223403931e-02 2.795973606407642365e-02 4.207563772797584534e-02 -2.867952920496463776e-02 3.973377868533134460e-02 -2.592571079730987549e-02 -5.425645783543586731e-02 -6.734988186508417130e-03 -1.378522161394357681e-02 -5.618738941848278046e-03 2.218426438048481941e-03 -4.750957340002059937e-02 4.406520631164312363e-03 1.139816176146268845e-02 -2.155564725399017334e-02 5.363428592681884766e-02 -3.476293385028839111e-02 -1.590770296752452850e-02 -4.025249183177947998e-02 -2.292395196855068207e-02 4.308990016579627991e-02 -2.732054330408573151e-02 2.666163444519042969e-02 1.250137854367494583e-02 -1.043694186955690384e-02 -3.898088634014129639e-02 1.850541494786739349e-02 5.426975432783365250e-03 -7.042269408702850342e-02 -1.359776942990720272e-03 1.564405299723148346e-02 3.335778787732124329e-02 -1.280389167368412018e-02 7.488772273063659668e-03 -2.090388908982276917e-03 3.724122419953346252e-02 1.275803893804550171e-02 4.731115419417619705e-03 4.235928505659103394e-02 -7.750529330223798752e-03 -2.893989905714988708e-02 -3.485762327909469604e-02 -1.966674346476793289e-03 4.850118234753608704e-02 -4.196650162339210510e-02 -2.602306008338928223e-02 -5.505445227026939392e-02 -5.411438178271055222e-04 3.340347856283187866e-02 -2.491765480954200029e-04 6.642703432589769363e-03 9.260307066142559052e-03 -1.439613848924636841e-02 -5.166476592421531677e-02 4.386636987328529358e-02 4.618344828486442566e-02 4.307471960783004761e-02 -3.175080521032214165e-03 -8.188585750758647919e-03 1.220242958515882492e-02 -5.310763046145439148e-02 -8.382511325180530548e-03 1.304978970438241959e-02 2.091120742261409760e-02 -2.255509607493877411e-02 3.608257323503494263e-02 1.727365329861640930e-02 7.644010335206985474e-02 1.650901511311531067e-03 2.139095030725002289e-02 -2.653874270617961884e-02 1.095191808417439461e-03 -1.530420035123825073e-02 1.629324816167354584e-02 1.296637021005153656e-02 1.736837811768054962e-02 -2.786775864660739899e-02 -4.507567733526229858e-03 -3.353260830044746399e-02 6.513828877359628677e-03 5.770637094974517822e-02 -2.482771815266460180e-04 8.547377772629261017e-03 4.721169173717498779e-02 2.996335551142692566e-02 2.009607478976249695e-02 -2.036074176430702209e-03 -3.872885834425687790e-03 8.681646548211574554e-03 3.904254734516143799e-02 -7.324628997594118118e-03 3.915422782301902771e-02 1.048628520220518112e-02 2.387344837188720703e-02 4.489493742585182190e-02 -4.373653233051300049e-02 1.000147499144077301e-02 2.329510869458317757e-03 -1.388720981776714325e-02 2.665227092802524567e-02 8.864583214744925499e-04 3.475371375679969788e-02 -9.315401315689086914e-03 -2.702902536839246750e-03 1.088306400924921036e-02 -1.103495433926582336e-01 -2.561485581099987030e-02 1.785643026232719421e-02 1.159105449914932251e-02 2.451106719672679901e-02 1.934340596199035645e-02 3.867577062919735909e-03 -6.281754933297634125e-03 1.311827654717490077e-04 -6.705531268380582333e-04 -3.301350772380828857e-02 -4.536957666277885437e-02 4.085092991590499878e-02 -6.861069053411483765e-02 -5.673767998814582825e-03 5.237777158617973328e-02 3.690437972545623779e-02 -1.388560049235820770e-02 -5.510954186320304871e-02 -4.279701970517635345e-03 -3.206524997949600220e-02 2.950653061270713806e-02 8.832729421555995941e-03 1.741408556699752808e-02 -4.228274896740913391e-02 -4.119740799069404602e-02 3.327900916337966919e-02 3.310238942503929138e-02 2.566336095333099365e-02 2.796913497149944305e-02 5.058806389570236206e-03 2.846472151577472687e-02 4.455130174756050110e-02 -4.193808417767286301e-04 3.881585225462913513e-02 2.557065151631832123e-02 6.133855879306793213e-02 2.763257548213005066e-02 5.509604513645172119e-02 -2.298803254961967468e-02 1.800411194562911987e-02 -3.419749811291694641e-02 1.920484006404876709e-02 8.450675755739212036e-03 7.527098990976810455e-03 -3.059722855687141418e-02 1.059953821823000908e-03 -5.929497070610523224e-03 5.576921999454498291e-02 3.658242151141166687e-02 7.214537472464144230e-04 -3.092158026993274689e-02 2.455459535121917725e-02 3.245292976498603821e-02 -4.124883934855461121e-02 -2.472073398530483246e-02 -3.162188827991485596e-02 -4.210260231047868729e-03 -4.384574946016073227e-03 -1.934200525283813477e-02 4.579960554838180542e-02 7.632321212440729141e-03 3.433622419834136963e-02 3.227071464061737061e-02 -3.158496692776679993e-02 -4.686254076659679413e-03 -2.310416474938392639e-02 1.182576920837163925e-02 -5.321085453033447266e-02 -4.709038510918617249e-02 -5.036655068397521973e-02 -1.977930031716823578e-02 6.010454520583152771e-02 2.947953296825289726e-03 -4.086180403828620911e-02 -1.637187413871288300e-02 2.306118980050086975e-02 -1.195734087377786636e-02 -8.192175067961215973e-03 -4.432857502251863480e-03 -7.263121660798788071e-03 1.242865994572639465e-02 -2.425602171570062637e-03 -3.148633241653442383e-02 -2.235827781260013580e-02 -2.253584004938602448e-02 -1.075010746717453003e-02 1.708406768739223480e-02 -2.949265390634536743e-02 -3.042959235608577728e-02 -2.486114948987960815e-02 3.692909330129623413e-02 5.271384492516517639e-03 2.655271999537944794e-02 3.860096260905265808e-02 4.758003633469343185e-03 -3.727161884307861328e-02 -3.216633200645446777e-02 -1.532476954162120819e-02 -2.398810815066099167e-03 6.235382519662380219e-03 1.881768740713596344e-02 1.855813898146152496e-02 6.710589677095413208e-02 1.065137982368469238e-02 -2.299407497048377991e-02 3.949638921767473221e-03 -4.416588693857192993e-03 1.173651963472366333e-02 3.710881108418107033e-03 4.244112223386764526e-02 4.617033898830413818e-02 -1.108605531044304371e-03 -7.645967882126569748e-03 -4.676895961165428162e-02 -1.843120204284787178e-03 6.546712666749954224e-02 1.345925405621528625e-02 5.113538354635238647e-03 3.985489252954721451e-03 3.799736127257347107e-02 6.985794752836227417e-03 -8.147124201059341431e-03 2.625830844044685364e-02 -5.435083433985710144e-02 1.749017462134361267e-02 4.442735761404037476e-02 -7.410583086311817169e-03 -2.184568904340267181e-02 -5.127660185098648071e-02 4.557708743959665298e-03 1.383059192448854446e-02 -5.082395300269126892e-02 -6.230499129742383957e-03 5.647815763950347900e-03 -4.915412887930870056e-02 -5.006463453173637390e-02 -3.419892489910125732e-02 -8.899739012122154236e-03 6.226222962141036987e-03 2.301891520619392395e-02 -4.567252099514007568e-02 1.607290119864046574e-03 -2.447004243731498718e-02 -3.163591958582401276e-03 1.764385774731636047e-02 5.899124662391841412e-04 4.566309871734119952e-05 -1.282709930092096329e-02 -1.355121377855539322e-02 -3.074815124273300171e-02 1.040270552039146423e-02 -2.258123457431793213e-02 -7.223965600132942200e-03 -1.298338919878005981e-02 1.961442641913890839e-02 1.383635122328996658e-02 -5.576950684189796448e-02 -1.027401909232139587e-02 1.049070386216044426e-03 -7.652869448065757751e-03 1.920492388308048248e-02 3.217699378728866577e-02 1.488559879362583160e-02 8.044031448662281036e-03 -5.588796921074390411e-03 2.294673817232251167e-03 4.836021922528743744e-03 3.187961503863334656e-02 -4.844890441745519638e-03 3.927046805620193481e-02 -8.644863963127136230e-03 5.881769582629203796e-02 1.238134410232305527e-02 -1.817754842340946198e-02 -4.091270267963409424e-03 5.294996313750743866e-03 2.616791985929012299e-02 1.705881324596703053e-03 8.015973493456840515e-03 6.634267512708902359e-03 -1.322320476174354553e-02 3.267106413841247559e-02 -1.043015904724597931e-02 -3.131502866744995117e-02 -1.810761541128158569e-02 -7.641160860657691956e-03 -2.244532108306884766e-02 9.358046576380729675e-03 -8.822148665785789490e-03 2.084415778517723083e-02 -4.132642596960067749e-02 1.881794258952140808e-02 2.627007896080613136e-03 -5.256107449531555176e-02 4.648941755294799805e-02 -9.537096135318279266e-03 2.230245247483253479e-02 -1.965259946882724762e-02 -2.218915149569511414e-02 -2.661688812077045441e-02 -4.138264805078506470e-02 -1.863140985369682312e-02 -2.215020358562469482e-02 5.936358124017715454e-03 1.407590508460998535e-02 -2.647628309205174446e-03 -7.040356751531362534e-03 -6.081980094313621521e-02 1.690434291958808899e-02 1.325306762009859085e-02 -4.796193912625312805e-02
-2.867570891976356506e-02 -6.527583464048802853e-04 1.401722244918346405e-02 -3.154402226209640503e-02 5.343728512525558472e-02 1.917740516364574432e-02 2.192998491227626801e-02 2.124293893575668335e-02 -1.151170022785663605e-02 2.078728564083576202e-02 -2.612124569714069366e-02 -2.217144891619682312e-02 4.005380615126341581e-04 -3.971581533551216125e-02 1.143451780080795288e-02 5.040454491972923279e-02 5.765780806541442871e-02 4.142486024647951126e-03 2.718094736337661743e-02 -4.532292485237121582e-02 1.745568960905075073e-02 4.164453130215406418e-03 1.500036101788282394e-02 2.263493649661540985e-02 -2.992197638377547264e-03 2.621560590341687202e-03 1.871991343796253204e-02 3.268367052078247070e-02 -3.585962811484932899e-03 -9.053505957126617432e-03 2.229671180248260498e-02 -2.272941172122955322e-03 -3.679214417934417725e-02 -3.660652786493301392e-03 2.175410836935043335e-02 6.401510909199714661e-03 -3.248500172048807144e-03 2.403638325631618500e-03 8.922908455133438110e-03 -1.797029748558998108e-02 1.552111748605966568e-02 4.080264642834663391e-02 5.481413751840591431e-02 1.628564298152923584e-02 3.571129962801933289e-02 5.629254039376974106e-03 -1.370630506426095963e-02 2.208631485700607300e-02 2.804421633481979370e-02 2.004576101899147034e-02 2.243465930223464966e-02 -9.809577604755759239e-04 -2.415753155946731567e-02 -2.372141368687152863e-02 5.690408404916524887e-03 -1.387765817344188690e-02 -7.151104509830474854e-02 -8.371186442673206329e-03 4.391197115182876587e-02 2.949655614793300629e-02 -3.469632565975189209e-02 -1.957090012729167938e-02 2.342867664992809296e-03 2.575102262198925018e-02 4.190749675035476685e-02 2.143695391714572906e-02 1.448277290910482407e-02 -1.460100524127483368e-02 2.345409803092479706e-02 1.601328887045383453e-02 -1.655560545623302460e-02 -1.288785785436630249e-02 1.048242487013339996e-02 -3.125844150781631470e-02 1.398850884288549423e-02 -8.616534993052482605e-03 -1.460859831422567368e-02 4.966427385807037354e-02 -1.534413546323776245e-02 -2.803025953471660614e-02 3.374627977609634399e-02 4.078423976898193359e-02 -1.682864688336849213e-02 -4.139272496104240417e-02 -2.868805825710296631e-02 -2.691671252250671387e-03 8.785990998148918152e-03 2.340918406844139099e-02 -2.713184058666229248e-02 6.969294510781764984e-03 -1.307182665914297104e-02 1.624725759029388428e-02 1.578107848763465881e-02 -2.670849440619349480e-03 -1.127916295081377029e-02 -2.324993908405303955e-02 3.068145178258419037e-02 2.602042257785797119e-02 7.415892090648412704e-03 -4.664286505430936813e-03 -3.160747885704040527e-02 -3.216001018881797791e-02 -2.129357308149337769e-02 1.186818163841962814e-02 -1.091555505990982056e-02 7.814871147274971008e-03 3.395173116587102413e-04 3.302167356014251709e-02 1.817773468792438507e-02 -7.665552198886871338e-03 4.558133892714977264e-03 -6.017005071043968201e-03 -7.672328036278486252e-03 3.337984904646873474e-02 2.105578966438770294e-02 2.900933846831321716e-02 2.649632515385746956e-04 -2.445394871756434441e-03 -3.614396089687943459e-03 -2.453320845961570740e-02 -1.348741352558135986e-02 -1.819171756505966187e-02 -1.682449877262115479e-02 -3.062666207551956177e-02 -3.147618100047111511e-02 -1.934322901070117950e-02 3.582239151000976562e-02 -1.373614184558391571e-03 -6.550631485879421234e-03 2.763359062373638153e-02 7.891343906521797180e-03 -4.472618922591209412e-02 -1.108583156019449234e-02 -3.292416408658027649e-02 1.979456096887588501e-02 -1.977851614356040955e-02 -1.538961310870945454e-03 -2.851952984929084778e-02 2.481320500373840332e-02 2.103392779827117920e-02 3.616220131516456604e-02 1.586393266916275024e-02 -1.662215800024569035e-03 2.711065113544464111e-02 -2.632881887257099152e-02 -2.719536609947681427e-02 -1.337970048189163208e-02 7.335051428526639938e-03 1.923904754221439362e-02 -5.004228558391332626e-03 2.399128489196300507e-02 3.005708102136850357e-03 -2.231366373598575592e-02 9.732218459248542786e-03 1.195016596466302872e-02 -2.105344459414482117e-02 -2.712590992450714111e-02 -1.210557483136653900e-02 -3.329908847808837891e-02 -1.222345745190978050e-03 8.597479318268597126e-04 -2.665443159639835358e-02 2.570830984041094780e-04 1.172409858554601669e-02 2.940317057073116302e-02 1.185694709420204163e-02 2.768449485301971436e-02 3.845374286174774170e-02 1.709084585309028625e-02 -2.336341515183448792e-02 2.593853510916233063e-02 9.024967439472675323e-04 9.707108139991760254e-03 5.036582797765731812e-02 1.774568483233451843e-02 -1.507063116878271103e-02 -6.126835476607084274e-03 -2.734994702041149139e-02 4.185840487480163574e-02 -1.425603125244379044e-02 -2.305742911994457245e-02 -6.679985672235488892e-02 5.003399681299924850e-03 6.449035834521055222e-03 5.164597928524017334e-02 -1.069938112050294876e-02 -3.311476111412048340e-02 -1.734700053930282593e-02 1.000044122338294983e-02 1.289833616465330124e-02 -6.752764806151390076e-03 1.492035202682018280e-02 1.250212732702493668e-02 -1.560797076672315598e-02 8.567683980800211430e-04 7.589081767946481705e-03 -1.347551494836807251e-02 1.134544704109430313e-02 3.175190463662147522e-02 -4.499017819762229919e-02 -4.309820383787155151e-02 2.721592970192432404e-02 -9.407258592545986176e-03 2.473494969308376312e-02 -2.290115132927894592e-02 2.734556328505277634e-03 1.376910135149955750e-03 2.112202718853950500e-02 -4.043370112776756287e-02 -5.768710281699895859e-03 -4.792940802872180939e-03 -8.539288304746150970e-03 -5.231399834156036377e-02 -1.795697771012783051e-02 2.842729352414608002e-02 -4.490184411406517029e-02 2.310425043106079102e-02 -4.755935445427894592e-02 4.522605612874031067e-02 1.031439658254384995e-02 6.203607656061649323e-03 3.196916729211807251e-02 3.074779547750949860e-02 -2.636645361781120300e-02 -1.192319672554731369e-02 -3.758350014686584473e-02 4.020535852760076523e-03 4.519826546311378479e-02 -2.473129518330097198e-02 -3.915281593799591064e-02 -2.114772610366344452e-02 4.184785764664411545e-03 7.187992800027132034e-03 -1.733746379613876343e-02 3.302165493369102478e-02 -2.803075825795531273e-03 -7.977636530995368958e-03 -2.603866904973983765e-02 -1.403326075524091721e-02 4.382830113172531128e-02 -1.845062337815761566e-02 -2.878762222826480865e-02 6.932665128260850906e-03 1.703108288347721100e-02 -6.554429419338703156e-03 4.619748145341873169e-02 -4.224859923124313354e-02 -1.293333619832992554e-02 1.597543247044086456e-02 -1.739536598324775696e-02 9.617392061045393348e-05 4.542836919426918030e-03 -1.534301694482564926e-02 -2.586297318339347839e-02 -4.278016742318868637e-03 3.221679478883743286e-02 -3.189681842923164368e-02 1.683588325977325439e-02 -1.998693449422717094e-03 -1.381900068372488022e-02 1.619419455528259277e-02 -5.542644299566745758e-03 -6.866393238306045532e-02 5.208785459399223328e-02 2.552299946546554565e-02 3.610475687310099602e-03 -1.883900165557861328e-02 -1.443489547818899155e-02 6.620980799198150635e-03 1.692819222807884216e-02 -2.104710042476654053e-02 -1.777955330908298492e-02 -1.397113967686891556e-02 -1.440427266061306000e-02 1.721219904720783234e-02 -3.520865365862846375e-02 8.736998774111270905e-03 1.266375742852687836e-02 -7.038889452815055847e-03 1.529671251773834229e-02 1.515071652829647064e-02 -9.337593801319599152e-03 -2.448273077607154846e-02 -4.136694595217704773e-02 2.621563896536827087e-02 4.046651721000671387e-02 2.300086989998817444e-02 -1.087583415210247040e-02 -7.387956604361534119e-03 7.695255801081657410e-03 -1.356886979192495346e-02 -7.054057717323303223e-02 -2.619049884378910065e-02 -2.350038476288318634e-02 -8.028838783502578735e-03 1.641834503971040249e-03 4.485894925892353058e-03 7.201680447906255722e-03 1.581285707652568817e-02 1.432426646351814270e-02 3.487294912338256836e-02 -4.233277216553688049e-02 -8.102604188024997711e-03 -9.540594764985144138e-04 -7.585377898067235947e-03 -1.623673923313617706e-02 -1.123189553618431091e-02 -3.659129608422517776e-03 -2.832081355154514313e-02 -4.354906454682350159e-02 -5.572489649057388306e-02 -5.227458663284778595e-03 -2.416429342702031136e-03 -3.700214251875877380e-02 -6.876161321997642517e-03 -1.585065503604710102e-03 -9.319351986050605774e-03 -2.483394183218479156e-02 8.540548384189605713e-03 2.692687697708606720e-02 2.712965384125709534e-02 -2.237337268888950348e-02 1.753585226833820343e-02 1.258233562111854553e-02 5.161895230412483215e-02 1.973108761012554169e-02 2.292109653353691101e-02 3.672131570056080818e-03 2.292723860591650009e-03 -2.811007946729660034e-02 4.040556773543357849e-02 -2.523999847471714020e-02 -1.663142465986311436e-03 -3.364251554012298584e-02 -9.195269085466861725e-03 9.278055280447006226e-03 -1.856439560651779175e-02 2.001000382006168365e-02 -1.769493333995342255e-02 1.525106374174356461e-03 -1.606833375990390778e-02 6.288975477218627930e-02 -2.224388346076011658e-02 3.290116414427757263e-02 3.090784186497330666e-03 2.631501108407974243e-02 4.017701745033264160e-02 -4.914299398660659790e-02 -2.161123044788837433e-02 -5.456962808966636658e-02 -1.838979870080947876e-02 -2.175290323793888092e-02 -5.465548858046531677e-02 -1.011398714035749435e-02 1.656638574786484241e-03 -2.966896258294582367e-02 3.738061059266328812e-04 1.719308458268642426e-02 -2.316783182322978973e-02 -2.069068886339664459e-02 -1.705732010304927826e-02 6.270468235015869141e-03 -1.017963886260986328e-02 4.138144198805093765e-03 -5.819601938128471375e-02 4.651532974094152451e-03 -2.368398196995258331e-02 3.002250799909234047e-03 5.067722126841545105e-02 2.149440534412860870e-02 3.112580813467502594e-02 -1.129379961639642715e-02 -3.116058558225631714e-02 -5.580167053267359734e-04 5.361269786953926086e-02 -5.483593326061964035e-03 2.429435728117823601e-03 -3.765823552384972572e-03 4.036731272935867310e-02 4.524964606389403343e-04 7.307736203074455261e-03 1.336121058557182550e-04 -4.961345344781875610e-03 1.857329532504081726e-02 2.421366609632968903e-02 -1.077209040522575378e-02 2.702938858419656754e-03 -2.438816800713539124e-02 1.827409490942955017e-02 5.097054690122604370e-02 6.189232692122459412e-03 4.934579506516456604e-02 2.178738452494144440e-02 8.779088035225868225e-03 2.160346508026123047e-02 -1.604409515857696533e-02 2.834426122717559338e-04 3.611146530602127314e-04 -2.556588687002658844e-02 2.339395694434642792e-02 6.908511742949485779e-03 -4.038153588771820068e-02 1.059348043054342270e-02 -1.196215022355318069e-02 1.813567802309989929e-02 8.864448405802249908e-03 -1.216722745448350906e-02 3.891201224178075790e-03 5.317023023962974548e-03 -9.008836001157760620e-03 -1.712922379374504089e-02 -4.617229104042053223e-03 -3.417090699076652527e-02 -1.523737143725156784e-02 -4.336069151759147644e-02 1.474000327289104462e-02 2.146977931261062622e-03 -1.298563275486230850e-02 -9.393031708896160126e-03 -1.829544641077518463e-02 -9.105855599045753479e-03 7.685258518904447556e-03 2.207468450069427490e-02 -7.413925137370824814e-03 4.877512902021408081e-02 -2.637784928083419800e-02 9.421413764357566833e-03 2.382020279765129089e-02 -3.291848674416542053e-02 2.558697015047073364e-02 -2.076520957052707672e-02 8.555277250707149506e-03 4.380354285240173340e-02 1.616679690778255463e-02 5.741799995303153992e-02 -2.084259130060672760e-02 2.778020873665809631e-02 -2.199026942253112793e-02 1.476812758482992649e-03 3.845339640974998474e-02 -2.476319670677185059e-03 1.285535097122192383e-02 -1.293368171900510788e-02 2.530482131987810135e-03 1.503703999333083630e-03 2.593443542718887329e-02 2.223183400928974152e-03 -3.481058403849601746e-02 -4.280118644237518311e-02 -1.156928762793540955e-02 1.035986933857202530e-03 1.323546655476093292e-02 9.517381899058818817e-03 6.883691065013408661e-03 -3.419852582737803459e-03 2.040849812328815460e-02 7.584433536976575851e-03 -7.636016700416803360e-03 -2.820462454110383987e-03 1.406155619770288467e-02 6.140083540230989456e-03 -1.860285876318812370e-03 -2.503352425992488861e-02 3.126868605613708496e-02 -6.427362561225891113e-03 4.871709272265434265e-02 1.310655754059553146e-02 -2.424648776650428772e-02 -1.314793154597282410e-02 -1.532291993498802185e-02 1.890405267477035522e-02 2.311713295057415962e-03 9.107757359743118286e-03 3.188594477251172066e-03 4.206549748778343201e-02 9.122272022068500519e-03 1.005188375711441040e-02 -4.343776404857635498e-02 2.264069020748138428e-02 -1.401105988770723343e-02 4.059932008385658264e-02 -9.658479131758213043e-03 -8.704952197149395943e-04 -2.980367653071880341e-02 -3.177107498049736023e-02 2.048751711845397949e-02 5.554127320647239685e-02 -3.294089343398809433e-03 -2.386681362986564636e-02 4.708301275968551636e-02 3.057457506656646729e-02 4.204605892300605774e-02 1.568174734711647034e-02 2.804237417876720428e-03 5.953142791986465454e-02 2.737514302134513855e-02 -2.887539006769657135e-02 -5.384075921028852463e-04 2.200118638575077057e-02 -3.077350743114948273e-02 1.876256428658962250e-02 5.087563022971153259e-02 4.038490355014801025e-02 -9.015071205794811249e-03 -8.170587010681629181e-03 -1.640071161091327667e-02 1.541243121027946472e-02 5.229184869676828384e-03 5.381770804524421692e-02 -1.641207747161388397e-02 -2.782292477786540985e-02 6.674636155366897583e-03
3.249382227659225464e-02 -3.205599728971719742e-03 -2.831261232495307922e-02 -8.871802128851413727e-03 3.076331689953804016e-03 4.041107743978500366e-02 -2.895203977823257446e-02 2.598926983773708344e-02 -2.729806117713451385e-03 -1.028683595359325409e-02 1.302583608776330948e-02 1.095387618988752365e-02 -6.483437493443489075e-03 -1.220942474901676178e-02 -3.129295259714126587e-02 2.786288270726799965e-03 2.847011759877204895e-02 1.186759583652019501e-02 -2.661048434674739838e-02 -1.471496187150478363e-02 1.580229029059410095e-02 1.527999527752399445e-02 5.721408128738403320e-02 -3.348557802382856607e-04 2.191020175814628601e-02 4.333583172410726547e-03 -3.198838606476783752e-02 4.648462310433387756e-02 -4.305212199687957764e-02 -8.603978203609585762e-04 7.731827907264232635e-03 -2.872169762849807739e-02 -4.093284159898757935e-02 -3.317985683679580688e-02 -1.035537384450435638e-02 6.476299464702606201e-02 -1.402314193546772003e-02 5.056704860180616379e-03 -5.849740002304315567e-03 2.727799490094184875e-02 5.592265632003545761e-03 7.331032771617174149e-03 1.122476533055305481e-02 -2.933635376393795013e-02 -4.710491746664047241e-03 -3.236382827162742615e-02 -1.530951121821999550e-04 -1.036568265408277512e-02 -3.423827141523361206e-02 -2.952855452895164490e-02 1.229322701692581177e-02 -5.588084924966096878e-03 -1.571221277117729187e-02 4.891793802380561829e-02 -1.390378270298242569e-02 -1.915790699422359467e-02 2.178557403385639191e-02 1.468623150140047073e-02 -6.926683243364095688e-03 2.740742266178131104e-02 -2.738644182682037354e-02 -1.497793011367321014e-02 1.409201417118310928e-02 5.042048171162605286e-03 -3.388203307986259460e-02 -3.213477134704589844e-02 -3.315057232975959778e-02 -3.007786814123392105e-03 6.946784444153308868e-03 -2.638505585491657257e-02 2.407485060393810272e-02 -1.809921674430370331e-02 3.043038211762905121e-02 1.840740442276000977e-02 -2.280104346573352814e-02 -8.655427955090999603e-03 -1.658497005701065063e-02 -2.126054838299751282e-02 -1.433574408292770386e-02 5.815587937831878662e-03 -1.691027171909809113e-02 3.064170293509960175e-02 -2.764287218451499939e-02 4.262479022145271301e-02 -1.616817526519298553e-02 -2.427740022540092468e-02 4.804736748337745667e-02 -2.314680255949497223e-02 3.030793741345405579e-02 -3.811997175216674805e-02 8.361962623894214630e-03 9.033370763063430786e-03 2.542008645832538605e-02 3.462207270786166191e-03 -7.025703322142362595e-03 -1.159333530813455582e-02 5.522344261407852173e-03 5.276635289192199707e-03 2.140786685049533844e-02 1.370114623568952084e-03 2.031748928129673004e-02 3.256709314882755280e-03 5.884063988924026489e-02 -5.047542601823806763e-02 9.463573805987834930e-03 -6.844955962151288986e-03 8.629319258034229279e-03 -2.845973521471023560e-02 1.773882657289505005e-03 -1.359082013368606567e-02 3.186919959262013435e-03 -2.920294180512428284e-02 2.222829032689332962e-03 -1.932598970597609878e-04 -6.530767306685447693e-03 -1.728093251585960388e-02 -2.368774451315402985e-02 -3.816964477300643921e-02 2.004795894026756287e-02 -2.302932739257812500e-02 5.521671846508979797e-02 3.775251284241676331e-02 -1.855868101119995117e-02 -1.517546549439430237e-02 -1.190819125622510910e-02 1.034984271973371506e-02 6.687756162136793137e-03 -1.238233409821987152e-02 -2.572965994477272034e-02 -3.524839505553245544e-02 5.651998799294233322e-03 3.167134523391723633e-02 -1.464185304939746857e-02 -3.272331133484840393e-02 -8.841351605951786041e-03 3.149269893765449524e-02 1.514334231615066528e-02 -7.522869855165481567e-03 2.099312096834182739e-02 1.158784981817007065e-02 -1.749860495328903198e-02 7.339671719819307327e-03 -3.866267204284667969e-02 -4.513118043541908264e-02 -2.147011272609233856e-02 -1.345227472484111786e-02 8.162309532053768635e-04 -3.035972826182842255e-02 3.472284181043505669e-03 -5.352116189897060394e-03 9.711665101349353790e-03 -1.502109412103891373e-02 -2.874074317514896393e-02 2.664622664451599121e-02 2.349609509110450745e-03 1.484304573386907578e-02 -3.802311548497527838e-04 9.957009460777044296e-04 2.311397111043334007e-03 2.991111390292644501e-02 7.142432965338230133e-03 3.530219942331314087e-02 5.999784916639328003e-02 2.522150240838527679e-02 6.104561313986778259e-02 1.327049732208251953e-02 -1.251894049346446991e-02 -1.634622365236282349e-02 5.171894654631614685e-02 -7.007312029600143433e-02 2.282922528684139252e-02 4.868461191654205322e-02 2.020573616027832031e-02 -3.393921256065368652e-02 -3.266791254281997681e-02 6.642832607030868530e-02 3.816003352403640747e-02 3.243080899119377136e-02 -1.726596802473068237e-02 3.555817157030105591e-02 -7.084704004228115082e-03 -3.419731184840202332e-02 -9.066766127943992615e-03 -7.434966042637825012e-03 4.514211043715476990e-02 3.717356230481527746e-05 2.163537405431270599e-02 -1.889117620885372162e-02 3.002492245286703110e-03 -3.055541031062602997e-02 -2.267380245029926300e-02 -1.439811382442712784e-02 5.894253030419349670e-03 -1.550977490842342377e-02 1.869290252216160297e-03 -1.850778795778751373e-02 -3.038032539188861847e-02 -2.421952597796916962e-02 -2.250543795526027679e-02 -2.795574069023132324e-02 -7.074587512761354446e-03 1.485622674226760864e-02 -2.664297120645642281e-03 -3.657687082886695862e-02 1.723244786262512207e-02 -1.411278359591960907e-02 -4.232883825898170471e-02 -1.758830808103084564e-02 -4.202000796794891357e-02 1.584403653396293521e-04 9.452140890061855316e-03 -9.912346722558140755e-04 -2.884004078805446625e-02 9.827214293181896210e-03 2.571317367255687714e-02 -6.569964345544576645e-03 -1.989511959254741669e-02 7.528428919613361359e-03 3.494066884741187096e-03 1.397599931806325912e-03 -3.312914818525314331e-02 -4.767096601426601410e-03 -8.416672353632748127e-04 -4.368330910801887512e-02 -7.174538448452949524e-03 -3.193122893571853638e-02 3.042096272110939026e-03 9.891515946947038174e-05 5.804815143346786499e-02 -1.524505577981472015e-02 8.749962435103952885e-04 -1.392380683682858944e-03 -4.000758286565542221e-03 3.892436157912015915e-03 -4.205965436995029449e-03 -5.915878806263208389e-03 -3.577384864911437035e-03 3.289700672030448914e-02 -2.327794395387172699e-02 2.582275867462158203e-02 5.601818487048149109e-02 -1.425713114440441132e-02 -6.570150610059499741e-03 5.874045193195343018e-02 -1.957917958498001099e-02 1.604464650154113770e-02 -1.648720121011137962e-03 3.643351420760154724e-02 -5.996403284370899200e-03 -2.322770282626152039e-02 -8.159575052559375763e-03 2.827220968902111053e-02 3.359063714742660522e-02 -6.755424197763204575e-03 3.460109699517488480e-03 8.501445874571800232e-03 3.830238245427608490e-03 1.589643768966197968e-02 -1.673354580998420715e-02 2.178065851330757141e-02 3.985875472426414490e-02 -1.102421525865793228e-02 -1.352189457975327969e-03 2.615627832710742950e-02 -4.569070786237716675e-02 -4.278577119112014771e-02 2.228675410151481628e-02 4.936515353620052338e-03 -1.310383621603250504e-02 -4.853743128478527069e-03 -3.352894261479377747e-02 -2.020672895014286041e-02 -2.734704874455928802e-02 1.013538800179958344e-02 1.079459034372121096e-04 -5.197781138122081757e-03 -5.815291777253150940e-02 -1.922873966395854950e-02 8.551105856895446777e-03 -3.285676240921020508e-02 9.376365691423416138e-03 2.671265415847301483e-02 -1.706456951797008514e-02 4.868852347135543823e-02 -8.363255299627780914e-03 5.825649201869964600e-02 -2.033771015703678131e-02 2.732543461024761200e-02 3.470082534477114677e-03 -6.982164457440376282e-03 5.488150636665523052e-04 -5.745605449192225933e-04 4.301527515053749084e-02 -1.493615843355655670e-02 1.467648427933454514e-02 -9.843333624303340912e-03 6.478346767835319042e-05 2.694068662822246552e-02 8.963649161159992218e-03 -1.893580704927444458e-02 4.519519582390785217e-02 1.375237945467233658e-02 5.702307075262069702e-02 3.517899289727210999e-02 3.796363994479179382e-02 1.173359155654907227e-02 -1.374738663434982300e-02 -3.342312574386596680e-02 -1.288007944822311401e-02 -4.513139277696609497e-02 1.641958951950073242e-02 3.393606841564178467e-02 4.080621059983968735e-03 2.609649673104286194e-02 1.293720863759517670e-02 -3.498980076983571053e-03 -1.028773491270840168e-03 -5.494583025574684143e-02 2.039852924644947052e-02 -2.677872031927108765e-02 -8.200413547456264496e-03 2.529789507389068604e-02 -1.454313099384307861e-02 2.169867046177387238e-02 1.125932391732931137e-02 2.449212782084941864e-02 5.240264581516385078e-04 2.586095780134201050e-02 2.851011790335178375e-02 -3.102603554725646973e-02 2.292710356414318085e-02 -1.637008413672447205e-02 4.668994247913360596e-02 -8.764974772930145264e-03 2.136284112930297852e-02 -8.606449700891971588e-03 -1.827905327081680298e-02 7.899337448179721832e-03 -3.349086269736289978e-02 -3.333996236324310303e-02 -1.771913655102252960e-02 -9.905120357871055603e-03 -1.710265129804611206e-02 5.123525112867355347e-02 -2.061660028994083405e-02 1.491040177643299103e-02 9.749666787683963776e-03 4.010587465018033981e-03 -2.248700149357318878e-02 -3.430110588669776917e-02 -1.737679541110992432e-02 6.719539669575169683e-05 -2.394023118540644646e-03 4.407312348484992981e-02 1.098626013845205307e-02 -2.731632627546787262e-02 -9.528971277177333832e-03 1.332273241132497787e-03 -3.157718479633331299e-02 2.239987254142761230e-02 1.167616713792085648e-02 2.069446071982383728e-02 3.906653076410293579e-02 -3.155374899506568909e-03 -4.863496869802474976e-02 -4.106317460536956787e-02 1.890932023525238037e-02 3.894967585802078247e-02 1.615788601338863373e-02 -6.660355720669031143e-04 2.787673287093639374e-02 -7.788593065924942493e-04 6.696045864373445511e-03 -3.451921045780181885e-02 -4.426790401339530945e-02 -9.078580886125564575e-03 -7.238007336854934692e-02 9.106483776122331619e-04 -6.292168516665697098e-03 -1.951665058732032776e-02 -5.537807568907737732e-02 -2.423307858407497406e-03 -2.477676048874855042e-02 -1.360715599730610847e-03 2.722058817744255066e-02 -4.060473758727312088e-03 -6.234785541892051697e-05 -4.603149741888046265e-02 -1.031362172216176987e-02 4.540050402283668518e-02 1.412231381982564926e-02 4.268602654337882996e-02 9.233918972313404083e-03 4.805986210703849792e-02 -1.647274754941463470e-02 -2.410639822483062744e-02 2.642935700714588165e-02 -1.071353326551616192e-03 1.023452058434486389e-01 1.349055767059326172e-02 4.572645761072635651e-03 -4.024594277143478394e-02 1.813335902988910675e-02 -9.007102251052856445e-02 7.936649024486541748e-03 -3.851170092821121216e-02 7.469194009900093079e-03 -1.379117276519536972e-02 -2.225288189947605133e-02 2.104132063686847687e-02 1.504936441779136658e-02 3.953721374273300171e-02 -2.895168028771877289e-02 4.244917631149291992e-02 -2.772643975913524628e-02 -5.721515044569969177e-02 -6.958121433854103088e-03 -2.508486993610858917e-02 -2.612755261361598969e-02 -8.376920595765113831e-03 3.462895052507519722e-03 3.486289083957672119e-02 -1.489734370261430740e-02 -6.499926093965768814e-04 -3.636144474148750305e-02 -4.563096538186073303e-02 5.075711756944656372e-03 1.583861187100410461e-02 1.058925874531269073e-02 1.824464090168476105e-02 2.267730794847011566e-02 4.179715365171432495e-02 -3.512468561530113220e-02 4.703724011778831482e-02 3.781627397984266281e-03 1.401447877287864685e-02 -1.675769872963428497e-02 2.145028114318847656e-02 -6.893819570541381836e-02 -1.711429096758365631e-02 2.432312257587909698e-02 -4.865651484578847885e-03 -4.279936850070953369e-02 -3.014731965959072113e-02 -4.516246914863586426e-02 -1.317558716982603073e-02 6.223516073077917099e-03 -4.598392173647880554e-03 2.892812527716159821e-02 5.983232054859399796e-03 7.991620805114507675e-04 3.188932314515113831e-02 1.524244900792837143e-02 1.676943711936473846e-02 -3.326044231653213501e-02 -1.180051825940608978e-02 -9.207316674292087555e-03 -5.651213228702545166e-03 2.453676052391529083e-02 -3.598935157060623169e-02 -2.558330073952674866e-02 -2.149157971143722534e-02 -2.796838618814945221e-02 1.758348569273948669e-02 -3.299351781606674194e-03 4.888787865638732910e-02 2.940336801111698151e-02 -4.432718083262443542e-02 -2.210832014679908752e-02 2.429332351312041283e-03 -3.096731845289468765e-03 -5.835480988025665283e-03 -2.509257942438125610e-02 2.192002907395362854e-02 -2.012478560209274292e-02 -2.676220797002315521e-02 -2.889802679419517517e-02 -7.734994404017925262e-03 -1.105808932334184647e-02 1.798838376998901367e-02 1.244896929711103439e-02 1.202874537557363510e-02 -8.556186221539974213e-03 -2.579832449555397034e-03 2.960450761020183563e-02 -4.538030549883842468e-02 -3.319996222853660583e-02 1.880742260254919529e-03 -5.981245776638388634e-04 3.786168992519378662e-02 4.217587411403656006e-02 -1.205196045339107513e-02 -2.880252152681350708e-02 3.208434581756591797e-02 8.946311660110950470e-03 -4.004821553826332092e-02 2.955647557973861694e-02 -9.578222408890724182e-03 3.905894234776496887e-02 2.090899273753166199e-02 1.815442694351077080e-03 -1.773196272552013397e-02 1.858619414269924164e-02 4.875501990318298340e-02 1.707810908555984497e-02 3.558653406798839569e-03 9.970478713512420654e-03 2.219667844474315643e-02 -8.005062118172645569e-03 1.883795484900474548e-02 -1.323189400136470795e-02 -4.236719757318496704e-02
1.034968346357345581e-02 -1.116243563592433929e-02 3.369228169322013855e-02 -3.938939794898033142e-02 2.371473424136638641e-02 3.838292509317398071e-02 1.726227998733520508e-02 9.619005955755710602e-03 1.636835187673568726e-02 3.235575929284095764e-02 3.583257645368576050e-02 3.152088820934295654e-02 8.036664687097072601e-03 2.116995304822921753e-02 4.216347262263298035e-02 -6.592162419110536575e-03 -3.813188523054122925e-02 -2.477608248591423035e-02 2.401153929531574249e-02 -1.238564122468233109e-02 3.105940530076622963e-03 2.249092981219291687e-02 -6.564232986420392990e-03 -7.118438836187124252e-03 -1.582023687660694122e-02 -1.463948562741279602e-02 2.254983969032764435e-02 4.500704631209373474e-02 8.087198249995708466e-03 -1.235056389123201370e-02 3.808014094829559326e-02 6.631642580032348633e-02 9.417715482413768768e-03 -7.668736856430768967e-03 -4.623668268322944641e-02 -2.227040380239486694e-02 1.573541760444641113e-02 -1.848783157765865326e-02 -1.887418096885085106e-03 6.887815892696380615e-03 3.626990597695112228e-03 8.061351254582405090e-03 1.166543178260326385e-02 7.975991070270538330e-02 3.420634195208549500e-02 2.434721402823925018e-02 6.284431088715791702e-03 -1.120390091091394424e-02 5.335206910967826843e-02 -5.805266276001930237e-02 1.307290326803922653e-02 4.033327475190162659e-02 -4.054535180330276489e-02 -2.147345989942550659e-02 -1.983201503753662109e-02 3.443519398570060730e-02 4.295736551284790039e-02 -1.382279209792613983e-02 -1.693835482001304626e-02 -2.922169677913188934e-02 -3.345247823745012283e-03 -4.075930267572402954e-02 -6.320296227931976318e-02 9.092853404581546783e-03 2.604138106107711792e-03 4.042350873351097107e-02 1.774938404560089111e-02 3.057000413537025452e-02 -4.725688695907592773e-02 -2.613516291603446007e-03 4.792170133441686630e-03 -1.840599626302719116e-02 3.427636809647083282e-03 -1.915959268808364868e-02 -1.240071933716535568e-02 6.682432256639003754e-03 -3.586099250242114067e-03 -5.068355798721313477e-02 -8.471320383250713348e-03 2.578612603247165680e-02 9.550097398459911346e-03 -2.248570695519447327e-02 -2.689967118203639984e-02 3.738829493522644043e-02 -4.046735167503356934e-02 2.352703362703323364e-02 -2.927294000983238220e-02 -2.804823219776153564e-02 1.849619857966899872e-02 4.196720197796821594e-02 3.556447476148605347e-02 -3.401922434568405151e-02 -9.767820127308368683e-03 1.264413166791200638e-02 1.898924820125102997e-02 1.094137132167816162e-02 1.585945673286914825e-02 -5.102198570966720581e-02 2.420974895358085632e-02 -6.630626041442155838e-03 -5.181649699807167053e-03 -5.570334568619728088e-02 7.480101659893989563e-03 2.304638735949993134e-03 -1.085093431174755096e-02 -3.604948520660400391e-02 -3.111822344362735748e-02 -2.342939144000411034e-03 2.179958671331405640e-02 -3.242621570825576782e-02 -2.320815250277519226e-02 5.532386898994445801e-02 -1.071569696068763733e-02 6.658919621258974075e-03 1.407715305685997009e-02 -4.835361987352371216e-02 2.607931010425090790e-02 2.315651252865791321e-02 -6.203437969088554382e-02 1.769817620515823364e-02 3.737555444240570068e-02 1.730426400899887085e-02 -7.350384723395109177e-03 3.299435600638389587e-02 -4.326058179140090942e-02 2.046247245743870735e-03 -3.252936899662017822e-02 2.934060059487819672e-02 5.453496240079402924e-03 -1.997243240475654602e-02 -2.796710934489965439e-03 6.449462845921516418e-03 2.116419747471809387e-02 -1.675265468657016754e-02 -2.222523652017116547e-02 4.095129668712615967e-02 -2.430146560072898865e-03 4.692727327346801758e-02 -4.378296434879302979e-02 1.946111768484115601e-02 1.376797165721654892e-02 5.513688549399375916e-02 -2.311241067945957184e-02 3.434841334819793701e-02 -2.499583363533020020e-02 6.814752705395221710e-03 -2.969711087644100189e-02 -9.616735391318798065e-03 -3.124151565134525299e-02 -1.866408437490463257e-02 7.098830491304397583e-02 6.738555151969194412e-03 2.349188923835754395e-02 2.348761819303035736e-02 4.899910092353820801e-02 2.760921604931354523e-02 3.155885636806488037e-02 -2.812738530337810516e-03 9.659024886786937714e-03 -1.075890380889177322e-02 -1.928720809519290924e-02 -1.030260603874921799e-02 2.063707634806632996e-02 -1.373211108148097992e-02 3.259731829166412354e-02 -1.980234123766422272e-02 -2.363700047135353088e-02 -1.019003707915544510e-02 1.741061359643936157e-02 1.419256068766117096e-02 3.480464965105056763e-02 -1.806830428540706635e-02 -5.505505483597517014e-03 -2.939443802461028099e-03 -1.106258947402238846e-02 2.461744099855422974e-02 5.325798876583576202e-03 -1.217318419367074966e-02 2.131498791277408600e-02 2.553389221429824829e-02 1.366377901285886765e-02 -8.359267376363277435e-03 -2.994772605597972870e-02 -1.549709413666278124e-04 -6.197894923388957977e-03 1.576420105993747711e-02 -4.483600612729787827e-03 1.279467251151800156e-02 8.146856911480426788e-03 2.557932771742343903e-02 1.006215997040271759e-02 1.338791009038686752e-02 -5.085107311606407166e-02 9.335757233202457428e-03 4.822584614157676697e-02 -1.818232052028179169e-02 -5.478925630450248718e-02 2.071131207048892975e-02 -3.232391551136970520e-02 -5.566306412220001221e-02 -2.461834996938705444e-02 -2.843203395605087280e-02 -6.695459596812725067e-03 -1.958994753658771515e-02 3.845349699258804321e-02 2.106578904204070568e-04 1.086705923080444336e-02 -4.448226094245910645e-02 1.419847924262285233e-02 -2.812990359961986542e-02 -6.100253667682409286e-03 1.106624957174062729e-02 -3.802312538027763367e-03 3.308651596307754517e-02 1.581553742289543152e-02 1.697481609880924225e-02 4.537531733512878418e-02 -7.854053983464837074e-04 8.707192726433277130e-03 -1.868376880884170532e-02 -6.315548904240131378e-03 4.171600937843322754e-02 -2.779044397175312042e-02 5.149708315730094910e-02 -3.993708640336990356e-02 -1.572894491255283356e-02 2.326778881251811981e-02 -1.137240044772624969e-02 2.821324393153190613e-02 -9.400281123816967010e-03 -2.729923464357852936e-02 5.118696391582489014e-02 -1.487532514147460461e-03 -3.013274073600769043e-02 1.506830938160419464e-02 -3.215730562806129456e-02 -2.591106854379177094e-02 2.144455537199974060e-02 -5.301832221448421478e-03 5.773610901087522507e-03 3.757543116807937622e-02 4.866893216967582703e-02 -7.276136428117752075e-02 1.828001253306865692e-02 1.350170187652111053e-02 4.681461956351995468e-03 -3.046656772494316101e-02 -9.744708426296710968e-03 1.826861640438437462e-03 -3.113481402397155762e-02 7.982420735061168671e-03 -2.481324225664138794e-02 7.418372202664613724e-03 -3.179491730406880379e-03 -2.234878577291965485e-02 -1.400189474225044250e-02 1.018744334578514099e-02 -1.025222521275281906e-02 -6.141172721982002258e-02 -7.150115445256233215e-03 -2.591601200401782990e-02 -2.832627296447753906e-02 2.967081591486930847e-02 3.530028462409973145e-02 4.538238979876041412e-03 -3.096348978579044342e-02 -5.020234361290931702e-02 2.264069020748138428e-02 -5.889362655580043793e-03 -3.857127577066421509e-02 -3.345900774002075195e-02 6.084037013351917267e-03 1.607953570783138275e-03 -2.613954246044158936e-02 2.067695558071136475e-02 -1.656046323478221893e-02 -8.742330595850944519e-03 -1.680938340723514557e-02 2.663343772292137146e-02 2.354797348380088806e-02 -2.060470730066299438e-02 -3.821930289268493652e-02 -2.962822839617729187e-02 -2.414663322269916534e-02 -2.666144073009490967e-02 1.289862021803855896e-02 -8.761077187955379486e-03 3.838938474655151367e-02 -2.196364291012287140e-02 8.716953918337821960e-03 2.890579216182231903e-02 -1.514392904937267303e-02 -3.310974314808845520e-02 -1.392735075205564499e-02 2.832338772714138031e-02 -4.282210767269134521e-02 4.519156180322170258e-03 1.158392895013093948e-02 -6.905294209718704224e-02 -5.843874812126159668e-02 -3.331557288765907288e-02 2.064692415297031403e-02 -2.008547820150852203e-02 1.349089480936527252e-02 -4.905263427644968033e-03 -4.307314753532409668e-02 2.871111733838915825e-03 1.484156213700771332e-02 -4.998944234102964401e-03 -9.767754003405570984e-03 2.932737208902835846e-02 7.113444060087203979e-02 2.828569523990154266e-02 -7.857327582314610481e-04 3.081407211720943451e-02 9.388669393956661224e-03 1.541397441178560257e-02 1.643221825361251831e-02 -1.554276421666145325e-02 -1.477858610451221466e-02 -6.631558388471603394e-02 -4.830763861536979675e-02 -4.318376630544662476e-02 -4.319890215992927551e-02 1.161888428032398224e-02 4.174016788601875305e-02 -8.968410082161426544e-03 3.751581534743309021e-03 -8.238174021244049072e-02 -1.507591921836137772e-02 -4.841464757919311523e-02 4.660090804100036621e-02 5.541784688830375671e-03 3.546677157282829285e-02 -1.930411905050277710e-02 1.149771455675363541e-02 7.790195755660533905e-03 8.296646177768707275e-03 -3.533208370208740234e-02 -2.405557222664356232e-02 -1.328531466424465179e-02 2.372551709413528442e-02 3.217163681983947754e-02 2.280408283695578575e-03 -3.104200400412082672e-02 -2.066843397915363312e-02 -3.474637120962142944e-02 5.467306077480316162e-02 1.635546982288360596e-02 1.104449015110731125e-02 2.591012977063655853e-03 -3.408744558691978455e-02 -3.520664572715759277e-02 -5.005226004868745804e-03 1.681420137174427509e-03 1.261784229427576065e-02 4.660896584391593933e-02 3.470820561051368713e-02 -4.224928561598062515e-03 1.074425037950277328e-02 -2.470658905804157257e-02 -3.254393115639686584e-02 -3.452121093869209290e-02 2.982323057949542999e-02 -5.431487411260604858e-02 -2.127548865973949432e-02 8.815404959022998810e-03 1.508723851293325424e-02 9.592308662831783295e-03 2.473392523825168610e-02 3.659835085272789001e-02 -1.478016097098588943e-02 1.498099183663725853e-03 9.384775534272193909e-03 3.474303334951400757e-02 2.768175303936004639e-02 2.314631640911102295e-02 9.403281845152378082e-03 2.011292055249214172e-02 -1.188101712614297867e-02 -3.240982070565223694e-02 3.528723493218421936e-02 9.062755852937698364e-03 1.552330702543258667e-02 -6.211806461215019226e-02 -1.655649207532405853e-02 -4.158556088805198669e-02 7.113100960850715637e-03 2.285447716712951660e-02 8.967597037553787231e-03 -4.433583095669746399e-02 -1.583163440227508545e-02 -8.875876665115356445e-03 -3.331017494201660156e-02 -7.154313381761312485e-03 2.906662598252296448e-02 3.636742709204554558e-03 -6.919281929731369019e-02 -2.340358495712280273e-02 -1.425603870302438736e-02 5.401330813765525818e-02 -4.503183998167514801e-03 -3.844977589324116707e-03 -7.477710023522377014e-03 -6.353072822093963623e-03 4.252609238028526306e-02 3.007689956575632095e-03 6.080965511500835419e-03 2.779704518616199493e-02 -1.817867904901504517e-02 -2.155518531799316406e-02 2.997127547860145569e-02 -4.327464383095502853e-03 1.902459003031253815e-02 2.853210456669330597e-02 2.976844646036624908e-02 -6.525515019893646240e-02 -4.477489367127418518e-02 5.473149567842483521e-02 3.704289719462394714e-02 -1.939612813293933868e-02 -8.746157400310039520e-03 1.175736915320158005e-02 1.989508233964443207e-02 -2.821015380322933197e-02 -3.407119959592819214e-02 -6.207685451954603195e-03 2.002123370766639709e-02 -1.792993769049644470e-02 -2.534025907516479492e-02 2.708378620445728302e-02 -5.010097846388816833e-02 2.076340094208717346e-02 8.167747873812913895e-04 -3.108155447989702225e-03 -4.349160473793745041e-03 -3.009289037436246872e-03 3.183680819347500801e-03 -1.661430858075618744e-02 3.373202309012413025e-02 -2.086939476430416107e-02 -1.618149253772571683e-04 6.276339292526245117e-02 -5.192904174327850342e-02 -2.242473326623439789e-02 8.935483492678031325e-05 -2.285115234553813934e-02 -4.996453970670700073e-02 -2.472561551257967949e-03 3.162433579564094543e-02 -2.705980092287063599e-03 -2.960018999874591827e-02 1.773073337972164154e-02 5.766500718891620636e-03 1.696977764368057251e-02 6.631996948271989822e-03 -4.818391520529985428e-03 2.196924760937690735e-02 2.732165157794952393e-02 -8.433981798589229584e-03 -1.536721084266901016e-02 -3.231418505311012268e-02 4.480868577957153320e-02 2.337394282221794128e-02 -1.779922284185886383e-02 9.349188767373561859e-03 -1.074443943798542023e-02 3.188413381576538086e-02 2.018743893131613731e-03 1.490131602622568607e-03 4.036100581288337708e-03 6.469949148595333099e-03 -8.026060648262500763e-03 9.891874156892299652e-03 1.480909250676631927e-02 -4.531231708824634552e-03 1.592819951474666595e-02 2.744402736425399780e-02 1.096510328352451324e-02 3.003215650096535683e-03 4.926948342472314835e-03 -1.201325003057718277e-02 5.923442542552947998e-03 2.309209480881690979e-02 2.778031490743160248e-02 1.350696850568056107e-02 3.415224328637123108e-02 -7.128871511667966843e-03 1.434062141925096512e-02 5.338572897017002106e-03 1.375400461256504059e-02 1.911011710762977600e-02 1.885830238461494446e-02 -3.239506855607032776e-02 -1.157477498054504395e-02 -4.204857349395751953e-02 2.499519661068916321e-02 -8.734806440770626068e-03 -1.574832759797573090e-02 -4.322704393416643143e-03 -1.020637620240449905e-02 9.439615532755851746e-03 2.545574912801384926e-03 -1.242662593722343445e-02 4.039565101265907288e-02 2.052564732730388641e-02 8.466239087283611298e-03 -2.971027977764606476e-03 1.271799206733703613e-02 3.079846128821372986e-02 6.172622088342905045e-04 2.827566489577293396e-02
