4.126958549022674561e-03 1.652835309505462646e-02 1.018195413053035736e-02 4.681160673499107361e-03 1.167611335404217243e-04 -2.000916935503482819e-02 -2.252973988652229309e-02 -3.668795526027679443e-02 2.775984071195125580e-02 -2.761135995388031006e-02 -3.255287557840347290e-02 -7.916241302154958248e-04 -1.129479333758354187e-02 2.830745279788970947e-02 2.077230811119079590e-02 -2.016759291291236877e-02 -9.662018157541751862e-03 7.145473267883062363e-03 -3.195085376501083374e-02 -9.089345257962122560e-05 2.636588737368583679e-02 4.118341952562332153e-02 -1.636843755841255188e-02 1.653943094424903393e-03 -7.612054049968719482e-02 -6.071581970900297165e-03 -2.652197144925594330e-02 8.392421528697013855e-03 -3.740306012332439423e-03 1.175194419920444489e-02 -1.582827605307102203e-02 5.975773092359304428e-03 1.743161235935986042e-03 1.440672203898429871e-02 5.294160917401313782e-02 2.296356484293937683e-02 -6.547263823449611664e-03 2.730616740882396698e-02 -2.277234196662902832e-02 -5.256282910704612732e-02 -1.993196085095405579e-02 -6.420189980417490005e-03 5.268970970064401627e-03 4.261950030922889709e-02 -2.923540212213993073e-02 4.041483253240585327e-02 -1.905790716409683228e-02 -5.416706204414367676e-03 2.033666521310806274e-02 2.910628914833068848e-02 -1.516227377578616142e-03 -5.231343954801559448e-02 1.890815794467926025e-02 7.242064923048019409e-03 5.522088706493377686e-02 -1.826247759163379669e-02 4.136589169502258301e-02 3.544470667839050293e-02 -1.813691854476928711e-02 -5.315683037042617798e-02 -3.663358278572559357e-03 -7.721088081598281860e-02 1.415940001606941223e-02 -1.817683503031730652e-02 8.978493511676788330e-03 1.004933030344545841e-03 1.737671904265880585e-02 2.473388239741325378e-02 4.985573515295982361e-02 6.397003680467605591e-02 -1.924675540067255497e-03 -5.279719363898038864e-03 -3.906134888529777527e-02 4.754852503538131714e-02 -3.047585859894752502e-02 1.747432537376880646e-02 1.869100145995616913e-03 1.965534128248691559e-02 -3.718263283371925354e-02 -4.740193020552396774e-03 -1.788561046123504639e-02 1.945730485022068024e-02 -3.510512411594390869e-02 -1.712474413216114044e-02 2.822000905871391296e-02 3.322181478142738342e-02 7.193186786025762558e-03 -4.832845006603747606e-04 2.420936711132526398e-02 1.494752988219261169e-02 -3.198371082544326782e-02 -3.578358516097068787e-02 -8.352143689990043640e-03 -6.612940877676010132e-02 -7.753028534352779388e-03 9.987119585275650024e-03 6.222015712410211563e-03 -6.407557427883148193e-02 -2.085592970252037048e-02 -3.106942027807235718e-02 5.168530344963073730e-02 -3.127546806354075670e-04 9.237947873771190643e-03 -2.576011698693037033e-03 -4.476602654904127121e-03 -4.826678708195686340e-02 -4.597493447363376617e-03 3.638109192252159119e-02 3.862458467483520508e-02 1.375127211213111877e-02 -1.852109842002391815e-02 -2.477730624377727509e-02 3.355802223086357117e-02 6.103032082319259644e-02 -6.240075081586837769e-02 1.290210243314504623e-02 2.756698057055473328e-02 3.889612155035138130e-03 2.128170337527990341e-03 -3.552973642945289612e-02 -5.947805941104888916e-03 4.505921900272369385e-02 9.568526409566402435e-03 4.821141716092824936e-03 1.305599045008420944e-02 -1.690506190061569214e-02 5.423051188699901104e-04 3.373992396518588066e-03 1.730095944367349148e-03 -2.829541452229022980e-02 3.353886306285858154e-02 1.812383159995079041e-02 -5.417854338884353638e-02 2.733086980879306793e-02 -3.364155441522598267e-02 -5.927975755184888840e-03 -3.908284008502960205e-02 -2.965604327619075775e-02 -1.028672698885202408e-02 1.785094290971755981e-02 -2.127418480813503265e-02 -2.486011479049921036e-03 -9.690711740404367447e-04 -3.377740457653999329e-02 1.543589401990175247e-02 3.714269027113914490e-03 -2.719841338694095612e-02 2.648309245705604553e-02 -3.002095222473144531e-02 -2.779207937419414520e-02 4.305090755224227905e-02 3.889305144548416138e-02 1.057377737015485764e-02 1.530362851917743683e-02 -8.151149377226829529e-03 -1.667409017682075500e-02 2.271389029920101166e-02 9.253617026843130589e-04 -2.842226438224315643e-02 -3.678068891167640686e-02 6.097750738263130188e-03 4.806414991617202759e-02 3.929731249809265137e-02 1.297577656805515289e-02 6.991679314523935318e-03 2.005623467266559601e-02 8.115616440773010254e-02 -8.292960003018379211e-03 2.395565807819366455e-02 6.459143012762069702e-03 -1.478083804249763489e-02 -2.950544003397226334e-03 8.460362255573272705e-02 1.967303454875946045e-02 1.074466761201620102e-02 -7.566469721496105194e-03 -3.636931767687201500e-03 2.034611627459526062e-02 -2.644168958067893982e-02 -2.414306625723838806e-02 -3.924699127674102783e-02 -2.850510552525520325e-02 2.986501902341842651e-02 1.024220231920480728e-02 5.128713790327310562e-03 -5.799244536319747567e-05 -3.490394214168190956e-03 -2.689389511942863464e-02 -1.120014209300279617e-02 1.114522665739059448e-02 -1.644289679825305939e-02 -2.191118150949478149e-02 1.770410686731338501e-02 3.144749999046325684e-02 2.873730473220348358e-02 -3.031292185187339783e-02 -3.495827317237854004e-02 -1.111682038754224777e-02 6.852679699659347534e-02 6.568161770701408386e-03 1.183428894728422165e-02 3.635374596342444420e-03 1.390854548662900925e-02 2.071791328489780426e-02 -4.466377198696136475e-02 -3.378570824861526489e-02 3.474272962193936110e-04 -4.962755739688873291e-02 -2.499186247587203979e-02 -4.201019927859306335e-02 -2.416861802339553833e-02 2.925260923802852631e-03 2.895614877343177795e-02 1.263870857656002045e-02 2.645547501742839813e-02 -1.071460451930761337e-02 -9.360061958432197571e-03 -2.878590300679206848e-02 -8.761687204241752625e-03 -1.954468712210655212e-02 -3.235692530870437622e-02 -1.939489878714084625e-02 -7.583582773804664612e-03 -4.218420758843421936e-02 -2.671977877616882324e-02 -2.066182531416416168e-02 -5.192591995000839233e-02 1.681118272244930267e-02 1.944854110479354858e-02 3.807020373642444611e-03 4.114162176847457886e-02 3.698487207293510437e-02 1.418638136237859726e-02 -1.591827720403671265e-02 -3.487909957766532898e-02 1.419541984796524048e-02 4.142027720808982849e-02 -2.739385515451431274e-02 1.296547055244445801e-02 3.959540650248527527e-02 -4.952852427959442139e-02 6.735043134540319443e-04 4.438024759292602539e-02 2.537109702825546265e-02 3.537271404638886452e-03 2.819313295185565948e-02 6.095981597900390625e-02 2.059905603528022766e-02 8.011671714484691620e-03 3.380366414785385132e-02 1.460993196815252304e-02 -2.003838121891021729e-02 3.896238654851913452e-02 -1.236855238676071167e-02 4.089615866541862488e-02 -1.850660890340805054e-02 2.661821432411670685e-02 3.832758963108062744e-02 -1.849416084587574005e-02 -3.361569251865148544e-03 1.034444291144609451e-02 2.029881067574024200e-02 -7.949335128068923950e-02 -1.104846131056547165e-02 -2.797856740653514862e-02 1.714660786092281342e-02 -2.526590041816234589e-02 3.008225187659263611e-02 6.336840987205505371e-02 -6.980463862419128418e-03 -1.280881278216838837e-02 8.073511533439159393e-03 -1.222375780344009399e-02 -2.263834886252880096e-02 1.269470434635877609e-02 2.590099722146987915e-02 -6.551814079284667969e-02 -4.571167007088661194e-02 1.427204441279172897e-02 2.788752503693103790e-02 -3.318611904978752136e-02 2.323693223297595978e-02 4.605500027537345886e-02 9.882944636046886444e-03 1.541119650937616825e-03 2.673772349953651428e-02 -7.342077791690826416e-02 -4.619091004133224487e-02 2.876101806759834290e-02 -3.750111907720565796e-02 -2.255593426525592804e-02 -2.919499995186924934e-03 -3.812762722373008728e-02 -5.496055353432893753e-03 -1.380298845469951630e-02 -1.835974492132663727e-02 -2.850582823157310486e-02 7.041694223880767822e-02 -1.961203292012214661e-02 5.821518972516059875e-02 -3.995834290981292725e-02 -2.112752944231033325e-02 2.345439419150352478e-02 2.944410033524036407e-02 6.083921063691377640e-03 -5.027876794338226318e-02 4.108349233865737915e-02 3.535459190607070923e-02 -3.996735438704490662e-02 -2.129816636443138123e-02 -7.675212342292070389e-03 -8.448091335594654083e-03 2.162104286253452301e-02 2.721387706696987152e-02 4.819532856345176697e-02 3.322753682732582092e-02 -4.662274848669767380e-03 -1.036692038178443909e-02 -1.138937473297119141e-02 -1.148412469774484634e-02 -2.536548674106597900e-02 -3.543516248464584351e-02 -1.306868623942136765e-02 -1.320452056825160980e-02 -3.587291575968265533e-03 3.634662926197052002e-02 -2.839792333543300629e-02 -4.608707968145608902e-03 1.024709548801183701e-02 -2.408721111714839935e-02 1.772063039243221283e-02 -3.005350381135940552e-02 5.295876879245042801e-03 7.375717395916581154e-04 -4.604971408843994141e-02 1.411939319223165512e-02 -3.130403161048889160e-02 -1.466121338307857513e-02 1.155318319797515869e-02 -5.238606408238410950e-02 -3.636848554015159607e-02 -2.577578276395797729e-02 2.289734967052936554e-02 7.628020830452442169e-03 -1.097981003113090992e-03 -2.307945676147937775e-02 -2.469806699082255363e-03 -6.280352175235748291e-02 -5.035566538572311401e-02 1.395738869905471802e-02 1.962787844240665436e-02 -2.935357391834259033e-02 2.229822985827922821e-02 -5.340527277439832687e-03 -4.460283555090427399e-03 2.373919263482093811e-02 7.935938984155654907e-02 2.410286478698253632e-02 -4.752097651362419128e-02 -3.499372303485870361e-02 -8.474792353808879852e-03 -2.628402411937713623e-02 -1.949103176593780518e-02 1.979942806065082550e-02 3.270126506686210632e-02 1.082707312889397144e-03 -2.565787918865680695e-02 1.902570202946662903e-02 2.726933918893337250e-02 3.057458065450191498e-02 -1.559135876595973969e-02 1.582791469991207123e-02 7.861434668302536011e-02 -2.278330549597740173e-02 1.522335410118103027e-02 -2.161843515932559967e-02 1.817057840526103973e-02 1.048130169510841370e-02 -4.257756099104881287e-02 6.680205464363098145e-03 -4.634277522563934326e-02 2.363955788314342499e-02 6.590452045202255249e-02 2.074089087545871735e-02 -3.174971323460340500e-03 3.413608297705650330e-02 1.584843173623085022e-02 -2.450412511825561523e-02 -7.525713648647069931e-03 1.812630705535411835e-02 -6.393180787563323975e-02 2.973139658570289612e-02 4.009554162621498108e-02 -3.426343575119972229e-02 3.113026171922683716e-02 3.381910501047968864e-03 1.740138977766036987e-02 -9.118532034335657954e-06 1.164245046675205231e-02 7.105457782745361328e-02 1.969336718320846558e-02 -1.627776771783828735e-02 2.030582912266254425e-02 2.894475683569908142e-02 4.388932511210441589e-02 1.921886019408702850e-02 1.695897430181503296e-02 -5.275673046708106995e-02 3.609284758567810059e-02 6.120252236723899841e-02 8.273420855402946472e-03 -5.596713721752166748e-02 1.016885135322809219e-02 -1.316012348979711533e-02 3.139974549412727356e-02 -3.845425089821219444e-03 -2.252540923655033112e-02 -4.143868014216423035e-02 1.468780171126127243e-02 -3.128920122981071472e-02 2.255009487271308899e-02 -5.979146808385848999e-03 2.300785155966877937e-03 -2.902787411585450172e-03 6.227592006325721741e-02 3.845049533993005753e-03 4.281676188111305237e-02 3.704660572111606598e-03 -5.650993809103965759e-02 9.950970299541950226e-03 -2.090157242491841316e-03 -6.000123918056488037e-03 2.731285057961940765e-03 2.362320385873317719e-02 -1.751254498958587646e-02 -2.027482166886329651e-02 -2.731836587190628052e-02 -2.872679848223924637e-03 2.394191175699234009e-02 1.344174053519964218e-02 -2.188365347683429718e-02 -1.288468018174171448e-02 2.272660471498966217e-02 2.053288184106349945e-02 -2.150807343423366547e-02 -2.918482013046741486e-02 -2.021054737269878387e-03 3.148834407329559326e-02 -8.699241280555725098e-02 -4.919382929801940918e-02 -1.733802258968353271e-02 -4.059996455907821655e-02 -8.853158913552761078e-03 4.046738147735595703e-03 -3.050272352993488312e-02 7.279061537701636553e-05 -2.011823095381259918e-02 3.303622826933860779e-02 5.283639580011367798e-02 -7.222581654787063599e-02 -2.108717150986194611e-02 2.358180470764636993e-02 1.992591470479965210e-02 2.870755642652511597e-02 3.135462477803230286e-02 1.407181750982999802e-02 4.968237131834030151e-03 -9.809079580008983612e-03 -2.449368359521031380e-03 2.606559428386390209e-04 3.244690597057342529e-03 9.761645458638668060e-03 1.513151358813047409e-02 3.115634899586439133e-03 -4.388202726840972900e-02 2.426604926586151123e-02 1.738055609166622162e-02 3.446458280086517334e-02 1.230369601398706436e-02 -9.542598389089107513e-03 4.860021173954010010e-03 -4.305229336023330688e-02 -5.357675254344940186e-02 -3.748317807912826538e-02 -6.034878082573413849e-03 2.489366196095943451e-02 -3.028134629130363464e-02 -1.828640326857566833e-02 -2.587482100352644920e-03 1.004870235919952393e-02 -1.865431293845176697e-02 4.332005046308040619e-03 -3.159578889608383179e-02 6.366315484046936035e-02 2.756300382316112518e-02 -1.218763086944818497e-02 1.023369748145341873e-02 -6.875493563711643219e-03 1.309757307171821594e-02 -4.468229413032531738e-02 9.950065286830067635e-04 2.550970576703548431e-02 2.055639959871768951e-02 3.493909491226077080e-03 6.381291430443525314e-03 7.301106583327054977e-03 3.806628286838531494e-02 -2.367788180708885193e-02 5.388915073126554489e-03 1.568391732871532440e-02 -3.994661569595336914e-02 -2.565324120223522186e-02
3.085716068744659424e-02 -2.799548394978046417e-02 -2.457017078995704651e-02 4.186705220490694046e-03 -5.726927891373634338e-03 -8.918837644159793854e-03 -7.777570281177759171e-03 -1.139281410723924637e-02 3.894547745585441589e-02 -1.447152812033891678e-02 2.453391812741756439e-02 -5.331760738044977188e-03 -3.515233844518661499e-02 -3.496980294585227966e-02 5.742175504565238953e-02 -1.647326722741127014e-02 -2.918141335248947144e-02 -1.932116225361824036e-02 1.512084715068340302e-02 1.105273142457008362e-02 -3.428447246551513672e-02 1.747009227983653545e-03 1.143068261444568634e-02 -2.281455136835575104e-02 9.569168090820312500e-03 -3.879189491271972656e-02 -3.628577664494514465e-02 2.868012338876724243e-02 4.176708683371543884e-02 1.006287056952714920e-02 3.165408223867416382e-02 6.498486734926700592e-03 3.336377441883087158e-02 -1.127040386199951172e-02 -1.391562074422836304e-02 4.730352759361267090e-02 1.678387075662612915e-02 1.738716661930084229e-02 -7.256968412548303604e-03 1.622998900711536407e-02 -2.939079888164997101e-02 4.652006179094314575e-02 -9.806014597415924072e-03 2.805485762655735016e-02 3.158962726593017578e-02 -5.070567596703767776e-03 -1.820981316268444061e-02 -1.050271932035684586e-02 8.922638371586799622e-03 3.253788501024246216e-02 2.906388044357299805e-02 3.928656876087188721e-02 -1.662495546042919159e-02 6.940751336514949799e-03 9.060926386155188084e-04 2.046769298613071442e-02 1.946809142827987671e-02 -2.743581123650074005e-02 1.026076171547174454e-02 4.414513707160949707e-02 1.170304790139198303e-02 1.013525575399398804e-02 -3.338056430220603943e-02 2.529106335714459419e-03 2.531323395669460297e-02 -3.834590781480073929e-03 2.728079678490757942e-03 3.025819081813097000e-03 1.231895480304956436e-02 -3.400680050253868103e-02 2.207758650183677673e-02 -7.588821928948163986e-03 3.748652711510658264e-02 -2.446266822516918182e-02 -1.824684999883174896e-02 2.033166028559207916e-02 2.047276869416236877e-02 -1.185454241931438446e-02 -1.058229152113199234e-02 1.601486653089523315e-02 -1.442839577794075012e-02 3.898850828409194946e-02 3.422187641263008118e-03 1.138280052691698074e-02 8.529266342520713806e-03 -3.984813112765550613e-03 1.765994355082511902e-02 -2.225599624216556549e-02 2.526018209755420685e-02 3.133945539593696594e-02 1.070374250411987305e-02 8.132686838507652283e-03 -2.699836157262325287e-03 -2.333703078329563141e-02 -1.888561435043811798e-02 1.592147280462086201e-03 4.583422094583511353e-03 -1.407829113304615021e-02 -6.921113235875964165e-04 -5.804128199815750122e-02 -3.161706775426864624e-02 -2.224517613649368286e-02 2.604860626161098480e-02 -2.163389138877391815e-02 3.888908773660659790e-02 -5.279234424233436584e-02 -1.599413715302944183e-02 -1.213279273360967636e-02 -2.095085382461547852e-02 2.558544650673866272e-02 1.123352535068988800e-02 -5.028802528977394104e-02 -1.397355273365974426e-02 -2.749381354078650475e-03 4.552854597568511963e-02 1.495339092798531055e-03 7.908712723292410374e-05 1.613178476691246033e-02 -2.293400280177593231e-02 1.487268600612878799e-02 -2.117436937987804413e-02 -5.056055262684822083e-02 3.473384538665413857e-03 -7.190744858235120773e-03 -3.309268876910209656e-02 -3.204213082790374756e-02 -3.189209476113319397e-02 2.691506408154964447e-02 7.126301061362028122e-03 3.508824110031127930e-02 4.759603366255760193e-02 -1.154758967459201813e-02 3.111639991402626038e-02 6.580808199942111969e-03 -4.442505910992622375e-02 5.073931068181991577e-03 -3.966085147112607956e-03 -2.687797881662845612e-03 -4.758983477950096130e-02 -3.743825852870941162e-02 1.438421569764614105e-02 -6.643253844231367111e-03 1.030411384999752045e-02 2.594527788460254669e-03 1.444355584681034088e-02 2.222672477364540100e-02 1.326469145715236664e-02 2.645170688629150391e-02 -1.000934047624468803e-03 -2.712158299982547760e-02 -2.384247630834579468e-02 3.359551192261278629e-04 -1.362053398042917252e-02 -8.446446619927883148e-03 2.078651916235685349e-03 2.050587721168994904e-02 -3.253108635544776917e-02 -4.570093750953674316e-02 -1.620396785438060760e-02 2.628975734114646912e-02 2.687409147620201111e-02 1.806560717523097992e-02 7.940163835883140564e-03 -1.754312030971050262e-02 3.638957068324089050e-02 3.989703580737113953e-02 6.480580195784568787e-04 -2.628751844167709351e-02 -4.478047043085098267e-02 -1.873258850537240505e-03 -2.090187510475516319e-03 -3.276207298040390015e-02 4.422953352332115173e-02 1.366527099162340164e-02 -1.622920110821723938e-02 2.289855107665061951e-02 -1.212832890450954437e-02 -3.156284987926483154e-02 3.009168058633804321e-02 4.931401833891868591e-02 -3.370987484231591225e-03 3.449967876076698303e-02 -1.283733453601598740e-02 -2.894947305321693420e-02 -1.336372550576925278e-02 -4.182762652635574341e-02 1.787471398711204529e-02 -3.634663298726081848e-02 7.339153904467821121e-03 7.248030509799718857e-03 4.363644402474164963e-03 -4.161151126027107239e-02 1.306330040097236633e-02 -1.245666760951280594e-02 2.317219274118542671e-03 4.265198111534118652e-02 -1.888955384492874146e-02 1.250952947884798050e-02 7.809510920196771622e-03 -4.287187382578849792e-02 -1.217710599303245544e-02 -3.236692398786544800e-03 5.047759413719177246e-02 -1.544640492647886276e-02 1.509569678455591202e-02 -7.550052832812070847e-03 4.817401245236396790e-02 -3.943708911538124084e-02 3.255693614482879639e-02 1.489632879383862019e-03 2.493565157055854797e-02 1.906477101147174835e-02 -2.512278594076633453e-02 3.119655512273311615e-02 -2.882801741361618042e-02 -1.286306767724454403e-03 2.049425058066844940e-02 2.473496086895465851e-02 -1.452871016226708889e-03 -2.731268480420112610e-02 3.264858853071928024e-03 1.242966577410697937e-02 2.583906240761280060e-02 -2.960154972970485687e-02 8.470768108963966370e-03 3.103238530457019806e-02 -4.255742207169532776e-02 -1.690937019884586334e-02 -4.731116443872451782e-02 -2.649579942226409912e-02 -2.933798357844352722e-03 2.310186251997947693e-02 1.025431789457798004e-02 1.041486766189336777e-02 -2.513148263096809387e-02 4.399122553877532482e-04 1.103245187550783157e-02 4.375711828470230103e-02 -2.298430353403091431e-02 -4.042156040668487549e-02 5.038980394601821899e-03 -9.492501616477966309e-03 2.298068720847368240e-03 1.138649322092533112e-02 -3.223086521029472351e-02 9.618121199309825897e-03 -1.387378084473311901e-03 1.519244047813117504e-03 2.262399531900882721e-03 -3.947706427425146103e-03 -5.556334741413593292e-03 1.121972501277923584e-02 -1.559214107692241669e-02 -9.723443537950515747e-03 -1.747037842869758606e-02 -2.587160468101501465e-02 4.139773081988096237e-03 3.478511795401573181e-02 4.906184971332550049e-03 2.733784541487693787e-02 -3.183939680457115173e-02 -1.553621888160705566e-02 -3.598156943917274475e-02 5.529917776584625244e-03 3.105761855840682983e-02 -1.473548170179128647e-02 1.514688227325677872e-02 -6.757255643606185913e-03 1.401033625006675720e-02 -1.736588031053543091e-02 5.031497217714786530e-03 1.451062224805355072e-02 -1.682674139738082886e-02 2.672920934855937958e-02 -3.543378040194511414e-02 1.066347211599349976e-02 2.080483920872211456e-02 1.479708682745695114e-02 2.217543078586459160e-03 -1.111195515841245651e-02 -2.742196619510650635e-02 4.402532649692147970e-04 9.582264348864555359e-03 1.815882697701454163e-02 2.371069975197315216e-02 -4.223168268799781799e-02 -1.941572991199791431e-03 6.923914700746536255e-02 2.311837114393711090e-02 1.256953924894332886e-02 -1.427202578634023666e-02 6.434196233749389648e-02 -6.980147678405046463e-03 1.079374738037586212e-02 -9.277822449803352356e-03 4.676135256886482239e-02 -4.018507897853851318e-02 1.229472085833549500e-02 -1.262601744383573532e-02 -1.718642748892307281e-02 -3.559628129005432129e-02 -1.163788232952356339e-02 1.959371007978916168e-02 -3.795906901359558105e-02 -3.338512778282165527e-02 1.767514087259769440e-02 -3.152738139033317566e-02 -1.583638228476047516e-02 4.558568820357322693e-02 -1.928308047354221344e-02 -6.589882075786590576e-03 -9.231135249137878418e-03 4.677790682762861252e-03 1.974295638501644135e-02 1.197316125035285950e-02 -2.132278867065906525e-02 -6.583683658391237259e-03 3.581479564309120178e-02 5.766374524682760239e-03 -3.746594488620758057e-02 -1.650417223572731018e-02 3.715174505487084389e-03 2.405279502272605896e-02 -1.040401309728622437e-02 5.576326325535774231e-02 1.008388586342334747e-03 1.390995457768440247e-04 -8.590305596590042114e-02 3.979608789086341858e-02 -2.176603674888610840e-02 2.408578246831893921e-02 -1.885919086635112762e-02 4.027118906378746033e-02 1.578774536028504372e-03 -2.325700223445892334e-02 2.728104218840599060e-02 -9.246222674846649170e-03 -4.098858311772346497e-02 1.250946708023548126e-02 1.110320352017879486e-02 -1.361735817044973373e-02 3.687816485762596130e-02 3.014050237834453583e-02 5.571353714913129807e-03 2.472249791026115417e-02 -5.628644954413175583e-03 -6.373080890625715256e-03 -3.700004890561103821e-02 7.675738073885440826e-03 2.162823826074600220e-02 -2.103497646749019623e-02 -3.745925799012184143e-02 8.869559504091739655e-03 2.870380878448486328e-02 -8.129989728331565857e-03 8.482390083372592926e-03 -1.933338120579719543e-02 -9.970508515834808350e-03 3.300259262323379517e-02 -2.500137686729431152e-02 8.036820217967033386e-03 -4.928532242774963379e-02 -2.135190181434154510e-02 -6.660739425569772720e-03 -3.609669581055641174e-02 3.078611940145492554e-02 1.236287131905555725e-02 -5.513868108391761780e-02 3.605914860963821411e-02 -7.918124087154865265e-03 -6.321723107248544693e-03 1.267444528639316559e-02 -1.806452125310897827e-02 -1.855668087955564260e-04 2.600607089698314667e-02 -2.710498683154582977e-02 -2.865689434111118317e-02 -1.919677481055259705e-02 1.719105785014107823e-04 1.932058669626712799e-02 -3.314315155148506165e-02 -2.375121228396892548e-02 -2.841682173311710358e-02 8.596840314567089081e-03 -2.469075145199894905e-03 -4.086077958345413208e-02 -3.496536752209067345e-03 -1.709094271063804626e-03 -3.529271483421325684e-02 -8.503056131303310394e-03 -8.300072513520717621e-03 2.581951394677162170e-02 -3.906516730785369873e-02 2.165783382952213287e-02 -1.278823707252740860e-02 7.335778325796127319e-02 -3.244935302063822746e-03 1.680248789489269257e-02 3.622706234455108643e-02 -6.322591099888086319e-03 -2.883904846385121346e-03 1.927144825458526611e-02 5.609514564275741577e-02 -1.538153458386659622e-02 -7.197777740657329559e-03 -2.389076724648475647e-02 2.077585086226463318e-02 -3.669231757521629333e-02 -2.917530946433544159e-02 -2.939287200570106506e-02 2.859776467084884644e-02 -2.825242653489112854e-02 3.314283117651939392e-02 4.861515387892723083e-02 7.436668872833251953e-02 -1.752924732863903046e-02 -2.236602129414677620e-03 5.493794754147529602e-02 1.705528609454631805e-02 5.252318829298019409e-02 -1.333371549844741821e-02 -3.107926808297634125e-02 -3.023265674710273743e-02 -3.023072704672813416e-02 -1.593528315424919128e-02 -3.816773369908332825e-02 4.806921258568763733e-02 1.932763122022151947e-02 5.115465819835662842e-02 -3.534732013940811157e-02 -1.632223464548587799e-02 -2.789804525673389435e-02 1.290864683687686920e-02 1.524862553924322128e-02 1.184535026550292969e-02 4.505800083279609680e-02 -7.258018944412469864e-03 -1.065066643059253693e-02 -5.770604684948921204e-02 1.190398447215557098e-02 1.287727057933807373e-02 -3.142266720533370972e-02 2.952934475615620613e-03 4.180604591965675354e-02 -1.578058116137981415e-02 -2.405232936143875122e-02 -8.175591938197612762e-03 -2.147189155220985413e-02 4.293271526694297791e-02 1.093309931457042694e-02 3.830264508724212646e-02 1.274241134524345398e-02 -2.715394133701920509e-03 3.722838684916496277e-02 2.371651818975806236e-03 -3.674974665045738220e-03 6.872911006212234497e-03 -2.378389472141861916e-03 1.833951100707054138e-02 -4.169180244207382202e-02 -1.420806534588336945e-02 -1.042639538645744324e-01 7.954919710755348206e-03 -3.117315471172332764e-02 3.659415990114212036e-02 3.711030632257461548e-02 -2.267918549478054047e-02 2.081947587430477142e-02 3.443315252661705017e-02 -3.207662375643849373e-03 -1.768364384770393372e-02 4.660722613334655762e-02 1.801099441945552826e-02 -3.269586339592933655e-02 4.331937804818153381e-02 4.478925094008445740e-02 8.306713774800300598e-03 1.373376045376062393e-02 1.602839678525924683e-02 -1.094778184778988361e-03 2.858417294919490814e-02 -1.632618345320224762e-02 -3.324178606271743774e-02 -1.560487411916255951e-02 2.204978838562965393e-02 -1.866313628852367401e-02 -6.071818526834249496e-03 -2.135537005960941315e-02 -6.031537055969238281e-02 7.892448455095291138e-03 -1.667972840368747711e-02 -2.758704125881195068e-02 -5.730930250138044357e-03 -6.093604024499654770e-03 9.979998692870140076e-03 3.569934144616127014e-02 -1.838048920035362244e-02 -2.474279375746846199e-03 -2.107652090489864349e-02 7.194142322987318039e-03 -2.153802663087844849e-02 -4.492086172103881836e-02 1.969636231660842896e-02 -9.791238233447074890e-03 -3.477709367871284485e-02 1.387720555067062378e-02 1.470095384865999222e-02 -8.358404040336608887e-03 -1.468058768659830093e-02 -5.893013440072536469e-03 2.060777507722377777e-02 -2.465955913066864014e-02
1.276774425059556961e-02 2.451322041451931000e-02 -8.022601716220378876e-03 5.375989899039268494e-02 -1.913328422233462334e-03 1.982732303440570831e-02 1.568559557199478149e-02 -2.695185132324695587e-02 4.219678230583667755e-03 -4.217620193958282471e-02 -1.475266832858324051e-02 3.327006846666336060e-02 -5.591149907559156418e-03 2.603500708937644958e-02 8.521156385540962219e-03 -8.545562624931335449e-03 -2.801082283258438110e-02 -3.410798683762550354e-02 -2.836429700255393982e-02 2.551665343344211578e-02 -8.828342542983591557e-04 -3.216362558305263519e-03 1.884019188582897186e-02 1.670769788324832916e-02 -2.506288141012191772e-02 -6.114448234438896179e-02 3.533747745677828789e-03 1.014298480004072189e-02 -2.162960730493068695e-02 -1.113749854266643524e-02 5.880936235189437866e-02 -4.713824763894081116e-02 1.661281101405620575e-03 -1.282795332372188568e-02 1.433268655091524124e-02 -1.496575213968753815e-02 3.555879462510347366e-03 1.207205746322870255e-02 1.532126480014994740e-04 3.173407400026917458e-03 2.221461758017539978e-02 4.190634563565254211e-02 -3.731784597039222717e-02 2.823857963085174561e-02 3.891399875283241272e-02 3.969322517514228821e-02 6.423562765121459961e-02 1.107841357588768005e-02 -1.576385647058486938e-02 -2.282281406223773956e-02 -5.888990312814712524e-02 3.312516584992408752e-02 5.788955371826887131e-03 2.364706248044967651e-02 -7.683254033327102661e-02 -2.053673379123210907e-02 -1.546641346067190170e-03 4.759880155324935913e-02 3.448553755879402161e-02 -8.293006569147109985e-03 2.992868609726428986e-02 -2.819901332259178162e-02 -3.616560250520706177e-02 3.018427873030304909e-03 -3.049908019602298737e-02 9.076366201043128967e-03 -2.182661555707454681e-02 2.429253235459327698e-02 -3.118051774799823761e-02 -8.100388199090957642e-02 5.657900124788284302e-02 -1.618175208568572998e-02 3.960202261805534363e-02 2.275305427610874176e-02 2.901599369943141937e-02 5.881085991859436035e-02 -2.297408320009708405e-02 -6.947590503841638565e-03 3.745082020759582520e-02 1.772632449865341187e-02 -2.208796329796314240e-02 -2.394240722060203552e-02 -3.629986569285392761e-02 9.184152819216251373e-03 -1.064678188413381577e-02 1.031621173024177551e-02 -5.065064411610364914e-03 4.703719634562730789e-03 3.830955538433045149e-04 -1.099233631975948811e-03 -1.525985542684793472e-02 -9.738298133015632629e-03 -4.067037254571914673e-02 1.986859738826751709e-02 -2.154855057597160339e-02 2.312834933400154114e-02 -2.818474359810352325e-02 2.127994224429130554e-02 1.662125997245311737e-02 9.333017282187938690e-03 1.281697489321231842e-02 7.051749620586633682e-03 -9.454593062400817871e-03 -7.227375637739896774e-03 -4.692215006798505783e-03 1.747652888298034668e-02 3.803615272045135498e-02 -1.079625636339187622e-02 2.967412583529949188e-02 2.023399062454700470e-02 1.579573005437850952e-02 -1.167124020867049694e-03 -2.435152791440486908e-02 8.018723689019680023e-03 -1.210216619074344635e-02 2.262179180979728699e-02 -2.191085740923881531e-02 2.338051982223987579e-02 1.488783024251461029e-02 2.705841884016990662e-02 -7.389757782220840454e-03 -4.214668273925781250e-02 3.957237303256988525e-02 -2.869765833020210266e-02 -7.027604617178440094e-03 -1.731839403510093689e-02 -1.073183119297027588e-02 1.448778621852397919e-02 5.329573899507522583e-02 1.164215803146362305e-02 -1.919313520193099976e-02 5.662273615598678589e-02 -1.345518976449966431e-02 -1.439359039068222046e-02 -4.296039044857025146e-02 -2.179937995970249176e-02 -2.611869713291525841e-04 4.726644232869148254e-02 1.547424867749214172e-02 3.592579066753387451e-02 -1.361315511167049408e-02 6.867138203233480453e-03 -5.146140232682228088e-03 -3.327758610248565674e-02 -1.316684577614068985e-02 -2.264296635985374451e-02 1.931704580783843994e-02 -1.179482880979776382e-02 -1.161800883710384369e-02 -5.667383316904306412e-03 2.145733870565891266e-02 3.815846983343362808e-03 2.529127337038516998e-02 -1.891199848614633083e-03 2.263962104916572571e-02 -9.212066419422626495e-03 1.961674913763999939e-02 -7.241873536258935928e-04 5.440198816359043121e-03 3.077289089560508728e-03 -4.806561768054962158e-02 -9.571771137416362762e-03 -1.380373165011405945e-02 -7.004076987504959106e-02 -2.699083881452679634e-03 2.301330678164958954e-02 3.391220420598983765e-02 2.785195969045162201e-02 1.553459651768207550e-02 -5.959821864962577820e-03 5.883423238992691040e-02 -3.167220950126647949e-02 -5.339367315173149109e-03 -1.207044161856174469e-02 1.627239398658275604e-02 -2.094786427915096283e-02 -4.244012758135795593e-03 1.150694792158901691e-03 2.252695709466934204e-02 -7.089947164058685303e-02 1.951854489743709564e-02 2.202184870839118958e-02 -5.287413485348224640e-03 2.905741147696971893e-02 -1.953793503344058990e-02 7.452861405909061432e-03 -1.750448346138000488e-02 2.182222343981266022e-02 -3.096789866685867310e-02 -1.444655284285545349e-02 -3.627781197428703308e-02 -2.358179539442062378e-03 1.445668842643499374e-02 -4.157191887497901917e-02 -1.759760663844645023e-03 -5.366856697946786880e-03 1.123962271958589554e-02 7.157876621931791306e-03 2.401571720838546753e-02 -1.220497535541653633e-03 -3.268199414014816284e-02 1.796480268239974976e-02 1.056858524680137634e-02 -3.598128096200525761e-04 -4.466116800904273987e-02 -7.608895003795623779e-02 5.306438729166984558e-02 -7.069642189890146255e-03 3.593695163726806641e-02 -1.697141118347644806e-02 -6.202607881277799606e-03 -1.705444883555173874e-03 2.548784576356410980e-02 1.268556341528892517e-02 -7.601664867252111435e-03 1.865527709014713764e-03 7.449497003108263016e-03 7.788868155330419540e-03 2.308547310531139374e-02 6.927809212356805801e-03 -4.061864688992500305e-02 -1.759034208953380585e-02 -5.433086678385734558e-02 -2.161552198231220245e-02 -3.774142265319824219e-02 2.294218726456165314e-02 -1.486900914460420609e-02 4.595512524247169495e-02 2.849618904292583466e-02 -1.097734365612268448e-02 7.631452288478612900e-03 -3.190774098038673401e-02 -2.666765451431274414e-02 1.250984612852334976e-02 3.637273237109184265e-02 -3.951926529407501221e-02 -1.815098337829113007e-02 1.596338488161563873e-02 -2.123689092695713043e-02 -3.173896297812461853e-02 -1.890385709702968597e-02 8.458100259304046631e-03 -1.665520668029785156e-02 1.197041571140289307e-02 -3.497041761875152588e-02 3.527194634079933167e-02 -3.082803636789321899e-02 1.478272210806608200e-02 -3.805590420961380005e-02 2.298874966800212860e-02 -1.273922715336084366e-02 4.921733587980270386e-02 -2.469385741278529167e-03 8.509043604135513306e-03 -2.140233060345053673e-03 2.499340660870075226e-02 -3.136619925498962402e-02 -6.850101985037326813e-03 5.054352805018424988e-03 -5.028991401195526123e-02 1.255309022963047028e-02 -1.034817658364772797e-02 -1.122566778212785721e-02 -1.193312834948301315e-02 -3.201123792678117752e-03 1.402955222874879837e-02 1.944031938910484314e-02 1.575271785259246826e-02 7.356777321547269821e-03 -8.240213617682456970e-03 1.751299574971199036e-02 1.944305747747421265e-02 1.555163599550724030e-02 -5.834987387061119080e-04 -2.104270644485950470e-02 2.689676766749471426e-04 -7.692807354032993317e-03 2.909221511799842119e-04 3.244459256529808044e-02 5.881915334612131119e-03 2.774350717663764954e-02 7.826860062777996063e-03 2.190979197621345520e-02 1.665593124926090240e-02 2.187514305114746094e-02 1.728214137256145477e-02 6.110363081097602844e-02 1.745767518877983093e-02 1.796178705990314484e-02 1.686551235616207123e-02 -9.160293266177177429e-03 -3.964736126363277435e-03 -3.593931207433342934e-03 1.706309802830219269e-02 3.677831962704658508e-02 6.920279562473297119e-02 1.325996872037649155e-02 2.700832672417163849e-02 8.617104031145572662e-03 5.714437924325466156e-03 3.660749411210417747e-03 -4.748173058032989502e-02 -4.801021888852119446e-02 2.319515310227870941e-02 2.969994023442268372e-02 8.726419764570891857e-04 5.805170163512229919e-03 2.536413818597793579e-02 -2.301648631691932678e-02 6.444897502660751343e-03 1.564746163785457611e-02 -2.885326743125915527e-02 -2.747456543147563934e-02 -2.385209687054157257e-02 1.396518386900424957e-02 4.586506169289350510e-03 1.175285503268241882e-02 4.752486199140548706e-02 -2.778136543929576874e-02 -2.189695276319980621e-02 -1.281858608126640320e-02 1.653043925762176514e-02 1.956014707684516907e-02 1.581753045320510864e-02 1.696604653261601925e-03 5.827334523200988770e-02 6.803430616855621338e-03 -2.420462900772690773e-03 7.839898578822612762e-03 -9.452650323510169983e-03 1.637674402445554733e-03 4.097090661525726318e-02 1.821108162403106689e-02 3.428962826728820801e-02 3.035306744277477264e-02 -2.765518054366111755e-02 2.753447555005550385e-02 -1.085606496781110764e-02 -1.052654348313808441e-02 4.301296919584274292e-02 -3.973903600126504898e-03 3.353614010848104954e-04 6.861701258458197117e-04 -5.136996973305940628e-03 -2.424694970250129700e-02 1.195761840790510178e-02 -8.985200547613203526e-04 1.999677345156669617e-02 -2.091651782393455505e-02 -2.835671603679656982e-02 4.717676900327205658e-03 -2.005281159654259682e-03 -7.479832973331212997e-03 -1.144710835069417953e-02 -1.188319642096757889e-03 1.031758147291839123e-03 -3.678251802921295166e-02 -4.939056932926177979e-02 -8.663182961754500866e-04 4.089826345443725586e-02 -8.581941016018390656e-03 -2.103374339640140533e-02 7.224802393466234207e-03 -2.880869200453162193e-03 2.798692323267459869e-02 4.812487959861755371e-02 -6.444983184337615967e-03 -7.295771036297082901e-03 1.898461207747459412e-02 3.184615448117256165e-02 5.518284440040588379e-02 -5.710446462035179138e-02 1.672900654375553131e-02 1.309143751859664917e-02 1.092079281806945801e-02 3.625259548425674438e-02 2.720176614820957184e-02 -1.173902768641710281e-02 -5.518495105206966400e-03 8.051401004195213318e-03 1.440028194338083267e-02 2.331700548529624939e-02 -4.431422799825668335e-03 -6.120860576629638672e-03 1.248095929622650146e-02 3.530484437942504883e-02 -3.696284815669059753e-02 -1.010216027498245239e-02 -1.004203688353300095e-02 -6.240592896938323975e-02 -1.224958896636962891e-02 2.850301750004291534e-02 2.645329572260379791e-02 2.197884768247604370e-02 5.337360315024852753e-03 1.371712703257799149e-02 -5.599151924252510071e-02 2.026773989200592041e-02 5.845113098621368408e-02 -1.140732597559690475e-02 1.969266450032591820e-03 -3.238002955913543701e-02 1.388358324766159058e-02 -1.052398886531591415e-02 7.745690178126096725e-03 -2.110252343118190765e-02 1.908510178327560425e-02 -1.374376006424427032e-02 -2.493491210043430328e-02 -4.315000958740711212e-03 -2.609488181769847870e-02 2.125331945717334747e-02 -7.597393356263637543e-03 -5.883781239390373230e-03 1.151082012802362442e-02 2.940142713487148285e-02 -3.100058436393737793e-02 1.125454786233603954e-03 1.375398412346839905e-02 4.997265711426734924e-02 3.046411147806793451e-04 -2.670616656541824341e-02 -1.714519225060939789e-02 3.552304208278656006e-02 2.041899040341377258e-02 8.994469535537064075e-04 2.550424076616764069e-02 -2.859741635620594025e-02 -3.959535807371139526e-02 -8.836977649480104446e-04 1.031720638275146484e-02 4.291212558746337891e-02 5.587277188897132874e-02 2.685633953660726547e-03 -2.179959788918495178e-02 2.138533443212509155e-02 3.492874652147293091e-02 -3.066477738320827484e-02 -3.316088765859603882e-02 -1.713989186100661755e-03 9.560003876686096191e-03 1.889497041702270508e-02 -3.974628075957298279e-02 1.092300936579704285e-02 -1.820664270780980587e-03 1.240517292171716690e-02 1.133789587765932083e-02 -1.518906443379819393e-03 -3.370597958564758301e-02 -4.069962352514266968e-02 -1.530761737376451492e-02 -6.221176311373710632e-02 3.007672913372516632e-02 4.691765829920768738e-02 -8.068188326433300972e-04 -2.014804922509938478e-04 -5.207687150686979294e-03 -6.963048130273818970e-02 -1.297413278371095657e-02 -2.970348112285137177e-02 -1.846970990300178528e-02 -1.656016148626804352e-02 2.796394377946853638e-02 9.830441325902938843e-03 2.742904005572199821e-03 1.636400073766708374e-02 -3.478387661743909121e-04 2.996272640302777290e-03 -2.454717410728335381e-03 -3.063832595944404602e-02 1.671414449810981750e-02 -6.774908863008022308e-03 -4.563182219862937927e-02 -2.074691839516162872e-02 3.425042703747749329e-02 2.085765451192855835e-02 3.673680499196052551e-02 -2.516031265258789062e-02 -2.685700077563524246e-03 -1.699144206941127777e-02 2.175119332969188690e-02 3.528729081153869629e-03 3.870804980397224426e-02 -2.314935997128486633e-02 -4.049573093652725220e-02 -1.414331980049610138e-02 3.972125053405761719e-02 -1.019073836505413055e-02 -1.688800007104873657e-02 3.297651652246713638e-03 1.946642436087131500e-02 3.230655565857887268e-02 1.978722400963306427e-03 6.340283434838056564e-03 4.019435867667198181e-02 2.212075144052505493e-02 -2.271880209445953369e-02 1.482521183788776398e-02 1.529892999678850174e-02 -2.877462096512317657e-02 -8.430739864706993103e-03 2.549132332205772400e-02 -3.236113581806421280e-03 3.674649074673652649e-02 4.739066585898399353e-03 -5.512454546988010406e-03 2.624550089240074158e-02 1.957666687667369843e-02 -3.878165408968925476e-02 -8.848037570714950562e-03 -7.509207818657159805e-03 1.567527651786804199e-02
-8.279240690171718597e-03 -3.508755564689636230e-02 7.318812888115644455e-03 -1.810641959309577942e-02 -2.092360146343708038e-02 -1.555642206221818924e-02 2.854693494737148285e-02 -3.549828752875328064e-02 -2.736694924533367157e-02 1.086359843611717224e-02 -6.860565394163131714e-02 6.190875545144081116e-03 5.006144754588603973e-03 2.047555753961205482e-03 -3.415488079190254211e-02 -1.658820919692516327e-02 6.661660503596067429e-03 2.621703967452049255e-02 -7.779578445479273796e-04 1.273627043701708317e-03 -3.920739516615867615e-03 -5.660254508256912231e-02 5.921214353293180466e-03 -1.132453512400388718e-02 -8.650804520584642887e-04 3.409549966454505920e-02 -1.438263803720474243e-02 -3.959446027874946594e-02 7.113797590136528015e-03 -1.000334694981575012e-02 4.531054000835865736e-04 -2.521807514131069183e-02 1.739483512938022614e-02 -5.602762103080749512e-03 2.151188999414443970e-02 2.781914919614791870e-02 -5.373549647629261017e-03 -2.752430923283100128e-02 -1.350894942879676819e-02 -1.129836868494749069e-02 1.056120451539754868e-02 7.599556120112538338e-04 1.018078532069921494e-02 -6.963028013706207275e-02 -4.729880020022392273e-02 -4.164616391062736511e-02 -3.245748579502105713e-02 -7.343024015426635742e-02 -2.038502879440784454e-02 -1.050339546054601669e-02 1.471591182053089142e-02 -2.568497322499752045e-02 -5.776176601648330688e-02 1.552832592278718948e-02 3.187178820371627808e-02 -5.492677912116050720e-03 -2.638578787446022034e-02 -3.920837491750717163e-02 -3.778333589434623718e-02 -2.287943661212921143e-02 4.522718023508787155e-03 2.725776471197605133e-02 2.488020434975624084e-02 -5.146087706089019775e-02 4.396547004580497742e-02 3.498585149645805359e-02 2.058789692819118500e-02 -6.187455728650093079e-02 -1.624709554016590118e-02 3.147196397185325623e-02 1.759137026965618134e-02 2.574214478954672813e-03 -6.561262998729944229e-03 2.086339704692363739e-02 3.147201240062713623e-02 8.265777491033077240e-03 -1.222735922783613205e-02 3.020840464159846306e-03 -3.653277829289436340e-02 4.177313297986984253e-03 -2.808541990816593170e-03 -8.827277459204196930e-03 -4.040237888693809509e-02 -2.078450471162796021e-02 -1.055722963064908981e-02 -2.733462955802679062e-03 -1.019852794706821442e-02 4.359401389956474304e-02 -4.966816306114196777e-02 2.799328602850437164e-02 -4.093962907791137695e-02 5.228447914123535156e-02 5.608416628092527390e-03 1.065996289253234863e-02 3.806080296635627747e-02 3.733045980334281921e-02 3.672646731138229370e-02 5.189017951488494873e-02 4.445647820830345154e-02 4.673086851835250854e-02 1.642918214201927185e-02 -3.496326971799135208e-04 2.638093195855617523e-02 5.606897920370101929e-02 3.771565482020378113e-02 -1.892330497503280640e-02 8.085220120847225189e-03 6.330091506242752075e-03 3.180186450481414795e-02 -2.360181137919425964e-02 -2.224937453866004944e-02 9.635870344936847687e-03 2.391219604760408401e-03 4.495913907885551453e-02 -3.142168745398521423e-02 -1.064786920323967934e-03 9.917245060205459595e-02 -7.442362606525421143e-02 -1.564751565456390381e-02 -9.626886807382106781e-03 -1.121595222502946854e-02 7.506908383220434189e-03 -3.722493536770343781e-03 3.401128202676773071e-02 -4.013810306787490845e-02 1.671550422906875610e-02 2.506606467068195343e-02 -7.232497911900281906e-03 2.197246812283992767e-02 -3.867360949516296387e-02 1.318245567381381989e-02 6.124975159764289856e-02 3.938553389161825180e-03 1.693258807063102722e-02 1.187267596833407879e-03 -3.591943532228469849e-02 -1.527064852416515350e-02 -4.500975087285041809e-02 2.971129864454269409e-02 2.909251116216182709e-02 -2.481593564152717590e-02 -4.950396250933408737e-04 -8.719602599740028381e-03 -1.759352535009384155e-02 -2.916947752237319946e-02 2.859245426952838898e-02 3.970165550708770752e-02 -6.674815900623798370e-03 2.444216609001159668e-02 -1.758388243615627289e-02 -1.109408028423786163e-02 -1.888354658149182796e-03 -2.178614027798175812e-03 -7.450568675994873047e-02 -1.999752223491668701e-02 -3.858909476548433304e-03 4.474590346217155457e-02 -1.200548652559518814e-02 -5.223597586154937744e-02 -1.243994385004043579e-02 -5.004638805985450745e-04 2.312365919351577759e-02 7.240799814462661743e-02 2.598648145794868469e-02 3.846473619341850281e-02 5.370214581489562988e-02 -1.276230532675981522e-02 2.700359933078289032e-02 1.341058965772390366e-02 2.616750821471214294e-02 2.542030299082398415e-03 3.371095284819602966e-02 -1.461268961429595947e-02 -1.597557403147220612e-02 3.161113709211349487e-02 2.607833966612815857e-02 2.544400654733181000e-02 -9.834277443587779999e-03 -3.189115598797798157e-02 5.105803906917572021e-02 3.130743280053138733e-02 -3.724443959072232246e-03 1.799582503736019135e-03 -4.428255558013916016e-02 3.088293038308620453e-02 -4.103247448801994324e-02 1.004145853221416473e-02 3.928283601999282837e-02 1.903992146253585815e-02 7.828074507415294647e-03 -2.888718247413635254e-02 3.815133497118949890e-02 -3.812335804104804993e-02 -2.029042132198810577e-02 -2.195544913411140442e-02 2.138332277536392212e-02 8.869676850736141205e-03 1.750794798135757446e-02 3.789007663726806641e-02 -5.865728482604026794e-02 -8.155856281518936157e-03 9.582832455635070801e-03 3.235425800085067749e-02 1.642170944251120090e-03 5.463046021759510040e-03 3.997904062271118164e-02 1.505517773330211639e-02 -1.608938095159828663e-03 -2.920545078814029694e-02 2.808789163827896118e-02 6.778825819492340088e-02 4.756143316626548767e-03 -2.204606123268604279e-02 2.749821357429027557e-02 -2.380313910543918610e-02 1.711973547935485840e-02 -2.917806245386600494e-02 4.032808169722557068e-02 6.825479213148355484e-03 1.898276992142200470e-02 -1.547950878739356995e-02 -4.882529750466346741e-02 -1.087505649775266647e-02 -2.681232802569866180e-02 -5.503522604703903198e-02 -9.905826300382614136e-03 -4.955643787980079651e-02 3.969399258494377136e-03 -3.052297793328762054e-02 -4.365261271595954895e-02 1.014901231974363327e-02 3.057845868170261383e-02 -2.284586615860462189e-02 6.286186166107654572e-03 3.727613389492034912e-02 -1.718659326434135437e-02 3.696194663643836975e-02 6.948689464479684830e-03 5.272477865219116211e-02 -2.543911896646022797e-02 2.836053725332021713e-03 2.183199860155582428e-02 -3.031317144632339478e-02 1.961085014045238495e-02 -1.236974168568849564e-02 -2.961498126387596130e-02 9.627042338252067566e-03 -1.749067450873553753e-03 -3.523775376379489899e-03 -6.532236933708190918e-02 -1.147449482232332230e-02 3.296563029289245605e-02 1.162278000265359879e-02 -2.531637623906135559e-02 6.156450510025024414e-02 1.002914458513259888e-02 3.930494561791419983e-02 -1.434716396033763885e-02 -3.982480242848396301e-02 -2.087928541004657745e-02 1.750937290489673615e-02 7.294545881450176239e-03 1.124905794858932495e-02 1.987247541546821594e-02 1.377246156334877014e-02 -2.559182234108448029e-02 3.014681162312626839e-03 7.640022784471511841e-02 -3.434979915618896484e-02 -3.603395819664001465e-02 -4.539289325475692749e-02 -2.086561731994152069e-02 -3.539318963885307312e-02 8.783088997006416321e-03 3.820755705237388611e-02 2.431661449372768402e-02 -1.756538823246955872e-02 -2.778260735794901848e-03 2.113537862896919250e-02 4.861276224255561829e-02 3.689685463905334473e-02 1.040204055607318878e-02 -1.972356345504522324e-03 -3.173999488353729248e-02 -9.875879622995853424e-03 -1.020970046520233154e-01 9.376668371260166168e-03 6.435695104300975800e-03 -1.019080914556980133e-02 -2.539192326366901398e-03 3.403528127819299698e-03 -9.105524048209190369e-03 1.335079222917556763e-02 3.186914604157209396e-03 2.305046282708644867e-02 -2.509806118905544281e-02 -3.525124117732048035e-02 4.345214460045099258e-03 -4.916153382509946823e-03 -2.198824286460876465e-02 4.759913310408592224e-02 -7.623661309480667114e-03 1.653294637799263000e-02 -3.523345803841948509e-03 -1.598214497789740562e-03 -1.687463745474815369e-02 -3.074919618666172028e-02 3.092211484909057617e-02 -1.554897055029869080e-02 8.804554119706153870e-03 -3.016569092869758606e-02 -3.500976786017417908e-02 2.923976071178913116e-02 -3.925218805670738220e-02 -9.296889416873455048e-03 -1.780547574162483215e-02 2.886764146387577057e-02 3.251085430383682251e-02 -7.164213806390762329e-02 2.210097201168537140e-02 -3.370740683749318123e-03 -3.548926115036010742e-02 5.524101667106151581e-03 -2.184293465688824654e-03 -2.951467642560601234e-03 2.031982317566871643e-02 2.235221303999423981e-02 -2.338487096130847931e-02 3.421661257743835449e-02 1.978458277881145477e-02 -7.190115004777908325e-02 1.941601559519767761e-02 9.892627596855163574e-03 -6.946178618818521500e-04 -1.750309765338897705e-02 6.646701600402593613e-03 2.311532152816653252e-03 5.117597989737987518e-03 2.803506702184677124e-02 -3.174651414155960083e-02 -1.546664256602525711e-02 -4.640144482254981995e-02 2.839687094092369080e-02 -4.099291935563087463e-02 -4.544022027403116226e-03 4.697307571768760681e-02 3.982157912105321884e-03 2.404676377773284912e-02 -4.412528127431869507e-03 8.530183549737557769e-05 3.745816415175795555e-03 6.553327664732933044e-03 -2.086684107780456543e-02 1.504913531243801117e-02 -8.622665889561176300e-03 -1.870283973403275013e-03 6.986950337886810303e-02 -2.495728991925716400e-02 1.402977388352155685e-02 1.223201281391084194e-03 -2.589947544038295746e-02 -4.290026798844337463e-02 5.094674881547689438e-03 4.237393382936716080e-03 -4.988992586731910706e-02 -3.247315436601638794e-02 2.832643920555710793e-03 3.653405234217643738e-02 2.048841491341590881e-02 2.973146038129925728e-03 8.310946635901927948e-03 -2.111318754032254219e-03 1.321468595415353775e-02 -1.959889195859432220e-03 -4.200477525591850281e-02 2.553041093051433563e-02 3.226731345057487488e-02 -2.836138010025024414e-02 4.482895135879516602e-02 -2.252327091991901398e-02 4.792657494544982910e-02 2.122506033629179001e-03 2.235494367778301239e-02 2.222443930804729462e-02 5.743549764156341553e-02 9.815965779125690460e-03 5.559521540999412537e-02 2.596894651651382446e-02 6.352461874485015869e-02 1.900423318147659302e-02 -1.359786652028560638e-02 -2.715001069009304047e-02 5.693138390779495239e-02 -1.765301916748285294e-03 -8.854337967932224274e-03 4.524522274732589722e-02 -4.364309832453727722e-02 -2.977959439158439636e-02 -1.695419475436210632e-02 -2.523532137274742126e-03 4.310555383563041687e-02 2.881077490746974945e-02 -2.039361558854579926e-02 1.622109487652778625e-02 -2.474304102361202240e-02 5.307079758495092392e-03 1.941165141761302948e-02 -2.889350289478898048e-03 4.386408254504203796e-02 1.938207074999809265e-02 -3.094842843711376190e-02 1.633851043879985809e-02 -1.020705699920654297e-02 -6.204350385814905167e-03 3.681395202875137329e-02 -2.248830720782279968e-02 1.112079713493585587e-02 5.301054334267973900e-04 -8.516031317412853241e-03 -1.624651625752449036e-02 -2.637038705870509148e-03 -1.880362979136407375e-03 1.523476932197809219e-02 2.768370788544416428e-03 -3.316060453653335571e-02 8.808068931102752686e-03 1.696269400417804718e-02 -5.853353068232536316e-04 2.775751426815986633e-02 4.104157537221908569e-02 -1.755931228399276733e-02 2.375905029475688934e-02 -3.390693571418523788e-03 2.440934069454669952e-02 9.249666705727577209e-03 -2.978712320327758789e-02 6.433384120464324951e-02 1.086567062884569168e-02 -4.727634415030479431e-02 4.105864465236663818e-02 3.428356349468231201e-02 8.267178200185298920e-03 -1.193378865718841553e-02 -2.266338467597961426e-02 -7.681928109377622604e-03 9.728670120239257812e-03 -6.448543630540370941e-03 -1.661463268101215363e-02 -1.906140707433223724e-02 -2.918272046372294426e-03 -2.533973194658756256e-02 4.756145644932985306e-03 3.667498379945755005e-02 6.099893711507320404e-03 -4.910967499017715454e-02 -1.893051713705062866e-02 -3.142632171511650085e-02 2.098775655031204224e-02 -2.011944912374019623e-02 1.395185664296150208e-02 3.986810147762298584e-02 -4.036805406212806702e-02 -5.964997038245201111e-02 5.565112922340631485e-03 -2.437876723706722260e-02 3.067262284457683563e-02 -4.295268282294273376e-02 3.771774098277091980e-02 -1.212956104427576065e-02 -9.235278703272342682e-03 1.865184865891933441e-02 -1.718152686953544617e-02 -1.695106551051139832e-02 9.232167154550552368e-03 2.522787451744079590e-02 -2.158222906291484833e-02 2.185490913689136505e-02 -6.716820597648620605e-02 -4.614638164639472961e-02 -1.689458149485290051e-03 -2.258335053920745850e-02 1.769349165260791779e-02 1.873656176030635834e-02 -3.504804149270057678e-02 3.399217873811721802e-02 2.416025148704648018e-03 2.754954807460308075e-02 -4.397680051624774933e-03 4.869116470217704773e-02 4.659825935959815979e-02 6.832727044820785522e-02 1.880387216806411743e-02 2.706442028284072876e-02 8.180130273103713989e-03 -4.181649163365364075e-02 -8.082609623670578003e-03 2.234644722193479538e-03 -8.665460045449435711e-04 -3.295422345399856567e-02 5.491409916430711746e-03 4.500520229339599609e-02 -1.386960968375205994e-02 -5.250777304172515869e-02 7.570890244096517563e-03 -2.570795454084873199e-02 -1.030266564339399338e-02 4.933067597448825836e-03 1.321370899677276611e-02 5.153417214751243591e-02 -1.852058246731758118e-02 8.321754634380340576e-03 -3.144454210996627808e-03
2.527188509702682495e-02 -1.863295212388038635e-02 -2.249903418123722076e-02 7.338012102991342545e-03 5.871268222108483315e-04 1.938711479306221008e-02 -4.870309680700302124e-02 -2.293455414474010468e-02 7.976433262228965759e-03 1.929531805217266083e-02 -2.840401232242584229e-02 4.115478694438934326e-02 -5.831439513713121414e-03 -3.379209712147712708e-02 -2.581771649420261383e-02 1.344320829957723618e-02 -1.878406852483749390e-02 -5.711407866328954697e-03 2.081180922687053680e-02 8.625627495348453522e-03 1.298986747860908508e-02 1.030502747744321823e-02 -1.413260307163000107e-02 3.380631655454635620e-02 2.558371052145957947e-02 -1.555823837406933308e-03 8.888770826160907745e-03 -1.206010114401578903e-02 -1.710424572229385376e-02 3.033210756257176399e-03 2.897516079246997833e-02 -9.554667398333549500e-03 -5.053481832146644592e-02 1.994752325117588043e-02 -2.649145945906639099e-02 4.070688784122467041e-02 1.431688480079174042e-02 -1.776691526174545288e-02 9.157564491033554077e-03 -2.786022238433361053e-02 2.182935364544391632e-02 -4.988017608411610126e-04 -1.638556597754359245e-03 -5.670637823641300201e-03 -1.416923757642507553e-02 -1.302296388894319534e-02 2.481538988649845123e-02 -4.200002178549766541e-02 -4.884767904877662659e-02 -9.223270462825894356e-04 2.359367348253726959e-02 -6.129582971334457397e-02 6.857574917376041412e-03 -2.724851109087467194e-02 2.149683190509676933e-03 1.757719181478023529e-02 1.106753200292587280e-02 -1.762344315648078918e-02 -1.782743073999881744e-02 2.645985595881938934e-02 2.567781507968902588e-02 6.479096133261919022e-03 -5.440165847539901733e-02 2.071969956159591675e-02 4.107196815311908722e-03 -4.749234393239021301e-02 1.895430381409823895e-03 -3.364234790205955505e-02 -8.747513405978679657e-03 -2.045476436614990234e-02 -1.300091855227947235e-02 3.453816473484039307e-02 -3.122697584331035614e-02 -3.068186528980731964e-02 1.171546429395675659e-02 7.055960595607757568e-03 -6.149405241012573242e-02 -1.687252335250377655e-02 -5.100981798022985458e-03 1.596017181873321533e-02 3.284069150686264038e-02 2.550821751356124878e-02 1.440910855308175087e-03 3.220573067665100098e-02 1.405129791237413883e-03 -1.153554301708936691e-02 2.715510688722133636e-02 -4.015708714723587036e-02 2.281374484300613403e-02 -8.702663704752922058e-03 -1.353554148226976395e-02 -8.383905887603759766e-02 3.979148808866739273e-03 -8.339204825460910797e-03 3.878291696310043335e-02 3.170363605022430420e-02 4.734646156430244446e-02 -1.905049569904804230e-02 -6.113160401582717896e-03 4.673925694078207016e-03 -1.179541740566492081e-02 3.872166853398084641e-03 -2.204058691859245300e-02 2.184747532010078430e-02 3.173408657312393188e-02 -5.605492740869522095e-03 5.716403946280479431e-02 1.865826360881328583e-02 -5.888538900762796402e-03 9.021487785503268242e-04 1.727248774841427803e-03 1.090502552688121796e-02 4.062330815941095352e-03 -1.117436308413743973e-02 -2.100410498678684235e-02 2.293696440756320953e-02 -3.578861057758331299e-02 -1.402682904154062271e-02 -2.734512090682983398e-02 -9.952899999916553497e-03 -3.710355609655380249e-02 -9.866523556411266327e-03 2.130098082125186920e-02 1.889225677587091923e-03 1.995065249502658844e-02 -2.289730869233608246e-02 -9.063502773642539978e-03 9.556532837450504303e-03 1.340503245592117310e-02 -1.368949748575687408e-02 -4.361318051815032959e-02 -1.716266199946403503e-02 -8.261844050139188766e-04 3.897420316934585571e-02 2.938926406204700470e-02 -4.064978286623954773e-02 -1.649921946227550507e-02 -1.243362112290924415e-05 7.154686376452445984e-03 -3.514761850237846375e-02 -2.084507374092936516e-03 1.483561098575592041e-02 -2.202599868178367615e-02 -3.598152543418109417e-04 -1.282772142440080643e-02 -9.434231556951999664e-03 -1.729245856404304504e-02 -1.930683851242065430e-02 -1.730614749249070883e-04 1.698604971170425415e-02 -2.652325853705406189e-02 -3.184320637956261635e-03 -2.703224495053291321e-02 3.134844079613685608e-02 2.782626776024699211e-03 1.442519016563892365e-02 1.527035422623157501e-02 4.881327599287033081e-02 2.748097293078899384e-02 3.514668345451354980e-02 -1.880006492137908936e-02 -2.262303605675697327e-02 -3.318170830607414246e-02 -5.625269934535026550e-02 -4.975137859582901001e-02 -2.307334542274475098e-02 1.387336663901805878e-02 2.088157460093498230e-03 4.721378535032272339e-02 -1.310554146766662598e-02 -5.386650096625089645e-03 1.298928074538707733e-02 -1.035183575004339218e-02 5.717528238892555237e-02 5.259507149457931519e-02 -1.963961869478225708e-02 1.865293085575103760e-02 5.521056707948446274e-03 -1.427768357098102570e-02 -2.328749001026153564e-02 1.003563310950994492e-02 3.984311595559120178e-03 4.930042475461959839e-02 2.599223284050822258e-03 -2.972055599093437195e-02 1.808320172131061554e-02 -2.803782932460308075e-03 1.428760495036840439e-02 7.881433703005313873e-03 8.891892503015697002e-04 4.204578697681427002e-02 2.743474394083023071e-02 -6.411701440811157227e-02 -1.785312779247760773e-02 -5.086776241660118103e-02 4.475907236337661743e-02 -1.996093615889549255e-02 5.244642868638038635e-02 6.733703613281250000e-02 -2.145313285291194916e-02 1.648539118468761444e-02 2.291712723672389984e-02 4.659424535930156708e-03 -2.777592279016971588e-02 -1.021427288651466370e-02 4.274467751383781433e-02 1.585572585463523865e-02 5.914101377129554749e-02 -2.563906647264957428e-02 8.636245504021644592e-03 3.358022868633270264e-02 3.697099164128303528e-02 -3.889299929141998291e-02 -8.486696518957614899e-03 1.115587726235389709e-02 -9.263549000024795532e-03 -1.296248286962509155e-02 2.048069611191749573e-02 1.515394262969493866e-02 1.150711812078952789e-02 -6.757377833127975464e-02 1.822869479656219482e-02 5.653084721416234970e-03 3.736815648153424263e-03 -1.368017401546239853e-02 3.660482913255691528e-02 1.009350456297397614e-02 3.343282965943217278e-03 -3.303668275475502014e-02 1.862415485084056854e-02 3.664507716894149780e-02 -7.811991381458938122e-04 4.300131276249885559e-02 2.271337993443012238e-02 -7.934635877609252930e-02 2.418560907244682312e-02 -1.232863776385784149e-02 6.431923806667327881e-02 -5.791960284113883972e-03 -2.686117775738239288e-03 4.266370524419471622e-05 2.365311421453952789e-02 -1.937627419829368591e-02 -2.393165603280067444e-02 1.179310772567987442e-02 -6.902007851749658585e-03 -9.140113368630409241e-03 -8.724222891032695770e-03 2.829981222748756409e-02 1.184518076479434967e-02 -2.198212780058383942e-02 2.557625249028205872e-02 2.775153890252113342e-02 -1.854315400123596191e-02 -1.390133984386920929e-02 -8.019076660275459290e-03 -4.553093016147613525e-02 2.066928520798683167e-02 -1.624465733766555786e-02 2.485845796763896942e-02 -3.935048729181289673e-02 2.139417687430977821e-03 1.708076708018779755e-02 -3.319180011749267578e-02 -2.627070806920528412e-02 -4.760124534368515015e-02 9.957287460565567017e-03 -7.549482863396406174e-03 -7.328017801046371460e-02 7.318309973925352097e-03 -6.469236314296722412e-02 -2.016758173704147339e-02 -5.137923639267683029e-03 -3.641455667093396187e-03 7.287588086910545826e-04 4.617747385054826736e-03 1.087352354079484940e-02 2.860760129988193512e-02 4.143922775983810425e-02 -4.667573608458042145e-03 1.379110664129257202e-02 -3.136762231588363647e-02 -3.984484449028968811e-02 -1.441765483468770981e-02 1.242718752473592758e-02 2.755057625472545624e-02 4.065101593732833862e-02 -3.815861791372299194e-02 -2.867215313017368317e-02 5.606461782008409500e-03 -8.472098037600517273e-03 -2.325849607586860657e-02 3.923099860548973083e-02 3.331995010375976562e-02 -1.738535612821578979e-02 -1.714932499453425407e-03 3.826319426298141479e-02 1.210342627018690109e-02 2.597353234887123108e-02 6.332049379125237465e-04 5.642055347561836243e-02 1.263185124844312668e-02 1.930081844329833984e-02 -2.059660106897354126e-02 1.871000602841377258e-02 -4.891736432909965515e-02 -3.741760551929473877e-02 -1.613790541887283325e-02 3.924987092614173889e-02 3.529926296323537827e-03 2.041033841669559479e-02 2.761818468570709229e-02 3.513708012178540230e-03 1.464243885129690170e-02 -4.833887889981269836e-02 -3.097531013190746307e-02 1.458763051778078079e-02 -4.360846802592277527e-02 4.942302592098712921e-03 -3.393135964870452881e-02 -3.122192621231079102e-02 4.683003935497254133e-04 -1.282666530460119247e-02 2.114456379786133766e-03 -1.442187000066041946e-02 2.105923835188150406e-03 2.706836536526679993e-02 3.376480937004089355e-02 2.588238008320331573e-02 -6.810578517615795135e-03 -1.033414714038372040e-02 2.040052227675914764e-02 4.109642654657363892e-02 -3.975812718272209167e-02 7.723883725702762604e-03 2.397869527339935303e-02 1.019921805709600449e-02 2.910507842898368835e-02 -3.983823955059051514e-02 -8.435714058578014374e-03 -3.486581519246101379e-02 -3.699373826384544373e-02 -2.114841341972351074e-02 -2.240858785808086395e-02 -3.931211307644844055e-02 1.289653312414884567e-02 2.282165177166461945e-02 -4.061589017510414124e-02 2.415869152173399925e-03 5.253204726614058018e-04 -1.534540206193923950e-02 -6.078143604099750519e-03 1.109589263796806335e-02 1.828690059483051300e-02 -1.728863082826137543e-02 2.407944994047284126e-03 -3.718611085787415504e-03 1.122693065553903580e-02 -2.678291173651814461e-03 -9.124739881372079253e-05 1.104257442057132721e-02 -1.573164947330951691e-02 2.497705099813174456e-05 -6.071065086871385574e-03 -3.220819635316729546e-03 -4.089435096830129623e-03 2.542404644191265106e-02 -1.907511800527572632e-02 5.610707029700279236e-02 -8.879319764673709869e-03 -8.293528808280825615e-04 -1.852234452962875366e-02 -9.296951815485954285e-03 -5.611670389771461487e-02 -3.685173392295837402e-02 1.736576901748776436e-03 -2.237012609839439392e-02 1.937602832913398743e-02 -2.011246420443058014e-02 -6.641181558370590210e-02 -1.173724653199315071e-03 7.912429049611091614e-03 -6.266511511057615280e-03 1.580320298671722412e-02 -1.275822892785072327e-02 -2.678677812218666077e-02 -4.378540441393852234e-02 -1.657533645629882812e-02 1.977155357599258423e-02 4.419569391757249832e-03 -4.055831953883171082e-02 2.059535123407840729e-02 1.680853078141808510e-03 1.552198641002178192e-02 -4.318817052990198135e-03 -1.992171443998813629e-02 2.585184015333652496e-02 4.590723197907209396e-03 -3.247376764193177223e-03 4.208126664161682129e-02 3.875454515218734741e-02 2.884780429303646088e-02 -3.826446458697319031e-02 2.472793310880661011e-02 -5.210127681493759155e-02 -5.540675949305295944e-03 -2.314104698598384857e-02 -2.697473391890525818e-03 2.286125207319855690e-03 -1.449229754507541656e-02 -2.622207999229431152e-02 -3.548754379153251648e-02 -1.695591397583484650e-02 -1.209741551429033279e-02 -2.138013020157814026e-02 1.026504207402467728e-03 2.350296080112457275e-02 2.874726429581642151e-02 1.157528068870306015e-02 9.537206031382083893e-03 -1.631272584199905396e-02 3.566135466098785400e-02 -1.529423706233501434e-02 3.618060797452926636e-02 -2.761341072618961334e-02 -5.681246519088745117e-02 -2.697899704799056053e-03 -3.231064602732658386e-02 3.093047533184289932e-03 1.322602853178977966e-02 -1.632717810571193695e-02 -8.267304860055446625e-03 -2.192318998277187347e-02 2.753284573554992676e-02 -3.016981109976768494e-02 2.785090729594230652e-02 1.260384358465671539e-02 -1.411596778780221939e-02 -3.915195539593696594e-02 -4.990867804735898972e-03 1.861264370381832123e-02 -1.297222170978784561e-02 -5.526526831090450287e-03 -2.085188403725624084e-02 -7.905041798949241638e-03 5.297564715147018433e-02 3.588571026921272278e-02 -6.586062256246805191e-03 -3.024116624146699905e-03 -1.086072809994220734e-02 3.382968902587890625e-02 -6.178418174386024475e-03 -1.187540125101804733e-02 -8.379130624234676361e-03 -2.767463214695453644e-03 1.530197635293006897e-02 -1.006840169429779053e-02 -1.731890253722667694e-02 3.342106565833091736e-02 7.469163741916418076e-03 -1.471079187467694283e-03 6.692738831043243408e-02 -2.596823032945394516e-03 1.686015166342258453e-02 -4.591887816786766052e-03 -1.002509798854589462e-02 -1.306193973869085312e-02 -3.082869807258248329e-03 -2.509792568162083626e-03 1.692246459424495697e-02 2.412503771483898163e-02 2.535231597721576691e-02 -2.846528775990009308e-03 3.167652292177081108e-03 2.769534476101398468e-03 -2.882510609924793243e-02 3.234724747017025948e-03 -3.480580169707536697e-03 7.894230075180530548e-04 1.523467432707548141e-02 -2.063575759530067444e-02 -1.029419060796499252e-02 1.052653882652521133e-02 1.230503339320421219e-02 4.237543791532516479e-02 1.753844879567623138e-02 5.381124094128608704e-03 -4.861080087721347809e-03 -3.215716779232025146e-02 -2.673419564962387085e-02 1.262483652681112289e-02 1.018133130855858326e-03 4.682003986090421677e-03 -7.123148441314697266e-02 -1.732356101274490356e-02 2.988274209201335907e-02 3.015071526169776917e-02 -5.525799468159675598e-03 5.048261210322380066e-02 -1.079373992979526520e-02 3.543080762028694153e-02 -1.994320750236511230e-02 2.277237130329012871e-03 -1.887028338387608528e-03 -2.986969612538814545e-02 2.785219252109527588e-02 1.784744299948215485e-02 3.280590474605560303e-02 9.056503884494304657e-03 1.521414029411971569e-03 4.563647136092185974e-02 3.827011585235595703e-02
7.638460397720336914e-02 7.644200697541236877e-03 -3.722492977976799011e-02 4.924983903765678406e-02 2.397291548550128937e-02 -2.932661911472678185e-03 1.061297114938497543e-02 -6.085662171244621277e-02 -2.155494317412376404e-02 2.145388163626194000e-02 -4.273994639515876770e-02 -3.029167279601097107e-02 -5.095740407705307007e-02 -2.334343641996383667e-02 2.621629741042852402e-03 8.548344485461711884e-03 2.459533326327800751e-02 -2.888812310993671417e-02 -1.144022494554519653e-02 -5.077345296740531921e-02 3.238628804683685303e-02 -3.237770125269889832e-02 1.334312930703163147e-02 -1.743135042488574982e-02 2.473916113376617432e-02 1.330176927149295807e-02 -5.970181897282600403e-03 6.637232005596160889e-02 2.869170531630516052e-02 -3.471536189317703247e-02 -4.837971925735473633e-02 1.344983372837305069e-02 1.879880204796791077e-02 1.258002594113349915e-02 4.143929854035377502e-02 2.706891624256968498e-03 -2.825659140944480896e-02 9.922444820404052734e-03 1.405570842325687408e-02 1.424436736851930618e-02 6.183422170579433441e-03 9.468168951570987701e-03 -3.339787200093269348e-02 -1.132882479578256607e-02 -2.099806256592273712e-02 -1.758607104420661926e-02 -3.760211914777755737e-02 1.558776572346687317e-02 1.122189313173294067e-02 2.101631648838520050e-02 -7.147693634033203125e-02 -3.564401343464851379e-02 -6.594428792595863342e-03 1.745333336293697357e-02 -2.939466759562492371e-02 3.734708949923515320e-02 5.004244390875101089e-03 2.574490383267402649e-03 3.501937165856361389e-02 -1.137808989733457565e-02 -3.739939630031585693e-02 2.554172463715076447e-02 4.783833771944046021e-02 -4.473675042390823364e-02 1.565086841583251953e-02 -2.505466155707836151e-02 1.774953491985797882e-02 -1.157630700618028641e-02 -4.626010358333587646e-02 -9.884940460324287415e-03 1.329100970178842545e-02 5.513412877917289734e-03 3.029322484508156776e-03 -2.922905795276165009e-02 3.180310875177383423e-02 9.944816119968891144e-03 1.292993593961000443e-02 -2.499418891966342926e-02 2.602838166058063507e-02 1.208615582436323166e-02 7.854399271309375763e-03 3.765274537727236748e-03 8.424229919910430908e-03 -1.417274493724107742e-02 -5.506194010376930237e-02 -9.480840526521205902e-03 -2.334565622732043266e-03 -4.406692832708358765e-02 1.522217132151126862e-02 -6.193974986672401428e-02 -6.763676647096872330e-03 -8.040084503591060638e-03 2.269569970667362213e-02 -6.246416363865137100e-03 -2.918710000813007355e-03 -3.433669684454798698e-03 -1.424596644937992096e-02 -2.964456193149089813e-02 4.581586271524429321e-02 -1.861897483468055725e-02 -1.346362009644508362e-02 1.821778900921344757e-02 -1.279474515467882156e-02 -1.972944661974906921e-02 1.330863498151302338e-02 -8.731084875762462616e-03 1.999883167445659637e-02 4.638763889670372009e-02 9.998763911426067352e-03 -2.959250658750534058e-02 -4.346911981701850891e-02 2.764064632356166840e-02 7.451969198882579803e-03 -2.209494635462760925e-02 -3.685635281726717949e-03 1.785100437700748444e-02 -2.198505587875843048e-02 -2.091401256620883942e-03 -4.135667905211448669e-02 5.495641846209764481e-03 -5.212749168276786804e-02 -1.086579542607069016e-02 4.258756339550018311e-02 -5.247993767261505127e-02 -1.625279337167739868e-02 -2.190735749900341034e-02 -5.814634263515472412e-03 4.363545402884483337e-02 -2.787719853222370148e-02 1.710801757872104645e-02 6.184097379446029663e-03 -9.081522002816200256e-03 3.809376806020736694e-02 6.174086127430200577e-03 1.346336863934993744e-02 8.214665576815605164e-03 6.922278087586164474e-03 8.089705556631088257e-02 -1.280488166958093643e-02 3.147034347057342529e-02 -4.316579084843397141e-03 -2.558315731585025787e-02 -2.835581079125404358e-02 2.887639589607715607e-02 2.196483500301837921e-02 5.914776120334863663e-03 2.128125866875052452e-03 -6.726481020450592041e-02 -1.485913526266813278e-02 2.136402390897274017e-02 -4.055890440940856934e-02 4.116352647542953491e-03 -1.731842942535877228e-02 -4.456597939133644104e-02 2.111152512952685356e-03 -1.228161342442035675e-02 -2.421400137245655060e-02 3.172820806503295898e-02 -1.003579050302505493e-02 3.586841747164726257e-03 3.910250496119260788e-03 4.500555992126464844e-02 7.386023178696632385e-03 -1.981098391115665436e-02 1.911103725433349609e-02 -2.079652808606624603e-02 -1.701374351978302002e-02 -2.002092264592647552e-02 1.491499505937099457e-02 -5.734049528837203979e-02 3.054915694519877434e-03 4.644771292805671692e-02 -1.258352678269147873e-02 3.595445537939667702e-03 2.386560104787349701e-02 2.076533809304237366e-02 -1.787537150084972382e-02 3.646181197836995125e-03 8.468264713883399963e-03 -4.519129544496536255e-02 -5.906170234084129333e-02 3.234009025618433952e-03 -1.766966097056865692e-02 1.564502716064453125e-03 -1.368741877377033234e-02 2.825686708092689514e-02 1.261643413454294205e-02 3.718796372413635254e-02 9.086444973945617676e-03 -2.187544596381485462e-04 9.570259600877761841e-03 -1.077495422214269638e-02 7.200511544942855835e-02 3.522735089063644409e-02 2.333604730665683746e-02 -4.251534119248390198e-02 3.572409600019454956e-02 -6.231956183910369873e-03 -2.188210748136043549e-02 -6.990544032305479050e-03 -1.804309152066707611e-02 1.900740154087543488e-02 -3.212228044867515564e-02 2.712368220090866089e-02 1.113393064588308334e-02 2.968700369819998741e-03 3.258637711405754089e-02 -1.606711000204086304e-02 2.587453275918960571e-02 3.020942024886608124e-02 -1.152093871496617794e-03 -4.879727214574813843e-02 -4.667006060481071472e-02 2.751014940440654755e-02 -1.636799541302025318e-03 -5.044368654489517212e-02 1.591070741415023804e-02 -1.048859395086765289e-02 -7.864466751925647259e-04 -3.492026031017303467e-02 -8.004608564078807831e-03 -2.257939800620079041e-02 2.405670844018459320e-02 4.422827158123254776e-03 -5.853197071701288223e-03 5.091704800724983215e-02 5.098607391119003296e-02 -4.173107817769050598e-02 1.384337956551462412e-04 -1.927426643669605255e-02 -3.942052274942398071e-02 -2.243903651833534241e-02 -5.763389635831117630e-03 -5.741834640502929688e-02 3.738189488649368286e-02 4.187617823481559753e-02 -3.328952938318252563e-03 4.468049155548214912e-04 -2.177623659372329712e-02 2.631417848169803619e-02 3.687148168683052063e-02 -1.344561576843261719e-03 -1.085365284234285355e-02 -4.567610472440719604e-02 2.971373684704303741e-02 2.443215250968933105e-02 -7.593837566673755646e-03 -6.693657021969556808e-03 -2.927107852883636951e-04 -2.458661235868930817e-02 3.829388879239559174e-03 -3.176840022206306458e-02 4.778124019503593445e-02 -1.091823354363441467e-02 2.639616839587688446e-02 -7.788552320562303066e-04 -8.539886213839054108e-03 -3.610294079408049583e-03 -4.248059168457984924e-02 7.320051640272140503e-02 -6.599568761885166168e-03 2.786738611757755280e-02 -2.392374910414218903e-02 -2.126735448837280273e-02 2.465531416237354279e-02 4.983797203749418259e-03 -5.105311051011085510e-03 1.537280995398759842e-02 -3.528088703751564026e-02 2.528333477675914764e-02 2.173887938261032104e-02 9.513398632407188416e-03 1.122788898646831512e-02 -1.800289493985474110e-03 -6.716447323560714722e-02 1.775611750781536102e-02 4.502823948860168457e-02 4.946801345795392990e-03 -3.120943531394004822e-02 -5.087020248174667358e-02 4.128265008330345154e-02 7.536886725574731827e-03 5.656235292553901672e-02 3.825424984097480774e-02 1.490439288318157196e-02 5.796631798148155212e-03 9.269244765164330602e-05 7.591130677610635757e-03 -2.991340495645999908e-02 8.480280637741088867e-03 -2.373443730175495148e-02 1.558631192892789841e-02 -3.571588173508644104e-02 2.376686781644821167e-02 4.049366340041160583e-03 -2.330684848129749298e-02 -3.021399676799774170e-02 -3.137950785458087921e-03 1.661541685461997986e-02 1.418492756783962250e-02 -2.342569641768932343e-02 7.057234644889831543e-03 -3.612962784245610237e-03 3.391018137335777283e-02 3.733115270733833313e-02 2.119475975632667542e-02 -1.576274819672107697e-02 -4.934220016002655029e-02 2.652100659906864166e-02 3.895442187786102295e-02 -1.665339246392250061e-02 1.038960274308919907e-02 1.920223981142044067e-02 -3.647008910775184631e-02 1.582646928727626801e-02 2.338858321309089661e-02 -2.156952023506164551e-02 -9.199160151183605194e-03 -9.082094766199588776e-03 -6.075701862573623657e-02 2.927693538367748260e-03 1.569674350321292877e-02 1.122063677757978439e-02 -1.875486411154270172e-02 -7.775049656629562378e-02 2.547618001699447632e-02 2.801111899316310883e-02 -1.613265718333423138e-03 -6.504771858453750610e-02 -1.600713585503399372e-03 4.553756490349769592e-02 1.349683851003646851e-02 1.729083433747291565e-02 1.361184939742088318e-02 -3.354689478874206543e-02 1.133677456527948380e-02 -7.677773013710975647e-03 -2.042000740766525269e-02 -2.289126813411712646e-02 -4.746945202350616455e-02 -2.365380991250276566e-03 8.679161779582500458e-03 -3.506016358733177185e-02 -1.685431972146034241e-02 -7.164424750953912735e-03 -1.764376275241374969e-02 5.396427121013402939e-03 2.881052158772945404e-02 2.789614349603652954e-02 1.266253925859928131e-02 -3.310224413871765137e-02 -3.672768070828169584e-04 -2.731362171471118927e-02 -2.861679159104824066e-02 -1.628696732223033905e-02 7.818413898348808289e-03 -1.463400945067405701e-02 2.640037983655929565e-02 1.747356727719306946e-02 9.505659341812133789e-03 5.428988859057426453e-02 2.338193543255329132e-02 -3.079970367252826691e-02 3.183506056666374207e-02 1.840976253151893616e-02 -6.906633730977773666e-03 4.253139486536383629e-04 2.249690704047679901e-03 7.238626945763826370e-03 -3.261488676071166992e-02 2.077435143291950226e-02 4.823627322912216187e-02 -2.879245392978191376e-02 -5.090772733092308044e-02 -3.225341811776161194e-02 3.160538524389266968e-02 -4.291943088173866272e-02 9.363945573568344116e-03 1.834653131663799286e-02 4.058675095438957214e-02 1.579652726650238037e-02 1.825513783842325211e-03 -1.534448005259037018e-02 2.292357012629508972e-02 1.447439566254615784e-02 -2.777066454291343689e-02 -2.512847073376178741e-02 3.835218958556652069e-03 2.827862510457634926e-03 -5.161506123840808868e-03 2.195958793163299561e-02 -3.895886940881609917e-03 -1.861133147031068802e-03 -2.750415913760662079e-02 5.216399207711219788e-03 -1.985034532845020294e-02 -2.899669855833053589e-02 -8.814682252705097198e-03 -1.255738455802202225e-02 -1.128397509455680847e-02 -2.003152109682559967e-02 -2.365926280617713928e-03 -2.823853120207786560e-02 -5.021317675709724426e-02 4.280594293959438801e-05 -4.163413867354393005e-02 1.517887227237224579e-02 4.941665381193161011e-02 -3.710775636136531830e-04 5.879009142518043518e-02 -6.817061919718980789e-03 -3.089883551001548767e-02 7.982240989804267883e-03 -1.364050805568695068e-02 -6.731094792485237122e-03 2.679483219981193542e-02 2.213077805936336517e-02 -2.814237400889396667e-02 -1.107457373291254044e-02 -2.099853381514549255e-02 1.147649157792329788e-02 -1.105900574475526810e-02 -2.884559705853462219e-02 -9.458560496568679810e-03 -3.088472783565521240e-02 -2.026843372732400894e-03 1.423021219670772552e-02 -1.969449780881404877e-02 9.062963537871837616e-03 7.219062186777591705e-03 2.204621024429798126e-02 -2.460167184472084045e-02 2.189431712031364441e-02 4.270650073885917664e-02 1.044973637908697128e-02 1.738063804805278778e-02 1.438800245523452759e-02 2.537499414756894112e-03 7.273289375007152557e-03 -3.799558803439140320e-02 -6.499826442450284958e-03 2.567123621702194214e-02 2.843533642590045929e-02 -3.259868128225207329e-03 -5.292407795786857605e-02 -2.375646866858005524e-02 1.169700268656015396e-02 9.150744415819644928e-03 -1.572753302752971649e-03 3.111153468489646912e-02 -2.706377394497394562e-02 9.908248670399188995e-03 2.353357709944248199e-02 -1.668534055352210999e-02 4.386737570166587830e-02 6.029515340924263000e-02 7.400934584438800812e-03 -9.580820798873901367e-03 2.763181366026401520e-02 4.922553151845932007e-02 4.576135426759719849e-02 -3.113199025392532349e-02 2.525597997009754181e-02 -5.029168725013732910e-02 -5.022370815277099609e-02 1.206659059971570969e-02 -2.747735753655433655e-02 -5.073826294392347336e-03 -2.687391242943704128e-04 -2.905472880229353905e-03 -4.822657257318496704e-02 -5.286404490470886230e-02 -3.358653187751770020e-02 1.219126675277948380e-02 2.688601426780223846e-02 -3.075628913938999176e-02 -4.304947331547737122e-02 3.498563170433044434e-02 -3.320023044943809509e-02 3.236971423029899597e-02 7.552232127636671066e-03 9.977254085242748260e-04 3.246077522635459900e-02 -3.229071944952011108e-02 -3.575499355792999268e-02 2.147823013365268707e-02 1.922958903014659882e-02 4.583425354212522507e-03 -3.237283229827880859e-02 -1.016697473824024200e-02 -1.171382330358028412e-02 -4.692067205905914307e-02 3.442974016070365906e-02 2.601252868771553040e-03 1.753670349717140198e-02 -2.043680287897586823e-02 -1.496274373494088650e-03 -4.246946051716804504e-02 5.241972580552101135e-02 5.788049660623073578e-03 -2.038114907918497920e-04 -1.926298427861183882e-04 -5.264245718717575073e-02 2.250381931662559509e-02 2.338839881122112274e-02 -4.724262654781341553e-02 -6.704879552125930786e-02 2.469681203365325928e-03 -3.769254311919212341e-02 1.270266808569431305e-02 1.670872606337070465e-02 -3.279815614223480225e-02
-1.811868324875831604e-02 -8.356073871254920959e-03 -1.759494538418948650e-03 -2.141589112579822540e-02 7.823968306183815002e-03 1.282190438359975815e-02 -5.076252669095993042e-02 1.400352921336889267e-02 -3.743821755051612854e-02 2.576056681573390961e-02 -1.215747091919183731e-03 3.592618927359580994e-02 -2.552448585629463196e-02 -3.738268837332725525e-02 3.882990777492523193e-02 8.225212804973125458e-03 2.348446752876043320e-03 1.229336392134428024e-02 2.764960750937461853e-02 2.826839918270707130e-03 -1.370962802320718765e-02 3.457791730761528015e-02 2.660654485225677490e-03 -1.226124353706836700e-03 2.738840878009796143e-02 -8.920953609049320221e-03 -6.188902631402015686e-02 -3.496319800615310669e-02 -3.129534050822257996e-02 2.040398493409156799e-02 -3.230084106326103210e-02 -1.571798883378505707e-02 2.172706462442874908e-02 1.960283331573009491e-02 2.393979951739311218e-02 1.015307195484638214e-02 -1.194876991212368011e-02 3.475781530141830444e-02 1.224972493946552277e-02 4.954152554273605347e-02 -3.617697581648826599e-02 -1.540006790310144424e-02 9.608525782823562622e-03 1.492688711732625961e-02 4.246500879526138306e-02 7.092870771884918213e-03 -8.734905713936313987e-05 2.017408050596714020e-02 -4.389107227325439453e-02 -1.132526528090238571e-02 3.287525475025177002e-02 7.413975149393081665e-02 3.272823232691735029e-04 -2.243340946733951569e-02 9.214485995471477509e-03 -2.923882380127906799e-02 -1.212492212653160095e-02 -9.973858250305056572e-04 -4.974231123924255371e-02 2.640922740101814270e-02 -4.087400157004594803e-03 1.817436330020427704e-02 -7.518956437706947327e-03 9.172029793262481689e-03 -9.807399474084377289e-03 -7.368339598178863525e-02 -5.003844387829303741e-03 2.166756615042686462e-02 9.437915869057178497e-03 4.076752811670303345e-03 2.069303533062338829e-03 -6.018316373229026794e-02 3.785246983170509338e-02 -4.079928621649742126e-03 -1.710746251046657562e-02 -2.856479957699775696e-02 -2.728381194174289703e-02 -1.568888127803802490e-02 1.716700568795204163e-02 3.272716654464602470e-03 2.492188476026058197e-02 1.347049884498119354e-02 1.725815422832965851e-02 2.132274024188518524e-02 2.978508546948432922e-02 3.820929676294326782e-03 5.619530566036701202e-03 1.192110497504472733e-02 5.077675450593233109e-03 5.924208555370569229e-03 6.081875879317522049e-03 3.543328493833541870e-02 -2.991075441241264343e-02 -7.944315671920776367e-03 1.890581287443637848e-02 -5.305308848619461060e-02 -1.559937256388366222e-03 -1.472894102334976196e-02 1.209811074659228325e-03 4.525423981249332428e-03 -1.821495126932859421e-03 3.619153797626495361e-02 5.326066166162490845e-02 5.784526467323303223e-03 -2.674745395779609680e-02 4.890826717019081116e-02 -2.374974079430103302e-02 -3.641984611749649048e-02 -1.459842547774314880e-02 -6.198014318943023682e-02 5.258737504482269287e-02 2.180832065641880035e-02 2.182219875976443291e-03 1.670520380139350891e-02 3.480638563632965088e-02 7.700239308178424835e-03 1.988390833139419556e-02 -3.017913177609443665e-02 4.241645801812410355e-03 -1.606416329741477966e-02 2.570194564759731293e-02 -8.038200438022613525e-03 -4.532669112086296082e-02 1.990291476249694824e-02 -1.642192341387271881e-02 -6.169488653540611267e-03 -6.414288654923439026e-03 2.095240633934736252e-03 -1.121101086027920246e-03 -1.094245671993121505e-04 -3.187192603945732117e-02 -3.992894664406776428e-03 -1.508616958744823933e-03 -1.454384159296751022e-02 2.036535553634166718e-02 3.263558726757764816e-03 6.823051720857620239e-02 1.448246277868747711e-02 -3.089840756729245186e-03 1.990240067243576050e-02 2.930001541972160339e-02 -2.031914889812469482e-02 4.895919119007885456e-04 -2.389339916408061981e-02 2.747600711882114410e-02 -7.929151877760887146e-03 -3.938984870910644531e-02 1.793361827731132507e-02 -1.259406935423612595e-02 2.017217874526977539e-02 5.226358771324157715e-02 2.792360447347164154e-02 9.830926544964313507e-03 1.899943128228187561e-02 2.552050724625587463e-02 -2.778666839003562927e-02 -1.667703129351139069e-02 -4.671814292669296265e-02 -8.786308765411376953e-02 4.178925603628158569e-02 7.999405264854431152e-03 2.569604106247425079e-02 7.968937978148460388e-03 2.472995407879352570e-02 -1.172509510070085526e-02 -3.328239917755126953e-02 -1.962995901703834534e-02 1.076121255755424500e-02 3.978191316127777100e-02 2.807451225817203522e-02 1.303354464471340179e-02 4.005005583167076111e-03 -2.736205421388149261e-02 -1.187078375369310379e-02 1.018813997507095337e-02 3.153255209326744080e-02 5.392227787524461746e-03 -2.193724922835826874e-02 -3.051130659878253937e-02 1.799046620726585388e-02 3.344817832112312317e-02 -2.598948962986469269e-02 5.589484795928001404e-02 1.261636149138212204e-02 -3.746350854635238647e-02 -3.544858843088150024e-02 -3.227936336770653725e-03 7.710549049079418182e-03 -1.297787856310606003e-02 -5.084376782178878784e-02 -6.642403546720743179e-03 2.317662118002772331e-03 1.286700950004160404e-03 3.543505677953362465e-03 -9.419574053026735783e-04 -2.923651225864887238e-02 1.701206900179386139e-02 -2.984189242124557495e-02 -4.194876179099082947e-02 3.114498779177665710e-02 -6.530998274683952332e-03 -2.761399745941162109e-02 9.572491049766540527e-03 2.060942165553569794e-02 -1.252785697579383850e-02 -1.860356889665126801e-02 -8.771926164627075195e-03 2.119069360196590424e-02 -1.926019787788391113e-02 -3.207834064960479736e-02 1.106121949851512909e-02 8.313444443047046661e-03 6.931172311305999756e-02 -2.485585957765579224e-02 1.086755003780126572e-02 7.085460703819990158e-03 -4.146235808730125427e-02 4.773810133337974548e-02 -5.041960626840591431e-02 2.014871500432491302e-02 2.229193598031997681e-02 -2.254378283396363258e-03 3.159616142511367798e-02 5.806830897927284241e-02 8.265386521816253662e-02 -1.446243468672037125e-02 2.847638539969921112e-02 -1.589681580662727356e-02 1.674702018499374390e-02 1.564474217593669891e-02 -1.299304515123367310e-02 -2.352823130786418915e-02 -1.547113247215747833e-02 1.872416771948337555e-02 -1.657489500939846039e-02 -1.343848556280136108e-02 1.144381705671548843e-02 8.085390552878379822e-03 -4.148354753851890564e-03 -2.197651751339435577e-02 3.047175332903862000e-02 -4.115071520209312439e-02 1.411403622478246689e-02 3.104691393673419952e-02 2.239864692091941833e-02 1.809046231210231781e-02 -1.702474057674407959e-02 7.015283405780792236e-02 -1.640519499778747559e-02 2.025404479354619980e-03 -5.105081200599670410e-02 -2.706312574446201324e-02 -2.707269415259361267e-02 -4.030722379684448242e-02 -2.643307298421859741e-02 1.115154009312391281e-03 2.430728636682033539e-02 5.542886443436145782e-03 1.968200318515300751e-03 1.529745385050773621e-02 2.447671443223953247e-02 -4.190777242183685303e-02 9.377593174576759338e-03 8.513940498232841492e-03 1.982282847166061401e-02 3.720911592245101929e-02 1.866538822650909424e-02 -1.776089705526828766e-02 3.459328040480613708e-02 8.498027920722961426e-03 -1.290374062955379486e-02 -2.940130792558193207e-02 1.600834354758262634e-02 -1.151367556303739548e-02 -2.863334119319915771e-02 1.282344479113817215e-02 -9.036296978592872620e-03 2.186631085351109505e-03 -2.295017940923571587e-03 2.925539761781692505e-02 -1.017497386783361435e-02 -3.897363692522048950e-02 -3.130460903048515320e-02 -2.925321646034717560e-02 2.243644325062632561e-03 2.557415748015046120e-03 1.134956907480955124e-02 8.519247174263000488e-03 2.550773322582244873e-02 4.540323279798030853e-03 5.305489525198936462e-02 -1.677845418453216553e-02 -1.141638681292533875e-02 -8.325839415192604065e-03 -2.062270417809486389e-02 -1.464027911424636841e-03 -1.231052353978157043e-02 -2.657556906342506409e-02 3.563795471563935280e-03 -1.887110248208045959e-02 1.929787173867225647e-02 -9.672755375504493713e-03 1.311471685767173767e-02 -3.423617035150527954e-02 4.496542271226644516e-03 1.817396469414234161e-02 1.716136187314987183e-02 -3.817777708172798157e-02 5.448944866657257080e-03 3.794886916875839233e-02 5.786474794149398804e-03 -6.114149838685989380e-02 -2.115109004080295563e-02 -1.613400317728519440e-02 4.627493023872375488e-02 1.000964920967817307e-02 2.591599244624376297e-03 8.920821361243724823e-03 5.979842692613601685e-02 3.139901906251907349e-02 3.219474479556083679e-02 1.529981102794408798e-02 3.769622370600700378e-02 -1.132003590464591980e-02 2.811183594167232513e-02 2.332323603332042694e-02 -3.143138438463211060e-02 1.032958738505840302e-02 -3.205945715308189392e-02 -9.748566895723342896e-03 -2.807936258614063263e-02 -5.692973732948303223e-02 -3.994458168745040894e-02 4.201799456495791674e-04 -4.310476069804280996e-04 -3.815179318189620972e-02 1.378311682492494583e-02 -6.655701436102390289e-03 2.183668687939643860e-02 8.496937341988086700e-03 -2.362050348892807961e-03 5.448344722390174866e-02 3.559838980436325073e-02 2.103020809590816498e-02 -3.135695308446884155e-02 -3.197614848613739014e-02 1.940613053739070892e-02 -2.711050212383270264e-02 1.409238670021295547e-02 3.368493169546127319e-02 1.826475374400615692e-03 5.217503383755683899e-02 -1.797220110893249512e-02 3.984835371375083923e-02 -9.784751385450363159e-02 3.299021860584616661e-03 5.860283970832824707e-03 2.478481736034154892e-03 3.038737364113330841e-02 -4.952557757496833801e-02 1.183540280908346176e-02 -4.493607673794031143e-03 2.272542938590049744e-02 -1.828412339091300964e-02 2.351879514753818512e-02 -1.366279367357492447e-02 -1.897808536887168884e-02 3.340691793709993362e-03 1.240533590316772461e-02 1.834538206458091736e-02 -4.288724064826965332e-02 3.798462077975273132e-02 -2.388390526175498962e-02 3.781934082508087158e-02 2.390860812738537788e-03 -4.327106475830078125e-02 -5.409779958426952362e-03 4.430351033806800842e-02 -1.524223014712333679e-02 3.649326413869857788e-02 2.312924154102802277e-02 2.291544340550899506e-02 6.280548404902219772e-03 -3.583462908864021301e-02 -3.050690889358520508e-02 -2.092973329126834869e-02 2.255212701857089996e-02 4.622033238410949707e-02 3.566236793994903564e-02 -5.403736606240272522e-02 7.479454856365919113e-03 -3.193381428718566895e-02 -2.318242937326431274e-02 -3.302675113081932068e-02 -4.166554659605026245e-02 -9.417897090315818787e-03 -5.259624449536204338e-04 -2.889778278768062592e-02 -2.505853772163391113e-02 -5.300165154039859772e-03 -3.417139127850532532e-02 3.253871947526931763e-02 1.146613154560327530e-02 -2.400396391749382019e-02 3.471703827381134033e-02 2.473325468599796295e-02 1.169639825820922852e-02 3.866894543170928955e-02 -2.392004430294036865e-02 5.878082942217588425e-03 -5.195927224121987820e-04 2.060358971357345581e-02 -2.591354027390480042e-02 -2.155031822621822357e-02 6.450858432799577713e-03 -2.525100670754909515e-02 1.880970597267150879e-02 3.199589625000953674e-02 5.950642377138137817e-02 -4.844906553626060486e-02 -4.882788751274347305e-03 2.120266668498516083e-02 -4.129835404455661774e-03 5.487824231386184692e-02 -1.180115714669227600e-02 1.195076573640108109e-02 2.942006103694438934e-02 3.813800588250160217e-02 2.521243318915367126e-02 5.335848778486251831e-02 2.007652819156646729e-02 -2.178495563566684723e-02 -2.171886526048183441e-02 -7.239678874611854553e-03 1.456496864557266235e-02 6.382977124303579330e-03 -1.573891751468181610e-02 -4.380240570753812790e-03 2.472704648971557617e-02 1.391555764712393284e-03 -4.373205825686454773e-02 -4.387381020933389664e-03 2.266415767371654510e-02 3.015898726880550385e-02 -3.127352520823478699e-02 8.613889105618000031e-03 -2.877719886600971222e-02 -9.826361201703548431e-04 -4.157715011388063431e-03 2.175193466246128082e-02 2.575256489217281342e-02 6.666686851531267166e-03 -3.957100585103034973e-02 -2.890776470303535461e-02 -2.339747361838817596e-02 -1.078750193119049072e-02 1.931036449968814850e-02 1.043271087110042572e-02 -2.318087778985500336e-02 -2.150623686611652374e-02 -2.145840972661972046e-02 3.832519799470901489e-02 3.394084982573986053e-03 3.982410579919815063e-02 -9.150434285402297974e-03 -8.242849260568618774e-03 2.614361792802810669e-02 -3.272514045238494873e-02 -4.234179854393005371e-03 -3.335626795887947083e-02 -1.456827484071254730e-02 -3.361928742378950119e-03 -3.135121241211891174e-02 3.298804536461830139e-02 -5.819611717015504837e-03 -6.098760757595300674e-03 -8.621115237474441528e-03 1.501696836203336716e-02 2.897855360060930252e-03 2.401407249271869659e-02 -4.456219822168350220e-02 1.282387692481279373e-02 3.179905563592910767e-02 4.111132770776748657e-02 -4.282429814338684082e-02 1.012232713401317596e-02 1.529867760837078094e-02 2.673302311450242996e-03 2.722245268523693085e-02 -6.987512111663818359e-03 -2.285570837557315826e-02 -1.550415158271789551e-02 2.740268595516681671e-02 -4.200746119022369385e-02 -2.193063125014305115e-02 5.399209912866353989e-03 -8.425489068031311035e-04 -2.873653778806328773e-03 -4.247204400599002838e-03 -2.172347344458103180e-02 9.211678843712434173e-06 1.441111136227846146e-02 5.269819498062133789e-02 3.577176854014396667e-02 -1.772387698292732239e-02 1.380989700555801392e-02 -5.069957114756107330e-03 -5.377509444952011108e-02 2.898958325386047363e-02 -8.876400068402290344e-03 -3.468951955437660217e-02 -1.028559636324644089e-02
