1.198240090161561966e-03 4.782240837812423706e-03 2.614203142002224922e-03 9.688652120530605316e-03 7.947510108351707458e-03 -1.618644036352634430e-02 -2.549804560840129852e-02 -2.741895988583564758e-02 1.782382093369960785e-02 -2.403139136731624603e-02 -2.461225166916847229e-02 -1.988356001675128937e-03 -1.587325520813465118e-02 1.953282952308654785e-02 2.125251479446887970e-02 -1.931202970445156097e-02 -5.318565759807825089e-03 6.276083178818225861e-03 -2.720962464809417725e-02 -7.035962305963039398e-03 1.681268587708473206e-02 3.908277675509452820e-02 -1.227774750441312790e-02 -4.683484323322772980e-03 -6.556406617164611816e-02 -9.194769896566867828e-03 -3.413477167487144470e-02 4.932015202939510345e-03 -6.699114455841481686e-04 8.679315447807312012e-03 -1.718997023999691010e-02 1.197961973957717419e-03 -1.546891056932508945e-03 1.656047254800796509e-02 4.379605874419212341e-02 2.867122925817966461e-02 -5.245210602879524231e-03 2.313115634024143219e-02 -1.939998753368854523e-02 -4.697566851973533630e-02 -1.849084533751010895e-02 4.321534186601638794e-03 1.047561131417751312e-02 3.572685644030570984e-02 -2.921090461313724518e-02 2.614662982523441315e-02 -1.438662502914667130e-02 -7.221243344247341156e-03 1.907470263540744781e-02 3.118046931922435760e-02 4.618946462869644165e-03 -3.964541852474212646e-02 2.833334263414144516e-03 8.955097757279872894e-03 4.437270388007164001e-02 -1.903251744806766510e-02 3.246019780635833740e-02 2.198627218604087830e-02 -1.750978641211986542e-02 -4.260024055838584900e-02 -7.642126642167568207e-03 -6.376206874847412109e-02 4.503760952502489090e-03 -1.936491392552852631e-02 1.479458436369895935e-02 2.143766032531857491e-03 2.471041306853294373e-02 2.519111149013042450e-02 3.787435963749885559e-02 5.013987794518470764e-02 2.215992659330368042e-03 -1.137218344956636429e-02 -2.697789296507835388e-02 3.594838827848434448e-02 -1.762841455638408661e-02 1.129173114895820618e-02 3.462431050138548017e-05 4.096687771379947662e-03 -2.513520419597625732e-02 -3.842783393338322639e-03 -1.990200392901897430e-02 2.152242511510848999e-02 -2.764409966766834259e-02 -1.397512201219797134e-02 2.653014287352561951e-02 3.083375468850135803e-02 9.773218072950839996e-03 1.715509686619043350e-03 1.917080581188201904e-02 1.098256278783082962e-02 -2.901369519531726837e-02 -2.452944219112396240e-02 -3.963539842516183853e-03 -5.472801253199577332e-02 6.045179441571235657e-03 1.073910202831029892e-02 6.274804007261991501e-03 -4.909330233931541443e-02 -1.846912503242492676e-02 -1.917806081473827362e-02 3.875030204653739929e-02 1.455478370189666748e-03 1.350131444633007050e-02 -3.087520133703947067e-03 3.887305036187171936e-03 -3.464651107788085938e-02 -2.835607854649424553e-03 3.404393419623374939e-02 3.565202653408050537e-02 8.867854252457618713e-03 -1.903048157691955566e-02 -2.696491964161396027e-02 2.783984504640102386e-02 6.096637994050979614e-02 -4.824920371174812317e-02 1.139556337147951126e-02 2.587181329727172852e-02 6.684267427772283554e-03 -5.340221803635358810e-03 -2.573424577713012695e-02 -1.272687595337629318e-02 4.288467019796371460e-02 6.429723463952541351e-03 8.446734282188117504e-04 7.886008359491825104e-03 -1.142305508255958557e-02 -7.080236915498971939e-03 7.729200646281242371e-03 7.762872148305177689e-03 -2.760451287031173706e-02 2.410537935793399811e-02 1.543657481670379639e-02 -4.646277427673339844e-02 2.351053431630134583e-02 -3.022124804556369781e-02 -6.824405398219823837e-03 -3.164674341678619385e-02 -1.933842338621616364e-02 -6.674385629594326019e-03 1.342536415904760361e-02 -1.545903272926807404e-02 4.932278767228126526e-03 -1.058124750852584839e-02 -2.740600146353244781e-02 1.370866503566503525e-02 3.971346188336610794e-03 -3.380247578024864197e-02 2.283490635454654694e-02 -2.483690530061721802e-02 -2.526292391121387482e-02 4.016365110874176025e-02 3.218451514840126038e-02 8.057491853833198547e-03 1.334103848785161972e-02 -1.103511825203895569e-02 -1.279988326132297516e-02 1.598886027932167053e-02 -2.555373939685523510e-04 -3.203131258487701416e-02 -2.473427355289459229e-02 5.498961079865694046e-03 3.783990815281867981e-02 3.138520196080207825e-02 3.740973304957151413e-03 8.792400360107421875e-03 2.317954972386360168e-02 6.612265110015869141e-02 -3.127864561975002289e-03 2.411208488047122955e-02 4.391437396407127380e-03 -6.322742439806461334e-03 -1.296438393183052540e-03 6.971837580204010010e-02 1.480325032025575638e-02 1.429325342178344727e-02 -8.386693894863128662e-03 -5.628340877592563629e-03 1.131444517523050308e-02 -2.125686965882778168e-02 -1.917284540832042694e-02 -3.029391542077064514e-02 -1.874171383678913116e-02 3.025542199611663818e-02 4.434640519320964813e-03 2.456770162098109722e-04 -1.514192321337759495e-03 -1.934568863362073898e-03 -1.822255179286003113e-02 -5.554318428039550781e-03 9.445436298847198486e-03 -1.109989359974861145e-02 -1.378744095563888550e-02 1.106504723429679871e-02 1.848544739186763763e-02 1.655822433531284332e-02 -2.058836631476879120e-02 -2.802971005439758301e-02 -1.774883829057216644e-03 5.682465061545372009e-02 2.743735210970044136e-03 2.406144281849265099e-03 1.117232604883611202e-03 6.764524616301059723e-03 1.051165722310543060e-02 -3.692604228854179382e-02 -3.287587687373161316e-02 2.732048043981194496e-03 -4.121574014425277710e-02 -1.569204218685626984e-02 -3.189536929130554199e-02 -1.187876053154468536e-02 1.833514194004237652e-03 1.875904761254787445e-02 1.699688844382762909e-02 1.563283056020736694e-02 -8.123053237795829773e-03 -1.394787058234214783e-02 -2.716791816055774689e-02 -9.428678080439567566e-03 -2.018423937261104584e-02 -2.389545738697052002e-02 -1.482378598302602768e-02 -7.825449109077453613e-03 -3.667197003960609436e-02 -2.340823598206043243e-02 -8.294085040688514709e-03 -4.950697347521781921e-02 1.138981524854898453e-02 1.599126867949962616e-02 3.700882196426391602e-03 3.138455003499984741e-02 3.012389689683914185e-02 1.400985196232795715e-02 -9.782270528376102448e-03 -2.666614949703216553e-02 7.762947119772434235e-03 3.417269140481948853e-02 -2.472301758825778961e-02 3.261558944359421730e-03 3.399048000574111938e-02 -3.926381468772888184e-02 4.592834040522575378e-03 3.840438649058341980e-02 1.660420559346675873e-02 6.420474965125322342e-03 2.989044226706027985e-02 4.312089085578918457e-02 2.503035217523574829e-02 4.773637745529413223e-03 2.835571020841598511e-02 4.474647808820009232e-03 -9.495597332715988159e-03 2.697023749351501465e-02 -1.427572034299373627e-02 3.270026296377182007e-02 -1.963029988110065460e-02 2.441809885203838348e-02 4.274259507656097412e-02 -2.027680538594722748e-02 -1.137390732765197754e-03 9.384653531014919281e-03 1.913378760218620300e-02 -6.364879012107849121e-02 -3.127020085230469704e-03 -2.019997686147689819e-02 1.330850366503000259e-02 -2.032058872282505035e-02 2.250669337809085846e-02 5.113571509718894958e-02 -1.119197066873311996e-02 -1.138975750654935837e-02 4.713425878435373306e-03 -5.878801457583904266e-03 -1.713100075721740723e-02 6.926179397851228714e-03 2.300173975527286530e-02 -5.305645242333412170e-02 -3.891377523541450500e-02 1.553773600608110428e-02 2.381226047873497009e-02 -2.026338130235671997e-02 2.073007822036743164e-02 3.572745993733406067e-02 7.337520364671945572e-03 -3.018966177478432655e-03 2.178619429469108582e-02 -6.001663580536842346e-02 -3.037585690617561340e-02 2.389754913747310638e-02 -2.652831561863422394e-02 -2.843645960092544556e-02 -4.752140492200851440e-03 -3.125201910734176636e-02 -2.904837252572178841e-03 -9.366433136165142059e-03 -9.027183987200260162e-03 -2.398338727653026581e-02 5.273502692580223083e-02 -1.642816700041294098e-02 4.456835985183715820e-02 -2.690494060516357422e-02 -1.711367443203926086e-02 2.034375071525573730e-02 2.556469291448593140e-02 5.640076939016580582e-03 -4.064192622900009155e-02 3.426436707377433777e-02 2.233056537806987762e-02 -3.508645296096801758e-02 -1.587221398949623108e-02 -2.315951714990660548e-04 -3.979547414928674698e-03 1.457675267010927200e-02 1.905799470841884613e-02 4.022570326924324036e-02 3.172259032726287842e-02 2.200170885771512985e-03 -6.658547557890415192e-03 -1.086855120956897736e-02 -1.102931145578622818e-02 -1.955983974039554596e-02 -2.810713835060596466e-02 -7.921804673969745636e-03 -9.523526765406131744e-03 7.374733220785856247e-03 3.842212259769439697e-02 -1.951448805630207062e-02 -1.055108290165662766e-02 4.971256945282220840e-03 -2.022747881710529327e-02 1.294539496302604675e-02 -2.339453995227813721e-02 -5.600729491561651230e-05 -7.532086689025163651e-03 -4.030862450599670410e-02 1.076249312609434128e-02 -2.352689579129219055e-02 -1.706254109740257263e-02 6.009171716868877411e-03 -3.846367448568344116e-02 -3.353941813111305237e-02 -1.665642298758029938e-02 1.644556596875190735e-02 8.151138201355934143e-03 7.909855339676141739e-04 -2.311336435377597809e-02 -1.133138895966112614e-03 -5.590827018022537231e-02 -3.868061304092407227e-02 1.506531145423650742e-02 8.069888688623905182e-03 -2.144417352974414825e-02 2.198341302573680878e-02 -3.151961602270603180e-03 -1.478581875562667847e-02 2.083632163703441620e-02 6.084999069571495056e-02 2.136424183845520020e-02 -3.456213325262069702e-02 -3.265197202563285828e-02 -3.766862908378243446e-03 -2.407147362828254700e-02 -1.762174256145954132e-02 1.433080527931451797e-02 2.510671503841876984e-02 -2.700352342799305916e-03 -2.259434573352336884e-02 1.483559235930442810e-02 3.016334399580955505e-02 2.795400097966194153e-02 -7.460852619260549545e-03 1.509791426360607147e-02 5.784552916884422302e-02 -1.893229782581329346e-02 1.576451770961284637e-02 -1.953347772359848022e-02 9.256778284907341003e-03 1.060921512544155121e-02 -3.183510899543762207e-02 1.757367281243205070e-03 -3.895660862326622009e-02 2.809925749897956848e-02 5.787872895598411560e-02 1.835841126739978790e-02 -3.291025059297680855e-03 2.872200123965740204e-02 1.253545843064785004e-02 -1.960952207446098328e-02 -8.330282755196094513e-03 2.169356867671012878e-02 -5.297370627522468567e-02 1.877987012267112732e-02 3.693838045001029968e-02 -3.092798963189125061e-02 1.762514933943748474e-02 5.788268521428108215e-03 1.626645028591156006e-02 -5.957045592367649078e-03 7.256071548908948898e-03 5.692574009299278259e-02 2.138851024210453033e-02 -1.527357753366231918e-02 1.887876726686954498e-02 2.613477781414985657e-02 3.999581187963485718e-02 1.314923632889986038e-02 1.548690907657146454e-02 -4.294633492827415466e-02 2.685735747218132019e-02 4.548034816980361938e-02 5.472960416227579117e-03 -5.143889039754867554e-02 1.024802587926387787e-02 -6.222226656973361969e-03 2.233047969639301300e-02 -3.724939888343214989e-03 -2.001256309449672699e-02 -3.249728307127952576e-02 1.124937273561954498e-02 -2.775102481245994568e-02 1.846541836857795715e-02 8.719123434275388718e-04 -2.774740569293498993e-03 -4.928424023091793060e-03 5.002711713314056396e-02 6.541698705404996872e-03 4.374672845005989075e-02 3.384351730346679688e-03 -4.568622261285781860e-02 3.398472676053643227e-03 4.243603441864252090e-03 -2.885298337787389755e-03 2.970664994791150093e-03 3.181099146604537964e-02 -1.724691316485404968e-02 -1.357767544686794281e-02 -2.312051691114902496e-02 -1.459203287959098816e-02 1.533866114914417267e-02 3.876258153468370438e-03 -1.871871389448642731e-02 -1.667052321135997772e-02 1.949540153145790100e-02 1.787633262574672699e-02 -2.198913879692554474e-02 -2.388956770300865173e-02 -8.749194443225860596e-03 3.141595795750617981e-02 -7.328557223081588745e-02 -4.828635230660438538e-02 -4.014083184301853180e-03 -3.515721857547760010e-02 -7.547328248620033264e-03 -1.169410068541765213e-03 -1.995571888983249664e-02 4.447398707270622253e-03 -1.343359146267175674e-02 2.938990853726863861e-02 4.786422103643417358e-02 -6.563688069581985474e-02 -1.469545997679233551e-02 1.697020232677459717e-02 1.215996500104665756e-02 2.122410945594310760e-02 1.798475533723831177e-02 9.191358461976051331e-03 3.787917084991931915e-03 -3.862153971567749977e-04 -8.894928032532334328e-04 -3.785247390624135733e-04 -5.640130490064620972e-03 2.069654315710067749e-02 1.204016897827386856e-02 -2.235010499134659767e-03 -3.007990866899490356e-02 2.385767921805381775e-02 1.411399710923433304e-02 2.637308277189731598e-02 1.289236173033714294e-02 -1.012595836073160172e-02 4.391533788293600082e-03 -2.940782532095909119e-02 -3.919658064842224121e-02 -2.550909295678138733e-02 -1.042746007442474365e-02 2.344126254320144653e-02 -1.895921491086483002e-02 -1.569839753210544586e-02 -7.910497486591339111e-03 1.125511620193719864e-02 -1.336927432566881180e-02 -7.837367244064807892e-03 -2.488408610224723816e-02 4.800953716039657593e-02 2.406516857445240021e-02 -9.118511341512203217e-03 1.196292694658041000e-02 -4.001771099865436554e-03 6.570971105247735977e-03 -4.612293839454650879e-02 5.824636202305555344e-03 2.974012494087219238e-02 1.253583002835512161e-02 6.880932021886110306e-03 3.536754753440618515e-03 5.973343737423419952e-03 3.026513382792472839e-02 -2.152133733034133911e-02 3.914742264896631241e-03 7.724339142441749573e-03 -3.503625839948654175e-02 -2.188406325876712799e-02
3.059099614620208740e-02 -2.986271306872367859e-02 -2.299888804554939270e-02 5.211682524532079697e-03 -9.050185792148113251e-03 -7.121573202311992645e-03 -8.326903916895389557e-03 -7.586571853607892990e-03 3.394233435392379761e-02 -4.700415302067995071e-03 7.448817137628793716e-03 -6.679644342511892319e-03 -3.615933284163475037e-02 -3.159060329198837280e-02 5.422511324286460876e-02 -1.696043461561203003e-02 -2.239295653998851776e-02 -1.234421040862798691e-02 1.293262094259262085e-02 1.037590298801660538e-02 -2.689084410667419434e-02 8.949661278165876865e-04 1.351620536297559738e-02 -2.015307359397411346e-02 1.530082337558269501e-02 -2.923212572932243347e-02 -3.910695016384124756e-02 2.721185795962810516e-02 3.363905102014541626e-02 6.509537808597087860e-03 2.356253378093242645e-02 9.421179071068763733e-03 2.577625587582588196e-02 -6.476375274360179901e-03 -4.965595435351133347e-03 3.940018638968467712e-02 8.683659136295318604e-03 9.770494885742664337e-03 -5.137400235980749130e-03 1.077700126916170120e-02 -3.109719976782798767e-02 4.029064625501632690e-02 -1.351250614970922470e-02 3.319622948765754700e-02 2.037927508354187012e-02 -4.338986473158001900e-04 -9.792425669729709625e-03 -5.847017746418714523e-03 1.857887394726276398e-02 1.665982976555824280e-02 2.665323950350284576e-02 3.794023394584655762e-02 -1.304401643574237823e-02 3.028046106919646263e-03 -1.920473296195268631e-03 1.538727805018424988e-02 1.174890343099832535e-02 -1.421205047518014908e-02 3.813260002061724663e-03 4.364287480711936951e-02 1.392322499305009842e-02 1.252556499093770981e-02 -2.525965869426727295e-02 4.000153392553329468e-03 1.427825354039669037e-02 -1.039664074778556824e-02 -7.926939986646175385e-03 5.644040647894144058e-03 1.204677205532789230e-02 -2.715647220611572266e-02 2.671420201659202576e-02 -4.780322313308715820e-03 3.060812689363956451e-02 -2.153173647820949554e-02 -1.708288118243217468e-02 2.206791564822196960e-02 1.606394350528717041e-02 -8.926112204790115356e-03 -1.518730446696281433e-02 1.289223693311214447e-02 -1.270546298474073410e-02 3.776286914944648743e-02 2.659761114045977592e-03 2.353489166125655174e-03 2.767826896160840988e-03 -7.538392674177885056e-03 2.129616402089595795e-02 -2.454133145511150360e-02 2.182636223733425140e-02 2.306047454476356506e-02 1.184702012687921524e-02 5.624307319521903992e-03 -4.866135772317647934e-03 -2.279174327850341797e-02 -2.047796174883842468e-02 -1.115687773562967777e-03 5.489381495863199234e-03 -1.387947332113981247e-02 1.417662366293370724e-03 -4.607740789651870728e-02 -2.413843572139739990e-02 -2.142925746738910675e-02 2.232969552278518677e-02 -1.306016277521848679e-02 3.213281184434890747e-02 -4.260185733437538147e-02 -9.913514368236064911e-03 -1.511998008936643600e-02 -1.780779846012592316e-02 9.120420552790164948e-03 1.571639999747276306e-02 -4.086111485958099365e-02 -8.606474846601486206e-03 2.455595415085554123e-03 3.812196478247642517e-02 6.263186689466238022e-03 -6.440041586756706238e-03 1.141146011650562286e-02 -1.021343655884265900e-02 6.454643327742815018e-03 -2.232705242931842804e-02 -5.579945445060729980e-02 8.012136444449424744e-03 -3.597310744225978851e-03 -3.224700316786766052e-02 -3.473955392837524414e-02 -3.054794669151306152e-02 2.053486555814743042e-02 2.632363932207226753e-03 2.831255272030830383e-02 3.740243613719940186e-02 1.186904963105916977e-03 2.249904535710811615e-02 2.772723557427525520e-03 -3.576488420367240906e-02 7.879823446273803711e-03 -5.240684840828180313e-03 -2.564489608630537987e-03 -3.240384906530380249e-02 -2.286292426288127899e-02 1.505285780876874924e-02 -1.057961210608482361e-02 9.364501573145389557e-03 -1.060536946170032024e-03 1.417321059852838516e-02 1.957887411117553711e-02 1.339064352214336395e-02 2.252403646707534790e-02 -6.545987445861101151e-03 -2.317513711750507355e-02 -1.068890094757080078e-02 4.675840027630329132e-03 -1.464889664202928543e-02 -6.205593235790729523e-03 3.157431492581963539e-03 1.353451330214738846e-02 -2.114062383770942688e-02 -3.987126052379608154e-02 -2.361167035996913910e-02 1.991381123661994934e-02 1.898719742894172668e-02 1.344909891486167908e-02 1.248763687908649445e-02 -1.147753465920686722e-02 3.306145593523979187e-02 3.724333643913269043e-02 -4.600163374561816454e-04 -1.985852234065532684e-02 -3.163485974073410034e-02 -6.404120009392499924e-03 2.597644459456205368e-03 -2.102695219218730927e-02 4.405464977025985718e-02 1.054593920707702637e-02 -1.536352094262838364e-02 1.754445768892765045e-02 -1.053639873862266541e-02 -2.716535329818725586e-02 2.275669947266578674e-02 3.302900865674018860e-02 -6.158167030662298203e-03 2.262760512530803680e-02 -1.402833871543407440e-02 -2.204686775803565979e-02 -1.168276276439428329e-02 -3.729740157723426819e-02 2.095736190676689148e-02 -3.271884098649024963e-02 3.520981175824999809e-03 6.059831939637660980e-03 -1.578757073730230331e-03 -3.531689196825027466e-02 1.316081173717975616e-02 -6.095505319535732269e-03 6.902539171278476715e-03 3.152553737163543701e-02 -1.249515451490879059e-02 7.388071622699499130e-03 5.222407635301351547e-03 -4.310958087444305420e-02 -5.383664276450872421e-03 -1.329303951933979988e-03 4.557735472917556763e-02 -1.125100441277027130e-02 1.493208110332489014e-02 -1.875711488537490368e-03 4.387228190898895264e-02 -2.883168682456016541e-02 2.609212696552276611e-02 -2.667027292773127556e-03 1.927064545452594757e-02 1.742717437446117401e-02 -3.000762313604354858e-02 3.024703636765480042e-02 -2.189748547971248627e-02 -5.398502573370933533e-03 1.073905453085899353e-02 2.321403846144676208e-02 -3.018376184627413750e-03 -2.006352692842483521e-02 1.183357788249850273e-03 8.249643258750438690e-03 1.909236609935760498e-02 -2.590765804052352905e-02 1.033167168498039246e-02 1.920107007026672363e-02 -2.395762689411640167e-02 -1.193985901772975922e-02 -3.432802110910415649e-02 -1.928581669926643372e-02 -1.918609719723463058e-03 2.359921112656593323e-02 4.517911933362483978e-03 6.234155967831611633e-03 -3.095141798257827759e-02 3.100323956459760666e-03 1.573987863957881927e-02 3.534684702754020691e-02 -1.167650055140256882e-02 -3.169677406549453735e-02 7.948460057377815247e-03 -3.791439114138484001e-03 5.392896477133035660e-03 6.747678853571414948e-03 -2.411063201725482941e-02 1.352310273796319962e-02 -2.991350134834647179e-03 3.413902129977941513e-03 -3.496309509500861168e-03 -2.133565023541450500e-03 -5.267705768346786499e-03 8.639337494969367981e-03 -1.046391017735004425e-02 -1.370903383940458298e-02 -1.748880930244922638e-02 -1.386615075170993805e-02 1.395862549543380737e-03 3.510187938809394836e-02 2.118325501214712858e-04 2.495361678302288055e-02 -2.100587822496891022e-02 -9.702930226922035217e-03 -3.611440211534500122e-02 1.232710434123873711e-03 2.346182055771350861e-02 -6.888138130307197571e-03 1.220275368541479111e-02 -4.924469627439975739e-03 1.370858680456876755e-02 -1.352150086313486099e-02 2.461385447531938553e-03 6.388324778527021408e-03 -1.692117378115653992e-02 1.457390841096639633e-02 -2.267691679298877716e-02 1.324133481830358505e-02 1.456796191632747650e-02 1.523795537650585175e-02 5.722175817936658859e-03 -1.368958409875631332e-02 -2.102007530629634857e-02 5.900139920413494110e-03 1.067120395600795746e-02 1.683983765542507172e-02 1.711431331932544708e-02 -3.356558829545974731e-02 -2.196250483393669128e-03 4.773243144154548645e-02 1.459123473614454269e-02 8.888310752809047699e-03 -9.958222508430480957e-03 5.380496755242347717e-02 -1.226326264441013336e-02 1.633525453507900238e-02 -1.536038005724549294e-03 3.413648903369903564e-02 -3.694714605808258057e-02 1.171914208680391312e-02 -1.277285534888505936e-02 -1.002995669841766357e-02 -2.320428192615509033e-02 -8.936494588851928711e-03 1.614340394735336304e-02 -3.495538607239723206e-02 -2.406416088342666626e-02 9.313630871474742889e-03 -2.542431838810443878e-02 -1.347925700247287750e-02 3.645335882902145386e-02 -1.560136768966913223e-02 -3.272989066317677498e-03 -1.040604524314403534e-02 1.083445269614458084e-02 1.072329934686422348e-02 6.773262750357389450e-03 -1.884582638740539551e-02 3.835490788333117962e-04 2.611396461725234985e-02 7.456943392753601074e-03 -2.425767481327056885e-02 -1.382533647119998932e-02 -2.561896806582808495e-03 1.844156347215175629e-02 -8.730463683605194092e-03 4.537467285990715027e-02 3.206445137038826942e-03 3.385446267202496529e-03 -7.387978583574295044e-02 3.512851893901824951e-02 -1.818834058940410614e-02 3.113076277077198029e-02 -1.690086536109447479e-02 3.570062667131423950e-02 7.998039945960044861e-03 -1.900797151029109955e-02 2.035326510667800903e-02 -8.997766301035881042e-03 -2.881074137985706329e-02 9.309012442827224731e-03 8.496895432472229004e-03 -1.270727720111608505e-02 3.670558333396911621e-02 2.510592341423034668e-02 4.238032270222902298e-03 1.072347722947597504e-02 -7.615827489644289017e-03 -7.812744006514549255e-03 -2.927851118147373199e-02 1.922543742693960667e-03 1.994858309626579285e-02 -1.563752070069313049e-02 -2.885180152952671051e-02 3.077489789575338364e-03 2.299055270850658417e-02 -1.632303372025489807e-02 5.277602467685937881e-03 -1.631741411983966827e-02 -8.047975599765777588e-03 2.058412507176399231e-02 -1.830348931252956390e-02 6.936545483767986298e-03 -4.322524368762969971e-02 -1.275915186852216721e-02 -9.048848296515643597e-04 -2.419679611921310425e-02 3.213884681463241577e-02 9.119942784309387207e-03 -5.074652284383773804e-02 3.027483820915222168e-02 -1.686815754510462284e-03 -4.873478785157203674e-03 8.545985445380210876e-03 -1.009863335639238358e-02 5.634724948322400451e-05 2.217734232544898987e-02 -2.464463375508785248e-02 -2.704174257814884186e-02 -1.955318450927734375e-02 -4.680383484810590744e-03 2.041492238640785217e-02 -2.128064446151256561e-02 -2.026419714093208313e-02 -2.204857021570205688e-02 -5.654238339047878981e-05 -1.438511419110000134e-03 -3.431050851941108704e-02 5.998619366437196732e-03 -8.360434323549270630e-03 -2.599955163896083832e-02 -1.736770570278167725e-02 -6.365982815623283386e-03 9.888061322271823883e-03 -3.089259564876556396e-02 1.221863180398941040e-02 -6.084395106881856918e-03 5.832125619053840637e-02 -2.634967910125851631e-03 2.003603987395763397e-02 2.248389646410942078e-02 -7.012051530182361603e-03 -8.879715576767921448e-03 2.367605827748775482e-02 3.851117566227912903e-02 -9.660914540290832520e-03 -1.151371467858552933e-02 -2.239164523780345917e-02 1.593034900724887848e-02 -2.440455928444862366e-02 -2.372203394770622253e-02 -1.201281044632196426e-02 2.679232694208621979e-02 -3.045126795768737793e-02 3.087189979851245880e-02 3.211702033877372742e-02 6.604477763175964355e-02 -1.757397875189781189e-02 -3.025288227945566177e-03 4.554780945181846619e-02 1.973221078515052795e-02 4.349002242088317871e-02 -9.711102582514286041e-03 -2.279049716889858246e-02 -2.822503075003623962e-02 -1.598652079701423645e-02 -1.551847252994775772e-02 -2.983305044472217560e-02 4.173560813069343567e-02 2.237974479794502258e-02 4.224435240030288696e-02 -2.099467441439628601e-02 -6.894995924085378647e-03 -2.610524371266365051e-02 8.828433230519294739e-03 7.582744583487510681e-03 3.470703493803739548e-03 3.334562480449676514e-02 -1.000806409865617752e-02 -8.891094475984573364e-03 -5.042517930269241333e-02 1.268327981233596802e-02 1.199902407824993134e-02 -2.592689357697963715e-02 4.905626643449068069e-03 3.184545412659645081e-02 -1.695453003048896790e-02 -2.241528220474720001e-02 -5.735101643949747086e-03 -1.910559274256229401e-02 3.663659468293190002e-02 1.243530772626399994e-02 2.600116841495037079e-02 5.081863608211278915e-03 -8.875839412212371826e-03 3.490858152508735657e-02 -3.565530292689800262e-03 -3.195666475221514702e-03 5.024894140660762787e-03 -7.418036460876464844e-03 1.868800446391105652e-02 -3.152319043874740601e-02 -1.222167909145355225e-02 -8.716743439435958862e-02 8.182067424058914185e-03 -2.502530440688133240e-02 2.528069913387298584e-02 3.370256721973419189e-02 -2.043391019105911255e-02 1.348467543721199036e-02 2.485892735421657562e-02 -9.983340278267860413e-03 -1.239713933318853378e-02 3.273458778858184814e-02 1.181961875408887863e-02 -1.518283318728208542e-02 3.282567486166954041e-02 3.611806780099868774e-02 8.420682512223720551e-03 7.589900866150856018e-03 9.660540148615837097e-03 -4.497093323152512312e-04 1.517733465880155563e-02 -1.185265462845563889e-02 -2.961205877363681793e-02 -6.359026767313480377e-03 2.168562635779380798e-02 -9.416977874934673309e-03 -1.224393141455948353e-03 -1.565871946513652802e-02 -5.143140256404876709e-02 5.060742609202861786e-03 -1.626050099730491638e-02 -1.772783137857913971e-02 -2.714763162657618523e-03 -1.370567083358764648e-02 5.078172776848077774e-03 2.360565215349197388e-02 -1.585436239838600159e-02 -5.914707668125629425e-03 -1.721137948334217072e-02 9.846694767475128174e-03 -1.797986961901187897e-02 -3.926924243569374084e-02 1.925228722393512726e-02 -1.234769169241189957e-02 -2.729134634137153625e-02 1.158247236162424088e-02 7.367017213255167007e-03 -1.447153626941144466e-03 -1.192026212811470032e-02 -1.153011247515678406e-02 2.651882730424404144e-02 -2.398027852177619934e-02
1.588758639991283417e-02 2.262153662741184235e-02 -1.087115891277790070e-02 4.521336778998374939e-02 6.497292197309434414e-04 1.368203479796648026e-02 5.809130612760782242e-03 -2.439249493181705475e-02 6.024027243256568909e-03 -3.375302627682685852e-02 -8.387648500502109528e-03 2.298219315707683563e-02 -4.480998031795024872e-03 2.124392427504062653e-02 8.565019816160202026e-03 -5.525460466742515564e-03 -2.485307864844799042e-02 -2.852482907474040985e-02 -2.521809749305248260e-02 1.008148770779371262e-02 2.600485458970069885e-03 7.221460342407226562e-03 1.233799848705530167e-02 7.272202055901288986e-03 -2.089630998671054840e-02 -4.741739109158515930e-02 3.849908243864774704e-03 8.091518655419349670e-03 -2.441078796982765198e-02 -8.821603842079639435e-03 4.585132002830505371e-02 -3.945108875632286072e-02 5.525701679289340973e-03 -1.306853443384170532e-02 1.621489599347114563e-02 -9.279500693082809448e-03 2.058217069134116173e-03 1.825444214046001434e-02 -1.189696369692683220e-03 5.448518320918083191e-03 1.692588441073894501e-02 4.235108569264411926e-02 -3.225564584136009216e-02 1.988442987203598022e-02 3.068252094089984894e-02 3.738198429346084595e-02 5.062779039144515991e-02 1.240157335996627808e-02 -2.063485607504844666e-02 -1.378301344811916351e-02 -5.168535932898521423e-02 3.202645480632781982e-02 6.770550739020109177e-03 2.369778417050838470e-02 -6.332968920469284058e-02 -1.395697332918643951e-02 2.484511351212859154e-03 4.381129890680313110e-02 2.948696911334991455e-02 -5.414481740444898605e-03 1.784310862421989441e-02 -3.022293373942375183e-02 -3.049658425152301788e-02 5.053486209362745285e-03 -2.398538962006568909e-02 3.226028988137841225e-03 -1.242326200008392334e-02 2.591939643025398254e-02 -2.577588148415088654e-02 -6.760446727275848389e-02 4.457535222172737122e-02 -2.263083495199680328e-02 3.498224541544914246e-02 1.855333708226680756e-02 1.956277713179588318e-02 4.969152808189392090e-02 -1.918970793485641479e-02 -2.652921713888645172e-03 3.001274727284908295e-02 1.447817403823137283e-02 -2.127294801175594330e-02 -7.332232315093278885e-03 -3.267553448677062988e-02 9.852026589214801788e-03 -1.279137469828128815e-02 8.947447873651981354e-03 1.151487231254577637e-03 1.474238932132720947e-03 4.550877027213573456e-03 2.339322818443179131e-03 -1.560843735933303833e-02 -5.436434410512447357e-03 -3.160206228494644165e-02 1.780539751052856445e-02 -1.692791841924190521e-02 1.427842304110527039e-02 -2.198849804699420929e-02 1.190862338989973068e-02 1.332209166139364243e-02 6.478594732470810413e-04 7.043659687042236328e-03 5.817823112010955811e-03 -4.367729183286428452e-03 -6.660353392362594604e-03 -4.340203944593667984e-03 1.115991827100515366e-02 2.870139107108116150e-02 -1.233983878046274185e-02 1.868934370577335358e-02 6.545562762767076492e-03 1.464702561497688293e-02 -2.932358765974640846e-03 -2.251287363469600677e-02 9.564043954014778137e-03 -8.332122117280960083e-03 3.149599581956863403e-02 -1.953336596488952637e-02 1.449873298406600952e-02 8.504259400069713593e-03 1.947766542434692383e-02 -9.892544709146022797e-03 -4.084129631519317627e-02 3.951234370470046997e-02 -3.105244413018226624e-02 -5.957092158496379852e-03 -1.589787192642688751e-02 -4.371580202132463455e-03 1.639174483716487885e-02 4.794021695852279663e-02 6.055860314518213272e-03 -1.694798842072486877e-02 4.818046092987060547e-02 -8.839746005833148956e-03 -9.634185582399368286e-03 -3.880479559302330017e-02 -1.958476938307285309e-02 -7.797098252922296524e-03 4.223314300179481506e-02 1.121851243078708649e-02 3.899752721190452576e-02 -6.777300499379634857e-03 -2.180051524192094803e-03 -6.640713196247816086e-03 -2.855930291116237640e-02 -8.117204532027244568e-03 -2.388729155063629150e-02 1.578492484986782074e-02 -1.731161586940288544e-02 -4.272796679288148880e-03 -9.634357877075672150e-03 1.236206851899623871e-02 1.315228734165430069e-02 1.994103938341140747e-02 -4.608920775353908539e-03 2.431530505418777466e-02 -5.651213694363832474e-03 1.527990587055683136e-02 4.388509318232536316e-03 3.082426730543375015e-03 2.920500701293349266e-03 -4.346395656466484070e-02 2.111929468810558319e-03 -9.125019423663616180e-03 -5.496798455715179443e-02 -3.451937111094594002e-03 1.670658774673938751e-02 2.425597235560417175e-02 2.029618062078952789e-02 2.032250538468360901e-02 9.871450020000338554e-04 5.444744601845741272e-02 -2.421380206942558289e-02 -1.221099402755498886e-03 -8.093451149761676788e-03 1.735321804881095886e-02 -1.514305081218481064e-02 3.791437717154622078e-03 4.511326551437377930e-04 1.260526943951845169e-02 -5.929866433143615723e-02 2.657265029847621918e-02 1.469588652253150940e-02 -3.253495378885418177e-04 2.911140210926532745e-02 -1.847345940768718719e-02 -8.013595361262559891e-04 -1.689741201698780060e-02 2.161898836493492126e-02 -2.641051635146141052e-02 -1.514469459652900696e-02 -2.807442285120487213e-02 -3.913852386176586151e-03 1.150734256953001022e-02 -3.445174545049667358e-02 -3.653393592685461044e-03 2.779339265543967485e-04 7.511032745242118835e-03 7.655908819288015366e-03 2.596404589712619781e-02 -3.808419220149517059e-03 -2.693986333906650543e-02 2.250031568109989166e-02 1.406485214829444885e-02 8.970278315246105194e-03 -4.028214514255523682e-02 -5.816248431801795959e-02 4.953153431415557861e-02 -3.312102984637022018e-03 2.860644459724426270e-02 -1.900452189147472382e-02 -5.674121435731649399e-03 -3.659710055217146873e-03 2.439567074179649353e-02 1.247722748667001724e-02 -6.644799374043941498e-03 -3.558522803359664977e-05 7.143919356167316437e-03 9.325102902948856354e-03 1.643295958638191223e-02 4.110794514417648315e-03 -3.313343971967697144e-02 -1.819930225610733032e-02 -3.942412510514259338e-02 -1.361571624875068665e-02 -2.901035360991954803e-02 2.431205473840236664e-02 -1.831258460879325867e-02 3.459665924310684204e-02 1.677415333688259125e-02 -9.499288164079189301e-03 2.248125616461038589e-03 -3.134119138121604919e-02 -1.468730624765157700e-02 1.427116524428129196e-02 2.153504639863967896e-02 -3.261984884738922119e-02 -1.742835529148578644e-02 1.122116763144731522e-02 -1.874267496168613434e-02 -2.212581038475036621e-02 -1.693227700889110565e-02 4.943192936480045319e-03 -1.638117246329784393e-02 6.193153094500303268e-03 -2.020392566919326782e-02 3.667414933443069458e-02 -2.388520166277885437e-02 1.678278110921382904e-02 -3.669600188732147217e-02 2.331178449094295502e-02 -1.058176066726446152e-02 3.708431497216224670e-02 -1.922543393447995186e-03 8.515146560966968536e-03 -9.570060065016150475e-04 2.020657993853092194e-02 -2.234309539198875427e-02 1.613145577721297741e-03 5.159277934581041336e-03 -4.445893689990043640e-02 5.371944513171911240e-03 -1.229499652981758118e-02 -1.365194469690322876e-02 -1.436360925436019897e-02 6.756170187145471573e-04 9.668340906500816345e-03 1.933682709932327271e-02 1.396086812019348145e-02 1.210784167051315308e-02 2.158958930522203445e-03 1.795131340622901917e-02 1.443930715322494507e-02 1.238028984516859055e-02 1.421251799911260605e-03 -2.473882213234901428e-02 -3.950670827180147171e-03 -4.308003466576337814e-03 6.027092691510915756e-03 2.063293196260929108e-02 7.108259480446577072e-03 2.567994594573974609e-02 7.771606557071208954e-03 1.501465775072574615e-02 1.221474725753068924e-02 2.271951921284198761e-02 1.430770661681890488e-02 5.510606616735458374e-02 1.020736619830131531e-02 1.554143521934747696e-02 1.278808247298002243e-02 -4.271610639989376068e-03 -6.376168224960565567e-03 -4.311028867959976196e-03 1.646243594586849213e-02 3.245159983634948730e-02 5.874264240264892578e-02 1.051555760204792023e-02 2.063207142055034637e-02 5.620520096272230148e-03 9.697739034891128540e-03 2.057906705886125565e-03 -5.079015716910362244e-02 -3.886630013585090637e-02 6.849914323538541794e-03 2.465337514877319336e-02 1.173730590380728245e-03 3.379786387085914612e-03 1.649895124137401581e-02 -1.939776167273521423e-02 1.037943363189697266e-02 1.777615025639533997e-02 -2.109695784747600555e-02 -2.164838463068008423e-02 -1.846175827085971832e-02 1.751945912837982178e-02 7.878838805481791496e-04 8.857009932398796082e-03 3.663255274295806885e-02 -1.391142047941684723e-02 -1.954790949821472168e-02 2.881597029045224190e-04 1.019817218184471130e-02 1.764834858477115631e-02 1.389748603105545044e-02 3.366765740793198347e-04 4.875523597002029419e-02 4.320981446653604507e-03 1.313196844421327114e-04 5.548897664994001389e-03 -1.423276122659444809e-02 8.483793586492538452e-03 2.455021627247333527e-02 2.189375832676887512e-02 2.916792780160903931e-02 1.521431282162666321e-02 -1.748220436275005341e-02 1.862799376249313354e-02 -1.386058051139116287e-02 -3.766373032703995705e-03 3.654404357075691223e-02 2.129850909113883972e-03 3.881807439029216766e-03 -6.579991895705461502e-04 -1.055765338242053986e-02 -1.732630096375942230e-02 1.215503644198179245e-02 8.534939028322696686e-03 1.216280460357666016e-02 -1.287210825830698013e-02 -2.162320725619792938e-02 3.397417021915316582e-03 3.294897731393575668e-03 -4.161857068538665771e-03 -6.584318354725837708e-03 -9.339218959212303162e-03 1.582724275067448616e-03 -2.662036195397377014e-02 -4.110679030418395996e-02 -8.927675662562251091e-04 3.272631391882896423e-02 -6.040336098521947861e-03 -2.483399584889411926e-02 5.837224423885345459e-03 7.328330539166927338e-03 2.549446001648902893e-02 3.812905400991439819e-02 -6.169113330543041229e-03 -5.098347552120685577e-03 2.544251084327697754e-02 2.826217561960220337e-02 4.593801870942115784e-02 -4.521846026182174683e-02 1.487162150442600250e-02 1.715192757546901703e-02 1.223955210298299789e-02 4.041024297475814819e-02 1.637923903763294220e-02 -6.669406313449144363e-03 -4.599459003657102585e-03 1.100364513695240021e-02 1.045176014304161072e-02 2.067738585174083710e-02 1.928811776451766491e-03 -8.061120286583900452e-03 1.497950637713074684e-03 1.866872236132621765e-02 -2.787712402641773224e-02 -5.871381610631942749e-03 2.110170607920736074e-04 -5.203755199909210205e-02 -7.801787927746772766e-03 2.673003077507019043e-02 2.004781179130077362e-02 1.834820397198200226e-02 7.884294609539210796e-04 1.904041506350040436e-02 -4.955527558922767639e-02 2.002849988639354706e-02 4.841517657041549683e-02 -8.600003086030483246e-03 3.286701161414384842e-03 -2.662145718932151794e-02 9.059547446668148041e-03 -1.167689077556133270e-02 6.745494902133941650e-03 -2.267134189605712891e-02 2.237121574580669403e-02 -1.467313035391271114e-03 -1.959466002881526947e-02 -1.834213151596486568e-03 -1.741699129343032837e-02 1.871244050562381744e-02 -6.783278193324804306e-03 -6.112089846283197403e-03 1.917806454002857208e-02 2.207420021295547485e-02 -3.231287747621536255e-02 4.335426725447177887e-03 1.072987914085388184e-02 3.512249514460563660e-02 5.351285915821790695e-03 -1.999215595424175262e-02 -1.290330104529857635e-02 2.910958975553512573e-02 1.857336238026618958e-02 -3.187388414517045021e-03 2.989969216287136078e-02 -1.608623750507831573e-02 -3.229558840394020081e-02 4.469526000320911407e-03 9.240376763045787811e-03 3.287303820252418518e-02 4.462334513664245605e-02 1.074966229498386383e-02 -1.662141270935535431e-02 2.084279805421829224e-02 2.579286321997642517e-02 -2.633431553840637207e-02 -2.914226055145263672e-02 -3.767973743379116058e-03 4.418088588863611221e-03 1.439431123435497284e-02 -2.876560576260089874e-02 1.408719457685947418e-02 -9.315514005720615387e-03 7.143395021557807922e-03 7.001342251896858215e-03 3.130643861368298531e-03 -2.908318489789962769e-02 -3.177769854664802551e-02 -2.036488242447376251e-02 -5.036957561969757080e-02 2.157118171453475952e-02 3.946134820580482483e-02 -8.785452693700790405e-03 7.188169751316308975e-03 6.750634056515991688e-04 -5.638447776436805725e-02 -1.226972788572311401e-02 -2.210725843906402588e-02 -1.095081772655248642e-02 -1.170471869409084320e-02 1.523451693356037140e-02 1.102577522397041321e-02 5.856872303411364555e-04 1.454759575426578522e-02 -4.187663551419973373e-03 -7.039971533231437206e-04 -6.498786620795726776e-03 -2.655903063714504242e-02 1.337608974426984787e-02 -6.017360370606184006e-03 -4.299789667129516602e-02 -2.418976649641990662e-02 2.735966630280017853e-02 2.209591679275035858e-02 2.597980201244354248e-02 -1.787176914513111115e-02 -1.092022191733121872e-02 -1.349630579352378845e-02 1.651184819638729095e-02 4.524929914623498917e-03 3.142935410141944885e-02 -2.083368785679340363e-02 -3.512264043092727661e-02 -7.431618403643369675e-03 2.825978025794029236e-02 -1.327965781092643738e-02 -1.056810934096574783e-02 -1.579950912855565548e-03 1.155378948897123337e-02 2.824644185602664948e-02 2.832520520314574242e-03 1.759070146363228559e-04 4.107399657368659973e-02 2.244188264012336731e-02 -2.295912057161331177e-02 1.091298740357160568e-02 1.662683673202991486e-02 -2.462176978588104248e-02 -3.686677664518356323e-03 2.049960941076278687e-02 -2.560499124228954315e-03 3.122805990278720856e-02 5.438162945210933685e-03 -9.010682813823223114e-03 1.975074410438537598e-02 1.601232960820198059e-02 -2.866243757307529449e-02 -1.203379873186349869e-02 -4.227329045534133911e-03 1.207454223185777664e-02
-4.488941282033920288e-03 -3.340408578515052795e-02 1.237448304891586304e-03 -1.481684483587741852e-02 -1.216901838779449463e-02 -1.020383182913064957e-02 1.876962929964065552e-02 -2.811664342880249023e-02 -2.815442532300949097e-02 8.870723657310009003e-03 -5.621069669723510742e-02 1.493613515049219131e-02 -2.010783500736579299e-04 3.000242868438363075e-03 -2.315919660031795502e-02 -9.724459610879421234e-03 2.983947983011603355e-03 1.994163170456886292e-02 3.059783717617392540e-03 1.262699253857135773e-03 2.212268998846411705e-03 -4.402194917201995850e-02 7.613768801093101501e-03 -1.187432371079921722e-02 -8.322235196828842163e-03 2.777346409857273102e-02 -1.394981518387794495e-02 -3.070130385458469391e-02 2.645693952217698097e-03 -9.670706465840339661e-03 1.168069211416877806e-04 -2.300575561821460724e-02 1.471144426614046097e-02 -1.530395937152206898e-03 2.233616821467876434e-02 2.700523845851421356e-02 -2.206636359915137291e-03 -2.099481038749217987e-02 -1.303758285939693451e-02 -9.025193750858306885e-03 8.753733709454536438e-03 2.995383227244019508e-03 3.270154120400547981e-03 -4.953080788254737854e-02 -3.977274522185325623e-02 -3.232072293758392334e-02 -2.359839342534542084e-02 -6.049721688032150269e-02 -1.520687248557806015e-02 -9.327672421932220459e-03 1.529922708868980408e-02 -2.318044565618038177e-02 -4.645077884197235107e-02 7.840925827622413635e-03 2.842419594526290894e-02 -1.327751949429512024e-02 -2.696803770959377289e-02 -3.425343707203865051e-02 -3.858536109328269958e-02 -1.402629725635051727e-02 1.695197192020714283e-03 1.125814393162727356e-02 1.771597936749458313e-02 -4.615961760282516479e-02 3.924548998475074768e-02 2.346658706665039062e-02 1.806855760514736176e-02 -5.231425166130065918e-02 -1.528034266084432602e-02 2.211356908082962036e-02 1.249952800571918488e-02 -1.487117377109825611e-03 -3.982001449912786484e-03 1.910146139562129974e-02 3.276330605149269104e-02 8.213346154661849141e-05 -9.823607280850410461e-03 -6.165012717247009277e-03 -3.019531071186065674e-02 7.947226054966449738e-03 -5.764187313616275787e-03 -3.385520773008465767e-03 -2.694056183099746704e-02 -5.925414618104696274e-03 -4.121229052543640137e-03 -3.605812555178999901e-03 -7.908819243311882019e-03 2.510420605540275574e-02 -3.998911380767822266e-02 2.726645395159721375e-02 -3.408980369567871094e-02 4.436847195029258728e-02 1.278229872696101665e-03 2.422116696834564209e-03 3.079690597951412201e-02 2.428916282951831818e-02 3.196367621421813965e-02 4.100291430950164795e-02 3.747883811593055725e-02 4.401679337024688721e-02 1.067523658275604248e-02 2.132637891918420792e-03 2.614586427807807922e-02 4.881467670202255249e-02 3.658489137887954712e-02 -1.463732402771711349e-02 4.268428310751914978e-03 2.356496872380375862e-03 2.173152752220630646e-02 -2.502147667109966278e-02 -1.117167528718709946e-02 1.121840439736843109e-02 3.086728742346167564e-03 4.122474417090415955e-02 -1.985651999711990356e-02 9.944156743586063385e-03 8.136605471372604370e-02 -5.477573722600936890e-02 -1.276435516774654388e-02 -1.213702652603387833e-02 -1.147897820919752121e-02 1.373385731130838394e-02 1.033223466947674751e-03 2.404422126710414886e-02 -3.312958031892776489e-02 9.918836876749992371e-03 2.463626861572265625e-02 -2.545059192925691605e-03 1.533825881779193878e-02 -3.300667926669120789e-02 1.112522091716527939e-02 4.770181700587272644e-02 3.901319811120629311e-03 1.257888041436672211e-02 3.096839878708124161e-03 -3.147459030151367188e-02 -4.689487162977457047e-03 -2.926379442214965820e-02 3.256794065237045288e-02 2.515667676925659180e-02 -2.188167348504066467e-02 -3.170937299728393555e-03 -1.440529618412256241e-02 -1.397710852324962616e-02 -2.379156276583671570e-02 2.724405191838741302e-02 3.491267934441566467e-02 -9.719133377075195312e-03 1.643675193190574646e-02 -1.636043936014175415e-02 -1.319434773176908493e-02 -7.286448497325181961e-03 -6.089427042752504349e-04 -6.188302487134933472e-02 -1.826423034071922302e-02 -2.245707670226693153e-03 3.079242072999477386e-02 -6.945760920643806458e-03 -4.372346401214599609e-02 -1.087558362632989883e-02 -1.896962290629744530e-03 3.148169443011283875e-02 6.030412763357162476e-02 1.620458066463470459e-02 3.580998256802558899e-02 3.647283464670181274e-02 -1.168541796505451202e-02 1.999591290950775146e-02 2.353572286665439606e-02 1.457642763853073120e-02 5.300739314407110214e-03 2.906372770667076111e-02 -1.037320680916309357e-02 -9.509942494332790375e-03 2.977590076625347137e-02 2.263324148952960968e-02 2.137887105345726013e-02 5.685643758624792099e-03 -2.630246430635452271e-02 3.905797377228736877e-02 2.981900982558727264e-02 -6.123522762209177017e-03 1.046617049723863602e-02 -3.618901968002319336e-02 2.531367540359497070e-02 -2.709219604730606079e-02 1.379335112869739532e-02 3.851311281323432922e-02 2.388211525976657867e-02 1.777850440703332424e-03 -1.997483149170875549e-02 3.288034349679946899e-02 -3.097029589116573334e-02 -2.177603542804718018e-02 -2.902001142501831055e-02 1.947850361466407776e-02 4.980940371751785278e-03 1.163458917289972305e-02 3.145872056484222412e-02 -4.795056581497192383e-02 -9.776581078767776489e-03 1.030547451227903366e-02 3.157889470458030701e-02 9.503050707280635834e-03 1.786136766895651817e-03 3.243222460150718689e-02 1.134609151631593704e-02 -8.064492139965295792e-04 -1.551640778779983521e-02 1.770209707319736481e-02 5.858700722455978394e-02 7.482083514332771301e-03 -1.476097200065851212e-02 2.578933909535408020e-02 -2.130227163434028625e-02 7.802337873727083206e-03 -2.998333610594272614e-02 3.537816926836967468e-02 -1.638895017094910145e-03 2.203024365007877350e-02 -1.236785855144262314e-02 -3.543766587972640991e-02 -3.672948339954018593e-03 -2.492859400808811188e-02 -4.778529703617095947e-02 1.347243553027510643e-03 -3.795350342988967896e-02 4.569994285702705383e-03 -2.608796209096908569e-02 -3.387201949954032898e-02 8.885774761438369751e-03 2.113967761397361755e-02 -1.719775609672069550e-02 1.132604945451021194e-02 2.850599028170108795e-02 -1.759969256818294525e-02 3.565127030014991760e-02 7.814079523086547852e-03 3.825074061751365662e-02 -1.718696951866149902e-02 1.232970319688320160e-02 1.837852038443088531e-02 -3.282876685261726379e-02 1.387961860746145248e-02 -8.623158559203147888e-03 -1.511131320148706436e-02 7.088985294103622437e-03 -9.452471858821809292e-04 5.438906140625476837e-03 -5.950994417071342468e-02 -1.096705999225378036e-02 2.063115872442722321e-02 7.713108789175748825e-03 -2.454376593232154846e-02 4.538662359118461609e-02 3.753009717911481857e-03 3.337111324071884155e-02 3.786693196161650121e-05 -3.046645782887935638e-02 -1.804153434932231903e-02 1.378519181162118912e-02 3.178650047630071640e-03 1.076323911547660828e-02 1.441290788352489471e-02 1.053430326282978058e-02 -1.727700047194957733e-02 -2.091220114380121231e-03 6.099676713347434998e-02 -2.671598643064498901e-02 -2.321351319551467896e-02 -3.969593718647956848e-02 -2.147447317838668823e-02 -2.169222198426723480e-02 6.398322526365518570e-03 2.617237716913223267e-02 1.590472459793090820e-02 -1.030375529080629349e-02 -3.152329707518219948e-03 1.737191155552864075e-02 3.909827768802642822e-02 2.956782653927803040e-02 4.349926486611366272e-03 -1.032392680644989014e-02 -3.510135039687156677e-02 -1.790511049330234528e-02 -8.666801452636718750e-02 1.723457686603069305e-02 4.870499949902296066e-03 2.294080099090933800e-03 -3.481023944914340973e-03 -1.166251138783991337e-03 -5.232871975749731064e-03 9.896812960505485535e-03 1.452979631721973419e-03 2.219293266534805298e-02 -2.399959601461887360e-02 -3.624933958053588867e-02 5.782508524134755135e-04 6.445526196330320090e-06 -2.089396119117736816e-02 3.937952592968940735e-02 -5.583978258073329926e-03 1.101945526897907257e-02 -1.557622454129159451e-03 -7.384613272733986378e-04 -7.964232005178928375e-03 -2.902071177959442139e-02 2.767107076942920685e-02 -1.350567024201154709e-02 1.465656422078609467e-02 -2.989785373210906982e-02 -3.311007842421531677e-02 2.644246071577072144e-02 -3.124549239873886108e-02 -4.613898694515228271e-03 -1.115131843835115433e-02 1.973924227058887482e-02 2.876259014010429382e-02 -5.835045129060745239e-02 1.330205518752336502e-02 -1.304600294679403305e-02 -3.255242854356765747e-02 9.215166792273521423e-03 -2.932965522632002831e-03 6.910627242177724838e-03 1.829187385737895966e-02 2.877159230411052704e-02 -1.114859152585268021e-02 2.398236468434333801e-02 1.169532351195812225e-02 -6.064512208104133606e-02 1.475781574845314026e-02 4.861284978687763214e-03 5.108959507197141647e-03 -5.936271045356988907e-03 9.766676463186740875e-03 -2.243631519377231598e-03 -3.660397371277213097e-03 1.451136730611324310e-02 -2.489664964377880096e-02 -1.329138502478599548e-02 -2.635250985622406006e-02 2.031331881880760193e-02 -3.380720689892768860e-02 -9.648853912949562073e-03 4.186449199914932251e-02 4.617067985236644745e-03 2.027205564081668854e-02 -2.420821692794561386e-03 -3.750140240299515426e-05 -7.172446203185245395e-05 1.462516840547323227e-02 -1.279076840728521347e-02 1.382786035537719727e-02 -1.247194409370422363e-02 2.948801033198833466e-03 5.497335642576217651e-02 -1.538774184882640839e-02 1.080115418881177902e-02 -1.373878563754260540e-03 -2.361812815070152283e-02 -4.072367772459983826e-02 1.109670847654342651e-02 7.036955095827579498e-03 -3.717049956321716309e-02 -2.912740968167781830e-02 7.411743979901075363e-03 2.172902785241603851e-02 1.783637329936027527e-02 4.046444315463304520e-03 2.016595390159636736e-04 3.288724459707736969e-03 3.440341446548700333e-03 -7.307084742933511734e-03 -3.407550230622291565e-02 1.831494085490703583e-02 2.028870582580566406e-02 -1.794025488197803497e-02 3.973461687564849854e-02 -1.481077726930379868e-02 4.260247573256492615e-02 2.345935208722949028e-03 2.151437662541866302e-02 1.779315434396266937e-02 4.510336369276046753e-02 1.143480185419321060e-02 4.600867629051208496e-02 1.858882233500480652e-02 5.258437618613243103e-02 1.176106277853250504e-02 -9.300459176301956177e-03 -2.507647313177585602e-02 4.844911023974418640e-02 1.864699181169271469e-03 -1.504102908074855804e-02 4.437619447708129883e-02 -3.577082604169845581e-02 -3.109059482812881470e-02 -1.190984994173049927e-02 1.821606769226491451e-03 3.183409571647644043e-02 2.291887998580932617e-02 -9.891254827380180359e-03 4.802943672984838486e-03 -1.575957797467708588e-02 1.492020383011549711e-04 1.795321516692638397e-02 4.796565335709601641e-04 2.666091546416282654e-02 1.871898770332336426e-02 -2.536861971020698547e-02 1.432305667549371719e-03 -5.523818545043468475e-03 -6.302032154053449631e-03 3.362571448087692261e-02 -1.903428137302398682e-02 1.279305480420589447e-02 -7.730555953457951546e-04 -5.041042342782020569e-03 -2.060476318001747131e-02 -5.210665403865277767e-04 2.691513858735561371e-03 6.563120521605014801e-03 6.606478709727525711e-03 -2.621940895915031433e-02 8.539089001715183258e-03 2.371513284742832184e-02 4.952666815370321274e-03 2.637379989027976990e-02 3.105375729501247406e-02 -1.049354020506143570e-02 1.838089339435100555e-02 -2.651986200362443924e-03 1.490345783531665802e-02 8.504319004714488983e-03 -2.350315265357494354e-02 5.202022567391395569e-02 2.747358987107872963e-03 -4.568735882639884949e-02 2.784827910363674164e-02 2.153378538787364960e-02 8.629527874290943146e-03 -6.977686192840337753e-03 -1.744302734732627869e-02 -1.185518223792314529e-02 1.337588392198085785e-02 -1.080223824828863144e-02 -7.201843429356813431e-03 -1.096789259463548660e-02 -4.259384702891111374e-03 -2.116944268345832825e-02 4.371257964521646500e-03 3.365892916917800903e-02 4.864394199103116989e-03 -4.592695459723472595e-02 -1.390121970325708389e-02 -1.993837021291255951e-02 6.226989440619945526e-03 -2.328627556562423706e-02 1.422447711229324341e-02 3.096629865467548370e-02 -3.110189177095890045e-02 -5.321535468101501465e-02 3.893277607858181000e-03 -2.761693298816680908e-02 2.800428681075572968e-02 -4.374965652823448181e-02 3.163941949605941772e-02 -1.033505797386169434e-02 -4.998018499463796616e-03 1.100928429514169693e-02 -1.352627947926521301e-02 -1.572408713400363922e-02 1.100499182939529419e-02 2.052773721516132355e-02 -1.722962968051433563e-02 7.960565388202667236e-03 -4.872035607695579529e-02 -3.044456243515014648e-02 -1.340353977866470814e-03 -1.374951750040054321e-02 2.032246626913547516e-02 2.558146603405475616e-02 -3.248786553740501404e-02 2.738297171890735626e-02 -2.023137873038649559e-03 1.788824610412120819e-02 -2.901047933846712112e-03 4.085271432995796204e-02 3.475813567638397217e-02 5.342693254351615906e-02 1.620094664394855499e-02 2.784681320190429688e-02 5.470373667776584625e-03 -3.699664399027824402e-02 -1.041453611105680466e-02 1.874917652457952499e-03 -2.655594144016504288e-04 -2.705692872405052185e-02 -3.689771285280585289e-03 4.010501503944396973e-02 -1.024509686976671219e-02 -4.776597023010253906e-02 1.085394248366355896e-02 -2.014329098165035248e-02 -7.591984700411558151e-03 -3.269756678491830826e-03 8.045907132327556610e-03 3.917766734957695007e-02 -1.251418702304363251e-02 9.494611993432044983e-03 -2.348936395719647408e-03
2.748928219079971313e-02 -1.143364608287811279e-02 -1.983429305255413055e-02 6.523647345602512360e-03 9.225975372828543186e-04 1.669916696846485138e-02 -4.196480661630630493e-02 -2.171163633465766907e-02 1.464051101356744766e-02 1.435246784240007401e-02 -2.328771725296974182e-02 4.049212858080863953e-02 -8.137121796607971191e-03 -2.946216985583305359e-02 -1.831988990306854248e-02 7.699671201407909393e-03 -1.306852418929338455e-02 -2.682775259017944336e-03 1.879835315048694611e-02 3.559869015589356422e-03 1.450532395392656326e-02 1.003289036452770233e-02 -1.281435135751962662e-02 3.181392699480056763e-02 2.351661026477813721e-02 1.495474716648459435e-03 5.898495204746723175e-03 -9.551896713674068451e-03 -9.237959980964660645e-03 1.696632825769484043e-03 2.287279441952705383e-02 -6.209592800587415695e-03 -3.815981745719909668e-02 8.896615356206893921e-03 -2.361108735203742981e-02 2.646345272660255432e-02 4.035176709294319153e-03 -9.850711561739444733e-03 8.071742951869964600e-03 -1.163768209517002106e-02 1.102765556424856186e-02 1.219839323312044144e-03 4.023139365017414093e-03 -1.299402676522731781e-03 -1.403111312538385391e-02 -1.207962352782487869e-02 2.316684834659099579e-02 -4.051894322037696838e-02 -4.293784871697425842e-02 2.138146897777915001e-03 1.734255813062191010e-02 -4.299433901906013489e-02 -1.101540285162627697e-03 -1.519735157489776611e-02 8.206830243580043316e-04 6.198231596499681473e-03 9.698025882244110107e-03 -1.172014046460390091e-02 -1.498515065759420395e-02 2.585267648100852966e-02 2.034306153655052185e-02 3.410490229725837708e-03 -4.429553449153900146e-02 1.602996326982975006e-02 8.686746470630168915e-03 -4.796415567398071289e-02 2.224080497398972511e-03 -2.472715824842453003e-02 -8.006235584616661072e-03 -1.674693077802658081e-02 -1.280599366873502731e-02 3.079571388661861420e-02 -2.211835607886314392e-02 -2.860756777226924896e-02 3.727913834154605865e-03 9.244325570762157440e-03 -5.346048250794410706e-02 -1.973095722496509552e-02 -6.216137553565204144e-04 1.412141416221857071e-02 2.273987047374248505e-02 1.734378561377525330e-02 -4.911659751087427139e-03 2.256322652101516724e-02 -2.172969252569600940e-04 -1.139806304126977921e-02 2.093123830854892731e-02 -3.561804816126823425e-02 2.011497691273689270e-02 -9.601821191608905792e-03 -5.937940441071987152e-03 -6.803378462791442871e-02 2.145501319319009781e-03 -9.830116294324398041e-03 2.801203541457653046e-02 2.204884774982929230e-02 4.177562147378921509e-02 -2.192452922463417053e-02 2.673322800546884537e-03 -7.361459545791149139e-03 -1.766166533343493938e-03 -1.165857422165572643e-03 -1.802815869450569153e-02 1.658844575285911560e-02 2.568671666085720062e-02 -1.763490028679370880e-03 4.482953995466232300e-02 1.189330220222473145e-02 3.293520770967006683e-03 -9.634883143007755280e-03 1.083109411410987377e-03 3.859907155856490135e-03 -1.403316739015281200e-03 -3.215285716578364372e-03 -1.931322179734706879e-02 1.346719544380903244e-02 -2.667017094790935516e-02 -1.687596365809440613e-02 -2.722253091633319855e-02 -1.029064599424600601e-02 -2.347250841557979584e-02 -1.448094286024570465e-02 2.556098811328411102e-02 3.605175996199250221e-03 8.525414392352104187e-03 -1.314290799200534821e-02 -2.749362494796514511e-03 6.433614064007997513e-03 1.143914554268121719e-02 -8.765514008700847626e-03 -3.174578770995140076e-02 -9.940223768353462219e-03 3.392709186300635338e-03 2.985179238021373749e-02 2.785483561456203461e-02 -3.459690883755683899e-02 -4.309561569243669510e-03 5.199825973249971867e-04 1.124965678900480270e-02 -2.643853612244129181e-02 -1.408428535796701908e-03 1.592531986534595490e-02 -1.543788891285657883e-02 -4.764432087540626526e-03 -6.088458467274904251e-03 -9.891165420413017273e-03 -1.114009693264961243e-02 -1.619181782007217407e-02 7.775498088449239731e-04 1.582415215671062469e-02 -2.284619770944118500e-02 -1.312052016146481037e-03 -2.083543315529823303e-02 1.805630512535572052e-02 2.007364295423030853e-03 9.398789145052433014e-03 2.145433798432350159e-02 4.625814035534858704e-02 2.052052505314350128e-02 3.067036904394626617e-02 -1.959924586117267609e-02 -1.470852643251419067e-02 -2.171301096677780151e-02 -4.923237115144729614e-02 -4.581004753708839417e-02 -1.549591030925512314e-02 7.130314595997333527e-03 6.934352219104766846e-03 4.207463189959526062e-02 -4.035768564790487289e-03 -6.601195316761732101e-03 9.387860074639320374e-03 -5.001923535019159317e-03 5.296614393591880798e-02 4.521373286843299866e-02 -1.036648917943239212e-02 1.220959145575761795e-02 3.591738408431410789e-03 -6.296919193118810654e-03 -1.910971477627754211e-02 1.180080114863812923e-03 7.288951892405748367e-04 3.685234859585762024e-02 3.718502819538116455e-03 -2.928323112428188324e-02 1.388373691588640213e-02 -5.855945870280265808e-03 7.430405821651220322e-03 3.560027107596397400e-03 -2.592568052932620049e-03 3.572066500782966614e-02 2.166645415127277374e-02 -4.589362815022468567e-02 -1.985706388950347900e-02 -3.879769146442413330e-02 4.044073447585105896e-02 -1.249322853982448578e-02 4.457516968250274658e-02 5.462960526347160339e-02 -1.828810386359691620e-02 1.517512742429971695e-02 1.615004613995552063e-02 7.622240576893091202e-03 -2.289828658103942871e-02 -1.393711194396018982e-02 4.093971103429794312e-02 1.518631074577569962e-02 3.877188265323638916e-02 -1.766387932002544403e-02 4.914302844554185867e-03 3.003118187189102173e-02 3.025364503264427185e-02 -2.348420955240726471e-02 -7.402807008475065231e-03 1.120975054800510406e-02 -7.752203382551670074e-03 -3.912848420441150665e-03 1.840682327747344971e-02 2.099517919123172760e-02 1.101694535464048386e-02 -5.765016749501228333e-02 1.038881205022335052e-02 7.821155712008476257e-03 2.241721842437982559e-03 -1.398253906518220901e-02 2.493194304406642914e-02 7.598131895065307617e-03 7.894662208855152130e-03 -2.738851681351661682e-02 1.178843341767787933e-02 3.139797225594520569e-02 2.268189331516623497e-03 3.771011158823966980e-02 2.038163319230079651e-02 -6.501436978578567505e-02 2.162943407893180847e-02 -1.039219181984663010e-02 5.022156238555908203e-02 -5.405561998486518860e-03 -3.250029170885682106e-03 5.765712819993495941e-03 1.287870947271585464e-02 -1.528709661215543747e-02 -1.814271137118339539e-02 4.739775788038969040e-03 -8.265431970357894897e-03 -9.333254769444465637e-03 -3.605811856687068939e-03 1.850922964513301849e-02 1.675904355943202972e-02 -1.685076765716075897e-02 1.808286085724830627e-02 2.216200157999992371e-02 -1.867360621690750122e-02 -7.601904682815074921e-03 -1.064240583218634129e-03 -3.562834113836288452e-02 1.945286616683006287e-02 -1.344587467610836029e-02 1.657721772789955139e-02 -3.572554886341094971e-02 -6.562584545463323593e-03 8.383387699723243713e-03 -2.940202131867408752e-02 -1.760332845151424408e-02 -3.341794386506080627e-02 8.391384035348892212e-03 -7.432678714394569397e-03 -5.230102688074111938e-02 4.957654979079961777e-03 -5.154235661029815674e-02 -2.362525835633277893e-02 6.574240978807210922e-04 -6.579735316336154938e-03 -6.478935480117797852e-03 3.975067287683486938e-03 1.500713732093572617e-02 2.297266013920307159e-02 3.438546881079673767e-02 -2.062574261799454689e-03 1.059122942388057709e-02 -3.128719702363014221e-02 -2.645406872034072876e-02 -9.369949810206890106e-03 9.668508544564247131e-03 1.465789321810007095e-02 2.817152813076972961e-02 -2.876657620072364807e-02 -2.597414888441562653e-02 -9.967753430828452110e-05 -6.079345010221004486e-03 -2.015052549540996552e-02 2.738809213042259216e-02 1.968208327889442444e-02 -1.222739182412624359e-02 2.476863795891404152e-03 2.900359965860843658e-02 7.792845368385314941e-03 2.264373004436492920e-02 4.873283673077821732e-03 4.271731525659561157e-02 6.444803439080715179e-03 2.410973235964775085e-02 -1.928180642426013947e-02 1.380562316626310349e-02 -3.884442150592803955e-02 -2.770487777888774872e-02 -9.254390373826026917e-03 2.874270267784595490e-02 4.953940398991107941e-03 1.631999015808105469e-02 9.222335182130336761e-03 2.418651245534420013e-03 1.135505083948373795e-02 -3.722726553678512573e-02 -2.469703555107116699e-02 1.192595250904560089e-02 -3.680121526122093201e-02 5.611471366137266159e-03 -2.445864677429199219e-02 -2.460765466094017029e-02 -3.035112284123897552e-03 -2.803806215524673462e-03 -1.217280630953609943e-03 -9.290957823395729065e-03 -3.956160042434930801e-03 1.827349327504634857e-02 3.267095983028411865e-02 1.513827126473188400e-02 -7.541019469499588013e-03 -1.502404641360044479e-02 1.694149710237979889e-02 3.206185251474380493e-02 -3.179830312728881836e-02 1.041049044579267502e-02 1.914460957050323486e-02 3.231745446100831032e-03 1.748330332338809967e-02 -2.105954289436340332e-02 -1.099981740117073059e-02 -2.405860833823680878e-02 -3.109097108244895935e-02 -7.185353431850671768e-03 -1.929386146366596222e-02 -4.369896650314331055e-02 1.184686552733182907e-02 2.080494165420532227e-02 -3.740042075514793396e-02 1.341688213869929314e-03 6.087213288992643356e-03 -1.339238230139017105e-02 -2.120966091752052307e-03 9.610122069716453552e-03 2.118122205138206482e-02 -1.674025878310203552e-02 -4.824975971132516861e-03 1.714343554340302944e-03 1.098906248807907104e-02 -5.202366155572235584e-04 -6.223798729479312897e-03 9.646441787481307983e-03 -1.688476279377937317e-02 1.456707832403481007e-04 -6.484214682132005692e-03 7.576234638690948486e-04 -1.036072149872779846e-03 1.852811686694622040e-02 -9.305015206336975098e-03 5.051027610898017883e-02 1.644839998334646225e-03 -5.153874401003122330e-03 -1.170135661959648132e-02 -4.036610946059226990e-03 -5.230198428034782410e-02 -2.743758261203765869e-02 1.053082814905792475e-04 -2.502414025366306305e-02 1.879082433879375458e-02 -2.205440029501914978e-02 -5.344559624791145325e-02 -3.851710644084960222e-04 9.094796259887516499e-04 -5.492140538990497589e-03 1.812378317117691040e-02 -6.911399774253368378e-03 -2.272362634539604187e-02 -4.219558089971542358e-02 -1.425120048224925995e-02 1.925703696906566620e-02 -5.992443300783634186e-03 -3.176279738545417786e-02 1.136187743395566940e-02 2.626594854518771172e-03 9.956625290215015411e-03 -8.336812257766723633e-03 -1.417694333940744400e-02 2.621536888182163239e-02 3.599813207983970642e-04 -3.632962470874190331e-03 3.789020702242851257e-02 2.819510176777839661e-02 2.077120728790760040e-02 -3.039168193936347961e-02 1.902696117758750916e-02 -4.270549863576889038e-02 -4.165432415902614594e-03 -1.637985929846763611e-02 -8.105359156616032124e-04 -1.399971806677058339e-04 -1.372613292187452316e-02 -2.660272642970085144e-02 -2.346681430935859680e-02 -8.853665553033351898e-03 -9.077454917132854462e-03 -1.417760737240314484e-02 1.271901186555624008e-03 1.326506678014993668e-02 1.988377608358860016e-02 1.031877472996711731e-02 1.388381351716816425e-03 -9.752986021339893341e-03 1.985652372241020203e-02 -1.061847712844610214e-02 3.016089275479316711e-02 -2.374635078012943268e-02 -4.013823717832565308e-02 -1.968146068975329399e-03 -2.662934176623821259e-02 3.679343499243259430e-03 1.960030756890773773e-02 -1.116782519966363907e-02 -1.207138597965240479e-02 -1.705267839133739471e-02 2.415119484066963196e-02 -2.874937281012535095e-02 2.328543365001678467e-02 5.140469875186681747e-03 -1.589365676045417786e-02 -2.972999587655067444e-02 -6.886679679155349731e-03 1.049858797341585159e-02 -1.574592478573322296e-02 4.401825717650353909e-04 -2.012360095977783203e-02 4.622516862582415342e-04 3.914647921919822693e-02 3.287696465849876404e-02 -6.757386494427919388e-03 -3.810429712757468224e-03 -8.529784157872200012e-03 2.896344102919101715e-02 -4.734961781650781631e-03 -1.390262972563505173e-02 -5.771618802100419998e-03 -1.104199979454278946e-02 1.881606318056583405e-02 -9.670312516391277313e-03 -1.755580864846706390e-02 2.052826061844825745e-02 9.039745666086673737e-03 6.532769766636192799e-04 5.343253538012504578e-02 -7.919971249066293240e-04 1.822894252836704254e-02 1.561412937007844448e-03 -6.180505733937025070e-03 -1.609324105083942413e-02 -1.103341579437255859e-03 -4.649621434509754181e-03 9.199799969792366028e-03 1.916588470339775085e-02 1.645273715257644653e-02 -2.304445020854473114e-03 4.866553004831075668e-03 4.265097435563802719e-03 -2.902903966605663300e-02 3.223774256184697151e-03 -3.322255332022905350e-03 -7.494975812733173370e-03 5.825865082442760468e-03 -1.429314166307449341e-02 -1.213700603693723679e-02 9.726188145577907562e-03 9.398266673088073730e-03 3.648137301206588745e-02 8.667152374982833862e-03 1.974319573491811752e-03 -1.110080629587173462e-02 -3.041922673583030701e-02 -2.007180079817771912e-02 7.904967293143272400e-03 6.719261873513460159e-04 2.876420272514224052e-03 -5.731796100735664368e-02 -1.371364947408437729e-02 2.480679377913475037e-02 2.161255665123462677e-02 -8.017019368708133698e-03 3.689482808113098145e-02 3.945518401451408863e-04 2.748325653374195099e-02 -1.768460683524608612e-02 6.605487316846847534e-03 -1.545389648526906967e-03 -2.930012531578540802e-02 2.431166917085647583e-02 1.384724024683237076e-02 2.878559753298759460e-02 1.037513837218284607e-02 5.346110556274652481e-03 3.967999666929244995e-02 3.510360047221183777e-02
7.038547098636627197e-02 8.375079371035099030e-03 -3.410221636295318604e-02 4.033546894788742065e-02 1.683317311108112335e-02 -4.554910701699554920e-04 4.549424163997173309e-03 -5.106072500348091125e-02 -1.752076297998428345e-02 1.429626345634460449e-02 -3.643962368369102478e-02 -2.259503118693828583e-02 -4.414129257202148438e-02 -1.576837897300720215e-02 6.333739031106233597e-03 2.952405484393239021e-03 1.820212602615356445e-02 -2.839829027652740479e-02 -1.122057437896728516e-02 -4.460404813289642334e-02 2.187558263540267944e-02 -2.382149919867515564e-02 1.557534374296665192e-02 -1.416662521660327911e-02 1.653573662042617798e-02 8.032932877540588379e-03 -1.326332148164510727e-02 5.234057456254959106e-02 2.490387111902236938e-02 -3.018699400126934052e-02 -3.930736333131790161e-02 3.196258097887039185e-03 1.900965534150600433e-02 4.258986562490463257e-03 3.760422766208648682e-02 2.707401989027857780e-03 -2.956846356391906738e-02 1.431993208825588226e-02 1.300072204321622849e-02 1.142889261245727539e-02 1.744894689181819558e-04 6.564715877175331116e-03 -2.233001217246055603e-02 -1.119206845760345459e-02 -1.265242230147123337e-02 -2.455327846109867096e-02 -2.759435400366783142e-02 1.111367531120777130e-02 7.912889122962951660e-03 2.129865810275077820e-02 -6.315150111913681030e-02 -3.359597548842430115e-02 -2.870865166187286377e-03 7.804682012647390366e-03 -2.469713613390922546e-02 3.180516883730888367e-02 3.622113959863781929e-03 -2.743542660027742386e-03 2.610688656568527222e-02 -1.098109781742095947e-02 -3.152530267834663391e-02 1.962849870324134827e-02 3.228126093745231628e-02 -3.671362251043319702e-02 1.438293233513832092e-02 -2.609973587095737457e-02 1.226936932653188705e-02 -7.961568422615528107e-03 -4.171209782361984253e-02 -1.228424068540334702e-02 1.516088098287582397e-02 6.330458912998437881e-03 3.797146258875727654e-03 -2.230905182659626007e-02 2.243142202496528625e-02 1.158369891345500946e-02 4.576865758281201124e-04 -2.235975675284862518e-02 1.873966678977012634e-02 1.412122510373592377e-02 3.787217894569039345e-03 9.795257356017827988e-04 7.276176009327173233e-03 -1.258191093802452087e-02 -4.393113031983375549e-02 -8.435212075710296631e-03 -5.734387785196304321e-03 -3.129875659942626953e-02 1.883315481245517731e-02 -4.821646586060523987e-02 -5.498957820236682892e-03 -7.541627623140811920e-03 1.320440787822008133e-02 -4.266293544787913561e-04 -1.760483253747224808e-03 -5.456979386508464813e-03 -1.306595094501972198e-02 -2.689054980874061584e-02 3.585664927959442139e-02 -1.590928062796592712e-02 -8.619654923677444458e-03 1.246927771717309952e-02 -7.294909562915563583e-03 -1.290724240243434906e-02 7.831864058971405029e-03 -1.004232093691825867e-02 1.880842074751853943e-02 3.665008395910263062e-02 7.508234586566686630e-03 -2.137380093336105347e-02 -3.257771953940391541e-02 2.134454250335693359e-02 5.057041533291339874e-03 -1.509260665625333786e-02 2.121035213349387050e-04 1.889563165605068207e-02 -2.258601039648056030e-02 -7.884055376052856445e-04 -3.160437196493148804e-02 8.870489895343780518e-03 -3.993469849228858948e-02 -1.539816521108150482e-02 3.422120958566665649e-02 -3.620631620287895203e-02 -1.528991106897592545e-02 -2.556982077658176422e-02 -1.321044005453586578e-02 3.579858690500259399e-02 -2.745002694427967072e-02 1.398857682943344116e-02 4.872964695096015930e-03 -8.593387901782989502e-03 2.915510348975658417e-02 1.260635349899530411e-02 1.254030223935842514e-02 -6.706715794280171394e-04 7.519487757235765457e-03 6.832852214574813843e-02 -9.231307543814182281e-03 2.855905890464782715e-02 -5.876880604773759842e-03 -1.947176642715930939e-02 -1.745718717575073242e-02 2.648059837520122528e-02 1.564924418926239014e-02 9.046733379364013672e-03 3.322009230032563210e-03 -5.796897411346435547e-02 -1.623810082674026489e-02 2.145801857113838196e-02 -3.452688828110694885e-02 2.800439018756151199e-03 -2.426772564649581909e-02 -3.402665629982948303e-02 1.979532884433865547e-03 -1.650144346058368683e-02 -1.772495917975902557e-02 2.418877370655536652e-02 -6.630932912230491638e-03 3.943607211112976074e-03 2.723064972087740898e-03 4.120216518640518188e-02 8.092943578958511353e-03 -1.695504598319530487e-02 1.182368397712707520e-02 -1.175036747008562088e-02 -9.698723442852497101e-03 -1.571245305240154266e-02 1.448896806687116623e-02 -4.543463140726089478e-02 4.594183992594480515e-03 3.361037746071815491e-02 -1.629660651087760925e-02 5.237196106463670731e-03 2.314791269600391388e-02 2.412583865225315094e-02 -1.653357967734336853e-02 -7.334938854910433292e-04 3.965997137129306793e-03 -2.734528295695781708e-02 -5.202443525195121765e-02 4.155337344855070114e-03 -7.137542590498924255e-03 -2.141390228644013405e-03 -1.463807839900255203e-02 2.355845645070075989e-02 7.013343740254640579e-03 3.701115027070045471e-02 6.815696600824594498e-03 -7.711381767876446247e-04 6.380650680512189865e-03 -1.159065775573253632e-02 6.171926856040954590e-02 2.492498978972434998e-02 1.491612847894430161e-02 -3.298392519354820251e-02 2.604113705456256866e-02 -1.841908320784568787e-03 -1.738834008574485779e-02 -1.103023067116737366e-02 -1.473094522953033447e-02 1.635565981268882751e-02 -2.263507619500160217e-02 2.425679564476013184e-02 2.882045693695545197e-03 -1.246051397174596786e-03 3.084993548691272736e-02 -1.729972101747989655e-02 1.770453527569770813e-02 1.982010155916213989e-02 5.382005474530160427e-04 -3.405793011188507080e-02 -3.182705864310264587e-02 3.009186312556266785e-02 4.326383583247661591e-03 -3.571007400751113892e-02 9.686253033578395844e-03 -6.420767400413751602e-03 6.488178041763603687e-04 -3.300938010215759277e-02 -7.617850787937641144e-03 -1.578945852816104889e-02 2.311438508331775665e-02 2.719119365792721510e-04 -6.392164505086839199e-04 3.951866179704666138e-02 3.800372034311294556e-02 -3.363239765167236328e-02 -6.575640756636857986e-03 -2.326937764883041382e-02 -3.986331447958946228e-02 -2.358347550034523010e-02 -6.028335075825452805e-03 -5.200717598199844360e-02 2.388898096978664398e-02 3.453712537884712219e-02 1.580358133651316166e-03 5.699362140148878098e-03 -2.009676583111286163e-02 1.419957820326089859e-02 3.252149745821952820e-02 -3.932105842977762222e-03 -1.184909604489803314e-02 -3.778969496488571167e-02 1.577220857143402100e-02 1.334855426102876663e-02 -4.107024986296892166e-03 -3.701618115883320570e-04 7.466775830835103989e-03 -1.880488917231559753e-02 -6.153640337288379669e-03 -2.312985621392726898e-02 4.274740815162658691e-02 -1.779578998684883118e-02 3.037540242075920105e-02 8.837063796818256378e-03 -1.665126299485564232e-03 -8.304064162075519562e-03 -3.651298210024833679e-02 6.494306772947311401e-02 -7.068307138979434967e-03 2.143291756510734558e-02 -2.729734033346176147e-02 -1.421807799488306046e-02 2.305329591035842896e-02 1.466483925469219685e-03 -6.143693346530199051e-03 1.393895782530307770e-02 -2.969142235815525055e-02 1.707888953387737274e-02 2.089197747409343719e-02 2.576333470642566681e-03 5.899848416447639465e-03 -8.183748461306095123e-03 -5.707311630249023438e-02 1.668648794293403625e-02 3.215821459889411926e-02 3.829349996522068977e-03 -2.555442228913307190e-02 -4.643392562866210938e-02 2.802861109375953674e-02 2.873664023354649544e-03 5.078719556331634521e-02 2.864684350788593292e-02 1.420802995562553406e-02 4.906047601252794266e-03 -1.598907634615898132e-03 7.314792834222316742e-03 -2.384560182690620422e-02 1.776271150447428226e-03 -1.704468391835689545e-02 1.554728113114833832e-02 -3.028307482600212097e-02 2.098935469985008240e-02 6.718292715959250927e-04 -1.414328627288341522e-02 -2.807896956801414490e-02 -4.208560567349195480e-03 1.638882048428058624e-02 8.042742498219013214e-03 -2.010994032025337219e-02 6.121104117482900620e-03 -2.364059910178184509e-03 2.908480167388916016e-02 3.343723714351654053e-02 1.735280267894268036e-02 -8.641337975859642029e-03 -4.009336605668067932e-02 2.859042212367057800e-02 2.830082364380359650e-02 -2.403832599520683289e-02 1.156733022071421146e-03 1.700405590236186981e-02 -2.742312103509902954e-02 1.420814823359251022e-02 1.644408330321311951e-02 -1.533543132245540619e-02 -2.757837530225515366e-03 -4.374366719275712967e-03 -4.804781451821327209e-02 -1.462059211917221546e-03 1.859556883573532104e-02 1.139467302709817886e-02 -1.322439592331647873e-02 -6.007475778460502625e-02 3.039182536303997040e-02 2.293869666755199432e-02 -4.472539148991927505e-05 -5.637650191783905029e-02 -9.751987643539905548e-03 3.562057763338088989e-02 1.417538803070783615e-02 1.116274390369653702e-02 1.130072772502899170e-02 -2.163513563573360443e-02 1.043644361197948456e-02 -7.742108777165412903e-03 -1.617640256881713867e-02 -2.209277637302875519e-02 -3.676437586545944214e-02 -2.172370441257953644e-03 5.631960928440093994e-03 -2.593711391091346741e-02 -1.677420176565647125e-02 -1.431231945753097534e-02 -1.347461342811584473e-02 2.287785755470395088e-03 2.452833577990531921e-02 2.118062786757946014e-02 1.151779573410749435e-02 -3.203563764691352844e-02 -3.144636983051896095e-03 -2.295977063477039337e-02 -1.641181297600269318e-02 -1.607922464609146118e-02 6.300284992903470993e-03 -1.102548185735940933e-02 2.004659734666347504e-02 1.545607764273881912e-02 4.581746645271778107e-03 4.105747863650321960e-02 2.172481454908847809e-02 -2.700695954263210297e-02 2.107049524784088135e-02 6.455418653786182404e-03 -5.511803086847066879e-03 6.612486205995082855e-03 8.271678350865840912e-03 1.023244950920343399e-02 -2.464541420340538025e-02 2.273392491042613983e-02 3.898126259446144104e-02 -2.497306279838085175e-02 -3.907748684287071228e-02 -2.902239002287387848e-02 2.492756210267543793e-02 -3.490578383207321167e-02 1.024743728339672089e-02 8.134664967656135559e-03 3.098097629845142365e-02 1.788045652210712433e-02 -1.748127280734479427e-03 -1.261527836322784424e-02 1.689983904361724854e-02 1.692796498537063599e-02 -2.295453473925590515e-02 -2.057529799640178680e-02 5.853892769664525986e-03 5.307887680828571320e-03 -3.402684349566698074e-03 1.592672243714332581e-02 -2.477553673088550568e-03 -4.685604944825172424e-03 -2.286894060671329498e-02 -2.866761496989056468e-05 -1.816056668758392334e-02 -2.262388356029987335e-02 -1.356869470328092575e-02 -1.177757792174816132e-02 -8.832978084683418274e-03 -1.633836887776851654e-02 5.250717513263225555e-04 -2.344254776835441589e-02 -4.579634591937065125e-02 1.016480149701237679e-03 -3.233416005969047546e-02 2.265738695859909058e-02 4.088957235217094421e-02 -9.741080924868583679e-03 5.086925253272056580e-02 -8.373993448913097382e-03 -2.460857480764389038e-02 2.291665878146886826e-03 -6.128210574388504028e-03 1.748873502947390079e-03 1.443579886108636856e-02 1.785531640052795410e-02 -2.133599109947681427e-02 -7.852363400161266327e-03 -2.766841463744640350e-02 1.964305993169546127e-03 -1.443076506257057190e-02 -2.569123357534408569e-02 -7.580872159451246262e-03 -1.842224597930908203e-02 -3.136574057862162590e-03 1.497479621320962906e-02 -1.822355017066001892e-02 1.020837668329477310e-02 3.184457309544086456e-03 2.080167457461357117e-02 -2.273519523441791534e-02 2.231589332222938538e-02 3.205582499504089355e-02 5.132928024977445602e-03 1.634931005537509918e-02 1.118442416191101074e-02 -1.886625104816630483e-04 6.781643722206354141e-03 -2.815613523125648499e-02 -7.821302860975265503e-03 2.028297074139118195e-02 1.895574480295181274e-02 4.236375447362661362e-03 -3.746984899044036865e-02 -2.196470089256763458e-02 6.562613882124423981e-03 5.458702798932790756e-03 -1.561969984322786331e-03 2.427693642675876617e-02 -1.470817532390356064e-02 3.593311645090579987e-03 2.213521674275398254e-02 -1.165621727705001831e-02 3.254530206322669983e-02 4.354692250490188599e-02 4.951152019202709198e-03 -1.164300367236137390e-02 1.826599426567554474e-02 4.162685200572013855e-02 3.027044236660003662e-02 -2.914706803858280182e-02 2.350004762411117554e-02 -3.383629769086837769e-02 -4.221158847212791443e-02 1.508782617747783661e-02 -2.723266184329986572e-02 -8.361812680959701538e-03 2.057123463600873947e-03 -6.480235140770673752e-03 -3.690520301461219788e-02 -4.360957443714141846e-02 -2.769378758966922760e-02 8.437591604888439178e-03 2.079538814723491669e-02 -2.611771412193775177e-02 -3.110779635608196259e-02 2.685947716236114502e-02 -2.196917682886123657e-02 2.977093867957592010e-02 3.483192063868045807e-03 1.944796298630535603e-03 2.068598382174968719e-02 -2.442352287471294403e-02 -2.452790737152099609e-02 2.662004716694355011e-02 1.308625470846891403e-02 5.577293690294027328e-03 -3.107615001499652863e-02 -7.223364897072315216e-03 -1.472171489149332047e-02 -3.504367917776107788e-02 2.676754072308540344e-02 3.451933152973651886e-03 1.412974763661623001e-02 -2.163734473288059235e-02 -1.992970937862992287e-03 -3.753872960805892944e-02 4.727610200643539429e-02 -6.263692048378288746e-04 3.811609931290149689e-03 -2.958631841465830803e-03 -3.454580530524253845e-02 2.273532561957836151e-02 1.544531434774398804e-02 -3.945563733577728271e-02 -5.700892210006713867e-02 1.128258532844483852e-03 -3.077558428049087524e-02 9.513253346085548401e-03 1.688270643353462219e-02 -2.841858752071857452e-02
-9.521099738776683807e-03 -1.351280603557825089e-03 -4.412695998325943947e-04 -6.853315513581037521e-03 1.090525183826684952e-02 7.173191290348768234e-03 -3.592755645513534546e-02 2.816763473674654961e-03 -2.547359094023704529e-02 2.098364941775798798e-02 -1.239628472831100225e-04 4.449292272329330444e-02 -2.566407434642314911e-02 -2.931938879191875458e-02 3.147412464022636414e-02 1.088260672986507416e-02 7.639856543391942978e-03 2.138179494068026543e-03 1.538376975804567337e-02 2.636220073327422142e-03 -1.150540076196193695e-02 2.700740657746791840e-02 3.402285277843475342e-03 -4.443691112101078033e-03 2.724877186119556427e-02 -1.426828838884830475e-02 -5.097853019833564758e-02 -3.230134397745132446e-02 -2.216942794620990753e-02 2.159860543906688690e-02 -2.907833643257617950e-02 -1.438953354954719543e-02 1.856677606701850891e-02 7.905108854174613953e-03 1.963820122182369232e-02 8.869772776961326599e-03 -1.085579488426446915e-02 3.532149270176887512e-02 1.128597464412450790e-02 4.551428928971290588e-02 -2.808602340519428253e-02 -9.655878879129886627e-03 8.066266775131225586e-03 8.987632580101490021e-03 3.367914259433746338e-02 -1.474655000492930412e-03 2.690258203074336052e-03 1.553248334676027298e-02 -3.989244997501373291e-02 -4.791647661477327347e-03 2.140475623309612274e-02 5.998025089502334595e-02 4.007113631814718246e-03 -1.529899146407842636e-02 3.586100414395332336e-03 -2.160644717514514923e-02 -9.190973825752735138e-03 -1.051740814000368118e-02 -3.955770656466484070e-02 2.998416684567928314e-02 -1.318103633821010590e-02 7.865684106945991516e-03 -9.970203973352909088e-03 9.013449773192405701e-03 -5.096114240586757660e-03 -6.131114065647125244e-02 -2.307588874828070402e-04 2.176105044782161713e-02 5.352545063942670822e-03 7.675644941627979279e-03 3.041284158825874329e-03 -5.176758021116256714e-02 2.903638966381549835e-02 9.395980159752070904e-04 -1.651510596275329590e-02 -1.645007543265819550e-02 -2.446007728576660156e-02 -1.200232002884149551e-02 1.077034603804349899e-02 7.841238752007484436e-03 1.702332124114036560e-02 1.915689371526241302e-02 1.840474084019660950e-02 1.868295483291149139e-02 2.750235423445701599e-02 -1.065099379047751427e-03 2.267560921609401703e-03 9.712723083794116974e-03 7.483797147870063782e-03 6.335559766739606857e-03 1.323448843322694302e-03 2.852927334606647491e-02 -2.045713923871517181e-02 -7.690244354307651520e-03 2.805035375058650970e-02 -4.322852939367294312e-02 -8.209656807594001293e-04 -1.613294333219528198e-02 -3.185481531545519829e-03 -1.100963912904262543e-03 -8.112092502415180206e-03 2.625703625380992889e-02 4.246553778648376465e-02 4.168865270912647247e-03 -2.362591028213500977e-02 3.127237036824226379e-02 -2.161376364529132843e-02 -2.445335313677787781e-02 -8.050468750298023224e-03 -5.004876852035522461e-02 4.826854169368743896e-02 1.293656788766384125e-02 -1.141521614044904709e-03 1.242830883711576462e-02 2.850937657058238983e-02 9.330520406365394592e-03 2.478117868304252625e-02 -2.999650873243808746e-02 -1.284474623389542103e-03 -1.204207353293895721e-02 2.580819651484489441e-02 -1.446538255549967289e-03 -3.455262631177902222e-02 1.919695362448692322e-02 -1.382732670754194260e-02 -8.931889198720455170e-03 -9.214064106345176697e-03 3.719460219144821167e-03 3.945628181099891663e-03 -2.055131364613771439e-03 -2.872522920370101929e-02 -5.155075341463088989e-03 -5.141212604939937592e-03 -1.193031761795282364e-02 1.639392226934432983e-02 3.854529932141304016e-03 5.627471208572387695e-02 9.383722208440303802e-03 -1.117167179472744465e-03 1.661329343914985657e-02 2.584778517484664917e-02 -1.733626239001750946e-02 -8.680225000716745853e-04 -2.691175043582916260e-02 2.340149134397506714e-02 -2.967919688671827316e-03 -2.532600797712802887e-02 1.567586511373519897e-02 -1.039468497037887573e-02 2.427209168672561646e-02 4.352064058184623718e-02 1.942759938538074493e-02 1.050112023949623108e-02 1.481780782341957092e-02 2.641267701983451843e-02 -2.191306836903095245e-02 -1.322825998067855835e-02 -4.150332137942314148e-02 -6.750717759132385254e-02 3.081484884023666382e-02 5.590300075709819794e-03 3.150344267487525940e-02 7.211159914731979370e-03 1.984177529811859131e-02 -1.299729105085134506e-02 -2.140107564628124237e-02 -1.399657782167196274e-02 5.044679273851215839e-04 2.708411403000354767e-02 1.713304035365581512e-02 1.573806628584861755e-02 -1.698116073384881020e-03 -1.895683631300926208e-02 -5.541942548006772995e-03 1.289988867938518524e-02 2.683056890964508057e-02 7.538624107837677002e-03 -1.901227049529552460e-02 -2.442977949976921082e-02 9.383148513734340668e-03 2.502615563571453094e-02 -2.300691604614257812e-02 4.483192414045333862e-02 1.021802797913551331e-02 -2.552785165607929230e-02 -3.600887581706047058e-02 -4.045204259455204010e-03 2.362154889851808548e-03 -1.009534858167171478e-02 -4.810755699872970581e-02 -5.266946274787187576e-03 -1.264308695681393147e-03 -5.965641699731349945e-03 1.325803925283253193e-03 -4.595182836055755615e-03 -1.138406898826360703e-02 1.091959420591592789e-02 -2.417616546154022217e-02 -2.963867411017417908e-02 2.130136080086231232e-02 -1.008567493408918381e-02 -2.281976677477359772e-02 1.029902510344982147e-02 2.035356871783733368e-02 -1.882501132786273956e-02 -1.181277167052030563e-02 -2.596421632915735245e-03 1.424567960202693939e-02 -1.824859343469142914e-02 -2.071673050522804260e-02 1.348874717950820923e-02 4.104055464267730713e-03 5.424265563488006592e-02 -2.078509517014026642e-02 7.903289981186389923e-03 -1.273827278055250645e-03 -3.381603583693504333e-02 3.564116358757019043e-02 -4.637094587087631226e-02 1.194077916443347931e-02 1.133008487522602081e-02 -1.231564301997423172e-02 2.470058947801589966e-02 4.648512229323387146e-02 6.560510396957397461e-02 -1.136963814496994019e-02 1.769832149147987366e-02 -1.557127945125102997e-02 5.735061131417751312e-03 1.349047571420669556e-02 -6.191118620336055756e-03 -2.474771626293659210e-02 -1.246284041553735733e-02 1.758144050836563110e-02 -8.045395836234092712e-03 -1.359676662832498550e-02 1.060260925441980362e-02 3.954374697059392929e-03 4.085525404661893845e-03 -1.799729652702808380e-02 2.128852903842926025e-02 -3.285164758563041687e-02 1.988075487315654755e-02 3.443074226379394531e-02 2.235768176615238190e-02 1.662773825228214264e-02 -1.147395651787519455e-02 5.859874561429023743e-02 -1.060935854911804199e-02 1.765983179211616516e-03 -4.655921086668968201e-02 -1.855106092989444733e-02 -2.247599698603153229e-02 -3.512828797101974487e-02 -1.711250282824039459e-02 5.836364347487688065e-03 1.077936682850122452e-02 1.383589580655097961e-03 -5.040362011641263962e-03 1.788843050599098206e-02 1.214388012886047363e-02 -3.628745675086975098e-02 -2.476005582138895988e-03 8.935920894145965576e-03 2.463786490261554718e-02 2.622914873063564301e-02 2.173601463437080383e-02 -1.348423305898904800e-02 3.164513409137725830e-02 -1.866423059254884720e-03 -1.522593852132558823e-02 -2.966721914708614349e-02 8.006427437067031860e-03 -9.823699481785297394e-03 -2.376611717045307159e-02 1.343762129545211792e-02 -7.106347475200891495e-04 1.646969001740217209e-03 -3.222788800485432148e-04 2.642402611672878265e-02 -3.619888564571738243e-03 -3.637193888425827026e-02 -2.935483120381832123e-02 -2.297434769570827484e-02 7.131787948310375214e-03 9.019550052471458912e-04 9.965777397155761719e-03 6.783305667340755463e-03 1.451557781547307968e-02 6.809472106397151947e-03 4.414807260036468506e-02 -8.665780536830425262e-03 -1.282616984099149704e-02 -4.588291049003601074e-03 -2.275995165109634399e-02 1.557628042064607143e-03 -8.794024586677551270e-03 -2.404325082898139954e-02 6.773733912268653512e-05 -2.093296032398939133e-03 1.427983492612838745e-02 -7.050888147205114365e-03 1.415558625012636185e-02 -1.870447583496570587e-02 3.740926040336489677e-03 1.875323802232742310e-02 1.669800467789173126e-02 -2.847754396498203278e-02 1.056573633104562759e-02 3.362896293401718140e-02 -6.163865327835083008e-04 -4.653372615575790405e-02 -8.435719646513462067e-03 -1.202093530446290970e-02 4.081102088093757629e-02 1.059335749596357346e-02 -4.158333875238895416e-03 1.009953394532203674e-02 4.330653697252273560e-02 2.039862237870693207e-02 3.058874420821666718e-02 1.993096806108951569e-02 2.760334685444831848e-02 -6.849430501461029053e-03 2.003945410251617432e-02 2.274201065301895142e-02 -2.265884168446063995e-02 1.400571782141923904e-02 -2.016524970531463623e-02 -1.129391975700855255e-02 -2.549226582050323486e-02 -4.020482301712036133e-02 -3.251937404274940491e-02 5.229752976447343826e-03 -4.039561375975608826e-03 -2.925015054643154144e-02 1.512302272021770477e-02 -2.252481877803802490e-03 1.081801019608974457e-02 6.530102342367172241e-03 7.377831207122653723e-05 3.598714992403984070e-02 3.347133845090866089e-02 2.299344539642333984e-02 -2.761352621018886566e-02 -2.307863906025886536e-02 1.046076044440269470e-02 -2.123950794339179993e-02 1.071875635534524918e-02 3.251554816961288452e-02 -7.729010190814733505e-03 4.218570142984390259e-02 -1.870161481201648712e-02 3.166772797703742981e-02 -7.939687371253967285e-02 2.747057005763053894e-03 5.311280488967895508e-03 2.006279071792960167e-03 1.812199130654335022e-02 -4.349956288933753967e-02 7.342359982430934906e-03 -6.287451833486557007e-03 1.383325643837451935e-02 -2.228212356567382812e-02 2.960877865552902222e-02 -1.328168809413909912e-02 -4.213952925056219101e-03 8.891283534467220306e-03 1.274203509092330933e-02 1.872465014457702637e-02 -2.532446384429931641e-02 2.967458777129650116e-02 -2.060378715395927429e-02 2.287107147276401520e-02 3.286277176812291145e-03 -3.222865983843803406e-02 3.423170652240514755e-03 4.176013171672821045e-02 -1.749909855425357819e-02 2.710326202213764191e-02 2.233962342143058777e-02 1.904259435832500458e-02 8.520507253706455231e-03 -2.788562513887882233e-02 -2.826234698295593262e-02 -2.222242951393127441e-02 8.913205936551094055e-03 3.422736749053001404e-02 2.988668717443943024e-02 -4.917895793914794922e-02 5.228090099990367889e-03 -1.960118114948272705e-02 -2.670721895992755890e-02 -2.450877055525779724e-02 -3.182988613843917847e-02 -8.451759815216064453e-03 -5.523941013962030411e-03 -2.633170783519744873e-02 -2.315997146070003510e-02 8.122394792735576630e-04 -2.426478452980518341e-02 2.725476026535034180e-02 9.353850968182086945e-03 -2.256560511887073517e-02 3.289422392845153809e-02 2.223198674619197845e-02 1.159683708101511002e-02 3.581779077649116516e-02 -2.269267104566097260e-02 1.163864135742187500e-02 -6.413182243704795837e-03 2.124044112861156464e-02 -2.347727678716182709e-02 -1.652253046631813049e-02 6.505420431494712830e-03 -1.733638346195220947e-02 2.395843528211116791e-02 2.240746654570102692e-02 5.437044054269790649e-02 -3.675599396228790283e-02 -3.654798027127981186e-03 1.648126356303691864e-02 -6.089511443860828876e-04 4.788594320416450500e-02 -1.291688811033964157e-02 4.128686618059873581e-03 3.058274835348129272e-02 3.831988945603370667e-02 2.029793523252010345e-02 4.370816051959991455e-02 1.160613168030977249e-02 -2.522352151572704315e-02 -2.020047232508659363e-02 -4.002278205007314682e-03 1.807455904781818390e-02 1.433781441301107407e-02 -1.241482049226760864e-02 -3.448373638093471527e-03 1.736126095056533813e-02 -2.484062453731894493e-03 -4.100444167852401733e-02 -4.093396477401256561e-03 1.720581948757171631e-02 2.752025239169597626e-02 -2.803635597229003906e-02 1.122990250587463379e-02 -2.148037031292915344e-02 -4.939507227391004562e-03 -7.827034220099449158e-03 1.823729462921619415e-02 2.195845730602741241e-02 4.062069579958915710e-03 -2.822086587548255920e-02 -1.874436810612678528e-02 -1.011329051107168198e-02 -4.027407616376876831e-03 3.071069717407226562e-03 1.260294392704963684e-02 -1.380385737866163254e-02 -1.557504571974277496e-02 -1.743076555430889130e-02 3.093682415783405304e-02 1.439491170458495617e-03 3.272741660475730896e-02 -5.369062535464763641e-03 -1.799932448193430901e-03 1.021785661578178406e-02 -2.558098174631595612e-02 -4.658025689423084259e-03 -1.973572932183742523e-02 -4.774760920554399490e-03 -1.578581519424915314e-02 -2.686187438666820526e-02 2.928526885807514191e-02 -6.133052520453929901e-03 -1.022252440452575684e-02 -7.819099701009690762e-04 1.280017569661140442e-02 -2.652991563081741333e-03 2.304432913661003113e-02 -3.426714614033699036e-02 1.175573095679283142e-02 2.624575421214103699e-02 3.278338164091110229e-02 -4.489390924572944641e-02 5.914477165788412094e-03 2.210539579391479492e-02 -2.859037136659026146e-03 1.589843071997165680e-02 -7.507631555199623108e-03 -1.617565006017684937e-02 -1.911184564232826233e-02 2.329271472990512848e-02 -2.862086147069931030e-02 -1.187386456876993179e-02 1.699019595980644226e-02 -2.392716938629746437e-03 -1.972055295482277870e-03 2.673675771802663803e-03 -2.468467503786087036e-02 -1.366792013868689537e-03 2.268793992698192596e-03 3.700894489884376526e-02 3.745863959193229675e-02 -1.883948780596256256e-02 1.742078363895416260e-02 -6.642819382250308990e-03 -5.032460391521453857e-02 2.837951108813285828e-02 -5.047816317528486252e-03 -2.898756414651870728e-02 -3.524666652083396912e-03
