2.087501995265483856e-02 4.248557612299919128e-02 4.917377140372991562e-03 -1.368377543985843658e-02 -1.735546253621578217e-02 -2.158873341977596283e-02 6.082854419946670532e-02 -4.147760942578315735e-02 -3.601366281509399414e-02 -5.177746992558240891e-03 4.348106309771537781e-02 8.895130828022956848e-03 1.683546812273561954e-03 3.523672744631767273e-02 1.124122063629329205e-03 -1.541086100041866302e-02 -2.642013505101203918e-02 1.635975018143653870e-02 -1.032607816159725189e-02 -1.725800102576613426e-03 -1.688629947602748871e-02 1.702993176877498627e-02 -4.196417517960071564e-03 -2.007007598876953125e-03 1.293237507343292236e-02 -1.842151209712028503e-02 1.965843327343463898e-02 -6.450566928833723068e-03 4.281491565052419901e-04 2.607498876750469208e-02 8.966302499175071716e-03 3.819153830409049988e-02 -1.110190991312265396e-02 -1.537522766739130020e-02 9.209346026182174683e-03 1.271693315356969833e-02 -1.257324963808059692e-02 1.889306120574474335e-02 -2.360080555081367493e-02 -1.223122328519821167e-02 -8.924294263124465942e-03 -4.381202597869560122e-05 -2.043388225138187408e-02 1.824822090566158295e-02 2.512961998581886292e-02 -3.385648876428604126e-02 1.591079682111740112e-02 1.414936687797307968e-02 4.037464037537574768e-02 -2.957267314195632935e-02 -8.980171754956245422e-03 -3.149205073714256287e-02 -2.083875611424446106e-02 -9.504936635494232178e-03 -1.252428162842988968e-02 -1.167737785726785660e-02 -3.199952468276023865e-02 -2.524014189839363098e-02 -1.307896524667739868e-02 9.246022091247141361e-04 -2.695970050990581512e-02 3.744833171367645264e-02 1.257808879017829895e-02 4.772739950567483902e-03 -7.304012775421142578e-03 -4.103512316942214966e-02 1.538721099495887756e-02 7.937672547996044159e-03 4.706060048192739487e-03 -1.730180718004703522e-02 -3.090438665822148323e-03 4.463483113795518875e-03 -1.654379535466432571e-03 -6.203054264187812805e-02 -8.483513258397579193e-03 -3.120945207774639130e-02 3.974222054239362478e-04 2.607316337525844574e-02 -1.463706977665424347e-02 -5.474850907921791077e-02 8.318581967614591122e-04 -3.770849108695983887e-02 -8.996796794235706329e-03 -3.623101860284805298e-02 -3.133028745651245117e-02 -1.776418648660182953e-02 -1.212571933865547180e-02 -7.931120693683624268e-03 -6.070785690099000931e-03 4.027372226119041443e-02 -6.684895604848861694e-03 -3.609651327133178711e-02 -1.609009318053722382e-02 1.109688915312290192e-02 5.706149619072675705e-03 6.703539751470088959e-03 1.952915568836033344e-03 1.464581489562988281e-02 1.799515262246131897e-02 -1.073373667895793915e-02 -2.601270005106925964e-02 9.139169007539749146e-03 -7.359615992754697800e-03 -3.179276129230856895e-03 -2.197957783937454224e-02 2.815917879343032837e-02 1.161997579038143158e-02 -2.820759546011686325e-03 -2.067761309444904327e-02 -1.854741200804710388e-02 -1.970774121582508087e-02 -2.522874437272548676e-02 -3.346860781311988831e-02 2.208990976214408875e-03 -5.220992118120193481e-02 4.028833657503128052e-02 -2.457987889647483826e-02 1.475757360458374023e-02 3.199283266440033913e-03 -1.427676994353532791e-02 -2.963359840214252472e-02 -1.794660463929176331e-02 -1.282552257180213928e-02 -2.036825055256485939e-03 -5.186471156775951385e-03 -3.538196533918380737e-02 1.421096641570329666e-02 -1.602659747004508972e-02
1.879509421996772289e-03 2.806474827229976654e-02 1.699157617986202240e-02 -8.691134862601757050e-03 -1.717710308730602264e-02 -1.735526137053966522e-02 8.971978910267353058e-03 -2.619193866848945618e-02 -2.665980719029903412e-02 -2.360482141375541687e-02 8.281047921627759933e-04 3.790881019085645676e-03 7.788628805428743362e-03 1.199332624673843384e-02 -1.394194364547729492e-02 3.083693096414208412e-03 1.094217132776975632e-02 2.019851841032505035e-02 1.226233039051294327e-02 1.098379772156476974e-02 1.989755313843488693e-03 -1.289380993694067001e-02 4.491816088557243347e-02 -1.092235557734966278e-02 1.204020809382200241e-02 -1.255000382661819458e-02 1.008648052811622620e-02 -6.322676781564950943e-03 1.585131138563156128e-02 3.629876673221588135e-02 2.523812279105186462e-02 1.532017346471548080e-02 -1.771472394466400146e-02 -4.028703086078166962e-03 6.418589036911725998e-03 1.100691966712474823e-02 1.623146608471870422e-02 1.893501356244087219e-02 3.219560161232948303e-02 2.023621276021003723e-02 1.310192793607711792e-02 2.435146085917949677e-02 3.567345847841352224e-04 -4.368775337934494019e-02 -6.147938314825296402e-03 5.632388871163129807e-03 -2.269498445093631744e-02 -2.653163671493530273e-02 1.516964053735136986e-03 1.464931573718786240e-02 -2.163968421518802643e-02 1.532891020178794861e-02 1.568545773625373840e-02 1.129490695893764496e-02 -1.964815706014633179e-02 -1.700784452259540558e-02 4.357344470918178558e-03 1.360584143549203873e-02 -5.839348305016756058e-03 1.675279811024665833e-02 -8.077418315224349499e-04 -2.059872448444366455e-02 -4.625617992132902145e-03 4.285199940204620361e-02 8.419262245297431946e-03 -2.854539081454277039e-03 2.225931733846664429e-03 -1.311240438371896744e-02 -1.755822263658046722e-02 -8.540559560060501099e-03 3.229848295450210571e-02 5.179797299206256866e-03 3.842816129326820374e-02 -4.472251515835523605e-03 2.619295753538608551e-02 6.422349810600280762e-02 -1.339656114578247070e-02 9.393814019858837128e-03 2.361619379371404648e-03 -4.377063829451799393e-03 -1.915662176907062531e-02 2.814820222556591034e-02 3.311057016253471375e-02 -1.479315664619207382e-02 1.762280240654945374e-02 1.769459620118141174e-02 1.989140361547470093e-02 -1.750969886779785156e-02 3.905636817216873169e-02 -8.714740164577960968e-03 1.442917622625827789e-03 1.865251548588275909e-02 1.612673327326774597e-02 -3.039847686886787415e-02 -6.513269152492284775e-03 1.686201244592666626e-02 -5.457071121782064438e-03 -1.454298850148916245e-02 3.238594532012939453e-02 1.910374872386455536e-02 -1.066086068749427795e-02 -1.459126640111207962e-02 2.021217159926891327e-02 5.262790713459253311e-03 -1.077275816351175308e-02 6.759086973033845425e-04 -4.922137036919593811e-02 -2.308697998523712158e-02 -2.376095578074455261e-02 -2.012070734053850174e-03 2.680629305541515350e-02 5.411237850785255432e-02 1.871811971068382263e-02 -1.160729117691516876e-02 3.114845603704452515e-03 3.396231308579444885e-02 -2.682511880993843079e-02 -1.050542108714580536e-03 -4.189183935523033142e-02 -4.867431416641920805e-04 8.003053953871130943e-04 -6.050293333828449249e-03 8.825487457215785980e-03 -1.674736663699150085e-02 9.779326617717742920e-03 6.704621762037277222e-02 2.477439865469932556e-02 7.496905978769063950e-03
-4.350343719124794006e-03 -8.363310247659683228e-03 1.071978732943534851e-02 1.903433166444301605e-02 -2.811364084482192993e-02 -4.435152746737003326e-03 -4.205986857414245605e-02 -2.505382522940635681e-02 3.155371919274330139e-02 -7.741477340459823608e-03 1.997442357242107391e-02 2.240630239248275757e-02 5.328535288572311401e-02 -2.783592790365219116e-02 3.265748545527458191e-02 2.523059770464897156e-02 -4.675465170294046402e-03 -1.231212355196475983e-02 -1.765048503875732422e-02 1.236762292683124542e-02 -1.435578148812055588e-02 8.918415755033493042e-03 2.037326805293560028e-02 -1.269618701189756393e-02 -1.486842148005962372e-02 5.593366455286741257e-03 2.394737675786018372e-02 -2.360084280371665955e-02 -2.609479986131191254e-02 -2.962545491755008698e-02 8.597328327596187592e-03 -1.631935313344001770e-02 2.504651434719562531e-02 -1.379674486815929413e-02 -3.481264784932136536e-02 3.522645309567451477e-02 1.407537981867790222e-02 2.567409910261631012e-02 2.534089609980583191e-02 -6.959259510040283203e-03 1.601686584763228893e-03 1.485447958111763000e-02 -2.053024247288703918e-02 2.310730516910552979e-03 2.573923952877521515e-02 -2.604708261787891388e-02 -3.654614463448524475e-02 -3.278354182839393616e-02 -1.390290213748812675e-03 -4.011160694062709808e-03 2.780934982001781464e-02 4.207013640552759171e-03 -3.367833793163299561e-02 -1.898268423974514008e-02 -1.783745712600648403e-03 1.773303747177124023e-02 1.693457551300525665e-02 -3.245490044355392456e-02 -1.646855089347809553e-04 -2.252611704170703888e-02 -3.816563636064529419e-02 -3.383024036884307861e-02 -2.030694298446178436e-02 -9.380883537232875824e-03 -1.644690521061420441e-02 5.308244843035936356e-03 -3.580833598971366882e-02 1.512842252850532532e-02 -1.164739206433296204e-02 -1.343179680407047272e-02 3.635389264672994614e-03 -4.994843155145645142e-03 -2.359765395522117615e-02 2.633022144436836243e-02 4.730438347905874252e-03 -6.311322562396526337e-03 5.864367820322513580e-03 -2.482261974364519119e-03 -4.001240711659193039e-03 1.967142889043316245e-04 2.320093475282192230e-02 -1.048040948808193207e-02 -6.646228488534688950e-03 6.002747919410467148e-03 -2.521838434040546417e-02 3.751314431428909302e-02 7.372574764303863049e-04 -2.367118187248706818e-02 -2.135231532156467438e-02 4.904519766569137573e-02 1.292410027235746384e-02 1.509592402726411819e-02 -2.633249200880527496e-02 -9.589859284460544586e-03 -8.997524157166481018e-03 -2.233232557773590088e-02 4.801984876394271851e-02 4.335908684879541397e-03 -3.983318060636520386e-02 -2.217334695160388947e-02 -3.922896925359964371e-03 -4.792884923517704010e-03 -6.810099352151155472e-03 -1.288073044270277023e-02 5.765551468357443810e-04 3.903023665770888329e-03 -8.394625037908554077e-03 -3.114470094442367554e-02 2.374466694891452789e-02 -3.806918626651167870e-03 2.882203459739685059e-02 -3.882990684360265732e-03 2.591580618172883987e-03 5.319511517882347107e-03 2.358219213783740997e-02 -4.943947866559028625e-02 2.041001431643962860e-02 -3.534382581710815430e-02 1.067988388240337372e-02 -2.739224396646022797e-02 -1.834783144295215607e-02 -5.773276556283235550e-03 -5.385684780776500702e-03 2.468811580911278725e-03 -1.458770502358675003e-02 2.028121799230575562e-02 -1.318234857171773911e-02 -1.061534415930509567e-02
2.693003229796886444e-02 1.429362315684556961e-02 -4.095446318387985229e-02 -3.927718847990036011e-02 -3.578342497348785400e-03 1.856319024227559566e-03 1.865934021770954132e-02 -7.090096827596426010e-03 -1.684595830738544464e-02 4.586870223283767700e-02 -3.344488516449928284e-02 -1.669796369969844818e-02 -1.808321103453636169e-02 -8.919626474380493164e-03 1.321040932089090347e-02 -5.286177154630422592e-03 -3.914570435881614685e-03 2.421806193888187408e-02 5.431104451417922974e-03 -3.893492370843887329e-02 1.712257973849773407e-02 5.421161279082298279e-02 1.865449920296669006e-02 4.089686647057533264e-02 8.656987920403480530e-03 1.920371875166893005e-02 6.795983016490936279e-02 1.726986095309257507e-02 6.702503189444541931e-03 -1.518285926431417465e-02 -1.017328235320746899e-03 2.543536573648452759e-02 -4.595333710312843323e-02 2.610956132411956787e-02 6.691987160593271255e-03 -2.081006765365600586e-02 1.007507555186748505e-02 1.086475979536771774e-02 2.436213195323944092e-03 -3.250504285097122192e-02 2.046366455033421516e-03 -1.231951452791690826e-02 -1.133360317908227444e-03 -5.011986568570137024e-02 -3.864567726850509644e-02 -1.060373894870281219e-02 -1.186983194202184677e-02 -1.859785243868827820e-02 5.667873192578554153e-03 4.585890565067529678e-03 3.254829905927181244e-03 -3.787115681916475296e-03 -1.619297079741954803e-02 3.199211508035659790e-02 3.176605561748147011e-03 1.179543603211641312e-02 -7.468587718904018402e-04 -2.249462343752384186e-02 3.525770967826247215e-03 -1.096061058342456818e-02 -6.465111859142780304e-03 2.431216649711132050e-02 -3.507002815604209900e-02 -6.601539440453052521e-03 -3.778000175952911377e-02 2.936599031090736389e-02 -8.630418218672275543e-03 -3.596973139792680740e-03 1.386818243190646172e-03 4.792368784546852112e-02 2.586829848587512970e-02 -9.854727424681186676e-03 1.811393909156322479e-02 -2.050998248159885406e-02 -6.297908723354339600e-02 -3.558943048119544983e-02 1.951846852898597717e-02 9.024753235280513763e-03 -9.113485924899578094e-03 1.942685432732105255e-02 5.538691580295562744e-02 1.569150947034358978e-02 -3.559477627277374268e-03 2.217153459787368774e-02 -3.513453155755996704e-02 1.613352634012699127e-02 1.914666593074798584e-02 -3.242743387818336487e-02 -3.889205865561962128e-03 -7.369629107415676117e-03 1.741401938488706946e-04 1.384851057082414627e-02 3.201254177838563919e-03 1.197659131139516830e-02 1.431240234524011612e-03 -1.768611138686537743e-03 1.663920469582080841e-03 1.020775598590262234e-04 7.265561260282993317e-03 -1.202970743179321289e-02 -7.853446528315544128e-03 -2.243947982788085938e-02 -9.381272830069065094e-03 -1.988059282302856445e-02 -1.098559889942407608e-02 6.090228445827960968e-03 -1.999459601938724518e-02 9.351031854748725891e-03 -1.047048717737197876e-02 2.636654861271381378e-02 2.846539719030261040e-03 1.771911606192588806e-02 1.032449398189783096e-02 -2.694238722324371338e-02 -6.038058199919760227e-04 3.953400882892310619e-04 -2.442429028451442719e-02 -1.534573547542095184e-02 -1.342983450740575790e-02 -3.136816248297691345e-02 4.449502564966678619e-03 -4.395779222249984741e-02 -1.578835945110768080e-04 -2.392107062041759491e-02 -3.874898329377174377e-02 7.734858896583318710e-03 4.498326685279607773e-03 2.175108157098293304e-02
-1.158733852207660675e-02 -5.507736932486295700e-03 -1.635266095399856567e-02 -2.881245873868465424e-02 3.005325049161911011e-02 4.608547315001487732e-03 -1.407679263502359390e-02 -8.542064577341079712e-03 1.119879633188247681e-02 -5.485161021351814270e-02 2.360583096742630005e-02 9.516104124486446381e-03 1.356568885967135429e-03 2.437542937695980072e-02 -3.439975157380104065e-02 -1.710924506187438965e-02 -4.487968981266021729e-02 1.739729940891265869e-02 1.032549515366554260e-02 -4.128211364150047302e-02 -4.782258067280054092e-03 2.443594485521316528e-02 -2.547649107873439789e-02 2.475996501743793488e-02 -2.749049849808216095e-02 1.343115139752626419e-02 -2.289679646492004395e-02 4.316766932606697083e-02 -2.103711105883121490e-02 8.117325603961944580e-03 1.777414116077125072e-03 -1.153903547674417496e-02 -6.244679912924766541e-02 2.068272791802883148e-02 -1.204488333314657211e-02 1.567774079740047455e-02 1.332543045282363892e-02 3.385917516425251961e-03 3.149991109967231750e-02 2.339548245072364807e-02 -3.054983727633953094e-02 -3.523854538798332214e-02 2.712121233344078064e-02 2.406315132975578308e-02 -1.074012182652950287e-02 -2.173669636249542236e-02 -1.996943727135658264e-03 -1.241642795503139496e-02 3.396147489547729492e-02 2.240084484219551086e-02 8.398969657719135284e-03 4.196671769022941589e-02 -1.873982511460781097e-02 -4.112488590180873871e-03 5.543920211493968964e-03 -9.996065869927406311e-03 -1.573009975254535675e-02 2.953577041625976562e-02 -3.992340341210365295e-02 -9.318573400378227234e-03 -1.930048689246177673e-02 -1.567202806472778320e-02 -4.788284003734588623e-02 -3.284380584955215454e-02 -4.358745738863945007e-02 -2.703232318162918091e-02 2.136571146547794342e-02 -3.338113194331526756e-03 6.203985307365655899e-03 2.729647979140281677e-02 3.790231794118881226e-02 -4.821527004241943359e-02 3.053173795342445374e-02 2.446747943758964539e-02 2.807649224996566772e-02 1.575304009020328522e-02 -1.089748274534940720e-02 1.286236941814422607e-02 3.190778195858001709e-03 9.622666053473949432e-03 1.735845464281737804e-03 -1.880257390439510345e-02 -3.224729001522064209e-02 2.434390969574451447e-02 1.098087616264820099e-02 2.378103323280811310e-03 -2.460629306733608246e-02 -3.899822710081934929e-03 -4.105931613594293594e-03 -4.112951830029487610e-02 -2.001937478780746460e-02 1.548661850392818451e-02 1.746159605681896210e-02 -3.710219264030456543e-02 -1.408525183796882629e-02 2.811938337981700897e-02 -2.177617698907852173e-02 3.913395851850509644e-02 3.016703948378562927e-02 -7.970293983817100525e-03 -3.102612681686878204e-02 1.239163335412740707e-02 4.491486027836799622e-02 3.704095026478171349e-03 8.619872853159904480e-03 1.664307154715061188e-02 8.764771744608879089e-03 -1.519630569964647293e-02 6.717528682202100754e-03 1.371874380856752396e-02 3.560234978795051575e-02 -3.337362408638000488e-02 3.216879442334175110e-02 9.934541769325733185e-03 -1.365223899483680725e-02 -4.460379481315612793e-03 2.745787147432565689e-03 -3.637763857841491699e-02 1.571487635374069214e-02 -2.329210191965103149e-02 -3.123696148395538330e-02 -1.405631285160779953e-02 2.793537452816963196e-02 -1.304562389850616455e-02 4.409288987517356873e-03 1.889816299080848694e-02 1.404941314831376076e-03 1.941895484924316406e-02
-1.627368293702602386e-02 -4.330269992351531982e-03 9.888584725558757782e-03 2.099428325891494751e-02 1.910956762731075287e-02 9.638844057917594910e-03 8.037505671381950378e-03 -1.675612293183803558e-02 -2.156216092407703400e-02 -1.300527248531579971e-02 1.088137179613113403e-02 -1.942535303533077240e-02 -8.457968011498451233e-03 1.235501375049352646e-03 -7.064566481858491898e-03 -3.014232963323593140e-02 -2.255826629698276520e-02 -2.173778228461742401e-02 -7.006815867498517036e-04 -4.087278153747320175e-03 -1.072015240788459778e-02 1.021584868431091309e-02 -4.670236259698867798e-02 -7.396779488772153854e-03 -9.897380135953426361e-03 -4.151410982012748718e-02 3.665047883987426758e-02 -2.119202254107221961e-04 -3.467591106891632080e-02 -1.928105019032955170e-02 -9.346361272037029266e-03 1.976863853633403778e-02 -8.685163338668644428e-04 1.538724452257156372e-02 -5.834392737597227097e-03 1.874236762523651123e-02 5.402947426773607731e-04 -2.089517936110496521e-02 1.038456708192825317e-02 1.353982556611299515e-02 4.379717167466878891e-03 2.810883149504661560e-02 -1.709212921559810638e-02 -5.556032527238130569e-03 -1.013561710715293884e-02 3.179671242833137512e-02 -5.544165149331092834e-03 6.963909137994050980e-03 1.723665371537208557e-02 -2.964402781799435616e-03 -1.855414919555187225e-02 2.143201231956481934e-02 -3.469401970505714417e-02 1.176364812999963760e-02 1.029677037149667740e-02 -2.166201593354344368e-03 5.641455575823783875e-02 -2.337369695305824280e-02 -5.639121518470346928e-04 -2.707131672650575638e-03 -4.071221873164176941e-02 -1.354814227670431137e-02 1.034780434565618634e-04 1.701906323432922363e-02 -2.666223980486392975e-02 4.206488654017448425e-02 2.250396274030208588e-02 -1.256812363862991333e-02 4.878264293074607849e-02 -8.273798972368240356e-03 1.647190749645233154e-02 1.277129538357257843e-02 9.275914169847965240e-03 -6.261136382818222046e-03 -1.625444274395704269e-03 -1.537856459617614746e-02 7.971955463290214539e-03 2.166250906884670258e-02 -1.925852894783020020e-02 7.891867309808731079e-03 3.512028977274894714e-02 -8.434425399173051119e-05 -6.446932908147573471e-03 -2.551410719752311707e-02 3.277590125799179077e-02 -2.945906249806284904e-03 1.728463359177112579e-02 2.059863880276679993e-02 1.095922384411096573e-02 -1.490243058651685715e-02 -2.399019151926040649e-02 -2.324792370200157166e-02 -1.027471572160720825e-02 -2.125146100297570229e-03 -2.759242057800292969e-02 3.546496108174324036e-02 -7.041526958346366882e-03 -8.518373593688011169e-03 1.240155100822448730e-02 -1.748744212090969086e-02 2.080435864627361298e-03 2.141094580292701721e-02 1.809697784483432770e-02 -1.134009449742734432e-03 -3.089581057429313660e-02 2.403293550014495850e-02 -4.239774867892265320e-02 2.483069151639938354e-02 -2.634267322719097137e-02 5.157095845788717270e-03 5.560619756579399109e-03 3.729735268279910088e-03 -1.187339611351490021e-02 4.272408783435821533e-02 7.417522836476564407e-03 2.852128352969884872e-03 -1.893663592636585236e-02 2.826010342687368393e-03 -1.749954186379909515e-02 1.912439242005348206e-02 -9.821113198995590210e-03 -3.614145889878273010e-02 5.114607140421867371e-02 -1.649638265371322632e-02 -1.371048204600811005e-02 -5.548464134335517883e-03 5.020022857934236526e-03 2.148560434579849243e-02
1.153342332690954208e-02 -3.765566647052764893e-02 8.567300625145435333e-03 1.748876646161079407e-02 2.100469172000885010e-02 2.443039231002330780e-02 -9.599486365914344788e-03 -1.820424012839794159e-02 -9.062998928129673004e-03 -9.333458729088306427e-03 3.586067631840705872e-02 7.536765187978744507e-03 -4.206572193652391434e-03 2.290104515850543976e-02 -3.260090574622154236e-02 -1.212130300700664520e-02 -1.499737706035375595e-02 2.534125931560993195e-02 -1.849500089883804321e-02 -2.027608081698417664e-02 9.862227365374565125e-03 -2.313560433685779572e-02 -4.039752297103404999e-03 5.507669877260923386e-03 1.420535054057836533e-02 1.328871585428714752e-02 6.993464194238185883e-04 -4.146955907344818115e-02 8.791941218078136444e-04 3.200165694579482079e-03 2.067408896982669830e-02 2.805826626718044281e-02 -5.165511742234230042e-03 -3.880110755562782288e-02 5.961751565337181091e-03 -2.634611213579773903e-03 -6.878875661641359329e-03 -4.869675729423761368e-03 1.110590528696775436e-03 2.158070169389247894e-02 -2.205982245504856110e-02 -5.281515419483184814e-03 -2.340734750032424927e-02 2.940998040139675140e-02 -2.811455912888050079e-02 1.193964481353759766e-02 9.129677899181842804e-03 -1.653960160911083221e-02 -3.072918858379125595e-03 -2.643371745944023132e-02 7.390999700874090195e-03 1.288427412509918213e-02 -1.834121649153530598e-04 -8.831401355564594269e-03 -1.272689737379550934e-02 -4.872766882181167603e-02 3.091142885386943817e-02 -1.514703873544931412e-02 2.211127243936061859e-02 1.646599383093416691e-03 7.939632050693035126e-04 -7.313362322747707367e-03 1.392936334013938904e-02 -5.820947699248790741e-03 2.458499930799007416e-02 -1.414508791640400887e-03 3.508634865283966064e-02 -1.354956626892089844e-02 1.221239473670721054e-02 -1.705957576632499695e-02 -1.135285664349794388e-02 2.020132355391979218e-02 -1.071188412606716156e-02 4.080437868833541870e-02 4.964650142937898636e-03 -2.076091710478067398e-03 4.204693064093589783e-02 9.333277121186256409e-03 -2.753861248493194580e-03 -1.571393199265003204e-02 -6.224832311272621155e-02 -2.084827795624732971e-02 9.879875928163528442e-03 -8.101441897451877594e-03 1.964476890861988068e-02 -9.143396280705928802e-03 4.202180728316307068e-02 -4.698818176984786987e-02 3.775288118049502373e-03 5.821251496672630310e-02 -2.662583440542221069e-02 4.674014449119567871e-02 5.627582781016826630e-03 -1.108758244663476944e-02 -1.707692816853523254e-02 2.421301417052745819e-02 1.463237777352333069e-02 -4.821977019309997559e-02 1.206697430461645126e-02 -3.700471296906471252e-02 -9.993642568588256836e-03 -1.469917595386505127e-02 -2.082262421026825905e-03 8.087650639936327934e-04 5.912452470511198044e-03 -1.407235953956842422e-02 -2.643915824592113495e-02 -1.377705484628677368e-02 -8.943240158259868622e-03 -3.431233018636703491e-02 9.069881401956081390e-03 2.525126002728939056e-02 1.000611297786235809e-02 4.176905006170272827e-02 -2.211004868149757385e-02 -3.153954073786735535e-02 -1.828931039199233055e-03 1.171271316707134247e-02 -1.400157622992992401e-02 2.377748675644397736e-02 -1.924160867929458618e-02 1.676276698708534241e-02 4.040333442389965057e-03 1.451316289603710175e-02 -2.626884169876575470e-02 2.023962151724845171e-04 3.587122634053230286e-02 2.439054660499095917e-02
3.162275999784469604e-02 1.195385958999395370e-02 -6.394771044142544270e-04 4.538700915873050690e-03 -1.912451162934303284e-02 -2.322503551840782166e-02 2.310121804475784302e-02 3.569213300943374634e-02 -2.578045241534709930e-02 -5.027769133448600769e-02 -2.179209701716899872e-02 2.108920738101005554e-02 -9.300637058913707733e-03 -6.077958270907402039e-03 -5.044820159673690796e-02 -2.271268144249916077e-02 1.343513373285531998e-02 1.710713142529129982e-03 2.482618670910596848e-03 -2.530694939196109772e-02 -1.489734090864658356e-02 -5.282738059759140015e-02 -6.759877502918243408e-02 1.618054695427417755e-02 4.562431015074253082e-03 -1.139611922553740442e-04 9.740093722939491272e-03 2.098038233816623688e-02 2.806719206273555756e-02 6.736822426319122314e-03 -9.833720512688159943e-03 8.747754618525505066e-03 -3.643159754574298859e-03 -2.980965934693813324e-02 -3.464268893003463745e-02 2.986740320920944214e-03 -2.765823341906070709e-02 -4.218495264649391174e-02 4.401868954300880432e-02 -1.632364839315414429e-02 3.638587426394224167e-03 -7.259487174451351166e-03 -3.842659667134284973e-02 1.699773781001567841e-02 1.580853760242462158e-02 5.593914911150932312e-02 -1.149682141840457916e-02 4.449924081563949585e-02 -2.237099222838878632e-02 1.441403757780790329e-03 -6.315149366855621338e-03 4.411539435386657715e-02 -2.836038917303085327e-02 -9.388213977217674255e-03 8.212002925574779510e-03 -3.112571779638528824e-03 -3.771659731864929199e-02 -1.011004205793142319e-02 2.551664039492607117e-02 1.098981243558228016e-03 5.659016221761703491e-02 2.125264331698417664e-02 -1.834365539252758026e-02 1.240301784127950668e-02 -2.592084743082523346e-02 -1.862364634871482849e-02 2.995396219193935394e-02 -1.353985816240310669e-02 3.786491230130195618e-02 -1.337518170475959778e-02 1.164125278592109680e-02 4.435764160007238388e-03 -1.690634898841381073e-02 2.076984615996479988e-03 7.895067334175109863e-03 7.881567813456058502e-03 4.324601963162422180e-02 8.411260321736335754e-03 2.250923961400985718e-02 -3.492962568998336792e-02 -1.994662918150424957e-02 -2.029805071651935577e-02 2.769989520311355591e-02 -2.633127197623252869e-02 2.855502255260944366e-02 2.891982346773147583e-02 -1.899502053856849670e-02 4.555844888091087341e-02 -2.337923645973205566e-02 5.840446334332227707e-03 -4.003290086984634399e-02 1.594948209822177887e-02 1.271761138923466206e-03 2.472055517137050629e-02 2.044035308063030243e-02 -2.859005518257617950e-02 3.778658062219619751e-02 -4.108163341879844666e-02 -1.010154280811548233e-02 -9.504274465143680573e-03 2.974889241158962250e-02 7.109832018613815308e-03 -2.597999991849064827e-04 5.273476708680391312e-03 -3.695845976471900940e-02 -8.000415749847888947e-03 3.115661814808845520e-02 -2.709606196731328964e-03 3.361975774168968201e-02 -3.590228036046028137e-02 -3.508588299155235291e-02 4.851946607232093811e-02 5.455321818590164185e-02 -1.066437363624572754e-02 -1.702085137367248535e-02 3.213213384151458740e-02 1.424587517976760864e-02 -1.392566692084074020e-02 1.891739107668399811e-02 -9.112881496548652649e-03 3.369167074561119080e-02 1.386587135493755341e-02 -8.173419162631034851e-03 -1.412509474903345108e-02 2.327479422092437744e-02 8.780678035691380501e-04 1.394065935164690018e-02 3.492732718586921692e-02
