3.854922577738761902e-02 5.886939913034439087e-02 -1.351504493504762650e-02 -3.091845661401748657e-03 -2.134855277836322784e-02 -1.448209118098020554e-02 8.086995780467987061e-02 -5.621878802776336670e-02 -4.471572861075401306e-02 1.127514988183975220e-02 4.765904322266578674e-02 -1.744032138958573341e-03 -7.144880946725606918e-03 3.882269561290740967e-02 1.065089134499430656e-03 -3.000405849888920784e-03 -3.459313139319419861e-02 2.654041536152362823e-02 -2.205705270171165466e-02 9.355446323752403259e-03 -2.865455113351345062e-03 3.898055478930473328e-02 -2.362380037084221840e-03 8.992093615233898163e-03 1.737622730433940887e-02 -2.944003045558929443e-02 2.547756535932421684e-03 -1.695517823100090027e-02 5.497737787663936615e-03 1.803852804005146027e-02 2.942497096955776215e-02 4.578810185194015503e-02 -6.281236186623573303e-03 -2.951101958751678467e-02 2.595882490277290344e-02 2.282634377479553223e-02 -1.834921166300773621e-02 3.024095855653285980e-02 -3.489096835255622864e-02 -2.846356108784675598e-02 -2.180632576346397400e-02 -3.694859566166996956e-03 -2.932741120457649231e-02 3.304987773299217224e-02 3.336778283119201660e-02 -4.110461100935935974e-02 2.381123974919319153e-02 1.512245088815689087e-02 4.969317466020584106e-02 -4.494914412498474121e-02 -6.223214324563741684e-03 -4.852333292365074158e-02 -1.219256501644849777e-02 3.289276035502552986e-03 -2.681728638708591461e-02 -3.256222233176231384e-02 -4.315712302923202515e-02 -3.916693478822708130e-02 -1.355530694127082825e-02 8.010208606719970703e-03 -1.532347872853279114e-02 4.174530878663063049e-02 2.582187391817569733e-02 -7.801039144396781921e-03 -2.510595880448818207e-02 -2.888840995728969574e-02 1.698396541178226471e-02 -2.407496096566319466e-03 9.779096581041812897e-03 -1.871257461607456207e-02 -1.079506427049636841e-02 1.711993478238582611e-02 4.177393857389688492e-04 -7.297638058662414551e-02 8.516886737197637558e-05 -4.055097326636314392e-02 -1.953435502946376801e-02 5.058309063315391541e-02 -1.400349289178848267e-02 -5.504313111305236816e-02 -1.542800199240446091e-02 -2.012655511498451233e-02 3.255428746342658997e-04 -5.621256679296493530e-02 -4.169577732682228088e-02 -3.629660233855247498e-02 -7.831860333681106567e-03 2.730248030275106430e-03 1.542963320389389992e-03 5.339454859495162964e-02 7.442364934831857681e-03 -4.504403471946716309e-02 -1.942938007414340973e-02 2.551058121025562286e-02 1.034250669181346893e-02 2.458594925701618195e-02 -8.604579605162143707e-03 1.267817616462707520e-02 2.344771847128868103e-02 -2.074445970356464386e-02 -2.943550236523151398e-02 -4.713514354079961777e-04 -1.470821676775813103e-03 1.374758407473564148e-02 -2.804235927760601044e-02 4.078150540590286255e-02 3.207876533269882202e-02 1.093381270766258240e-02 -2.035290934145450592e-02 -1.511658262461423874e-02 -3.939318284392356873e-02 -3.825322911143302917e-02 -4.180499911308288574e-02 1.408396288752555847e-02 -5.969990417361259460e-02 5.184089392423629761e-02 -3.267736732959747314e-02 2.453588694334030151e-02 9.308934211730957031e-03 -2.690131217241287231e-02 -3.597015514969825745e-02 -1.390161179006099701e-02 -1.728449389338493347e-02 -1.075038686394691467e-02 3.627232741564512253e-03 -5.882252752780914307e-02 1.950033940374851227e-02 -3.299888595938682556e-02
4.267630167305469513e-03 3.834286332130432129e-02 2.958983927965164185e-02 -5.934161599725484848e-03 -2.062941156327724457e-02 -2.868608571588993073e-02 -1.640131347812712193e-03 -2.605713531374931335e-02 -3.305972740054130554e-02 -2.437031455338001251e-02 2.512186067178845406e-03 5.198241211473941803e-03 9.695099666714668274e-03 5.561845377087593079e-03 -1.488128677010536194e-02 5.218471400439739227e-03 1.704441383481025696e-02 9.021813981235027313e-03 1.803940534591674805e-02 6.420374847948551178e-03 -6.636414909735321999e-04 -1.431308779865503311e-02 5.574796721339225769e-02 -1.769192144274711609e-02 1.982738636434078217e-02 -1.205295138061046600e-02 1.194748934358358383e-02 -7.717997301369905472e-03 1.372557599097490311e-02 3.313120827078819275e-02 2.253347821533679962e-02 6.488258484750986099e-03 -1.844384521245956421e-02 1.130378060042858124e-02 4.637476522475481033e-03 6.976406555622816086e-03 2.021437138319015503e-02 1.387291681021451950e-02 2.992696873843669891e-02 2.898746542632579803e-02 1.823787577450275421e-02 3.303547576069831848e-02 2.811640501022338867e-03 -5.657831206917762756e-02 -8.807533420622348785e-03 9.996395558118820190e-03 -3.028216212987899780e-02 -2.733659744262695312e-02 -4.298052517697215080e-04 1.584985479712486267e-02 -2.018078789114952087e-02 7.333908230066299438e-03 2.829813770949840546e-02 1.669945754110813141e-02 -1.347025111317634583e-02 -2.186875231564044952e-02 5.696021486073732376e-03 2.135528251528739929e-02 -1.203919993713498116e-03 1.278526149690151215e-02 -3.995695617049932480e-03 -2.967617101967334747e-02 -3.715437604114413261e-03 5.829774588346481323e-02 1.852912083268165588e-02 -2.046891255304217339e-03 -1.278064120560884476e-02 -1.879432052373886108e-02 -2.875305525958538055e-02 -1.349554583430290222e-02 2.959793806076049805e-02 -2.566372975707054138e-03 4.528437927365303040e-02 -2.372469753026962280e-03 3.338094428181648254e-02 7.985913008451461792e-02 -1.534028630703687668e-02 6.874328944832086563e-03 -4.682221449911594391e-03 9.452120284549891949e-04 -1.486183516681194305e-02 2.556752786040306091e-02 3.628268837928771973e-02 -8.543491363525390625e-03 2.679023891687393188e-02 2.126200683414936066e-02 3.330743312835693359e-02 -2.734590694308280945e-02 4.133551195263862610e-02 -1.451670657843351364e-02 5.803300882689654827e-04 2.048001624643802643e-02 1.393445394933223724e-02 -3.360339626669883728e-02 -7.519768085330724716e-03 3.217040561139583588e-03 2.151438966393470764e-04 -1.133033540099859238e-02 3.824853524565696716e-02 1.768328435719013214e-02 -1.375699788331985474e-02 -1.266517862677574158e-02 2.693881653249263763e-02 5.254891235381364822e-03 -7.641704753041267395e-03 -8.402708335779607296e-04 -6.264709681272506714e-02 -3.298524394631385803e-02 -2.738956548273563385e-02 1.586769474670290947e-03 2.570521272718906403e-02 6.762016564607620239e-02 1.996016316115856171e-02 -2.525130100548267365e-02 6.988197565078735352e-03 3.086756356060504913e-02 -2.409258857369422913e-02 -6.225278601050376892e-03 -5.659363791346549988e-02 -1.125218579545617104e-03 2.010186435654759407e-03 -5.837678443640470505e-03 1.065170392394065857e-02 -1.147262752056121826e-02 2.480095485225319862e-03 8.233602344989776611e-02 1.751470193266868591e-02 5.632901098579168320e-03
-2.689685206860303879e-03 -9.028627537190914154e-03 2.167453058063983917e-02 1.443150267004966736e-02 -3.587139770388603210e-02 4.987228196114301682e-03 -4.112254455685615540e-02 -3.052094765007495880e-02 2.970673516392707825e-02 -1.192856114357709885e-02 2.382124774158000946e-02 2.883216738700866699e-02 5.388027057051658630e-02 -1.994525082409381866e-02 2.853239513933658600e-02 1.943383738398551941e-02 -5.819040816277265549e-03 -7.434546016156673431e-03 -2.015700750052928925e-02 1.261159963905811310e-02 -1.822759024798870087e-02 2.987900283187627792e-03 1.388737559318542480e-02 -8.654266595840454102e-03 -1.354982703924179077e-02 5.750964395701885223e-03 2.584363520145416260e-02 -1.913075335323810577e-02 -1.811666041612625122e-02 -2.726657688617706299e-02 7.106978911906480789e-03 -9.063469246029853821e-03 2.715596184134483337e-02 -1.444707717746496201e-02 -3.679881617426872253e-02 3.823118284344673157e-02 1.562089845538139343e-02 2.583487518131732941e-02 1.712925545871257782e-02 -6.888989824801683426e-03 8.668121881783008575e-03 1.110829133540391922e-02 -2.398910932242870331e-02 -7.400789763778448105e-03 3.124885261058807373e-02 -3.189755231142044067e-02 -3.465807065367698669e-02 -3.656617179512977600e-02 7.443874143064022064e-03 -1.343188248574733734e-02 1.621064171195030212e-02 -3.982044290751218796e-03 -3.414063528180122375e-02 -2.308418415486812592e-02 -6.639060098677873611e-03 2.423838339745998383e-02 1.877412758767604828e-02 -3.268303722143173218e-02 -1.095389295369386673e-02 -1.165372785180807114e-02 -3.599391877651214600e-02 -2.831502631306648254e-02 -1.598900929093360901e-02 -9.721343405544757843e-03 -1.518411934375762939e-02 -9.096651920117437840e-04 -2.223133295774459839e-02 1.446605380624532700e-02 1.623708172701299191e-03 -1.344817597419023514e-02 8.749529719352722168e-03 -4.813016566913574934e-04 -2.517900243401527405e-02 1.624207757413387299e-02 8.257424458861351013e-03 -3.651599632576107979e-03 3.439095336943864822e-03 -3.159183543175458908e-03 -5.748714320361614227e-03 5.019949749112129211e-03 2.796938642859458923e-02 -1.330842636525630951e-02 -1.369355153292417526e-02 4.057276062667369843e-03 -2.842128649353981018e-02 3.807415813207626343e-02 -1.255831681191921234e-03 -1.480550691485404968e-02 -2.129086107015609741e-02 5.927331745624542236e-02 7.980125956237316132e-03 1.995550282299518585e-02 -3.532361611723899841e-02 -1.411209162324666977e-02 -1.604534685611724854e-02 -9.100494906306266785e-03 4.533094912767410278e-02 -2.497579669579863548e-03 -3.318420425057411194e-02 -1.442083436995744705e-02 -1.223195064812898636e-02 -3.943393938243389130e-03 -8.557856082916259766e-03 -1.495534926652908325e-02 -8.823025040328502655e-03 9.049070067703723907e-03 -1.098810695111751556e-02 -2.262956649065017700e-02 1.885871030390262604e-02 -4.615744110196828842e-03 2.551846206188201904e-02 -1.162014622241258621e-02 -6.980855017900466919e-03 1.056800503283739090e-02 3.133697807788848877e-02 -4.110335558652877808e-02 1.327761635184288025e-02 -3.522749617695808411e-02 1.802086643874645233e-02 -3.072459995746612549e-02 -2.412862144410610199e-02 -6.884791888296604156e-03 -7.706605363637208939e-03 -3.413888858631253242e-03 -1.445799041539430618e-02 1.818398945033550262e-02 -5.154133774340152740e-03 -7.660536095499992371e-03
2.677720412611961365e-02 1.071654632687568665e-02 -4.507851228117942810e-02 -4.337067529559135437e-02 4.423090722411870956e-03 9.600023739039897919e-03 1.482827216386795044e-02 -2.320953644812107086e-04 -1.836890727281570435e-02 5.110026523470878601e-02 -4.873113334178924561e-02 -2.783525921404361725e-02 -2.083584852516651154e-02 -1.035580318421125412e-02 2.576907537877559662e-02 -7.843188941478729248e-03 -5.790126975625753403e-03 1.608415320515632629e-02 3.777014091610908508e-03 -3.878606855869293213e-02 3.024855442345142365e-02 5.630603432655334473e-02 3.227231651544570923e-02 4.135479778051376343e-02 1.506617479026317596e-02 2.779482863843441010e-02 8.221565186977386475e-02 1.821438036859035492e-02 1.118433894589543343e-03 -1.886785775423049927e-02 -4.190114792436361313e-03 2.488791756331920624e-02 -4.656723514199256897e-02 3.923833742737770081e-02 4.038668237626552582e-03 -2.605264633893966675e-02 1.293582469224929810e-02 1.202735118567943573e-02 6.888183299452066422e-03 -4.208346828818321228e-02 1.627168152481317520e-03 -2.472937572747468948e-03 6.357569713145494461e-03 -5.550971999764442444e-02 -4.296974092721939087e-02 -5.765649490058422089e-03 -1.500221714377403259e-02 -2.704371884465217590e-02 -7.593648508191108704e-03 -3.311914042569696903e-04 3.520411555655300617e-04 -2.797486027702689171e-03 -1.500885002315044403e-02 3.536351397633552551e-02 -3.768843133002519608e-03 1.626312918961048126e-02 2.787261269986629486e-03 -2.671071328222751617e-02 7.447923999279737473e-03 -1.702638156712055206e-02 -5.766712594777345657e-03 2.928979881107807159e-02 -3.390138223767280579e-02 -9.839503094553947449e-03 -4.184365272521972656e-02 3.752720355987548828e-02 -8.479489013552665710e-03 3.884330624714493752e-03 6.256664637476205826e-04 5.817106366157531738e-02 3.048545308411121368e-02 -7.652008440345525742e-03 7.677358575165271759e-03 -1.888245157897472382e-02 -7.113617658615112305e-02 -3.452975302934646606e-02 2.315796166658401489e-02 -1.953413244336843491e-03 -1.946563832461833954e-02 2.813498303294181824e-02 6.714430451393127441e-02 1.761673577129840851e-02 -4.968041088432073593e-03 3.373292461037635803e-02 -3.402164578437805176e-02 1.796383224427700043e-02 1.667923666536808014e-02 -3.406922519207000732e-02 -4.067085683345794678e-03 -2.331333002075552940e-03 4.340969957411289215e-03 1.524329651147127151e-02 2.866144059225916862e-03 1.140315458178520203e-02 3.468801733106374741e-03 -1.564691541716456413e-03 2.076807199046015739e-03 2.046430949121713638e-03 4.239144735038280487e-03 -2.120110392570495605e-02 -9.988979436457157135e-03 -2.594931796193122864e-02 -2.126342430710792542e-02 -3.278337791562080383e-02 -1.411116123199462891e-02 1.210787217132747173e-03 -2.792462147772312164e-02 2.682692371308803558e-03 -1.009973511099815369e-02 3.518165647983551025e-02 9.133251383900642395e-03 2.352670207619667053e-02 1.414801739156246185e-02 -4.041503742337226868e-02 -5.366672994568943977e-04 1.049187127500772476e-02 -2.044781111180782318e-02 -1.356928143650293350e-02 -2.067949436604976654e-02 -3.365090489387512207e-02 1.510981004685163498e-02 -5.390839651226997375e-02 2.132990863174200058e-03 -2.520288713276386261e-02 -5.150355398654937744e-02 1.698417961597442627e-02 -6.557025015354156494e-03 2.836809679865837097e-02
-1.877800002694129944e-02 -9.005828760564327240e-03 -1.782471872866153717e-02 -3.328833356499671936e-02 3.511647507548332214e-02 -1.139949541538953781e-03 -1.906345970928668976e-02 -6.192348431795835495e-03 2.192678861320018768e-02 -5.473750084638595581e-02 2.745691873133182526e-02 1.413700543344020844e-02 7.160519249737262726e-03 2.772392332553863525e-02 -3.673304617404937744e-02 -1.364535931497812271e-02 -3.916772827506065369e-02 2.325507625937461853e-02 1.109964866191148758e-02 -5.307407677173614502e-02 -9.006834588944911957e-03 3.019806183874607086e-02 -2.273856662213802338e-02 2.810000628232955933e-02 -4.262444376945495605e-02 1.574139669537544250e-02 -3.138858452439308167e-02 5.820031091570854187e-02 -3.232520446181297302e-02 2.551847319409716874e-05 -7.866138592362403870e-03 -2.257236652076244354e-02 -8.009050786495208740e-02 1.749734394252300262e-02 -1.250560861080884933e-02 2.279378287494182587e-02 1.769322715699672699e-02 2.004121895879507065e-03 4.172183945775032043e-02 3.881150856614112854e-02 -4.014643281698226929e-02 -4.252485930919647217e-02 4.179254919290542603e-02 2.643907442688941956e-02 -1.346470415592193604e-02 -2.851897105574607849e-02 -7.932160049676895142e-03 -3.578935191035270691e-02 3.053238615393638611e-02 3.506518155336380005e-02 2.336834371089935303e-02 5.846997350454330444e-02 -2.755051665008068085e-02 -9.510503150522708893e-03 1.388305518776178360e-02 -1.251833140850067139e-02 -1.868212968111038208e-02 4.221324622631072998e-02 -5.158850550651550293e-02 -1.659764535725116730e-02 -3.288900852203369141e-02 -2.955263108015060425e-02 -6.167672574520111084e-02 -3.199088200926780701e-02 -4.699932038784027100e-02 -2.982428111135959625e-02 1.994233950972557068e-02 -5.450617987662553787e-03 2.143205143511295319e-03 3.852858766913414001e-02 4.115236178040504456e-02 -5.501401796936988831e-02 3.657084330916404724e-02 2.467632107436656952e-02 3.742046654224395752e-02 2.604319714009761810e-02 -1.580490916967391968e-02 1.869192719459533691e-02 8.417105302214622498e-03 2.038620226085186005e-02 -2.098748460412025452e-03 -2.303677611052989960e-02 -3.971721604466438293e-02 3.417043015360832214e-02 1.532306987792253494e-02 1.205576863139867783e-02 -3.103296644985675812e-02 -1.387498062103986740e-02 -7.849640096537768841e-04 -6.227656081318855286e-02 -1.704171486198902130e-02 1.085856370627880096e-02 3.623621910810470581e-02 -4.611770063638687134e-02 -2.037569135427474976e-02 2.804982103407382965e-02 -3.007004782557487488e-02 4.917836934328079224e-02 3.508625179529190063e-02 -1.041813939809799194e-02 -2.993246726691722870e-02 1.173122134059667587e-02 6.033794954419136047e-02 -8.404694381169974804e-04 2.953473478555679321e-02 1.709146797657012939e-02 1.099234540015459061e-02 -2.152057178318500519e-02 1.183742564171552658e-02 2.178150042891502380e-02 5.003908649086952209e-02 -3.602154552936553955e-02 3.670113533735275269e-02 1.838825270533561707e-02 -2.131026610732078552e-02 -9.337517432868480682e-03 2.367362380027770996e-03 -4.645045101642608643e-02 2.132851257920265198e-02 -2.318546175956726074e-02 -3.970114886760711670e-02 -2.249979600310325623e-02 3.765624761581420898e-02 -5.316293798387050629e-03 1.277367846341803670e-04 1.799255423247814178e-02 2.446864964440464973e-03 1.750316098332405090e-02
-2.536709047853946686e-02 -1.087033376097679138e-02 7.418950553983449936e-03 1.309745386242866516e-02 1.417968887835741043e-02 1.132172811776399612e-02 7.417370099574327469e-03 -1.619584858417510986e-02 -2.539299242198467255e-02 -2.046093344688415527e-02 1.545957289636135101e-02 -1.505831070244312286e-02 1.005488564260303974e-03 3.535119467414915562e-04 -5.608941894024610519e-03 -3.076257742941379547e-02 -2.383793331682682037e-02 -1.848977059125900269e-02 2.175254980102181435e-03 -9.986651130020618439e-03 -1.409641653299331665e-02 5.955067928880453110e-03 -4.370618611574172974e-02 -1.692454330623149872e-02 -9.899104014039039612e-03 -4.720325022935867310e-02 4.046059399843215942e-02 -4.221097100526094437e-03 -3.676254674792289734e-02 -1.176447700709104538e-02 -1.445610448718070984e-02 3.417485207319259644e-02 -3.774390090256929398e-03 1.533131487667560577e-02 -4.989065695554018021e-03 2.465543337166309357e-02 2.898565260693430901e-03 -1.847142726182937622e-02 4.892475903034210205e-03 1.593301631510257721e-02 1.068919897079467773e-02 3.231774270534515381e-02 -1.514733862131834030e-02 -4.334373865276575089e-03 -1.621594093739986420e-02 3.142251446843147278e-02 -1.895159948617219925e-03 9.717994369566440582e-03 1.100054197013378143e-02 -7.213644217699766159e-03 -1.481596566736698151e-02 2.258290536701679230e-02 -3.066060878336429596e-02 1.099876221269369125e-02 1.788368448615074158e-02 1.491574686951935291e-03 5.596001446247100830e-02 -2.675018087029457092e-02 2.264905720949172974e-03 -6.976536940783262253e-03 -4.517835751175880432e-02 -1.418575737625360489e-02 6.354171200655400753e-04 2.030880935490131378e-02 -2.380501665174961090e-02 3.829880058765411377e-02 2.382776699960231781e-02 -1.198041625320911407e-02 5.250483751296997070e-02 -8.862020447850227356e-03 1.663914695382118225e-02 1.696294546127319336e-02 1.085528824478387833e-02 -4.770302679389715195e-03 -1.030172593891620636e-02 -1.887113973498344421e-02 8.919551968574523926e-03 1.446939166635274887e-02 -2.095143496990203857e-02 6.720045115798711777e-03 4.553232342004776001e-02 -2.658894227351993322e-04 -4.032692871987819672e-03 -2.110673300921916962e-02 2.542284317314624786e-02 1.189208007417619228e-03 1.771423034369945526e-02 2.605075761675834656e-02 7.122376002371311188e-03 -1.150825060904026031e-02 -2.636923082172870636e-02 -1.938970573246479034e-02 -1.143684424459934235e-02 -4.928286187350749969e-03 -2.833558246493339539e-02 3.684885054826736450e-02 -5.186745896935462952e-03 -2.853552810847759247e-03 1.286872476339340210e-02 -1.264817826449871063e-02 8.950284682214260101e-04 2.129787579178810120e-02 1.943601481616497040e-02 -1.685623661614954472e-03 -3.617460653185844421e-02 2.313356474041938782e-02 -4.683610424399375916e-02 2.725123055279254913e-02 -2.663843147456645966e-02 5.554031115025281906e-03 1.347219850867986679e-02 3.636628389358520508e-03 -1.672349683940410614e-02 4.154291376471519470e-02 5.000493023544549942e-03 -4.473120439797639847e-03 -2.131593413650989532e-02 4.418362863361835480e-03 -1.659612543880939484e-02 2.267052419483661652e-02 -1.057214010506868362e-02 -3.376002609729766846e-02 5.331611633300781250e-02 -1.252133678644895554e-02 -1.810257136821746826e-02 5.365805118344724178e-04 1.169087644666433334e-02 1.736988127231597900e-02
-4.477628972381353378e-03 -5.327142775058746338e-02 1.124514825642108917e-02 1.118292752653360367e-02 3.776555880904197693e-02 3.195039555430412292e-02 -1.208876445889472961e-02 -1.618334464728832245e-02 -3.752955701202154160e-03 -1.110001746565103531e-02 4.881621524691581726e-02 5.948646925389766693e-03 -5.557635799050331116e-03 1.444918848574161530e-02 -3.792621940374374390e-02 -1.665539853274822235e-02 -4.661200102418661118e-03 2.320987172424793243e-02 -1.785971783101558685e-02 -2.734593115746974945e-02 1.467345189303159714e-02 -2.531896345317363739e-02 3.354179440066218376e-03 2.510630991309881210e-03 1.226786803454160690e-02 1.590367779135704041e-02 8.361510932445526123e-03 -4.752874001860618591e-02 2.401736564934253693e-03 3.974908962845802307e-03 1.768385246396064758e-02 3.684033825993537903e-02 -7.694981526583433151e-03 -5.009635165333747864e-02 8.468939340673387051e-04 -1.285877544432878494e-02 5.326542886905372143e-04 3.142284462228417397e-03 -4.368613939732313156e-03 3.005443327128887177e-02 -3.046043775975704193e-02 -4.472753498703241348e-03 -3.197908774018287659e-02 3.251317888498306274e-02 -3.882161900401115417e-02 1.545814611017704010e-02 1.689546927809715271e-02 -1.196628622710704803e-02 -1.062153931707143784e-02 -2.359737642109394073e-02 1.464937720447778702e-02 8.602837100625038147e-03 -2.135827671736478806e-03 -8.252573898062109947e-04 -1.556455250829458237e-02 -4.237834736704826355e-02 5.084687098860740662e-02 -6.948325783014297485e-03 3.761845082044601440e-02 -1.100131683051586151e-02 -7.536652032285928726e-03 -2.028125710785388947e-02 1.348647382110357285e-02 -6.110593094490468502e-04 4.124785587191581726e-02 5.608193168882280588e-05 2.796701155602931976e-02 -6.144776940345764160e-03 2.574051264673471451e-03 -2.855833061039447784e-02 -2.098815143108367920e-02 2.043232508003711700e-02 -1.469339430332183838e-02 5.797016620635986328e-02 1.762048923410475254e-03 -4.208487225696444511e-04 4.884982109069824219e-02 4.018504638224840164e-03 8.187278173863887787e-03 -1.274425163865089417e-02 -6.660576909780502319e-02 -2.138783223927021027e-02 5.766824353486299515e-03 -4.896367434412240982e-03 2.041187137365341187e-02 -9.246473200619220734e-03 4.727672040462493896e-02 -6.382600218057632446e-02 2.447671024128794670e-03 6.298582255840301514e-02 -3.846533596515655518e-02 5.545919016003608704e-02 5.839566234499216080e-03 -1.866415143013000488e-02 -1.543831359595060349e-02 2.224603667855262756e-02 1.687693595886230469e-02 -4.576050117611885071e-02 4.587225150316953659e-03 -3.226134181022644043e-02 -1.796360686421394348e-02 -8.314509876072406769e-03 3.097945591434836388e-03 -9.021253325045108795e-03 1.228413917124271393e-02 -2.238878048956394196e-02 -4.212608188390731812e-02 -2.005941979587078094e-02 -1.782510988414287567e-02 -3.973208367824554443e-02 2.456072531640529633e-02 3.220179304480552673e-02 1.927478611469268799e-02 5.589249730110168457e-02 -8.607658557593822479e-03 -5.036786571145057678e-02 1.896774920169264078e-04 8.534940890967845917e-03 -1.611817441880702972e-02 3.768419101834297180e-02 -2.630455605685710907e-02 1.474436279386281967e-02 6.413945811800658703e-04 2.769386395812034607e-02 -1.890048384666442871e-02 -1.525612315163016319e-03 2.438992634415626526e-02 2.840113081037998199e-02
2.787831798195838928e-02 2.606002148240804672e-03 3.216313198208808899e-03 1.656229421496391296e-02 -2.356613054871559143e-02 -3.216729313135147095e-02 1.855793967843055725e-02 4.681898280978202820e-02 -2.223034389317035675e-02 -5.809371173381805420e-02 -3.238317370414733887e-02 2.531310729682445526e-02 -1.277317199856042862e-02 -1.297665014863014221e-02 -4.953712970018386841e-02 -2.701695822179317474e-02 1.193929370492696762e-02 -6.186481565237045288e-03 1.072733383625745773e-02 -1.761828176677227020e-02 -2.613466233015060425e-02 -7.226639240980148315e-02 -8.419534564018249512e-02 8.336352184414863586e-03 6.670570001006126404e-03 4.277002066373825073e-03 1.712905801832675934e-02 2.173013985157012939e-02 3.319012373685836792e-02 1.454225834459066391e-02 -1.673334091901779175e-02 4.260420333594083786e-03 6.690209731459617615e-03 -2.113430388271808624e-02 -4.427193477749824524e-02 -1.284687779843807220e-03 -3.584312647581100464e-02 -5.767658725380897522e-02 5.197081714868545532e-02 -1.250205654650926590e-02 1.205623894929885864e-02 -4.864940885454416275e-03 -4.701281711459159851e-02 2.022845484316349030e-02 1.698609627783298492e-02 7.020496577024459839e-02 -1.413012109696865082e-02 6.867055594921112061e-02 -2.477107010781764984e-02 7.633329834789037704e-03 -1.232617441564798355e-02 5.719603970646858215e-02 -3.502439334988594055e-02 -1.845643669366836548e-02 1.521060802042484283e-02 5.803489126265048981e-03 -3.750745579600334167e-02 -9.770940989255905151e-03 3.598439320921897888e-02 4.782816860824823380e-03 6.280662864446640015e-02 3.518638387322425842e-02 -1.878152415156364441e-02 1.151573378592729568e-02 -2.587541751563549042e-02 -2.134175226092338562e-02 2.740824222564697266e-02 -8.881030604243278503e-03 3.577714785933494568e-02 -1.897552423179149628e-02 1.300788018852472305e-02 1.193919335491955280e-03 -2.298421598970890045e-02 1.175411790609359741e-02 -8.808486745692789555e-04 -1.685410155914723873e-03 6.149038672447204590e-02 3.848327905870974064e-04 2.535269036889076233e-02 -5.840237066149711609e-02 -2.220384962856769562e-02 -2.958296798169612885e-02 2.842541597783565521e-02 -2.004787698388099670e-02 3.350298479199409485e-02 3.560068830847740173e-02 -2.393971383571624756e-02 4.595103487372398376e-02 -3.154638782143592834e-02 2.869276097044348717e-03 -4.427028074860572815e-02 1.361963432282209396e-02 -1.321251504123210907e-03 3.531397134065628052e-02 2.513632737100124359e-02 -4.427511245012283325e-02 5.518509820103645325e-02 -4.768332466483116150e-02 -2.022371999919414520e-02 -3.665503812953829765e-03 4.645644873380661011e-02 1.314467471092939377e-02 -1.743454113602638245e-02 5.921773146837949753e-03 -4.034076631069183350e-02 -1.618168316781520844e-02 3.898580744862556458e-02 -6.784591823816299438e-03 4.015681147575378418e-02 -4.775056615471839905e-02 -4.401822015643119812e-02 5.197299271821975708e-02 6.293959170579910278e-02 -2.475220710039138794e-02 -1.906695775687694550e-02 2.985624037683010101e-02 2.428711578249931335e-02 -1.594973541796207428e-02 1.476863864809274673e-02 -2.451979788020253181e-03 4.664034396409988403e-02 2.390999160706996918e-02 -1.247134618461132050e-02 -1.685551926493644714e-02 2.714739367365837097e-02 8.419970981776714325e-03 1.188431121408939362e-02 4.168844968080520630e-02
