-5.010584369301795959e-02 9.409886784851551056e-03 -1.880954019725322723e-02 1.064638607203960419e-02 5.496769025921821594e-02 -1.016657147556543350e-02 2.121058758348226547e-03 1.921637915074825287e-02 -1.931171864271163940e-02 1.716892234981060028e-02 4.380763322114944458e-02 -1.797187887132167816e-02 3.513184608891606331e-03 1.040345057845115662e-02 -2.589329518377780914e-02 2.717843744903802872e-03 -4.501126706600189209e-02 1.516003720462322235e-02 -8.354099467396736145e-03 3.514332324266433716e-02 1.664714701473712921e-02 -1.796889491379261017e-02 -6.706546992063522339e-03 -1.949387416243553162e-02 4.983601719141006470e-02 -2.437281422317028046e-03 -3.137844428420066833e-02 2.555924467742443085e-02 1.448908913880586624e-02 1.292738947086036205e-03 -2.962423674762248993e-02 -4.708260297775268555e-03 -6.455759983509778976e-03 3.156938403844833374e-02 1.114375796169042587e-02 -2.466317825019359589e-02 -3.315677866339683533e-02 1.341480016708374023e-02 2.735890448093414307e-02 -1.483045518398284912e-02 6.974521279335021973e-02 -3.809776529669761658e-02 1.813369244337081909e-02 1.457156799733638763e-02 -5.505898594856262207e-02 -2.486185356974601746e-02 1.503681391477584839e-02 7.475688587874174118e-03 -2.388900145888328552e-02 3.324332460761070251e-02 -1.439837832003831863e-02 1.598889008164405823e-02 2.020068280398845673e-02 1.366692874580621719e-02 3.309766761958599091e-03 1.478287763893604279e-02 -1.815196871757507324e-02 3.222053498029708862e-02 2.356290630996227264e-02 -6.825927644968032837e-02 1.893038861453533173e-02 9.483174420893192291e-03 2.586155012249946594e-02 -3.002244792878627777e-02 1.207082346081733704e-02 -3.671728447079658508e-02 3.122246125712990761e-03 -2.390381647273898125e-03 -2.193556353449821472e-02 -1.821888051927089691e-02 -7.565402425825595856e-03 1.952256658114492893e-03 -1.608549267984926701e-03 1.376188453286886215e-02 4.100120812654495239e-02 -3.623250126838684082e-02 2.645962405949831009e-03 6.469689309597015381e-02 -4.902637004852294922e-02 -1.185933593660593033e-02 -1.313878688961267471e-02 -2.849253453314304352e-02 3.671638295054435730e-02 -5.803943146020174026e-03 2.812728658318519592e-02 8.976507931947708130e-03 1.726134121417999268e-02 3.251057933084666729e-04 -2.339682728052139282e-02 -2.149935811758041382e-02 2.138180285692214966e-02 9.629711508750915527e-03 3.405153984203934669e-03 3.249306604266166687e-02 1.275097113102674484e-02 2.885414985939860344e-03 7.824012078344821930e-03 1.248544547706842422e-03 1.240969821810722351e-02 1.894720271229743958e-02 7.259496022015810013e-03 -2.380268834531307220e-02 -1.824687607586383820e-02 3.083795867860317230e-02 -7.028185762465000153e-03 2.676329342648386955e-03 -3.178323432803153992e-02 -3.621363267302513123e-02 -6.498027127236127853e-03 -2.174112945795059204e-02 4.885553568601608276e-02 1.172809861600399017e-02 2.585082314908504486e-02 -3.143521025776863098e-02 6.343129090964794159e-03 -1.620993833057582378e-03 3.366420743986964226e-03 2.104946970939636230e-02 -5.756242200732231140e-03 -1.195059251040220261e-02 -6.618519313633441925e-03 -1.903455518186092377e-02 4.295353218913078308e-02 3.058118745684623718e-02 4.455922171473503113e-02 -5.077827256172895432e-03 -1.590909250080585480e-02 3.066285140812397003e-02
-3.600803029257804155e-04 2.578182902652770281e-04 1.800478994846343994e-02 -4.159955680370330811e-02 -4.234107956290245056e-02 2.995605347678065300e-03 1.394802331924438477e-02 -1.703052781522274017e-02 6.112627685070037842e-02 1.134430244565010071e-02 -1.886245980858802795e-02 2.064426802098751068e-02 7.793543394654989243e-03 -1.330156624317169189e-02 4.448216408491134644e-03 1.462192647159099579e-02 1.163004431873559952e-02 -8.803461678326129913e-03 3.554244758561253548e-03 -1.220295816892758012e-04 -1.839716546237468719e-02 8.637080900371074677e-03 1.925394125282764435e-02 -9.145180694758892059e-03 -1.038498431444168091e-02 -6.024063099175691605e-03 3.163706511259078979e-02 1.464750990271568298e-02 -2.274217642843723297e-02 5.780261009931564331e-03 7.145314011722803116e-03 1.176016777753829956e-02 -2.888563089072704315e-03 -1.007310952991247177e-02 -1.755673438310623169e-02 4.167235270142555237e-02 2.226429991424083710e-02 9.501802735030651093e-03 -1.501924823969602585e-02 4.175276681780815125e-02 1.855710055679082870e-03 -3.498620167374610901e-02 -2.310558594763278961e-02 -2.161072101444005966e-03 7.971057668328285217e-03 -1.562913693487644196e-02 -1.649080589413642883e-02 -6.082052364945411682e-03 -2.340465970337390900e-02 -6.354493089020252228e-03 4.091525822877883911e-02 -1.559997256845235825e-02 -4.476376622915267944e-02 3.704207018017768860e-02 -8.319863118231296539e-03 2.407190948724746704e-02 -2.228186465799808502e-03 3.656480833888053894e-02 -2.914589643478393555e-02 9.186856332235038280e-04 1.406375132501125336e-02 -7.717013359069824219e-03 -2.502907440066337585e-02 -3.276391653344035149e-04 3.137600049376487732e-02 -2.511754259467124939e-02 -1.275589223951101303e-02 1.095595397055149078e-02 -5.061951652169227600e-02 -2.296502515673637390e-02 2.134087262675166130e-03 -1.390486583113670349e-02 -2.136775292456150055e-02 2.365862019360065460e-02 3.458584472537040710e-02 2.196835167706012726e-02 3.084239736199378967e-02 -1.761627011001110077e-02 1.550367474555969238e-02 -1.517416443675756454e-02 -6.401567952707409859e-04 -3.758122399449348450e-02 -5.467333644628524780e-02 -7.654459215700626373e-03 4.254551604390144348e-02 3.765108808875083923e-02 -1.273770816624164581e-02 2.056974358856678009e-02 -6.532337516546249390e-02 4.876322671771049500e-02 1.530482806265354156e-02 -8.317870087921619415e-03 1.112462370656430721e-03 -1.854887418448925018e-02 -1.554738171398639679e-02 -2.806820161640644073e-02 -2.426443621516227722e-02 1.805862970650196075e-02 -2.067229896783828735e-02 2.356452681124210358e-02 3.892054781317710876e-02 -2.299173735082149506e-02 5.781051702797412872e-03 -7.347197737544775009e-03 6.998227536678314209e-02 9.867141954600811005e-03 2.573709562420845032e-02 -5.561259109526872635e-03 1.737525500357151031e-02 -6.821250077337026596e-03 3.103785775601863861e-02 1.940499991178512573e-02 5.355067923665046692e-02 -1.325491163879632950e-02 7.992704398930072784e-03 -1.164738647639751434e-02 5.042355507612228394e-02 1.114392839372158051e-02 -2.810097299516201019e-02 1.373878400772809982e-02 2.901870384812355042e-02 -5.501058418303728104e-03 -2.918332815170288086e-02 6.215581670403480530e-03 2.493291534483432770e-02 2.953846193850040436e-02 -1.968694850802421570e-02 -5.169637966901063919e-03
-9.688060730695724487e-03 -5.051080603152513504e-03 2.025464549660682678e-03 -1.486335974186658859e-02 -7.272237446159124374e-03 1.690501160919666290e-02 -2.075495576718822122e-04 -1.701035536825656891e-02 -4.286624491214752197e-02 7.711286656558513641e-03 1.236950512975454330e-02 -1.120812166482210159e-02 -1.048826333135366440e-02 6.500714272260665894e-02 1.542058680206537247e-02 -3.160503134131431580e-02 1.418226677924394608e-02 8.224743069149553776e-04 -2.564992755651473999e-03 -2.811081148684024811e-02 7.292884867638349533e-03 2.226799027994275093e-03 -4.718472715467214584e-03 1.300039933994412422e-03 -1.283244509249925613e-02 2.942294999957084656e-02 2.390640601515769958e-02 -5.206067487597465515e-02 -3.395500406622886658e-02 -1.877615042030811310e-02 -5.661370698362588882e-03 1.500216033309698105e-02 -2.191001735627651215e-02 1.157460734248161316e-02 3.345883265137672424e-02 2.735878713428974152e-02 1.697448082268238068e-02 1.832833141088485718e-02 -6.564034521579742432e-02 -2.046882361173629761e-02 4.390570148825645447e-02 -1.484843436628580093e-02 1.172461081296205521e-02 1.832010596990585327e-02 -1.994690671563148499e-02 6.341493222862482071e-03 -2.484106458723545074e-02 -2.158881165087223053e-02 2.744870446622371674e-02 -4.282357171177864075e-03 -3.396387025713920593e-02 -2.351195737719535828e-02 1.649902574717998505e-02 2.084585279226303101e-02 -2.959154546260833740e-02 -8.359692292287945747e-04 1.286535616964101791e-02 -4.636324197053909302e-02 -2.513947710394859314e-02 -6.082629319280385971e-03 -3.538299351930618286e-02 9.114783257246017456e-03 4.403878748416900635e-02 3.916218131780624390e-02 9.809627197682857513e-03 8.947315625846385956e-03 -8.349144831299781799e-03 1.080424338579177856e-02 1.420419756323099136e-02 1.064522378146648407e-02 -1.027513388544321060e-02 4.266572743654251099e-02 3.924314677715301514e-02 8.381902240216732025e-03 -1.224735844880342484e-02 -3.508388763293623924e-03 -2.012444287538528442e-02 5.456840619444847107e-02 1.789915189146995544e-02 8.827902376651763916e-03 -2.249680459499359131e-02 2.039813622832298279e-02 8.752502501010894775e-03 -6.095463782548904419e-02 -1.084178127348423004e-02 3.226093482226133347e-03 4.609340056777000427e-02 3.029034473001956940e-02 9.515347890555858612e-03 -3.540448378771543503e-03 1.103006582707166672e-02 -2.835794351994991302e-02 7.544836262241005898e-05 1.343398168683052063e-02 -1.984571106731891632e-02 4.320399835705757141e-02 -2.406185679137706757e-02 4.328682553023099899e-03 -4.076584242284297943e-03 -5.470624193549156189e-03 1.641080528497695923e-02 -2.616722881793975830e-02 -1.800263300538063049e-02 1.469233259558677673e-02 -1.776437088847160339e-02 9.161402471363544464e-03 6.322575267404317856e-03 3.167746588587760925e-02 -1.168663706630468369e-02 -9.234079159796237946e-03 2.056760247796773911e-03 -5.938624963164329529e-03 -5.980008468031883240e-02 4.757802188396453857e-02 -6.171256769448518753e-03 2.826833352446556091e-02 -8.104666136205196381e-03 6.719045341014862061e-02 1.833721064031124115e-02 5.854283273220062256e-02 -9.230757132172584534e-03 -6.264634430408477783e-03 9.646886028349399567e-03 -3.090004902333021164e-03 4.111287184059619904e-03 1.259502209722995758e-02 9.965791366994380951e-03 -1.860797964036464691e-02
6.587471812963485718e-03 6.452138535678386688e-03 3.076249733567237854e-02 -3.111270256340503693e-03 -1.421574968844652176e-03 -6.835361942648887634e-03 3.001644276082515717e-02 8.745385333895683289e-03 -2.986529469490051270e-02 9.756442159414291382e-03 1.854554377496242523e-02 -1.903325133025646210e-02 3.201652085408568382e-03 1.147595234215259552e-02 -1.946447230875492096e-02 -3.296046331524848938e-02 2.399481087923049927e-02 3.562574088573455811e-02 4.095926135778427124e-02 9.424540214240550995e-03 -2.116489969193935394e-02 -5.458585452288389206e-03 5.028396844863891602e-03 -7.558086421340703964e-03 2.591540291905403137e-02 -2.268042229115962982e-02 -1.057882141321897507e-02 -7.801813539117574692e-03 1.218384690582752228e-02 -2.638089843094348907e-02 -2.674931846559047699e-02 -4.181380383670330048e-03 -6.248535937629640102e-04 2.033023908734321594e-02 1.558817643672227859e-02 -1.034963689744472504e-02 3.745099902153015137e-02 -9.387728758156299591e-03 -3.701876476407051086e-02 -6.370949558913707733e-03 1.093329023569822311e-02 9.954264387488365173e-03 -9.762311237864196301e-04 -1.404100796207785606e-03 -1.206313166767358780e-02 -2.248047478497028351e-02 1.058730483055114746e-02 1.072080526500940323e-02 -1.555452821776270866e-03 -1.193866413086652756e-02 -2.927200309932231903e-02 1.573792472481727600e-02 -2.158961817622184753e-02 8.076513186097145081e-03 1.373018417507410049e-02 -6.869700737297534943e-03 1.419303379952907562e-02 -9.897887706756591797e-03 1.910274848341941833e-02 1.841978915035724640e-02 5.502542015165090561e-03 2.563470625318586826e-04 1.279180962592363358e-02 -2.817925997078418732e-03 -1.221335679292678833e-02 -8.523846976459026337e-03 1.447719614952802658e-02 1.508151274174451828e-02 3.545537218451499939e-02 -1.542047364637255669e-03 -3.259015083312988281e-02 -4.718423262238502502e-02 4.004541784524917603e-02 -2.672593481838703156e-02 5.232399795204401016e-03 -3.967535682022571564e-03 -1.184219401329755783e-02 -2.313278056681156158e-02 2.162671834230422974e-02 7.479957770556211472e-03 1.110022980719804764e-02 2.136718854308128357e-02 2.865838073194026947e-02 -2.053729444742202759e-02 7.202996406704187393e-03 3.540800884366035461e-03 1.175735332071781158e-02 9.437604807317256927e-03 3.870852757245302200e-03 -1.835804060101509094e-02 1.974271051585674286e-02 -4.510689526796340942e-03 -1.529455557465553284e-02 -4.898619372397661209e-03 -1.421404443681240082e-02 -2.678561769425868988e-02 1.638565398752689362e-02 2.492563426494598389e-02 -1.226160326041281223e-03 7.594025228172540665e-03 2.843252383172512054e-02 -2.469447907060384750e-03 -1.982940919697284698e-02 -4.927525296807289124e-03 -3.653571754693984985e-02 3.294327482581138611e-02 -2.967088716104626656e-03 -1.991907600313425064e-03 -1.115190424025058746e-02 -2.711004950106143951e-02 8.636888116598129272e-03 6.672147661447525024e-03 -3.784165252000093460e-03 -2.367329038679599762e-02 1.887662522494792938e-02 2.965028956532478333e-02 3.560742828994989395e-03 -1.289687119424343109e-02 2.979502640664577484e-02 -8.887306787073612213e-03 -1.197470631450414658e-02 -1.264683529734611511e-02 1.248377840965986252e-02 -2.047997526824474335e-02 6.228677928447723389e-03 1.414893008768558502e-02 2.903707325458526611e-02 6.951935589313507080e-03
4.121575877070426941e-02 2.214596606791019440e-02 4.980236664414405823e-02 6.784693337976932526e-03 -6.163672544062137604e-03 3.868962451815605164e-02 3.086620010435581207e-02 -2.769344672560691833e-02 -9.517288766801357269e-03 -2.401066571474075317e-02 3.796357661485671997e-02 -7.585398270748555660e-04 4.797670990228652954e-02 -7.120489142835140228e-03 -2.316933125257492065e-03 2.235758677124977112e-02 -2.101841568946838379e-02 4.514062032103538513e-02 3.021243028342723846e-02 2.763293310999870300e-02 1.656626164913177490e-02 -6.896296050399541855e-03 4.925259854644536972e-03 -3.779501840472221375e-02 5.534527823328971863e-02 2.960317302495241165e-03 -1.670304127037525177e-02 8.933388628065586090e-03 9.778115898370742798e-03 -3.957224544137716293e-03 -9.002709703054279089e-05 4.374558106064796448e-02 3.471065312623977661e-03 -6.022079382091760635e-03 2.303245477378368378e-02 1.704786159098148346e-02 -1.356338523328304291e-02 -4.460240714251995087e-03 3.831621957942843437e-03 -2.186191454529762268e-02 1.684709079563617706e-02 4.738372936844825745e-02 2.248179353773593903e-02 1.907776168081909418e-04 1.398801151663064957e-02 -3.619562089443206787e-02 -1.814429834485054016e-02 -2.791658975183963776e-03 3.090706095099449158e-02 -8.298391103744506836e-02 -4.028256982564926147e-02 -3.803145512938499451e-02 2.545118145644664764e-02 -3.670541942119598389e-02 -2.114980667829513550e-02 1.545024290680885315e-02 -1.211502496153116226e-02 1.527383690699934959e-03 -1.578292623162269592e-02 9.606299921870231628e-03 -5.299085285514593124e-03 -2.128104493021965027e-02 -2.632455155253410339e-02 5.964873358607292175e-03 -2.475796965882182121e-03 -3.409901633858680725e-02 1.880429312586784363e-02 2.343103662133216858e-02 1.804736629128456116e-02 3.339392133057117462e-03 3.170295804738998413e-02 -2.056652493774890900e-02 1.403244119137525558e-02 -3.049304010346531868e-03 -1.007300149649381638e-02 -3.028691047802567482e-03 -1.939507760107517242e-02 1.489284727722406387e-02 2.454194612801074982e-02 -3.122281096875667572e-02 3.166894987225532532e-02 4.115571826696395874e-02 -3.354219952598214149e-03 -1.311383955180644989e-02 -1.388429081998765469e-03 1.795999146997928619e-02 -3.706826269626617432e-02 8.062752895057201385e-03 7.760841399431228638e-03 3.807302564382553101e-02 -3.418303327634930611e-03 -9.924785234034061432e-03 -1.697428710758686066e-02 1.134044863283634186e-02 -3.243266791105270386e-02 2.025503106415271759e-02 1.424341648817062378e-02 -1.053813192993402481e-02 1.120806764811277390e-02 1.726960204541683197e-02 -1.722011715173721313e-02 -3.337022289633750916e-02 1.660135388374328613e-02 2.143888175487518311e-02 -5.405898764729499817e-02 1.644953899085521698e-02 -1.849344000220298767e-02 1.328664831817150116e-02 -2.163631841540336609e-02 1.319763599894940853e-03 -2.607339620590209961e-02 -1.834470219910144806e-02 -2.312906086444854736e-02 -1.059069205075502396e-02 -1.406800653785467148e-02 3.601174801588058472e-02 -1.042846124619245529e-02 1.197782158851623535e-02 -3.244936466217041016e-02 -4.019279405474662781e-02 1.333635579794645309e-02 7.702589035034179688e-03 2.323272870853543282e-03 -3.254737332463264465e-02 1.729474402964115143e-02 -1.671345718204975128e-02 1.948068290948867798e-02 8.409727015532553196e-04
1.738314144313335419e-02 -7.803953718394041061e-03 6.798309274017810822e-03 -1.385524123907089233e-02 2.855036035180091858e-02 3.125225380063056946e-02 4.981203004717826843e-03 -2.917570807039737701e-02 -6.209206301718950272e-03 3.626096248626708984e-02 -4.573707003146409988e-03 5.908439867198467255e-03 5.641306191682815552e-02 4.577228799462318420e-02 -5.112298764288425446e-03 -2.240742743015289307e-02 -1.658177748322486877e-02 -3.430892713367938995e-03 1.177464425563812256e-02 3.319428768008947372e-03 -9.703159332275390625e-03 3.285764157772064209e-02 6.247937213629484177e-03 1.931015029549598694e-02 1.075607445091009140e-02 -2.704939618706703186e-02 1.893497630953788757e-02 1.939150504767894745e-02 5.821892991662025452e-02 -3.726113960146903992e-02 -3.016524575650691986e-02 -1.687646959908306599e-03 -2.088426612317562103e-02 6.337349861860275269e-02 2.221692167222499847e-02 1.799362711608409882e-02 -1.732607930898666382e-02 -4.744185879826545715e-02 4.424091894179582596e-03 -3.079838864505290985e-02 2.115716971457004547e-02 4.012324288487434387e-02 -1.679656654596328735e-02 1.394493039697408676e-02 3.157210350036621094e-02 -1.500727795064449310e-02 1.683308184146881104e-02 -6.295326165854930878e-03 -1.522395014762878418e-02 -1.853866875171661377e-02 7.314931135624647141e-03 3.642132738605141640e-03 1.944330148398876190e-02 -1.005745865404605865e-02 5.048263818025588989e-02 -3.844575956463813782e-02 -1.758994720876216888e-02 -2.612877637147903442e-02 -9.230663999915122986e-03 -6.544789299368858337e-03 -1.557516586035490036e-02 -3.371851518750190735e-02 -5.327017046511173248e-03 2.155822888016700745e-02 2.418366260826587677e-02 -2.326278809050563723e-05 -5.849422421306371689e-03 -2.241330221295356750e-02 -1.141234207898378372e-02 2.669049194082617760e-03 3.104275837540626526e-02 -2.828847244381904602e-02 1.011797692626714706e-02 -1.897588744759559631e-02 3.315123496577143669e-03 -3.093866445124149323e-02 2.136125043034553528e-02 1.583828125149011612e-03 1.441948767751455307e-02 6.179473712109029293e-04 -1.160281803458929062e-02 -1.227986719459295273e-02 3.964785486459732056e-02 1.742752082645893097e-02 -2.742564678192138672e-02 -7.546032313257455826e-03 -1.358163543045520782e-02 1.631363108754158020e-02 2.286120131611824036e-02 -1.906470209360122681e-02 1.686471514403820038e-02 -1.655822619795799255e-02 3.018657118082046509e-02 2.732414752244949341e-02 -4.276588559150695801e-02 -1.085973251610994339e-02 -1.240872405469417572e-02 -2.848024107515811920e-02 1.757019571959972382e-02 -5.396959371864795685e-03 1.993887498974800110e-02 -1.948384009301662445e-02 -2.275514416396617889e-02 -1.061899354681372643e-03 1.363212987780570984e-02 -1.070937979966402054e-02 -1.128887478262186050e-02 -2.542943507432937622e-02 2.960438095033168793e-02 3.153927251696586609e-02 -2.338485419750213623e-02 -2.640327904373407364e-03 -2.985867322422564030e-04 -1.956578530371189117e-02 -2.001629024744033813e-02 -1.780967973172664642e-02 1.350553054362535477e-02 -3.240286186337471008e-02 1.327833067625761032e-02 -2.295744343427941203e-04 3.862963523715734482e-03 3.110141679644584656e-02 -1.272344682365655899e-02 2.938210405409336090e-02 -1.422582101076841354e-02 -1.340344315394759178e-03 -2.084105834364891052e-02 3.016957826912403107e-02
3.023590333759784698e-02 3.061925433576107025e-02 -1.880829036235809326e-02 4.901036992669105530e-02 1.748327282257378101e-03 2.209318615496158600e-02 -1.234428118914365768e-02 1.891259290277957916e-02 -3.155930340290069580e-02 -1.233529485762119293e-02 7.671413477510213852e-03 -1.898650266230106354e-02 -2.163319848477840424e-03 5.698908586055040359e-03 -1.130913756787776947e-02 3.857617452740669250e-02 -1.078862790018320084e-02 2.154902555048465729e-02 3.572314046323299408e-03 -5.932563170790672302e-02 -1.407711859792470932e-02 -6.848490238189697266e-02 -2.877163141965866089e-02 4.253184050321578979e-02 -6.386367138475179672e-03 -1.336177345365285873e-02 1.268792804330587387e-02 5.690926220268011093e-03 -2.002586424350738525e-02 -3.638736158609390259e-02 2.463673055171966553e-02 -3.076590038836002350e-02 -2.977994456887245178e-02 -2.475235797464847565e-02 5.115430057048797607e-02 -1.136550400406122208e-02 -3.070589713752269745e-02 2.337820082902908325e-02 9.395631961524486542e-03 3.410754352807998657e-02 -1.959315128624439240e-02 1.602313667535781860e-02 -9.491801261901855469e-03 -1.795200072228908539e-02 -1.477840851293876767e-04 1.515028439462184906e-02 -1.114604063332080841e-03 -1.883256249129772186e-02 -1.658409461379051208e-02 -1.743074320256710052e-02 -4.339514300227165222e-03 5.756377242505550385e-03 2.593868784606456757e-02 3.670362755656242371e-02 -5.408717785030603409e-03 2.414368645986542106e-04 4.240445047616958618e-02 -1.816229708492755890e-02 -8.310593664646148682e-03 -3.314310312271118164e-02 -1.980590261518955231e-02 -1.292763371020555496e-02 -2.296940656378865242e-03 4.703547060489654541e-02 3.665448632091283798e-03 4.705783352255821228e-02 -1.681933738291263580e-02 -5.633813887834548950e-02 -5.741282948292791843e-04 1.782442815601825714e-02 4.015265777707099915e-02 -1.068551186472177505e-02 -2.322376333177089691e-02 1.014930941164493561e-02 -5.432949215173721313e-02 3.093026950955390930e-02 2.580223605036735535e-02 -1.521026995033025742e-02 -2.003969624638557434e-02 2.482018806040287018e-02 -3.059433540329337120e-03 2.233016304671764374e-02 -1.166771259158849716e-02 -8.386077359318733215e-03 -5.556915886700153351e-03 5.733278580009937286e-03 -1.791033335030078888e-02 -5.280277878046035767e-02 -6.260051857680082321e-03 1.133067160844802856e-02 -6.849281489849090576e-02 1.407002285122871399e-02 -1.092599891126155853e-02 -3.490811958909034729e-02 4.944292828440666199e-03 -2.229921333491802216e-02 2.330608479678630829e-02 -2.479165978729724884e-02 -2.334753051400184631e-02 -4.516028985381126404e-02 3.078920533880591393e-03 -1.976271532475948334e-02 2.201837114989757538e-02 -2.109212987124919891e-02 -3.911617025732994080e-02 -4.114897549152374268e-02 4.995123669505119324e-02 4.265813902020454407e-02 -2.222255803644657135e-02 2.046301588416099548e-02 -2.240761928260326385e-02 -1.489475835114717484e-02 3.102244064211845398e-02 1.720590866170823574e-03 -4.430672526359558105e-02 -1.722984947264194489e-02 -2.220929414033889771e-02 1.321154995821416378e-03 3.590501844882965088e-02 2.676959149539470673e-03 -8.145683445036411285e-03 1.884620450437068939e-02 1.112316828221082687e-02 -4.470928385853767395e-02 -7.002213038504123688e-03 4.579880461096763611e-02 2.612264594063162804e-03 3.195492923259735107e-02
-2.815763466060161591e-02 1.841288618743419647e-02 4.394454509019851685e-02 4.362551961094141006e-03 2.071830444037914276e-02 -1.821466721594333649e-02 -1.830723322927951813e-02 -1.913505792617797852e-02 -8.179428055882453918e-03 1.568407565355300903e-02 4.037629440426826477e-02 -2.371462807059288025e-02 1.839590608142316341e-03 8.622213266789913177e-03 -1.447357237339019775e-02 -1.484194071963429451e-03 3.736329078674316406e-02 -1.456231623888015747e-02 2.594796009361743927e-02 -2.126336330547928810e-03 6.214480847120285034e-03 8.683282881975173950e-03 3.521891776472330093e-03 -8.273096173070371151e-04 9.393301792442798615e-03 -1.136718224734067917e-02 -2.059871144592761993e-02 -7.517714402638375759e-04 6.158731412142515182e-03 -1.769295893609523773e-02 -6.330379284918308258e-03 -9.107110672630369663e-04 7.362022064626216888e-03 5.142312962561845779e-03 -2.277458831667900085e-02 -1.085607055574655533e-02 -1.253102812916040421e-02 -3.173725306987762451e-02 -5.001347977668046951e-03 -4.114239290356636047e-02 -1.805789209902286530e-02 4.697570111602544785e-03 1.164419762790203094e-02 -6.150654051452875137e-03 9.061825461685657501e-03 -4.720957577228546143e-02 -1.134334038943052292e-02 -1.528164185583591461e-02 2.071347646415233612e-02 -4.511290535447187722e-05 -3.113807737827301025e-02 6.229868158698081970e-03 -1.877094805240631104e-02 5.062997806817293167e-04 1.737147197127342224e-02 -9.733906947076320648e-03 1.540400367230176926e-02 -1.238601934164762497e-02 -3.004272468388080597e-03 3.194947168231010437e-02 3.639242611825466156e-03 -5.519841611385345459e-02 1.987797953188419342e-02 -2.356544602662324905e-03 -7.645539008080959320e-04 3.871729597449302673e-02 8.566698059439659119e-03 9.652455337345600128e-03 1.422012690454721451e-02 5.393096245825290680e-03 1.712130033411085606e-03 1.419444847851991653e-02 2.035997435450553894e-02 1.214979868382215500e-02 2.783323824405670166e-02 1.538356882520020008e-03 -1.571368053555488586e-02 -4.818424209952354431e-02 -7.914875634014606476e-03 2.697286568582057953e-02 4.959488869644701481e-04 1.236318890005350113e-02 5.088501423597335815e-02 -8.168269880115985870e-03 -2.848834544420242310e-02 -4.759243165608495474e-04 2.641384722664952278e-03 -1.588895171880722046e-02 1.242781803011894226e-02 -2.178785577416419983e-02 2.645367989316582680e-03 2.217365987598896027e-02 9.109904989600181580e-03 -1.886820048093795776e-02 -2.469030767679214478e-02 1.386550837196409702e-03 -5.621468182653188705e-03 5.266700312495231628e-02 3.554358705878257751e-02 6.609880365431308746e-03 -6.766315083950757980e-03 -3.729926049709320068e-02 3.197155892848968506e-03 1.419000979512929916e-02 -3.193473070859909058e-02 -2.619313262403011322e-02 -6.764482706785202026e-02 -1.860268972814083099e-02 1.399367395788431168e-02 4.460667446255683899e-02 -1.192956813611090183e-03 -3.029410727322101593e-03 -1.324587315320968628e-02 -1.216072309762239456e-02 1.213138084858655930e-02 -4.217349737882614136e-02 -3.696012496948242188e-02 -1.260731648653745651e-02 -4.492860287427902222e-03 1.542139449156820774e-03 1.856025122106075287e-02 -8.300366811454296112e-03 4.035616293549537659e-02 4.493008367717266083e-03 -1.879679737612605095e-03 1.751908659934997559e-02 6.557131558656692505e-02 7.925031706690788269e-03
