-5.424062162637710571e-02 1.008020248264074326e-02 -2.304290793836116791e-02 1.231483183801174164e-02 6.236727163195610046e-02 -1.882115378975868225e-02 -3.404681105166673660e-03 2.113138139247894287e-02 -1.591290347278118134e-02 2.738673239946365356e-02 4.366306215524673462e-02 -1.845708861947059631e-02 -4.032509241369552910e-05 7.815022952854633331e-03 -2.607627585530281067e-02 3.125377465039491653e-03 -5.014971643686294556e-02 1.601948775351047516e-02 -1.300974749028682709e-02 3.923024237155914307e-02 1.857439056038856506e-02 -1.830630190670490265e-02 -5.296974442899227142e-03 -2.333589456975460052e-02 5.027120560407638550e-02 -5.041218362748622894e-03 -3.590679913759231567e-02 2.794794924557209015e-02 8.960205130279064178e-03 -4.037441685795783997e-03 -2.784279733896255493e-02 -1.041716709733009338e-02 -8.096154779195785522e-03 3.184106945991516113e-02 9.351241402328014374e-03 -2.574911154806613922e-02 -3.524086996912956238e-02 1.833348721265792847e-02 3.961143642663955688e-02 -2.006931975483894348e-02 7.304442673921585083e-02 -4.648159071803092957e-02 2.186313457787036896e-02 1.931973546743392944e-02 -6.130178272724151611e-02 -2.911603264510631561e-02 1.555394474416971207e-02 6.964314263314008713e-03 -3.218206390738487244e-02 3.752003237605094910e-02 -1.053611189126968384e-02 1.843017339706420898e-02 2.029640600085258484e-02 1.132614351809024811e-02 3.326776903122663498e-03 1.885233633220195770e-02 -2.120815962553024292e-02 3.542110696434974670e-02 2.519618347287178040e-02 -7.991450279951095581e-02 2.591434493660926819e-02 1.284487545490264893e-02 2.430847100913524628e-02 -4.520522430539131165e-02 1.236224733293056488e-02 -3.821967914700508118e-02 1.206487650051712990e-03 -6.038093008100986481e-03 -2.918514050543308258e-02 -2.104149758815765381e-02 -1.013070717453956604e-02 -4.529635421931743622e-03 -3.451134252827614546e-04 2.108029276132583618e-02 4.719408228993415833e-02 -4.485810920596122742e-02 5.113991908729076385e-03 6.606680154800415039e-02 -5.628352239727973938e-02 -1.640740782022476196e-02 -1.543392427265644073e-02 -2.875276096165180206e-02 4.563910514116287231e-02 -1.101144123822450638e-02 3.247935324907302856e-02 1.085357274860143661e-02 2.172717265784740448e-02 -1.073041203198954463e-04 -2.563744224607944489e-02 -2.667948789894580841e-02 2.567717619240283966e-02 1.089720427989959717e-02 1.246380852535367012e-03 3.727236390113830566e-02 2.025222592055797577e-02 9.545458015054464340e-04 9.476643055677413940e-03 5.464173853397369385e-03 5.502944812178611755e-03 1.990038901567459106e-02 7.572968024760484695e-03 -2.163618989288806915e-02 -1.991040073335170746e-02 3.838386014103889465e-02 -2.715737791731953621e-03 3.772772848606109619e-03 -3.218562901020050049e-02 -3.476468101143836975e-02 -3.212258219718933105e-03 -3.118483722209930420e-02 5.794107541441917419e-02 1.279309019446372986e-02 3.199606388807296753e-02 -3.316945955157279968e-02 9.894555434584617615e-03 3.471596937743015587e-05 2.724008867517113686e-03 2.684088237583637238e-02 -6.344579625874757767e-03 -1.540385279804468155e-02 -1.763639389537274837e-03 -1.453663036227226257e-02 4.807650670409202576e-02 3.484439849853515625e-02 5.201018229126930237e-02 -5.642481148242950439e-03 -2.500060386955738068e-02 3.915527462959289551e-02
-2.791394072119146585e-04 -3.315646899864077568e-03 2.485768496990203857e-02 -4.093405976891517639e-02 -4.973062127828598022e-02 1.415378297679126263e-03 1.622070930898189545e-02 -1.255528256297111511e-02 5.875026807188987732e-02 4.008625168353319168e-03 -1.878276653587818146e-02 2.308792248368263245e-02 6.307225557975471020e-04 -1.783285476267337799e-02 7.935685105621814728e-03 1.364808436483144760e-02 7.423322182148694992e-03 -1.127546094357967377e-02 4.111665301024913788e-03 3.729384392499923706e-03 -1.933650858700275421e-02 1.043663825839757919e-02 2.438391931354999542e-02 -1.156024821102619171e-02 -7.689472753554582596e-03 -1.042776741087436676e-03 3.432502225041389465e-02 1.066191401332616806e-02 -1.810121536254882812e-02 1.048116665333509445e-02 5.402809008955955505e-03 1.241507474333047867e-02 3.064022166654467583e-03 -6.572131533175706863e-03 -2.540584281086921692e-02 4.132975637912750244e-02 2.478569000959396362e-02 6.806185469031333923e-03 -2.492409013211727142e-02 4.904233664274215698e-02 1.258542761206626892e-03 -2.877416834235191345e-02 -2.478808350861072540e-02 -4.208540543913841248e-03 3.511931281536817551e-03 -1.366148050874471664e-02 -2.063690125942230225e-02 -4.173939581960439682e-03 -2.215886488556861877e-02 -1.269510202109813690e-02 3.969847038388252258e-02 -1.884725317358970642e-02 -4.928455501794815063e-02 3.908788412809371948e-02 -6.986729800701141357e-03 3.172127157449722290e-02 -2.557527041062712669e-03 3.986931219696998596e-02 -2.429595030844211578e-02 3.465674119070172310e-03 8.189319632947444916e-03 -9.276085533201694489e-03 -2.542502991855144501e-02 5.165180191397666931e-03 3.871238231658935547e-02 -2.803196012973785400e-02 -1.099133398383855820e-02 1.551297679543495178e-02 -5.235670879483222961e-02 -2.472649328410625458e-02 -3.855442861095070839e-03 -1.417213957756757736e-02 -2.665173821151256561e-02 2.194677665829658508e-02 3.290527313947677612e-02 3.443468734622001648e-02 3.402183949947357178e-02 -1.881503313779830933e-02 1.705743931233882904e-02 -1.943689398467540741e-02 -4.799828864634037018e-03 -4.223274439573287964e-02 -6.622250378131866455e-02 -5.132043734192848206e-03 4.543913528323173523e-02 4.228586703538894653e-02 -1.410987321287393570e-02 1.635294035077095032e-02 -6.719785183668136597e-02 5.399006605148315430e-02 1.782600767910480499e-02 -8.428596891462802887e-03 3.064676420763134956e-03 -1.543246954679489136e-02 -2.311025559902191162e-02 -2.978868037462234497e-02 -2.827257849276065826e-02 1.853349432349205017e-02 -1.414652634412050247e-02 2.757101319730281830e-02 4.242157936096191406e-02 -2.018740400671958923e-02 1.132858358323574066e-02 -1.189177017658948898e-02 6.966710090637207031e-02 1.657098531723022461e-02 2.124774642288684845e-02 -9.511533193290233612e-03 1.781900413334369659e-02 -1.136092352680861950e-03 2.766449749469757080e-02 1.974941231310367584e-02 5.453675985336303711e-02 -1.399627700448036194e-02 9.007611311972141266e-03 -1.397035736590623856e-02 5.638861656188964844e-02 8.675049990415573120e-03 -2.755297534167766571e-02 1.936743408441543579e-02 2.776530571281909943e-02 -1.535990368574857712e-02 -3.570508584380149841e-02 1.082626916468143463e-02 2.261756360530853271e-02 3.102033585309982300e-02 -1.602708362042903900e-02 -1.148032117635011673e-02
-1.271999534219503403e-02 -6.754986010491847992e-03 -1.758905127644538879e-03 -1.464761793613433838e-02 -5.368923302739858627e-03 1.505095511674880981e-02 1.373542909277603030e-04 -1.635485328733921051e-02 -4.203959181904792786e-02 6.767658982425928116e-03 1.364520471543073654e-02 -1.363200414925813675e-02 -1.049318443983793259e-02 7.084178179502487183e-02 1.309795305132865906e-02 -3.360965102910995483e-02 1.960861496627330780e-02 4.570794117171317339e-04 -6.093769799917936325e-03 -3.166550770401954651e-02 9.249866008758544922e-03 -6.869845092296600342e-04 -9.000841528177261353e-03 2.751104068011045456e-03 -1.514433138072490692e-02 2.827276289463043213e-02 2.511296421289443970e-02 -5.272512510418891907e-02 -3.576531633734703064e-02 -1.766261830925941467e-02 -5.978215485811233521e-03 1.641478948295116425e-02 -2.351200021803379059e-02 1.361943036317825317e-02 3.694853931665420532e-02 3.141229599714279175e-02 1.642203330993652344e-02 1.982305943965911865e-02 -6.931602954864501953e-02 -2.303016558289527893e-02 4.775124788284301758e-02 -1.642193458974361420e-02 1.398736331611871719e-02 2.048736251890659332e-02 -1.776150241494178772e-02 9.618320502340793610e-03 -2.742191217839717865e-02 -2.134178392589092255e-02 3.196695446968078613e-02 -4.118344280868768692e-03 -3.672860562801361084e-02 -2.689078077673912048e-02 2.088497020304203033e-02 1.830927655100822449e-02 -3.195495903491973877e-02 -5.964294075965881348e-03 1.357687916606664658e-02 -5.334231257438659668e-02 -2.567313611507415771e-02 -5.634585395455360413e-03 -3.797236084938049316e-02 9.236840531229972839e-03 4.770691692829132080e-02 4.113274440169334412e-02 5.805163178592920303e-03 1.048649474978446960e-02 -1.520404033362865448e-02 9.777851402759552002e-03 1.832369714975357056e-02 1.620264351367950439e-02 -7.049551233649253845e-03 5.019979178905487061e-02 4.482828453183174133e-02 7.936863228678703308e-03 -1.355572417378425598e-02 -6.323134060949087143e-03 -2.054706588387489319e-02 6.082722544670104980e-02 1.716114394366741180e-02 7.841824553906917572e-03 -2.450613863766193390e-02 2.229830622673034668e-02 9.887388907372951508e-03 -6.653509289026260376e-02 -1.142225600779056549e-02 3.812917275354266167e-04 4.753420501947402954e-02 3.471517190337181091e-02 1.090075261890888214e-02 -8.696299046277999878e-03 1.120229810476303101e-02 -3.019447252154350281e-02 -3.876381786540150642e-03 1.218291558325290680e-02 -2.114446274936199188e-02 4.470410570502281189e-02 -2.541130967438220978e-02 4.451658111065626144e-03 -6.773549597710371017e-03 -7.847202010452747345e-03 1.339574623852968216e-02 -2.639068476855754852e-02 -1.761567592620849609e-02 2.000820450484752655e-02 -1.693264767527580261e-02 4.238427616655826569e-03 8.015549741685390472e-03 3.724874183535575867e-02 -1.465271599590778351e-02 -1.009316928684711456e-02 3.055465407669544220e-03 -1.912810606881976128e-03 -6.312017887830734253e-02 5.100972205400466919e-02 -7.723193150013685226e-03 2.902094088494777679e-02 -1.100805215537548065e-02 7.022285461425781250e-02 2.082294970750808716e-02 6.491524726152420044e-02 -1.044054795056581497e-02 -5.729039199650287628e-03 1.223588921129703522e-02 -2.366647589951753616e-03 5.190454423427581787e-03 8.808569982647895813e-03 9.145795367658138275e-03 -1.943186484277248383e-02
4.871783312410116196e-03 6.892870180308818817e-03 2.696178294718265533e-02 1.387075404636561871e-03 1.341076102107763290e-03 -5.566648673266172409e-03 3.313816711306571960e-02 1.259690430015325546e-02 -2.721066400408744812e-02 1.025981735438108444e-02 2.341672033071517944e-02 -2.195906266570091248e-02 2.827632939442992210e-03 9.429714642465114594e-03 -2.601197920739650726e-02 -3.501010313630104065e-02 2.581657096743583679e-02 4.349405691027641296e-02 4.442577436566352844e-02 7.878467440605163574e-03 -2.154867909848690033e-02 -7.178613916039466858e-03 2.894127275794744492e-03 -9.403610602021217346e-03 1.937954872846603394e-02 -2.790105529129505157e-02 -1.487975846976041794e-02 -2.953982446342706680e-03 1.700553297996520996e-02 -3.080687485635280609e-02 -2.864917926490306854e-02 -7.899288088083267212e-03 6.038545165210962296e-03 2.192726917564868927e-02 2.121737413108348846e-02 -1.273911446332931519e-02 3.646243363618850708e-02 -1.025363337248563766e-02 -3.661324828863143921e-02 -5.332083441317081451e-03 9.674528613686561584e-03 7.909133099019527435e-03 -3.721843240782618523e-03 -2.887309528887271881e-03 -8.711275644600391388e-03 -2.880814485251903534e-02 1.078998111188411713e-02 1.458292081952095032e-02 -1.787297078408300877e-04 -9.171837940812110901e-03 -3.724507987499237061e-02 2.159677073359489441e-02 -2.342552132904529572e-02 -3.931241226382553577e-04 1.579130068421363831e-02 -6.677351426333189011e-03 1.279405225068330765e-02 -1.699857600033283234e-02 1.992311328649520874e-02 2.198505029082298279e-02 9.519845247268676758e-03 5.664300406351685524e-04 1.244424283504486084e-02 -8.338467217981815338e-03 -1.402009185403585434e-02 -9.211493656039237976e-03 1.457564812153577805e-02 2.053511142730712891e-02 4.031474888324737549e-02 -2.655178541317582130e-03 -3.848435357213020325e-02 -4.665372520685195923e-02 4.830984026193618774e-02 -2.944653667509555817e-02 2.615213626995682716e-03 -9.547848254442214966e-03 -1.697641052305698395e-02 -2.431018836796283722e-02 2.523178979754447937e-02 8.853349834680557251e-03 1.744062639772891998e-02 2.495267242193222046e-02 3.537626191973686218e-02 -1.957775652408599854e-02 5.332473199814558029e-03 -3.356515429913997650e-03 1.488905679434537888e-02 1.076086610555648804e-02 6.091266870498657227e-03 -2.251005358994007111e-02 1.744754426181316376e-02 -8.599363267421722412e-03 -1.736998744308948517e-02 -4.484040662646293640e-03 -1.509412750601768494e-02 -2.902510017156600952e-02 2.235527150332927704e-02 2.714776061475276947e-02 -5.129992030560970306e-03 5.161014851182699203e-03 3.270361199975013733e-02 -6.294871680438518524e-03 -2.225333452224731445e-02 -5.908302497118711472e-03 -3.867340832948684692e-02 3.199485689401626587e-02 -8.106589084491133690e-04 -5.025398568250238895e-04 -1.456582639366388321e-02 -3.089633956551551819e-02 8.594954386353492737e-03 9.593902155756950378e-03 -1.462862710468471050e-03 -2.550899609923362732e-02 2.366856299340724945e-02 3.246163576841354370e-02 2.137875882908701897e-03 -1.177341770380735397e-02 3.021022304892539978e-02 -1.083588413894176483e-02 -9.827923029661178589e-03 -8.870552293956279755e-03 1.214470155537128448e-02 -2.027866803109645844e-02 1.180052570998668671e-02 1.162592787295579910e-02 3.244679793715476990e-02 7.165994495153427124e-03
4.528700932860374451e-02 2.306736074388027191e-02 4.606966301798820496e-02 3.968198318034410477e-03 -8.944010362029075623e-03 4.082480072975158691e-02 4.167335107922554016e-02 -2.992748469114303589e-02 -8.153624832630157471e-03 -2.688062563538551331e-02 3.903971984982490540e-02 -5.858324468135833740e-03 5.108771845698356628e-02 -2.352118259295821190e-03 1.186906825751066208e-03 3.057559207081794739e-02 -2.063811570405960083e-02 5.033833160996437073e-02 3.522768989205360413e-02 3.076301515102386475e-02 2.064715139567852020e-02 -7.364260498434305191e-03 3.091349964961409569e-03 -4.495050385594367981e-02 5.454943701624870300e-02 -1.635720371268689632e-03 -2.206696942448616028e-02 9.463467635214328766e-03 1.033418811857700348e-02 -3.574415575712919235e-03 5.200088489800691605e-03 4.965080320835113525e-02 2.283581066876649857e-03 -1.191282179206609726e-02 2.726615779101848602e-02 2.136278711259365082e-02 -1.265590079128742218e-02 1.912710024043917656e-03 6.173459347337484360e-03 -2.670978009700775146e-02 1.312343776226043701e-02 4.398566484451293945e-02 2.528498508036136627e-02 8.303169161081314087e-04 1.892122626304626465e-02 -3.439966961741447449e-02 -1.593906618654727936e-02 -3.678344655781984329e-03 3.635248541831970215e-02 -8.894258737564086914e-02 -3.755023702979087830e-02 -3.983712196350097656e-02 2.688285894691944122e-02 -3.987974300980567932e-02 -2.502704598009586334e-02 1.028962898999452591e-02 -1.581537723541259766e-02 -2.333582146093249321e-03 -1.878307759761810303e-02 1.069533545523881912e-02 -4.966401960700750351e-03 -1.861636340618133545e-02 -2.589137107133865356e-02 5.527054890990257263e-03 -8.236438035964965820e-03 -3.717523440718650818e-02 2.434210851788520813e-02 2.203509397804737091e-02 2.296457998454570770e-02 5.203714128583669662e-03 3.558504208922386169e-02 -1.916199363768100739e-02 1.538651529699563980e-02 -7.272704504430294037e-03 -1.049838960170745850e-02 -5.302066914737224579e-03 -2.604572847485542297e-02 1.448082365095615387e-02 1.621358841657638550e-02 -3.089430183172225952e-02 3.763827309012413025e-02 4.678292572498321533e-02 2.337834564968943596e-03 -1.696262322366237640e-02 -5.397379864007234573e-03 1.730331219732761383e-02 -4.169567301869392395e-02 1.098507829010486603e-02 9.450501762330532074e-03 3.944687917828559875e-02 -4.256282467395067215e-03 -2.705588936805725098e-03 -2.304976619780063629e-02 5.195896606892347336e-03 -2.320149354636669159e-02 2.389395982027053833e-02 1.318348385393619537e-02 -1.105847861617803574e-02 5.545888561755418777e-03 9.650526568293571472e-03 -2.072736062109470367e-02 -3.597858548164367676e-02 1.276202499866485596e-02 2.628906629979610443e-02 -5.870497599244117737e-02 1.315135788172483444e-02 -1.562109496444463730e-02 1.807259581983089447e-02 -1.983889192342758179e-02 7.905549136921763420e-04 -2.069814875721931458e-02 -2.073943428695201874e-02 -2.614654041826725006e-02 -1.051636505872011185e-02 -1.759305782616138458e-02 3.860630467534065247e-02 -1.725842431187629700e-02 1.609253697097301483e-02 -3.868134319782257080e-02 -4.854467511177062988e-02 1.292011700570583344e-02 1.125129498541355133e-02 6.058002356439828873e-03 -3.778969869017601013e-02 2.036954089999198914e-02 -1.703285798430442810e-02 2.289730310440063477e-02 -2.638091100379824638e-03
1.543383207172155380e-02 -1.188002619892358780e-02 1.150994002819061279e-02 -1.605761423707008362e-02 2.519682794809341431e-02 3.726922720670700073e-02 1.257927529513835907e-02 -3.032974340021610260e-02 -1.228972803801298141e-02 3.252190724015235901e-02 -2.390285255387425423e-03 8.334644138813018799e-03 6.650661677122116089e-02 4.921137169003486633e-02 -6.599431857466697693e-03 -2.790095470845699310e-02 -1.855661347508430481e-02 -5.495879333466291428e-03 1.760076358914375305e-02 5.178058054298162460e-03 -1.616373285651206970e-02 3.605312481522560120e-02 2.832751022651791573e-03 2.142825350165367126e-02 1.564005948603153229e-02 -2.355519495904445648e-02 2.520872652530670166e-02 2.210324071347713470e-02 6.716194003820419312e-02 -3.267640620470046997e-02 -3.440351411700248718e-02 8.089534007012844086e-03 -2.231254987418651581e-02 6.864197552204132080e-02 2.065118961036205292e-02 2.319631166756153107e-02 -2.270216494798660278e-02 -5.527396500110626221e-02 -3.899571485817432404e-03 -3.015927039086818695e-02 2.445505559444427490e-02 5.180104449391365051e-02 -2.134240604937076569e-02 1.146203838288784027e-02 3.526787832379341125e-02 -1.728299073874950409e-02 1.448848657310009003e-02 -9.985147044062614441e-03 -1.268501114100217819e-02 -2.302278578281402588e-02 6.036734208464622498e-03 1.361994189210236073e-03 1.691586710512638092e-02 -3.877089824527502060e-03 5.220171064138412476e-02 -4.579845443367958069e-02 -1.473383232951164246e-02 -2.437268011271953583e-02 -1.018981542438268661e-02 1.889955950900912285e-03 -1.461082138121128082e-02 -3.747261688113212585e-02 -3.781747771427035332e-03 2.950847335159778595e-02 2.673339284956455231e-02 3.611828899011015892e-03 2.018809551373124123e-03 -2.310748398303985596e-02 -1.245946623384952545e-02 8.578457636758685112e-04 3.239868208765983582e-02 -2.972481027245521545e-02 8.197416551411151886e-03 -2.293835766613483429e-02 3.624430159106850624e-03 -2.872757986187934875e-02 1.391768362373113632e-02 -1.016773283481597900e-03 2.425236627459526062e-02 -3.269201260991394520e-04 -4.704677034169435501e-03 -1.904377900063991547e-02 3.588405624032020569e-02 2.270891517400741577e-02 -2.602261677384376526e-02 -8.281634189188480377e-03 -1.905441097915172577e-02 2.334325946867465973e-02 2.733480744063854218e-02 -1.511116325855255127e-02 1.912268996238708496e-02 -1.786596328020095825e-02 3.395546227693557739e-02 2.852068096399307251e-02 -5.453601107001304626e-02 -8.735600858926773071e-03 -9.355209767818450928e-03 -3.431834280490875244e-02 2.851241827011108398e-02 2.055738819763064384e-03 1.530337333679199219e-02 -1.941600628197193146e-02 -2.794922888278961182e-02 -8.323103189468383789e-03 1.040515396744012833e-02 -8.805423043668270111e-03 -1.458470243960618973e-02 -3.355309367179870605e-02 2.548987232148647308e-02 3.706149011850357056e-02 -2.702350914478302002e-02 -6.243528332561254501e-03 -8.405419997870922089e-03 -2.013025805354118347e-02 -2.521132305264472961e-02 -1.737778633832931519e-02 1.143357437103986740e-02 -3.897864371538162231e-02 1.496594585478305817e-02 1.592574873939156532e-03 -1.338982954621315002e-03 2.976328320801258087e-02 -2.232435718178749084e-02 3.234688192605972290e-02 -1.899834536015987396e-02 -2.896151738241314888e-03 -1.800983771681785583e-02 2.716924250125885010e-02
3.441991657018661499e-02 3.501400724053382874e-02 -2.087500318884849548e-02 5.000879615545272827e-02 8.963964064605534077e-04 2.583918161690235138e-02 -1.868604123592376709e-02 1.549224276095628738e-02 -2.939787879586219788e-02 -9.855221956968307495e-03 1.829370041377842426e-03 -1.593089662492275238e-02 -2.181658986955881119e-03 3.417750354856252670e-03 -1.100537087768316269e-02 4.293403401970863342e-02 -6.795108318328857422e-03 1.961842738091945648e-02 8.682179613970220089e-04 -6.482665240764617920e-02 -1.449138019233942032e-02 -7.088708132505416870e-02 -2.734161727130413055e-02 4.707460477948188782e-02 -7.387570105493068695e-03 -1.339469198137521744e-02 1.028250344097614288e-02 4.563724622130393982e-03 -2.552067860960960388e-02 -3.883974999189376831e-02 2.542150765657424927e-02 -3.616624698042869568e-02 -3.150513023138046265e-02 -2.939274348318576813e-02 5.519100278615951538e-02 -1.617788523435592651e-02 -2.543814852833747864e-02 2.759367227554321289e-02 1.482709310948848724e-02 3.595081344246864319e-02 -2.207011729478836060e-02 1.494944095611572266e-02 -1.058277674019336700e-02 -1.868951693177223206e-02 1.206353888846933842e-03 1.745325513184070587e-02 2.978651318699121475e-03 -1.736022531986236572e-02 -1.673701032996177673e-02 -1.164109259843826294e-02 -2.201897092163562775e-03 8.865593001246452332e-03 3.003811277449131012e-02 3.771174326539039612e-02 -4.925659857690334320e-03 6.885156035423278809e-04 4.643534496426582336e-02 -1.706996932625770569e-02 -1.177610550075769424e-02 -3.551640734076499939e-02 -2.008579671382904053e-02 -1.020752172917127609e-02 -4.827836994081735611e-03 4.709762707352638245e-02 2.687480766326189041e-03 4.823740944266319275e-02 -2.229605987668037415e-02 -5.897819250822067261e-02 5.971878999844193459e-04 2.071783505380153656e-02 4.352803900837898254e-02 -9.911281056702136993e-03 -2.833479456603527069e-02 9.899959899485111237e-03 -5.761776119470596313e-02 2.855683676898479462e-02 2.942223288118839264e-02 -1.515634171664714813e-02 -2.188640646636486053e-02 2.856565266847610474e-02 -6.554881576448678970e-03 2.782749570906162262e-02 -1.441654283553361893e-02 -8.227316662669181824e-03 -8.793015033006668091e-03 6.326333153992891312e-03 -1.688883081078529358e-02 -5.870396643877029419e-02 -9.261839091777801514e-03 1.447439845651388168e-02 -7.290854305028915405e-02 1.208269875496625900e-02 -1.227180473506450653e-02 -3.889721632003784180e-02 9.866287931799888611e-03 -2.330884337425231934e-02 2.404971420764923096e-02 -2.618194185197353363e-02 -2.693256177008152008e-02 -4.917781427502632141e-02 7.165967952460050583e-03 -2.124190144240856171e-02 2.524989284574985504e-02 -2.242280356585979462e-02 -3.789611533284187317e-02 -4.227653518319129944e-02 5.501466989517211914e-02 4.751315340399742126e-02 -2.105361595749855042e-02 1.897244155406951904e-02 -2.604173682630062103e-02 -1.529246475547552109e-02 3.431827947497367859e-02 2.361225197091698647e-03 -4.389847442507743835e-02 -1.712250337004661560e-02 -2.061835117638111115e-02 1.376708736643195152e-03 3.600915148854255676e-02 1.165504683740437031e-03 -7.217955775558948517e-03 2.177939750254154205e-02 1.546419318765401840e-02 -5.213139206171035767e-02 -9.766337461769580841e-03 4.846142604947090149e-02 -1.317015965469181538e-03 3.425987437367439270e-02
-2.582836151123046875e-02 2.331243827939033508e-02 4.526919126510620117e-02 9.497594437561929226e-04 2.715317904949188232e-02 -1.952211745083332062e-02 -2.322109229862689972e-02 -2.297254092991352081e-02 -6.896413862705230713e-03 1.663804240524768829e-02 4.397144168615341187e-02 -2.852832712233066559e-02 4.889938863925635815e-04 9.435391053557395935e-03 -1.473512966185808182e-02 -1.547557534649968147e-03 4.109159857034683228e-02 -1.197410561144351959e-02 2.554779872298240662e-02 -2.811877755448222160e-03 1.009881123900413513e-02 1.001992356032133102e-02 2.983287675306200981e-03 1.588860759511590004e-03 4.322598222643136978e-03 -1.336668524891138077e-02 -1.876217313110828400e-02 -3.187027294188737869e-03 6.806635065004229546e-04 -2.000455930829048157e-02 -3.446285380050539970e-03 -2.842920599505305290e-03 4.087376408278942108e-03 1.113665057346224785e-04 -2.309440076351165771e-02 -1.276913192123174667e-02 -1.422895118594169617e-02 -3.859648481011390686e-02 -2.764137927442789078e-03 -4.578579962253570557e-02 -2.295867726206779480e-02 -2.649788744747638702e-03 1.701193489134311676e-02 -6.078222766518592834e-03 1.188387814909219742e-02 -4.635783284902572632e-02 -8.759100921452045441e-03 -1.707663573324680328e-02 1.946356892585754395e-02 3.298941999673843384e-03 -3.207530826330184937e-02 5.708423443138599396e-03 -1.871503703296184540e-02 -2.419355092570185661e-03 1.561655756086111069e-02 -1.053440570831298828e-02 1.089096162468194962e-02 -1.205402612686157227e-02 -3.284392645582556725e-03 3.645029664039611816e-02 2.364278770983219147e-03 -6.042827665805816650e-02 2.132393419742584229e-02 -2.987590618431568146e-03 -1.000854000449180603e-02 3.806063160300254822e-02 8.084096014499664307e-03 1.292602624744176865e-02 1.856342144310474396e-02 4.272300284355878830e-03 5.253008566796779633e-03 1.849754154682159424e-02 2.358303219079971313e-02 1.626478321850299835e-02 3.192431852221488953e-02 1.202694955281913280e-03 -1.106109656393527985e-02 -4.961484670639038086e-02 -9.761412627995014191e-03 3.486771136522293091e-02 3.370642662048339844e-04 1.553307007998228073e-02 5.720205232501029968e-02 -5.913174245506525040e-03 -3.369413316249847412e-02 -4.475004971027374268e-03 5.578585434705018997e-03 -1.838045567274093628e-02 1.444004289805889130e-02 -2.791338413953781128e-02 -8.505589794367551804e-04 2.565735951066017151e-02 1.390843279659748077e-02 -2.254666574299335480e-02 -1.710565760731697083e-02 3.128094365820288658e-03 -6.970869842916727066e-03 5.665106698870658875e-02 3.411192819476127625e-02 4.052445758134126663e-03 -1.001206506043672562e-02 -3.825125843286514282e-02 2.105827443301677704e-03 1.587662100791931152e-02 -3.084406256675720215e-02 -3.133975714445114136e-02 -7.162045687437057495e-02 -1.745552383363246918e-02 1.587631739675998688e-02 4.680531844496726990e-02 3.080538008362054825e-04 -2.646856242790818214e-03 -1.030566170811653137e-02 -1.247115060687065125e-02 1.336252503097057343e-02 -4.731222614645957947e-02 -3.743121400475502014e-02 -1.682622358202934265e-02 -6.794706918299198151e-03 -3.303478471934795380e-03 2.009208127856254578e-02 -6.118347402662038803e-03 4.573109745979309082e-02 1.562405610457062721e-03 -1.552263274788856506e-03 1.817935891449451447e-02 7.314613461494445801e-02 1.074607949703931808e-02
