1.555088721215724945e-02 3.377979993820190430e-02 4.270396195352077484e-03 -4.781585186719894409e-03 -1.418487075716257095e-02 -2.500109747052192688e-02 4.036089405417442322e-02 -2.018496394157409668e-02 -3.659501671791076660e-02 -3.086529206484556198e-03 3.672504425048828125e-02 9.838887490332126617e-03 -2.221155213192105293e-03 2.673807926476001740e-02 -1.334331464022397995e-03 -1.340957451611757278e-02 -2.780481800436973572e-02 3.955897875130176544e-03 -8.153147064149379730e-03 1.382248010486364365e-03 -1.538557652384042740e-02 1.322175469249486923e-02 -6.754558999091386795e-03 2.391605870798230171e-03 1.474183984100818634e-02 -1.646528020501136780e-02 2.108117192983627319e-02 -3.087722696363925934e-03 5.733156576752662659e-03 1.783323474228382111e-02 9.229458868503570557e-03 1.195703726261854172e-02 -2.042098343372344971e-02 -1.073481421917676926e-02 6.517037749290466309e-03 9.866171516478061676e-03 -1.102524623274803162e-02 1.747294701635837555e-02 -2.141195908188819885e-02 -7.134250365197658539e-03 -9.583890438079833984e-03 -1.728127128444612026e-03 -1.714440062642097473e-02 1.434940192848443985e-02 2.262768708169460297e-02 -3.227001056075096130e-02 4.197771660983562469e-03 1.364502403885126114e-02 3.107810392975807190e-02 -7.930282503366470337e-03 -1.660213246941566467e-02 -1.976603455841541290e-02 -2.562647499144077301e-02 -1.407594885677099228e-02 -1.081043854355812073e-02 -8.666825480759143829e-03 -3.161619976162910461e-02 -2.288094162940979004e-02 -6.808733567595481873e-03 -1.314152870327234268e-02 -2.259272336959838867e-02 4.231383278965950012e-02 7.828020490705966949e-03 -8.535588131053373218e-05 -5.504391156136989594e-03 -3.540664166212081909e-02 2.007690782193094492e-04 9.888958185911178589e-03 -3.299680305644869804e-03 -3.127076895907521248e-03 -5.665784701704978943e-03 -8.165434934198856354e-03 -1.847468083724379539e-03 -6.075658649206161499e-02 -2.306412206962704659e-03 -2.888573333621025085e-02 9.443677961826324463e-03 2.504460699856281281e-02 -1.474535837769508362e-02 -4.819194972515106201e-02 -6.852130405604839325e-03 -4.031976684927940369e-02 -9.987759403884410858e-03 -3.505264222621917725e-02 -2.134508825838565826e-02 -1.054443232715129852e-02 -1.088278647512197495e-02 -9.957438334822654724e-03 -5.656371358782052994e-03 2.995908260345458984e-02 -5.429555196315050125e-03 -3.858700394630432129e-02 -1.759420149028301239e-02 8.915197104215621948e-03 1.230094395577907562e-02 -3.044033073820173740e-04 3.464651759713888168e-03 1.130282692611217499e-02 1.374191977083683014e-02 -9.235506877303123474e-03 -2.417322434484958649e-02 1.590986363589763641e-02 -1.187199074774980545e-02 -5.856237374246120453e-03 -2.529676631093025208e-02 2.320092916488647461e-02 1.603640057146549225e-02 -6.722333841025829315e-03 -2.538465522229671478e-02 -1.698103547096252441e-02 -1.545651350170373917e-02 -2.347293123602867126e-02 -2.755441516637802124e-02 1.353317406028509140e-03 -3.783363476395606995e-02 3.112947568297386169e-02 -1.134819351136684418e-02 1.490672864019870758e-02 7.030037697404623032e-03 -7.374342065304517746e-03 -2.614586614072322845e-02 -1.268345490097999573e-02 -1.821274496614933014e-02 1.113557070493698120e-02 -3.914408851414918900e-03 -3.089780919253826141e-02 8.589038625359535217e-03 -1.311863400042057037e-02
8.095354773104190826e-03 2.802622504532337189e-02 1.000920310616493225e-02 -1.184262707829475403e-02 -1.215814985334873199e-02 -1.507902424782514572e-02 1.106054242700338364e-02 -2.810018137097358704e-02 -2.276294119656085968e-02 -2.460344880819320679e-02 2.415723400190472603e-03 4.127425607293844223e-03 7.497689686715602875e-03 1.137082185596227646e-02 -8.851539343595504761e-03 5.264056380838155746e-03 7.046332582831382751e-03 2.162817493081092834e-02 9.909567423164844513e-03 1.135379727929830551e-02 8.406385779380798340e-03 -1.163127180188894272e-02 3.793376684188842773e-02 -7.255675736814737320e-03 1.072048209607601166e-02 -7.819596678018569946e-03 1.248972490429878235e-02 -2.417019801214337349e-03 1.329519413411617279e-02 3.314117342233657837e-02 2.643531188368797302e-02 1.828106492757797241e-02 -1.404008455574512482e-02 -4.520718473941087723e-03 1.150986645370721817e-02 1.278085447847843170e-02 1.817973330616950989e-02 2.087792754173278809e-02 3.304883092641830444e-02 1.913675852119922638e-02 1.541393715888261795e-02 2.152526564896106720e-02 2.813342260196805000e-03 -4.208183661103248596e-02 -1.394317805534228683e-04 3.394566942006349564e-03 -2.274923026561737061e-02 -2.620171941816806793e-02 1.374513376504182816e-03 1.189495157450437546e-02 -2.328745275735855103e-02 1.439316291362047195e-02 1.030188519507646561e-02 8.214566856622695923e-03 -1.566340588033199310e-02 -1.930254884064197540e-02 2.843063790351152420e-03 9.817906655371189117e-03 -2.338843187317252159e-03 1.940614543855190277e-02 4.643123131245374680e-03 -1.586949266493320465e-02 -5.193299148231744766e-03 3.262000158429145813e-02 3.374588210135698318e-03 -4.827496130019426346e-03 6.046123802661895752e-03 -1.333555951714515686e-02 -1.023855991661548615e-02 -6.599891930818557739e-03 3.896505758166313171e-02 7.802966982126235962e-03 3.484493494033813477e-02 -1.063983328640460968e-02 2.755646966397762299e-02 5.658222362399101257e-02 -1.016260869801044464e-02 8.844370022416114807e-03 2.381239319220185280e-03 -5.883857607841491699e-03 -1.850163377821445465e-02 3.342489153146743774e-02 3.162677958607673645e-02 -1.471124403178691864e-02 1.099406834691762924e-02 1.940116845071315765e-02 1.401839498430490494e-02 -1.175638847053050995e-02 3.400116786360740662e-02 -7.436356972903013229e-03 4.015079233795404434e-03 1.916231773793697357e-02 1.062083616852760315e-02 -2.765122987329959869e-02 -6.892272736877202988e-03 2.222814783453941345e-02 -3.915539942681789398e-03 -1.517055928707122803e-02 3.068492934107780457e-02 1.714340224862098694e-02 -1.168574579060077667e-02 -1.952080242335796356e-02 1.809984818100929260e-02 5.155099090188741684e-03 -1.905568502843379974e-02 -3.165163099765777588e-03 -4.216702654957771301e-02 -2.108177170157432556e-02 -1.937568187713623047e-02 -3.488616785034537315e-03 2.533024735748767853e-02 5.135232210159301758e-02 1.313028112053871155e-02 -1.086566783487796783e-02 -2.457044087350368500e-03 3.101055324077606201e-02 -3.037107735872268677e-02 -2.577484818175435066e-03 -3.624928370118141174e-02 -1.940195797942578793e-03 3.328131046146154404e-03 -2.222157549113035202e-03 5.450468044728040695e-03 -2.195788361132144928e-02 1.520987879484891891e-02 6.520169973373413086e-02 2.673633024096488953e-02 3.077441360801458359e-03
-6.834608037024736404e-03 -8.885864168405532837e-03 1.088471896946430206e-02 1.770207658410072327e-02 -2.954443357884883881e-02 -1.044111605733633041e-02 -4.160328209400177002e-02 -1.799420267343521118e-02 3.220682963728904724e-02 -2.047505415976047516e-02 1.695882529020309448e-02 2.262440137565135956e-02 5.350942537188529968e-02 -3.428021445870399475e-02 3.317945823073387146e-02 2.444672212004661560e-02 -4.554278217256069183e-03 -1.739845052361488342e-02 -1.822705566883087158e-02 2.103842096403241158e-03 -1.416191551834344864e-02 3.051150415558367968e-04 1.646058820188045502e-02 -1.105486508458852768e-02 -1.366816461086273193e-02 7.741606328636407852e-03 2.482369355857372284e-02 -2.380611933767795563e-02 -2.056058309972286224e-02 -2.449048683047294617e-02 1.338705606758594513e-02 -2.045738324522972107e-02 1.946552470326423645e-02 -1.921807229518890381e-02 -3.902938589453697205e-02 3.483878448605537415e-02 9.088899940252304077e-03 2.411647513508796692e-02 2.378453128039836884e-02 -8.457470685243606567e-03 -4.875924903899431229e-03 1.262488029897212982e-02 -1.798469014465808868e-02 3.090247511863708496e-03 1.530595868825912476e-02 -2.345595881342887878e-02 -3.679173067212104797e-02 -3.005295619368553162e-02 -4.677398130297660828e-03 3.173055360093712807e-03 3.504902124404907227e-02 1.435491815209388733e-02 -3.208200633525848389e-02 -1.687718555331230164e-02 -3.092714818194508553e-03 1.699327118694782257e-02 1.522377226501703262e-02 -2.339718677103519440e-02 3.278795164078474045e-03 -2.585978247225284576e-02 -3.396009653806686401e-02 -3.919214382767677307e-02 -2.877620607614517212e-02 -2.211200771853327751e-03 -1.355601754039525986e-02 1.274588052183389664e-02 -3.873235359787940979e-02 1.373573858290910721e-02 -2.086693234741687775e-02 -1.072354707866907120e-02 -1.350599806755781174e-03 -1.144774258136749268e-02 -1.445821858942508698e-02 3.205268830060958862e-02 2.292641205713152885e-03 -9.246925823390483856e-03 5.445718299597501755e-03 -5.000911653041839600e-03 3.720539156347513199e-03 -2.416877308860421181e-03 1.898996718227863312e-02 -1.346921268850564957e-02 -3.161130705848336220e-03 1.083771977573633194e-02 -1.835218258202075958e-02 3.888542950153350830e-02 -3.297874238342046738e-03 -2.129176445305347443e-02 -1.930467225611209869e-02 4.237056896090507507e-02 6.005847360938787460e-03 1.744326204061508179e-02 -1.390067022293806076e-02 -3.381094662472605705e-03 -7.056516595184803009e-03 -3.431178256869316101e-02 3.785940259695053101e-02 1.152111776173114777e-02 -4.217353090643882751e-02 -2.225471101701259613e-02 -3.421702887862920761e-03 -3.647865960374474525e-03 -3.562595695257186890e-03 -2.068817801773548126e-02 8.924490772187709808e-03 7.776813115924596786e-03 -8.996804244816303253e-03 -3.448637947440147400e-02 2.127568610012531281e-02 -5.081029958091676235e-04 3.115691803395748138e-02 2.314758952707052231e-03 1.646792516112327576e-02 2.400978002697229385e-03 1.798806898295879364e-02 -4.465241730213165283e-02 2.749751880764961243e-02 -3.374151140451431274e-02 1.643805019557476044e-02 -2.958536706864833832e-02 -1.138319633901119232e-02 -7.191140204668045044e-03 -1.027821283787488937e-02 1.083679683506488800e-02 -2.233095280826091766e-02 2.372417971491813660e-02 -1.394471898674964905e-02 -1.251151040196418762e-02
2.402232401072978973e-02 8.881232701241970062e-03 -3.721742704510688782e-02 -3.907707333564758301e-02 -2.736677182838320732e-03 2.664702944457530975e-03 1.260018162429332733e-02 -2.316932892426848412e-03 -1.367198769003152847e-02 4.589613899588584900e-02 -3.090493194758892059e-02 -1.717556267976760864e-02 -1.807341724634170532e-02 -9.489150717854499817e-03 1.002587191760540009e-02 -2.354428172111511230e-03 -1.423711073584854603e-03 2.078817971050739288e-02 4.292469006031751633e-03 -3.773912042379379272e-02 1.525190565735101700e-02 5.375221744179725647e-02 1.706848107278347015e-02 3.786729648709297180e-02 1.992056611925363541e-03 2.394523099064826965e-02 6.065841019153594971e-02 2.619384974241256714e-02 2.920493716374039650e-03 -1.468964852392673492e-02 -3.760361811146140099e-03 2.526446059346199036e-02 -4.160418733954429626e-02 2.475276030600070953e-02 7.240673992782831192e-03 -1.945239119231700897e-02 1.673416607081890106e-02 1.990018039941787720e-02 3.904042765498161316e-03 -3.283615037798881531e-02 3.263178979977965355e-03 -1.107554696500301361e-02 -1.363592105917632580e-03 -4.619939997792243958e-02 -3.358131647109985352e-02 -5.491584539413452148e-03 -1.454833149909973145e-02 -1.741918548941612244e-02 6.597143132239580154e-03 6.279469933360815048e-03 3.878185292705893517e-03 -4.782836884260177612e-03 -1.609156467020511627e-02 2.548040635883808136e-02 8.929053321480751038e-03 1.333871390670537949e-02 -6.938766222447156906e-03 -2.336969785392284393e-02 3.436683327890932560e-04 -9.352570399641990662e-03 -1.106922328472137451e-02 2.211122959852218628e-02 -3.354409337043762207e-02 -3.117498941719532013e-03 -3.648912534117698669e-02 2.460828796029090881e-02 -8.777542039752006531e-03 -1.001935079693794250e-02 7.275795796886086464e-04 4.123346135020256042e-02 3.130943328142166138e-02 -1.220006588846445084e-02 1.437765453010797501e-02 -2.318223752081394196e-02 -6.458049267530441284e-02 -2.877131290733814240e-02 1.552561111748218536e-02 9.534628130495548248e-03 -1.418991200625896454e-02 1.566226594150066376e-02 5.205835774540901184e-02 1.125877816230058670e-02 -6.686864420771598816e-03 2.169028483331203461e-02 -2.777427993714809418e-02 1.803754270076751709e-02 1.556283887475728989e-02 -3.238056600093841553e-02 -4.659158643335103989e-03 -7.908991537988185883e-03 -2.545745344832539558e-03 1.223206333816051483e-02 6.222566589713096619e-03 6.177752744406461716e-03 5.947164259850978851e-03 -1.857715193182229996e-03 -7.275581010617315769e-04 -3.336038906127214432e-03 5.340701434761285782e-03 -2.066872315481305122e-03 -3.584997029975056648e-03 -1.225841231644153595e-02 -7.169988472014665604e-03 -1.919848471879959106e-02 -1.644689403474330902e-02 1.083581708371639252e-03 -1.608909294009208679e-02 1.431609317660331726e-02 -4.120264202356338501e-03 2.587555907666683197e-02 -5.035595502704381943e-03 1.551150716841220856e-02 8.737795986235141754e-03 -2.403340488672256470e-02 4.769428633153438568e-03 -3.305347869172692299e-03 -2.418754436075687408e-02 -1.158358994871377945e-02 -1.147384475916624069e-02 -2.543559297919273376e-02 2.121316734701395035e-03 -4.194687679409980774e-02 -3.342870855703949928e-03 -2.594007924199104309e-02 -3.039737977087497711e-02 5.177082959562540054e-03 4.375015385448932648e-03 2.110244706273078918e-02
-9.231910109519958496e-03 -5.165216512978076935e-03 -1.568943075835704803e-02 -2.257832325994968414e-02 2.499634027481079102e-02 5.627466831356287003e-03 -1.135153137147426605e-02 -1.192903611809015274e-02 3.174630925059318542e-03 -4.594697058200836182e-02 2.778691053390502930e-02 9.835546836256980896e-03 5.286677624098956585e-04 2.990410104393959045e-02 -3.400589525699615479e-02 -2.108637616038322449e-02 -4.079608991742134094e-02 2.056616917252540588e-02 1.489990111440420151e-02 -3.810576349496841431e-02 -4.648616071790456772e-03 2.949218265712261200e-02 -2.750108949840068817e-02 2.316179126501083374e-02 -1.766383461654186249e-02 1.240161154419183731e-02 -2.214115113019943237e-02 3.379981219768524170e-02 -1.647179946303367615e-02 1.045009959489107132e-02 -3.428485943004488945e-03 -4.130952525883913040e-03 -5.386124178767204285e-02 2.138095907866954803e-02 -8.335178717970848083e-03 1.168910879641771317e-02 1.377456728368997574e-02 2.413582289591431618e-03 3.307440876960754395e-02 2.307933382689952850e-02 -2.147023938596248627e-02 -3.016737289726734161e-02 1.472230814397335052e-02 2.098927088081836700e-02 -4.937638062983751297e-03 -2.587243355810642242e-02 1.195536693558096886e-03 -1.131998468190431595e-02 3.339958935976028442e-02 1.552706025540828705e-02 7.731791702099144459e-04 3.123093023896217346e-02 -1.594710163772106171e-02 -2.707645529881119728e-03 2.711170120164752007e-03 -1.484655123203992844e-02 -1.143524516373872757e-02 1.825104467570781708e-02 -3.835387527942657471e-02 -1.061574555933475494e-03 -1.553029380738735199e-02 -3.992536570876836777e-03 -4.146384820342063904e-02 -3.368934988975524902e-02 -4.402316734194755554e-02 -3.241308033466339111e-02 2.256493642926216125e-02 -3.621369600296020508e-03 1.415959466248750687e-02 2.223744429647922516e-02 3.499195724725723267e-02 -3.691845387220382690e-02 2.182486839592456818e-02 1.657182350754737854e-02 2.892941609025001526e-02 1.468428503721952438e-02 -8.704192936420440674e-03 1.233872119337320328e-02 -2.444172278046607971e-03 4.976810421794652939e-03 3.633522195741534233e-03 -1.744804903864860535e-02 -2.938353456556797028e-02 1.238315738737583160e-02 1.232257205992937088e-02 -3.456822596490383148e-03 -2.036005817353725433e-02 3.915737906936556101e-04 -1.229140069335699081e-02 -3.076526522636413574e-02 -2.450835332274436951e-02 1.541568432003259659e-02 9.801140986382961273e-03 -3.535774350166320801e-02 -1.405122224241495132e-02 3.382846713066101074e-02 -1.034978963434696198e-02 2.577589638531208038e-02 3.164048120379447937e-02 -1.217046752572059631e-02 -3.402440994977951050e-02 1.176957413554191589e-02 3.921244665980339050e-02 1.039410661906003952e-02 -7.403891650028526783e-04 2.061001211404800415e-02 1.096103340387344360e-02 -1.151517406105995178e-02 3.344617784023284912e-03 4.290812183171510696e-03 2.827610075473785400e-02 -3.355063125491142273e-02 2.453501150012016296e-02 1.080322358757257462e-02 -9.082872420549392700e-03 -3.057792782783508301e-03 -6.921239662915468216e-03 -3.171028941869735718e-02 5.399275105446577072e-03 -1.991663500666618347e-02 -2.600369602441787720e-02 -1.074080076068639755e-02 3.291319310665130615e-02 -1.973295398056507111e-02 1.195176225155591965e-02 1.858085207641124725e-02 2.817157423123717308e-03 2.082453668117523193e-02
-1.344708912074565887e-02 6.779133807867765427e-03 1.129364874213933945e-02 1.596821285784244537e-02 1.779077388346195221e-02 9.067586623132228851e-03 1.120342966169118881e-02 -2.076137065887451172e-02 -1.659656129777431488e-02 -1.266586873680353165e-02 9.718495421111583710e-03 -2.238664217293262482e-02 -7.528634741902351379e-04 4.549964331090450287e-03 -5.653555039316415787e-03 -2.520678006112575531e-02 -1.980390585958957672e-02 -2.337571233510971069e-02 -6.711318157613277435e-03 -4.234296269714832306e-03 -1.372540276497602463e-02 1.182876247912645340e-02 -4.995167627930641174e-02 -4.849782679229974747e-03 -1.311880443245172501e-02 -4.799130931496620178e-02 3.901714086532592773e-02 6.365578155964612961e-04 -4.102944955229759216e-02 -1.926884986460208893e-02 -8.717542514204978943e-03 2.473945729434490204e-02 1.093405578285455704e-02 6.594453938305377960e-03 -9.786699898540973663e-03 2.725191973149776459e-02 2.300423337146639824e-03 -2.195562794804573059e-02 1.218577940016984940e-02 9.183572605252265930e-03 -8.875628001987934113e-03 2.998955547809600830e-02 -1.866092532873153687e-02 -6.443383172154426575e-03 -4.994838498532772064e-03 2.918819151818752289e-02 1.814590184949338436e-03 1.076852157711982727e-02 2.242424711585044861e-02 -2.212812396464869380e-04 -6.866391282528638840e-03 2.139003947377204895e-02 -2.992536313831806183e-02 1.855858601629734039e-02 6.115911062806844711e-03 -3.368222387507557869e-03 5.341263860464096069e-02 -2.418316900730133057e-02 -4.906555172055959702e-03 2.443179255351424217e-03 -4.753034934401512146e-02 -1.999637857079505920e-02 1.669652876444160938e-03 1.755351014435291290e-02 -2.814801037311553955e-02 4.109134152531623840e-02 3.287150338292121887e-02 -1.391967572271823883e-02 4.948380962014198303e-02 -1.164407841861248016e-02 1.635165885090827942e-02 1.724439859390258789e-02 8.897997438907623291e-03 -6.353790871798992157e-03 -1.116989646106958389e-03 -1.525636296719312668e-02 -3.945156640838831663e-04 2.465046755969524384e-02 -2.349169738590717316e-02 3.866347949951887131e-03 3.472856804728507996e-02 3.857240313664078712e-03 -1.028105383738875389e-03 -2.535315230488777161e-02 2.389499731361865997e-02 -5.908233113586902618e-03 1.503549981862306595e-02 1.833819970488548279e-02 1.086327247321605682e-02 -7.624798454344272614e-03 -2.611665986478328705e-02 -2.811447717249393463e-02 -7.476294413208961487e-03 4.433927591890096664e-03 -2.517979778349399567e-02 3.131340816617012024e-02 -9.190591052174568176e-03 -9.361984208226203918e-03 -9.510300005786120892e-04 -2.459867298603057861e-02 -1.704535912722349167e-03 1.961024291813373566e-02 2.174662984907627106e-02 -1.350484089925885201e-03 -2.276097238063812256e-02 2.558610960841178894e-02 -3.853983804583549500e-02 3.027611598372459412e-02 -1.855889894068241119e-02 4.731577355414628983e-03 9.877534583210945129e-03 2.560503198765218258e-04 -9.384823031723499298e-03 4.189852625131607056e-02 5.551487673074007034e-03 6.177328061312437057e-03 -2.582423202693462372e-02 3.807606641203165054e-03 -1.642606407403945923e-02 1.014017127454280853e-02 -5.560155492275953293e-03 -3.532031551003456116e-02 5.552379786968231201e-02 -1.982447318732738495e-02 7.125657866708934307e-04 -1.065360009670257568e-02 3.091620281338691711e-03 1.602875255048274994e-02
1.185536757111549377e-02 -3.643738105893135071e-02 9.182013571262359619e-03 2.236428670585155487e-02 1.765608973801136017e-02 2.268764562904834747e-02 -9.746849536895751953e-03 -1.685084030032157898e-02 -7.526745554059743881e-03 -1.618480123579502106e-02 3.704870492219924927e-02 9.522707201540470123e-03 -8.990770438686013222e-04 2.067798189818859100e-02 -3.210553526878356934e-02 -1.464778184890747070e-02 -6.166503299027681351e-03 2.520641684532165527e-02 -2.371243573725223541e-02 -1.268467959016561508e-02 2.306040376424789429e-03 -2.256620116531848907e-02 -5.786389112472534180e-03 3.657151944935321808e-03 8.092509582638740540e-03 1.160804461687803268e-02 -1.541705452837049961e-03 -3.502907603979110718e-02 -6.133676972240209579e-03 2.027727197855710983e-03 2.034366130828857422e-02 2.838064916431903839e-02 -4.248443059623241425e-03 -3.658203780651092529e-02 4.666128661483526230e-03 -9.174947044812142849e-04 9.036536794155836105e-04 -8.910442702472209930e-03 3.613943001255393028e-03 2.512292005121707916e-02 -2.554400078952312469e-02 -4.587290808558464050e-03 -2.648531273007392883e-02 3.166471794247627258e-02 -2.365806698799133301e-02 1.236288435757160187e-02 2.674284391105175018e-03 -1.362226530909538269e-02 -1.701296307146549225e-03 -2.516573294997215271e-02 6.729910615831613541e-03 1.984046213328838348e-02 -3.974610473960638046e-03 -8.989850059151649475e-03 -1.434506475925445557e-02 -4.743798822164535522e-02 3.132945671677589417e-02 -1.939564198255538940e-02 1.807158254086971283e-02 -3.017589449882507324e-03 6.025180686265230179e-03 -9.455162100493907928e-03 1.674558408558368683e-02 -1.226267684251070023e-02 1.933515258133411407e-02 2.516868989914655685e-03 3.352513909339904785e-02 -1.250311452895402908e-02 1.662945561110973358e-02 -1.772147789597511292e-02 -6.870822980999946594e-03 2.108932286500930786e-02 -1.525126677006483078e-02 4.126156494021415710e-02 6.267931777983903885e-03 -4.002328030765056610e-03 4.178822040557861328e-02 3.590930253267288208e-03 -1.628201454877853394e-03 -1.416823919862508774e-02 -6.048138812184333801e-02 -1.832262054085731506e-02 1.200408861041069031e-02 -3.232404589653015137e-03 1.868764683604240417e-02 -1.649809564696624875e-05 3.536943346261978149e-02 -4.389372467994689941e-02 8.606893243268132210e-04 5.251258984208106995e-02 -2.285455726087093353e-02 4.511665180325508118e-02 6.292670499533414841e-03 -1.202257350087165833e-02 -1.493396889418363571e-02 2.366094104945659637e-02 1.918530836701393127e-02 -4.816281422972679138e-02 9.110513143241405487e-03 -3.424447029829025269e-02 -8.286363445222377777e-03 -1.660447381436824799e-02 -9.195361286401748657e-03 -1.797426957637071609e-03 1.120957545936107635e-02 -1.490743830800056458e-02 -2.367779053747653961e-02 -1.292168255895376205e-02 -5.554425530135631561e-03 -3.007030673325061798e-02 7.387079298496246338e-03 2.539639361202716827e-02 7.765255402773618698e-03 4.142562299966812134e-02 -2.319480851292610168e-02 -3.083277679979801178e-02 -7.897893665358424187e-04 9.142512455582618713e-03 -1.413740776479244232e-02 1.557318493723869324e-02 -1.489783357828855515e-02 1.837777532637119293e-02 1.339680515229701996e-03 1.419859100133180618e-02 -2.554800547659397125e-02 6.472592242062091827e-03 3.593726828694343567e-02 1.940879598259925842e-02
3.161392360925674438e-02 1.243277080357074738e-02 4.111830639885738492e-05 1.544593367725610733e-03 -1.711598038673400879e-02 -1.335851289331912994e-02 2.535318583250045776e-02 2.376731112599372864e-02 -2.710002660751342773e-02 -3.776051104068756104e-02 -2.305081300437450409e-02 2.173310145735740662e-02 -1.330330967903137207e-02 3.155459489789791405e-05 -5.060016736388206482e-02 -2.259316295385360718e-02 7.527876645326614380e-03 9.928577579557895660e-03 7.319869007915258408e-03 -1.952971890568733215e-02 -1.325581688433885574e-02 -4.294418916106224060e-02 -5.269277095794677734e-02 1.055640354752540588e-02 2.543501323089003563e-04 -2.185996389016509056e-03 1.036383863538503647e-02 1.462135184556245804e-02 2.380791120231151581e-02 5.152569618076086044e-03 -1.392218563705682755e-02 1.003866922110319138e-02 -8.692196570336818695e-03 -2.120279520750045776e-02 -2.990022301673889160e-02 1.841577352024614811e-03 -2.811304107308387756e-02 -4.021351039409637451e-02 3.992635384202003479e-02 -1.359521038830280304e-02 1.034504082053899765e-02 -6.614993326365947723e-03 -3.408925607800483704e-02 1.738089323043823242e-02 1.794777065515518188e-02 5.458820983767509460e-02 -9.047428146004676819e-03 3.624638915061950684e-02 -1.802595704793930054e-02 -8.310881443321704865e-03 -1.079182140529155731e-02 3.803049400448799133e-02 -3.016092441976070404e-02 -1.106165349483489990e-02 9.123593568801879883e-03 1.876552705653011799e-03 -3.397315740585327148e-02 -1.178195141255855560e-02 2.190100215375423431e-02 -1.066823722794651985e-03 4.383624345064163208e-02 1.878014765679836273e-02 -1.275925897061824799e-02 1.295262295752763748e-02 -2.485342696309089661e-02 -2.418782562017440796e-02 3.170374408364295959e-02 -9.132917039096355438e-03 4.071918502449989319e-02 -1.212293468415737152e-02 1.570871658623218536e-02 8.199349045753479004e-03 -1.786484383046627045e-02 7.004173006862401962e-03 6.308190524578094482e-03 1.567144878208637238e-02 4.499084874987602234e-02 1.367767062038183212e-02 1.881492510437965393e-02 -2.418140508234500885e-02 -1.251770742237567902e-02 -1.851556822657585144e-02 1.860254630446434021e-02 -2.673660963773727417e-02 1.881532371044158936e-02 2.550644055008888245e-02 -9.812355041503906250e-03 3.749236091971397400e-02 -1.629897393286228180e-02 1.000775024294853210e-02 -2.631997130811214447e-02 1.674218103289604187e-02 -9.204898029565811157e-03 1.369778998196125031e-02 1.067053247243165970e-02 -1.447292882949113846e-02 4.294003173708915710e-02 -3.779619187116622925e-02 1.093701110221445560e-03 -8.512046188116073608e-03 2.985121123492717743e-02 4.414491821080446243e-03 1.571340952068567276e-03 1.284961681813001633e-02 -3.973712399601936340e-02 -9.918848983943462372e-03 2.245957404375076294e-02 -5.556913092732429504e-03 3.089379332959651947e-02 -3.634312748908996582e-02 -3.012339025735855103e-02 4.421245679259300232e-02 4.180672392249107361e-02 -7.079586852341890335e-03 -1.450957264751195908e-02 2.749254740774631500e-02 1.169635728001594543e-02 -2.307070977985858917e-02 1.343879196792840958e-02 -6.179790943861007690e-03 1.598664745688438416e-02 6.342237815260887146e-03 6.805137963965535164e-04 -2.090100757777690887e-02 1.499484106898307800e-02 -3.500487189739942551e-03 1.457760203629732132e-02 4.266201332211494446e-02
