-5.264721438288688660e-02 1.028474327176809311e-02 -2.239268831908702850e-02 1.163633354008197784e-02 6.090205162763595581e-02 -1.664756797254085541e-02 -2.201396739110350609e-03 2.017278224229812622e-02 -1.539233326911926270e-02 2.511826343834400177e-02 4.317576065659523010e-02 -1.882352866232395172e-02 9.483395260758697987e-04 8.418565616011619568e-03 -2.630881220102310181e-02 3.547145752236247063e-03 -4.800590127706527710e-02 1.612442918121814728e-02 -1.186779141426086426e-02 3.712661564350128174e-02 1.890379935503005981e-02 -1.813523285090923309e-02 -5.743360612541437149e-03 -2.199531160295009613e-02 4.932697489857673645e-02 -5.920712836086750031e-03 -3.495591506361961365e-02 2.753118239343166351e-02 1.090119127184152603e-02 -4.324357956647872925e-03 -2.770758606493473053e-02 -1.035306416451931000e-02 -8.520420640707015991e-03 3.072894178330898285e-02 1.060360111296176910e-02 -2.552318572998046875e-02 -3.505358472466468811e-02 1.666450873017311096e-02 3.774882480502128601e-02 -1.912084780633449554e-02 7.115772366523742676e-02 -4.471566900610923767e-02 2.157136797904968262e-02 1.792329736053943634e-02 -5.865167453885078430e-02 -2.726097218692302704e-02 1.518123969435691833e-02 6.869698874652385712e-03 -2.934876829385757446e-02 3.717695921659469604e-02 -1.099295075982809067e-02 1.782191358506679535e-02 2.075023204088211060e-02 1.082233525812625885e-02 3.610113868489861488e-03 1.743913628160953522e-02 -2.060367166996002197e-02 3.374487906694412231e-02 2.481214143335819244e-02 -7.683490961790084839e-02 2.377670444548130035e-02 1.192232873290777206e-02 2.346187829971313477e-02 -4.076994583010673523e-02 1.183308567851781845e-02 -3.784883394837379456e-02 6.632193690165877342e-04 -5.220163147896528244e-03 -2.757351659238338470e-02 -1.961806416511535645e-02 -8.072809316217899323e-03 -2.537249820306897163e-03 1.082985429093241692e-03 1.935987919569015503e-02 4.557400569319725037e-02 -4.343910142779350281e-02 4.997535143047571182e-03 6.538030505180358887e-02 -5.446505919098854065e-02 -1.487781852483749390e-02 -1.525224093347787857e-02 -2.650008536875247955e-02 4.380843043327331543e-02 -9.737400338053703308e-03 3.098492510616779327e-02 9.571395814418792725e-03 2.109511755406856537e-02 -3.392030193936079741e-04 -2.441405691206455231e-02 -2.581859193742275238e-02 2.360277995467185974e-02 1.032672543078660965e-02 1.070008380338549614e-03 3.475319966673851013e-02 1.965326443314552307e-02 1.323445001617074013e-03 8.625656366348266602e-03 5.573007743805646896e-03 6.227100733667612076e-03 1.805545203387737274e-02 8.150505833327770233e-03 -2.223496697843074799e-02 -1.972776092588901520e-02 3.648707643151283264e-02 -3.599382005631923676e-03 2.267330186441540718e-03 -3.131609410047531128e-02 -3.402139991521835327e-02 -4.068324808031320572e-03 -2.876949869096279144e-02 5.643815547227859497e-02 1.305425167083740234e-02 3.120431676506996155e-02 -3.207080438733100891e-02 8.542193099856376648e-03 -4.483376687858253717e-04 3.231614129617810249e-03 2.531719952821731567e-02 -6.387449335306882858e-03 -1.473042462021112442e-02 -2.048671944066882133e-03 -1.538787409663200378e-02 4.632722586393356323e-02 3.333058580756187439e-02 5.001321434974670410e-02 -6.080131977796554565e-03 -2.298939600586891174e-02 3.725523129105567932e-02
-7.840827456675469875e-04 -2.638722071424126625e-03 2.363499999046325684e-02 -4.062825813889503479e-02 -4.823039844632148743e-02 2.048088936135172844e-03 1.514759566634893417e-02 -1.348300743848085403e-02 5.964358523488044739e-02 5.655200686305761337e-03 -1.827519014477729797e-02 2.317446842789649963e-02 2.501077950000762939e-03 -1.665147580206394196e-02 7.485918700695037842e-03 1.338282413780689240e-02 7.895843125879764557e-03 -1.110859308391809464e-02 4.459634423255920410e-03 2.725564874708652496e-03 -1.993335038423538208e-02 9.140849113464355469e-03 2.306122519075870514e-02 -1.070298813283443451e-02 -7.979534566402435303e-03 -1.473196432925760746e-03 3.440310060977935791e-02 1.230067573487758636e-02 -1.888554170727729797e-02 9.886723943054676056e-03 4.453034140169620514e-03 1.278932392597198486e-02 2.029871568083763123e-03 -6.931842770427465439e-03 -2.434605918824672699e-02 4.066040739417076111e-02 2.428411133587360382e-02 7.634124252945184708e-03 -2.311633713543415070e-02 4.793892800807952881e-02 2.319236751645803452e-03 -2.934248559176921844e-02 -2.405097521841526031e-02 -4.074355121701955795e-03 3.905463963747024536e-03 -1.468784920871257782e-02 -2.024472132325172424e-02 -4.781280178576707840e-03 -2.244867011904716492e-02 -1.150029432028532028e-02 3.995958343148231506e-02 -1.740763336420059204e-02 -4.763071611523628235e-02 3.899068012833595276e-02 -7.768987212330102921e-03 3.024671413004398346e-02 -2.172776963561773300e-03 3.936595842242240906e-02 -2.529253624379634857e-02 2.351166447624564171e-03 1.019215025007724762e-02 -9.505703113973140717e-03 -2.502536401152610779e-02 4.337839316576719284e-03 3.720615431666374207e-02 -2.655434794723987579e-02 -1.146879978477954865e-02 1.505163777619600296e-02 -5.180922150611877441e-02 -2.493857964873313904e-02 -2.573471749201416969e-03 -1.449952088296413422e-02 -2.553913928568363190e-02 2.183658443391323090e-02 3.259615972638130188e-02 3.241461887955665588e-02 3.300729766488075256e-02 -1.823921501636505127e-02 1.684914529323577881e-02 -1.788075640797615051e-02 -3.621870651841163635e-03 -4.330852627754211426e-02 -6.368128210306167603e-02 -5.801011342555284500e-03 4.500001668930053711e-02 4.164246469736099243e-02 -1.391250081360340118e-02 1.738855056464672089e-02 -6.718868017196655273e-02 5.256774276494979858e-02 1.799618080258369446e-02 -8.213491179049015045e-03 2.684779232367873192e-03 -1.559905242174863815e-02 -2.321956120431423187e-02 -2.930177003145217896e-02 -2.724545635282993317e-02 1.741506718099117279e-02 -1.457039359956979752e-02 2.769962511956691742e-02 4.087353497743606567e-02 -2.101278305053710938e-02 1.014021784067153931e-02 -1.053816732019186020e-02 6.966631114482879639e-02 1.553542166948318481e-02 2.151659876108169556e-02 -1.012729201465845108e-02 1.733166724443435669e-02 -2.570855198428034782e-03 2.806033194065093994e-02 1.965885795652866364e-02 5.373902991414070129e-02 -1.395179796963930130e-02 8.466877043247222900e-03 -1.259308215230703354e-02 5.480068549513816833e-02 8.703372441232204437e-03 -2.741618640720844269e-02 1.876291073858737946e-02 2.736191824078559875e-02 -1.278917305171489716e-02 -3.381884843111038208e-02 1.050937455147504807e-02 2.355404384434223175e-02 3.101393952965736389e-02 -1.701778732240200043e-02 -1.004691701382398605e-02
-1.236758846789598465e-02 -6.325474940240383148e-03 -8.140003192238509655e-04 -1.465304195880889893e-02 -6.031319964677095413e-03 1.584875397384166718e-02 -5.308406343829119578e-06 -1.658691465854644775e-02 -4.267054051160812378e-02 7.280063349753618240e-03 1.368530746549367905e-02 -1.302466914057731628e-02 -1.015732716768980026e-02 6.921884417533874512e-02 1.419614907354116440e-02 -3.327791392803192139e-02 1.725227013230323792e-02 5.737439496442675591e-04 -4.595974925905466080e-03 -3.041349723935127258e-02 9.006763808429241180e-03 2.034939680015668273e-04 -7.805413100868463516e-03 1.840848475694656372e-03 -1.438728161156177521e-02 2.854452840983867645e-02 2.481085807085037231e-02 -5.272115021944046021e-02 -3.553789481520652771e-02 -1.757742464542388916e-02 -5.865038838237524033e-03 1.651173457503318787e-02 -2.314818277955055237e-02 1.333367265760898590e-02 3.610827401280403137e-02 3.044700995087623596e-02 1.587340794503688812e-02 1.922452077269554138e-02 -6.828797608613967896e-02 -2.246951311826705933e-02 4.698285460472106934e-02 -1.580571569502353668e-02 1.319610048085451126e-02 1.979290321469306946e-02 -1.805271767079830170e-02 8.513104170560836792e-03 -2.665734849870204926e-02 -2.123627625405788422e-02 3.031837567687034607e-02 -4.335142206400632858e-03 -3.670148923993110657e-02 -2.605589292943477631e-02 1.962226815521717072e-02 1.895554549992084503e-02 -3.118154220283031464e-02 -5.032025743275880814e-03 1.292498782277107239e-02 -5.095461010932922363e-02 -2.529618889093399048e-02 -5.623301956802606583e-03 -3.721627593040466309e-02 9.014257229864597321e-03 4.703358933329582214e-02 4.075927287340164185e-02 6.998945958912372589e-03 9.598331525921821594e-03 -1.238901540637016296e-02 9.633003734052181244e-03 1.761358045041561127e-02 1.474906317889690399e-02 -8.202760480344295502e-03 4.783515259623527527e-02 4.340011626482009888e-02 7.625367958098649979e-03 -1.308194547891616821e-02 -6.363057531416416168e-03 -2.067939937114715576e-02 5.951277539134025574e-02 1.777968555688858032e-02 8.118478581309318542e-03 -2.375884167850017548e-02 2.190488763153553009e-02 1.017164066433906555e-02 -6.493981182575225830e-02 -1.161448284983634949e-02 2.073846291750669479e-03 4.716241732239723206e-02 3.391039371490478516e-02 1.038100197911262512e-02 -7.009224034845829010e-03 1.080412324517965317e-02 -2.902048826217651367e-02 -2.229361562058329582e-03 1.227524597197771072e-02 -2.098091505467891693e-02 4.396617785096168518e-02 -2.507861517369747162e-02 4.093477502465248108e-03 -5.496055353432893753e-03 -6.720027420669794083e-03 1.411147788166999817e-02 -2.542103268206119537e-02 -1.788162253797054291e-02 1.879732310771942139e-02 -1.680404879152774811e-02 5.352959036827087402e-03 7.339215371757745743e-03 3.553730994462966919e-02 -1.432815194129943848e-02 -1.025837752968072891e-02 2.308873925358057022e-03 -2.956238575279712677e-03 -6.261696666479110718e-02 5.041974782943725586e-02 -7.802491541951894760e-03 2.893240191042423248e-02 -1.027527824044227600e-02 6.919960677623748779e-02 2.048109471797943115e-02 6.270881742238998413e-02 -9.647928178310394287e-03 -5.977210123091936111e-03 1.122985593974590302e-02 -2.519184257835149765e-03 5.030928179621696472e-03 8.647447451949119568e-03 9.443824179470539093e-03 -1.920406520366668701e-02
5.280630663037300110e-03 6.894702557474374771e-03 2.827896736562252045e-02 1.651138009037822485e-04 1.704403082840144634e-03 -5.524075590074062347e-03 3.249397501349449158e-02 1.163166295737028122e-02 -2.871236018836498260e-02 1.055383309721946716e-02 2.218604087829589844e-02 -2.063040621578693390e-02 2.618081402033567429e-03 1.045459974557161331e-02 -2.463717386126518250e-02 -3.393768519163131714e-02 2.511400915682315826e-02 4.084322229027748108e-02 4.331225529313087463e-02 8.580381982028484344e-03 -2.058105170726776123e-02 -6.769064813852310181e-03 2.478127134963870049e-03 -8.963724598288536072e-03 2.185677178204059601e-02 -2.610001526772975922e-02 -1.362684089690446854e-02 -4.548924043774604797e-03 1.555262971669435501e-02 -2.934820577502250671e-02 -2.752987481653690338e-02 -6.733349058777093887e-03 3.609779523685574532e-03 2.155197784304618835e-02 2.017573826014995575e-02 -1.183161046355962753e-02 3.602719679474830627e-02 -9.805691428482532501e-03 -3.743258118629455566e-02 -5.498850718140602112e-03 1.036432851105928421e-02 8.248813450336456299e-03 -2.566012088209390640e-03 -2.046650741249322891e-03 -9.655057452619075775e-03 -2.646367438137531281e-02 1.043613255023956299e-02 1.336083933711051941e-02 -5.047659506089985371e-04 -1.010506134480237961e-02 -3.503146395087242126e-02 2.003867737948894501e-02 -2.289744466543197632e-02 2.189641352742910385e-03 1.513806357979774475e-02 -7.750929333269596100e-03 1.328229624778032303e-02 -1.486616209149360657e-02 1.930590718984603882e-02 2.053558267652988434e-02 8.662747219204902649e-03 4.759032744914293289e-04 1.238052826374769211e-02 -7.249020505696535110e-03 -1.299320068210363388e-02 -8.513523265719413757e-03 1.460698805749416351e-02 1.799787208437919617e-02 3.864928334951400757e-02 -1.260329270735383034e-03 -3.633682429790496826e-02 -4.633727297186851501e-02 4.557063430547714233e-02 -2.893469482660293579e-02 3.342204261571168900e-03 -8.323416113853454590e-03 -1.482517085969448090e-02 -2.396188862621784210e-02 2.421095781028270721e-02 8.227746002376079559e-03 1.550607383251190186e-02 2.374660223722457886e-02 3.356203436851501465e-02 -1.967094093561172485e-02 6.415569689124822617e-03 -1.450255396775901318e-03 1.439121086150407791e-02 1.021878514438867569e-02 5.759662482887506485e-03 -2.136022783815860748e-02 1.752231828868389130e-02 -6.939773913472890854e-03 -1.734271086752414703e-02 -5.149275530129671097e-03 -1.466376148164272308e-02 -2.837132290005683899e-02 2.036277949810028076e-02 2.571729943156242371e-02 -3.736513666808605194e-03 5.711051169782876968e-03 3.114328719675540924e-02 -5.542176775634288788e-03 -2.190111577510833740e-02 -5.603176075965166092e-03 -3.839511796832084656e-02 3.196470439434051514e-02 -1.288603991270065308e-03 -8.049632888287305832e-04 -1.465108990669250488e-02 -2.995637059211730957e-02 8.289234712719917297e-03 8.587734773755073547e-03 -2.041791565716266632e-03 -2.469967491924762726e-02 2.215590141713619232e-02 3.185006231069564819e-02 2.697973512113094330e-03 -1.218361407518386841e-02 2.996929176151752472e-02 -1.016862690448760986e-02 -1.093982532620429993e-02 -1.018914021551609039e-02 1.187743432819843292e-02 -2.042725495994091034e-02 1.055141072720289230e-02 1.273788604885339737e-02 3.110809065401554108e-02 8.193125016987323761e-03
4.452999308705329895e-02 2.297176793217658997e-02 4.759227856993675232e-02 3.842192003503441811e-03 -8.681581355631351471e-03 4.022872820496559143e-02 3.910448029637336731e-02 -3.022643923759460449e-02 -9.453784674406051636e-03 -2.554929070174694061e-02 3.899005055427551270e-02 -4.554730840027332306e-03 5.136183276772499084e-02 -3.364650998264551163e-03 -4.507388803176581860e-04 2.901396714150905609e-02 -2.091274596750736237e-02 4.974715039134025574e-02 3.464463725686073303e-02 3.057032451033592224e-02 1.944158226251602173e-02 -6.665909662842750549e-03 3.665228374302387238e-03 -4.314878582954406738e-02 5.513450503349304199e-02 -3.497787110973149538e-04 -2.121459506452083588e-02 9.381545707583427429e-03 1.004171743988990784e-02 -3.375814761966466904e-03 3.297287505120038986e-03 4.819992184638977051e-02 3.664218122139573097e-03 -1.012059114873409271e-02 2.557566761970520020e-02 2.122880518436431885e-02 -1.242023333907127380e-02 5.177396233193576336e-04 5.933913867920637131e-03 -2.540430985391139984e-02 1.410683616995811462e-02 4.499483481049537659e-02 2.434450946748256683e-02 2.273382124258205295e-04 1.780546642839908600e-02 -3.554389625787734985e-02 -1.605508290231227875e-02 -3.820711048319935799e-03 3.446117043495178223e-02 -8.750657737255096436e-02 -3.746022656559944153e-02 -3.908329457044601440e-02 2.653869986534118652e-02 -3.912838175892829895e-02 -2.454992383718490601e-02 1.188215613365173340e-02 -1.474929600954055786e-02 -1.328019890934228897e-03 -1.908090151846408844e-02 1.112475246191024780e-02 -4.746409133076667786e-03 -1.893253810703754425e-02 -2.558025158941745758e-02 5.260242149233818054e-03 -7.403744384646415710e-03 -3.714528307318687439e-02 2.392863854765892029e-02 2.265031263232231140e-02 2.183642424643039703e-02 4.666264168918132782e-03 3.440159931778907776e-02 -1.886234059929847717e-02 1.411418057978153229e-02 -6.759034004062414169e-03 -9.759666398167610168e-03 -4.094421863555908203e-03 -2.427545376121997833e-02 1.370215509086847305e-02 1.805899664759635925e-02 -3.098694421350955963e-02 3.661179915070533752e-02 4.460006579756736755e-02 7.299759890884160995e-04 -1.578360423445701599e-02 -4.836782813072204590e-03 1.776831783354282379e-02 -4.134766757488250732e-02 1.037079747766256332e-02 9.327574633061885834e-03 4.019800201058387756e-02 -4.026889801025390625e-03 -5.032767541706562042e-03 -2.175935730338096619e-02 6.596497260034084320e-03 -2.489661611616611481e-02 2.324807830154895782e-02 1.404781918972730637e-02 -1.139920298010110855e-02 6.104473024606704712e-03 1.180846523493528366e-02 -2.050656452775001526e-02 -3.592704981565475464e-02 1.355988718569278717e-02 2.446745894849300385e-02 -5.813606083393096924e-02 1.386968232691287994e-02 -1.661332696676254272e-02 1.693347655236721039e-02 -1.975985430181026459e-02 1.217680168338119984e-03 -2.145842835307121277e-02 -2.091935463249683380e-02 -2.519589662551879883e-02 -1.109643559902906418e-02 -1.697375439107418060e-02 3.799666464328765869e-02 -1.558372844010591507e-02 1.511933002620935440e-02 -3.719460591673851013e-02 -4.694174975156784058e-02 1.220895629376173019e-02 1.096729654818773270e-02 4.574959632009267807e-03 -3.687367215752601624e-02 1.990607939660549164e-02 -1.591113023459911346e-02 2.289448492228984833e-02 -1.981548964977264404e-03
1.577272266149520874e-02 -1.089617516845464706e-02 9.375366382300853729e-03 -1.605554111301898956e-02 2.540690451860427856e-02 3.529140725731849670e-02 1.107333693653345108e-02 -2.997423149645328522e-02 -1.201462093740701675e-02 3.270019590854644775e-02 -3.049344522878527641e-03 6.916045676916837692e-03 6.361339241266250610e-02 4.859298467636108398e-02 -6.648132577538490295e-03 -2.597724832594394684e-02 -1.810415275394916534e-02 -4.734364338219165802e-03 1.607396639883518219e-02 5.726158618927001953e-03 -1.441538799554109573e-02 3.566195070743560791e-02 3.966292366385459900e-03 2.069920673966407776e-02 1.425327919423580170e-02 -2.418395690619945526e-02 2.294220589101314545e-02 2.103781513869762421e-02 6.416926532983779907e-02 -3.306685760617256165e-02 -3.258357197046279907e-02 6.371772848069667816e-03 -2.112075686454772949e-02 6.687021255493164062e-02 2.105067670345306396e-02 2.246991172432899475e-02 -2.079422958195209503e-02 -5.214871093630790710e-02 -1.746974419802427292e-03 -3.009185008704662323e-02 2.361008524894714355e-02 4.823016375303268433e-02 -2.053312957286834717e-02 1.128016412258148193e-02 3.385443612933158875e-02 -1.632060855627059937e-02 1.550415810197591782e-02 -8.622420951724052429e-03 -1.333880051970481873e-02 -2.215200103819370270e-02 6.352313328534364700e-03 1.629529055207967758e-03 1.674813218414783478e-02 -5.404621362686157227e-03 5.164133757352828979e-02 -4.399726539850234985e-02 -1.525230612605810165e-02 -2.467972226440906525e-02 -9.777231141924858093e-03 2.155516704078763723e-04 -1.494140271097421646e-02 -3.624610230326652527e-02 -3.643199102953076363e-03 2.700624614953994751e-02 2.604530751705169678e-02 2.074382500723004341e-03 1.096729072742164135e-03 -2.296830900013446808e-02 -1.217114366590976715e-02 1.260472927242517471e-03 3.167995810508728027e-02 -2.892403304576873779e-02 7.637872360646724701e-03 -2.143510431051254272e-02 3.833132795989513397e-03 -2.886024117469787598e-02 1.517857983708381653e-02 -2.675503201317042112e-04 2.138772979378700256e-02 -7.290659123100340366e-04 -6.000852212309837341e-03 -1.666416600346565247e-02 3.671426698565483093e-02 2.084267884492874146e-02 -2.634617127478122711e-02 -8.685685694217681885e-03 -1.749493554234504700e-02 2.143790572881698608e-02 2.536889351904392242e-02 -1.541815791279077530e-02 1.855806633830070496e-02 -1.704786159098148346e-02 3.284094855189323425e-02 2.842254005372524261e-02 -5.106018856167793274e-02 -9.155608713626861572e-03 -9.966681711375713348e-03 -3.257705271244049072e-02 2.552186138927936554e-02 7.490054704248905182e-04 1.642034761607646942e-02 -1.960311457514762878e-02 -2.613703720271587372e-02 -6.871498655527830124e-03 1.114409323781728745e-02 -8.782896213233470917e-03 -1.373079326003789902e-02 -3.046010993421077728e-02 2.714318223297595978e-02 3.562508150935173035e-02 -2.637132443487644196e-02 -5.452292505651712418e-03 -6.795223802328109741e-03 -2.027142792940139771e-02 -2.392921596765518188e-02 -1.766465604305267334e-02 1.131143886595964432e-02 -3.625958412885665894e-02 1.347749773412942886e-02 4.093502648174762726e-04 -6.147879757918417454e-04 2.997991070151329041e-02 -1.963468454778194427e-02 3.062134422361850739e-02 -1.771198399364948273e-02 -1.834378344938158989e-03 -1.826139353215694427e-02 2.757308445870876312e-02
3.351633995771408081e-02 3.385723382234573364e-02 -1.983770728111267090e-02 4.990841820836067200e-02 1.945346826687455177e-03 2.451759390532970428e-02 -1.702545210719108582e-02 1.670135371387004852e-02 -2.975753322243690491e-02 -1.015703938901424408e-02 3.335568122565746307e-03 -1.660837978124618530e-02 -2.680246252566576004e-03 3.655305132269859314e-03 -1.073854789137840271e-02 4.071107506752014160e-02 -7.408612407743930817e-03 1.986551098525524139e-02 5.363887757994234562e-04 -6.408549100160598755e-02 -1.453292462974786758e-02 -6.979049742221832275e-02 -2.750345505774021149e-02 4.564986377954483032e-02 -6.957678589969873428e-03 -1.353267487138509750e-02 1.119304727762937546e-02 4.474275279790163040e-03 -2.385372109711170197e-02 -3.850284218788146973e-02 2.536599896848201752e-02 -3.502254560589790344e-02 -3.146679326891899109e-02 -2.774551138281822205e-02 5.419448390603065491e-02 -1.518817618489265442e-02 -2.694969810545444489e-02 2.536283805966377258e-02 1.300408039242029190e-02 3.487389534711837769e-02 -2.167930454015731812e-02 1.506234053522348404e-02 -1.064124610275030136e-02 -1.735293678939342499e-02 8.973560179583728313e-04 1.640777476131916046e-02 2.094256924465298653e-03 -1.770714856684207916e-02 -1.673651859164237976e-02 -1.308199856430292130e-02 -3.163303015753626823e-03 7.732666563242673874e-03 2.915540896356105804e-02 3.773966804146766663e-02 -4.787117242813110352e-03 7.983003160916268826e-04 4.513291269540786743e-02 -1.720997691154479980e-02 -1.058661937713623047e-02 -3.499311581254005432e-02 -2.062911540269851685e-02 -1.058856863528490067e-02 -4.050028510391712189e-03 4.650302976369857788e-02 3.087572753429412842e-03 4.831933975219726562e-02 -2.214321494102478027e-02 -5.821844935417175293e-02 8.352669829037040472e-05 1.971567794680595398e-02 4.202654212713241577e-02 -1.077042985707521439e-02 -2.654224447906017303e-02 1.056263223290443420e-02 -5.645660683512687683e-02 2.893975004553794861e-02 2.882634848356246948e-02 -1.525997091084718704e-02 -2.105889283120632172e-02 2.801686711609363556e-02 -5.564510356634855270e-03 2.624278888106346130e-02 -1.378608122467994690e-02 -7.937262766063213348e-03 -7.887098938226699829e-03 6.039056461304426193e-03 -1.725630462169647217e-02 -5.721116811037063599e-02 -8.011653088033199310e-03 1.307928096503019333e-02 -7.110954076051712036e-02 1.171151362359523773e-02 -1.148399524390697479e-02 -3.708515316247940063e-02 8.165691047906875610e-03 -2.302758023142814636e-02 2.378082834184169769e-02 -2.546047233045101166e-02 -2.562302350997924805e-02 -4.835442081093788147e-02 6.756192538887262344e-03 -2.058479748666286469e-02 2.417316474020481110e-02 -2.161831408739089966e-02 -3.844463080167770386e-02 -4.198151081800460815e-02 5.397378653287887573e-02 4.567081853747367859e-02 -2.097328566014766693e-02 1.958533935248851776e-02 -2.467742562294006348e-02 -1.506425999104976654e-02 3.388815373182296753e-02 1.926239230670034885e-03 -4.305205121636390686e-02 -1.776295900344848633e-02 -2.071018703281879425e-02 9.539603488519787788e-04 3.631615638732910156e-02 1.579081406816840172e-03 -7.048912346363067627e-03 2.076629921793937683e-02 1.483973395079374313e-02 -4.952777549624443054e-02 -9.397793561220169067e-03 4.728539288043975830e-02 -4.093133611604571342e-04 3.380026295781135559e-02
-2.666012197732925415e-02 2.181640081107616425e-02 4.454999044537544250e-02 2.745022997260093689e-03 2.524386160075664520e-02 -1.906627975404262543e-02 -2.210420370101928711e-02 -2.165506966412067413e-02 -6.760239135473966599e-03 1.594906859099864960e-02 4.269704222679138184e-02 -2.719724923372268677e-02 9.683623793534934521e-04 9.040176868438720703e-03 -1.472154818475246429e-02 -1.016006805002689362e-03 4.027817398309707642e-02 -1.238512620329856873e-02 2.584146894514560699e-02 -2.174178604036569595e-03 8.871394209563732147e-03 8.524965494871139526e-03 2.915074117481708527e-03 1.632443512789905071e-03 4.834367893636226654e-03 -1.240445394068956375e-02 -1.944743283092975616e-02 -2.288368996232748032e-03 1.502810395322740078e-03 -1.988349482417106628e-02 -4.203105345368385315e-03 -2.739674411714076996e-03 4.850481636822223663e-03 1.662568305619060993e-03 -2.311859652400016785e-02 -1.257174462080001831e-02 -1.341856550425291061e-02 -3.631691634654998779e-02 -2.864960581064224243e-03 -4.454994946718215942e-02 -2.174178697168827057e-02 -1.583387027494609356e-03 1.567791961133480072e-02 -5.742464214563369751e-03 1.083743758499622345e-02 -4.617260396480560303e-02 -9.183522313833236694e-03 -1.656993292272090912e-02 1.922537200152873993e-02 2.997763222083449364e-03 -3.172700107097625732e-02 5.965389776974916458e-03 -1.923396065831184387e-02 -1.653852988965809345e-03 1.660325936973094940e-02 -9.785009548068046570e-03 1.211586315184831619e-02 -1.270232442766427994e-02 -3.567116567865014076e-03 3.479048237204551697e-02 3.339344169944524765e-03 -5.916718766093254089e-02 2.060947380959987640e-02 -2.533869585022330284e-03 -7.934749126434326172e-03 3.798491880297660828e-02 8.534844033420085907e-03 1.199179049581289291e-02 1.764108799397945404e-02 4.284794908016920090e-03 4.495239816606044769e-03 1.760256476700305939e-02 2.279982343316078186e-02 1.514846645295619965e-02 3.053901530802249908e-02 3.327679005451500416e-04 -1.230322103947401047e-02 -4.887076467275619507e-02 -9.898537769913673401e-03 3.170317411422729492e-02 -6.694429321214556694e-04 1.433599367737770081e-02 5.603807047009468079e-02 -6.535194814205169678e-03 -3.193353489041328430e-02 -3.127235220745205879e-03 4.786595702171325684e-03 -1.740234903991222382e-02 1.408123224973678589e-02 -2.694727666676044464e-02 -1.983491820283234119e-04 2.516500093042850494e-02 1.310985907912254333e-02 -2.155620791018009186e-02 -1.798263005912303925e-02 2.561392495408654213e-03 -6.522196810692548752e-03 5.572326108813285828e-02 3.324354067444801331e-02 4.209316335618495941e-03 -9.140588343143463135e-03 -3.809304907917976379e-02 2.476580208167433739e-03 1.538903173059225082e-02 -3.027794882655143738e-02 -2.948945760726928711e-02 -7.079508155584335327e-02 -1.761114224791526794e-02 1.497027743607759476e-02 4.588602855801582336e-02 -3.430606448091566563e-04 -2.754373475909233093e-03 -1.075810100883245468e-02 -1.225428469479084015e-02 1.345296762883663177e-02 -4.605676978826522827e-02 -3.713569790124893188e-02 -1.536167599260807037e-02 -5.313231144100427628e-03 -1.177727826870977879e-03 2.024005167186260223e-02 -6.590377073734998703e-03 4.476368799805641174e-02 2.396521158516407013e-03 -1.777725410647690296e-03 1.826395466923713684e-02 7.058520615100860596e-02 9.984648786485195160e-03
