-6.042313575744628906e-02 4.446729552000761032e-03 -2.720198780298233032e-02 1.614109985530376434e-02 7.246000319719314575e-02 -2.196597866714000702e-02 -5.444777780212461948e-04 2.409285679459571838e-02 -8.898608386516571045e-03 3.085018694400787354e-02 4.466972872614860535e-02 -2.003070525825023651e-02 8.243297226727008820e-03 3.462924389168620110e-03 -2.344777807593345642e-02 5.646927747875452042e-03 -5.095845833420753479e-02 1.806892827153205872e-02 -1.311019528657197952e-02 3.577320650219917297e-02 2.868039719760417938e-02 -2.010669372975826263e-02 1.076254411600530148e-03 -2.241330593824386597e-02 5.955776944756507874e-02 -1.060210447758436203e-02 -3.436136990785598755e-02 3.339691832661628723e-02 1.350525207817554474e-02 -3.486346104182302952e-04 -3.264514729380607605e-02 -1.186402514576911926e-02 -1.171362306922674179e-02 3.958163782954216003e-02 -2.314509823918342590e-03 -2.626490220427513123e-02 -3.877037018537521362e-02 2.124613150954246521e-02 5.022525787353515625e-02 -2.354020066559314728e-02 8.316540718078613281e-02 -5.467676371335983276e-02 2.824035659432411194e-02 1.551360730081796646e-02 -6.768752634525299072e-02 -3.504054620862007141e-02 1.939629390835762024e-02 5.068712867796421051e-03 -4.324961081147193909e-02 3.410867601633071899e-02 -1.047924254089593887e-02 2.007364667952060699e-02 2.198588475584983826e-02 1.666371896862983704e-02 3.302170196548104286e-03 1.802605949342250824e-02 -2.167365700006484985e-02 3.690825402736663818e-02 2.889541909098625183e-02 -8.897553384304046631e-02 2.717118710279464722e-02 1.468529552221298218e-02 2.664264664053916931e-02 -5.027204379439353943e-02 5.162098444998264313e-03 -4.369096830487251282e-02 7.863908074796199799e-03 -1.028270274400711060e-02 -3.213876485824584961e-02 -2.698325924575328827e-02 -1.681329123675823212e-02 -6.988367531448602676e-03 -1.001907791942358017e-02 2.616082504391670227e-02 5.197625607252120972e-02 -4.815863445401191711e-02 2.473437692970037460e-03 7.356072217226028442e-02 -6.675949692726135254e-02 -2.014600858092308044e-02 -1.454261969774961472e-02 -3.247938677668571472e-02 5.354124680161476135e-02 -1.060894504189491272e-02 3.161053359508514404e-02 1.494565326720476151e-02 1.941115409135818481e-02 -2.135467017069458961e-03 -2.929703518748283386e-02 -2.974564395844936371e-02 3.143918141722679138e-02 1.211175695061683655e-02 4.950975533574819565e-03 5.148134380578994751e-02 2.162609994411468506e-02 2.874508267268538475e-03 7.906738668680191040e-03 1.216823002323508263e-03 2.043183194473385811e-03 2.795211598277091980e-02 4.895106540061533451e-04 -2.331844158470630646e-02 -2.101307548582553864e-02 4.547771066427230835e-02 2.758724731393158436e-04 -1.472295494750142097e-03 -3.938020393252372742e-02 -3.893413022160530090e-02 -3.242108039557933807e-03 -3.380658477544784546e-02 6.137992069125175476e-02 7.653647102415561676e-03 3.526166826486587524e-02 -3.703459724783897400e-02 1.152455341070890427e-02 2.950855414383113384e-04 4.235905129462480545e-03 3.288554400205612183e-02 -1.019201520830392838e-02 -1.889428868889808655e-02 -2.537663560360670090e-03 -2.056929096579551697e-02 5.379481613636016846e-02 4.708202183246612549e-02 5.643467232584953308e-02 -8.404903113842010498e-03 -2.640414051711559296e-02 3.618592023849487305e-02
-4.902026150375604630e-03 1.056563574820756912e-02 1.859340257942676544e-02 -5.259554088115692139e-02 -4.472059011459350586e-02 9.797411039471626282e-04 1.693085208535194397e-02 -1.931138895452022552e-02 6.363663822412490845e-02 1.913275569677352905e-02 -2.176716178655624390e-02 1.695745252072811127e-02 5.154117243364453316e-04 -2.294663526117801666e-02 2.953295130282640457e-03 2.300635725259780884e-02 1.716103218495845795e-02 2.256634645164012909e-03 5.770012736320495605e-03 6.885376758873462677e-03 -8.606889285147190094e-03 1.911870762705802917e-02 3.429148718714714050e-02 -2.140721678733825684e-02 -2.315529994666576385e-02 -1.370225660502910614e-02 1.463691424578428268e-02 1.034787204116582870e-02 -3.212497383356094360e-02 -1.321322750300168991e-02 1.853448338806629181e-02 -4.072933923453092575e-03 -5.500825121998786926e-03 -1.627372205257415771e-02 -1.956101320683956146e-02 5.011674016714096069e-02 2.783396095037460327e-02 1.391257066279649734e-02 5.832347553223371506e-03 3.949406743049621582e-02 -1.252609211951494217e-02 -5.695836991071701050e-02 -1.673404127359390259e-02 1.900530769489705563e-03 1.366542838513851166e-02 -1.438707951456308365e-02 -1.210564747452735901e-02 4.287975025363266468e-04 -9.116333909332752228e-03 -1.110152807086706161e-02 4.678742587566375732e-02 -1.995581761002540588e-02 -5.479569360613822937e-02 3.037782385945320129e-02 -9.947267360985279083e-03 3.017227537930011749e-02 -1.394356600940227509e-02 3.345217928290367126e-02 -2.611828222870826721e-02 4.818973131477832794e-03 1.070457603782415390e-02 -1.147046219557523727e-02 -2.928712032735347748e-02 -1.315861195325851440e-02 3.115200996398925781e-02 -4.274951294064521790e-02 -1.660006865859031677e-02 1.456744037568569183e-02 -5.219691619277000427e-02 -2.412845566868782043e-02 4.869157448410987854e-03 -3.252275288105010986e-03 -1.360483560711145401e-02 2.577899768948554993e-02 4.828365519642829895e-02 2.203686907887458801e-02 4.112899303436279297e-02 -1.252496056258678436e-02 1.444692257791757584e-03 -2.420444227755069733e-02 -9.165796451270580292e-03 -2.049741894006729126e-02 -4.784715175628662109e-02 -1.407127827405929565e-02 4.937427490949630737e-02 3.312952443957328796e-02 -3.974017687141895294e-03 1.466244459152221680e-02 -6.240720674395561218e-02 4.369870573282241821e-02 5.446720868349075317e-03 -1.137665659189224243e-02 -8.196438662707805634e-03 -2.595023252069950104e-02 2.828545693773776293e-04 -2.712064236402511597e-02 -2.885292656719684601e-02 3.511634096503257751e-02 -3.606319054961204529e-02 1.779519207775592804e-02 5.313670262694358826e-02 -1.746609620749950409e-02 9.557287208735942841e-03 -3.824785584583878517e-03 7.131221145391464233e-02 1.292481366544961929e-02 2.213717438280582428e-02 6.686869077384471893e-03 3.207779675722122192e-02 -1.748016662895679474e-02 4.248251393437385559e-02 1.430684141814708710e-02 6.000781804323196411e-02 -1.387987192720174789e-02 3.929760307073593140e-03 -1.347023248672485352e-02 5.733717605471611023e-02 2.589307166635990143e-02 -4.108141735196113586e-02 9.526829235255718231e-03 3.042486123740673065e-02 -1.065327227115631104e-02 -2.799256145954132080e-02 3.316680958960205317e-04 3.807326033711433411e-02 2.813652716577053070e-02 -2.169177867472171783e-02 3.499758022371679544e-04
-1.281807664781808853e-02 -7.467339746654033661e-03 -7.454991806298494339e-03 -2.164632081985473633e-02 -7.574153132736682892e-03 1.617763563990592957e-02 2.688605803996324539e-03 -1.488689519464969635e-02 -4.400889948010444641e-02 5.473515018820762634e-03 1.092343218624591827e-02 -1.770329102873802185e-02 -9.122930467128753662e-03 7.243764400482177734e-02 1.134306937456130981e-02 -2.949923649430274963e-02 2.123964577913284302e-02 -2.293564379215240479e-03 -1.164902839809656143e-02 -3.182289749383926392e-02 1.054752245545387268e-02 2.471216954290866852e-03 -1.316465064883232117e-02 1.236205338500440121e-03 -1.665340736508369446e-02 2.884556353092193604e-02 2.185359038412570953e-02 -5.316873639822006226e-02 -3.674299642443656921e-02 -1.874850504100322723e-02 -4.204400349408388138e-03 1.831754110753536224e-02 -2.175346016883850098e-02 1.095236651599407196e-02 3.953031077980995178e-02 2.980848029255867004e-02 1.645174995064735413e-02 2.343279495835304260e-02 -7.061140239238739014e-02 -2.116011083126068115e-02 4.949158802628517151e-02 -1.725769788026809692e-02 1.588846556842327118e-02 1.336674392223358154e-02 -1.786377280950546265e-02 1.007477659732103348e-02 -2.464808523654937744e-02 -2.819864265620708466e-02 3.350258618593215942e-02 -5.862502381205558777e-03 -3.404914587736129761e-02 -3.242378309369087219e-02 2.550176344811916351e-02 1.833703368902206421e-02 -3.644172102212905884e-02 -8.368188515305519104e-03 1.437730714678764343e-02 -5.522196367383003235e-02 -3.043060563504695892e-02 -5.332764703780412674e-03 -3.365470841526985168e-02 9.634854272007942200e-03 4.695557802915573120e-02 3.716699033975601196e-02 3.124738577753305435e-03 6.812963634729385376e-03 -1.386515423655509949e-02 1.111554913222789764e-02 2.313419245183467865e-02 1.835124567151069641e-02 -7.477564737200737000e-03 5.760436505079269409e-02 4.836944863200187683e-02 8.350263349711894989e-03 -9.534214623272418976e-03 -6.862704176455736160e-03 -2.214611880481243134e-02 5.814611911773681641e-02 9.187670424580574036e-03 6.646901369094848633e-03 -2.296843938529491425e-02 2.573233656585216522e-02 1.139720715582370758e-02 -7.178556919097900391e-02 -1.240130048245191574e-02 1.991101074963808060e-03 5.184633657336235046e-02 3.877876326441764832e-02 1.338698249310255051e-02 -8.159391582012176514e-03 9.147008880972862244e-03 -3.159740939736366272e-02 -1.080367341637611389e-02 3.842353820800781250e-03 -1.511988881975412369e-02 4.750092700123786926e-02 -2.684563584625720978e-02 5.031902808696031570e-03 -1.227669138461351395e-02 -1.081171166151762009e-02 8.181058801710605621e-03 -2.832810953259468079e-02 -2.290652878582477570e-02 2.174880169332027435e-02 -1.970897428691387177e-02 2.896203892305493355e-03 1.204859651625156403e-02 4.525831341743469238e-02 -1.066012959927320480e-02 -1.115969941020011902e-02 1.286405418068170547e-02 -3.421030007302761078e-03 -6.614848971366882324e-02 5.307552963495254517e-02 -4.028193652629852295e-03 2.906807698309421539e-02 -7.715688087046146393e-03 7.519207894802093506e-02 2.240784093737602234e-02 6.872151792049407959e-02 -1.077066082507371902e-02 -6.400161422789096832e-03 1.399308163672685623e-02 -2.452579094097018242e-03 1.263613905757665634e-02 1.587243564426898956e-02 1.073979865759611130e-02 -1.886460557579994202e-02
9.623822756111621857e-03 1.777331531047821045e-02 3.152419626712799072e-02 5.679751629941165447e-04 4.663886036723852158e-03 -8.544861339032649994e-03 2.956115454435348511e-02 1.520354766398668289e-02 -2.930759079754352570e-02 3.742245258763432503e-03 2.578250691294670105e-02 -3.002976067364215851e-02 -7.535657845437526703e-03 7.559468969702720642e-03 -2.339014410972595215e-02 -4.180042073130607605e-02 2.255628071725368500e-02 4.958640411496162415e-02 4.985968396067619324e-02 9.528006426990032196e-03 -1.961717009544372559e-02 -5.629047285765409470e-03 4.103041253983974457e-03 -1.769224926829338074e-02 1.702876016497612000e-02 -2.946040034294128418e-02 -1.492929644882678986e-02 6.467987783253192902e-03 1.770508289337158203e-02 -3.671405091881752014e-02 -2.382990159094333649e-02 -1.092316024005413055e-02 4.321319516748189926e-03 2.182109467685222626e-02 9.278750047087669373e-03 -1.324135251343250275e-02 3.215612098574638367e-02 -4.845351912081241608e-03 -3.490331768989562988e-02 -1.184001192450523376e-02 4.565896932035684586e-03 3.903688630089163780e-03 -3.209556220099329948e-03 5.557885742746293545e-04 -8.426936343312263489e-03 -2.158387936651706696e-02 2.076434902846813202e-02 1.904379390180110931e-02 1.701263361610472202e-03 -4.250225611031055450e-03 -3.801946341991424561e-02 2.232254669070243835e-02 -2.568245306611061096e-02 -8.669863454997539520e-04 1.990825310349464417e-02 -2.472425345331430435e-03 1.506583578884601593e-02 -1.679418981075286865e-02 1.618234999477863312e-02 2.016638778150081635e-02 1.202988438308238983e-02 3.639305476099252701e-03 1.420915685594081879e-02 -1.339111384004354477e-02 -1.707828417420387268e-02 -1.582179591059684753e-02 1.316016446799039841e-02 1.899706013500690460e-02 4.666709527373313904e-02 -4.366490989923477173e-03 -4.590848833322525024e-02 -4.506687074899673462e-02 5.922416597604751587e-02 -3.281297162175178528e-02 8.009459823369979858e-03 -4.337423015385866165e-03 -1.711859926581382751e-02 -2.340652048587799072e-02 2.497105859220027924e-02 9.277424775063991547e-03 2.321860566735267639e-02 2.688625827431678772e-02 3.992385044693946838e-02 -2.070391550660133362e-02 3.866989398375153542e-03 -6.299091503024101257e-03 2.136035636067390442e-02 1.231578271836042404e-02 3.958951681852340698e-03 -2.679217606782913208e-02 1.355353184044361115e-02 -5.855106748640537262e-03 -1.719896309077739716e-02 -9.154749102890491486e-03 -1.034908182919025421e-02 -3.245180845260620117e-02 3.158905729651451111e-02 2.143271826207637787e-02 -9.509657509624958038e-03 -3.997443418484181166e-04 3.880456462502479553e-02 -7.528779562562704086e-03 -2.204116992652416229e-02 4.084724001586437225e-03 -4.684629663825035095e-02 2.685869857668876648e-02 8.848427678458392620e-04 4.452966095414012671e-04 -1.539056282490491867e-02 -3.626149520277976990e-02 9.173097088932991028e-03 1.033094432204961777e-02 -1.996713457629084587e-03 -2.910829335451126099e-02 2.485455013811588287e-02 3.440973162651062012e-02 -2.983586629852652550e-03 -2.704695099964737892e-03 2.144772000610828400e-02 -1.234842091798782349e-02 -1.150418817996978760e-02 1.617416091903578490e-05 1.711733825504779816e-02 -2.444157749414443970e-02 6.647528149187564850e-03 1.209450792521238327e-02 3.219760209321975708e-02 9.545536711812019348e-03
3.928937390446662903e-02 2.309866808354854584e-02 4.308155551552772522e-02 6.945020053535699844e-03 -7.138859480619430542e-03 4.319789260625839233e-02 4.237953200936317444e-02 -3.422143682837486267e-02 -7.709441240876913071e-03 -3.194541484117507935e-02 4.240238666534423828e-02 -4.777461756020784378e-03 5.222415551543235779e-02 -3.282957244664430618e-03 6.691806018352508545e-03 2.716589905321598053e-02 -2.685224451124668121e-02 5.133031681180000305e-02 4.287558794021606445e-02 3.191194683313369751e-02 2.066325768828392029e-02 -1.458249893039464951e-02 -4.817473236471414566e-03 -4.543630778789520264e-02 5.885993316769599915e-02 3.893944376613944769e-04 -2.028828486800193787e-02 1.248810905963182449e-02 1.918795518577098846e-02 3.836929332464933395e-03 2.993454225361347198e-03 5.441834032535552979e-02 4.559622611850500107e-03 -1.046371646225452423e-02 2.772169001400470734e-02 2.521215379238128662e-02 -2.001395449042320251e-02 5.891090258955955505e-04 3.544978098943829536e-03 -2.621380984783172607e-02 1.597701013088226318e-02 4.922535642981529236e-02 2.679949812591075897e-02 -3.239467507228255272e-03 1.932745613157749176e-02 -4.127619042992591858e-02 -2.179191447794437408e-02 -4.619184415787458420e-03 3.441585972905158997e-02 -9.452031552791595459e-02 -4.045917838811874390e-02 -4.295386001467704773e-02 2.683019824326038361e-02 -3.796885907649993896e-02 -2.482434548437595367e-02 7.518530357629060745e-03 -1.194937713444232941e-02 2.961453516036272049e-03 -2.099521644413471222e-02 1.536907348781824112e-02 -9.006323525682091713e-04 -1.572464033961296082e-02 -1.972881704568862915e-02 4.765729419887065887e-03 -3.019842843059450388e-04 -3.481616452336311340e-02 3.323282301425933838e-02 2.338314987719058990e-02 2.588163502514362335e-02 -1.161781838163733482e-03 3.592067956924438477e-02 -3.073465265333652496e-02 1.681940443813800812e-02 -9.577104821801185608e-03 -1.300524547696113586e-02 -8.431214839220046997e-03 -2.978454530239105225e-02 1.762472651898860931e-02 2.414665929973125458e-02 -3.833789378404617310e-02 3.835016489028930664e-02 4.084467142820358276e-02 -7.311568333534523845e-05 -1.323666144162416458e-02 -4.717951174825429916e-03 2.077994868159294128e-02 -3.526036813855171204e-02 1.274658553302288055e-02 7.204776629805564880e-03 2.950704470276832581e-02 -4.594263155013322830e-03 -7.401466835290193558e-03 -1.921788603067398071e-02 5.028840154409408569e-03 -3.261443972587585449e-02 2.889134921133518219e-02 1.486127078533172607e-02 -1.773958653211593628e-02 9.109547361731529236e-03 1.743630692362785339e-02 -2.298659086227416992e-02 -3.685506805777549744e-02 1.271120924502611160e-02 2.375982888042926788e-02 -6.258675456047058105e-02 8.870814926922321320e-03 -1.204043626785278320e-02 1.620108820497989655e-02 -1.961906068027019501e-02 -1.729663461446762085e-03 -2.409724704921245575e-02 -1.982454396784305573e-02 -3.029345348477363586e-02 -8.656366728246212006e-03 -2.479621022939682007e-02 3.528701141476631165e-02 -1.611507870256900787e-02 1.707120798528194427e-02 -3.913911432027816772e-02 -4.577069729566574097e-02 4.097480792552232742e-03 1.469071488827466965e-02 6.897801649756729603e-04 -3.569481149315834045e-02 2.263283729553222656e-02 -1.517981849610805511e-02 2.859772928059101105e-02 -9.923762641847133636e-03
1.575503498315811157e-02 -2.842455729842185974e-02 2.113333158195018768e-02 -8.962042629718780518e-03 1.274133753031492233e-02 3.903195634484291077e-02 2.011055685579776764e-02 -2.532982267439365387e-02 -1.128731854259967804e-02 2.229198440909385681e-02 1.066226046532392502e-03 1.446788944303989410e-02 5.823502317070960999e-02 5.695230886340141296e-02 -7.806520443409681320e-03 -3.269056230783462524e-02 -2.277372218668460846e-02 -1.899317838251590729e-02 1.768492162227630615e-02 1.396008208394050598e-02 -3.253836557269096375e-02 3.044540621340274811e-02 1.798925106413662434e-03 2.218782342970371246e-02 3.221916779875755310e-02 -9.656615555286407471e-03 3.297580778598785400e-02 1.607846841216087341e-02 7.667768001556396484e-02 -1.383909024298191071e-02 -4.923851042985916138e-02 2.268291637301445007e-02 -9.799548424780368805e-03 7.788525521755218506e-02 1.622682251036167145e-02 2.076010964810848236e-02 -2.115047164261341095e-02 -6.083685904741287231e-02 -2.919582650065422058e-02 -1.871678046882152557e-02 3.432412445545196533e-02 7.224362343549728394e-02 -2.831461280584335327e-02 1.529287360608577728e-02 2.708125673234462738e-02 -1.540070027112960815e-02 5.193594377487897873e-03 -7.511264178901910782e-03 -6.886050105094909668e-03 -3.127363696694374084e-02 -4.441376309841871262e-03 -1.142222317866981030e-04 1.391332037746906281e-02 -3.891211934387683868e-03 5.005037784576416016e-02 -4.063476994633674622e-02 -5.598578136414289474e-03 -6.499588489532470703e-03 -1.335060317069292068e-02 6.811922881752252579e-03 -2.190064638853073120e-02 -3.913998231291770935e-02 9.173204191029071808e-03 3.630325943231582642e-02 3.625189885497093201e-02 9.001398459076881409e-03 1.019921805709600449e-02 -1.538935862481594086e-02 -1.719767600297927856e-02 1.908593112602829933e-03 1.562645845115184784e-02 -4.004626348614692688e-02 -1.347731985151767731e-02 -3.505899384617805481e-02 -1.291427481919527054e-02 -2.247464284300804138e-02 7.381461560726165771e-03 -3.802947467193007469e-03 3.226388245820999146e-02 -2.415009075775742531e-03 2.928553440142422915e-04 -3.690091893076896667e-02 1.543680950999259949e-02 2.698389999568462372e-02 -2.035883441567420959e-02 1.714671030640602112e-03 -2.308662235736846924e-02 2.304878458380699158e-02 2.985548973083496094e-02 -1.190248783677816391e-02 3.436229005455970764e-02 -1.388761773705482483e-02 4.479652643203735352e-02 2.913046628236770630e-02 -7.715357840061187744e-02 -1.161385420709848404e-02 -9.843092411756515503e-03 -3.720564767718315125e-02 5.025348439812660217e-02 1.319584716111421585e-02 1.174934580922126770e-02 -1.618600077927112579e-02 -2.635036222636699677e-02 -1.426487043499946594e-02 6.377652287483215332e-03 6.878165993839502335e-03 -2.308230660855770111e-02 -4.640943557024002075e-02 1.227334327995777130e-02 4.303851723670959473e-02 -3.326773270964622498e-02 1.885273959487676620e-03 -2.081658691167831421e-02 -1.991267874836921692e-02 -2.250557951629161835e-02 -1.315603218972682953e-02 1.458902563899755478e-02 -5.201832205057144165e-02 2.341338992118835449e-02 1.168709434568881989e-02 -1.362367416732013226e-03 2.969690039753913879e-02 -2.994908019900321960e-02 3.868513926863670349e-02 -2.878455072641372681e-02 -7.772088516503572464e-03 -9.957289323210716248e-03 1.570709794759750366e-02
4.337713122367858887e-02 3.932832181453704834e-02 -2.020375989377498627e-02 5.405376851558685303e-02 -3.171522868797183037e-03 2.085119672119617462e-02 -2.575699053704738617e-02 1.574089750647544861e-02 -3.350296989083290100e-02 -1.398236118257045746e-02 -1.388058532029390335e-03 -7.399010471999645233e-03 1.339204260148108006e-03 -1.807910157367587090e-03 -4.957274533808231354e-03 4.438479989767074585e-02 -6.290636025369167328e-03 1.762703061103820801e-02 -2.105421852320432663e-03 -7.360649853944778442e-02 -1.579227484762668610e-02 -7.233592122793197632e-02 -3.026096522808074951e-02 5.407917127013206482e-02 -1.862353459000587463e-02 -1.178654469549655914e-02 1.626024581491947174e-02 -1.777043449692428112e-03 -2.721039392054080963e-02 -3.744137287139892578e-02 3.229245916008949280e-02 -3.743061795830726624e-02 -3.115896880626678467e-02 -3.260356560349464417e-02 6.057872995734214783e-02 -2.113118208944797516e-02 -2.069442532956600189e-02 2.505468018352985382e-02 7.443101610988378525e-03 4.112322255969047546e-02 -2.809899859130382538e-02 1.939068175852298737e-02 -2.012282796204090118e-02 -1.820646412670612335e-02 -1.585124176926910877e-03 2.380365505814552307e-02 -3.395639068912714720e-04 -1.869967952370643616e-02 -2.702315896749496460e-02 -3.008170751854777336e-03 2.773547312244772911e-03 1.620013453066349030e-02 3.180260211229324341e-02 3.929153457283973694e-02 1.881406526081264019e-03 1.058898866176605225e-03 4.621155560016632080e-02 -2.807468175888061523e-02 -4.518767818808555603e-03 -4.022213071584701538e-02 -2.141239121556282043e-02 -7.625486236065626144e-03 -1.694093458354473114e-02 5.607024207711219788e-02 4.574106074869632721e-03 5.743221938610076904e-02 -3.517636656761169434e-02 -6.436432152986526489e-02 -3.202497726306319237e-03 2.334835566580295563e-02 5.045193433761596680e-02 -9.904555045068264008e-03 -2.286371961236000061e-02 1.617616973817348480e-02 -6.467970460653305054e-02 3.407914936542510986e-02 3.532500192523002625e-02 -2.047825790941715240e-02 -1.398797146975994110e-02 3.556253761053085327e-02 -1.245005242526531219e-02 3.014241717755794525e-02 -1.758630573749542236e-02 -7.488109637051820755e-03 -1.443393435329198837e-02 4.795713815838098526e-03 -2.212239801883697510e-02 -6.081578135490417480e-02 -1.753731258213520050e-02 2.474547177553176880e-02 -7.914516329765319824e-02 9.641475044190883636e-03 -1.248800102621316910e-02 -3.761653229594230652e-02 1.535650808364152908e-02 -2.674892172217369080e-02 1.935973390936851501e-02 -2.809023857116699219e-02 -2.941355481743812561e-02 -5.785043165087699890e-02 9.344272315502166748e-03 -1.878487318754196167e-02 3.102267906069755554e-02 -3.181222453713417053e-02 -2.905949763953685760e-02 -4.212155938148498535e-02 6.317205727100372314e-02 5.082862824201583862e-02 -2.022304385900497437e-02 2.657035924494266510e-02 -3.464348241686820984e-02 -1.232063770294189453e-02 4.795624315738677979e-02 1.116297557018697262e-03 -4.038451239466667175e-02 -2.416506037116050720e-02 -2.296566218137741089e-02 -3.120141336694359779e-03 4.410042613744735718e-02 -6.559226312674582005e-04 -2.057964447885751724e-03 1.856355182826519012e-02 1.134273037314414978e-02 -5.353902280330657959e-02 -1.841240189969539642e-02 5.623003467917442322e-02 -8.595623075962066650e-03 3.607587516307830811e-02
-2.977545745670795441e-02 2.470957301557064056e-02 4.878652840852737427e-02 -4.583125410135835409e-04 3.071759082376956940e-02 -1.526100840419530869e-02 -3.078179992735385895e-02 -2.680176310241222382e-02 -4.621928092092275620e-03 2.270897105336189270e-02 4.672263562679290771e-02 -3.037306293845176697e-02 -3.474554512649774551e-03 1.204188540577888489e-02 -1.414207648485898972e-02 -8.824560791254043579e-03 4.229924082756042480e-02 -4.896608646959066391e-03 2.030511759221553802e-02 3.544921055436134338e-03 1.317924819886684418e-02 1.371273212134838104e-02 -6.727529689669609070e-04 2.091132104396820068e-03 4.687662236392498016e-03 -1.391714345663785934e-02 -1.767553016543388367e-02 -2.590209944173693657e-03 -6.582622881978750229e-03 -2.093532867729663849e-02 1.303704571910202503e-03 -3.799791214987635612e-03 -1.018885304802097380e-04 -8.645871654152870178e-03 -2.545684203505516052e-02 -1.090290397405624390e-02 -1.477507967501878738e-02 -4.084870591759681702e-02 -6.147068343125283718e-04 -5.304745957255363464e-02 -2.513444796204566956e-02 -5.063583143055438995e-03 2.262234687805175781e-02 -1.308795157819986343e-02 1.636029593646526337e-02 -4.952031001448631287e-02 -6.676536053419113159e-03 -1.226958632469177246e-02 1.863426156342029572e-02 3.731568576768040657e-03 -3.327216207981109619e-02 6.131249247118830681e-04 -1.870932802557945251e-02 -2.738991286605596542e-03 8.749356493353843689e-03 -7.017867173999547958e-03 7.391109131276607513e-03 -8.713556453585624695e-03 -3.535475349053740501e-03 4.111124575138092041e-02 2.533265156671404839e-03 -6.574529409408569336e-02 2.411358244717121124e-02 -8.943993598222732544e-03 -7.806057576090097427e-03 3.656097874045372009e-02 1.240597665309906006e-02 1.936097443103790283e-02 2.611322700977325439e-02 2.557243453338742256e-03 6.276093423366546631e-03 2.066019549965858459e-02 2.799296565353870392e-02 2.076527103781700134e-02 3.753670305013656616e-02 2.571897581219673157e-03 -9.344505146145820618e-03 -5.387281253933906555e-02 -8.295089937746524811e-03 3.882384672760963440e-02 -5.077134817838668823e-03 2.253891341388225555e-02 6.718572229146957397e-02 -4.668728448450565338e-03 -3.737824410200119019e-02 -9.566641412675380707e-03 2.471911488100886345e-03 -2.100826427340507507e-02 1.998931169509887695e-02 -2.806120552122592926e-02 3.595974529162049294e-03 2.689274586737155914e-02 1.540692895650863647e-02 -2.346559427678585052e-02 -8.866777643561363220e-03 3.304327838122844696e-03 -4.456622526049613953e-03 5.722951516509056091e-02 3.207426518201828003e-02 3.561126766726374626e-03 -1.156588830053806305e-02 -4.819614067673683167e-02 3.903414821252226830e-03 1.743976026773452759e-02 -3.098529018461704254e-02 -3.977772220969200134e-02 -7.191731780767440796e-02 -1.632187888026237488e-02 2.003023400902748108e-02 4.612239450216293335e-02 -1.845753751695156097e-03 -2.368144690990447998e-03 -1.251988951116800308e-02 -1.283015869557857513e-02 1.349398214370012283e-02 -5.062373355031013489e-02 -4.138343408703804016e-02 -2.027315273880958557e-02 -1.232233084738254547e-02 -9.607869200408458710e-03 2.027095854282379150e-02 -3.949160687625408173e-03 4.846851155161857605e-02 -5.590167362242937088e-03 5.411643651314079762e-04 2.307445369660854340e-02 7.634399831295013428e-02 9.914505295455455780e-03
