-8.714300394058227539e-02 -2.570150885730981827e-03 -4.339209944009780884e-02 3.092857822775840759e-02 1.273091882467269897e-01 -4.849984124302864075e-02 2.340395003557205200e-03 3.294935077428817749e-02 -1.552555989474058151e-02 5.845628306269645691e-02 4.541801661252975464e-02 -3.021606802940368652e-02 1.137323956936597824e-02 1.361457514576613903e-03 -1.931640692055225372e-02 2.843893831595778465e-03 -8.335784077644348145e-02 -7.339689414948225021e-03 -3.023255802690982819e-02 7.656753808259963989e-02 6.222096458077430725e-02 -2.109984681010246277e-02 1.173241436481475830e-02 -3.789603710174560547e-02 8.674852550029754639e-02 -8.516081608831882477e-03 -6.057405844330787659e-02 5.633021891117095947e-02 2.338468842208385468e-02 1.091657951474189758e-02 -3.965416550636291504e-02 -1.376944500952959061e-02 -3.154542669653892517e-02 5.875376239418983459e-02 -9.176830761134624481e-03 -1.955106668174266815e-02 -6.124994531273841858e-02 3.057404607534408569e-02 1.092977598309516907e-01 -2.990751154720783234e-02 1.521748155355453491e-01 -8.113369345664978027e-02 6.456296145915985107e-02 2.947604469954967499e-02 -9.258541464805603027e-02 -5.603386834263801575e-02 1.005902048200368881e-02 4.388343915343284607e-02 -7.706735283136367798e-02 4.218865185976028442e-02 -1.179742533713579178e-02 1.431049220263957977e-02 3.105801902711391449e-02 3.929986432194709778e-02 -4.611367825418710709e-03 2.382200956344604492e-02 -7.020261883735656738e-02 4.867515712976455688e-02 5.262898653745651245e-02 -1.324160099029541016e-01 2.325274981558322906e-02 2.525758929550647736e-02 4.458482190966606140e-02 -1.215854138135910034e-01 7.643958088010549545e-03 -8.549342304468154907e-02 1.050413865596055984e-02 -1.873197965323925018e-02 -7.328119874000549316e-02 -5.763287469744682312e-02 -4.374191537499427795e-02 -1.650996878743171692e-02 -5.035563185811042786e-02 2.919090725481510162e-02 9.980525821447372437e-02 -7.070928812026977539e-02 1.662110351026058197e-02 1.364364922046661377e-01 -1.159986630082130432e-01 -2.681433781981468201e-02 -5.420235544443130493e-02 -4.952146485447883606e-02 9.087319672107696533e-02 -3.914202377200126648e-02 4.079398885369300842e-02 4.517238214612007141e-02 3.863740339875221252e-02 -9.567318484187126160e-04 -5.110966041684150696e-02 -4.049298167228698730e-02 6.299624592065811157e-02 8.435434661805629730e-03 1.755224913358688354e-02 1.022899821400642395e-01 4.899191856384277344e-02 1.184507273137569427e-02 7.861244492232799530e-03 -1.771060936152935028e-02 1.661995891481637955e-03 4.921598732471466064e-02 -8.120977319777011871e-03 1.772006275132298470e-03 -3.530447185039520264e-02 7.760330289602279663e-02 6.395223084837198257e-03 -1.274935342371463776e-02 -5.129953846335411072e-02 -5.504544824361801147e-02 1.541382283903658390e-03 -7.213376462459564209e-02 1.004137843847274780e-01 -6.984104402363300323e-03 4.610494896769523621e-02 -4.862555861473083496e-02 3.166344016790390015e-02 -2.053283527493476868e-02 4.183853510767221451e-03 3.405125439167022705e-02 -5.612554401159286499e-02 -5.955697596073150635e-02 7.886126986704766750e-04 -2.337354421615600586e-02 8.802866935729980469e-02 7.828518003225326538e-02 1.011019349098205566e-01 -3.895565494894981384e-02 -5.819046869874000549e-02 3.611079975962638855e-02
-5.493290722370147705e-03 3.399734152480959892e-03 4.973581433296203613e-02 -9.655530750751495361e-02 -8.673880994319915771e-02 -1.125643216073513031e-02 2.141890674829483032e-02 -2.804839052259922028e-02 1.154958084225654602e-01 2.005919069051742554e-02 -4.329245910048484802e-02 1.237739622592926025e-02 -3.122926224023103714e-03 -5.862033367156982422e-02 1.612558029592037201e-02 3.063056431710720062e-02 1.785430498421192169e-02 1.304779201745986938e-02 1.262199785560369492e-02 2.633086778223514557e-02 -1.961548253893852234e-02 3.919465839862823486e-02 6.736419349908828735e-02 -6.326857209205627441e-02 -4.005157947540283203e-02 -1.202341169118881226e-02 6.487766746431589127e-03 -6.565989460796117783e-03 -5.227034911513328552e-02 -3.916424885392189026e-02 1.762851141393184662e-02 -1.899832859635353088e-02 -2.026728913187980652e-02 -2.941049076616764069e-02 -5.344068259000778198e-02 7.218547165393829346e-02 7.308574020862579346e-02 2.820063568651676178e-02 -1.979379303520545363e-04 6.043142452836036682e-02 -3.416117280721664429e-02 -8.765474706888198853e-02 -2.251499146223068237e-02 1.597221940755844116e-02 -2.431484172120690346e-03 -1.657984964549541473e-02 -1.028058119118213654e-02 1.827749609947204590e-02 1.991541590541601181e-03 -2.096027135848999023e-02 5.557444319128990173e-02 -3.348254784941673279e-02 -8.883541822433471680e-02 3.325989842414855957e-02 -1.737833023071289062e-02 4.921696335077285767e-02 -2.873197756707668304e-02 7.390804588794708252e-02 -1.697481609880924225e-02 -4.432605113834142685e-03 1.096727419644594193e-02 -2.694796025753021240e-02 -4.715696722269058228e-02 -1.620767265558242798e-02 6.528090685606002808e-02 -8.667055517435073853e-02 -1.103712152689695358e-02 2.246603928506374359e-02 -7.563863694667816162e-02 -4.774008691310882568e-02 -2.023640833795070648e-02 -4.803435411304235458e-03 -2.429788745939731598e-02 2.866499498486518860e-02 6.215092539787292480e-02 5.196151882410049438e-02 4.348548874258995056e-02 -3.275640308856964111e-02 2.668167231604456902e-03 -4.204569756984710693e-02 -7.250377442687749863e-03 -2.913794480264186859e-02 -7.992714643478393555e-02 -1.788680627942085266e-02 8.604842424392700195e-02 3.790864720940589905e-02 1.833187229931354523e-02 -2.238177694380283356e-03 -9.339290857315063477e-02 7.287241518497467041e-02 7.564963307231664658e-03 -2.771665900945663452e-02 3.492557443678379059e-03 -1.718003302812576294e-02 -1.690294779837131500e-02 -2.319759689271450043e-02 -7.968915253877639771e-02 8.500413596630096436e-02 -3.134451434016227722e-02 4.106346890330314636e-02 7.993698865175247192e-02 -1.534160971641540527e-02 3.157239779829978943e-02 -5.811043083667755127e-03 9.757184237241744995e-02 6.555861234664916992e-02 3.162115812301635742e-03 -7.912855595350265503e-03 5.606777220964431763e-02 -2.784895338118076324e-02 5.798038467764854431e-02 3.146732971072196960e-02 5.757155269384384155e-02 -4.207613877952098846e-03 6.903793197125196457e-03 -1.464560627937316895e-02 9.461270272731781006e-02 4.925986006855964661e-02 -3.798868134617805481e-02 2.660660445690155029e-02 4.347861185669898987e-02 -3.811319917440414429e-02 -5.844012647867202759e-02 1.426337100565433502e-02 5.307781696319580078e-02 4.083127528429031372e-02 -1.737850345671176910e-02 -1.480424962937831879e-02
-3.410872444510459900e-02 -2.001198567450046539e-02 -1.885278150439262390e-02 -3.994854167103767395e-02 -1.189194526523351669e-02 1.135783549398183823e-02 1.492247544229030609e-02 7.113145664334297180e-03 -5.122939869761466980e-02 7.641729433089494705e-03 2.518991567194461823e-02 -3.554582595825195312e-02 -4.300335794687271118e-02 1.092741638422012329e-01 1.286520995199680328e-02 -2.854292653501033783e-02 5.058153718709945679e-02 -7.560141384601593018e-03 -4.210592433810234070e-02 -5.911275744438171387e-02 2.230413444340229034e-02 5.474069621413946152e-03 -4.388721659779548645e-02 7.764990907162427902e-03 -2.350717224180698395e-02 3.058945573866367340e-02 2.026653289794921875e-02 -5.325515568256378174e-02 -4.737281799316406250e-02 -2.202842198312282562e-02 -1.168792601674795151e-02 4.052794352173805237e-02 -6.381317973136901855e-03 -2.691221656277775764e-03 4.301032051444053650e-02 4.602416232228279114e-02 2.256444096565246582e-02 3.367038443684577942e-02 -1.145042032003402710e-01 -2.819277904927730560e-02 5.111842975020408630e-02 -2.497585117816925049e-02 2.578232251107692719e-02 -1.600060058990493417e-04 -3.317485563457012177e-03 3.393290564417839050e-02 -3.481248021125793457e-02 -6.711526960134506226e-02 5.865374952554702759e-02 -1.034357957541942596e-02 -4.168476909399032593e-02 -6.144820526242256165e-02 3.877568244934082031e-02 1.269349269568920135e-02 -6.414780765771865845e-02 -1.860463246703147888e-02 3.418618068099021912e-02 -9.598569571971893311e-02 -4.296338185667991638e-02 -7.444892544299364090e-03 -4.612868651747703552e-02 3.989816457033157349e-02 3.703530505299568176e-02 5.382859706878662109e-02 -1.145854964852333069e-02 1.889440976083278656e-02 -5.513116717338562012e-02 2.718555554747581482e-02 3.732193633913993835e-02 3.530856594443321228e-02 4.470817657420411706e-05 1.211213693022727966e-01 7.756596803665161133e-02 9.281456470489501953e-03 8.989169728010892868e-04 -5.545642692595720291e-03 -3.720536828041076660e-02 8.911669999361038208e-02 1.005049329251050949e-02 -1.031585223972797394e-02 -2.458911575376987457e-02 2.509630285203456879e-02 1.869370043277740479e-02 -9.256833046674728394e-02 -1.137379184365272522e-02 -1.152012869715690613e-02 5.802163109183311462e-02 7.151997834444046021e-02 2.156603336334228516e-02 -3.156052902340888977e-02 1.918635889887809753e-02 -4.573553800582885742e-02 -3.851521387696266174e-02 -9.758943691849708557e-03 -3.267547860741615295e-02 6.523971259593963623e-02 -4.260978847742080688e-02 1.383597310632467270e-02 -3.129884228110313416e-02 -2.179052308201789856e-02 -6.667204666882753372e-03 -5.030004680156707764e-02 -2.545588091015815735e-02 1.546008791774511337e-02 -3.374316915869712830e-02 -5.013548303395509720e-03 3.197550401091575623e-02 7.653828710317611694e-02 -1.214534603059291840e-02 -1.662059873342514038e-02 2.948101609945297241e-02 3.370069200173020363e-03 -1.009201556444168091e-01 9.083376824855804443e-02 3.103689057752490044e-03 3.404019027948379517e-02 -2.522821305319666862e-03 8.282850682735443115e-02 3.607000410556793213e-02 1.211351677775382996e-01 -7.110634353011846542e-03 -7.243856787681579590e-03 1.518206391483545303e-02 1.434500212781131268e-03 2.133738994598388672e-02 3.485514968633651733e-02 2.022434026002883911e-02 -3.632788360118865967e-02
1.129093021154403687e-02 4.654163867235183716e-02 4.338953644037246704e-02 5.342735908925533295e-03 -1.543509960174560547e-02 -1.810391806066036224e-02 7.263612747192382812e-02 4.221205785870552063e-02 -3.563604503870010376e-02 -2.879728004336357117e-02 6.588035076856613159e-02 -6.139561533927917480e-02 -4.520989209413528442e-02 -2.395497448742389679e-02 -4.527477547526359558e-02 -8.387123793363571167e-02 4.806612804532051086e-02 1.131377369165420532e-01 9.329838305711746216e-02 1.192641723901033401e-02 -1.689914800226688385e-02 -2.295438945293426514e-02 8.168188855051994324e-03 -2.951900660991668701e-02 -2.358740568161010742e-02 -3.434998914599418640e-02 -5.298212543129920959e-02 4.456050321459770203e-02 5.638635158538818359e-02 -6.022047996520996094e-02 -3.408658877015113831e-02 -4.194163903594017029e-02 5.264853686094284058e-02 3.181979432702064514e-02 2.049417234957218170e-02 -3.919262439012527466e-02 3.853160887956619263e-02 5.123774986714124680e-03 -5.411633476614952087e-02 -2.483827434480190277e-02 -8.087981492280960083e-03 2.370278351008892059e-02 -2.520453557372093201e-02 -1.044990145601332188e-03 7.814592681825160980e-03 -3.823060542345046997e-02 4.640015214681625366e-02 2.286711148917675018e-02 9.505605325102806091e-03 -1.281190896406769753e-03 -9.275230020284652710e-02 4.239049553871154785e-02 -4.450336098670959473e-02 -4.611488804221153259e-02 3.514659777283668518e-02 2.867057919502258301e-02 3.132799267768859863e-02 -4.928085207939147949e-02 1.030845381319522858e-02 5.398672446608543396e-02 3.198451176285743713e-02 3.592614829540252686e-02 2.101951465010643005e-02 -3.034230507910251617e-02 -3.137741982936859131e-02 -2.357487753033638000e-02 2.320958673954010010e-02 5.237587913870811462e-02 1.042628213763237000e-01 -1.237967750057578087e-03 -9.822072088718414307e-02 -6.626251339912414551e-02 1.328538507223129272e-01 -6.610776484012603760e-02 -5.747183226048946381e-03 -1.539044640958309174e-02 -4.295409098267555237e-02 -3.246917203068733215e-02 4.743427783250808716e-02 1.164255384355783463e-02 6.994418054819107056e-02 4.831126332283020020e-02 6.247080862522125244e-02 -1.275676209479570389e-02 1.525119412690401077e-02 -4.006860405206680298e-02 3.948383405804634094e-02 2.804538235068321228e-02 4.170385655015707016e-03 -5.390822514891624451e-02 1.190086640417575836e-02 3.809774061664938927e-03 -3.563922643661499023e-02 -1.292820181697607040e-02 -3.106355853378772736e-02 -5.267398804426193237e-02 7.562899589538574219e-02 2.533840388059616089e-02 -4.332860559225082397e-02 -1.942316256463527679e-02 7.531397044658660889e-02 -1.557987183332443237e-02 -3.601067885756492615e-02 2.573147229850292206e-02 -9.403914213180541992e-02 4.375911504030227661e-02 2.528622187674045563e-02 8.008434087969362736e-04 -4.425950720906257629e-02 -8.482135087251663208e-02 1.313354913145303726e-02 2.419395186007022858e-02 1.271216082386672497e-03 -5.925341695547103882e-02 6.832978129386901855e-02 6.473205983638763428e-02 -9.939075447618961334e-03 1.349481474608182907e-02 3.907983005046844482e-02 -2.726682694628834724e-03 -7.070971652865409851e-03 2.082241326570510864e-02 -5.712528713047504425e-03 -5.437623709440231323e-02 1.375937741249799728e-02 -3.196492791175842285e-03 3.858910873532295227e-02 -9.006417240016162395e-04
4.124192520976066589e-02 3.827498853206634521e-02 3.817319497466087341e-02 1.521161384880542755e-02 2.337587764486670494e-03 6.094406917691230774e-02 6.990693509578704834e-02 -4.202659428119659424e-02 6.918172352015972137e-03 -4.453386366367340088e-02 5.800654739141464233e-02 -5.821387749165296555e-03 6.057754904031753540e-02 -1.013200264424085617e-02 6.152559071779251099e-03 4.645474255084991455e-02 -4.764833301305770874e-02 6.230869144201278687e-02 5.281004309654235840e-02 3.037986718118190765e-02 2.103489451110363007e-02 -5.269379913806915283e-02 -3.900195658206939697e-02 -7.335840165615081787e-02 7.722503691911697388e-02 -2.005713060498237610e-02 -7.063040509819984436e-03 3.042634390294551849e-02 4.663908481597900391e-02 4.206186626106500626e-03 1.230581011623144150e-02 6.205322965979576111e-02 -3.711948636919260025e-03 -2.894404344260692596e-02 5.429603159427642822e-02 2.280395291745662689e-02 -3.662803024053573608e-02 8.529739454388618469e-03 2.728606341406702995e-03 -3.394147381186485291e-02 -9.771025739610195160e-03 5.618965998291969299e-02 4.968661814928054810e-02 -1.096877548843622208e-02 4.287033900618553162e-02 -1.098129898309707642e-02 -5.536822974681854248e-02 -6.602056324481964111e-03 7.061871141195297241e-02 -1.441560387611389160e-01 -3.958491235971450806e-02 -3.947523236274719238e-02 3.982644900679588318e-02 -7.368062436580657959e-02 -3.387399762868881226e-02 2.495667431503534317e-03 -3.163223713636398315e-02 -8.977551013231277466e-03 -1.993738301098346710e-02 1.103935297578573227e-02 -1.049185823649168015e-02 -9.345681406557559967e-03 -3.635833039879798889e-02 1.788844168186187744e-02 -6.275636143982410431e-03 -2.527000382542610168e-02 5.190968140959739685e-02 5.638085678219795227e-02 3.470583632588386536e-02 2.677618525922298431e-02 7.010512799024581909e-02 -3.941741958260536194e-02 2.873692847788333893e-02 -2.303104661405086517e-02 -4.085971415042877197e-02 -3.318581730127334595e-02 -5.652265623211860657e-02 3.635716438293457031e-02 2.458068728446960449e-02 -6.869497150182723999e-02 6.344938278198242188e-02 5.233219638466835022e-02 1.853745989501476288e-02 -3.645450575277209282e-03 2.983039710670709610e-03 1.384412217885255814e-02 -5.977384001016616821e-02 2.868224866688251495e-02 5.100244190543889999e-03 -2.599984640255570412e-03 -2.687964402139186859e-02 3.241976350545883179e-02 -4.132144525647163391e-02 -4.558525688480585814e-04 -2.414590306580066681e-02 2.712475694715976715e-02 2.528967149555683136e-02 -2.010855637490749359e-02 -6.931252777576446533e-03 1.619905419647693634e-02 -2.508333139121532440e-02 -4.838874936103820801e-02 8.043247275054454803e-03 3.185026720166206360e-02 -7.576648145914077759e-02 -1.701731234788894653e-02 3.035848960280418396e-03 2.484547346830368042e-02 -3.445282578468322754e-02 1.146373338997364044e-02 -4.510129988193511963e-02 -3.265159577131271362e-02 -1.163417287170886993e-02 -4.773070395458489656e-04 -4.301786050200462341e-02 6.722083687782287598e-02 -1.986918598413467407e-02 3.974509984254837036e-02 -5.257752910256385803e-02 -7.345750182867050171e-02 1.034516468644142151e-02 2.535042166709899902e-02 1.864540390670299530e-03 -5.205747112631797791e-02 3.518903255462646484e-02 -1.176167093217372894e-02 3.734827041625976562e-02 -5.593047011643648148e-03
2.410267293453216553e-02 -4.403843358159065247e-02 1.696932874619960785e-02 -8.581900969147682190e-03 7.638536393642425537e-03 6.997134536504745483e-02 5.450590979307889938e-03 -3.848026692867279053e-02 -2.285431697964668274e-02 2.111438475549221039e-02 -6.136744283139705658e-03 2.223668247461318970e-02 1.049859300255775452e-01 8.593799173831939697e-02 -2.878770045936107635e-02 -4.881946370005607605e-02 -4.306079447269439697e-02 -1.713591627776622772e-02 3.534180298447608948e-02 3.009178675711154938e-03 -5.192074179649353027e-02 2.167287655174732208e-02 -1.273654028773307800e-02 2.870525047183036804e-02 6.277006864547729492e-02 -5.504737608134746552e-03 5.018799006938934326e-02 2.097711898386478424e-02 1.040066108107566833e-01 -9.570016525685787201e-03 -7.841954380273818970e-02 4.836323484778404236e-02 6.198675371706485748e-03 9.830366075038909912e-02 1.992149464786052704e-02 3.478301689028739929e-02 -4.667100682854652405e-02 -6.747065484523773193e-02 -3.757073730230331421e-02 -2.735855244100093842e-02 5.466794967651367188e-02 9.308639913797378540e-02 -4.494012519717216492e-02 4.147363826632499695e-03 3.107844106853008270e-02 -3.408402949571609497e-02 2.967065665870904922e-03 -3.309321403503417969e-02 -5.508896429091691971e-03 -4.372858256101608276e-02 -2.242817729711532593e-02 -7.306979503482580185e-03 2.575729042291641235e-02 -2.087362669408321381e-02 6.531620770692825317e-02 -5.176496878266334534e-02 1.462809089571237564e-02 1.648158882744610310e-03 -3.285389393568038940e-02 2.591612376272678375e-02 -1.836052350699901581e-02 -3.559612110257148743e-02 2.595113217830657959e-02 6.003345176577568054e-02 4.324146360158920288e-02 4.377448186278343201e-02 2.545734494924545288e-02 -2.051497809588909149e-02 -1.164982374757528305e-02 4.826110322028398514e-03 2.561631053686141968e-02 -6.048158928751945496e-02 -1.362603157758712769e-02 -6.535957008600234985e-02 -3.339098393917083740e-02 -2.551432326436042786e-02 2.610289724543690681e-03 -3.984697628766298294e-03 4.136809334158897400e-02 -1.551936194300651550e-02 6.806697696447372437e-03 -5.821713432669639587e-02 6.572641432285308838e-03 3.818127512931823730e-02 -3.041732311248779297e-02 -2.605369445518590510e-05 -2.834939584136009216e-02 4.359688982367515564e-02 7.374353706836700439e-02 -8.431599475443363190e-03 4.850346967577934265e-02 -2.031834423542022705e-02 5.070255696773529053e-02 4.178066179156303406e-02 -9.735433757305145264e-02 -1.758970320224761963e-02 -1.246672007255256176e-03 -7.352937012910842896e-02 8.302911370992660522e-02 2.741188369691371918e-02 -5.102382507175207138e-03 -2.141321823000907898e-02 -3.840673342347145081e-02 -3.864390775561332703e-02 8.086863905191421509e-03 2.037864550948143005e-02 -2.461538277566432953e-02 -7.525203377008438110e-02 4.640679806470870972e-03 5.977805703878402710e-02 -5.676314234733581543e-02 4.748972598463296890e-03 -3.578941524028778076e-02 -1.514269225299358368e-02 -4.056213423609733582e-02 4.235146567225456238e-03 -8.414521580561995506e-04 -6.704038381576538086e-02 5.251330509781837463e-02 2.074906602501869202e-02 -1.571138203144073486e-02 6.510771811008453369e-02 -4.746072739362716675e-02 4.420856758952140808e-02 -5.918364226818084717e-02 -6.528131198137998581e-03 3.044671029783785343e-04 3.793345764279365540e-02
8.183804154396057129e-02 5.263013765215873718e-02 -3.809908404946327209e-02 8.956116437911987305e-02 -2.932055667042732239e-02 1.753124408423900604e-02 -2.857325412333011627e-02 2.132354862987995148e-02 -6.559655815362930298e-02 -1.803213730454444885e-02 -2.781140990555286407e-02 2.411533892154693604e-02 -1.500811777077615261e-03 1.394469756633043289e-03 7.780675776302814484e-03 7.125040143728256226e-02 -2.013014018302783370e-04 9.832600131630897522e-03 -2.265265583992004395e-02 -8.222521096467971802e-02 -3.846532851457595825e-02 -6.404201686382293701e-02 -1.712512969970703125e-02 8.721280097961425781e-02 -3.183618932962417603e-02 -5.566649488173425198e-04 2.595074288547039032e-02 -3.726831451058387756e-02 -4.203527793288230896e-02 -2.618567273020744324e-02 5.886207893490791321e-02 -4.414161667227745056e-02 -4.193226993083953857e-02 -2.750847116112709045e-02 9.739939123392105103e-02 -4.516269266605377197e-02 4.302149638533592224e-03 2.597255073487758636e-02 4.439662676304578781e-03 7.891546934843063354e-02 -4.349198192358016968e-02 3.174518793821334839e-02 -4.357343539595603943e-02 -1.192588731646537781e-02 1.650145510211586952e-03 4.287385940551757812e-02 7.356253918260335922e-03 -1.502563059329986572e-02 -3.909485787153244019e-02 9.704307653009891510e-03 3.931422159075737000e-02 3.360089659690856934e-02 3.451764583587646484e-02 7.884397357702255249e-02 1.541105937212705612e-02 4.281798843294382095e-03 5.906288698315620422e-02 -4.328462854027748108e-02 -3.015488327946513891e-04 -4.365715384483337402e-02 -2.778322435915470123e-02 -1.280124858021736145e-02 -2.897337079048156738e-02 7.286851108074188232e-02 8.307935670018196106e-03 6.753828376531600952e-02 -4.942622035741806030e-02 -1.107159405946731567e-01 -1.555107068270444870e-02 2.908729575574398041e-02 7.098078727722167969e-02 -1.657890714704990387e-02 -5.669450387358665466e-02 2.007093839347362518e-02 -9.693068265914916992e-02 3.564687073230743408e-02 5.766587704420089722e-02 -3.388068452477455139e-02 5.523010157048702240e-03 5.965630337595939636e-02 -1.876582950353622437e-02 5.460252240300178528e-02 -4.580403864383697510e-02 -3.186597721651196480e-03 -4.368650540709495544e-02 1.397685799747705460e-02 -3.892483189702033997e-02 -8.549401164054870605e-02 -3.033179976046085358e-02 5.879063531756401062e-02 -1.057008728384971619e-01 -2.725881757214665413e-03 -1.689796149730682373e-02 -6.607804447412490845e-02 3.726445883512496948e-02 -3.501358628273010254e-02 4.478112235665321350e-02 -5.112025141716003418e-02 -4.787247627973556519e-02 -9.953813254833221436e-02 1.325164921581745148e-02 -1.390774641185998917e-02 5.976958945393562317e-02 -4.964715242385864258e-02 -2.199852466583251953e-02 -6.061787903308868408e-02 8.240082114934921265e-02 9.902214258909225464e-02 -1.407883595675230026e-02 3.443107008934020996e-02 -4.725868254899978638e-02 -1.377327181398868561e-02 6.413530558347702026e-02 -1.314865704625844955e-02 -5.493010208010673523e-02 -3.973272070288658142e-02 -3.007765859365463257e-02 -1.240408141165971756e-02 4.977042973041534424e-02 -1.144953165203332901e-02 -8.685806766152381897e-03 2.477994887158274651e-03 1.060106419026851654e-02 -5.657956749200820923e-02 -3.148057311773300171e-02 5.542493984103202820e-02 -3.113231435418128967e-02 3.430465608835220337e-02
-5.798307061195373535e-02 3.200518339872360229e-02 7.032486051321029663e-02 -2.621453441679477692e-02 7.268393039703369141e-02 1.550289307488128543e-04 -6.413138657808303833e-02 -5.559236928820610046e-02 5.835589021444320679e-03 2.648121118545532227e-02 9.238508343696594238e-02 -4.900883138179779053e-02 -1.749636605381965637e-02 1.733491010963916779e-02 -1.417900715023279190e-02 -1.992699876427650452e-02 6.728229671716690063e-02 -1.217958237975835800e-02 4.330577701330184937e-02 -1.277881674468517303e-02 4.381709918379783630e-02 2.609657496213912964e-02 -1.488050911575555801e-02 1.402365695685148239e-02 -1.424259622581303120e-03 -3.671633079648017883e-02 -1.543905236758291721e-03 5.934605840593576431e-03 -4.069685563445091248e-02 -8.025724440813064575e-03 2.415467798709869385e-02 -3.305335296317934990e-03 3.300811164081096649e-03 -4.894289001822471619e-02 -6.294873356819152832e-02 -1.720324717462062836e-02 -4.674095287919044495e-02 -8.353272825479507446e-02 -1.228634268045425415e-03 -1.062738224864006042e-01 -6.145507469773292542e-02 7.155317813158035278e-03 3.860553726553916931e-02 -3.212585300207138062e-02 2.684771642088890076e-02 -6.288723647594451904e-02 5.070643965154886246e-03 -3.161387145519256592e-02 2.374401316046714783e-02 2.405834384262561798e-02 -4.453165456652641296e-02 1.126742549240589142e-02 -1.906614191830158234e-02 -2.668596245348453522e-02 -5.454596132040023804e-03 -4.279046505689620972e-02 1.578233949840068817e-02 -2.295324113219976425e-03 -1.076119299978017807e-02 8.879403024911880493e-02 1.863264106214046478e-02 -1.065093055367469788e-01 4.083608463406562805e-02 -8.294132538139820099e-03 -4.870964586734771729e-02 5.342486873269081116e-02 2.685347944498062134e-02 5.365496128797531128e-02 8.599498867988586426e-02 2.577209100127220154e-02 3.823327273130416870e-02 4.793479293584823608e-02 6.569108366966247559e-02 7.139246165752410889e-02 8.303180336952209473e-02 1.058575604110956192e-02 -2.083441801369190216e-02 -1.144381240010261536e-01 -9.191164746880531311e-03 7.705878466367721558e-02 7.913702167570590973e-03 3.768403828144073486e-02 8.326750993728637695e-02 1.718769781291484833e-02 -5.881108343601226807e-02 -3.858400508761405945e-02 -1.059678103774785995e-02 -3.517965227365493774e-02 4.627677053213119507e-02 -5.138040706515312195e-02 -1.510089635848999023e-02 7.022276520729064941e-02 3.177626058459281921e-02 -6.098230555653572083e-02 1.147384988144040108e-03 1.458968687802553177e-02 -2.811876824125647545e-03 9.577825665473937988e-02 7.568643242120742798e-02 1.632428914308547974e-02 -3.948635607957839966e-02 -6.015601754188537598e-02 -2.539407275617122650e-02 3.661265596747398376e-02 -4.590708389878273010e-02 -8.022034168243408203e-02 -1.108553186058998108e-01 -2.938278391957283020e-02 1.381988450884819031e-02 9.242555499076843262e-02 -1.274801418185234070e-02 -1.703917793929576874e-02 -1.883422955870628357e-02 -1.688484288752079010e-02 5.361007526516914368e-03 -7.148247957229614258e-02 -6.289551407098770142e-02 -4.143507406115531921e-02 -3.550944104790687561e-02 -2.616903372108936310e-02 2.034565061330795288e-02 -8.180173113942146301e-03 9.547765552997589111e-02 -5.178709700703620911e-02 -2.306905575096607208e-02 3.332406282424926758e-02 1.323914825916290283e-01 2.358152903616428375e-02
