2.631771937012672424e-02 6.780987977981567383e-02 -2.256618626415729523e-02 5.267160944640636444e-03 -4.222456738352775574e-02 -1.938872411847114563e-02 9.716638177633285522e-02 -7.595805823802947998e-02 -3.959679976105690002e-02 6.009134463965892792e-03 4.046307131648063660e-02 -3.797689452767372131e-03 -3.526845946907997131e-02 2.999732829630374908e-02 7.899504154920578003e-03 -7.428505457937717438e-03 -3.541158139705657959e-02 2.736343257129192352e-02 -3.359469771385192871e-02 1.636494323611259460e-02 1.099688839167356491e-02 5.943691730499267578e-02 1.304670982062816620e-02 -6.032710894942283630e-03 7.898605428636074066e-03 -3.154800087213516235e-02 6.762632168829441071e-03 -1.991872116923332214e-02 1.403013523668050766e-02 3.153566271066665649e-02 5.059820413589477539e-02 4.490132257342338562e-02 -3.070842940360307693e-03 -3.163165599107742310e-02 3.000339679419994354e-02 3.288909792900085449e-02 -1.099380571395158768e-02 4.148419573903083801e-02 -3.594039008021354675e-02 -4.497969150543212891e-02 -3.206891193985939026e-02 -2.204173803329467773e-02 -2.102979272603988647e-02 4.291762039065361023e-02 4.899136349558830261e-02 -3.798493742942810059e-02 2.146987617015838623e-02 2.846035733819007874e-02 5.859149992465972900e-02 -5.337077379226684570e-02 -3.226964036002755165e-04 -6.717944145202636719e-02 -1.805714890360832214e-02 1.838016323745250702e-02 -5.257695913314819336e-02 -4.567791149020195007e-02 -5.911741033196449280e-02 -3.472329303622245789e-02 -2.189300581812858582e-02 8.184632286429405212e-03 -1.918503828346729279e-02 3.039775416254997253e-02 4.381057247519493103e-02 -8.875204250216484070e-03 -2.427468448877334595e-02 -1.287654321640729904e-02 6.657425779849290848e-03 -4.293583333492279053e-03 6.319591775536537170e-03 -2.499200217425823212e-02 -1.791373081505298615e-02 1.776931993663311005e-02 1.335632242262363434e-02 -7.755764573812484741e-02 -1.411444507539272308e-03 -3.847905993461608887e-02 -1.827512867748737335e-02 4.284751042723655701e-02 -8.898013271391391754e-03 -4.199009761214256287e-02 -2.174907177686691284e-02 -1.397157274186611176e-02 -5.653265863656997681e-03 -6.229541823267936707e-02 -3.986541554331779480e-02 -4.310593754053115845e-02 -4.912268486805260181e-04 9.074351750314235687e-03 3.835355164483189583e-03 5.127031728625297546e-02 2.229689434170722961e-02 -4.382154718041419983e-02 -2.912201546132564545e-02 2.976877242326736450e-02 -7.736917585134506226e-03 4.829681292176246643e-02 -1.266649831086397171e-02 1.896116323769092560e-02 2.888130024075508118e-02 -2.732145041227340698e-02 -2.496005967259407043e-02 -7.548907771706581116e-03 7.768848445266485214e-04 1.092344149947166443e-02 -3.626983240246772766e-02 5.238444358110427856e-02 3.240092098712921143e-02 3.088950878009200096e-03 -9.297432377934455872e-03 -2.057282440364360809e-02 -2.303087897598743439e-02 -3.705387935042381287e-02 -5.465449765324592590e-02 2.170774713158607483e-02 -5.312755331397056580e-02 5.615781620144844055e-02 -4.215823486447334290e-02 3.164533525705337524e-02 1.182969659566879272e-02 -2.634871192276477814e-02 -3.152492269873619080e-02 -1.196478586643934250e-02 -2.349320054054260254e-02 -1.062152720987796783e-02 1.123836915940046310e-02 -6.889586150646209717e-02 1.979083009064197540e-02 -5.663435533642768860e-02
4.195984452962875366e-03 9.581967443227767944e-02 6.183223053812980652e-02 -2.208128944039344788e-02 -3.788634017109870911e-02 -5.647471174597740173e-02 -3.528979793190956116e-02 -2.448372729122638702e-02 -5.845186486840248108e-02 -3.020544722676277161e-02 8.177426643669605255e-03 1.342170499265193939e-02 3.457911685109138489e-02 2.497998066246509552e-03 -2.822144702076911926e-02 5.150783807039260864e-03 3.231842815876007080e-02 1.482725236564874649e-02 5.145734921097755432e-02 -3.096098778769373894e-03 -1.032806094735860825e-02 -8.527166210114955902e-03 9.122501313686370850e-02 -3.683705627918243408e-02 4.675970971584320068e-02 -1.106280926614999771e-02 4.943361971527338028e-03 -4.885317292064428329e-03 1.519399322569370270e-02 3.293163329362869263e-02 3.281197324395179749e-02 -1.048027072101831436e-02 2.070004702545702457e-04 2.265503630042076111e-02 1.927851326763629913e-02 1.013925881125032902e-03 2.185891941189765930e-02 2.866975963115692139e-02 2.657590992748737335e-02 5.004736036062240601e-02 3.978929296135902405e-02 6.597920507192611694e-02 7.333770859986543655e-03 -1.108406633138656616e-01 -7.859034230932593346e-04 -1.919275382533669472e-03 -2.909674867987632751e-02 -5.110429227352142334e-02 -6.867875810712575912e-03 1.215531304478645325e-02 -1.984868571162223816e-02 -2.016037516295909882e-02 6.027852371335029602e-02 1.733880303800106049e-02 -8.730934932827949524e-03 -4.637870192527770996e-02 6.245161406695842743e-03 2.380831353366374969e-02 -6.462106481194496155e-03 -4.352467600256204605e-03 -1.001131813973188400e-02 -4.722988605499267578e-02 1.505737076513469219e-03 9.533667564392089844e-02 3.540329262614250183e-02 -1.666238531470298767e-02 -6.152196601033210754e-02 -4.538696259260177612e-02 -5.200162902474403381e-02 -2.905973047018051147e-02 2.245484478771686554e-02 -3.100092522799968719e-02 6.457976251840591431e-02 -7.075543049722909927e-03 5.548738315701484680e-02 1.094933152198791504e-01 -4.347478225827217102e-02 1.409078948199748993e-02 -2.366740070283412933e-02 1.071923878043889999e-02 -1.125653460621833801e-02 5.468968302011489868e-02 5.168114975094795227e-02 -6.070373114198446274e-03 5.518567189574241638e-02 4.394125659018754959e-03 6.886518001556396484e-02 -4.964107275009155273e-02 7.145786285400390625e-02 -2.273978479206562042e-02 4.330708179622888565e-03 2.387814410030841827e-02 3.891933592967689037e-04 -3.383867442607879639e-02 1.219720812514424324e-03 -1.567418500781059265e-02 1.441781781613826752e-02 -2.464194968342781067e-02 3.953456133604049683e-02 1.073057577013969421e-02 -3.048281744122505188e-02 -6.328405346721410751e-03 4.291713237762451172e-02 1.211496535688638687e-02 -3.133784234523773193e-02 -5.131292156875133514e-03 -7.517778128385543823e-02 -3.674162551760673523e-02 -3.492473810911178589e-02 -1.428223564289510250e-03 2.279507741332054138e-02 1.154514178633689880e-01 2.244121767580509186e-02 -6.887735426425933838e-02 7.950072176754474640e-03 6.049144268035888672e-02 -5.432314053177833557e-02 -1.198061276227235794e-02 -9.601669013500213623e-02 -1.453855447471141815e-02 -1.638355432078242302e-03 2.035384811460971832e-02 1.641001179814338684e-02 -1.543393917381763458e-02 -3.185679204761981964e-03 1.166948452591896057e-01 9.167099371552467346e-03 7.330860011279582977e-03
-8.672190830111503601e-03 -2.191940136253833771e-02 4.166761785745620728e-02 2.330983988940715790e-02 -5.815205350518226624e-02 1.691965200006961823e-02 -5.515966936945915222e-02 -4.758689925074577332e-02 3.601447492837905884e-02 -7.393490988761186600e-03 3.100101836025714874e-02 4.626693576574325562e-02 6.932277977466583252e-02 -2.856034785509109497e-02 3.766989335417747498e-02 2.716371603310108185e-02 -1.082072965800762177e-02 -1.159246172755956650e-02 -2.944074943661689758e-02 4.737227782607078552e-02 -4.488498717546463013e-02 -1.211670413613319397e-02 2.531554177403450012e-02 -1.580589264631271362e-02 -7.148209027945995331e-03 1.909678243100643158e-02 5.342138558626174927e-02 -1.416020188480615616e-02 -1.357997115701436996e-02 -2.702759951353073120e-02 -8.854392915964126587e-03 -1.994378631934523582e-03 4.382738471031188965e-02 -2.518974244594573975e-02 -5.246657878160476685e-02 5.090562254190444946e-02 2.874100022017955780e-02 3.971811011433601379e-02 4.407008527778089046e-04 -1.385682821273803711e-02 2.617101185023784637e-02 1.351013779640197754e-03 -3.815245628356933594e-02 -1.832070387899875641e-02 2.397296205163002014e-02 -3.607911616563796997e-02 -4.215240105986595154e-02 -3.953712806105613708e-02 2.158413454890251160e-02 -1.100750546902418137e-02 4.627578891813755035e-03 -2.427107095718383789e-02 -3.886371105909347534e-02 -1.966950669884681702e-02 -8.554406464099884033e-03 4.686109349131584167e-02 3.172648325562477112e-02 -3.933728113770484924e-02 -1.423532236367464066e-02 4.459120798856019974e-03 -4.499330744147300720e-02 -5.269568786025047302e-02 3.557834541425108910e-03 5.864160601049661636e-03 -5.112872924655675888e-03 5.339078605175018311e-03 -2.500271890312433243e-03 4.216892272233963013e-02 -1.130214892327785492e-02 -4.138079658150672913e-02 -5.257475189864635468e-03 -8.648237213492393494e-03 -4.390528053045272827e-02 2.187305316329002380e-02 2.380053279921412468e-03 1.424688939005136490e-02 4.312650708016008139e-04 -3.167292568832635880e-03 2.657026518136262894e-03 -3.563846694305539131e-03 3.035210072994232178e-02 -4.307443276047706604e-02 -2.947317622601985931e-02 -4.126008599996566772e-03 -3.158289194107055664e-02 5.080134049057960510e-02 -1.741961017251014709e-02 -5.618022754788398743e-03 -2.603301405906677246e-02 9.244223684072494507e-02 3.583948314189910889e-02 2.452066540718078613e-02 -3.291178494691848755e-02 -1.146104931831359863e-02 -4.468011483550071716e-02 -4.733704496175050735e-03 2.558349072933197021e-02 -1.260068733245134354e-02 -4.679386317729949951e-02 9.029375389218330383e-03 8.516929810866713524e-04 -4.448784049600362778e-03 -2.166954800486564636e-02 -1.846149563789367676e-02 -6.244583055377006531e-03 3.106338530778884888e-02 -1.989440992474555969e-02 -4.404551163315773010e-02 2.217620424926280975e-02 -4.758524300996214151e-04 2.067241072654724121e-02 -2.788741886615753174e-02 -1.018520072102546692e-02 9.854087606072425842e-03 5.705173313617706299e-02 -4.676036909222602844e-02 1.997815072536468506e-02 -3.195147216320037842e-02 3.256566822528839111e-02 -1.937950029969215393e-02 -2.872860059142112732e-02 -2.401619218289852142e-02 -2.620365098118782043e-02 -5.540090147405862808e-03 -1.129613444209098816e-02 1.825973764061927795e-02 -7.363331038504838943e-03 -2.505422197282314301e-02
4.433106631040573120e-02 1.660044305026531219e-02 -5.722827091813087463e-02 -5.764691159129142761e-02 3.137583285570144653e-02 2.848714217543601990e-02 2.228667400777339935e-02 -7.607787265442311764e-04 -9.983561001718044281e-03 8.722786605358123779e-02 -8.030782639980316162e-02 -6.398881226778030396e-02 -5.019824951887130737e-02 -1.744433678686618805e-02 4.846834763884544373e-02 -6.383272120729088783e-04 -8.677694015204906464e-03 1.815521903336048126e-02 9.820285486057400703e-04 -5.564162135124206543e-02 4.867288470268249512e-02 9.560407698154449463e-02 3.379491344094276428e-02 5.765136703848838806e-02 1.918054185807704926e-02 5.129481479525566101e-02 1.140728369355201721e-01 1.255792845040559769e-02 3.757585072889924049e-03 -2.820152416825294495e-02 -1.527717988938093185e-02 3.221004083752632141e-02 -5.277522280812263489e-02 4.898523539304733276e-02 -7.920913398265838623e-03 -4.595528542995452881e-02 1.258539129048585892e-02 1.844587177038192749e-02 -7.005955092608928680e-03 -6.898324936628341675e-02 -5.003295838832855225e-03 1.197654660791158676e-02 9.273407980799674988e-03 -7.573316246271133423e-02 -5.764768645167350769e-02 1.916733803227543831e-03 -1.451350282877683640e-02 -3.834965452551841736e-02 -1.513876114040613174e-02 2.069937065243721008e-03 4.655246448237448931e-04 -6.247121840715408325e-03 -7.864638231694698334e-03 4.957581683993339539e-02 -2.447028271853923798e-02 3.486373648047447205e-02 2.471616119146347046e-02 -3.943815454840660095e-02 1.362114306539297104e-02 -2.810655906796455383e-02 -9.234473109245300293e-03 4.712450504302978516e-02 -4.121840745210647583e-02 -2.362344041466712952e-02 -5.551131814718246460e-02 6.405212730169296265e-02 -1.870350912213325500e-02 1.522669009864330292e-02 2.858820371329784393e-03 8.690138906240463257e-02 4.559797793626785278e-02 7.413572166115045547e-03 3.620769595727324486e-03 -3.271843865513801575e-02 -1.040831133723258972e-01 -7.013936340808868408e-02 1.885323040187358856e-02 -4.333172924816608429e-03 -3.468583524227142334e-02 4.408164322376251221e-02 1.192027553915977478e-01 1.695454120635986328e-02 5.170898512005805969e-03 4.894117265939712524e-02 -5.496707186102867126e-02 1.267355121672153473e-02 2.292820066213607788e-02 -5.261243507266044617e-02 -7.661380805075168610e-03 -1.040616072714328766e-03 2.353438921272754669e-02 8.820297196507453918e-03 7.213547360152006149e-03 3.499993681907653809e-02 1.544049102813005447e-02 -1.499480847269296646e-02 4.921969026327133179e-03 1.683252304792404175e-02 4.933309741318225861e-03 -2.594748511910438538e-02 -3.265541745349764824e-03 -5.636362731456756592e-02 -3.988232836127281189e-02 -5.588576942682266235e-02 -1.190478634089231491e-02 6.024717818945646286e-03 -2.686193399131298065e-02 8.249756880104541779e-03 -2.611944451928138733e-02 6.135663390159606934e-02 1.859494857490062714e-02 3.807536885142326355e-02 2.391756325960159302e-02 -5.715586617588996887e-02 -8.586908690631389618e-03 2.671449445188045502e-02 -2.728769928216934204e-02 -2.032919041812419891e-02 -2.394225820899009705e-02 -5.109049007296562195e-02 3.456351533532142639e-02 -7.009284943342208862e-02 -3.936401481041684747e-05 -5.188195034861564636e-02 -7.801532000303268433e-02 6.856908090412616730e-03 -2.076531015336513519e-02 4.504865407943725586e-02
-2.735254727303981781e-02 -6.086300127208232880e-03 -3.252935782074928284e-02 -3.577190637588500977e-02 5.838186666369438171e-02 -5.688513163477182388e-03 -2.047886885702610016e-02 1.879891613498330116e-03 4.057651385664939880e-02 -7.552623748779296875e-02 4.030566662549972534e-02 2.742053754627704620e-02 2.602816745638847351e-02 4.490241408348083496e-02 -5.926016718149185181e-02 -2.284765709191560745e-03 -4.115122929215431213e-02 2.952720411121845245e-02 5.008448380976915359e-03 -7.237789034843444824e-02 -5.715777631849050522e-03 4.566259309649467468e-02 -2.948844619095325470e-02 4.230633378028869629e-02 -7.322855293750762939e-02 -4.075507633388042450e-03 -7.157820463180541992e-02 7.831730693578720093e-02 -5.689023435115814209e-02 -1.030052453279495239e-02 -1.207689009606838226e-02 -4.300918802618980408e-02 -1.080480068922042847e-01 2.679613977670669556e-02 -1.654035970568656921e-02 3.012831509113311768e-02 1.997198164463043213e-02 1.378115452826023102e-02 7.786439359188079834e-02 6.605599820613861084e-02 -4.620624706149101257e-02 -5.953998863697052002e-02 8.374140411615371704e-02 4.015033692121505737e-02 -7.279831916093826294e-03 -4.078748822212219238e-02 -2.918782178312540054e-03 -6.746553629636764526e-02 5.027221888303756714e-02 4.739481210708618164e-02 3.931812569499015808e-02 8.873956650495529175e-02 -3.327252715826034546e-02 -2.502628974616527557e-02 2.642595209181308746e-02 -1.566618494689464569e-02 -2.991857565939426422e-02 7.233351469039916992e-02 -9.605316072702407837e-02 -1.079824659973382950e-02 -4.786908999085426331e-02 -3.355851769447326660e-02 -9.183659404516220093e-02 -6.569170951843261719e-02 -7.062049955129623413e-02 -6.325159221887588501e-02 3.868021443486213684e-02 -9.811089839786291122e-04 2.464827895164489746e-02 7.398345321416854858e-02 5.402017384767532349e-02 -7.485669851303100586e-02 5.177952349185943604e-02 3.023313730955123901e-02 6.831565499305725098e-02 4.175468534231185913e-02 -2.966789714992046356e-02 3.068973496556282043e-02 7.395837921649217606e-03 2.859497070312500000e-02 -1.457785372622311115e-03 -1.801762916147708893e-02 -6.994722038507461548e-02 4.416411742568016052e-02 1.486807689070701599e-02 1.514492835849523544e-02 -4.749246314167976379e-02 -6.797792389988899231e-03 -5.780141800642013550e-03 -9.307608008384704590e-02 -2.720121294260025024e-02 1.713540032505989075e-02 6.023614481091499329e-02 -7.917694002389907837e-02 -2.464267425239086151e-02 4.237256571650505066e-02 -5.316847190260887146e-02 7.753682136535644531e-02 3.705354779958724976e-02 -2.488962560892105103e-02 -4.161705449223518372e-02 1.315601728856563568e-02 9.074794501066207886e-02 6.782971788197755814e-03 6.095419451594352722e-02 2.232581935822963715e-02 1.648284681141376495e-02 -1.215863041579723358e-02 1.975802704691886902e-02 2.970414049923419952e-02 6.219042837619781494e-02 -7.442969828844070435e-02 3.201519697904586792e-02 1.964306272566318512e-02 -4.115006700158119202e-02 -1.365428324788808823e-02 5.974669940769672394e-03 -4.965202882885932922e-02 2.343804202973842621e-02 -2.790619060397148132e-02 -6.499002873897552490e-02 -1.980487629771232605e-02 5.929697677493095398e-02 9.728915058076381683e-03 -5.492461845278739929e-03 2.012466266751289368e-02 -2.376670949161052704e-03 -2.338101388886570930e-03
-3.817144781351089478e-02 -2.465324476361274719e-03 -4.434251226484775543e-03 1.669597811996936798e-02 3.228923305869102478e-02 1.314259506762027740e-02 3.979966044425964355e-03 -1.248551905155181885e-02 -5.055214837193489075e-02 -6.926302332431077957e-03 2.381032332777976990e-02 -1.729559339582920074e-02 2.679799450561404228e-03 8.272334001958370209e-03 -2.556319534778594971e-02 -2.469400689005851746e-02 -2.657424286007881165e-02 -2.503684349358081818e-02 -5.410161335021257401e-03 -1.144509203732013702e-02 -2.923125401139259338e-02 -4.478171933442354202e-03 -6.318195164203643799e-02 -1.455647870898246765e-02 -7.460308261215686798e-03 -6.239775568246841431e-02 3.042485937476158142e-02 -1.151172351092100143e-02 -4.410290718078613281e-02 -1.329579856246709824e-02 -2.552920207381248474e-02 2.876831404864788055e-02 1.385599933564662933e-02 2.123612910509109497e-02 -3.004014142788946629e-04 4.614683613181114197e-02 1.854352094233036041e-02 -1.583512127399444580e-02 -6.801246199756860733e-03 6.787055637687444687e-03 1.600811816751956940e-02 5.729922652244567871e-02 -1.762514188885688782e-02 4.633600357919931412e-03 -1.740488223731517792e-02 1.831725426018238068e-02 -9.490582306170836091e-05 1.502087432891130447e-02 3.424540162086486816e-03 -4.071980714797973633e-03 -1.429783459752798080e-02 3.099120967090129852e-02 -2.091297321021556854e-02 1.013525482267141342e-02 4.408873245120048523e-02 -8.571618236601352692e-03 6.799355149269104004e-02 -3.850431740283966064e-02 7.981915958225727081e-03 -1.423652563244104385e-02 -5.329270660877227783e-02 -8.598757907748222351e-03 7.392394822090864182e-03 1.231683231890201569e-02 -3.785886615514755249e-02 5.127634108066558838e-02 2.848291024565696716e-02 8.479588665068149567e-03 7.197952270507812500e-02 -5.582067024079151452e-05 3.373261913657188416e-02 4.302300885319709778e-02 9.246764704585075378e-03 -3.458114340901374817e-02 -2.468414045870304108e-02 -3.149368613958358765e-02 2.459895331412553787e-03 1.853164844214916229e-02 -2.541187033057212830e-02 4.493947140872478485e-03 4.670715332031250000e-02 8.543421514332294464e-03 -6.884424015879631042e-03 -2.531183697283267975e-02 3.274483606219291687e-02 -8.323665708303451538e-03 1.661992631852626801e-02 4.019740968942642212e-02 1.791527122259140015e-02 -1.892944239079952240e-02 -4.365174844861030579e-02 -2.676430158317089081e-02 -2.402887120842933655e-02 -1.533774938434362411e-02 -8.564493618905544281e-03 2.228250727057456970e-02 -1.879399642348289490e-02 -9.265360422432422638e-03 1.997071318328380585e-02 -1.173735968768596649e-02 -1.126060145907104015e-03 3.887325525283813477e-02 2.898328937590122223e-02 -1.351736485958099365e-03 -4.683193936944007874e-02 1.095670554786920547e-02 -4.565098136663436890e-02 4.649770259857177734e-02 -6.155630201101303101e-02 2.362278662621974945e-02 -4.870249889791011810e-03 -8.096503093838691711e-03 -1.844557374715805054e-02 6.147349998354911804e-02 -1.023166161030530930e-02 -9.759547188878059387e-03 -2.165682986378669739e-02 1.136950682848691940e-02 -2.506572008132934570e-02 3.197054937481880188e-02 -1.071011740714311600e-02 -3.309210762381553650e-02 6.489519029855728149e-02 -2.164566516876220703e-02 -1.502566132694482803e-02 4.862166009843349457e-03 1.943017914891242981e-02 3.784196451306343079e-02
-9.852277114987373352e-03 -9.056270122528076172e-02 1.320686005055904388e-02 8.817877620458602905e-03 6.743639707565307617e-02 5.767082795500755310e-02 -1.163279451429843903e-02 -3.465355560183525085e-02 -4.027711693197488785e-03 -9.192841127514839172e-03 6.134476512670516968e-02 8.251663530245423317e-04 -1.271989755332469940e-02 1.181051973253488541e-02 -4.146328195929527283e-02 -2.414520084857940674e-02 -5.937703885138034821e-03 2.259434200823307037e-02 -1.018667034804821014e-02 -3.955187276005744934e-02 4.788484424352645874e-02 -4.378121346235275269e-02 -3.180736210197210312e-03 1.093636732548475266e-02 1.372506283223628998e-02 4.242809489369392395e-03 2.495693415403366089e-02 -6.235460191965103149e-02 1.226428616791963577e-02 1.514970045536756516e-02 3.131770342588424683e-02 5.358905345201492310e-02 1.516139134764671326e-03 -8.873555809259414673e-02 1.044458057731389999e-02 -4.926228150725364685e-02 -1.607329770922660828e-02 -5.105253309011459351e-03 -2.209878526628017426e-02 4.574308916926383972e-02 -5.410363897681236267e-02 -3.435803344473242760e-03 -4.238919913768768311e-02 5.156833305954933167e-02 -7.439254969358444214e-02 2.200759202241897583e-02 5.249850451946258545e-02 -1.264846697449684143e-02 -2.577285654842853546e-02 -2.740983292460441589e-02 2.508840523660182953e-02 -9.482876397669315338e-03 6.507050246000289917e-03 -1.699350890703499317e-03 -3.286145254969596863e-02 -5.576779320836067200e-02 9.395020455121994019e-02 4.810460086446255445e-04 8.713484555482864380e-02 -3.058295324444770813e-02 -1.091374084353446960e-02 -1.409133058041334152e-02 1.991750486195087433e-02 1.710938988253474236e-03 8.114565163850784302e-02 5.080069531686604023e-04 5.140510946512222290e-02 -9.992150589823722839e-03 6.458210758864879608e-03 -4.001488536596298218e-02 -4.533210396766662598e-02 2.161165885627269745e-02 -1.175621245056390762e-02 9.007179737091064453e-02 -2.953206887468695641e-03 -1.692830002866685390e-03 6.204256415367126465e-02 8.326388895511627197e-03 1.066539157181978226e-02 -3.511095046997070312e-02 -9.101677685976028442e-02 -4.242969676852226257e-02 7.953185588121414185e-03 -7.544988766312599182e-03 4.642917960882186890e-02 -2.572255954146385193e-02 8.082486689090728760e-02 -9.424939751625061035e-02 7.035143673419952393e-03 9.013332426548004150e-02 -6.155455857515335083e-02 7.697783410549163818e-02 7.601093966513872147e-03 -2.438135258853435516e-02 -1.913907192647457123e-02 1.415029633790254593e-02 8.244540542364120483e-03 -7.113213092088699341e-02 1.558023318648338318e-02 -4.463301226496696472e-02 -2.592648752033710480e-02 -7.502620574086904526e-03 3.534856019541621208e-03 -8.106303401291370392e-03 1.211913395673036575e-02 -4.676169902086257935e-02 -6.246642768383026123e-02 -1.759544387459754944e-02 -6.000868231058120728e-02 -4.961496591567993164e-02 3.658076003193855286e-02 3.149452805519104004e-02 3.824724629521369934e-02 9.875930845737457275e-02 -1.236186549067497253e-02 -7.103434950113296509e-02 8.565990254282951355e-03 2.728757448494434357e-03 -2.783349715173244476e-02 7.067307829856872559e-02 -4.076964780688285828e-02 2.191395126283168793e-02 -2.604907145723700523e-03 5.514135584235191345e-02 -2.064465358853340149e-02 -2.050022035837173462e-02 2.948291786015033722e-02 6.121146306395530701e-02
4.953798279166221619e-02 -1.033443026244640350e-02 -5.591726861894130707e-03 2.360119670629501343e-02 -4.966449737548828125e-02 -4.451191797852516174e-02 2.905680052936077118e-02 7.351800054311752319e-02 -2.580231614410877228e-02 -5.871348083019256592e-02 -2.462373301386833191e-02 2.096739597618579865e-02 -5.955600645393133163e-03 -1.145323365926742554e-02 -4.179791361093521118e-02 -3.926718607544898987e-02 1.109071820974349976e-02 -1.009751670062541962e-02 2.059753611683845520e-02 -1.097905077040195465e-02 -4.174892231822013855e-02 -1.198437511920928955e-01 -1.120146438479423523e-01 5.140721797943115234e-03 1.858389936387538910e-02 3.676439169794321060e-03 1.233310322277247906e-03 2.119619399309158325e-02 4.111503809690475464e-02 1.139446068555116653e-02 -2.783909812569618225e-02 1.237347722053527832e-02 6.273069884628057480e-04 -2.112959697842597961e-02 -3.968038409948348999e-02 8.868583478033542633e-03 -5.743723362684249878e-02 -9.710665792226791382e-02 6.316318362951278687e-02 -2.093314938247203827e-02 2.183838747441768646e-02 -5.786210298538208008e-03 -7.208463549613952637e-02 2.849290706217288971e-02 3.571177646517753601e-02 8.164539933204650879e-02 -2.960624545812606812e-02 1.019975617527961731e-01 -3.166531771421432495e-02 1.818758668377995491e-03 -2.752901241183280945e-02 7.974610477685928345e-02 -5.321390181779861450e-02 -3.048768453299999237e-02 3.446979448199272156e-02 9.904072619974613190e-03 -7.508712261915206909e-02 -2.927995845675468445e-02 4.239919036626815796e-02 1.962748914957046509e-02 9.931871294975280762e-02 6.209946423768997192e-02 -2.526118047535419464e-02 1.841904409229755402e-02 -3.533039987087249756e-02 -3.011446818709373474e-02 1.954673789441585541e-02 -2.927268296480178833e-02 3.095694817602634430e-02 -2.457164973020553589e-02 2.375037781894207001e-02 2.127886377274990082e-02 -4.332296550273895264e-02 7.184250280261039734e-03 2.463599201291799545e-03 -2.375889383256435394e-02 8.682164549827575684e-02 -8.246430195868015289e-03 3.527991473674774170e-02 -7.738224416971206665e-02 -3.499693423509597778e-02 -2.434762939810752869e-02 5.953614041209220886e-02 -2.624764107167720795e-02 1.307896524667739868e-02 5.189383402466773987e-02 -4.383262619376182556e-02 6.600383669137954712e-02 -4.359832778573036194e-02 1.367909135296940804e-03 -6.881181150674819946e-02 1.520037068985402584e-03 -1.460385695099830627e-02 4.415515810251235962e-02 5.458896979689598083e-02 -4.307781904935836792e-02 1.072882562875747681e-01 -6.254528462886810303e-02 -2.901306189596652985e-02 5.763174965977668762e-03 5.078663676977157593e-02 2.125938609242439270e-02 -4.051021113991737366e-02 2.411242388188838959e-02 -5.394088104367256165e-02 -3.263203054666519165e-02 6.517066806554794312e-02 -2.644150285050272942e-03 6.843017041683197021e-02 -7.888627797365188599e-02 -6.384362280368804932e-02 6.012763455510139465e-02 6.509465724229812622e-02 -2.685979008674621582e-02 -1.684233359992504120e-02 2.330284565687179565e-02 3.820984438061714172e-02 -1.365728490054607391e-02 2.768816798925399780e-02 -1.311376783996820450e-02 6.325616687536239624e-02 3.169249743223190308e-02 -1.108286157250404358e-02 -2.677729539573192596e-02 4.883725568652153015e-02 5.262844730168581009e-03 2.063087001442909241e-02 5.209658667445182800e-02
