-6.996307522058486938e-02 2.653114730492234230e-03 -2.999147027730941772e-02 2.077819593250751495e-02 9.122814238071441650e-02 -3.223833069205284119e-02 2.471971092745661736e-03 2.769890055060386658e-02 -1.308830827474594116e-02 4.040900990366935730e-02 4.691256582736968994e-02 -2.231574244797229767e-02 1.047797314822673798e-02 2.845129929482936859e-04 -1.957711949944496155e-02 2.052455907687544823e-03 -6.482070684432983398e-02 1.118106488138437271e-02 -1.528193894773721695e-02 4.630547016859054565e-02 4.176078736782073975e-02 -1.953354105353355408e-02 2.487431978806853294e-03 -3.120211325585842133e-02 6.929918378591537476e-02 -1.425074227154254913e-02 -4.279814660549163818e-02 3.906022384762763977e-02 1.785544492304325104e-02 5.625399295240640640e-03 -3.557276353240013123e-02 -1.641803421080112457e-02 -1.723738387227058411e-02 4.443169757723808289e-02 -3.361139679327607155e-03 -2.512046135962009430e-02 -5.020614713430404663e-02 1.971885748207569122e-02 7.200939208269119263e-02 -2.805560827255249023e-02 1.062519252300262451e-01 -6.418269872665405273e-02 4.284743964672088623e-02 1.870220527052879333e-02 -7.991870492696762085e-02 -4.306975379586219788e-02 2.003302052617073059e-02 1.892097853124141693e-02 -5.451609939336776733e-02 3.414709866046905518e-02 -8.198885247111320496e-03 2.129165455698966980e-02 2.986162714660167694e-02 2.378412708640098572e-02 6.475107744336128235e-03 2.067864313721656799e-02 -3.633625060319900513e-02 4.116773977875709534e-02 3.831118345260620117e-02 -1.080545634031295776e-01 2.748922631144523621e-02 1.896480284631252289e-02 3.054547123610973358e-02 -7.271761447191238403e-02 5.532699171453714371e-03 -5.698999762535095215e-02 1.266022212803363800e-02 -1.316616870462894440e-02 -4.633828252553939819e-02 -3.764317184686660767e-02 -2.852184884250164032e-02 -1.240746304392814636e-02 -1.939030922949314117e-02 2.834290266036987305e-02 6.648870557546615601e-02 -5.624300613999366760e-02 3.536022733896970749e-03 9.395138174295425415e-02 -8.404839783906936646e-02 -2.618119493126869202e-02 -2.318799681961536407e-02 -4.245198145508766174e-02 6.795337051153182983e-02 -1.582664996385574341e-02 3.746067732572555542e-02 2.409248799085617065e-02 2.303320728242397308e-02 -3.845946339424699545e-04 -3.628930076956748962e-02 -3.732620552182197571e-02 4.042897373437881470e-02 1.102184597402811050e-02 1.101183611899614334e-02 7.201430201530456543e-02 2.951361425220966339e-02 5.477092694491147995e-03 6.853855680674314499e-03 -5.062828771770000458e-03 3.568679559975862503e-03 3.701233118772506714e-02 -4.624071996659040451e-03 -1.820998825132846832e-02 -2.715506032109260559e-02 5.592079088091850281e-02 1.413774909451603889e-03 -4.935943987220525742e-03 -4.298226907849311829e-02 -4.577827453613281250e-02 -4.155938513576984406e-03 -4.458298906683921814e-02 7.635493576526641846e-02 6.390686146914958954e-03 4.159253463149070740e-02 -3.997524082660675049e-02 1.338481251150369644e-02 -3.175624646246433258e-03 7.775055244565010071e-03 3.801023215055465698e-02 -2.673022262752056122e-02 -3.244561329483985901e-02 -2.747960155829787254e-03 -2.147319167852401733e-02 6.514472514390945435e-02 5.638381093740463257e-02 7.089819014072418213e-02 -2.033992111682891846e-02 -3.814950957894325256e-02 3.990956023335456848e-02
-3.552254987880587578e-03 6.107406690716743469e-03 2.902392297983169556e-02 -6.295423954725265503e-02 -6.007442623376846313e-02 -2.229249337688088417e-03 1.733565330505371094e-02 -1.911663450300693512e-02 7.776309549808502197e-02 1.714319363236427307e-02 -3.159010037779808044e-02 1.403065491467714310e-02 -3.563907695934176445e-03 -3.745227679610252380e-02 5.705076735466718674e-03 2.376276068389415741e-02 2.065361104905605316e-02 6.468435283750295639e-03 9.261990897357463837e-03 1.366953924298286438e-02 -1.455977279692888260e-02 2.971269562840461731e-02 4.532350227236747742e-02 -3.109723143279552460e-02 -3.184315189719200134e-02 -8.635736070573329926e-03 1.444330904632806778e-02 1.063498202711343765e-03 -3.834005072712898254e-02 -2.174855582416057587e-02 1.690173894166946411e-02 -7.486727554351091385e-03 -8.671097457408905029e-03 -2.034090645611286163e-02 -3.124781511723995209e-02 5.521357432007789612e-02 4.244556650519371033e-02 1.977708749473094940e-02 1.681550755165517330e-03 4.859113320708274841e-02 -2.360468171536922455e-02 -6.345330923795700073e-02 -1.934796757996082306e-02 8.207763545215129852e-03 8.342656306922435760e-03 -1.071945391595363617e-02 -1.641662418842315674e-02 7.397043518722057343e-03 -6.133759394288063049e-03 -1.473848428577184677e-02 4.876549169421195984e-02 -2.036696486175060272e-02 -6.589054316282272339e-02 3.427980840206146240e-02 -1.294591277837753296e-02 4.090807214379310608e-02 -1.952276378870010376e-02 4.508958756923675537e-02 -2.272317558526992798e-02 7.239496335387229919e-03 9.398750960826873779e-03 -1.979592256247997284e-02 -3.473884239792823792e-02 -1.785090193152427673e-02 4.245474562048912048e-02 -5.576097220182418823e-02 -1.358183473348617554e-02 1.906259730458259583e-02 -5.817729979753494263e-02 -2.804872207343578339e-02 -3.737240564078092575e-03 -5.167481489479541779e-03 -1.968687213957309723e-02 2.522622607648372650e-02 5.090447887778282166e-02 3.314410522580146790e-02 4.322130233049392700e-02 -1.864271238446235657e-02 2.851495752111077309e-03 -2.482457831501960754e-02 -1.245288923382759094e-02 -2.386673167347908020e-02 -5.703063681721687317e-02 -1.454440131783485413e-02 6.334777921438217163e-02 3.571211919188499451e-02 3.671599319204688072e-03 4.914559889584779739e-03 -7.354862242937088013e-02 5.219372361898422241e-02 7.010021246969699860e-03 -1.819231174886226654e-02 -4.958030302077531815e-03 -2.228406630456447601e-02 -8.798673748970031738e-03 -2.470591105520725250e-02 -4.356630891561508179e-02 5.319718271493911743e-02 -3.356649726629257202e-02 2.633777447044849396e-02 6.443691253662109375e-02 -1.574633084237575531e-02 1.810471341013908386e-02 -6.281409878283739090e-03 8.128570765256881714e-02 3.056062199175357819e-02 1.807087101042270660e-02 5.863879341632127762e-04 4.224568977952003479e-02 -2.169867791235446930e-02 4.557833448052406311e-02 1.890486106276512146e-02 5.796204134821891785e-02 -1.272649504244327545e-02 5.725139752030372620e-03 -1.894781365990638733e-02 7.129965722560882568e-02 3.344622254371643066e-02 -3.922529518604278564e-02 1.438994612544775009e-02 3.175199404358863831e-02 -2.439471334218978882e-02 -3.943533077836036682e-02 5.528602749109268188e-03 4.343110322952270508e-02 3.533098846673965454e-02 -1.853870227932929993e-02 -6.054592318832874298e-03
-1.609204709529876709e-02 -9.594944305717945099e-03 -1.004336867481470108e-02 -2.531410381197929382e-02 -4.179962910711765289e-03 1.270146016031503677e-02 3.912395797669887543e-03 -4.825676791369915009e-03 -4.459451884031295776e-02 5.144572351127862930e-03 1.531813666224479675e-02 -1.865636743605136871e-02 -1.961631141602993011e-02 8.338217437267303467e-02 1.126388460397720337e-02 -3.001148439943790436e-02 3.044683299958705902e-02 -6.658703088760375977e-03 -2.301646210253238678e-02 -3.886624053120613098e-02 1.366730220615863800e-02 2.628988353535532951e-03 -1.796430908143520355e-02 1.926218159496784210e-03 -1.894137263298034668e-02 3.035805933177471161e-02 2.306775562465190887e-02 -5.049883201718330383e-02 -3.895919024944305420e-02 -2.156678028404712677e-02 -7.873008958995342255e-03 2.443733252584934235e-02 -2.049260400235652924e-02 7.812644354999065399e-03 3.975333273410797119e-02 3.430978953838348389e-02 2.141141891479492188e-02 2.539947442710399628e-02 -8.192890882492065430e-02 -2.179628238081932068e-02 4.635779932141304016e-02 -2.014701627194881439e-02 1.782984659075737000e-02 1.169522292912006378e-02 -1.712302863597869873e-02 1.884919591248035431e-02 -2.713279798626899719e-02 -3.945638611912727356e-02 4.088933393359184265e-02 -8.076138794422149658e-03 -3.804968297481536865e-02 -4.625392705202102661e-02 2.788307704031467438e-02 1.662604324519634247e-02 -4.539828002452850342e-02 -1.126100961118936539e-02 1.938675530254840851e-02 -6.818976998329162598e-02 -3.372320905327796936e-02 -7.602508645504713058e-03 -3.747202455997467041e-02 1.720401085913181305e-02 4.444089531898498535e-02 4.034841433167457581e-02 -7.686454919166862965e-04 8.642643690109252930e-03 -2.995069511234760284e-02 1.611070893704891205e-02 2.396602928638458252e-02 2.473312430083751678e-02 -7.731833495199680328e-03 7.440123707056045532e-02 5.894785746932029724e-02 9.848793037235736847e-03 -6.771836895495653152e-03 -2.960844663903117180e-03 -2.778126299381256104e-02 6.635218858718872070e-02 1.065810676664113998e-02 4.353809170424938202e-03 -2.476532571017742157e-02 2.916944399476051331e-02 1.166426017880439758e-02 -7.977660000324249268e-02 -1.114775612950325012e-02 -1.566860126331448555e-03 5.896229296922683716e-02 4.631570354104042053e-02 1.439021434634923935e-02 -1.330144237726926804e-02 1.185083109885454178e-02 -3.453572839498519897e-02 -1.963840052485466003e-02 -3.488065209239721298e-03 -1.810142211616039276e-02 5.114785581827163696e-02 -3.108173981308937073e-02 9.590257890522480011e-03 -1.425869483500719070e-02 -1.385761890560388565e-02 5.089755635708570480e-03 -3.489791601896286011e-02 -2.093612961471080780e-02 2.115898765623569489e-02 -2.470495179295539856e-02 2.862905850633978844e-03 1.678538508713245392e-02 5.500145629048347473e-02 -7.508192211389541626e-03 -1.256929617375135422e-02 1.969475299119949341e-02 -5.851231398992240429e-04 -7.397895306348800659e-02 6.095101684331893921e-02 3.141492838039994240e-03 2.633444592356681824e-02 -7.735196035355329514e-03 7.823901623487472534e-02 2.456175535917282104e-02 8.146137744188308716e-02 -7.920448668301105499e-03 -1.159516721963882446e-02 1.438905112445354462e-02 -2.926927292719483376e-03 1.535775884985923767e-02 2.159047685563564301e-02 1.390983629971742630e-02 -2.571827545762062073e-02
9.434540756046772003e-03 2.574052289128303528e-02 3.599664568901062012e-02 2.593024400994181633e-03 -3.022204851731657982e-03 -1.052881963551044464e-02 3.820696845650672913e-02 2.312828600406646729e-02 -3.189787268638610840e-02 -4.544602707028388977e-03 3.667717427015304565e-02 -3.777737542986869812e-02 -1.961097307503223419e-02 -1.701081404462456703e-03 -2.879430167376995087e-02 -5.188975483179092407e-02 2.922304160892963409e-02 7.047678530216217041e-02 6.044141948223114014e-02 7.719575427472591400e-03 -1.702651195228099823e-02 -8.333909325301647186e-03 8.076866157352924347e-03 -2.270558103919029236e-02 4.306809511035680771e-03 -3.601111099123954773e-02 -2.672488242387771606e-02 1.616680622100830078e-02 2.733631245791912079e-02 -4.291871562600135803e-02 -2.394388057291507721e-02 -1.859918981790542603e-02 1.750372536480426788e-02 2.355204895138740540e-02 1.112269051373004913e-02 -2.227046526968479156e-02 3.314765170216560364e-02 -1.570946769788861275e-03 -3.795687481760978699e-02 -1.462934911251068115e-02 5.268276436254382133e-04 7.297821342945098877e-03 -7.698042783886194229e-03 -1.366189680993556976e-03 -2.798392903059720993e-03 -2.597686648368835449e-02 2.797691710293292999e-02 1.907692849636077881e-02 3.910959232598543167e-03 -5.231760907918214798e-03 -5.346804857254028320e-02 3.125501051545143127e-02 -3.192703053355216980e-02 -1.653811708092689514e-02 2.055439725518226624e-02 7.010566070675849915e-03 1.720232330262660980e-02 -2.765209227800369263e-02 1.525561697781085968e-02 2.870923094451427460e-02 1.683913730084896088e-02 1.146002765744924545e-02 1.566689833998680115e-02 -1.692167110741138458e-02 -1.986517012119293213e-02 -1.778949610888957977e-02 1.312693767249584198e-02 2.759372070431709290e-02 6.528612971305847168e-02 -5.363493692129850388e-03 -5.730019882321357727e-02 -4.771850630640983582e-02 8.266484737396240234e-02 -3.656582161784172058e-02 5.338290240615606308e-03 -8.233689703047275543e-03 -2.144669555127620697e-02 -2.676006406545639038e-02 2.957289107143878937e-02 8.220188319683074951e-03 3.834197670221328735e-02 3.545903414487838745e-02 4.662598669528961182e-02 -1.945476606488227844e-02 5.490164272487163544e-03 -1.667892932891845703e-02 2.691573277115821838e-02 1.931128464639186859e-02 5.627479404211044312e-03 -3.490246459841728210e-02 1.142094098031520844e-02 -5.580767523497343063e-03 -2.149103209376335144e-02 -9.477992542088031769e-03 -1.656400971114635468e-02 -3.643982112407684326e-02 4.570154473185539246e-02 2.576888166368007660e-02 -1.839199662208557129e-02 -7.005032151937484741e-03 4.732172563672065735e-02 -1.345151662826538086e-02 -2.497736737132072449e-02 1.109077688306570053e-02 -6.345735490322113037e-02 2.946580573916435242e-02 7.959740236401557922e-03 3.695748746395111084e-03 -2.298706583678722382e-02 -5.028856545686721802e-02 1.117717009037733078e-02 1.453112624585628510e-02 -2.585344715043902397e-03 -3.749817982316017151e-02 3.726863116025924683e-02 4.047423973679542542e-02 -7.390236947685480118e-03 1.638571615330874920e-03 2.617320418357849121e-02 -1.149488706141710281e-02 -4.894929006695747375e-03 5.877467337995767593e-03 1.531241182237863541e-02 -3.038892336189746857e-02 7.856200449168682098e-03 6.659087724983692169e-03 3.339637443423271179e-02 8.448561653494834900e-03
3.612873703241348267e-02 3.096667677164077759e-02 3.358241543173789978e-02 7.122857961803674698e-03 -5.966298282146453857e-03 4.647847637534141541e-02 5.406237393617630005e-02 -3.278495743870735168e-02 4.599488747771829367e-04 -3.116985969245433807e-02 4.715699702501296997e-02 -1.033577881753444672e-02 5.035297572612762451e-02 8.246836951002478600e-04 1.060293614864349365e-02 3.087328001856803894e-02 -2.875216305255889893e-02 5.603216588497161865e-02 4.684576019644737244e-02 3.675866499543190002e-02 2.204207144677639008e-02 -2.443274296820163727e-02 -1.548120845109224319e-02 -5.413173511624336243e-02 6.465326994657516479e-02 -3.654424101114273071e-03 -1.769969053566455841e-02 2.099095284938812256e-02 2.809218689799308777e-02 4.966580308973789215e-03 8.474880829453468323e-03 5.716466531157493591e-02 -4.897009930573403835e-04 -1.653788611292839050e-02 3.369715064764022827e-02 2.853292785584926605e-02 -2.381889522075653076e-02 6.015470717102289200e-03 3.987571224570274353e-03 -3.060073032975196838e-02 7.057915907353162766e-03 4.884870350360870361e-02 3.219920769333839417e-02 -5.388150457292795181e-03 2.958083897829055786e-02 -3.311878442764282227e-02 -2.907129563391208649e-02 -5.224667955189943314e-03 4.254328832030296326e-02 -1.030072197318077087e-01 -3.565720841288566589e-02 -4.345905035734176636e-02 2.580704540014266968e-02 -4.297814890742301941e-02 -2.919737063348293304e-02 1.168947434052824974e-03 -1.802334003150463104e-02 -6.025993265211582184e-03 -1.973854377865791321e-02 1.570142991840839386e-02 -2.537911524996161461e-03 -9.452266618609428406e-03 -1.964036002755165100e-02 6.781715899705886841e-03 -1.785379718057811260e-03 -3.326699882745742798e-02 3.952671959996223450e-02 2.872251719236373901e-02 3.317233547568321228e-02 4.442566540092229843e-03 4.316640645265579224e-02 -3.456044942140579224e-02 2.033494412899017334e-02 -1.570468395948410034e-02 -1.734621636569499969e-02 -1.873808912932872772e-02 -3.632993251085281372e-02 2.055208198726177216e-02 2.041070163249969482e-02 -5.090099945664405823e-02 4.452515766024589539e-02 4.725780338048934937e-02 5.038256756961345673e-03 -1.507373712956905365e-02 -7.962843403220176697e-03 1.432916615158319473e-02 -4.124660789966583252e-02 1.678446121513843536e-02 5.960430949926376343e-03 2.453973330557346344e-02 -9.436656720936298370e-03 3.955788910388946533e-03 -2.669108659029006958e-02 5.368771962821483612e-04 -2.908228524029254913e-02 3.086687810719013214e-02 1.832173578441143036e-02 -1.761513389647006989e-02 7.613708265125751495e-03 1.398545596748590469e-02 -2.713983692228794098e-02 -3.885025531053543091e-02 1.291987393051385880e-02 2.646003477275371552e-02 -6.784257292747497559e-02 -8.235963759943842888e-04 -5.492403171956539154e-03 2.413175627589225769e-02 -2.432054281234741211e-02 -3.747191512957215309e-03 -2.839700877666473389e-02 -2.327370457351207733e-02 -2.954511158168315887e-02 -6.035770289599895477e-03 -3.284488990902900696e-02 4.184745997190475464e-02 -2.247650176286697388e-02 2.313965931534767151e-02 -4.689906165003776550e-02 -5.537119135260581970e-02 -2.053347183391451836e-03 1.900626718997955322e-02 5.454648751765489578e-03 -3.869412839412689209e-02 3.087245300412178040e-02 -1.563182659447193146e-02 3.140269219875335693e-02 -1.439200155436992645e-02
1.516950596123933792e-02 -3.193552419543266296e-02 1.687129586935043335e-02 -1.416743360459804535e-02 1.267202291637659073e-02 4.701690003275871277e-02 1.672096922993659973e-02 -2.956838533282279968e-02 -8.529075421392917633e-03 2.526754699647426605e-02 1.701175817288458347e-03 1.331982947885990143e-02 6.736250221729278564e-02 7.074970006942749023e-02 -1.420587114989757538e-02 -3.372100740671157837e-02 -2.625231444835662842e-02 -2.365258708596229553e-02 2.119396254420280457e-02 1.416477467864751816e-02 -3.943678736686706543e-02 2.507040835916996002e-02 -1.994637073948979378e-03 2.005923539400100708e-02 4.197054728865623474e-02 -7.221386302262544632e-03 3.408440947532653809e-02 2.097398601472377777e-02 8.453970402479171753e-02 -1.137426402419805527e-02 -6.094628199934959412e-02 3.079877607524394989e-02 -5.975781939923763275e-03 8.380217850208282471e-02 1.772070303559303284e-02 2.595831453800201416e-02 -2.610325999557971954e-02 -6.169717386364936829e-02 -3.478992730379104614e-02 -1.880768127739429474e-02 4.033796861767768860e-02 7.809855788946151733e-02 -3.302237764000892639e-02 1.281293109059333801e-02 3.449118509888648987e-02 -2.430767752230167389e-02 5.524190142750740051e-03 -1.386283989995718002e-02 -3.604984842240810394e-03 -3.670644760131835938e-02 -8.372021839022636414e-03 -4.728833213448524475e-03 1.375642139464616776e-02 -1.004933379590511322e-02 5.245791375637054443e-02 -4.494375362992286682e-02 2.847784431651234627e-03 -5.090128630399703979e-03 -1.854311116039752960e-02 1.577228121459484100e-02 -2.045449055731296539e-02 -3.883127868175506592e-02 1.530456077307462692e-02 4.389962181448936462e-02 3.561097756028175354e-02 1.625733822584152222e-02 1.021443214267492294e-02 -1.457563508301973343e-02 -1.143186725676059723e-02 2.639187499880790710e-03 1.969547756016254425e-02 -4.409694299101829529e-02 -1.868340745568275452e-02 -4.537418484687805176e-02 -1.771822199225425720e-02 -2.206232212483882904e-02 3.750497940927743912e-03 -4.191563930362462997e-03 3.155295178294181824e-02 -6.310863420367240906e-03 6.570185534656047821e-03 -3.862567991018295288e-02 1.177646685391664505e-02 2.626932412385940552e-02 -2.547231502830982208e-02 7.135960273444652557e-03 -2.663669362664222717e-02 2.880792133510112762e-02 4.032073542475700378e-02 -1.082881540060043335e-02 4.230361059308052063e-02 -1.164398342370986938e-02 4.441958665847778320e-02 2.831581979990005493e-02 -7.905593514442443848e-02 -1.534915994852781296e-02 -1.958723412826657295e-03 -4.754927754402160645e-02 5.081178992986679077e-02 1.715314388275146484e-02 6.191936321556568146e-03 -1.484989561140537262e-02 -3.098737448453903198e-02 -1.920724846422672272e-02 2.897955244407057762e-03 9.859102778136730194e-03 -2.546748518943786621e-02 -5.320522934198379517e-02 1.031506899744272232e-02 4.708178341388702393e-02 -4.100674390792846680e-02 2.503162017092108727e-03 -2.604908868670463562e-02 -1.858716271817684174e-02 -2.490488253533840179e-02 -3.915701992809772491e-03 1.200232841074466705e-02 -6.100238859653472900e-02 3.190958127379417419e-02 1.514828391373157501e-02 -2.920183353126049042e-03 4.340625181794166565e-02 -3.259895741939544678e-02 4.015160724520683289e-02 -3.695346042513847351e-02 -6.731309927999973297e-03 -4.417325370013713837e-03 1.911452226340770721e-02
5.559963732957839966e-02 4.384562000632286072e-02 -2.306489087641239166e-02 6.720536947250366211e-02 -1.385859027504920959e-02 2.221176028251647949e-02 -2.683757245540618896e-02 1.346835028380155563e-02 -4.650218784809112549e-02 -1.847172714769840240e-02 -8.327350951731204987e-03 4.748421255499124527e-03 5.068914964795112610e-03 -5.219434853643178940e-03 -2.254005521535873413e-03 5.106933787465095520e-02 -5.774111486971378326e-03 1.806499809026718140e-02 -7.869858294725418091e-03 -8.135335147380828857e-02 -2.113325893878936768e-02 -7.318820804357528687e-02 -2.898506447672843933e-02 6.903964281082153320e-02 -2.406956255435943604e-02 -9.319857694208621979e-03 2.013219147920608521e-02 -1.233468484133481979e-02 -3.245131298899650574e-02 -3.653023391962051392e-02 4.543954879045486450e-02 -4.091176018118858337e-02 -3.213371336460113525e-02 -3.106013685464859009e-02 7.299306243658065796e-02 -2.799091301858425140e-02 -1.278046611696481705e-02 2.547794394195079803e-02 7.734634913504123688e-03 4.661266505718231201e-02 -3.178532421588897705e-02 2.635998837649822235e-02 -2.832194603979587555e-02 -1.879798248410224915e-02 -2.310303738340735435e-03 3.083867020905017853e-02 1.811595866456627846e-03 -1.968691684305667877e-02 -3.063569031655788422e-02 5.154667422175407410e-03 1.068344805389642715e-02 2.192985452711582184e-02 3.492390736937522888e-02 4.798620939254760742e-02 7.497455459088087082e-03 -1.020927797071635723e-03 5.121573433279991150e-02 -3.071249090135097504e-02 -7.153163198381662369e-03 -4.118309542536735535e-02 -2.260858193039894104e-02 -8.762893266975879669e-03 -2.302468568086624146e-02 6.173999607563018799e-02 4.065890330821275711e-03 6.380821019411087036e-02 -3.659840300679206848e-02 -7.827423512935638428e-02 -8.421071805059909821e-03 2.640728838741779327e-02 5.953764915466308594e-02 -8.263432420790195465e-03 -2.982069738209247589e-02 1.789821125566959381e-02 -7.329005002975463867e-02 3.063383139669895172e-02 4.266346991062164307e-02 -2.449413202702999115e-02 -4.586865659803152084e-03 4.190765693783760071e-02 -1.776700094342231750e-02 3.569177910685539246e-02 -2.467489615082740784e-02 -1.822536461986601353e-03 -2.443756163120269775e-02 2.272050594910979271e-03 -2.783479914069175720e-02 -6.586579233407974243e-02 -1.801850274205207825e-02 3.470202907919883728e-02 -9.234579652547836304e-02 5.978436674922704697e-03 -1.428307592868804932e-02 -4.630856215953826904e-02 2.077906206250190735e-02 -2.926868945360183716e-02 2.298442274332046509e-02 -3.588747605681419373e-02 -3.354123234748840332e-02 -7.394486665725708008e-02 1.199241727590560913e-02 -1.753453351557254791e-02 3.762608766555786133e-02 -3.873199224472045898e-02 -2.538021095097064972e-02 -4.783235862851142883e-02 6.997599452733993530e-02 6.459773331880569458e-02 -2.249293588101863861e-02 3.170410543680191040e-02 -3.973687440156936646e-02 -1.478605531156063080e-02 5.372892320156097412e-02 -1.838105381466448307e-03 -4.600504413247108459e-02 -2.669263072311878204e-02 -2.905868738889694214e-02 -3.741726046428084373e-03 4.863929376006126404e-02 6.622336222790181637e-04 -2.753837965428829193e-03 1.558106113225221634e-02 8.305224590003490448e-03 -5.788063257932662964e-02 -2.373680658638477325e-02 5.696926638484001160e-02 -1.659397035837173462e-02 3.807793557643890381e-02
-3.721436858177185059e-02 2.639083005487918854e-02 5.686247348785400391e-02 -9.452477097511291504e-03 4.567151144146919250e-02 -1.002909895032644272e-02 -3.895031660795211792e-02 -3.548227250576019287e-02 -8.327183895744383335e-04 2.224058657884597778e-02 6.051654368638992310e-02 -3.885603696107864380e-02 -7.429690565913915634e-03 1.440616045147180557e-02 -1.600686274468898773e-02 -1.202569250017404556e-02 5.069482699036598206e-02 -2.674613613635301590e-03 2.692615799605846405e-02 1.299575553275644779e-03 2.525459602475166321e-02 1.804975979030132294e-02 -6.382815074175596237e-03 5.321504548192024231e-03 2.776721492409706116e-03 -2.299103885889053345e-02 -1.146764867007732391e-02 1.763633481459692121e-04 -1.906545460224151611e-02 -1.683725789189338684e-02 9.479772299528121948e-03 -1.705080387182533741e-03 1.583850709721446037e-03 -2.261389046907424927e-02 -3.674997761845588684e-02 -1.473839860409498215e-02 -2.685507386922836304e-02 -5.466531962156295776e-02 -2.050836803391575813e-03 -6.725817173719406128e-02 -3.637891262769699097e-02 -5.475284531712532043e-03 2.835004404187202454e-02 -1.906098239123821259e-02 2.134653553366661072e-02 -5.345786735415458679e-02 -3.992995247244834900e-03 -1.985952258110046387e-02 2.015652693808078766e-02 9.365958161652088165e-03 -3.915857151150703430e-02 2.335906727239489555e-03 -1.862236484885215759e-02 -1.159258652478456497e-02 6.266167038120329380e-04 -1.595111005008220673e-02 6.355106364935636520e-03 -6.107273511588573456e-03 -3.304441692307591438e-03 5.483477935194969177e-02 6.982414983212947845e-03 -7.573466002941131592e-02 2.962596528232097626e-02 -5.594129208475351334e-03 -1.965973526239395142e-02 3.975928202271461487e-02 1.589128188788890839e-02 3.098802268505096436e-02 4.430839419364929199e-02 8.112386800348758698e-03 1.526224333792924881e-02 2.761377766728401184e-02 4.453799873590469360e-02 3.782331570982933044e-02 4.836671054363250732e-02 6.332563236355781555e-03 -1.128519512712955475e-02 -7.228816300630569458e-02 -6.338825449347496033e-03 5.211452767252922058e-02 1.909507787786424160e-03 2.699111774563789368e-02 7.278894633054733276e-02 1.183982240036129951e-03 -4.380143806338310242e-02 -2.102628722786903381e-02 -3.514007548801600933e-04 -2.483637817203998566e-02 2.766711637377738953e-02 -3.586155921220779419e-02 -1.985290320590138435e-03 3.855745494365692139e-02 2.095717377960681915e-02 -3.366501629352569580e-02 -7.081073243170976639e-03 6.588853430002927780e-03 -5.748408380895853043e-03 6.814452260732650757e-02 4.331617057323455811e-02 8.818916976451873779e-03 -1.835261657834053040e-02 -5.371666327118873596e-02 -5.158959887921810150e-03 2.479381486773490906e-02 -3.225960209965705872e-02 -5.508097261190414429e-02 -8.353852480649948120e-02 -1.985677890479564667e-02 1.961459405720233917e-02 5.789524689316749573e-02 -2.673373557627201080e-03 -7.594527676701545715e-03 -1.317033544182777405e-02 -1.345508173108100891e-02 1.363782305270433426e-02 -5.721963196992874146e-02 -4.728646203875541687e-02 -2.661870233714580536e-02 -2.258060500025749207e-02 -1.910925842821598053e-02 1.959499716758728027e-02 -4.289433360099792480e-03 6.275323778390884399e-02 -1.918686367571353912e-02 -5.531016737222671509e-03 2.337758615612983704e-02 9.235961735248565674e-02 1.462741754949092865e-02
