-5.333869159221649170e-02 8.785256184637546539e-03 -2.110287174582481384e-02 9.067598730325698853e-03 5.510463565587997437e-02 -8.267316035926342010e-03 3.101574024185538292e-03 1.595674268901348114e-02 -1.181456726044416428e-02 1.968133077025413513e-02 4.165901243686676025e-02 -1.783969812095165253e-02 7.409341167658567429e-03 8.272937498986721039e-03 -2.832867205142974854e-02 9.033933281898498535e-03 -3.996889665722846985e-02 2.023914270102977753e-02 -9.518709033727645874e-03 3.205579891800880432e-02 2.050804719328880310e-02 -1.687156036496162415e-02 -4.746127873659133911e-03 -1.725474186241626740e-02 5.162286385893821716e-02 -6.919113453477621078e-03 -3.292118757963180542e-02 2.487304434180259705e-02 1.347963511943817139e-02 1.610971521586179733e-03 -2.758738398551940918e-02 -5.433559883385896683e-03 -4.849196411669254303e-03 3.299249336123466492e-02 3.903591772541403770e-03 -2.441494539380073547e-02 -3.162820637226104736e-02 1.520870905369520187e-02 2.892614901065826416e-02 -1.431521866470575333e-02 6.718285381793975830e-02 -3.863790258765220642e-02 1.886748708784580231e-02 8.640821091830730438e-03 -5.384316295385360718e-02 -2.650702744722366333e-02 1.582386344671249390e-02 3.381985472515225410e-03 -2.459989301860332489e-02 3.099585138261318207e-02 -1.522858347743749619e-02 1.413286663591861725e-02 1.973999664187431335e-02 1.359658222645521164e-02 1.549296546727418900e-03 1.459064986556768417e-02 -1.287492550909519196e-02 3.273346647620201111e-02 2.193159051239490509e-02 -6.462908536195755005e-02 1.871637813746929169e-02 1.117904484272003174e-02 2.607414498925209045e-02 -3.076729178428649902e-02 5.855456460267305374e-03 -3.975023701786994934e-02 6.268815603107213974e-03 -3.540253499522805214e-03 -2.020053751766681671e-02 -2.081562951207160950e-02 -6.460500415414571762e-03 4.513801541179418564e-03 -6.088046357035636902e-03 1.306622289121150970e-02 3.934225440025329590e-02 -3.622360527515411377e-02 3.223484847694635391e-03 6.418681889772415161e-02 -4.983470961451530457e-02 -1.176532916724681854e-02 -1.312032528221607208e-02 -2.331952378153800964e-02 3.801834210753440857e-02 -6.175852846354246140e-03 2.405297569930553436e-02 9.612127207219600677e-03 1.735749468207359314e-02 1.533342641778290272e-03 -2.482761815190315247e-02 -1.852698624134063721e-02 2.366236224770545959e-02 7.743523456156253815e-03 1.223693834617733955e-03 3.338188305497169495e-02 1.510976720601320267e-02 5.158643703907728195e-03 1.156170759350061417e-02 2.140852302545681596e-04 8.880726993083953857e-03 2.003559842705726624e-02 6.068068090826272964e-03 -2.981453202664852142e-02 -1.685432530939579010e-02 2.996759861707687378e-02 -5.520612932741641998e-03 8.898799424059689045e-04 -3.397517651319503784e-02 -3.266156837344169617e-02 -7.087984587997198105e-03 -2.357212267816066742e-02 4.587375372648239136e-02 1.102358009666204453e-02 2.550257183611392975e-02 -2.988412417471408844e-02 9.323863312602043152e-03 -9.061238961294293404e-04 4.856223240494728088e-03 2.449609711766242981e-02 -7.045811042189598083e-03 -1.203560922294855118e-02 -6.764285732060670853e-03 -1.980171352624893188e-02 4.317554086446762085e-02 3.093403205275535583e-02 4.144033044576644897e-02 -5.346418358385562897e-03 -1.476856134831905365e-02 2.880689129233360291e-02
-4.488319624215364456e-03 1.670517027378082275e-03 1.755033433437347412e-02 -3.866644203662872314e-02 -3.874874487519264221e-02 1.659842557273805141e-03 1.219756249338388443e-02 -1.609956659376621246e-02 6.199331209063529968e-02 1.595594547688961029e-02 -1.955122873187065125e-02 2.131356671452522278e-02 4.404326900839805603e-03 -1.532975584268569946e-02 3.916469402611255646e-03 1.210574619472026825e-02 1.134233828634023666e-02 -7.728802040219306946e-03 4.605400376021862030e-03 -2.022767585003748536e-04 -1.760426536202430725e-02 8.700567297637462616e-03 2.438700199127197266e-02 -1.259409356862306595e-02 -1.247699558734893799e-02 -7.321795914322137833e-03 2.871141023933887482e-02 1.482844166457653046e-02 -2.590343542397022247e-02 -9.456932730245171115e-07 4.010552074760198593e-03 4.789949860423803329e-03 -1.764698070473968983e-03 -5.788157694041728973e-03 -1.631305739283561707e-02 4.361448064446449280e-02 2.443518675863742828e-02 8.586155250668525696e-03 -7.185815833508968353e-03 3.995081037282943726e-02 4.098700359463691711e-03 -4.120288044214248657e-02 -1.828835532069206238e-02 5.767236463725566864e-03 5.650646518915891647e-03 -2.108740061521530151e-02 -1.497246418148279190e-02 -9.230877039954066277e-04 -2.143376134335994720e-02 -5.928093101829290390e-03 4.061015322804450989e-02 -1.516035757958889008e-02 -4.606312885880470276e-02 3.637478500604629517e-02 -6.250732578337192535e-03 2.434579841792583466e-02 -8.627472445368766785e-03 3.628899902105331421e-02 -2.681989967823028564e-02 5.747853429056704044e-04 1.096756011247634888e-02 -1.133486442267894745e-02 -2.274274453520774841e-02 -2.808548975735902786e-03 3.723248839378356934e-02 -2.692572958767414093e-02 -1.341518294066190720e-02 1.044234633445739746e-02 -5.382623150944709778e-02 -2.538608200848102570e-02 1.783904852345585823e-03 -1.514617260545492172e-02 -1.706440933048725128e-02 2.412792854011058807e-02 3.792123869061470032e-02 2.160326763987541199e-02 3.078045696020126343e-02 -1.534978765994310379e-02 1.215984299778938293e-02 -1.601739227771759033e-02 -1.168904127553105354e-03 -3.801074996590614319e-02 -5.489262193441390991e-02 -1.148387882858514786e-02 4.705448821187019348e-02 3.657500445842742920e-02 -7.865696214139461517e-03 1.841710694134235382e-02 -6.548609584569931030e-02 4.341104999184608459e-02 1.451584696769714355e-02 -7.130051031708717346e-03 1.372937462292611599e-03 -1.686173863708972931e-02 -1.596730016171932220e-02 -2.839663252234458923e-02 -2.707038447260856628e-02 2.468519657850265503e-02 -2.144790627062320709e-02 2.609836123883724213e-02 4.194084554910659790e-02 -1.933717541396617889e-02 4.085753578692674637e-03 -4.162146709859371185e-03 7.052142918109893799e-02 1.299565099179744720e-02 2.283056639134883881e-02 -8.273974992334842682e-03 1.878940500319004059e-02 -1.085768267512321472e-02 3.361525759100914001e-02 1.824760064482688904e-02 5.323116481304168701e-02 -1.188748329877853394e-02 7.152492180466651917e-03 -1.032026670873165131e-02 5.278167501091957092e-02 1.237988006323575974e-02 -3.202081471681594849e-02 1.793192513287067413e-02 2.781342901289463043e-02 -9.264411404728889465e-03 -3.124345466494560242e-02 8.920204825699329376e-03 3.062630072236061096e-02 2.303374931216239929e-02 -2.305716276168823242e-02 7.736338884569704533e-04
-7.991321384906768799e-03 -7.669326849281787872e-03 -1.473395386710762978e-03 -1.849804446101188660e-02 -9.148716926574707031e-03 1.695123501121997833e-02 9.131804108619689941e-04 -1.467878930270671844e-02 -4.406683892011642456e-02 4.684665706008672714e-03 1.233220472931861877e-02 -1.515979692339897156e-02 -9.195344522595405579e-03 6.459470838308334351e-02 1.495616231113672256e-02 -2.811071090400218964e-02 1.155261602252721786e-02 -8.746408275328576565e-04 -5.609658081084489822e-03 -2.801728621125221252e-02 7.477349601686000824e-03 4.132566042244434357e-03 -7.531565148383378983e-03 4.256820539012551308e-04 -1.425407920032739639e-02 2.923745848238468170e-02 2.303266339004039764e-02 -5.260730534791946411e-02 -3.452753275632858276e-02 -1.800297014415264130e-02 -4.240112379193305969e-03 1.544221304357051849e-02 -2.027166634798049927e-02 8.622043766081333160e-03 3.682853281497955322e-02 2.514858543872833252e-02 1.387290749698877335e-02 1.917579211294651031e-02 -6.723409146070480347e-02 -1.728511787950992584e-02 4.354215040802955627e-02 -1.357532292604446411e-02 1.145302038639783859e-02 1.453292742371559143e-02 -2.206457965075969696e-02 7.783396635204553604e-03 -2.446219883859157562e-02 -2.280441112816333771e-02 2.480769902467727661e-02 -4.870212636888027191e-03 -3.214021772146224976e-02 -2.292666025459766388e-02 1.895428448915481567e-02 2.232783287763595581e-02 -2.960786968469619751e-02 -2.040541032329201698e-03 1.376554649323225021e-02 -4.677055403590202332e-02 -2.558444254100322723e-02 -6.272592581808567047e-03 -3.155393898487091064e-02 8.421678096055984497e-03 3.974990174174308777e-02 3.780033811926841736e-02 8.745267987251281738e-03 1.078816410154104233e-02 -5.948555655777454376e-03 9.722091257572174072e-03 1.706534996628761292e-02 1.176913455128669739e-02 -1.046890951693058014e-02 4.541761428117752075e-02 4.026296362280845642e-02 9.277788922190666199e-03 -1.464068144559860229e-02 -5.144921131432056427e-03 -1.878694072365760803e-02 5.211149901151657104e-02 1.478988956660032272e-02 8.358698338270187378e-03 -1.815892755985260010e-02 2.029213681817054749e-02 9.943070821464061737e-03 -6.238512694835662842e-02 -1.271887868642807007e-02 3.645398886874318123e-03 4.670217633247375488e-02 3.047326765954494476e-02 1.115254778414964676e-02 -2.141704782843589783e-03 9.648508392274379730e-03 -2.977527864277362823e-02 -4.980070516467094421e-04 8.921093307435512543e-03 -1.651174575090408325e-02 4.085349291563034058e-02 -2.377223968505859375e-02 2.969279885292053223e-03 -7.484259083867073059e-03 -9.366839192807674408e-03 1.455984916538000107e-02 -2.530189603567123413e-02 -1.777185499668121338e-02 1.500508654862642288e-02 -1.845962740480899811e-02 7.256231270730495453e-03 7.866821251809597015e-03 3.583589941263198853e-02 -9.642033837735652924e-03 -8.392775431275367737e-03 8.088583126664161682e-03 -7.613262627273797989e-03 -5.909973755478858948e-02 4.727850481867790222e-02 -7.647103164345026016e-03 3.052674047648906708e-02 -5.431311205029487610e-03 6.856144219636917114e-02 2.077746763825416565e-02 5.984108895063400269e-02 -5.954125896096229553e-03 -6.029311567544937134e-03 1.254246197640895844e-02 -3.179068909958004951e-03 5.411705467849969864e-03 1.747641526162624359e-02 1.036232151091098785e-02 -1.659184880554676056e-02
1.165292412042617798e-02 9.048420004546642303e-03 3.297856822609901428e-02 -1.272742520086467266e-03 2.814245875924825668e-03 -5.733478814363479614e-03 2.833243645727634430e-02 6.976924370974302292e-03 -2.992648445069789886e-02 7.262677885591983795e-03 1.822336949408054352e-02 -2.116384357213973999e-02 -3.653964493423700333e-03 1.646278239786624908e-02 -1.987357810139656067e-02 -3.569444268941879272e-02 2.090818993747234344e-02 3.553607687354087830e-02 4.050678759813308716e-02 1.282505504786968231e-02 -2.270310372114181519e-02 -2.471964340656995773e-03 4.192150197923183441e-03 -9.158083237707614899e-03 2.749991603195667267e-02 -2.179484628140926361e-02 -6.401568185538053513e-03 -4.875888582319021225e-03 1.327231898903846741e-02 -3.076714463531970978e-02 -2.479512430727481842e-02 -8.832928724586963654e-03 -6.619730032980442047e-03 2.193384431302547455e-02 1.087456755340099335e-02 -8.747153915464878082e-03 3.295446559786796570e-02 -5.356896668672561646e-03 -3.664590045809745789e-02 -8.422196842730045319e-03 1.062824111431837082e-02 7.716064341366291046e-03 2.765433397144079208e-03 2.100336598232388496e-03 -1.266587898135185242e-02 -2.059023454785346985e-02 1.384959183633327484e-02 9.390137158334255219e-03 -3.962297458201646805e-03 -8.549867197871208191e-03 -2.782434225082397461e-02 1.709049381315708160e-02 -2.465785481035709381e-02 9.829136542975902557e-03 1.533093210309743881e-02 -5.979697685688734055e-03 1.640119776129722595e-02 -1.094118505716323853e-02 1.938233524560928345e-02 1.796529628336429596e-02 5.137231666594743729e-03 1.590102096088230610e-03 1.411499362438917160e-02 -2.998440526425838470e-03 -1.335947588086128235e-02 -7.809090893715620041e-03 1.303344685584306717e-02 1.051644701510667801e-02 3.904631361365318298e-02 -2.856818493455648422e-03 -3.349546715617179871e-02 -4.601413384079933167e-02 3.909200057387351990e-02 -2.640027366578578949e-02 7.921135053038597107e-03 -3.666994394734501839e-03 -8.395974524319171906e-03 -2.175416983664035797e-02 2.066927403211593628e-02 8.439021185040473938e-03 1.181424595415592194e-02 1.971615292131900787e-02 2.676000632345676422e-02 -2.213964238762855530e-02 4.513353109359741211e-03 2.101301448419690132e-03 1.585766486823558807e-02 7.617871742695569992e-03 2.525631338357925415e-03 -2.026181854307651520e-02 1.996672712266445160e-02 -3.339027287438511848e-03 -1.095845364034175873e-02 -8.141661062836647034e-03 -1.124133449047803879e-02 -2.690636739134788513e-02 2.037591487169265747e-02 1.953701116144657135e-02 -7.684315205551683903e-04 4.647752735763788223e-03 2.840982191264629364e-02 -5.053028464317321777e-03 -1.914666593074798584e-02 -5.338831688277423382e-04 -3.674100339412689209e-02 3.178577125072479248e-02 -1.892252475954592228e-03 -5.143637303262948990e-03 -1.751279272139072418e-02 -2.408647350966930389e-02 6.956418976187705994e-03 7.494913414120674133e-03 -2.866433234885334969e-03 -2.438076026737689972e-02 1.481886487454175949e-02 2.966639026999473572e-02 2.353982068598270416e-03 -1.204342488199472427e-02 2.388739213347434998e-02 -7.499806117266416550e-03 -1.585655100643634796e-02 -8.535037748515605927e-03 1.653821766376495361e-02 -2.015712670981884003e-02 -1.266864361241459846e-03 1.747938618063926697e-02 2.823914587497711182e-02 1.041572820395231247e-02
4.045031964778900146e-02 2.491660229861736298e-02 5.089775845408439636e-02 5.491141695529222488e-03 -4.119878169149160385e-03 3.595445677638053894e-02 2.845984697341918945e-02 -3.062151186168193817e-02 -9.683493524789810181e-03 -2.371735125780105591e-02 3.855551779270172119e-02 -5.788570269942283630e-04 4.902039095759391785e-02 -8.165063336491584778e-03 3.760417166631668806e-04 2.518304996192455292e-02 -1.994780264794826508e-02 4.242029041051864624e-02 3.241392225027084351e-02 3.257068991661071777e-02 1.756625249981880188e-02 -6.887593306601047516e-03 5.124560091644525528e-03 -3.901718929409980774e-02 5.416189879179000854e-02 4.616051446646451950e-03 -2.153368294239044189e-02 1.021133549511432648e-02 8.697344921529293060e-03 -1.509821391664445400e-03 -1.375961233861744404e-03 4.375174641609191895e-02 3.904151264578104019e-03 -6.645925343036651611e-03 2.267267368733882904e-02 2.001837268471717834e-02 -1.558407209813594818e-02 -3.253548173233866692e-03 6.006860174238681793e-03 -2.291155420243740082e-02 1.747929863631725311e-02 4.746809974312782288e-02 2.284461073577404022e-02 -3.652014769613742828e-03 1.344715990126132965e-02 -4.154580831527709961e-02 -1.871362328529357910e-02 -5.029807332903146744e-03 3.126563504338264465e-02 -8.344025164842605591e-02 -4.235536977648735046e-02 -4.009424149990081787e-02 2.514114975929260254e-02 -3.372779116034507751e-02 -1.885106973350048065e-02 1.691908575594425201e-02 -1.000831555575132370e-02 5.251833703368902206e-03 -1.809114404022693634e-02 1.298038009554147720e-02 -1.193898380734026432e-03 -1.824794337153434753e-02 -2.001252584159374237e-02 3.137300489470362663e-03 -1.529957866296172142e-03 -3.672944009304046631e-02 2.126785553991794586e-02 2.519808895885944366e-02 1.780071109533309937e-02 -1.459042890928685665e-03 2.812983281910419464e-02 -2.217473275959491730e-02 1.226205099374055862e-02 -4.602202679961919785e-03 -9.417802095413208008e-03 -2.635526238009333611e-03 -1.973902992904186249e-02 1.727531664073467255e-02 2.336792275309562683e-02 -3.260064497590065002e-02 3.306584805250167847e-02 3.890891745686531067e-02 -2.865436719730496407e-03 -1.427223999053239822e-02 -1.857694122008979321e-03 2.235327661037445068e-02 -3.532139211893081665e-02 8.118884637951850891e-03 8.285509422421455383e-03 3.718802332878112793e-02 1.055836910381913185e-03 -1.300662942230701447e-02 -1.952774636447429657e-02 1.052215788513422012e-02 -3.147529438138008118e-02 2.451175265014171600e-02 1.304061431437730789e-02 -1.094470918178558350e-02 6.859112530946731567e-03 1.834251917898654938e-02 -1.887080073356628418e-02 -3.578824549913406372e-02 1.571788452565670013e-02 1.988250203430652618e-02 -5.562273412942886353e-02 1.898482441902160645e-02 -2.052630297839641571e-02 1.624307222664356232e-02 -2.035084925591945648e-02 -1.220242702402174473e-03 -2.538294531404972076e-02 -1.958738453686237335e-02 -2.539876103401184082e-02 -1.235147099941968918e-02 -1.657190360128879547e-02 3.078933805227279663e-02 -9.756167419254779816e-03 1.396920718252658844e-02 -3.331441804766654968e-02 -4.201062023639678955e-02 1.045660302042961121e-02 1.024232059717178345e-02 3.654811880551278591e-04 -3.342960402369499207e-02 1.891154050827026367e-02 -1.155253779143095016e-02 2.416371367871761322e-02 -2.214296488091349602e-03
1.913869753479957581e-02 -1.275865081697702408e-02 1.063775643706321716e-02 -1.095603872090578079e-02 2.427174896001815796e-02 2.930671162903308868e-02 1.015046611428260803e-02 -2.613805420696735382e-02 -8.629625663161277771e-03 3.109102509915828705e-02 -9.392734500579535961e-04 9.276020340621471405e-03 5.333589017391204834e-02 4.474503546953201294e-02 -2.421693410724401474e-03 -2.294561825692653656e-02 -1.730836555361747742e-02 -8.655881509184837341e-03 1.258203200995922089e-02 6.580904591828584671e-03 -1.454369537532329559e-02 2.939333207905292511e-02 5.773056764155626297e-03 2.060073986649513245e-02 1.498827431350946426e-02 -2.475667186081409454e-02 2.008239552378654480e-02 1.766391098499298096e-02 6.637528538703918457e-02 -2.837295457720756531e-02 -3.365571424365043640e-02 5.855476483702659607e-03 -1.595520228147506714e-02 6.522549688816070557e-02 2.039636485278606415e-02 1.589935086667537689e-02 -1.882196404039859772e-02 -4.878306388854980469e-02 -1.716969069093465805e-03 -2.788828499615192413e-02 2.777644433081150055e-02 4.562234506011009216e-02 -1.970720104873180389e-02 1.369465142488479614e-02 2.634938620030879974e-02 -8.731989189982414246e-03 1.337867137044668198e-02 -6.594434846192598343e-03 -1.231826841831207275e-02 -2.326348610222339630e-02 7.295799441635608673e-03 5.552303045988082886e-03 1.993210613727569580e-02 -1.269959192723035812e-02 5.042926967144012451e-02 -3.671729937195777893e-02 -1.311685983091592789e-02 -1.973309181630611420e-02 -9.961873292922973633e-03 -1.010658498853445053e-02 -1.577207818627357483e-02 -3.629684820771217346e-02 -1.382176997140049934e-03 2.086370624601840973e-02 2.726410515606403351e-02 -4.508840502239763737e-04 -3.017649520188570023e-03 -1.892280764877796173e-02 -1.623189635574817657e-02 3.079293761402368546e-03 1.999290287494659424e-02 -3.214759379625320435e-02 2.307206159457564354e-03 -2.061103098094463348e-02 -2.350900089368224144e-03 -3.237841278314590454e-02 2.128944545984268188e-02 6.847992772236466408e-04 1.600073464214801788e-02 -9.270335431210696697e-04 -1.219432149082422256e-02 -2.137475460767745972e-02 3.746499493718147278e-02 1.977096498012542725e-02 -2.262146770954132080e-02 -5.106152035295963287e-03 -1.556845288723707199e-02 1.746455021202564240e-02 2.553096786141395569e-02 -2.070025727152824402e-02 1.582269556820392609e-02 -1.403897162526845932e-02 3.577406704425811768e-02 2.593766711652278900e-02 -5.275459215044975281e-02 -1.199486944824457169e-02 -1.323820929974317551e-02 -2.747861295938491821e-02 2.798387408256530762e-02 -6.286691641435027122e-04 1.826412044465541840e-02 -1.583821326494216919e-02 -2.043263800442218781e-02 -3.549271961674094200e-03 1.340023148804903030e-02 -5.426066927611827850e-03 -1.174948643893003464e-02 -2.832998335361480713e-02 2.609170414507389069e-02 3.129163384437561035e-02 -2.341083995997905731e-02 -8.307700045406818390e-04 -3.784220898523926735e-03 -2.045428566634654999e-02 -2.090664394199848175e-02 -1.879305019974708557e-02 1.424743235111236572e-02 -3.451542183756828308e-02 1.607180386781692505e-02 -3.215872915461659431e-03 3.857348579913377762e-03 3.148185089230537415e-02 -1.731709204614162445e-02 3.202584385871887207e-02 -1.571000181138515472e-02 6.773068453185260296e-04 -1.955479942262172699e-02 2.248451299965381622e-02
3.191406279802322388e-02 3.066628426313400269e-02 -1.602114737033843994e-02 4.621656984090805054e-02 -2.592536038719117641e-04 2.196175232529640198e-02 -1.415619999170303345e-02 1.908604986965656281e-02 -3.017645701766014099e-02 -1.347595453262329102e-02 6.108838599175214767e-03 -1.669263467192649841e-02 1.289221807383000851e-03 4.750015679746866226e-03 -8.374877274036407471e-03 3.852836415171623230e-02 -9.391826577484607697e-03 2.233744226396083832e-02 3.544001840054988861e-03 -6.168213859200477600e-02 -1.191544532775878906e-02 -6.788755953311920166e-02 -3.083274886012077332e-02 4.271001368761062622e-02 -9.312162175774574280e-03 -1.230681501328945160e-02 1.485964935272932053e-02 2.923850202932953835e-03 -2.208858914673328400e-02 -3.614032641053199768e-02 2.698883041739463806e-02 -2.965200692415237427e-02 -3.165445104241371155e-02 -2.723849378526210785e-02 5.080854520201683044e-02 -1.097600534558296204e-02 -2.847520448267459869e-02 2.123968303203582764e-02 5.128956399857997894e-03 3.465235233306884766e-02 -2.390330284833908081e-02 1.807496696710586548e-02 -1.421002112329006195e-02 -1.680551469326019287e-02 2.160576172173023224e-03 1.748849637806415558e-02 -2.008728915825486183e-03 -1.825445704162120819e-02 -2.041331306099891663e-02 -1.325315050780773163e-02 -4.805100616067647934e-03 6.605571601539850235e-03 2.544284425675868988e-02 3.753096982836723328e-02 -7.447808515280485153e-03 -6.177658797241747379e-04 4.122607037425041199e-02 -2.108529023826122284e-02 -6.286342628300189972e-03 -3.583235293626785278e-02 -2.106788568198680878e-02 -9.672774933278560638e-03 -6.277433596551418304e-03 4.933145642280578613e-02 5.147738920641131699e-05 4.998831823468208313e-02 -2.288301102817058563e-02 -5.645615607500076294e-02 -4.237796529196202755e-04 1.970942132174968719e-02 4.269113391637802124e-02 -1.033565308898687363e-02 -2.005872316658496857e-02 1.188771892338991165e-02 -5.465197563171386719e-02 3.276048973202705383e-02 2.509682253003120422e-02 -1.650277338922023773e-02 -1.900070719420909882e-02 2.544040791690349579e-02 -5.406498443335294724e-03 2.537010796368122101e-02 -9.885471314191818237e-03 -7.245878688991069794e-03 -7.056266069412231445e-03 5.558931734412908554e-03 -2.135957963764667511e-02 -5.288251116871833801e-02 -1.081708632409572601e-02 1.477300934493541718e-02 -6.713312119245529175e-02 1.318971160799264908e-02 -1.180237811058759689e-02 -3.334715217351913452e-02 8.066806010901927948e-03 -2.357067354023456573e-02 1.946257241070270538e-02 -2.539713680744171143e-02 -2.633541636168956757e-02 -4.613809287548065186e-02 3.359438385814428329e-03 -1.748679764568805695e-02 2.190746366977691650e-02 -2.341778203845024109e-02 -3.721390664577484131e-02 -4.307158663868904114e-02 5.171781778335571289e-02 4.369594901800155640e-02 -1.989424787461757660e-02 2.291015908122062683e-02 -2.257399633526802063e-02 -1.207727659493684769e-02 3.680282831192016602e-02 -4.257150576449930668e-04 -4.075900837779045105e-02 -2.037402428686618805e-02 -2.518610283732414246e-02 2.796205517370253801e-04 3.963777795433998108e-02 -3.026477061212062836e-04 -5.934455431997776031e-03 2.008587121963500977e-02 1.358692161738872528e-02 -4.539040848612785339e-02 -7.659225258976221085e-03 4.658251628279685974e-02 9.368243045173585415e-04 3.120183944702148438e-02
-3.064624220132827759e-02 1.880828104913234711e-02 4.147789627313613892e-02 7.901341654360294342e-03 2.113798633217811584e-02 -1.732946559786796570e-02 -2.081302367150783539e-02 -2.138319239020347595e-02 -8.049364201724529266e-03 1.730795577168464661e-02 3.996959328651428223e-02 -2.238649688661098480e-02 2.383481943979859352e-03 9.943203069269657135e-03 -1.493904646486043930e-02 -8.948507718741893768e-03 3.778565302491188049e-02 -1.320101413875818253e-02 2.125270292162895203e-02 2.779824426397681236e-04 3.642667783424258232e-03 6.480523850768804550e-03 3.207259811460971832e-03 9.788228198885917664e-04 9.914416819810867310e-03 -5.917133763432502747e-03 -1.778027601540088654e-02 -3.048866929020732641e-04 4.353307187557220459e-03 -1.751818321645259857e-02 -4.528867546468973160e-03 1.613940548850223422e-04 1.072414102964103222e-03 1.323636621236801147e-03 -2.395145222544670105e-02 -1.079942565411329269e-02 -1.137237995862960815e-02 -3.145328164100646973e-02 -3.493654076009988785e-03 -4.225998744368553162e-02 -1.925517991185188293e-02 8.201227756217122078e-04 1.220906618982553482e-02 -9.652442298829555511e-03 1.212428417056798935e-02 -4.871218651533126831e-02 -1.036018040031194687e-02 -8.202562108635902405e-03 1.956229470670223236e-02 7.949594291858375072e-04 -3.118516691029071808e-02 4.564876202493906021e-03 -2.093327790498733521e-02 9.524025372229516506e-04 1.517025101929903030e-02 -6.529560312628746033e-03 1.276633515954017639e-02 -1.057314965873956680e-02 -3.596640424802899361e-03 3.359503671526908875e-02 2.466801786795258522e-03 -5.670039728283882141e-02 2.200183458626270294e-02 -5.622803233563899994e-03 4.030739422887563705e-03 3.799076750874519348e-02 1.124804839491844177e-02 1.186111755669116974e-02 1.516397111117839813e-02 6.660537794232368469e-03 3.204880515113472939e-03 1.205744128674268723e-02 2.006095834076404572e-02 1.414465717971324921e-02 2.972871623933315277e-02 2.885452937334775925e-03 -1.589935831725597382e-02 -4.706635326147079468e-02 -5.108706653118133545e-03 2.776728570461273193e-02 -4.615098703652620316e-03 1.460923347622156143e-02 5.363700538873672485e-02 -8.045116439461708069e-03 -3.003238141536712646e-02 -2.112360205501317978e-03 1.919030444696545601e-03 -1.782010495662689209e-02 1.627091504633426666e-02 -2.258131280541419983e-02 6.881707813590764999e-03 1.927942410111427307e-02 8.342054672539234161e-03 -1.831374131143093109e-02 -1.758420839905738831e-02 1.900368835777044296e-03 -3.566704923287034035e-03 4.940459504723548889e-02 3.383545950055122375e-02 4.198402166366577148e-03 -5.837104748934507370e-03 -4.244636744260787964e-02 5.902778357267379761e-03 1.590960286557674408e-02 -3.103140555322170258e-02 -2.927682362496852875e-02 -6.676066666841506958e-02 -2.126899175345897675e-02 1.703797839581966400e-02 4.357597604393959045e-02 -6.301076151430606842e-03 -2.261891029775142670e-03 -1.286976318806409836e-02 -1.322161778807640076e-02 1.367126405239105225e-02 -4.404728487133979797e-02 -3.712103143334388733e-02 -1.392477750778198242e-02 -6.111408118158578873e-03 3.611442400142550468e-03 2.180493436753749847e-02 -7.177509367465972900e-03 3.953559696674346924e-02 2.439967123791575432e-03 -2.553389640524983406e-03 2.333556115627288818e-02 6.652911007404327393e-02 5.566736683249473572e-03
