2.218556404113769531e-02 3.995632007718086243e-02 5.972765851765871048e-03 -6.950805429369211197e-03 -1.673370786011219025e-02 -2.503035962581634521e-02 5.540088191628456116e-02 -3.323726728558540344e-02 -3.736607357859611511e-02 -3.326534293591976166e-03 4.150858893990516663e-02 1.030681002885103226e-02 1.160986488685011864e-03 3.278639912605285645e-02 -1.331973937340080738e-03 -1.378060132265090942e-02 -2.976479195058345795e-02 1.214161235839128494e-02 -9.916589595377445221e-03 2.137997507816180587e-04 -1.770208962261676788e-02 1.530351582914590836e-02 -3.929296974092721939e-03 2.479071263223886490e-03 1.519984658807516098e-02 -1.819571480154991150e-02 1.727345213294029236e-02 -6.069117691367864609e-03 3.463420085608959198e-03 2.279925905168056488e-02 9.323745965957641602e-03 2.333128079771995544e-02 -1.130683440715074539e-02 -1.231837086379528046e-02 9.264525026082992554e-03 1.191822625696659088e-02 -1.225691009312868118e-02 1.650080084800720215e-02 -2.291213534772396088e-02 -9.382290765643119812e-03 -9.083386510610580444e-03 1.108689466491341591e-03 -1.843748055398464203e-02 1.497490331530570984e-02 2.443562075495719910e-02 -3.457095846533775330e-02 9.359945543110370636e-03 1.349267363548278809e-02 3.959983587265014648e-02 -2.043198794126510620e-02 -1.305228937417268753e-02 -2.830788120627403259e-02 -2.202370017766952515e-02 -1.029975991696119308e-02 -1.002813037484884262e-02 -1.200177706778049469e-02 -2.960266731679439545e-02 -2.334438264369964600e-02 -1.444592326879501343e-02 -1.834100810810923576e-03 -2.348523773252964020e-02 4.081663861870765686e-02 1.143328659236431122e-02 3.038208000361919403e-03 -5.768019240349531174e-03 -4.109500721096992493e-02 1.054767984896898270e-02 8.775242604315280914e-03 1.624252763576805592e-03 -1.251455396413803101e-02 -3.091089660301804543e-03 -2.841403009369969368e-03 -3.073449712246656418e-03 -6.362751126289367676e-02 -6.526614539325237274e-03 -2.931096591055393219e-02 3.512161085382103920e-03 2.401174604892730713e-02 -1.615775749087333679e-02 -5.530639737844467163e-02 -1.097806380130350590e-03 -3.732539340853691101e-02 -8.981862105429172516e-03 -3.507034480571746826e-02 -2.751990407705307007e-02 -1.639350876212120056e-02 -1.153009571135044098e-02 -7.815156131982803345e-03 -6.568672135472297668e-03 3.850571066141128540e-02 -5.368113983422517776e-03 -3.859696164727210999e-02 -1.994993537664413452e-02 1.159281004220247269e-02 7.741859182715415955e-03 5.061654374003410339e-03 5.009061656892299652e-03 1.214325986802577972e-02 1.563930325210094452e-02 -8.050171658396720886e-03 -2.567525580525398254e-02 8.125305175781250000e-03 -1.108198799192905426e-02 -4.249211400747299194e-03 -2.498361468315124512e-02 2.926397696137428284e-02 1.315389759838581085e-02 -3.183117136359214783e-03 -1.916782557964324951e-02 -1.711286418139934540e-02 -2.233692631125450134e-02 -2.498940750956535339e-02 -3.175895288586616516e-02 3.689716977532953024e-04 -4.330465570092201233e-02 3.828749060630798340e-02 -2.049416676163673401e-02 1.407388411462306976e-02 4.356693476438522339e-03 -1.510463282465934753e-02 -3.092533349990844727e-02 -1.574355177581310272e-02 -1.502243429422378540e-02 2.205933909863233566e-03 -1.560138189233839512e-03 -3.467237204313278198e-02 1.450273301452398300e-02 -1.547676511108875275e-02
6.793912034481763840e-03 2.827836573123931885e-02 1.249975059181451797e-02 -1.186871901154518127e-02 -1.488131657242774963e-02 -1.671615429222583771e-02 1.236716564744710922e-02 -2.656805701553821564e-02 -2.507347613573074341e-02 -2.415421046316623688e-02 3.998251166194677353e-03 3.774491138756275177e-03 7.030657958239316940e-03 1.132278051227331161e-02 -1.141117606312036514e-02 3.408055985346436501e-03 6.852841470390558243e-03 2.341134287416934967e-02 1.237659528851509094e-02 9.636405855417251587e-03 4.914015065878629684e-03 -1.173053495585918427e-02 4.027387127280235291e-02 -9.234562516212463379e-03 1.205267291516065598e-02 -1.121748797595500946e-02 1.184737868607044220e-02 -2.707461128011345863e-03 1.432195305824279785e-02 3.416657820343971252e-02 2.442277967929840088e-02 1.845722086727619171e-02 -1.717656292021274567e-02 -4.039885010570287704e-03 9.338159114122390747e-03 1.166130509227514267e-02 1.539985369890928268e-02 2.077098377048969269e-02 3.114654496312141418e-02 1.851399987936019897e-02 1.581962965428829193e-02 2.280963025987148285e-02 2.602555556222796440e-03 -4.136408492922782898e-02 -4.275296349078416824e-03 1.855715061537921429e-03 -2.372656948864459991e-02 -2.552996762096881866e-02 5.303611047565937042e-03 1.083396282047033310e-02 -2.351071499288082123e-02 1.249058917164802551e-02 1.235467102378606796e-02 9.363012388348579407e-03 -1.985898241400718689e-02 -1.836599595844745636e-02 4.506801255047321320e-03 1.302672363817691803e-02 -3.628587117418646812e-03 2.081957273185253143e-02 2.826684154570102692e-03 -1.720887236297130585e-02 -4.554197192192077637e-03 3.509759530425071716e-02 5.061632022261619568e-03 -3.825982566922903061e-03 3.932387102395296097e-03 -1.539923902601003647e-02 -1.210978534072637558e-02 -9.121708571910858154e-03 3.698365762829780579e-02 7.551474031060934067e-03 3.597403317689895630e-02 -9.407321922481060028e-03 2.452688664197921753e-02 5.871791765093803406e-02 -1.119969785213470459e-02 8.185843937098979950e-03 3.605692414566874504e-03 -4.876628983765840530e-03 -1.751662231981754303e-02 2.990947850048542023e-02 3.095104917883872986e-02 -1.438724622130393982e-02 1.478105783462524414e-02 1.602072827517986298e-02 1.748928986489772797e-02 -1.233120635151863098e-02 3.689491376280784607e-02 -7.245526183396577835e-03 1.881771022453904152e-03 1.864220201969146729e-02 1.393086556345224380e-02 -2.765844017267227173e-02 -6.935612298548221588e-03 2.152640558779239655e-02 -2.938385820016264915e-03 -1.647145301103591919e-02 3.168875724077224731e-02 1.911012083292007446e-02 -1.107950601726770401e-02 -1.944524049758911133e-02 1.877050288021564484e-02 6.703762337565422058e-03 -1.531151123344898224e-02 -1.565500628203153610e-03 -4.446516185998916626e-02 -2.092867903411388397e-02 -2.140882983803749084e-02 -1.427146373316645622e-03 2.578036300837993622e-02 5.082378536462783813e-02 1.426637731492519379e-02 -9.359420277178287506e-03 7.925690733827650547e-04 3.487382829189300537e-02 -2.463965304195880890e-02 -1.464410685002803802e-03 -4.082679376006126404e-02 -1.768326503224670887e-03 1.803283463232219219e-03 -5.270749796181917191e-03 6.932297721505165100e-03 -1.951860077679157257e-02 1.441315189003944397e-02 6.373525410890579224e-02 2.858350425958633423e-02 6.718704942613840103e-03
-6.639048457145690918e-03 -1.064713019877672195e-02 1.109001226723194122e-02 1.886527240276336670e-02 -2.903518639504909515e-02 -8.761486038565635681e-03 -4.545369744300842285e-02 -1.843098923563957214e-02 3.479289636015892029e-02 -1.351208984851837158e-02 1.476897113025188446e-02 2.270224876701831818e-02 5.182437971234321594e-02 -3.346878290176391602e-02 3.486770391464233398e-02 2.593118883669376373e-02 -1.348959194729104638e-04 -1.772639527916908264e-02 -1.992558687925338745e-02 9.901859797537326813e-03 -1.440328545868396759e-02 6.784714758396148682e-03 1.997638866305351257e-02 -1.199178677052259445e-02 -1.566305197775363922e-02 9.068203158676624298e-03 2.454092726111412048e-02 -2.409260720014572144e-02 -2.509591542184352875e-02 -2.935420162975788116e-02 1.118714455515146255e-02 -2.112056501209735870e-02 2.316295728087425232e-02 -1.670466922223567963e-02 -3.979101777076721191e-02 3.654097765684127808e-02 1.541129779070615768e-02 2.403992787003517151e-02 2.523173764348030090e-02 -7.258586585521697998e-03 -3.354071173816919327e-03 1.488138269633054733e-02 -2.137473039329051971e-02 2.696068026125431061e-03 2.011437714099884033e-02 -2.460518851876258850e-02 -3.632967919111251831e-02 -3.128803893923759460e-02 -5.755273159593343735e-03 2.270170487463474274e-03 3.269980102777481079e-02 1.061675790697336197e-02 -3.299749642610549927e-02 -1.704493165016174316e-02 -3.186117974109947681e-04 1.895714923739433289e-02 1.508496515452861786e-02 -2.815868332982063293e-02 4.531505983322858810e-03 -2.848549745976924896e-02 -3.794707357883453369e-02 -3.997335210442543030e-02 -2.602795511484146118e-02 -6.583662237972021103e-03 -1.235678046941757202e-02 1.080276258289813995e-02 -4.068695008754730225e-02 1.703183352947235107e-02 -1.754055730998516083e-02 -1.203027926385402679e-02 -1.206411398015916348e-03 -1.129303313791751862e-02 -2.094750478863716125e-02 3.083360753953456879e-02 2.431091852486133575e-03 -6.188557017594575882e-03 8.716762997210025787e-03 -4.754375666379928589e-03 2.184813638450577855e-06 2.324019093066453934e-03 1.949603855609893799e-02 -1.357864122837781906e-02 -4.354161210358142853e-03 8.774468675255775452e-03 -2.306506596505641937e-02 4.126357659697532654e-02 -9.520538151264190674e-04 -2.583881095051765442e-02 -2.192054688930511475e-02 4.514792561531066895e-02 1.182936411350965500e-02 1.414258591830730438e-02 -2.000943571329116821e-02 -5.872980691492557526e-03 -7.417955901473760605e-03 -3.254531696438789368e-02 4.178704693913459778e-02 1.043300796300172806e-02 -4.423391819000244141e-02 -2.202783524990081787e-02 -7.772569078952074051e-04 -2.068531466647982597e-03 -3.055028617382049561e-03 -1.776106655597686768e-02 3.574200207367539406e-03 6.025542505085468292e-03 -9.294929914176464081e-03 -3.380529209971427917e-02 2.590003050863742828e-02 -5.023490171879529953e-03 3.148930147290229797e-02 -1.520213263574987650e-04 1.347251422703266144e-02 2.897078171372413635e-03 2.226146683096885681e-02 -5.006483569741249084e-02 2.450680732727050781e-02 -3.692346811294555664e-02 1.533514726907014847e-02 -2.557050436735153198e-02 -1.366228796541690826e-02 -6.109192036092281342e-03 -8.085780777037143707e-03 8.189838379621505737e-03 -1.676656678318977356e-02 2.382971532642841339e-02 -1.541960798203945160e-02 -1.285609789192676544e-02
2.326091565191745758e-02 1.005255617201328278e-02 -3.749308362603187561e-02 -4.077527672052383423e-02 -2.570251235738396645e-03 9.887074120342731476e-04 1.796993426978588104e-02 -7.840625941753387451e-03 -1.711145788431167603e-02 4.381560534238815308e-02 -2.885138988494873047e-02 -1.686420850455760956e-02 -1.781154796481132507e-02 -5.289092194288969040e-03 1.013711933046579361e-02 -5.633634049445390701e-03 -1.806966727599501610e-03 2.517065964639186859e-02 3.960159141570329666e-03 -3.783787414431571960e-02 1.675567589700222015e-02 5.447530001401901245e-02 1.440984290093183517e-02 3.670625761151313782e-02 5.808779038488864899e-03 1.894095540046691895e-02 6.149750202894210815e-02 2.248498052358627319e-02 5.414448212832212448e-03 -1.221560966223478317e-02 -3.475778969004750252e-03 2.780941873788833618e-02 -4.257482662796974182e-02 2.509275451302528381e-02 6.990768946707248688e-03 -1.938642002642154694e-02 1.016257144510746002e-02 1.501580886542797089e-02 1.348633901216089725e-03 -3.123006783425807953e-02 5.892293993383646011e-03 -1.186477392911911011e-02 -1.132496399804949760e-03 -4.783842340111732483e-02 -3.396245464682579041e-02 -5.949431098997592926e-03 -1.085860375314950943e-02 -1.665966399013996124e-02 6.927355658262968063e-03 9.704385302029550076e-04 4.046670161187648773e-03 -6.213273387402296066e-03 -1.660314388573169708e-02 2.623624913394451141e-02 5.549704656004905701e-03 1.087752729654312134e-02 -4.172869026660919189e-03 -1.906986907124519348e-02 4.201129486318677664e-04 -7.847846485674381256e-03 -7.925930432975292206e-03 2.650173380970954895e-02 -3.050311654806137085e-02 -2.716506831347942352e-03 -3.948914259672164917e-02 2.391842938959598541e-02 -6.313542369753122330e-03 -7.634368725121021271e-03 2.795956097543239594e-03 4.290374368429183960e-02 2.945984154939651489e-02 -6.838924251496791840e-03 2.068391256034374237e-02 -2.299124002456665039e-02 -6.317739188671112061e-02 -3.109561838209629059e-02 1.679719984531402588e-02 1.131020579487085342e-02 -1.244229823350906372e-02 1.606823317706584930e-02 5.556706711649894714e-02 1.465782988816499710e-02 -4.299792461097240448e-03 2.052308060228824615e-02 -3.108069486916065216e-02 1.562166493386030197e-02 1.657110266387462616e-02 -2.916043438017368317e-02 -3.922095056623220444e-03 -1.019877661019563675e-02 -4.476133733987808228e-03 1.271829288452863693e-02 3.645204240456223488e-03 7.029330823570489883e-03 2.422657795250415802e-03 1.747633679769933224e-03 1.334025058895349503e-03 -4.275928251445293427e-03 1.020471565425395966e-02 -5.352178122848272324e-03 -6.591327488422393799e-03 -2.175294421613216400e-02 -1.021294668316841125e-02 -1.750128716230392456e-02 -1.410134136676788330e-02 3.489999566227197647e-03 -1.977884210646152496e-02 1.223148871213197708e-02 -8.098027668893337250e-03 2.525852434337139130e-02 -7.781922467984259129e-04 1.447598170489072800e-02 6.389838177710771561e-03 -2.268145792186260223e-02 -6.690327609248925000e-06 5.293823414831422269e-05 -2.506707422435283661e-02 -1.260526478290557861e-02 -1.414003316313028336e-02 -2.881225384771823883e-02 9.451939258724451065e-04 -4.088713973760604858e-02 -8.925175061449408531e-04 -2.766717039048671722e-02 -3.586151450872421265e-02 2.640194259583950043e-03 7.103027310222387314e-03 2.268988825380802155e-02
-9.092903696000576019e-03 -3.970990888774394989e-03 -1.700421236455440521e-02 -2.509513311088085175e-02 2.641480229794979095e-02 6.632574833929538727e-03 -1.016069296747446060e-02 -9.127979166805744171e-03 5.194093100726604462e-03 -4.887359216809272766e-02 2.687605842947959900e-02 8.954497985541820526e-03 2.584913047030568123e-03 2.644579857587814331e-02 -3.366875648498535156e-02 -1.840045116841793060e-02 -4.795665293931961060e-02 2.036671712994575500e-02 1.531027350574731827e-02 -3.887005522847175598e-02 -3.905910532921552658e-03 2.323309332132339478e-02 -2.584336698055267334e-02 2.438986301422119141e-02 -2.281653881072998047e-02 1.124336663633584976e-02 -2.147761918604373932e-02 4.034618660807609558e-02 -1.701142452657222748e-02 1.036755181849002838e-02 -1.100742374546825886e-03 -7.372002117335796356e-03 -5.638297274708747864e-02 2.040796913206577301e-02 -7.867849431931972504e-03 1.279290579259395599e-02 1.141989044845104218e-02 5.330654792487621307e-03 3.221129626035690308e-02 1.975624077022075653e-02 -2.636732533574104309e-02 -3.285863623023033142e-02 2.037168107926845551e-02 2.279966138303279877e-02 -6.555431522428989410e-03 -2.370990253984928131e-02 -1.867004670202732086e-03 -1.085657346993684769e-02 3.437719121575355530e-02 1.773997209966182709e-02 3.156660590320825577e-03 3.784433379769325256e-02 -1.587628759443759918e-02 -3.894778667017817497e-03 3.475023666396737099e-03 -1.207188516855239868e-02 -1.346667949110269547e-02 2.030280791223049164e-02 -4.187281429767608643e-02 -4.696368239820003510e-03 -1.720412075519561768e-02 -8.872577920556068420e-03 -4.437044635415077209e-02 -3.333031758666038513e-02 -4.642802849411964417e-02 -3.146526962518692017e-02 2.616838179528713226e-02 -3.001529956236481667e-03 1.055630296468734741e-02 2.447875589132308960e-02 3.924443572759628296e-02 -3.974860534071922302e-02 2.415193431079387665e-02 2.072842419147491455e-02 3.030692599713802338e-02 1.360120624303817749e-02 -9.286945685744285583e-03 1.246534753590822220e-02 2.888190792873501778e-04 4.810002166777849197e-03 3.905354300513863564e-03 -1.731273345649242401e-02 -3.129288181662559509e-02 1.686031930148601532e-02 1.281951647251844406e-02 -1.640571630559861660e-03 -2.108990773558616638e-02 7.179428212111815810e-05 -5.155365448445081711e-03 -3.502256795763969421e-02 -2.227179333567619324e-02 1.889378949999809265e-02 1.211232971400022507e-02 -3.838969022035598755e-02 -1.452078483998775482e-02 3.185420483350753784e-02 -1.558820437639951706e-02 3.241607546806335449e-02 3.053630143404006958e-02 -1.178826112300157547e-02 -3.361970931291580200e-02 1.266331505030393600e-02 3.969256207346916199e-02 6.281391251832246780e-03 3.600098425522446632e-03 1.927340403199195862e-02 9.267284534871578217e-03 -1.282620709389448166e-02 2.748074010014533997e-03 9.027270600199699402e-03 2.868147008121013641e-02 -3.217278048396110535e-02 2.613107487559318542e-02 9.340617805719375610e-03 -1.202539633959531784e-02 -1.518924953415989876e-03 -2.170428168028593063e-03 -3.195985779166221619e-02 9.499810636043548584e-03 -2.034659124910831451e-02 -2.884735167026519775e-02 -1.006931718438863754e-02 2.872093766927719116e-02 -1.669886335730552673e-02 6.633555516600608826e-03 1.944298483431339264e-02 4.378752782940864563e-04 1.778233051300048828e-02
-1.605626940727233887e-02 1.527472166344523430e-03 9.233437478542327881e-03 1.857238821685314178e-02 1.827445253729820251e-02 1.040650811046361923e-02 9.400480426847934723e-03 -2.078133448958396912e-02 -2.057276666164398193e-02 -1.390031352639198303e-02 8.973587304353713989e-03 -2.006251737475395203e-02 -7.104963529855012894e-03 2.972413087263703346e-03 -5.629518069326877594e-03 -3.278445452451705933e-02 -2.181396819651126862e-02 -2.085992321372032166e-02 -1.575430505909025669e-03 -4.742610733956098557e-03 -1.039919257164001465e-02 8.864932693541049957e-03 -4.646160826086997986e-02 -5.641358438879251480e-03 -1.133475266396999359e-02 -4.448894783854484558e-02 3.987564519047737122e-02 -4.376043216325342655e-04 -3.496101126074790955e-02 -1.726920716464519501e-02 -9.613244794309139252e-03 2.442307211458683014e-02 2.214396372437477112e-03 1.269611809402704239e-02 -7.313693407922983170e-03 2.014340832829475403e-02 1.670612604357302189e-03 -2.240733057260513306e-02 9.471405297517776489e-03 1.281851716339588165e-02 3.511495888233184814e-04 2.765332162380218506e-02 -1.687028259038925171e-02 -3.958601970225572586e-03 -1.103756949305534363e-02 3.263340145349502563e-02 -1.098219188861548901e-03 1.009011454880237579e-02 1.858821138739585876e-02 -3.501243889331817627e-03 -1.392828300595283508e-02 1.945178583264350891e-02 -3.066765330731868744e-02 1.551790069788694382e-02 7.644681725651025772e-03 -8.806572877801954746e-04 5.479947850108146667e-02 -2.551295235753059387e-02 6.844784365966916084e-04 2.503304276615381241e-03 -4.305625706911087036e-02 -1.465724408626556396e-02 2.933491719886660576e-03 1.723949238657951355e-02 -2.851999178528785706e-02 3.821410611271858215e-02 2.532047219574451447e-02 -1.417040452361106873e-02 4.921597987413406372e-02 -9.954124689102172852e-03 1.675565540790557861e-02 1.277291215956211090e-02 1.161901187151670456e-02 -5.857523996382951736e-03 -2.334628254175186157e-03 -1.627941615879535675e-02 4.042536951601505280e-03 2.360716462135314941e-02 -2.145042456686496735e-02 3.817937104031443596e-03 3.551850095391273499e-02 1.799014396965503693e-03 -5.314451642334461212e-03 -2.626704983413219452e-02 3.086489252746105194e-02 -3.894752589985728264e-03 1.879627071321010590e-02 2.029774710536003113e-02 9.968711063265800476e-03 -1.044960878789424896e-02 -2.525097317993640900e-02 -2.225355058908462524e-02 -6.415782961994409561e-03 1.083509298041462898e-03 -2.796735428273677826e-02 3.477067127823829651e-02 -8.736439049243927002e-03 -9.510096162557601929e-03 8.601132780313491821e-03 -2.034880220890045166e-02 -7.531155715696513653e-04 2.060928568243980408e-02 1.872636377811431885e-02 -7.136762142181396484e-04 -2.607994154095649719e-02 2.581355534493923187e-02 -4.090116173028945923e-02 2.586873061954975128e-02 -2.581858448684215546e-02 4.500607494264841080e-03 7.364024408161640167e-03 1.104010851122438908e-03 -1.161354873329401016e-02 4.400661215186119080e-02 6.623252760618925095e-03 5.123296752572059631e-03 -2.142825908958911896e-02 3.329743165522813797e-03 -1.757416687905788422e-02 1.503876410424709320e-02 -6.574734579771757126e-03 -3.722208738327026367e-02 5.336373299360275269e-02 -1.963116414844989777e-02 -1.022953446954488754e-02 -6.408140994608402252e-03 1.576863927766680717e-03 2.208870276808738708e-02
1.486565452069044113e-02 -3.278402611613273621e-02 7.399259135127067566e-03 2.060150168836116791e-02 2.006556466221809387e-02 2.683570608496665955e-02 -8.620543405413627625e-03 -1.911633461713790894e-02 -8.692425675690174103e-03 -1.530331652611494064e-02 3.777257353067398071e-02 6.173327565193176270e-03 -2.454835921525955200e-03 2.187437936663627625e-02 -2.998495846986770630e-02 -1.563970372080802917e-02 -1.393852289766073227e-02 2.568009309470653534e-02 -2.251803874969482422e-02 -1.759081892669200897e-02 8.010779507458209991e-03 -2.117107249796390533e-02 -7.601913064718246460e-03 8.082343265414237976e-03 1.091127097606658936e-02 1.111457310616970062e-02 -1.660976558923721313e-03 -3.906064853072166443e-02 -1.613184111192822456e-03 6.247246637940406799e-03 2.124316245317459106e-02 2.814410254359245300e-02 -5.440520588308572769e-03 -3.662756085395812988e-02 3.888948820531368256e-03 -4.243450704962015152e-03 -3.445346839725971222e-03 -8.040519431233406067e-03 2.777519170194864273e-03 2.318048104643821716e-02 -2.411785535514354706e-02 -5.794174503535032272e-03 -2.502944506704807281e-02 2.794098295271396637e-02 -2.569827623665332794e-02 1.340907718986272812e-02 6.085682194679975510e-03 -1.345841865986585617e-02 -4.679366014897823334e-03 -2.734610624611377716e-02 6.526105105876922607e-03 1.449251733720302582e-02 -2.853077603504061699e-03 -7.163190282881259918e-03 -1.167574059218168259e-02 -4.606037959456443787e-02 3.285576775670051575e-02 -1.817204616963863373e-02 2.200593240559101105e-02 -8.899822714738547802e-04 4.287914838641881943e-03 -5.562002770602703094e-03 1.526471413671970367e-02 -8.006652817130088806e-03 1.880549080669879913e-02 2.214144915342330933e-03 3.383279219269752502e-02 -1.575105078518390656e-02 1.506093610078096390e-02 -1.660271547734737396e-02 -6.762470118701457977e-03 1.896896027028560638e-02 -9.979517199099063873e-03 3.853899240493774414e-02 4.840116016566753387e-03 -9.636957547627389431e-04 4.006452113389968872e-02 6.282765418291091919e-03 -2.346012741327285767e-03 -1.744887791574001312e-02 -6.008181348443031311e-02 -1.977552846074104309e-02 1.012998633086681366e-02 -4.736457485705614090e-03 1.830689236521720886e-02 -5.852738395333290100e-03 3.832519799470901489e-02 -4.350275546312332153e-02 1.845646416768431664e-03 5.545292422175407410e-02 -2.796520479023456573e-02 4.541181027889251709e-02 3.871410386636853218e-03 -1.163291092962026596e-02 -1.573579758405685425e-02 2.626600675284862518e-02 1.823850534856319427e-02 -4.947454109787940979e-02 1.391166448593139648e-02 -3.551676496863365173e-02 -1.045551523566246033e-02 -1.362023316323757172e-02 -3.450523596256971359e-03 2.050525508821010590e-03 7.158183958381414413e-03 -1.490205060690641403e-02 -2.517886459827423096e-02 -1.209559570997953415e-02 -9.853034280240535736e-03 -3.398105129599571228e-02 8.334836922585964203e-03 2.423113398253917694e-02 6.711098831146955490e-03 4.263874888420104980e-02 -2.039791457355022430e-02 -2.786966972053050995e-02 -3.607466351240873337e-03 1.217212807387113571e-02 -1.525748800486326218e-02 2.126566134393215179e-02 -1.900099962949752808e-02 1.708189770579338074e-02 3.273266833275556564e-03 1.428663823753595352e-02 -2.827395871281623840e-02 1.080974470824003220e-03 3.571249172091484070e-02 2.357078716158866882e-02
3.084084205329418182e-02 1.297512371093034744e-02 -2.271405654028058052e-03 2.732082735747098923e-03 -1.816794276237487793e-02 -1.693330518901348114e-02 2.322381176054477692e-02 2.757142670452594757e-02 -2.699535153806209564e-02 -4.401844739913940430e-02 -2.084301039576530457e-02 2.136752568185329437e-02 -9.397150017321109772e-03 -7.378461887128651142e-04 -5.273370072245597839e-02 -2.173787355422973633e-02 1.155010610818862915e-02 5.960731767117977142e-03 6.753243040293455124e-03 -2.707418426871299744e-02 -1.582061126828193665e-02 -4.817938432097434998e-02 -5.982528626918792725e-02 1.228335127234458923e-02 5.073353648185729980e-03 -1.406922121532261372e-03 1.103966031223535538e-02 1.519416458904743195e-02 2.511698938906192780e-02 6.034922786056995392e-03 -1.057610567659139633e-02 1.168015692383050919e-02 -9.112219326198101044e-03 -2.612425200641155243e-02 -3.021609224379062653e-02 2.679775236174464226e-03 -2.948563732206821442e-02 -3.968610614538192749e-02 4.320674762129783630e-02 -1.408579666167497635e-02 7.531827315688133240e-03 -7.796680554747581482e-03 -3.397766500711441040e-02 1.725542359054088593e-02 1.694529131054878235e-02 5.439424142241477966e-02 -1.034798659384250641e-02 3.751389309763908386e-02 -1.883217692375183105e-02 -2.803025534376502037e-03 -8.332515135407447815e-03 4.034922644495964050e-02 -2.964556030929088593e-02 -1.098664198070764542e-02 7.035893388092517853e-03 -3.667906392365694046e-03 -3.573879227042198181e-02 -1.132720056921243668e-02 2.236083149909973145e-02 1.545119914226233959e-03 5.006156116724014282e-02 2.081805653870105743e-02 -1.657443307340145111e-02 1.310818362981081009e-02 -2.395702153444290161e-02 -2.053164690732955933e-02 3.263447433710098267e-02 -1.284228172153234482e-02 3.981072083115577698e-02 -1.022788602858781815e-02 1.406449358910322189e-02 9.080871939659118652e-03 -1.627995260059833527e-02 4.935515578836202621e-03 8.065313100814819336e-03 9.573076851665973663e-03 4.121087864041328430e-02 1.320921350270509720e-02 2.147989161312580109e-02 -3.018306382000446320e-02 -1.689908653497695923e-02 -1.868958771228790283e-02 2.378708869218826294e-02 -2.634957991540431976e-02 2.303306013345718384e-02 2.767133340239524841e-02 -1.592194102704524994e-02 4.179432615637779236e-02 -1.905516162514686584e-02 8.250512182712554932e-03 -3.559145703911781311e-02 1.816747523844242096e-02 -2.945719053968787193e-03 2.011247165501117706e-02 1.626588776707649231e-02 -2.077212557196617126e-02 3.866763785481452942e-02 -3.950438275933265686e-02 -4.731382243335247040e-03 -1.103461533784866333e-02 2.779850363731384277e-02 4.264231771230697632e-03 -4.473135340958833694e-04 8.057095110416412354e-03 -3.642007708549499512e-02 -1.155760325491428375e-02 2.789404988288879395e-02 -4.276287276297807693e-03 3.065006062388420105e-02 -3.157652914524078369e-02 -3.006863407790660858e-02 4.747327417135238647e-02 4.803382977843284607e-02 -8.332858793437480927e-03 -1.886431314051151276e-02 2.819943800568580627e-02 1.026499271392822266e-02 -1.667466200888156891e-02 1.627447642385959625e-02 -1.200179290026426315e-02 2.541017532348632812e-02 8.668762631714344025e-03 -9.323094855062663555e-04 -1.735915429890155792e-02 1.803527958691120148e-02 4.447067622095346451e-04 1.489307545125484467e-02 4.049171879887580872e-02
