-7.913494855165481567e-02 -1.196682685986161232e-03 -3.335480019450187683e-02 2.669421769678592682e-02 1.081276610493659973e-01 -4.044059664011001587e-02 3.124847542494535446e-03 2.964082732796669006e-02 -1.360155548900365829e-02 5.063160508871078491e-02 4.640494659543037415e-02 -2.499562315642833710e-02 1.182449236512184143e-02 -1.037415859173052013e-04 -1.864001154899597168e-02 3.770894836634397507e-03 -7.395084947347640991e-02 1.216995529830455780e-03 -2.064601890742778778e-02 6.023436784744262695e-02 5.253099650144577026e-02 -1.887097023427486420e-02 6.479787174612283707e-03 -3.703852370381355286e-02 7.615476101636886597e-02 -1.366376783698797226e-02 -5.273088440299034119e-02 4.369517415761947632e-02 2.119242213666439056e-02 5.937060341238975525e-03 -3.670782223343849182e-02 -1.548686064779758453e-02 -2.125016599893569946e-02 5.037789046764373779e-02 -7.007445674389600754e-03 -2.159236557781696320e-02 -5.389817059040069580e-02 2.318941801786422729e-02 8.963340520858764648e-02 -2.937846817076206207e-02 1.271323859691619873e-01 -7.156932353973388672e-02 5.192497745156288147e-02 2.301786839962005615e-02 -8.733644336462020874e-02 -5.058448389172554016e-02 1.507469266653060913e-02 3.165643662214279175e-02 -6.503678858280181885e-02 3.623001649975776672e-02 -7.584323175251483917e-03 1.961917802691459656e-02 3.183261677622795105e-02 3.075687214732170105e-02 2.481575356796383858e-03 2.262946963310241699e-02 -5.336889624595642090e-02 4.628030583262443542e-02 4.590522125363349915e-02 -1.202279552817344666e-01 2.490291185677051544e-02 2.017515338957309723e-02 3.967951238155364990e-02 -9.508773684501647949e-02 6.564168259501457214e-03 -7.258690148591995239e-02 1.342517975717782974e-02 -1.578729785978794098e-02 -5.771443620324134827e-02 -4.765734449028968811e-02 -3.624162450432777405e-02 -1.296047028154134750e-02 -3.442576155066490173e-02 2.962989173829555511e-02 8.170921355485916138e-02 -6.407654285430908203e-02 1.029240060597658157e-02 1.142944395542144775e-01 -9.751920402050018311e-02 -2.659515291452407837e-02 -3.532153740525245667e-02 -4.691991209983825684e-02 7.902207225561141968e-02 -2.549395337700843811e-02 3.922845050692558289e-02 3.463843464851379395e-02 2.953438088297843933e-02 -5.774949386250227690e-05 -4.468315467238426208e-02 -3.899524360895156860e-02 5.054947361350059509e-02 8.886360563337802887e-03 1.644680276513099670e-02 8.660582453012466431e-02 3.816582262516021729e-02 8.694573305547237396e-03 6.904575508087873459e-03 -1.142875477671623230e-02 3.557272488251328468e-03 4.486370831727981567e-02 -6.572466343641281128e-03 -7.510616909712553024e-03 -3.092083893716335297e-02 6.496620178222656250e-02 1.725065987557172775e-03 -9.408931247889995575e-03 -4.760833084583282471e-02 -4.900657758116722107e-02 -2.534643979743123055e-03 -5.691527575254440308e-02 8.743575960397720337e-02 -4.035019082948565483e-04 4.466106742620468140e-02 -4.314307495951652527e-02 2.126385457813739777e-02 -1.039791200309991837e-02 8.454490453004837036e-03 3.359142318367958069e-02 -4.401178658008575439e-02 -4.546207934617996216e-02 -9.796041995286941528e-04 -2.211448177695274353e-02 7.411649078130722046e-02 6.544628739356994629e-02 8.449997752904891968e-02 -2.955279871821403503e-02 -4.610014706850051880e-02 3.677808493375778198e-02
-2.238704822957515717e-03 3.120555775240063667e-03 3.729270026087760925e-02 -7.644370943307876587e-02 -7.435667514801025391e-02 -5.728754680603742599e-03 1.992451958358287811e-02 -2.023316733539104462e-02 9.288053214550018311e-02 1.728983037173748016e-02 -3.874954581260681152e-02 1.376066263765096664e-02 -4.228775855153799057e-03 -4.722037538886070251e-02 1.156144402921199799e-02 2.475672960281372070e-02 2.220379747450351715e-02 1.049841754138469696e-02 9.576327167451381683e-03 1.935252547264099121e-02 -1.782600767910480499e-02 3.510870039463043213e-02 5.594970285892486572e-02 -4.511476308107376099e-02 -3.741270303726196289e-02 -8.283731527626514435e-03 1.139485463500022888e-02 -2.872674260288476944e-03 -4.455679282546043396e-02 -3.005449287593364716e-02 1.692551188170909882e-02 -1.202357094734907150e-02 -1.521021593362092972e-02 -2.269794791936874390e-02 -4.089671000838279724e-02 6.039973348379135132e-02 5.936158820986747742e-02 2.357375808060169220e-02 -8.434437913820147514e-04 5.328157544136047363e-02 -3.028441593050956726e-02 -7.278185337781906128e-02 -2.073409780859947205e-02 1.244241558015346527e-02 3.560994984582066536e-03 -1.191040873527526855e-02 -1.535535138100385666e-02 1.274720206856727600e-02 -3.244173014536499977e-03 -1.687011867761611938e-02 4.982869699597358704e-02 -2.617386914789676666e-02 -7.784599810838699341e-02 3.717773407697677612e-02 -1.482748240232467651e-02 4.619522765278816223e-02 -2.515932731330394745e-02 5.899651348590850830e-02 -2.114647626876831055e-02 2.607831032946705818e-03 9.407605975866317749e-03 -2.186742983758449554e-02 -4.085820913314819336e-02 -1.612510718405246735e-02 5.390402674674987793e-02 -7.150757312774658203e-02 -1.151446159929037094e-02 2.214338630437850952e-02 -6.642089039087295532e-02 -3.420171141624450684e-02 -1.218640711158514023e-02 -6.214309949427843094e-03 -2.239451929926872253e-02 2.655429393053054810e-02 5.546924099326133728e-02 4.266199097037315369e-02 4.461655393242835999e-02 -2.432343550026416779e-02 3.545599756762385368e-03 -3.111474588513374329e-02 -9.749313816428184509e-03 -2.977376617491245270e-02 -6.581844389438629150e-02 -1.595413871109485626e-02 7.305087149143218994e-02 3.682537376880645752e-02 1.074116770178079605e-02 4.579165834002196789e-04 -8.305147290229797363e-02 6.177845224738121033e-02 7.456589490175247192e-03 -2.408319339156150818e-02 -1.688534393906593323e-03 -1.793233864009380341e-02 -1.482870243489742279e-02 -2.146366424858570099e-02 -6.146681681275367737e-02 7.110164314508438110e-02 -3.194079920649528503e-02 3.332669287919998169e-02 7.008521258831024170e-02 -1.640122756361961365e-02 2.463740110397338867e-02 -7.766768801957368851e-03 9.009907394647598267e-02 4.806970804929733276e-02 1.112285070121288300e-02 -5.094097461551427841e-03 4.789998009800910950e-02 -2.526962570846080780e-02 4.953752085566520691e-02 2.331759221851825714e-02 5.583734810352325439e-02 -7.749631535261869431e-03 6.889451295137405396e-03 -1.748455874621868134e-02 8.377102762460708618e-02 4.089303687214851379e-02 -3.732831776142120361e-02 2.150976285338401794e-02 3.468815982341766357e-02 -3.278394043445587158e-02 -4.884383454918861389e-02 9.018187411129474640e-03 4.775442928075790405e-02 3.951395675539970398e-02 -1.692611165344715118e-02 -1.083607878535985947e-02
-2.337886206805706024e-02 -1.444839779287576675e-02 -1.248036883771419525e-02 -3.227740153670310974e-02 -6.351795047521591187e-03 9.697278961539268494e-03 6.619368679821491241e-03 1.333499094471335411e-03 -4.678789153695106506e-02 5.145558156073093414e-03 2.009292319416999817e-02 -2.495690621435642242e-02 -3.010823950171470642e-02 9.396310895681381226e-02 1.170901581645011902e-02 -3.014350123703479767e-02 3.895197063684463501e-02 -8.741088211536407471e-03 -3.028805926442146301e-02 -4.641594737768173218e-02 1.709612086415290833e-02 3.474420169368386269e-03 -2.623650990426540375e-02 4.178482573479413986e-03 -2.158959209918975830e-02 2.983840741217136383e-02 2.317577786743640900e-02 -5.158190801739692688e-02 -4.212017729878425598e-02 -2.297633886337280273e-02 -1.126312185078859329e-02 3.178752586245536804e-02 -1.564126648008823395e-02 4.896286875009536743e-03 4.108125343918800354e-02 4.032795131206512451e-02 2.164605073630809784e-02 2.801486290991306305e-02 -9.471718966960906982e-02 -2.376100793480873108e-02 4.847007244825363159e-02 -2.327271550893783569e-02 2.221174165606498718e-02 6.812829989939928055e-03 -1.089565455913543701e-02 2.612958103418350220e-02 -3.215575590729713440e-02 -5.136236175894737244e-02 4.738394916057586670e-02 -8.873130194842815399e-03 -4.035506770014762878e-02 -5.301776155829429626e-02 3.164598718285560608e-02 1.559162233024835587e-02 -5.322496220469474792e-02 -1.399484556168317795e-02 2.574417367577552795e-02 -8.061619102954864502e-02 -3.703307360410690308e-02 -8.518079295754432678e-03 -4.154377058148384094e-02 2.537626214325428009e-02 4.010777547955513000e-02 4.438810423016548157e-02 -5.789907183498144150e-03 1.268186327069997787e-02 -4.343157261610031128e-02 2.228306978940963745e-02 3.022539801895618439e-02 3.023686073720455170e-02 -7.312829140573740005e-03 9.494665265083312988e-02 6.801383197307586670e-02 1.210381463170051575e-02 -4.661396145820617676e-03 -2.801423193886876106e-03 -3.266907483339309692e-02 7.746984809637069702e-02 1.201526075601577759e-02 -3.143406705930829048e-03 -2.482586354017257690e-02 2.775970473885536194e-02 1.536015514284372330e-02 -8.572066575288772583e-02 -1.154096703976392746e-02 -5.049538332968950272e-03 6.170624494552612305e-02 5.700999498367309570e-02 1.651952974498271942e-02 -2.048436738550662994e-02 1.555493753403425217e-02 -3.963094577193260193e-02 -2.906655892729759216e-02 -7.553628180176019669e-03 -2.448727749288082123e-02 5.439377948641777039e-02 -3.469180688261985779e-02 1.202120911329984665e-02 -2.145508863031864166e-02 -1.692531630396842957e-02 1.577971735969185829e-03 -4.072450101375579834e-02 -2.318028546869754791e-02 1.909813657402992249e-02 -2.906103804707527161e-02 -1.893550739623606205e-03 2.482737787067890167e-02 6.526810675859451294e-02 -8.989190682768821716e-03 -1.401694118976593018e-02 2.416304871439933777e-02 2.719591604545712471e-03 -8.419801294803619385e-02 7.222069054841995239e-02 2.837811131030321121e-03 2.849661000072956085e-02 -4.929693415760993958e-03 8.096916228532791138e-02 3.047544322907924652e-02 9.826582670211791992e-02 -7.465384434908628464e-03 -1.185712963342666626e-02 1.500342879444360733e-02 -2.035210374742746353e-03 1.866279728710651398e-02 2.961442805826663971e-02 1.704281754791736603e-02 -3.134124726057052612e-02
1.088716927915811539e-02 3.593717887997627258e-02 4.153820127248764038e-02 4.665635526180267334e-03 -9.759658016264438629e-03 -1.158617530018091202e-02 5.363464355468750000e-02 3.037924505770206451e-02 -3.567232564091682434e-02 -1.594320870935916901e-02 5.011390894651412964e-02 -5.040683224797248840e-02 -3.174386918544769287e-02 -1.222479529678821564e-02 -3.564519062638282776e-02 -6.649986654520034790e-02 3.644737228751182556e-02 9.122619032859802246e-02 7.263609021902084351e-02 9.695149026811122894e-03 -1.566314883530139923e-02 -1.499717123806476593e-02 7.832586765289306641e-03 -2.703511342406272888e-02 -7.799515500664710999e-03 -3.665153682231903076e-02 -3.843396157026290894e-02 2.888781949877738953e-02 3.789107874035835266e-02 -5.251620337367057800e-02 -2.691366523504257202e-02 -2.877807989716529846e-02 3.310085833072662354e-02 2.557710744440555573e-02 1.459129527211189270e-02 -3.106776811182498932e-02 3.343302011489868164e-02 1.659982721321284771e-03 -4.482440650463104248e-02 -2.032112702727317810e-02 -2.937541343271732330e-03 1.236784923821687698e-02 -1.459096092730760574e-02 -1.622817595489323139e-03 1.721471315249800682e-03 -3.223631531000137329e-02 3.781916573643684387e-02 2.250988036394119263e-02 8.744294755160808563e-03 -2.044501714408397675e-03 -7.194953411817550659e-02 3.749025240540504456e-02 -3.655940294265747070e-02 -3.047095797955989838e-02 2.530867233872413635e-02 1.899284683167934418e-02 2.163789421319961548e-02 -3.727207332849502563e-02 1.121871080249547958e-02 4.189281538128852844e-02 2.214431762695312500e-02 2.221850864589214325e-02 1.700797863304615021e-02 -2.231563813984394073e-02 -2.338644675910472870e-02 -2.065822295844554901e-02 1.678251847624778748e-02 4.015107825398445129e-02 8.234962075948715210e-02 -7.609095424413681030e-03 -7.329554110765457153e-02 -5.450807884335517883e-02 1.041221618652343750e-01 -5.068001151084899902e-02 6.535164429806172848e-04 -1.175826042890548706e-02 -2.958702482283115387e-02 -2.826097235083580017e-02 3.788716346025466919e-02 1.160711236298084259e-02 5.339880660176277161e-02 4.329007118940353394e-02 5.376308411359786987e-02 -1.601626910269260406e-02 9.698553942143917084e-03 -2.695960551500320435e-02 2.971762791275978088e-02 2.338278107345104218e-02 3.940407652407884598e-03 -4.326869174838066101e-02 1.015892904251813889e-02 -3.162071225233376026e-04 -2.980133518576622009e-02 -9.149355813860893250e-03 -2.342521212995052338e-02 -4.157136380672454834e-02 5.751243978738784790e-02 2.713927254080772400e-02 -2.858202159404754639e-02 -1.369255036115646362e-02 6.104169413447380066e-02 -1.786061190068721771e-02 -2.903079614043235779e-02 1.864364184439182281e-02 -7.874191552400588989e-02 3.713789209723472595e-02 1.372594106942415237e-02 1.019328134134411812e-03 -3.080623969435691833e-02 -6.187698245048522949e-02 1.022505480796098709e-02 2.112939395010471344e-02 -1.838570926338434219e-03 -4.718796908855438232e-02 4.926031455397605896e-02 5.029720440506935120e-02 -7.928804494440555573e-03 8.391610346734523773e-03 3.120613284409046173e-02 -5.953360348939895630e-03 -3.341048723086714745e-03 1.185904256999492645e-02 7.405756507068872452e-03 -3.976036608219146729e-02 9.614614769816398621e-03 8.278293535113334656e-05 3.691038489341735840e-02 4.539914429187774658e-03
3.624179959297180176e-02 3.639890998601913452e-02 3.273956105113029480e-02 9.934748522937297821e-03 -1.675345702096819878e-03 5.033599585294723511e-02 6.187400594353675842e-02 -3.539530187845230103e-02 4.614487290382385254e-03 -3.472847491502761841e-02 5.119177699089050293e-02 -1.040019653737545013e-02 4.985887184739112854e-02 -1.523088314570486546e-03 1.184891071170568466e-02 3.616281971335411072e-02 -3.437773883342742920e-02 5.641955509781837463e-02 5.127384513616561890e-02 3.559996932744979858e-02 2.174465171992778778e-02 -3.517220169305801392e-02 -2.395537495613098145e-02 -6.050612777471542358e-02 6.772016733884811401e-02 -1.082212198525667191e-02 -1.618946157395839691e-02 2.781371027231216431e-02 3.528541326522827148e-02 5.968470592051744461e-03 9.814024902880191803e-03 5.729632452130317688e-02 -1.814384013414382935e-03 -2.110249735414981842e-02 4.190050810575485229e-02 2.641135640442371368e-02 -2.732726000249385834e-02 5.908165592700242996e-03 3.678951878100633621e-03 -3.397427126765251160e-02 -4.342133644968271255e-03 5.112688615918159485e-02 4.214689135551452637e-02 -7.730277720838785172e-03 3.504559397697448730e-02 -2.511434815824031830e-02 -4.119795933365821838e-02 -5.309985950589179993e-03 5.361455306410789490e-02 -1.173229366540908813e-01 -3.452015668153762817e-02 -4.205845668911933899e-02 2.896956913173198700e-02 -5.474928021430969238e-02 -2.942777052521705627e-02 4.472970962524414062e-03 -2.238862216472625732e-02 -1.022551394999027252e-02 -1.651686057448387146e-02 1.361830160021781921e-02 -5.068227183073759079e-03 -7.029067259281873703e-03 -2.564620412886142731e-02 8.326893672347068787e-03 -3.588021267205476761e-03 -2.986335381865501404e-02 4.292972385883331299e-02 3.975258767604827881e-02 3.465455770492553711e-02 1.280670240521430969e-02 5.265851691365242004e-02 -3.774158284068107605e-02 2.403829246759414673e-02 -1.899308338761329651e-02 -2.642171271145343781e-02 -2.556311152875423431e-02 -4.212980717420578003e-02 2.690289914608001709e-02 2.038782089948654175e-02 -5.937625467777252197e-02 5.161028355360031128e-02 5.034264549612998962e-02 1.062813587486743927e-02 -1.402455009520053864e-02 -4.327697679400444031e-03 1.340213231742382050e-02 -4.906719550490379333e-02 2.066465653479099274e-02 5.286868661642074585e-03 1.104048546403646469e-02 -1.607175357639789581e-02 1.642446964979171753e-02 -3.168160468339920044e-02 -6.767435697838664055e-04 -2.445591241121292114e-02 2.915477380156517029e-02 2.108708955347537994e-02 -1.601340807974338531e-02 -4.637259407900273800e-04 1.314569450914859772e-02 -2.648068964481353760e-02 -4.107855632901191711e-02 8.897097781300544739e-03 3.237048164010047913e-02 -7.102286815643310547e-02 -6.238001398742198944e-03 -2.731388667598366737e-03 2.968628704547882080e-02 -2.558000758290290833e-02 1.677070395089685917e-03 -3.639405593276023865e-02 -2.808615379035472870e-02 -2.274716086685657501e-02 -5.882354918867349625e-03 -3.575263544917106628e-02 5.017467960715293884e-02 -2.560026198625564575e-02 2.769678831100463867e-02 -4.846019297838211060e-02 -6.405831128358840942e-02 9.738633525557816029e-04 2.339839003980159760e-02 7.405687589198350906e-03 -4.164061695337295532e-02 3.318560123443603516e-02 -1.314452569931745529e-02 3.458526730537414551e-02 -1.355477329343557358e-02
1.789083518087863922e-02 -3.760863468050956726e-02 1.581733115017414093e-02 -1.427495013922452927e-02 1.095510832965373993e-02 5.886908993124961853e-02 1.033453177660703659e-02 -3.410626575350761414e-02 -1.273769419640302658e-02 2.264183387160301208e-02 1.641487237066030502e-03 1.394433993846178055e-02 8.334129303693771362e-02 7.833420485258102417e-02 -2.443059720098972321e-02 -3.959677368402481079e-02 -3.435789421200752258e-02 -2.298967726528644562e-02 2.796103619039058685e-02 1.077243313193321228e-02 -4.566137492656707764e-02 2.141283079981803894e-02 -1.017552800476551056e-02 2.410086058080196381e-02 5.075835064053535461e-02 -7.324593141674995422e-03 4.161173477768898010e-02 2.418090589344501495e-02 9.466136246919631958e-02 -8.552484214305877686e-03 -6.965607404708862305e-02 3.970018029212951660e-02 -7.009069668129086494e-04 8.876080811023712158e-02 1.924127899110317230e-02 3.150754049420356750e-02 -3.756124526262283325e-02 -6.397568434476852417e-02 -3.734119981527328491e-02 -2.357176877558231354e-02 4.664256051182746887e-02 8.489347994327545166e-02 -3.699741140007972717e-02 8.757555857300758362e-03 3.484951704740524292e-02 -2.861518971621990204e-02 3.643570234999060631e-03 -2.320403605699539185e-02 -2.901020459830760956e-03 -4.092422500252723694e-02 -1.496036630123853683e-02 -5.487958900630474091e-03 1.855648308992385864e-02 -1.798838935792446136e-02 5.641948431730270386e-02 -4.779240861535072327e-02 1.039479393512010574e-02 -3.613415872678160667e-03 -2.456632070243358612e-02 2.198489941656589508e-02 -1.919346675276756287e-02 -3.740405291318893433e-02 1.709348149597644806e-02 5.260085687041282654e-02 3.706615045666694641e-02 2.941331267356872559e-02 1.694423705339431763e-02 -1.708735898137092590e-02 -8.533061482012271881e-03 4.385012667626142502e-03 2.436491101980209351e-02 -5.134743079543113708e-02 -1.656418107450008392e-02 -5.592558905482292175e-02 -2.405511960387229919e-02 -2.455899864435195923e-02 1.543854450574144721e-04 -4.511468578130006790e-03 3.365200012922286987e-02 -1.067498512566089630e-02 6.913035176694393158e-03 -4.606641829013824463e-02 9.433889761567115784e-03 3.249417245388031006e-02 -2.674363553524017334e-02 5.448146723210811615e-03 -2.836673893034458160e-02 3.639665246009826660e-02 5.694226548075675964e-02 -1.103320159018039703e-02 4.582332447171211243e-02 -1.233657915145158768e-02 4.546332731842994690e-02 3.246750310063362122e-02 -8.638362586498260498e-02 -1.877566054463386536e-02 -2.552054938860237598e-04 -6.027668714523315430e-02 6.380652636289596558e-02 2.092422731220722198e-02 8.952081552706658840e-04 -1.604830846190452576e-02 -3.601222112774848938e-02 -2.720885723829269409e-02 3.548151580616831779e-03 1.288444828242063522e-02 -2.412038110196590424e-02 -6.443331390619277954e-02 8.440482430160045624e-03 5.341259390115737915e-02 -4.532444477081298828e-02 5.093534942716360092e-03 -3.113058209419250488e-02 -1.516791246831417084e-02 -3.184275329113006592e-02 2.237770240753889084e-03 7.136723492294549942e-03 -6.416798382997512817e-02 4.186708852648735046e-02 1.768782921135425568e-02 -6.273878272622823715e-03 5.519631505012512207e-02 -3.681705147027969360e-02 4.164419323205947876e-02 -4.509793221950531006e-02 -6.664176471531391144e-03 -2.856571460142731667e-03 2.705776691436767578e-02
6.754791736602783203e-02 4.901229217648506165e-02 -2.951454371213912964e-02 7.804460078477859497e-02 -2.032547444105148315e-02 1.951270550489425659e-02 -2.643496356904506683e-02 1.561081130057573318e-02 -5.470364168286323547e-02 -1.800723001360893250e-02 -1.791107095777988434e-02 1.467543374747037888e-02 3.519399091601371765e-03 -3.238725475966930389e-03 3.181912237778306007e-03 6.071894615888595581e-02 -3.819999285042285919e-03 1.696955598890781403e-02 -1.602021045982837677e-02 -8.476137369871139526e-02 -2.810775488615036011e-02 -7.020915299654006958e-02 -2.358046732842922211e-02 7.665491104125976562e-02 -2.646598406136035919e-02 -5.105286836624145508e-03 2.288978919386863708e-02 -2.296130731701850891e-02 -3.681364655494689941e-02 -3.274389356374740601e-02 5.285671353340148926e-02 -4.384431988000869751e-02 -3.623977676033973694e-02 -2.986998856067657471e-02 8.452815562486648560e-02 -3.586796671152114868e-02 -5.184875801205635071e-03 2.649932168424129486e-02 9.136823937296867371e-03 6.089786067605018616e-02 -3.698868677020072937e-02 2.946202270686626434e-02 -3.661301359534263611e-02 -1.616716012358665466e-02 -8.753000875003635883e-04 3.714398294687271118e-02 5.213739816099405289e-03 -1.916349492967128754e-02 -3.391231223940849304e-02 7.086858153343200684e-03 2.388849481940269470e-02 2.512792870402336121e-02 3.704609721899032593e-02 6.045333668589591980e-02 1.213417761027812958e-02 -7.744848844595253468e-04 5.565412342548370361e-02 -3.604918718338012695e-02 -4.709450528025627136e-03 -4.305477812886238098e-02 -2.336482144892215729e-02 -1.044715382158756256e-02 -2.483427897095680237e-02 6.585526466369628906e-02 5.100956652313470840e-03 6.758531183004379272e-02 -4.175509512424468994e-02 -9.474865347146987915e-02 -1.257230434566736221e-02 2.815222553908824921e-02 6.571496278047561646e-02 -1.109937950968742371e-02 -4.023150354623794556e-02 2.069397270679473877e-02 -8.365021646022796631e-02 3.220504522323608398e-02 4.921948909759521484e-02 -3.096163831651210785e-02 4.225042648613452911e-04 5.059590190649032593e-02 -1.924998313188552856e-02 4.579801112413406372e-02 -3.456182777881622314e-02 -2.232748782262206078e-03 -3.248290717601776123e-02 5.774355027824640274e-03 -3.267928585410118103e-02 -7.508827745914459229e-02 -2.359629981219768524e-02 4.448771476745605469e-02 -9.955601394176483154e-02 2.454086439684033394e-03 -1.603695936501026154e-02 -5.470483005046844482e-02 2.940373867750167847e-02 -3.240391612052917480e-02 3.290843591094017029e-02 -4.446849226951599121e-02 -4.170462116599082947e-02 -8.655408769845962524e-02 1.275963336229324341e-02 -1.680600456893444061e-02 4.814409464597702026e-02 -4.276398569345474243e-02 -2.320727892220020294e-02 -5.397086590528488159e-02 7.577785104513168335e-02 8.068925887346267700e-02 -1.964140124619007111e-02 3.245870769023895264e-02 -4.399937391281127930e-02 -1.586225256323814392e-02 6.025584414601325989e-02 -7.555563002824783325e-03 -4.908363521099090576e-02 -3.212683647871017456e-02 -3.260247781872749329e-02 -5.965454969555139542e-03 4.929377883672714233e-02 -5.128674674779176712e-03 -5.477008875459432602e-03 9.888287633657455444e-03 8.314776234328746796e-03 -5.918570980429649353e-02 -2.713362127542495728e-02 5.589066445827484131e-02 -2.552553825080394745e-02 3.901451826095581055e-02
-4.768233746290206909e-02 3.149433806538581848e-02 6.166287884116172791e-02 -1.977141387760639191e-02 5.750802159309387207e-02 -4.440777935087680817e-03 -4.938501119613647461e-02 -4.459149017930030823e-02 1.322707626968622208e-03 2.287941798567771912e-02 7.637561112642288208e-02 -4.242412745952606201e-02 -1.123899314552545547e-02 1.598045602440834045e-02 -1.659304834902286530e-02 -1.580964401364326477e-02 5.824421346187591553e-02 -4.603018984198570251e-03 3.709310665726661682e-02 -4.790047649294137955e-03 3.387880325317382812e-02 2.070713974535465240e-02 -1.205220818519592285e-02 1.155085116624832153e-02 3.374306717887520790e-03 -2.799152769148349762e-02 -6.288405507802963257e-03 2.478993963450193405e-03 -3.001583181321620941e-02 -9.615684859454631805e-03 1.610470376908779144e-02 -1.960337627679109573e-03 2.150831744074821472e-03 -3.586722165346145630e-02 -4.780555516481399536e-02 -1.651273109018802643e-02 -3.843625262379646301e-02 -6.622633337974548340e-02 -5.997591651976108551e-03 -8.280675858259201050e-02 -4.562072455883026123e-02 1.318008580710738897e-04 3.345794230699539185e-02 -2.495506778359413147e-02 2.519202604889869690e-02 -5.726829543709754944e-02 2.689527347683906555e-03 -2.628600411117076874e-02 2.231635525822639465e-02 1.559513248503208160e-02 -4.362647980451583862e-02 7.028155960142612457e-03 -1.954770646989345551e-02 -1.938544027507305145e-02 -4.207942634820938110e-03 -3.045457787811756134e-02 1.057353243231773376e-02 -5.888439249247312546e-03 -7.616921793669462204e-03 7.087915390729904175e-02 1.186175178736448288e-02 -8.902995288372039795e-02 3.362151607871055603e-02 -5.385841242969036102e-03 -3.342124447226524353e-02 4.639150947332382202e-02 2.035961486399173737e-02 4.377283155918121338e-02 6.202433630824089050e-02 1.635405607521533966e-02 2.593899331986904144e-02 3.678349032998085022e-02 5.687261372804641724e-02 5.062088370323181152e-02 6.333868205547332764e-02 9.360473603010177612e-03 -1.810925640165805817e-02 -9.113367646932601929e-02 -8.028363808989524841e-03 6.034973636269569397e-02 5.080190952867269516e-03 3.301052004098892212e-02 7.729578018188476562e-02 8.191015571355819702e-03 -5.058072879910469055e-02 -3.107113018631935120e-02 -5.726589821279048920e-03 -2.747619152069091797e-02 3.799812123179435730e-02 -4.249304905533790588e-02 -8.321630768477916718e-03 5.226939171552658081e-02 2.701239660382270813e-02 -4.936565458774566650e-02 -4.491193685680627823e-03 1.116509828716516495e-02 -3.732800949364900589e-03 8.003068715333938599e-02 5.769678577780723572e-02 1.281745266169309616e-02 -2.672966383397579193e-02 -5.894999578595161438e-02 -1.448549423366785049e-02 2.891321852803230286e-02 -3.725152462720870972e-02 -6.651946157217025757e-02 -9.443183243274688721e-02 -2.331031113862991333e-02 1.443661935627460480e-02 7.196039706468582153e-02 -5.563387647271156311e-03 -1.172091439366340637e-02 -1.653330959379673004e-02 -1.559645961970090866e-02 9.621885605156421661e-03 -6.270065158605575562e-02 -5.455549433827400208e-02 -3.114439547061920166e-02 -2.775663509964942932e-02 -2.278430014848709106e-02 2.017058990895748138e-02 -5.061305128037929535e-03 7.565435767173767090e-02 -3.188974037766456604e-02 -1.465661637485027313e-02 2.668755687773227692e-02 1.124904006719589233e-01 1.970396004617214203e-02
