-8.287282288074493408e-02 -1.751499366946518421e-03 -3.942267969250679016e-02 2.919734641909599304e-02 1.193315610289573669e-01 -4.418384656310081482e-02 2.385733183473348618e-03 3.069428913295269012e-02 -1.455900073051452637e-02 5.430416390299797058e-02 4.504621401429176331e-02 -2.767368033528327942e-02 1.106596831232309341e-02 3.584595979191362858e-04 -1.848951354622840881e-02 4.643718246370553970e-03 -7.715899497270584106e-02 -3.767694812268018723e-03 -2.557422220706939697e-02 6.864988803863525391e-02 5.743576958775520325e-02 -1.956719532608985901e-02 9.711258113384246826e-03 -3.715789318084716797e-02 8.269214630126953125e-02 -1.089656446129083633e-02 -5.678594857454299927e-02 4.958545416593551636e-02 2.145532704889774323e-02 8.521413430571556091e-03 -3.796515613794326782e-02 -1.401889137923717499e-02 -2.549514174461364746e-02 5.604946613311767578e-02 -8.801169693470001221e-03 -2.044155262410640717e-02 -5.743003636598587036e-02 2.762881480157375336e-02 9.926683455705642700e-02 -3.010792471468448639e-02 1.398916840553283691e-01 -7.660365849733352661e-02 5.900977551937103271e-02 2.573266252875328064e-02 -9.132730960845947266e-02 -5.423914268612861633e-02 1.097478438168764114e-02 3.849649801850318909e-02 -7.235206663608551025e-02 3.923937305808067322e-02 -8.854375220835208893e-03 1.685307733714580536e-02 3.152851760387420654e-02 3.570772707462310791e-02 -1.292243367061018944e-03 2.414459548890590668e-02 -6.343761831521987915e-02 4.769659042358398438e-02 4.963351041078567505e-02 -1.266648620367050171e-01 2.328313887119293213e-02 2.224598079919815063e-02 4.271259158849716187e-02 -1.088632568717002869e-01 7.676661945879459381e-03 -7.887437194585800171e-02 1.209974847733974457e-02 -1.770687289535999298e-02 -6.631747633218765259e-02 -5.262079089879989624e-02 -3.954559192061424255e-02 -1.574588939547538757e-02 -4.334754869341850281e-02 2.897285111248493195e-02 9.123869240283966064e-02 -6.776133179664611816e-02 1.424427051097154617e-02 1.260184794664382935e-01 -1.074917316436767578e-01 -2.656352706253528595e-02 -4.576563090085983276e-02 -4.795824363827705383e-02 8.638065308332443237e-02 -3.322812914848327637e-02 4.003439843654632568e-02 4.144030809402465820e-02 3.455250337719917297e-02 -1.335206557996571064e-03 -4.887711256742477417e-02 -3.929862007498741150e-02 5.772648379206657410e-02 8.287433534860610962e-03 1.829086989164352417e-02 9.479141235351562500e-02 4.382513836026191711e-02 1.096965279430150986e-02 7.096377667039632797e-03 -1.500057894736528397e-02 2.900726161897182465e-03 4.743863642215728760e-02 -6.837201304733753204e-03 -1.964481547474861145e-03 -3.360120579600334167e-02 7.169011980295181274e-02 3.410453675314784050e-03 -1.120145525783300400e-02 -4.970879852771759033e-02 -5.202686414122581482e-02 -1.497029879828915000e-04 -6.537105143070220947e-02 9.417691081762313843e-02 -4.399374593049287796e-03 4.606775194406509399e-02 -4.698508232831954956e-02 2.786799333989620209e-02 -1.627339608967304230e-02 7.052260451018810272e-03 3.323255106806755066e-02 -5.207113549113273621e-02 -5.353412777185440063e-02 4.631372867152094841e-04 -2.299975603818893433e-02 8.028071373701095581e-02 7.234460115432739258e-02 9.220552444458007812e-02 -3.375884145498275757e-02 -5.302850157022476196e-02 3.572193160653114319e-02
-3.450628370046615601e-03 3.189497627317905426e-03 4.418541863560676575e-02 -8.610857278108596802e-02 -8.239374309778213501e-02 -8.880025707185268402e-03 2.058546245098114014e-02 -2.404795959591865540e-02 1.043145656585693359e-01 1.887706853449344635e-02 -4.120713099837303162e-02 1.188853383064270020e-02 -4.473918583244085312e-03 -5.228965729475021362e-02 1.323114894330501556e-02 2.765030600130558014e-02 1.933449879288673401e-02 1.316654682159423828e-02 1.168962661176919937e-02 2.197890542447566986e-02 -1.875900663435459137e-02 3.727004677057266235e-02 6.202827394008636475e-02 -5.446396023035049438e-02 -3.958052024245262146e-02 -1.001215633004903793e-02 9.018013253808021545e-03 -5.686383694410324097e-03 -4.791870713233947754e-02 -3.541260957717895508e-02 1.853109523653984070e-02 -1.599118113517761230e-02 -1.741719804704189301e-02 -2.635667473077774048e-02 -4.687062650918960571e-02 6.700736284255981445e-02 6.685297936201095581e-02 2.572863176465034485e-02 -8.874295745044946671e-04 5.650367587804794312e-02 -3.251914307475090027e-02 -8.039544522762298584e-02 -2.180084399878978729e-02 1.388873253017663956e-02 1.432638149708509445e-03 -1.366991735994815826e-02 -1.176976878196001053e-02 1.621048524975776672e-02 -7.084638345986604691e-04 -1.854498498141765594e-02 5.209986120462417603e-02 -3.058145381510257721e-02 -8.329498022794723511e-02 3.440947085618972778e-02 -1.596109382808208466e-02 4.773028194904327393e-02 -2.686321362853050232e-02 6.656368821859359741e-02 -1.839884929358959198e-02 -4.215700901113450527e-04 1.138024777173995972e-02 -2.515754848718643188e-02 -4.416756704449653625e-02 -1.624741777777671814e-02 5.975034832954406738e-02 -7.926132529973983765e-02 -1.101345755159854889e-02 2.188754454255104065e-02 -7.092564553022384644e-02 -4.044634848833084106e-02 -1.625054143369197845e-02 -4.357005935162305832e-03 -2.240237966179847717e-02 2.775359153747558594e-02 5.904531478881835938e-02 4.770278930664062500e-02 4.279975965619087219e-02 -2.856869436800479889e-02 4.142102785408496857e-03 -3.710052371025085449e-02 -9.268162772059440613e-03 -2.883999422192573547e-02 -7.429670542478561401e-02 -1.699740439653396606e-02 7.915303111076354980e-02 3.665065020322799683e-02 1.471967902034521103e-02 -4.860114131588488817e-04 -8.816943317651748657e-02 6.761358678340911865e-02 7.152435835450887680e-03 -2.697776257991790771e-02 -2.337925834581255913e-04 -1.763780415058135986e-02 -1.635640300810337067e-02 -2.147790975868701935e-02 -7.133597880601882935e-02 7.822284847497940063e-02 -3.245408087968826294e-02 3.683361038565635681e-02 7.575150579214096069e-02 -1.573781482875347137e-02 2.831192873418331146e-02 -7.655652239918708801e-03 9.403781592845916748e-02 5.802273377776145935e-02 8.464409969747066498e-03 -6.203507538884878159e-03 5.234598368406295776e-02 -2.623077295720577240e-02 5.380599573254585266e-02 2.731535211205482483e-02 5.599101260304450989e-02 -6.014914717525243759e-03 6.726059596985578537e-03 -1.517242752015590668e-02 8.912621438503265381e-02 4.463245719671249390e-02 -3.664789721369743347e-02 2.428828738629817963e-02 3.889233618974685669e-02 -3.615579381585121155e-02 -5.385410785675048828e-02 1.128683891147375107e-02 5.086280405521392822e-02 4.063783958554267883e-02 -1.719697751104831696e-02 -1.242544315755367279e-02
-3.004536032676696777e-02 -1.752459257841110229e-02 -1.482748333364725113e-02 -3.574397787451744080e-02 -8.588960394263267517e-03 1.065859850496053696e-02 9.835704229772090912e-03 3.660024842247366905e-03 -4.816841334104537964e-02 6.086868699640035629e-03 2.364398539066314697e-02 -3.025731258094310760e-02 -3.701221197843551636e-02 1.013570353388786316e-01 1.214200910180807114e-02 -3.061718866229057312e-02 4.453551396727561951e-02 -8.328724652528762817e-03 -3.636819124221801758e-02 -5.284223333001136780e-02 2.002503909170627594e-02 5.105697549879550934e-03 -3.473732993006706238e-02 6.215652450919151306e-03 -2.194235287606716156e-02 3.109423443675041199e-02 2.183287031948566437e-02 -5.171133950352668762e-02 -4.471604526042938232e-02 -2.218819223344326019e-02 -1.275225449353456497e-02 3.638540953397750854e-02 -1.224089507013559341e-02 1.672933110967278481e-03 4.214308410882949829e-02 4.372520744800567627e-02 2.203642763197422028e-02 3.066633641719818115e-02 -1.047840267419815063e-01 -2.570141665637493134e-02 5.068833753466606140e-02 -2.381866425275802612e-02 2.345089800655841827e-02 3.119850996881723404e-03 -6.588961929082870483e-03 3.009457513689994812e-02 -3.353310748934745789e-02 -5.917600542306900024e-02 5.401728674769401550e-02 -9.767310693860054016e-03 -4.252837225794792175e-02 -5.745548382401466370e-02 3.468145430088043213e-02 1.379052642732858658e-02 -5.976909399032592773e-02 -1.604567840695381165e-02 2.923993766307830811e-02 -8.820986747741699219e-02 -4.089083895087242126e-02 -8.403364568948745728e-03 -4.414584115147590637e-02 3.260102495551109314e-02 3.721034526824951172e-02 4.893526807427406311e-02 -8.713381364941596985e-03 1.550869736820459366e-02 -5.017957836389541626e-02 2.541627362370491028e-02 3.442605212330818176e-02 3.398213908076286316e-02 -3.647987032309174538e-03 1.086530238389968872e-01 7.397576421499252319e-02 9.791264310479164124e-03 -2.166099613532423973e-03 -3.475895384326577187e-03 -3.550095856189727783e-02 8.316716551780700684e-02 1.114025060087442398e-02 -6.611751392483711243e-03 -2.507456950843334198e-02 2.640735916793346405e-02 1.712003909051418304e-02 -8.835281431674957275e-02 -1.165191829204559326e-02 -9.404641576111316681e-03 6.124432012438774109e-02 6.456571817398071289e-02 2.102551050484180450e-02 -2.645917609333992004e-02 1.724090985953807831e-02 -4.264459386467933655e-02 -3.402151912450790405e-02 -8.314255625009536743e-03 -2.979765646159648895e-02 5.937581136822700500e-02 -3.805597871541976929e-02 1.327239349484443665e-02 -2.611526101827621460e-02 -1.965969800949096680e-02 -2.133735921233892441e-03 -4.680767655372619629e-02 -2.485844492912292480e-02 1.714672893285751343e-02 -3.186323121190071106e-02 -4.277696833014488220e-03 2.911118790507316589e-02 7.136691361665725708e-02 -1.119539607316255569e-02 -1.480430737137794495e-02 2.827694825828075409e-02 3.289039013907313347e-03 -9.219325333833694458e-02 8.267150819301605225e-02 2.832566620782017708e-03 3.106232173740863800e-02 -3.542614169418811798e-03 8.307229727506637573e-02 3.353707864880561829e-02 1.104272827506065369e-01 -7.711193058639764786e-03 -8.964067324995994568e-03 1.438628695905208588e-02 -6.918594590388238430e-04 1.967797614634037018e-02 3.217612951993942261e-02 1.830319128930568695e-02 -3.452859818935394287e-02
1.092893164604902267e-02 4.104081168770790100e-02 4.334056377410888672e-02 4.344759508967399597e-03 -1.269543636590242386e-02 -1.453585922718048096e-02 6.452159583568572998e-02 3.663011640310287476e-02 -3.578856959939002991e-02 -2.379851043224334717e-02 5.978465825319290161e-02 -5.630070716142654419e-02 -3.796891868114471436e-02 -1.911854743957519531e-02 -3.981238231062889099e-02 -7.514021545648574829e-02 4.190040379762649536e-02 1.027437373995780945e-01 8.219416439533233643e-02 1.070445962250232697e-02 -1.584329828619956970e-02 -1.969239115715026855e-02 8.858332410454750061e-03 -2.882247976958751678e-02 -1.678070984780788422e-02 -3.505134582519531250e-02 -4.627930372953414917e-02 3.612930700182914734e-02 4.770235717296600342e-02 -5.715065822005271912e-02 -3.140746057033538818e-02 -3.584228456020355225e-02 4.323807358741760254e-02 2.793362550437450409e-02 1.804927922785282135e-02 -3.525715693831443787e-02 3.679312020540237427e-02 3.908354323357343674e-03 -4.868308454751968384e-02 -2.318339422345161438e-02 -6.306902039796113968e-03 1.802953146398067474e-02 -1.965073868632316589e-02 -8.340255008079111576e-04 5.094475112855434418e-03 -3.514977172017097473e-02 4.316410794854164124e-02 2.275589108467102051e-02 9.572157636284828186e-03 -2.683651866391301155e-03 -8.267398923635482788e-02 4.011163115501403809e-02 -4.205219820141792297e-02 -3.914054110646247864e-02 3.016760572791099548e-02 2.245656959712505341e-02 2.706375345587730408e-02 -4.345753043889999390e-02 1.129320263862609863e-02 4.856225103139877319e-02 2.732422947883605957e-02 3.005929663777351379e-02 1.917660050094127655e-02 -2.673314325511455536e-02 -2.688908018171787262e-02 -2.371622622013092041e-02 1.894678547978401184e-02 4.846544936299324036e-02 9.345094114542007446e-02 -3.778995247557759285e-03 -8.672948181629180908e-02 -5.888030678033828735e-02 1.193404123187065125e-01 -5.945198237895965576e-02 -2.369948895648121834e-03 -1.466129068285226822e-02 -3.591924533247947693e-02 -3.122672252357006073e-02 4.239946603775024414e-02 1.201785821467638016e-02 6.264017522335052490e-02 4.659812524914741516e-02 5.791484564542770386e-02 -1.277483161538839340e-02 1.227556634694337845e-02 -3.416413441300392151e-02 3.467464819550514221e-02 2.639614604413509369e-02 3.533868584781885147e-03 -4.959959536790847778e-02 1.017528772354125977e-02 2.256467239931225777e-03 -3.235255554318428040e-02 -1.107312552630901337e-02 -2.745896019041538239e-02 -4.689679294824600220e-02 6.780758500099182129e-02 2.478291466832160950e-02 -3.559743985533714294e-02 -1.647754944860935211e-02 6.831378489732742310e-02 -1.721731387078762054e-02 -3.277627006173133850e-02 2.188173308968544006e-02 -8.675372600555419922e-02 4.121189564466476440e-02 1.987841539084911346e-02 3.947409277316182852e-04 -3.851960599422454834e-02 -7.399765402078628540e-02 1.237790007144212723e-02 2.210116200149059296e-02 -1.212015864439308643e-03 -5.208719894289970398e-02 5.983025580644607544e-02 5.736640468239784241e-02 -8.892776444554328918e-03 1.104325708001852036e-02 3.604297712445259094e-02 -3.823635866865515709e-03 -4.960397724062204361e-03 1.611130498349666595e-02 1.521288882941007614e-03 -4.815395921468734741e-02 1.300138328224420547e-02 -2.428180770948529243e-03 3.845873847603797913e-02 1.817330252379179001e-03
3.806420788168907166e-02 3.715631738305091858e-02 3.487115725874900818e-02 1.321647875010967255e-02 1.962070120498538017e-03 5.693636462092399597e-02 6.544452905654907227e-02 -3.781909868121147156e-02 6.057010963559150696e-03 -3.967458382248878479e-02 5.434134975075721741e-02 -8.790545165538787842e-03 5.403735488653182983e-02 -5.169953685253858566e-03 1.021868642419576645e-02 3.995688632130622864e-02 -4.100333154201507568e-02 5.818744003772735596e-02 5.295662954449653625e-02 3.417799994349479675e-02 2.014153078198432922e-02 -4.366621375083923340e-02 -3.078595548868179321e-02 -6.668757647275924683e-02 7.042631506919860840e-02 -1.715335808694362640e-02 -1.043604221194982529e-02 3.011618368327617645e-02 4.140100255608558655e-02 4.422580357640981674e-03 1.015121396631002426e-02 5.917952209711074829e-02 -2.705890685319900513e-03 -2.462671324610710144e-02 4.763260856270790100e-02 2.416759915649890900e-02 -3.254951536655426025e-02 5.666399840265512466e-03 3.445253241807222366e-03 -3.379369527101516724e-02 -7.877859286963939667e-03 5.265545845031738281e-02 4.559158161282539368e-02 -7.394773419946432114e-03 3.903825581073760986e-02 -1.859238557517528534e-02 -4.951534047722816467e-02 -5.819307174533605576e-03 6.308864802122116089e-02 -1.311329156160354614e-01 -3.808610886335372925e-02 -4.042765498161315918e-02 3.343456611037254333e-02 -6.448499113321304321e-02 -3.203158825635910034e-02 3.435838036239147186e-03 -2.656905166804790497e-02 -1.111453492194414139e-02 -1.710403151810169220e-02 1.280108094215393066e-02 -7.994427345693111420e-03 -7.591468747705221176e-03 -3.075718879699707031e-02 1.232449989765882492e-02 -6.590407341718673706e-03 -2.685491926968097687e-02 4.623550549149513245e-02 4.842238873243331909e-02 3.554853796958923340e-02 1.964729465544223785e-02 6.158338114619255066e-02 -3.810432553291320801e-02 2.625859342515468597e-02 -2.162761799991130829e-02 -3.259277343750000000e-02 -2.917552553117275238e-02 -4.901314154267311096e-02 3.167457133531570435e-02 2.301002852618694305e-02 -6.341937929391860962e-02 5.847095325589179993e-02 5.138921737670898438e-02 1.432888302952051163e-02 -9.451425634324550629e-03 5.710696495953015983e-05 1.336704101413488388e-02 -5.435980111360549927e-02 2.439550869166851044e-02 3.762190230190753937e-03 3.482218831777572632e-03 -2.169518359005451202e-02 2.472406625747680664e-02 -3.678436204791069031e-02 -3.724475027411244810e-05 -2.427824400365352631e-02 2.811831794679164886e-02 2.332337759435176849e-02 -1.729899272322654724e-02 -3.711791476234793663e-03 1.503644511103630066e-02 -2.441537752747535706e-02 -4.508498683571815491e-02 9.352570399641990662e-03 3.309257701039314270e-02 -7.274872064590454102e-02 -1.108795031905174255e-02 -3.519942983984947205e-04 2.774377726018428802e-02 -2.921248227357864380e-02 7.048931438475847244e-03 -4.205923900008201599e-02 -2.976606786251068115e-02 -1.660187914967536926e-02 -4.261102993041276932e-03 -3.951753303408622742e-02 5.882954970002174377e-02 -2.191473543643951416e-02 3.283068165183067322e-02 -5.018582567572593689e-02 -6.948632001876831055e-02 4.975039046257734299e-03 2.468169294297695160e-02 5.489839706569910049e-03 -4.639910161495208740e-02 3.502544015645980835e-02 -1.228251680731773376e-02 3.621846064925193787e-02 -1.010227762162685394e-02
2.191597595810890198e-02 -4.062421247363090515e-02 1.552464347332715988e-02 -1.169141381978988647e-02 8.868684060871601105e-03 6.466886401176452637e-02 6.922058761119842529e-03 -3.505392745137214661e-02 -1.789214834570884705e-02 2.168884873390197754e-02 -1.776767778210341930e-03 1.756458915770053864e-02 9.574928879737854004e-02 8.220803737640380859e-02 -2.717231400310993195e-02 -4.434783384203910828e-02 -3.914911299943923950e-02 -2.045898139476776123e-02 3.158855810761451721e-02 7.140229921787977219e-03 -4.763167724013328552e-02 2.110947109758853912e-02 -1.335864514112472534e-02 2.602961100637912750e-02 5.746309086680412292e-02 -6.608304101973772049e-03 4.570057615637779236e-02 2.356910891830921173e-02 1.004808470606803894e-01 -8.006954565644264221e-03 -7.590093463659286499e-02 4.496027901768684387e-02 2.691338770091533661e-03 9.359185397624969482e-02 2.082463726401329041e-02 3.363375365734100342e-02 -4.295333474874496460e-02 -6.580250710248947144e-02 -3.663296625018119812e-02 -2.548543922603130341e-02 5.000082775950431824e-02 8.913899958133697510e-02 -4.063965752720832825e-02 5.209700204432010651e-03 3.225785121321678162e-02 -3.137427195906639099e-02 3.055492416024208069e-03 -2.934415452182292938e-02 -4.300173372030258179e-03 -4.246223717927932739e-02 -1.836988143622875214e-02 -7.060314528644084930e-03 2.334100194275379181e-02 -1.881956681609153748e-02 6.062895804643630981e-02 -5.022355541586875916e-02 1.396722812205553055e-02 -9.393898653797805309e-04 -2.981496043503284454e-02 2.464408054947853088e-02 -1.910854876041412354e-02 -3.511978685855865479e-02 2.104549854993820190e-02 5.739630758762359619e-02 3.984690085053443909e-02 3.784190863370895386e-02 2.154493331909179688e-02 -1.730670779943466187e-02 -9.239635430276393890e-03 4.335189703851938248e-03 2.508312277495861053e-02 -5.701004341244697571e-02 -1.506922021508216858e-02 -6.151764839887619019e-02 -2.947387285530567169e-02 -2.418488450348377228e-02 3.488162765279412270e-04 -3.775722114369273186e-03 3.713800385594367981e-02 -1.388914603739976883e-02 7.278638891875743866e-03 -5.361485108733177185e-02 8.268726058304309845e-03 3.572659939527511597e-02 -2.870661392807960510e-02 2.406605519354343414e-03 -2.943629398941993713e-02 4.116828739643096924e-02 6.618213653564453125e-02 -1.037261821329593658e-02 4.668187350034713745e-02 -1.534258108586072922e-02 4.866842180490493774e-02 3.656031191349029541e-02 -9.237343072891235352e-02 -1.860023103654384613e-02 -9.050564840435981750e-04 -6.774696707725524902e-02 7.372105866670608521e-02 2.416150085628032684e-02 -1.958867302164435387e-03 -1.850037090480327606e-02 -3.730715066194534302e-02 -3.264872357249259949e-02 6.151247303932905197e-03 1.584752276539802551e-02 -2.504343912005424500e-02 -7.091650366783142090e-02 6.465355865657329559e-03 5.601149052381515503e-02 -5.147166550159454346e-02 4.758288152515888214e-03 -3.318536654114723206e-02 -1.478235796093940735e-02 -3.704062104225158691e-02 3.159169573336839676e-03 2.093004761263728142e-03 -6.542755663394927979e-02 4.811283200979232788e-02 1.922108232975006104e-02 -1.133820507675409317e-02 6.135141104459762573e-02 -4.159061238169670105e-02 4.340095072984695435e-02 -5.207693576812744141e-02 -6.436682771891355515e-03 -1.551987770653795451e-05 3.229228779673576355e-02
7.481565326452255249e-02 5.090794712305068970e-02 -3.352927044034004211e-02 8.388787508010864258e-02 -2.526517212390899658e-02 1.715218275785446167e-02 -2.647211961448192596e-02 1.774180680513381958e-02 -6.091563031077384949e-02 -1.739358156919479370e-02 -2.380137145519256592e-02 2.023342251777648926e-02 1.205494045279920101e-03 -9.885675972327589989e-04 5.565954837948083878e-03 6.639828532934188843e-02 -1.945286057889461517e-03 1.335692964494228363e-02 -1.981416717171669006e-02 -8.322190493345260620e-02 -3.352817147970199585e-02 -6.682647764682769775e-02 -2.033247426152229309e-02 8.204581588506698608e-02 -2.911374904215335846e-02 -2.831834368407726288e-03 2.411217056214809418e-02 -3.043506108224391937e-02 -3.976761922240257263e-02 -2.926338464021682739e-02 5.689862743020057678e-02 -4.449013248085975647e-02 -3.952853009104728699e-02 -2.952095493674278259e-02 9.089241176843643188e-02 -4.122264683246612549e-02 1.172262363979825750e-05 2.649220824241638184e-02 7.296469528228044510e-03 7.063559442758560181e-02 -4.009968042373657227e-02 3.073295764625072479e-02 -4.025623202323913574e-02 -1.366567518562078476e-02 7.361174793913960457e-04 4.064793512225151062e-02 6.072030868381261826e-03 -1.753110811114311218e-02 -3.683294355869293213e-02 8.185991086065769196e-03 3.276351839303970337e-02 3.062715195119380951e-02 3.653906285762786865e-02 6.960470974445343018e-02 1.431547384709119797e-02 2.245367504656314850e-03 5.702051147818565369e-02 -3.962571173906326294e-02 -2.965966472402215004e-03 -4.398415237665176392e-02 -2.627789415419101715e-02 -1.157637313008308411e-02 -2.629483491182327271e-02 6.937328726053237915e-02 6.506226491183042526e-03 6.753280758857727051e-02 -4.471275210380554199e-02 -1.039069592952728271e-01 -1.412114128470420837e-02 2.768819220364093781e-02 6.773395091295242310e-02 -1.442420110106468201e-02 -4.953626170754432678e-02 2.167172916233539581e-02 -9.061303734779357910e-02 3.304481133818626404e-02 5.435810983180999756e-02 -3.179560601711273193e-02 3.614045679569244385e-03 5.607459694147109985e-02 -1.841343194246292114e-02 5.094159767031669617e-02 -4.006138816475868225e-02 -3.172455122694373131e-03 -3.775762394070625305e-02 9.877230972051620483e-03 -3.620549663901329041e-02 -8.142929524183273315e-02 -2.789608947932720184e-02 5.206388980150222778e-02 -1.022693216800689697e-01 2.363579369557555765e-05 -1.699646189808845520e-02 -6.028492748737335205e-02 3.470104932785034180e-02 -3.449270129203796387e-02 3.880535066127777100e-02 -4.726560413837432861e-02 -4.575244709849357605e-02 -9.301749616861343384e-02 1.169906742870807648e-02 -1.518000848591327667e-02 5.406467616558074951e-02 -4.606121033430099487e-02 -2.263773977756500244e-02 -5.740137398242950439e-02 7.858810573816299438e-02 9.028698503971099854e-02 -1.680978946387767792e-02 3.366365656256675720e-02 -4.609306156635284424e-02 -1.413503009825944901e-02 6.202830001711845398e-02 -1.087087206542491913e-02 -5.238128453493118286e-02 -3.612426668405532837e-02 -3.189572319388389587e-02 -9.302054531872272491e-03 4.893907532095909119e-02 -8.631811477243900299e-03 -6.550439167767763138e-03 6.150844506919384003e-03 9.855384007096290588e-03 -5.774984881281852722e-02 -2.885290235280990601e-02 5.574309825897216797e-02 -2.909070067107677460e-02 3.755440190434455872e-02
-5.360946431756019592e-02 3.196071460843086243e-02 6.628938019275665283e-02 -2.431246452033519745e-02 6.512571871280670166e-02 -1.206571934744715691e-03 -5.626818165183067322e-02 -4.994902759790420532e-02 4.423923324793577194e-03 2.494041249155998230e-02 8.547919988632202148e-02 -4.446024075150489807e-02 -1.422229781746864319e-02 1.620767824351787567e-02 -1.600367389619350433e-02 -1.822638511657714844e-02 6.287059932947158813e-02 -7.873528636991977692e-03 4.084764048457145691e-02 -9.560698643326759338e-03 3.836363926529884338e-02 2.184461615979671478e-02 -1.437762286514043808e-02 1.269716769456863403e-02 7.994681946001946926e-04 -3.297493606805801392e-02 -3.372544888406991959e-03 4.989949055016040802e-03 -3.628999367356300354e-02 -8.915551006793975830e-03 2.133835852146148682e-02 -2.761375857517123222e-03 2.871087985113263130e-03 -4.320381581783294678e-02 -5.610285326838493347e-02 -1.746966876089572906e-02 -4.365855082869529724e-02 -7.512173056602478027e-02 -5.376869812607765198e-03 -9.494931995868682861e-02 -5.319962650537490845e-02 4.483786411583423615e-03 3.589797765016555786e-02 -2.806132100522518158e-02 2.685521915555000305e-02 -6.021375581622123718e-02 5.218826700001955032e-03 -2.890276536345481873e-02 2.429973892867565155e-02 2.062943018972873688e-02 -4.503637924790382385e-02 8.679250255227088928e-03 -1.959799602627754211e-02 -2.336115203797817230e-02 -4.536532331258058548e-03 -3.737451508641242981e-02 1.390528772026300430e-02 -3.852182067930698395e-03 -8.703734725713729858e-03 7.997526228427886963e-02 1.664321497082710266e-02 -9.892316907644271851e-02 3.680752217769622803e-02 -7.193082012236118317e-03 -4.121866822242736816e-02 4.931782931089401245e-02 2.364911884069442749e-02 4.839669167995452881e-02 7.356757670640945435e-02 2.100861258804798126e-02 3.306535631418228149e-02 4.315562546253204346e-02 6.222356110811233521e-02 6.193361803889274597e-02 7.334242016077041626e-02 1.000197697430849075e-02 -1.985275931656360626e-02 -1.044960319995880127e-01 -9.854322299361228943e-03 6.785547733306884766e-02 7.076630834490060806e-03 3.485980257391929626e-02 8.034683763980865479e-02 1.300285290926694870e-02 -5.427979305386543274e-02 -3.429580107331275940e-02 -8.358822204172611237e-03 -3.072182089090347290e-02 4.347613081336021423e-02 -4.690865799784660339e-02 -1.182256732136011124e-02 6.156744062900543213e-02 2.906605042517185211e-02 -5.593301728367805481e-02 -1.335246022790670395e-03 1.264346949756145477e-02 -2.824699971824884415e-03 8.872205764055252075e-02 6.747744232416152954e-02 1.437908131629228592e-02 -3.375229984521865845e-02 -5.991300940513610840e-02 -1.982278563082218170e-02 3.264105319976806641e-02 -4.161440581083297729e-02 -7.430053502321243286e-02 -1.025206521153450012e-01 -2.616984210908412933e-02 1.353884115815162659e-02 8.313412219285964966e-02 -8.929171599447727203e-03 -1.442645583301782608e-02 -1.731177605688571930e-02 -1.571604050695896149e-02 6.977495737373828888e-03 -6.594736129045486450e-02 -5.788004398345947266e-02 -3.535461053252220154e-02 -3.179807215929031372e-02 -2.369433455169200897e-02 2.019832283258438110e-02 -7.364319171756505966e-03 8.526146411895751953e-02 -4.279665648937225342e-02 -2.032887004315853119e-02 2.896737121045589447e-02 1.234293878078460693e-01 2.191668003797531128e-02
