2.999053336679935455e-02 5.902485549449920654e-02 -1.135645247995853424e-02 -5.772794829681515694e-04 -2.014059573411941528e-02 -1.928832568228244781e-02 7.506890594959259033e-02 -5.928162485361099243e-02 -4.787013679742813110e-02 8.311319164931774139e-03 5.127201974391937256e-02 -3.389044664800167084e-03 -1.497130654752254486e-02 3.747836127877235413e-02 3.379397094249725342e-03 -5.321373697370290756e-03 -3.391823545098304749e-02 2.278356067836284637e-02 -2.106050215661525726e-02 9.980195201933383942e-03 -7.916158996522426605e-03 3.648484870791435242e-02 1.131521785282529891e-04 8.297925814986228943e-03 9.396781213581562042e-03 -2.651507779955863953e-02 4.362409468740224838e-03 -1.326329912990331650e-02 2.433112123981118202e-03 2.449652366340160370e-02 2.439825050532817841e-02 4.534620419144630432e-02 -5.945682059973478317e-03 -2.537362277507781982e-02 2.797229029238224030e-02 3.066345304250717163e-02 -1.216037664562463760e-02 2.897963859140872955e-02 -3.607974201440811157e-02 -3.057637624442577362e-02 -1.702791452407836914e-02 -4.502798430621623993e-03 -2.385541237890720367e-02 3.401144593954086304e-02 3.225819021463394165e-02 -3.811332210898399353e-02 2.356074005365371704e-02 1.507146283984184265e-02 4.804336652159690857e-02 -4.822298511862754822e-02 -2.353251911699771881e-03 -4.990090429782867432e-02 -1.743605732917785645e-02 2.990742679685354233e-03 -2.171948552131652832e-02 -2.922658622264862061e-02 -4.241205006837844849e-02 -3.839473053812980652e-02 -1.347220689058303833e-02 1.038155984133481979e-02 -1.756539940834045410e-02 3.959644585847854614e-02 2.766495198011398315e-02 -1.497472403571009636e-03 -2.630882523953914642e-02 -2.569034695625305176e-02 8.319695480167865753e-03 1.479103812016546726e-03 5.002503748983144760e-03 -1.778669655323028564e-02 -6.477408111095428467e-03 1.277834456413984299e-02 6.043659057468175888e-03 -7.160420715808868408e-02 -5.276282783597707748e-03 -3.852340951561927795e-02 -1.599658466875553131e-02 4.618315398693084717e-02 -6.648930255323648453e-03 -6.039303168654441833e-02 -1.572878286242485046e-02 -2.016541548073291779e-02 -1.241319812834262848e-03 -5.266201496124267578e-02 -3.693484514951705933e-02 -3.441255539655685425e-02 -1.101473066955804825e-02 2.471406944096088409e-03 1.920788432471454144e-03 5.122304335236549377e-02 6.337309256196022034e-03 -4.150976985692977905e-02 -1.800252124667167664e-02 1.726051978766918182e-02 1.270832680165767670e-02 2.037449926137924194e-02 -6.568563170731067657e-03 1.350487768650054932e-02 2.211089245975017548e-02 -1.697511970996856689e-02 -2.736517973244190216e-02 2.213552361354231834e-03 -8.015844039618968964e-03 7.482455577701330185e-03 -2.402286604046821594e-02 3.739808872342109680e-02 2.675872109830379486e-02 1.119870040565729141e-02 -2.541804686188697815e-02 -1.864134334027767181e-02 -3.057088516652584076e-02 -3.991666063666343689e-02 -4.013609886169433594e-02 1.126289460808038712e-02 -5.705986544489860535e-02 5.073069036006927490e-02 -3.232048451900482178e-02 2.563655748963356018e-02 6.920785177499055862e-03 -2.035502903163433075e-02 -3.261984512209892273e-02 -1.591771282255649567e-02 -2.072818949818611145e-02 -1.050527300685644150e-02 8.225266356021165848e-04 -5.865581706166267395e-02 1.716281659901142120e-02 -3.399666398763656616e-02
5.305824335664510727e-03 3.703693300485610962e-02 2.679177001118659973e-02 -1.217953488230705261e-02 -1.757409609854221344e-02 -2.847965992987155914e-02 3.406887874007225037e-03 -2.135268785059452057e-02 -2.838165871798992157e-02 -2.697049453854560852e-02 5.582386627793312073e-03 6.447237450629472733e-03 1.448369584977626801e-02 8.291869424283504486e-03 -1.732150465250015259e-02 1.466806395910680294e-03 1.611026935279369354e-02 1.877477951347827911e-02 2.331649512052536011e-02 -2.783111995086073875e-04 -2.741681877523660660e-03 -1.614083908498287201e-02 5.422279238700866699e-02 -1.751647144556045532e-02 1.784045808017253876e-02 -1.120739523321390152e-02 1.486366335302591324e-02 -6.097952835261821747e-03 1.283693499863147736e-02 3.470042347908020020e-02 2.309096977114677429e-02 1.051110588014125824e-02 -1.722663268446922302e-02 6.393542047590017319e-03 3.736280836164951324e-03 6.738787516951560974e-03 1.241485308855772018e-02 1.931656524538993835e-02 3.364862129092216492e-02 2.562604658305644989e-02 1.858433522284030914e-02 3.369472548365592957e-02 3.401925787329673767e-03 -5.183484777808189392e-02 -4.532566294074058533e-03 6.474077235907316208e-03 -2.314962074160575867e-02 -3.340680524706840515e-02 -2.880858082789927721e-04 1.667115092277526855e-02 -2.264944277703762054e-02 8.249142207205295563e-03 2.694012783467769623e-02 1.169025711715221405e-02 -1.817238144576549530e-02 -1.880469173192977905e-02 6.631408818066120148e-03 1.716426759958267212e-02 1.727886381559073925e-03 9.405800141394138336e-03 -4.418799653649330139e-03 -2.817440964281558990e-02 -6.107012741267681122e-03 5.253472924232482910e-02 1.599858142435550690e-02 -4.472310189157724380e-03 -1.546494569629430771e-02 -2.361958287656307220e-02 -2.262197807431221008e-02 -9.318450465798377991e-03 3.053530119359493256e-02 -3.377388929948210716e-03 3.995996341109275818e-02 -9.724566480144858360e-04 3.221153467893600464e-02 7.380902022123336792e-02 -1.615995168685913086e-02 8.572216145694255829e-03 -4.929306451231241226e-03 1.287104969378560781e-04 -1.435655355453491211e-02 2.701885253190994263e-02 3.506685420870780945e-02 -1.046810485422611237e-02 2.450493723154067993e-02 1.588073745369911194e-02 3.380784392356872559e-02 -2.261556126177310944e-02 3.850843384861946106e-02 -1.262493338435888290e-02 -1.466908375732600689e-03 2.002299763262271881e-02 1.168254576623439789e-02 -3.205369040369987488e-02 -3.953369800001382828e-03 4.611847456544637680e-03 -3.206033492460846901e-03 -1.817277073860168457e-02 3.060772456228733063e-02 1.937627606093883514e-02 -1.477173157036304474e-02 -1.246333587914705276e-02 2.458129450678825378e-02 4.668506328016519547e-03 -1.433235500007867813e-02 -2.477920847013592720e-03 -4.901086166501045227e-02 -2.553208358585834503e-02 -2.530699968338012695e-02 -2.602906664833426476e-03 2.795377001166343689e-02 6.458278000354766846e-02 2.749868109822273254e-02 -2.389631420373916626e-02 3.781691193580627441e-03 3.478076681494712830e-02 -2.539579197764396667e-02 -2.930478192865848541e-03 -5.222301557660102844e-02 1.949533936567604542e-03 4.040130588691681623e-04 -4.892559256404638290e-03 1.060756854712963104e-02 -1.401187013834714890e-02 8.548104204237461090e-03 7.795707881450653076e-02 1.899799332022666931e-02 9.702818468213081360e-03
-4.612054210156202316e-03 -1.631133630871772766e-02 2.323878370225429535e-02 2.114510349929332733e-02 -4.266350343823432922e-02 2.331989817321300507e-03 -4.636861383914947510e-02 -3.164760768413543701e-02 2.588342875242233276e-02 -2.124642953276634216e-02 2.216901816427707672e-02 2.984173037111759186e-02 5.302079766988754272e-02 -2.219942398369312286e-02 3.514820337295532227e-02 1.410921663045883179e-02 -4.320353735238313675e-03 -1.023439876735210419e-02 -1.924771070480346680e-02 2.315452694892883301e-02 -2.576636523008346558e-02 9.526244364678859711e-03 2.448462136089801788e-02 -7.453746162354946136e-03 -8.387111127376556396e-03 1.681454665958881378e-02 3.088801726698875427e-02 -2.486157976090908051e-02 -2.201714925467967987e-02 -1.899195462465286255e-02 4.930598661303520203e-03 -6.124389823526144028e-03 3.492870181798934937e-02 -8.583797141909599304e-03 -3.780742734670639038e-02 3.557616844773292542e-02 2.023844234645366669e-02 2.453080751001834869e-02 7.556849159300327301e-03 -4.509613208938390017e-04 7.186653092503547668e-03 1.705546863377094269e-02 -2.887451648712158203e-02 -5.746315699070692062e-03 1.973581872880458832e-02 -3.080860152840614319e-02 -3.947673365473747253e-02 -2.943993732333183289e-02 -8.249904567492194474e-06 -1.656636036932468414e-02 1.925907284021377563e-02 -4.315617959946393967e-03 -3.963579982519149780e-02 -1.746531389653682709e-02 -4.142638295888900757e-03 2.479400858283042908e-02 2.399072051048278809e-02 -2.574961446225643158e-02 -5.331899039447307587e-03 -1.285657938569784164e-02 -3.990991786122322083e-02 -3.469690307974815369e-02 -9.892696514725685120e-03 -1.207043183967471123e-03 -6.383577361702919006e-03 5.687254946678876877e-03 -2.001930400729179382e-02 2.082120999693870544e-02 -8.944049477577209473e-03 -2.414078265428543091e-02 5.984827876091003418e-04 -9.263000451028347015e-03 -3.222585842013359070e-02 2.209896966814994812e-02 -4.312832374125719070e-03 5.470436532050371170e-03 3.201872343197464943e-03 -5.973211955279111862e-03 4.758740309625864029e-03 4.705552477389574051e-03 2.928791008889675140e-02 -2.577860280871391296e-02 -2.077068388462066650e-02 5.394756328314542770e-03 -2.766248211264610291e-02 4.199462383985519409e-02 -6.753503344953060150e-03 -2.170894667506217957e-02 -2.570417523384094238e-02 6.698607653379440308e-02 1.470711827278137207e-02 1.198806799948215485e-02 -2.542601153254508972e-02 -5.325435195118188858e-03 -2.898298390209674835e-02 -1.439196988940238953e-02 4.092469811439514160e-02 -1.802922110073268414e-03 -2.829460985958576202e-02 -8.093913085758686066e-03 -3.059648443013429642e-03 -2.932243049144744873e-03 -5.754668731242418289e-03 -2.178223803639411926e-02 -6.056730635464191437e-03 1.747141219675540924e-02 -1.866023242473602295e-02 -3.553153946995735168e-02 2.264024689793586731e-02 -1.539628428872674704e-04 2.188969589769840240e-02 -1.114445738494396210e-02 -6.553282029926776886e-03 4.530020523816347122e-03 3.355242684483528137e-02 -4.389021173119544983e-02 1.890726387500762939e-02 -4.145416617393493652e-02 1.909760199487209320e-02 -1.977573521435260773e-02 -2.498155459761619568e-02 -1.682995818555355072e-02 -1.822585240006446838e-02 5.523876287043094635e-03 -1.764028146862983704e-02 2.387493103742599487e-02 -4.179996438324451447e-03 -1.654475741088390350e-02
3.214133158326148987e-02 1.397623587399721146e-02 -4.500605165958404541e-02 -4.623827710747718811e-02 6.499942392110824585e-03 7.121891714632511139e-03 1.772826910018920898e-02 -2.270695287734270096e-03 -6.341767031699419022e-03 5.306403711438179016e-02 -4.568935185670852661e-02 -2.409013174474239349e-02 -2.358948253095149994e-02 -1.062604039907455444e-02 1.753346621990203857e-02 -5.082606337964534760e-03 -4.403610248118638992e-03 2.274575270712375641e-02 2.054595155641436577e-03 -3.536095097661018372e-02 2.868640050292015076e-02 6.151349842548370361e-02 2.356945909559726715e-02 4.294153302907943726e-02 1.005553361028432846e-02 2.161634340882301331e-02 7.566195726394653320e-02 1.342403702437877655e-02 7.990730926394462585e-03 -1.925228163599967957e-02 -3.888534847646951675e-03 1.816738396883010864e-02 -4.409188032150268555e-02 2.943857200443744659e-02 -2.302840119227766991e-03 -2.624384500086307526e-02 7.713823579251766205e-03 1.215054374188184738e-02 3.982453607022762299e-03 -3.732815012335777283e-02 -3.089797100983560085e-04 -9.660804644227027893e-03 5.260134581476449966e-03 -5.357551574707031250e-02 -3.907478973269462585e-02 -4.724005702883005142e-03 -1.541287545114755630e-02 -1.997491717338562012e-02 2.092696027830243111e-03 7.629956118762493134e-03 1.316829351708292961e-03 -6.848690565675497055e-03 -1.730435341596603394e-02 3.278405591845512390e-02 -5.757149774581193924e-03 1.347566489130258560e-02 -3.035750414710491896e-04 -1.940990053117275238e-02 4.103874322026968002e-03 -1.630885340273380280e-02 -5.211359355598688126e-03 2.586537227034568787e-02 -3.262663632631301880e-02 -1.325531583279371262e-02 -4.073243215680122375e-02 3.430207446217536926e-02 -1.067924499511718750e-02 2.185398712754249573e-03 2.808354096487164497e-03 5.665098875761032104e-02 2.858537621796131134e-02 -4.637255799025297165e-03 1.205895002931356430e-02 -2.265741862356662750e-02 -6.934956461191177368e-02 -3.910382464528083801e-02 2.299197763204574585e-02 9.956119582056999207e-03 -1.944290660321712494e-02 2.244009077548980713e-02 6.815119832754135132e-02 1.833316683769226074e-02 -2.999994205310940742e-03 2.785594761371612549e-02 -3.699377179145812988e-02 1.398903504014015198e-02 2.044332213699817657e-02 -3.518845513463020325e-02 -4.522566683590412140e-03 -8.021759800612926483e-03 2.410397632047533989e-03 1.111831050366163254e-02 2.391048707067966461e-03 1.283892244100570679e-02 6.051202304661273956e-03 4.571777826640754938e-04 2.218747045844793320e-03 2.590174844954162836e-04 9.206281043589115143e-03 -1.708279550075531006e-02 -5.973533261567354202e-03 -3.463090583682060242e-02 -1.603149808943271637e-02 -2.145198360085487366e-02 -1.164939161390066147e-02 7.651092484593391418e-03 -2.371313050389289856e-02 4.176665563136339188e-03 -8.798111230134963989e-03 2.862187288701534271e-02 7.966555655002593994e-03 2.208049222826957703e-02 1.053575519472360611e-02 -3.482290729880332947e-02 -5.582680460065603256e-04 7.380414288491010666e-03 -2.194571308791637421e-02 -1.676486060023307800e-02 -1.629327610135078430e-02 -4.113294184207916260e-02 1.310226134955883026e-02 -4.608852788805961609e-02 5.367374047636985779e-03 -3.130463883280754089e-02 -4.269574582576751709e-02 7.541771978139877319e-03 -5.222006235271692276e-03 2.654264308512210846e-02
-1.388404332101345062e-02 -9.958074660971760750e-04 -2.379721589386463165e-02 -3.040728718042373657e-02 3.636850789189338684e-02 3.338495967909693718e-03 -1.589873805642127991e-02 -5.109308403916656971e-04 2.094995975494384766e-02 -5.191028118133544922e-02 2.335473336279392242e-02 1.146853249520063400e-02 8.838598616421222687e-03 2.580262534320354462e-02 -4.171926900744438171e-02 -7.108527235686779022e-03 -4.331193119287490845e-02 1.963689737021923065e-02 6.861401256173849106e-03 -5.696334689855575562e-02 -1.566022634506225586e-03 2.502687647938728333e-02 -2.918956801295280457e-02 2.549141272902488708e-02 -4.076987877488136292e-02 1.024707686156034470e-02 -3.159273415803909302e-02 5.559646338224411011e-02 -2.980989776551723480e-02 -4.519108217209577560e-03 -2.692327834665775299e-03 -2.649182267487049103e-02 -7.728797942399978638e-02 1.633135415613651276e-02 -1.493680290877819061e-02 2.023421041667461395e-02 1.703066192567348480e-02 5.278524011373519897e-03 4.485348239541053772e-02 3.418355807662010193e-02 -3.948689624667167664e-02 -4.148636013269424438e-02 3.977045044302940369e-02 2.566761709749698639e-02 -7.821211591362953186e-03 -2.808609046041965485e-02 -5.878843832761049271e-03 -2.775950543582439423e-02 3.704352676868438721e-02 3.522804006934165955e-02 2.092411182820796967e-02 5.804797261953353882e-02 -2.109727263450622559e-02 -7.383462972939014435e-03 1.091800350695848465e-02 -1.215308997780084610e-02 -2.186304703354835510e-02 4.272821918129920959e-02 -5.810934677720069885e-02 -1.703325845301151276e-02 -2.872068993747234344e-02 -2.521372213959693909e-02 -6.101944297552108765e-02 -3.604907169938087463e-02 -4.653430357575416565e-02 -3.144314885139465332e-02 2.440495975315570831e-02 -6.787656806409358978e-03 8.594055660068988800e-03 4.134711995720863342e-02 4.286931455135345459e-02 -5.047000944614410400e-02 3.457170352339744568e-02 2.568834275007247925e-02 4.191950336098670959e-02 2.164599858224391937e-02 -1.112983375787734985e-02 1.670731604099273682e-02 -3.354825603310018778e-04 1.943001151084899902e-02 -2.042123582214117050e-03 -1.588544994592666626e-02 -3.546812012791633606e-02 3.226549550890922546e-02 1.470804680138826370e-02 1.097486261278390884e-02 -2.236094512045383453e-02 -1.056274864822626114e-02 6.903993926243856549e-05 -6.312189996242523193e-02 -2.287768945097923279e-02 2.085388451814651489e-02 2.260812930762767792e-02 -5.046465992927551270e-02 -1.807567104697227478e-02 2.763559669256210327e-02 -2.687656879425048828e-02 5.008460208773612976e-02 2.806705050170421600e-02 -2.118544094264507294e-02 -3.509292751550674438e-02 1.272548083215951920e-02 5.692385509610176086e-02 3.346622455865144730e-03 2.536724507808685303e-02 1.240274962037801743e-02 1.270180661231279373e-02 -2.106934227049350739e-02 1.191285531967878342e-02 2.019791305065155029e-02 4.384527355432510376e-02 -2.976971119642257690e-02 3.536558151245117188e-02 1.657988876104354858e-02 -2.085885405540466309e-02 -8.289346471428871155e-03 2.986960345879197121e-03 -3.838422894477844238e-02 1.723200269043445587e-02 -2.651626616716384888e-02 -3.554901108145713806e-02 -1.007656846195459366e-02 3.566913679242134094e-02 -5.634944885969161987e-03 -6.138721364550292492e-04 1.983182504773139954e-02 -2.249277196824550629e-03 1.344178896397352219e-02
-2.234788797795772552e-02 -8.669404312968254089e-03 7.903628982603549957e-03 1.726138591766357422e-02 1.836719550192356110e-02 1.040964480489492416e-02 5.687455646693706512e-03 -2.085135132074356079e-02 -2.652141451835632324e-02 -1.641047187149524689e-02 1.402713451534509659e-02 -1.518329884856939316e-02 1.563669764436781406e-03 3.409039927646517754e-03 -7.822780869901180267e-03 -3.201565891504287720e-02 -2.788840979337692261e-02 -1.493132952600717545e-02 3.905767807736992836e-03 -8.094306103885173798e-03 -1.433962956070899963e-02 4.328009672462940216e-03 -4.524922743439674377e-02 -9.502861648797988892e-03 -6.974535062909126282e-03 -4.844288527965545654e-02 3.753799200057983398e-02 -1.052349689416587353e-03 -3.354289755225181580e-02 -1.598550565540790558e-02 -1.468343101441860199e-02 3.315676748752593994e-02 -2.832619007676839828e-03 1.641613617539405823e-02 -5.496460944414138794e-03 2.027112431824207306e-02 5.143484100699424744e-03 -1.995301991701126099e-02 1.158315222710371017e-02 1.636121980845928192e-02 1.044163666665554047e-02 3.306303173303604126e-02 -1.430694665759801865e-02 -7.032203953713178635e-03 -9.798926301300525665e-03 3.153663501143455505e-02 1.864098012447357178e-03 4.228960722684860229e-03 9.322947822511196136e-03 -8.720443584024906158e-03 -1.401122659444808960e-02 2.334645763039588928e-02 -2.456352114677429199e-02 8.180779404938220978e-03 1.548094488680362701e-02 -5.608127685263752937e-04 6.107088178396224976e-02 -2.666166983544826508e-02 1.712923170998692513e-03 -4.886837676167488098e-03 -4.262986034154891968e-02 -9.620930068194866180e-03 -1.669070479692891240e-04 1.673584431409835815e-02 -2.954140305519104004e-02 3.384030237793922424e-02 2.108075283467769623e-02 -1.169069763273000717e-02 5.300597846508026123e-02 -9.569067507982254028e-03 2.010758034884929657e-02 1.722812466323375702e-02 9.003719314932823181e-03 -8.215378038585186005e-03 -6.434389390051364899e-03 -1.816808246076107025e-02 8.690952323377132416e-03 1.522340159863233566e-02 -2.581348456442356110e-02 5.717445164918899536e-03 4.475286975502967834e-02 -4.581389075610786676e-04 -4.786354023963212967e-03 -2.183665521442890167e-02 2.685727924108505249e-02 1.894526765681803226e-03 1.774141006171703339e-02 2.207052707672119141e-02 8.900579996407032013e-03 -1.008961256593465805e-02 -2.688551880419254303e-02 -1.535975281149148941e-02 -1.063508074730634689e-02 -4.950904287397861481e-03 -2.254136279225349426e-02 3.450137749314308167e-02 -3.140885150060057640e-03 -7.548257708549499512e-03 1.256114151328802109e-02 -1.474021933972835541e-02 -2.767175203189253807e-03 1.702670566737651825e-02 1.865998096764087677e-02 -4.481818061321973801e-03 -3.380321338772773743e-02 2.283049561083316803e-02 -4.521636664867401123e-02 2.719869278371334076e-02 -3.033138439059257507e-02 7.212173193693161011e-03 1.304107997566461563e-02 4.307898692786693573e-03 -1.375965867191553116e-02 4.042598605155944824e-02 2.685351064428687096e-03 -5.813033203594386578e-05 -1.921587809920310974e-02 9.827866451814770699e-04 -2.097542211413383484e-02 2.123527973890304565e-02 -1.210042275488376617e-02 -3.289884328842163086e-02 5.293402075767517090e-02 -1.682041585445404053e-02 -1.863312721252441406e-02 2.894657431170344353e-03 9.919231757521629333e-03 2.267878875136375427e-02
1.021642587147653103e-03 -4.600991308689117432e-02 1.496016606688499451e-02 1.152175664901733398e-02 3.259535506367683411e-02 3.490531817078590393e-02 -1.480514556169509888e-02 -2.200707979500293732e-02 -5.860074888914823532e-03 -9.363313205540180206e-03 3.979768604040145874e-02 7.881695404648780823e-03 -5.928541067987680435e-03 1.454473193734884262e-02 -3.487303853034973145e-02 -1.579992100596427917e-02 -8.320750668644905090e-03 2.012203074991703033e-02 -1.269411854445934296e-02 -2.193391136825084686e-02 1.430153194814920425e-02 -3.142556548118591309e-02 -2.792986808344721794e-03 7.477772422134876251e-03 1.291266828775405884e-02 1.326188258826732635e-02 6.648655980825424194e-03 -3.935407474637031555e-02 2.268865704536437988e-03 6.314700935035943985e-03 1.855654641985893250e-02 2.991911396384239197e-02 -1.040000282227993011e-02 -4.360593110322952271e-02 2.271946752443909645e-03 -9.804171510040760040e-03 -6.305172108113765717e-03 -6.099998485296964645e-03 2.311309101060032845e-03 2.803458273410797119e-02 -2.338125556707382202e-02 -4.428187850862741470e-03 -2.385589666664600372e-02 3.096409142017364502e-02 -3.897523880004882812e-02 1.566213928163051605e-02 1.749657839536666870e-02 -1.351508684456348419e-02 -9.597827680408954620e-03 -2.141056768596172333e-02 1.069315150380134583e-02 1.057581044733524323e-02 -3.076031804084777832e-03 -7.556430064141750336e-03 -1.471650600433349609e-02 -4.193808883428573608e-02 4.375030472874641418e-02 -8.540197275578975677e-03 4.195996746420860291e-02 -9.171799756586551666e-03 -3.756593912839889526e-03 -1.046089269220829010e-02 1.065639406442642212e-02 -1.031535866786725819e-04 3.324831649661064148e-02 -3.737900173291563988e-03 3.133713454008102417e-02 -1.214599329978227615e-02 7.238166406750679016e-03 -1.908780634403228760e-02 -1.790607534348964691e-02 1.809740997850894928e-02 -7.535178214311599731e-03 5.229910835623741150e-02 3.472356824204325676e-03 -5.895438371226191521e-04 4.755811765789985657e-02 5.319579038769006729e-03 1.818090793676674366e-03 -1.691693440079689026e-02 -6.145823001861572266e-02 -2.725239470601081848e-02 7.981427013874053955e-03 -6.085960194468498230e-03 2.500667236745357513e-02 -1.054851152002811432e-02 4.629842564463615417e-02 -5.906836315989494324e-02 1.670135068707168102e-03 5.771987512707710266e-02 -3.688838705420494080e-02 5.497859418392181396e-02 2.575112972408533096e-03 -1.775770820677280426e-02 -1.526164542883634567e-02 2.004253305494785309e-02 1.649357192218303680e-02 -4.747770354151725769e-02 8.832788094878196716e-03 -3.433658927679061890e-02 -1.560017652809619904e-02 -1.235529128462076187e-02 2.985222497954964638e-03 -4.437163472175598145e-03 1.061344053596258163e-02 -2.568817511200904846e-02 -3.613446652889251709e-02 -1.320531591773033142e-02 -2.240085601806640625e-02 -4.380234330892562866e-02 2.194618433713912964e-02 2.772303670644760132e-02 1.686304062604904175e-02 5.007648468017578125e-02 -1.173432171344757080e-02 -4.020232707262039185e-02 -5.703611765056848526e-03 3.677024506032466888e-03 -2.004787325859069824e-02 3.468058258295059204e-02 -2.557687088847160339e-02 1.661084406077861786e-02 6.552443839609622955e-03 2.826356515288352966e-02 -2.280098013579845428e-02 6.641640211455523968e-04 2.608048729598522186e-02 3.572859615087509155e-02
2.741914242506027222e-02 1.476022531278431416e-03 -2.918657846748828888e-03 8.856899105012416840e-03 -2.091795206069946289e-02 -3.149358183145523071e-02 2.441552653908729553e-02 4.747891053557395935e-02 -2.189013734459877014e-02 -4.697716981172561646e-02 -2.666742913424968719e-02 2.040792256593704224e-02 -9.394059889018535614e-03 -1.089462358504533768e-02 -4.662217572331428528e-02 -2.541030757129192352e-02 1.528178155422210693e-02 -5.198581609874963760e-03 9.141044691205024719e-03 -2.828272804617881775e-02 -1.663475483655929565e-02 -6.943450868129730225e-02 -7.873851060867309570e-02 5.404241848737001419e-03 7.846069522202014923e-03 -4.482728894799947739e-03 1.254022587090730667e-02 2.256498113274574280e-02 2.936021238565444946e-02 8.224442601203918457e-03 -1.397412829101085663e-02 9.302965365350246429e-03 -2.813084051012992859e-03 -2.766027860343456268e-02 -3.756948560476303101e-02 -2.620062790811061859e-03 -3.617776557803153992e-02 -5.431189388036727905e-02 5.725698918104171753e-02 -1.864382624626159668e-02 7.081734016537666321e-03 -8.449870161712169647e-03 -4.398840293288230896e-02 1.826656237244606018e-02 1.865642890334129333e-02 6.710883229970932007e-02 -1.322379056364297867e-02 5.803157389163970947e-02 -2.395910397171974182e-02 5.792615935206413269e-03 -1.094587333500385284e-02 5.526314303278923035e-02 -3.089924901723861694e-02 -1.618411391973495483e-02 1.541475579142570496e-02 4.796365683432668447e-04 -4.115731641650199890e-02 -1.931926049292087555e-02 3.256385400891304016e-02 3.238498466089367867e-03 6.211064010858535767e-02 3.324464336037635803e-02 -2.590022981166839600e-02 7.689816411584615707e-03 -2.934426069259643555e-02 -2.271256782114505768e-02 2.729378826916217804e-02 -1.024245191365480423e-02 3.636826574802398682e-02 -1.493326108902692795e-02 1.681350357830524445e-02 1.071923319250345230e-02 -2.019135653972625732e-02 8.512284606695175171e-03 8.282399736344814301e-03 -6.967441644519567490e-03 5.639231577515602112e-02 2.098270488204434514e-04 2.139990590512752533e-02 -5.009047314524650574e-02 -2.472914382815361023e-02 -2.039237879216670990e-02 3.402903676033020020e-02 -1.979086734354496002e-02 2.864882722496986389e-02 3.458463400602340698e-02 -2.285264432430267334e-02 4.928250983357429504e-02 -2.533773519098758698e-02 2.717438619583845139e-03 -4.523503035306930542e-02 1.361508108675479889e-02 -5.606834747595712543e-05 3.224378824234008789e-02 3.115087375044822693e-02 -3.717850521206855774e-02 5.759312584996223450e-02 -4.300587624311447144e-02 -2.106987498700618744e-02 -9.669053368270397186e-03 3.829827532172203064e-02 1.290541701018810272e-02 -1.570856012403964996e-02 1.083530392497777939e-02 -4.125409200787544250e-02 -1.922747120261192322e-02 3.655555844306945801e-02 -1.642495510168373585e-03 4.139655455946922302e-02 -4.283655807375907898e-02 -3.788634389638900757e-02 5.333625897765159607e-02 6.183893233537673950e-02 -1.465814188122749329e-02 -2.239250019192695618e-02 2.412130869925022125e-02 1.882723718881607056e-02 -1.018454600125551224e-02 1.526467408984899521e-02 -1.050996221601963043e-02 4.410136863589286804e-02 2.091463096439838409e-02 -3.994604048784822226e-04 -2.212902903556823730e-02 2.807771414518356323e-02 4.638799466192722321e-03 1.157185900956392288e-02 4.851127788424491882e-02
