-7.981777191162109375e-02 -9.917145362123847008e-04 -3.427746519446372986e-02 2.719092555344104767e-02 1.098707318305969238e-01 -4.056775197386741638e-02 3.087931079789996147e-03 3.013589605689048767e-02 -1.418546494096517563e-02 5.161611735820770264e-02 4.596981033682823181e-02 -2.568284049630165100e-02 1.187055185437202454e-02 4.293855454307049513e-04 -1.866268552839756012e-02 3.297511488199234009e-03 -7.375650852918624878e-02 1.129961106926202774e-03 -2.142114751040935516e-02 6.172364205121994019e-02 5.328160151839256287e-02 -1.882235519587993622e-02 7.169545162469148636e-03 -3.717868775129318237e-02 7.712599635124206543e-02 -1.301691494882106781e-02 -5.283338949084281921e-02 4.436483606696128845e-02 2.113910578191280365e-02 6.328425370156764984e-03 -3.717630356550216675e-02 -1.513376086950302124e-02 -2.169806137681007385e-02 5.136893317103385925e-02 -7.181868422776460648e-03 -2.098182775080204010e-02 -5.419767647981643677e-02 2.458715997636318207e-02 9.109582751989364624e-02 -3.014193847775459290e-02 1.290825158357620239e-01 -7.276412844657897949e-02 5.302877724170684814e-02 2.395045571029186249e-02 -8.789196610450744629e-02 -5.173762515187263489e-02 1.409739349037408829e-02 3.249344229698181152e-02 -6.591453403234481812e-02 3.652888536453247070e-02 -7.803090382367372513e-03 1.871933043003082275e-02 3.095359168946743011e-02 3.188596665859222412e-02 6.946595385670661926e-04 2.259221673011779785e-02 -5.505412444472312927e-02 4.652988165616989136e-02 4.662587866187095642e-02 -1.210865452885627747e-01 2.467674389481544495e-02 2.018990740180015564e-02 4.066511616110801697e-02 -9.685768932104110718e-02 6.973053794354200363e-03 -7.365145534276962280e-02 1.413138955831527710e-02 -1.623109728097915649e-02 -5.867224559187889099e-02 -4.836530610918998718e-02 -3.662898018956184387e-02 -1.344121340662240982e-02 -3.599542379379272461e-02 2.886267937719821930e-02 8.301763981580734253e-02 -6.453926861286163330e-02 1.069603674113750458e-02 1.157752871513366699e-01 -9.942462295293807983e-02 -2.676392532885074615e-02 -3.738609701395034790e-02 -4.671537503600120544e-02 8.054556697607040405e-02 -2.680944837629795074e-02 3.908377513289451599e-02 3.560110926628112793e-02 3.051993064582347870e-02 3.790086193475872278e-04 -4.549141600728034973e-02 -3.886421397328376770e-02 5.160075798630714417e-02 9.189941920340061188e-03 1.657914929091930389e-02 8.764810115098953247e-02 3.886506333947181702e-02 9.467621333897113800e-03 7.037160918116569519e-03 -1.269251853227615356e-02 3.300076117739081383e-03 4.526801407337188721e-02 -7.098750211298465729e-03 -6.787740159779787064e-03 -3.083446435630321503e-02 6.562137603759765625e-02 2.181362593546509743e-03 -1.000071130692958832e-02 -4.756028577685356140e-02 -4.908396303653717041e-02 -2.131308428943157196e-03 -5.914111807942390442e-02 8.918959647417068481e-02 -2.128648571670055389e-03 4.467136785387992859e-02 -4.364921897649765015e-02 2.295778878033161163e-02 -1.142655126750469208e-02 8.600798435509204865e-03 3.339393809437751770e-02 -4.532406479120254517e-02 -4.723630473017692566e-02 -8.626058115623891354e-04 -2.216745167970657349e-02 7.547746598720550537e-02 6.658723950386047363e-02 8.554348349571228027e-02 -3.037894330918788910e-02 -4.673127084970474243e-02 3.647676482796669006e-02
-2.498305635526776314e-03 3.526957007125020027e-03 3.837393224239349365e-02 -7.805287837982177734e-02 -7.556867599487304688e-02 -6.538790185004472733e-03 1.989571005105972290e-02 -2.119934000074863434e-02 9.500708431005477905e-02 1.756354235112667084e-02 -3.912276774644851685e-02 1.344379037618637085e-02 -4.029303323477506638e-03 -4.762921482324600220e-02 1.141190808266401291e-02 2.540812268853187561e-02 2.159251831471920013e-02 1.128423679620027542e-02 9.866589680314064026e-03 2.019418962299823761e-02 -1.769626699388027191e-02 3.523772209882736206e-02 5.695778131484985352e-02 -4.691533371806144714e-02 -3.838039934635162354e-02 -8.723421022295951843e-03 1.084437780082225800e-02 -3.378328634425997734e-03 -4.472003132104873657e-02 -3.077943250536918640e-02 1.713475584983825684e-02 -1.268675457686185837e-02 -1.547575090080499649e-02 -2.279826812446117401e-02 -4.146803915500640869e-02 6.127471476793289185e-02 6.007153168320655823e-02 2.402027323842048645e-02 -7.918630144558846951e-04 5.357064306735992432e-02 -3.093194216489791870e-02 -7.407951354980468750e-02 -2.081662416458129883e-02 1.236554794013500214e-02 3.636269830167293549e-03 -1.167147699743509293e-02 -1.419283729046583176e-02 1.336859166622161865e-02 -2.703707898035645485e-03 -1.792377047240734100e-02 5.034847930073738098e-02 -2.693348564207553864e-02 -7.882075011730194092e-02 3.692765533924102783e-02 -1.509178429841995239e-02 4.647425189614295959e-02 -2.583122812211513519e-02 5.995943024754524231e-02 -2.088514901697635651e-02 2.152910688892006874e-03 1.005734875798225403e-02 -2.192003652453422546e-02 -4.099381715059280396e-02 -1.585991494357585907e-02 5.489109456539154053e-02 -7.268679887056350708e-02 -1.209499686956405640e-02 2.199960127472877502e-02 -6.746271252632141113e-02 -3.459772095084190369e-02 -1.262034289538860321e-02 -5.753021221607923508e-03 -2.199010178446769714e-02 2.691395767033100128e-02 5.584931373596191406e-02 4.321859404444694519e-02 4.450868442654609680e-02 -2.483480796217918396e-02 4.239450208842754364e-03 -3.213259577751159668e-02 -9.580642916262149811e-03 -2.964247018098831177e-02 -6.741983443498611450e-02 -1.612681709229946136e-02 7.377285510301589966e-02 3.689686208963394165e-02 1.149308495223522186e-02 6.278663058765232563e-04 -8.380628377199172974e-02 6.213370710611343384e-02 7.093928754329681396e-03 -2.407423406839370728e-02 -1.855073263868689537e-03 -1.796991750597953796e-02 -1.527336984872817993e-02 -2.141163311898708344e-02 -6.335985660552978516e-02 7.251992076635360718e-02 -3.195773065090179443e-02 3.355426341295242310e-02 7.112143188714981079e-02 -1.637070253491401672e-02 2.468603290617465973e-02 -7.206990849226713181e-03 9.129878878593444824e-02 4.980251193046569824e-02 1.080791372805833817e-02 -5.511934868991374969e-03 4.910781607031822205e-02 -2.580430544912815094e-02 5.019200220704078674e-02 2.367320097982883453e-02 5.573726817965507507e-02 -7.225742097944021225e-03 6.578568834811449051e-03 -1.722328364849090576e-02 8.398000895977020264e-02 4.243848845362663269e-02 -3.726420924067497253e-02 2.165924571454524994e-02 3.513400256633758545e-02 -3.351718559861183167e-02 -4.927408322691917419e-02 9.017125703394412994e-03 4.854089021682739258e-02 3.900148719549179077e-02 -1.712327636778354645e-02 -1.134642213582992554e-02
-2.448080293834209442e-02 -1.530695986002683640e-02 -1.257565803825855255e-02 -3.320208936929702759e-02 -7.071458734571933746e-03 9.603239595890045166e-03 7.080690935254096985e-03 1.999685773625969887e-03 -4.670720547437667847e-02 5.175631493330001831e-03 1.997736096382141113e-02 -2.591771446168422699e-02 -3.136488422751426697e-02 9.513580799102783203e-02 1.179670821875333786e-02 -3.048139996826648712e-02 4.026959463953971863e-02 -9.733869694173336029e-03 -3.122758865356445312e-02 -4.720007628202438354e-02 1.795107871294021606e-02 4.028432071208953857e-03 -2.780626155436038971e-02 4.756547510623931885e-03 -2.158365957438945770e-02 3.008000738918781281e-02 2.331364899873733521e-02 -5.199122801423072815e-02 -4.262015968561172485e-02 -2.307869866490364075e-02 -1.215019449591636658e-02 3.278597444295883179e-02 -1.514834165573120117e-02 4.220474977046251297e-03 4.141844063997268677e-02 4.079791903495788574e-02 2.185658179223537445e-02 2.833510749042034149e-02 -9.704888612031936646e-02 -2.370423264801502228e-02 4.860719665884971619e-02 -2.347061038017272949e-02 2.272713184356689453e-02 6.337407045066356659e-03 -1.089328620582818985e-02 2.686815708875656128e-02 -3.288802877068519592e-02 -5.205863341689109802e-02 4.863267391920089722e-02 -8.706876076757907867e-03 -4.096119850873947144e-02 -5.314593389630317688e-02 3.236499056220054626e-02 1.557322125881910324e-02 -5.421242490410804749e-02 -1.353594753891229630e-02 2.561263740062713623e-02 -8.188693225383758545e-02 -3.798128291964530945e-02 -8.591555990278720856e-03 -4.209669679403305054e-02 2.660704776644706726e-02 4.005719721317291260e-02 4.510434716939926147e-02 -6.771433167159557343e-03 1.306417677551507950e-02 -4.477416351437568665e-02 2.271476574242115021e-02 3.076358698308467865e-02 3.134565055370330811e-02 -6.103119347244501114e-03 9.738598018884658813e-02 6.913373619318008423e-02 1.215831562876701355e-02 -4.454866982996463776e-03 -2.914942335337400436e-03 -3.272475302219390869e-02 7.899693399667739868e-02 1.201281882822513580e-02 -3.788863075897097588e-03 -2.508399635553359985e-02 2.715720608830451965e-02 1.544534601271152496e-02 -8.609016239643096924e-02 -1.132628601044416428e-02 -5.553912371397018433e-03 6.113626807928085327e-02 5.795648694038391113e-02 1.705207303166389465e-02 -2.202272601425647736e-02 1.602173969149589539e-02 -4.025346413254737854e-02 -3.028353676199913025e-02 -7.714804727584123611e-03 -2.531998045742511749e-02 5.500170961022377014e-02 -3.554756194353103638e-02 1.259289495646953583e-02 -2.252372354269027710e-02 -1.714691147208213806e-02 1.765747671015560627e-03 -4.134000837802886963e-02 -2.318872697651386261e-02 1.910517923533916473e-02 -2.930048480629920959e-02 -2.500110538676381111e-03 2.546364068984985352e-02 6.635713577270507812e-02 -9.377823211252689362e-03 -1.425265520811080933e-02 2.457576431334018707e-02 3.516078926622867584e-03 -8.510793745517730713e-02 7.424016296863555908e-02 1.781924744136631489e-03 2.925192564725875854e-02 -4.951547831296920776e-03 8.150059729814529419e-02 3.103599324822425842e-02 1.006224676966667175e-01 -7.395487278699874878e-03 -1.124878320842981339e-02 1.461068168282508850e-02 -2.324655419215559959e-03 1.882557570934295654e-02 2.986171282827854156e-02 1.747355796396732330e-02 -3.173104301095008850e-02
1.068648416548967361e-02 3.649821132421493530e-02 4.176129400730133057e-02 4.572397097945213318e-03 -1.017522066831588745e-02 -1.166964787989854813e-02 5.515647307038307190e-02 3.204759210348129272e-02 -3.543332964181900024e-02 -1.693910360336303711e-02 5.152811482548713684e-02 -5.201643705368041992e-02 -3.215993940830230713e-02 -1.367146056145429611e-02 -3.602678328752517700e-02 -6.744477897882461548e-02 3.708418831229209900e-02 9.376663714647293091e-02 7.357277721166610718e-02 9.794388897716999054e-03 -1.632956229150295258e-02 -1.603287644684314728e-02 7.705910596996545792e-03 -2.778451330959796906e-02 -9.345413185656070709e-03 -3.742686286568641663e-02 -3.983013331890106201e-02 2.986258082091808319e-02 3.983195871114730835e-02 -5.354265123605728149e-02 -2.720229513943195343e-02 -3.014324232935905457e-02 3.449526801705360413e-02 2.484746091067790985e-02 1.622569374740123749e-02 -3.194450587034225464e-02 3.405689820647239685e-02 2.167995786294341087e-03 -4.493170604109764099e-02 -2.110621333122253418e-02 -4.129045642912387848e-03 1.338942721486091614e-02 -1.451522391289472580e-02 -1.866570906713604927e-03 2.650576177984476089e-03 -3.270339965820312500e-02 3.895179182291030884e-02 2.224841155111789703e-02 9.295395575463771820e-03 -1.676018815487623215e-03 -7.350647449493408203e-02 3.819786384701728821e-02 -3.730501607060432434e-02 -3.225655853748321533e-02 2.636897750198841095e-02 1.940539851784706116e-02 2.271882072091102600e-02 -3.803825750946998596e-02 1.080831512808799744e-02 4.319380596280097961e-02 2.304207347333431244e-02 2.381293103098869324e-02 1.668860763311386108e-02 -2.306454814970493317e-02 -2.423956803977489471e-02 -2.096881903707981110e-02 1.759863086044788361e-02 4.147341474890708923e-02 8.425131440162658691e-02 -7.486523594707250595e-03 -7.509935647249221802e-02 -5.503192916512489319e-02 1.066548675298690796e-01 -5.183261260390281677e-02 -1.591165928402915597e-04 -1.265152078121900558e-02 -3.146399185061454773e-02 -2.882547117769718170e-02 3.952413797378540039e-02 1.263969112187623978e-02 5.512007698416709900e-02 4.374337941408157349e-02 5.463371053338050842e-02 -1.521035749465227127e-02 1.033825334161520004e-02 -2.848136052489280701e-02 3.102776035666465759e-02 2.361182682216167450e-02 4.562912043184041977e-03 -4.377065226435661316e-02 9.605034254491329193e-03 1.168438611784949899e-04 -3.035879880189895630e-02 -9.807799011468887329e-03 -2.389992587268352509e-02 -4.205268248915672302e-02 5.929159373044967651e-02 2.684528008103370667e-02 -3.021363168954849243e-02 -1.402050070464611053e-02 6.174088642001152039e-02 -1.828740350902080536e-02 -3.000646270811557770e-02 1.874731853604316711e-02 -8.031597733497619629e-02 3.823442012071609497e-02 1.445085555315017700e-02 1.185251981951296329e-03 -3.216563910245895386e-02 -6.363850086927413940e-02 1.059336680918931961e-02 2.109822072088718414e-02 -2.250319579616189003e-03 -4.764045402407646179e-02 5.103899538516998291e-02 5.073717609047889709e-02 -7.980232127010822296e-03 8.631948381662368774e-03 3.213024884462356567e-02 -5.974327679723501205e-03 -3.202101914212107658e-03 1.316063757985830307e-02 7.170932833105325699e-03 -4.154633730649948120e-02 1.034140959382057190e-02 -5.732523277401924133e-04 3.678376600146293640e-02 4.498415626585483551e-03
3.626284748315811157e-02 3.681417182087898254e-02 3.285287693142890930e-02 1.110293716192245483e-02 -8.435166673734784126e-04 5.126275122165679932e-02 6.219415366649627686e-02 -3.645933791995048523e-02 5.142216570675373077e-03 -3.507059812545776367e-02 5.154368281364440918e-02 -1.042109169065952301e-02 5.068801343441009521e-02 -2.069605281576514244e-03 1.190372928977012634e-02 3.647683560848236084e-02 -3.523597866296768188e-02 5.637587606906890869e-02 5.157444998621940613e-02 3.570716083049774170e-02 2.132576331496238708e-02 -3.650358319282531738e-02 -2.493804693222045898e-02 -6.108768656849861145e-02 6.814574450254440308e-02 -1.196863595396280289e-02 -1.586664095520973206e-02 2.872586436569690704e-02 3.682053089141845703e-02 5.428864620625972748e-03 9.971671737730503082e-03 5.793406441807746887e-02 -2.057872712612152100e-03 -2.149220742285251617e-02 4.224804788827896118e-02 2.611273899674415588e-02 -2.854118496179580688e-02 5.696692038327455521e-03 4.554716404527425766e-03 -3.388231992721557617e-02 -5.153367295861244202e-03 5.119156464934349060e-02 4.229981452226638794e-02 -7.543233688920736313e-03 3.561207279562950134e-02 -2.401142194867134094e-02 -4.205632582306861877e-02 -5.278587341308593750e-03 5.535661801695823669e-02 -1.188458204269409180e-01 -3.490632772445678711e-02 -4.174348339438438416e-02 2.980795688927173615e-02 -5.680383369326591492e-02 -2.937823534011840820e-02 3.727836534380912781e-03 -2.343766577541828156e-02 -1.026329025626182556e-02 -1.684820652008056641e-02 1.350352261215448380e-02 -5.059286952018737793e-03 -7.297257427126169205e-03 -2.613169886171817780e-02 8.373617194592952728e-03 -4.075531847774982452e-03 -2.963934466242790222e-02 4.362750425934791565e-02 4.105504602193832397e-02 3.510795533657073975e-02 1.377338916063308716e-02 5.359015241265296936e-02 -3.828494995832443237e-02 2.413984201848506927e-02 -1.963670365512371063e-02 -2.653953805565834045e-02 -2.628610841929912567e-02 -4.350805282592773438e-02 2.823784947395324707e-02 1.999998465180397034e-02 -6.029571220278739929e-02 5.361374467611312866e-02 5.140956491231918335e-02 1.126208249479532242e-02 -1.404785551130771637e-02 -3.265284467488527298e-03 1.253612712025642395e-02 -4.925934597849845886e-02 2.111799642443656921e-02 5.374891217797994614e-03 1.013064756989479065e-02 -1.658065803349018097e-02 1.762791723012924194e-02 -3.277902305126190186e-02 -3.255615301895886660e-04 -2.405583113431930542e-02 2.891608886420726776e-02 2.129853144288063049e-02 -1.599010266363620758e-02 -7.907240069471299648e-04 1.308019831776618958e-02 -2.564977295696735382e-02 -4.187725484371185303e-02 8.623926900327205658e-03 3.284812718629837036e-02 -7.198977470397949219e-02 -7.161610759794712067e-03 -2.640471095219254494e-03 2.931718714535236359e-02 -2.632503211498260498e-02 2.702573547139763832e-03 -3.773934766650199890e-02 -2.788094617426395416e-02 -2.146563306450843811e-02 -6.023171357810497284e-03 -3.670652955770492554e-02 5.078994110226631165e-02 -2.528245933353900909e-02 2.768681198358535767e-02 -4.836654663085937500e-02 -6.520917266607284546e-02 1.627168734557926655e-03 2.367277629673480988e-02 7.820233702659606934e-03 -4.249287769198417664e-02 3.361783176660537720e-02 -1.344610936939716339e-02 3.482395038008689880e-02 -1.276856008917093277e-02
1.842257007956504822e-02 -3.820060193538665771e-02 1.542833074927330017e-02 -1.371900923550128937e-02 9.985361248254776001e-03 5.945952609181404114e-02 9.664408862590789795e-03 -3.458812087774276733e-02 -1.399900298565626144e-02 2.259776741266250610e-02 1.562858116813004017e-03 1.458331663161516190e-02 8.527573943138122559e-02 7.891573756933212280e-02 -2.498976700007915497e-02 -4.044361039996147156e-02 -3.506382554769515991e-02 -2.245787717401981354e-02 2.828264608979225159e-02 1.050689537078142166e-02 -4.581979289650917053e-02 2.167737670242786407e-02 -1.074727717787027359e-02 2.456238120794296265e-02 5.223368108272552490e-02 -7.425506599247455597e-03 4.178137704730033875e-02 2.463828027248382568e-02 9.509167075157165527e-02 -8.632687851786613464e-03 -7.120855152606964111e-02 4.003206640481948853e-02 -6.560369511134922504e-04 8.922289311885833740e-02 1.874837838113307953e-02 3.200862556695938110e-02 -3.877829760313034058e-02 -6.460546702146530151e-02 -3.712880983948707581e-02 -2.349961362779140472e-02 4.707271978259086609e-02 8.549571782350540161e-02 -3.758937120437622070e-02 8.286008611321449280e-03 3.450901433825492859e-02 -2.937925793230533600e-02 3.125996561720967293e-03 -2.445668540894985199e-02 -3.171299351379275322e-03 -4.164062440395355225e-02 -1.562663726508617401e-02 -5.553180351853370667e-03 1.916150376200675964e-02 -1.843364723026752472e-02 5.727712064981460571e-02 -4.778507724404335022e-02 1.105208136141300201e-02 -3.275731112807989120e-03 -2.518477663397789001e-02 2.268344163894653320e-02 -1.969432272017002106e-02 -3.708686679601669312e-02 1.783114671707153320e-02 5.351492762565612793e-02 3.719957917928695679e-02 3.075906448066234589e-02 1.764212548732757568e-02 -1.622796058654785156e-02 -8.714503608644008636e-03 4.544150084257125854e-03 2.429931983351707458e-02 -5.267380550503730774e-02 -1.638385467231273651e-02 -5.669913068413734436e-02 -2.514739520847797394e-02 -2.465896680951118469e-02 3.892001113854348660e-04 -4.208046942949295044e-03 3.444167599081993103e-02 -1.106983330100774765e-02 6.940274499356746674e-03 -4.734890908002853394e-02 8.926229551434516907e-03 3.351825848221778870e-02 -2.675739862024784088e-02 5.624801851809024811e-03 -2.873345278203487396e-02 3.688098490238189697e-02 5.851557478308677673e-02 -1.114088203758001328e-02 4.691676795482635498e-02 -1.245890092104673386e-02 4.626005887985229492e-02 3.308380395174026489e-02 -8.758763968944549561e-02 -1.865483075380325317e-02 1.743082975735887885e-04 -6.130227819085121155e-02 6.539233773946762085e-02 2.157878503203392029e-02 6.496948772110044956e-04 -1.655871234834194183e-02 -3.674604371190071106e-02 -2.775748632848262787e-02 4.280124790966510773e-03 1.351324096322059631e-02 -2.439571171998977661e-02 -6.602164357900619507e-02 8.150742389261722565e-03 5.432377010583877563e-02 -4.631146416068077087e-02 4.971296526491641998e-03 -3.115543536841869354e-02 -1.544385589659214020e-02 -3.184702992439270020e-02 3.084830474108457565e-03 6.744985468685626984e-03 -6.523469090461730957e-02 4.284369945526123047e-02 1.809838041663169861e-02 -6.521591451019048691e-03 5.659056454896926880e-02 -3.785175085067749023e-02 4.211438447237014771e-02 -4.618237540125846863e-02 -5.872643087059259415e-03 -2.712629968300461769e-03 2.765376679599285126e-02
6.868407875299453735e-02 4.910778254270553589e-02 -3.006896004080772400e-02 7.903648167848587036e-02 -2.087046951055526733e-02 1.923072710633277893e-02 -2.642598748207092285e-02 1.634484715759754181e-02 -5.555850267410278320e-02 -1.843244396150112152e-02 -1.863030344247817993e-02 1.602997444570064545e-02 2.821443369612097740e-03 -3.587636863812804222e-03 3.481762018054723740e-03 6.206278130412101746e-02 -3.655757522210478783e-03 1.608757860958576202e-02 -1.680459454655647278e-02 -8.542905747890472412e-02 -2.911510132253170013e-02 -7.027728110551834106e-02 -2.310252562165260315e-02 7.748425006866455078e-02 -2.683110162615776062e-02 -4.584822803735733032e-03 2.326191216707229614e-02 -2.401825226843357086e-02 -3.784099966287612915e-02 -3.189398720860481262e-02 5.405912548303604126e-02 -4.371488839387893677e-02 -3.613372519612312317e-02 -2.972413972020149231e-02 8.564935624599456787e-02 -3.727639839053153992e-02 -4.187018610537052155e-03 2.624933794140815735e-02 9.026689454913139343e-03 6.260348856449127197e-02 -3.721950948238372803e-02 2.971358783543109894e-02 -3.749969229102134705e-02 -1.584408804774284363e-02 -1.175424666143953800e-03 3.801431506872177124e-02 5.414411425590515137e-03 -1.859365589916706085e-02 -3.491115942597389221e-02 7.708275690674781799e-03 2.556665241718292236e-02 2.605828084051609039e-02 3.745740279555320740e-02 6.174961104989051819e-02 1.316935475915670395e-02 -3.924532502423971891e-04 5.651282891631126404e-02 -3.652610629796981812e-02 -4.058958962559700012e-03 -4.349011555314064026e-02 -2.361947856843471527e-02 -1.114648487418889999e-02 -2.571012265980243683e-02 6.644071638584136963e-02 5.524316802620887756e-03 6.758516281843185425e-02 -4.226186126470565796e-02 -9.653958678245544434e-02 -1.283870264887809753e-02 2.733561955392360687e-02 6.569446623325347900e-02 -1.144608203321695328e-02 -4.198600724339485168e-02 2.118053473532199860e-02 -8.441068977117538452e-02 3.249959275126457214e-02 5.050979554653167725e-02 -3.174505382776260376e-02 3.934848064091056585e-04 5.132772028446197510e-02 -1.929219998419284821e-02 4.644932597875595093e-02 -3.493436053395271301e-02 -2.443956909701228142e-03 -3.335937485098838806e-02 6.420201156288385391e-03 -3.368568792939186096e-02 -7.648083567619323730e-02 -2.450172603130340576e-02 4.593499749898910522e-02 -1.003371328115463257e-01 1.286345766857266426e-03 -1.563415303826332092e-02 -5.533580482006072998e-02 3.076508268713951111e-02 -3.301271423697471619e-02 3.348280489444732666e-02 -4.460742697119712830e-02 -4.227601736783981323e-02 -8.770575374364852905e-02 1.270137354731559753e-02 -1.644125394523143768e-02 4.961192235350608826e-02 -4.374172165989875793e-02 -2.323031611740589142e-02 -5.450591444969177246e-02 7.625506818294525146e-02 8.240233361721038818e-02 -1.933902129530906677e-02 3.295492380857467651e-02 -4.442896321415901184e-02 -1.530207321047782898e-02 6.086972728371620178e-02 -8.068684488534927368e-03 -5.000907182693481445e-02 -3.275811672210693359e-02 -3.231929615139961243e-02 -6.253886967897415161e-03 4.892411082983016968e-02 -5.347221158444881439e-03 -5.747645627707242966e-03 8.773511275649070740e-03 8.133742958307266235e-03 -5.884445831179618835e-02 -2.740627154707908630e-02 5.617181584239006042e-02 -2.595781348645687103e-02 3.910147398710250854e-02
-4.797391220927238464e-02 3.154615312814712524e-02 6.267473101615905762e-02 -2.104391157627105713e-02 5.922476202249526978e-02 -3.898106282576918602e-03 -4.991893470287322998e-02 -4.624383896589279175e-02 1.716503640636801720e-03 2.310901507735252380e-02 7.790272682905197144e-02 -4.272850975394248962e-02 -1.210048515349626541e-02 1.626029796898365021e-02 -1.601300016045570374e-02 -1.620920188724994659e-02 5.817084759473800659e-02 -5.577139556407928467e-03 3.885954618453979492e-02 -5.346190650016069412e-03 3.452005982398986816e-02 2.143248729407787323e-02 -1.225311402231454849e-02 1.188675314188003540e-02 3.268509404733777046e-03 -2.813971415162086487e-02 -5.685862619429826736e-03 2.560006920248270035e-03 -3.037271276116371155e-02 -9.377381764352321625e-03 1.747076772153377533e-02 -2.218245062977075577e-03 1.639322028495371342e-03 -3.678803518414497375e-02 -4.955771937966346741e-02 -1.605075225234031677e-02 -3.887537866830825806e-02 -6.760890781879425049e-02 -6.500680930912494659e-03 -8.451484888792037964e-02 -4.603041335940361023e-02 1.717752078548073769e-03 3.367076441645622253e-02 -2.564264461398124695e-02 2.608601935207843781e-02 -5.800269916653633118e-02 3.167249727994203568e-03 -2.691936679184436798e-02 2.261683531105518341e-02 1.647616177797317505e-02 -4.440956935286521912e-02 6.929444614797830582e-03 -1.941729523241519928e-02 -1.979401148855686188e-02 -4.723995923995971680e-03 -3.190868347883224487e-02 1.116422004997730255e-02 -5.488752853125333786e-03 -8.003148250281810760e-03 7.214567065238952637e-02 1.235239766538143158e-02 -9.012781083583831787e-02 3.386220708489418030e-02 -6.615610793232917786e-03 -3.446151316165924072e-02 4.693105071783065796e-02 2.045546472072601318e-02 4.446318000555038452e-02 6.385307013988494873e-02 1.732107810676097870e-02 2.690409310162067413e-02 3.794487938284873962e-02 5.795729160308837891e-02 5.208002030849456787e-02 6.493950635194778442e-02 9.930995292961597443e-03 -1.914130523800849915e-02 -9.294029325246810913e-02 -8.340176194906234741e-03 6.156127527356147766e-02 5.770816002041101456e-03 3.310585767030715942e-02 7.720442116260528564e-02 8.633187972009181976e-03 -5.119354277849197388e-02 -3.187025710940361023e-02 -5.815735086798667908e-03 -2.773136086761951447e-02 3.867084160447120667e-02 -4.300936311483383179e-02 -9.148568846285343170e-03 5.370030179619789124e-02 2.724725194275379181e-02 -5.020779371261596680e-02 -4.312521778047084808e-03 1.102436520159244537e-02 -2.989884465932846069e-03 8.090499043464660645e-02 5.974984541535377502e-02 1.352345943450927734e-02 -2.833932265639305115e-02 -5.866389349102973938e-02 -1.541065704077482224e-02 2.950739301741123199e-02 -3.908353671431541443e-02 -6.791270524263381958e-02 -9.578084945678710938e-02 -2.348452992737293243e-02 1.396897621452808380e-02 7.390008121728897095e-02 -6.273101083934307098e-03 -1.134441886097192764e-02 -1.722817495465278625e-02 -1.615166850388050079e-02 9.376020170748233795e-03 -6.305656582117080688e-02 -5.510983616113662720e-02 -3.165394067764282227e-02 -2.807281725108623505e-02 -2.276292629539966583e-02 1.971451193094253540e-02 -5.541195627301931381e-03 7.672964781522750854e-02 -3.293954953551292419e-02 -1.595125533640384674e-02 2.720056846737861633e-02 1.140153482556343079e-01 1.982868649065494537e-02
